SVM-light Version V6.02
0 # kernel type
3 # kernel parameter -d 
1 # kernel parameter -g 
1 # kernel parameter -s 
1 # kernel parameter -r 
empty# kernel parameter -u 
16 # highest feature index 
816 # number of training documents 
365 # number of support vectors plus 1 
1.0010633 # threshold b, each following line is a SV (starting with alpha*y)
-3.179064209387291106110744231053e-08 1:76 2:146 3:58 4:0 5:3 6:12 7:8 8:0 9:82 10:3 11:2 12:0 13:121 14:106 15:39 16:0 #
3.179064209387291106110744231053e-08 1:0 2:186 3:0 4:0 5:0 6:7093 7:0 8:0 9:0 10:251 11:0 12:0 13:0 14:104 15:0 16:0 #
3.179064209387291106110744231053e-08 1:0 2:76 3:7 4:0 5:0 6:107119 7:14 8:0 9:31 10:87 11:26 12:15 13:7057 14:113 15:37 16:0 #
3.179064209387291106110744231053e-08 1:1 2:107 3:21 4:0 5:4726 6:83 7:25 8:0 9:0 10:76 11:7 12:0 13:0 14:107119 15:14 16:0 #
-3.179064209387291106110744231053e-08 1:82 2:136 3:159 4:0 5:519 6:13882 7:162 8:0 9:0 10:132 11:160 12:0 13:2 14:145 15:160 16:0 #
-3.179064209387291106110744231053e-08 1:2 2:416 3:63 4:0 5:2 6:156 7:41 8:0 9:184 10:335 11:30 12:0 13:2 14:509 15:25 16:0 #
-3.179064209387291106110744231053e-08 1:2 2:1763 3:1246 4:3 5:6 6:57 7:25 8:250 9:2 10:84 11:12 12:55 13:14 14:21 15:9 16:0 #
3.179064209387291106110744231053e-08 1:0 2:107119 3:14 4:0 5:31 6:87 7:26 8:15 9:7057 10:113 11:37 12:0 13:0 14:122 15:32 16:1 #
-3.179064209387291106110744231053e-08 1:0 2:169 3:87 4:0 5:106 6:192 7:73 8:0 9:23599 10:234 11:27 12:2 13:67 14:127 15:20 16:2 #
3.179064209387291106110744231053e-08 1:205 2:472 3:165 4:58 5:98 6:405 7:155 8:49 9:7193 10:428 11:83 12:0 13:1 14:325 15:111 16:0 #
-1.9453004023988505940892659385258e-08 1:96 2:54 3:5 4:0 5:3 6:81 7:32 8:0 9:0 10:114 11:16 12:0 13:2 14:148689 15:23 16:0 #
-4.0913288255242424767143189824354e-09 1:23352 2:164 3:82 4:0 5:10 6:125 7:84 8:0 9:1 10:136 11:88 12:0 13:5169 14:205 15:99 16:0 #
-3.179064209387291106110744231053e-08 1:0 2:87 3:92 4:0 5:0 6:189 7:95 8:2 9:333 10:435 11:82 12:120 13:7071 14:149 15:108 16:0 #
3.179064209387291106110744231053e-08 1:7 2:181 3:149 4:4 5:24 6:149 7:207 8:8 9:0 10:6844 11:1068 12:4 13:0 14:0 15:3 16:0 #
3.179064209387291106110744231053e-08 1:1 2:194 3:173 4:0 5:5856 6:208 7:38 8:1 9:0 10:75 11:16 12:0 13:4 14:119 15:30 16:0 #
-3.179064209387291106110744231053e-08 1:102 2:236 3:193 4:1 5:18 6:297 7:197 8:0 9:8 10:298 11:177 12:0 13:18 14:168 15:128 16:0 #
-3.179064209387291106110744231053e-08 1:42 2:207 3:99 4:0 5:174 6:312 7:90 8:0 9:0 10:706 11:76 12:0 13:4 14:163 15:81 16:6 #
-3.179064209387291106110744231053e-08 1:536 2:129 3:23 4:1 5:300 6:37 7:13 8:12 9:146 10:74 11:24 12:20 13:7131 14:125 15:19 16:0 #
-3.179064209387291106110744231053e-08 1:8 2:298 3:177 4:0 5:18 6:168 7:128 8:0 9:1 10:101 11:138 12:0 13:4 14:135 15:158 16:0 #
-2.5030623048978399569630681753551e-08 1:0 2:210 3:0 4:0 5:0 6:7162 7:0 8:0 9:0 10:20 11:0 12:0 13:0 14:216 15:0 16:0 #
-1.9270149616152621722573682477853e-08 1:2 2:148 3:34 4:1 5:71 6:146 7:42 8:0 9:116 10:123 11:27 12:0 13:0 14:87 15:31 16:0 #
-2.1859056158169296534519998598256e-08 1:429 2:244 3:164 4:0 5:25 6:385 7:233 8:1 9:1820 10:182 11:210 12:2 13:481 14:85 15:144 16:0 #
-3.179064209387291106110744231053e-08 1:1 2:114 3:27 4:1 5:3 6:159 7:32 8:0 9:5 10:109 11:19 12:0 13:123 14:93 15:7 16:0 #
-1.8151761068162199681841497246951e-08 1:0 2:175 3:105 4:0 5:0 6:85 7:85 8:0 9:11 10:1259 11:14701 12:1383 13:18 14:473 15:284 16:0 #
-3.179064209387291106110744231053e-08 1:9 2:238 3:251 4:205 5:4 6:155 7:170 8:5 9:1884 10:190 11:165 12:7 13:15256 14:127 15:167 16:0 #
-3.179064209387291106110744231053e-08 1:19 2:125 3:154 4:0 5:65 6:134 7:161 8:0 9:0 10:133 11:157 12:0 13:76 14:181 15:169 16:0 #
3.179064209387291106110744231053e-08 1:12463 2:202 3:85 4:5 5:0 6:136 7:86 8:0 9:0 10:173 11:89 12:0 13:0 14:125 15:82 16:0 #
-3.179064209387291106110744231053e-08 1:1820 2:182 3:210 4:2 5:481 6:85 7:144 8:0 9:136 10:121 11:144 12:0 13:82 14:136 15:159 16:0 #
3.179064209387291106110744231053e-08 1:9 2:87 3:12 4:0 5:12210 6:69 7:19 8:0 9:11857 10:142 11:16 12:0 13:2 14:144 15:22 16:0 #
3.179064209387291106110744231053e-08 1:443 2:2016 3:1619 4:0 5:427 6:121 7:158 8:0 9:10068 10:142 11:168 12:1 13:7743 14:200 15:168 16:94 #
-3.179064209387291106110744231053e-08 1:13 2:437 3:174 4:1 5:0 6:1985 7:170 8:0 9:0 10:645 11:153 12:0 13:7049 14:280 15:161 16:1 #
3.179064209387291106110744231053e-08 1:84 2:144 3:18 4:2 5:7118 6:152 7:45 8:0 9:643 10:160 11:39 12:0 13:152 14:178 15:30 16:0 #
-3.179064209387291106110744231053e-08 1:5 2:2442 3:2672 4:0 5:15 6:37 7:26 8:0 9:7 10:110 11:21 12:0 13:1 14:86 15:16 16:0 #
3.179064209387291106110744231053e-08 1:216 2:319 3:84 4:1 5:7084 6:2223 7:107 8:0 9:46 10:232 11:96 12:0 13:8 14:6929 15:87 16:5 #
-1.4399560103323105764161482511554e-20 1:0 2:20 3:0 4:0 5:0 6:216 7:0 8:0 9:0 10:8 11:0 12:0 13:0 14:30 15:0 16:0 #
3.179064209387291106110744231053e-08 1:0 2:277 3:40 4:150 5:2346 6:218 7:641 8:3459 9:1250 10:182 11:686 12:4 13:0 14:224 15:735 16:0 #
3.179064209387291106110744231053e-08 1:0 2:148 3:23 4:0 5:5477 6:359 7:38 8:7 9:26 10:110 11:20 12:0 13:32 14:165 15:29 16:0 #
-3.179064209387291106110744231053e-08 1:8 2:237 3:92 4:0 5:0 6:84 7:76 8:0 9:0 10:73 11:77 12:0 13:659 14:117 15:27 16:0 #
3.179064209387291106110744231053e-08 1:22 2:115 3:8 4:0 5:41 6:169 7:31 8:0 9:0 10:136 11:20 12:0 13:2 14:1602 15:1290 16:1 #
3.179064209387291106110744231053e-08 1:427 2:121 3:158 4:0 5:10068 6:142 7:168 8:1 9:7743 10:200 11:168 12:94 13:9 14:238 15:251 16:205 #
3.179064209387291106110744231053e-08 1:259 2:174 3:168 4:25 5:7080 6:195 7:158 8:0 9:72 10:162 11:166 12:0 13:1 14:146 15:151 16:1 #
-9.2834012360362623373078426198407e-09 1:0 2:224 3:735 4:0 5:959 6:1379 7:388 8:14049 9:78 10:195 11:55 12:13 13:0 14:213 15:29 16:1 #
3.179064209387291106110744231053e-08 1:10068 2:142 3:168 4:1 5:7743 6:200 7:168 8:94 9:9 10:238 11:251 12:205 13:4 14:155 15:170 16:5 #
3.179064209387291106110744231053e-08 1:0 2:69 3:23 4:0 5:6112 6:155 7:16 8:0 9:1 10:96 11:29 12:0 13:0 14:99 15:44 16:0 #
3.179064209387291106110744231053e-08 1:43 2:23 3:69 4:0 5:81 6:0 7:90 8:455 9:486 10:1106 11:969 12:612 13:1519 14:119 15:25 16:0 #
3.179064209387291106110744231053e-08 1:11 2:1259 3:14701 4:1383 5:18 6:473 7:284 8:0 9:0 10:170 11:84 12:0 13:3805 14:188 15:91 16:0 #
-3.179064209387291106110744231053e-08 1:98 2:405 3:155 4:49 5:7193 6:428 7:83 8:0 9:1 10:325 11:111 12:0 13:10 14:1178 15:877 16:123 #
3.179064209387291106110744231053e-08 1:0 2:243 3:0 4:0 5:0 6:687 7:0 8:0 9:0 10:627 11:0 12:0 13:0 14:3665 15:0 16:0 #
3.179064209387291106110744231053e-08 1:1535 2:255 3:97 4:1 5:0 6:169 7:87 8:0 9:106 10:192 11:73 12:0 13:23599 14:234 15:27 16:2 #
3.179064209387291106110744231053e-08 1:7042 2:265 3:158 4:1 5:13 6:437 7:174 8:1 9:0 10:1985 11:170 12:0 13:0 14:645 15:153 16:0 #
3.179064209387291106110744231053e-08 1:3468 2:329 3:98 4:1 5:188 6:15859 7:75 8:2 9:1189 10:419 11:89 12:0 13:206 14:363 15:94 16:0 #
3.179064209387291106110744231053e-08 1:1 2:62 3:12 4:0 5:7051 6:113 7:28 8:0 9:1 10:129 11:25 12:0 13:0 14:74 15:17 16:0 #
3.179064209387291106110744231053e-08 1:0 2:833 3:87 4:0 5:11 6:166 7:96 8:1 9:3103 10:4518 11:106 12:0 13:7042 14:265 15:158 16:1 #
3.179064209387291106110744231053e-08 1:0 2:92 3:23 4:0 5:7063 6:64 7:23 8:0 9:0 10:78 11:22 12:3 13:29 14:87 15:26 16:2 #
-2.8936347293194555177394669195912e-08 1:0 2:170 3:84 4:0 5:3805 6:188 7:91 8:0 9:27 10:3495 11:97 12:2 13:20 14:1210 15:158 16:2 #
-3.179064209387291106110744231053e-08 1:391 2:258 3:98 4:0 5:226 6:591 7:95 8:0 9:120 10:615 11:90 12:0 13:216 14:319 15:84 16:1 #
3.179064209387291106110744231053e-08 1:7245 2:97 3:18 4:3 5:102 6:98 7:14 8:0 9:8 10:64 11:14 12:0 13:251 14:121 15:35 16:0 #
3.179064209387291106110744231053e-08 1:120 2:615 3:90 4:0 5:216 6:319 7:84 8:1 9:7084 10:2223 11:107 12:0 13:46 14:232 15:96 16:0 #
-3.179064209387291106110744231053e-08 1:0 2:645 3:153 4:0 5:7049 6:280 7:161 8:1 9:7 10:219 11:164 12:0 13:0 14:396 15:162 16:0 #
3.179064209387291106110744231053e-08 1:3453 2:150 3:150 4:0 5:259 6:174 7:168 8:25 9:7080 10:195 11:158 12:0 13:72 14:162 15:166 16:0 #
3.179064209387291106110744231053e-08 1:5293 2:47 3:6 4:0 5:14 6:72 7:13 8:0 9:1 10:111 11:14 12:0 13:3 14:50 15:18 16:0 #
3.179064209387291106110744231053e-08 1:619 2:516 3:563 4:1 5:443 6:2016 7:1619 8:0 9:427 10:121 11:158 12:0 13:10068 14:142 15:168 16:1 #
-3.179064209387291106110744231053e-08 1:9 2:1652 3:1266 4:3 5:64 6:34 7:9 8:0 9:89 10:35 11:11 12:0 13:43 14:37 15:13 16:0 #
-3.179064209387291106110744231053e-08 1:2 2:109 3:26 4:0 5:5293 6:47 7:6 8:0 9:14 10:72 11:13 12:0 13:1 14:111 15:14 16:0 #
3.179064209387291106110744231053e-08 1:484 2:121 3:165 4:0 5:0 6:115 7:163 8:0 9:204 10:134 11:161 12:0 13:6851 14:172 15:172 16:0 #
3.179064209387291106110744231053e-08 1:11 2:183 3:210 4:2 5:619 6:516 7:563 8:1 9:443 10:2016 11:1619 12:0 13:427 14:121 15:158 16:0 #
-3.179064209387291106110744231053e-08 1:204 2:134 3:161 4:0 5:6851 6:172 7:172 8:0 9:164 10:94 11:160 12:1 13:176 14:154 15:131 16:2 #
3.179064209387291106110744231053e-08 1:1519 2:119 3:25 4:0 5:847 6:105 7:16 8:31 9:413 10:163 11:12 12:48 13:638 14:440 15:44 16:0 #
3.179064209387291106110744231053e-08 1:81 2:0 3:90 4:455 5:486 6:1106 7:969 8:612 9:1519 10:119 11:25 12:0 13:847 14:105 15:16 16:31 #
-3.179064209387291106110744231053e-08 1:0 2:133 3:157 4:0 5:76 6:181 7:169 8:0 9:190 10:299 11:193 12:0 13:0 14:147 15:149 16:0 #
-3.179064209387291106110744231053e-08 1:28 2:108 3:106 4:1 5:5455 6:94 7:76 8:2 9:240 10:103 11:101 12:0 13:56 14:70 15:86 16:0 #
-3.179064209387291106110744231053e-08 1:279 2:108 3:125 4:0 5:3453 6:150 7:150 8:0 9:259 10:174 11:168 12:25 13:7080 14:195 15:158 16:0 #
-2.6074467857864247781127242653554e-08 1:1 2:136 3:88 4:0 5:5169 6:205 7:99 8:0 9:42 10:207 11:99 12:0 13:174 14:312 15:90 16:0 #
1.3730122462591966664087245100084e-08 1:2346 2:218 3:641 4:3459 5:1250 6:182 7:686 8:4 9:0 10:224 11:735 12:0 13:959 14:1379 15:388 16:14049 #
3.179064209387291106110744231053e-08 1:188 2:15859 3:75 4:2 5:1189 6:419 7:89 8:0 9:206 10:363 11:94 12:0 13:177 14:419 15:129 16:25 #
3.179064209387291106110744231053e-08 1:1 2:70 3:21 4:0 5:8 6:98 7:44 8:0 9:0 10:92 11:23 12:0 13:7063 14:64 15:23 16:0 #
-2.8977333664693751837625190770353e-08 1:3 2:129 3:132 4:0 5:19 6:125 7:154 8:0 9:65 10:134 11:161 12:0 13:0 14:133 15:157 16:0 #
3.179064209387291106110744231053e-08 1:0 2:115 3:163 4:0 5:204 6:134 7:161 8:0 9:6851 10:172 11:172 12:0 13:164 14:94 15:160 16:1 #
3.179064209387291106110744231053e-08 1:353 2:208 3:42 4:0 5:1111 6:328 7:57 8:0 9:852 10:130 11:17 12:0 13:419 14:168 15:15 16:0 #
-3.1790641806120717869558849055789e-08 1:63 2:231 3:58 4:0 5:2 6:215 7:32 8:1 9:3 10:150 11:30 12:0 13:1 14:183 15:30 16:0 #
-3.179064209387291106110744231053e-08 1:91 2:165 3:93 4:0 5:33 6:140 7:87 8:0 9:56 10:158 11:87 12:0 13:41 14:967 15:91 16:0 #
-3.179064209387291106110744231053e-08 1:2 2:72 3:10 4:0 5:3 6:70 7:15 8:0 9:1 10:127 11:34 12:0 13:2 14:130 15:54 16:298 #
3.179064209387291106110744231053e-08 1:0 2:346 3:0 4:0 5:0 6:149 7:0 8:0 9:0 10:593 11:1 12:0 13:0 14:266 15:0 16:0 #
-3.179064209387291106110744231053e-08 1:7049 2:280 3:161 4:1 5:7 6:219 7:164 8:0 9:0 10:396 11:162 12:0 13:0 14:262 15:143 16:0 #
3.179064209387291106110744231053e-08 1:5971 2:174 3:22 4:0 5:7064 6:96 7:32 8:0 9:0 10:89 11:28 12:0 13:4 14:105 15:25 16:0 #
3.179064209387291106110744231053e-08 1:6 2:1437 3:2148 4:2 5:2 6:47 7:19 8:0 9:0 10:13 11:3 12:674 13:0 14:0 15:4 16:0 #
-3.179064209387291106110744231053e-08 1:0 2:6844 3:1068 4:4 5:0 6:0 7:3 8:0 9:48 10:440 11:150 12:9 13:18 14:318 15:362 16:2765 #
-3.179064209387291106110744231053e-08 1:20 2:2215 3:1869 4:0 5:4 6:60 7:15 8:0 9:60 10:104 11:15 12:0 13:0 14:60 15:15 16:0 #
-3.179064209387291106110744231053e-08 1:6851 2:172 3:172 4:0 5:164 6:94 7:160 8:1 9:176 10:154 11:131 12:2 13:76 14:146 15:58 16:0 #
-2.461462570022301998677926796041e-09 1:33 2:140 3:87 4:0 5:56 6:158 7:87 8:0 9:41 10:967 11:91 12:0 13:23352 14:164 15:82 16:0 #
3.179064209387291106110744231053e-08 1:8 2:98 3:44 4:0 5:0 6:92 7:23 8:0 9:7063 10:64 11:23 12:0 13:0 14:78 15:22 16:3 #
3.179064209387291106110744231053e-08 1:48 2:997 3:90 4:51 5:1535 6:255 7:97 8:1 9:0 10:169 11:87 12:0 13:106 14:192 15:73 16:0 #
3.179064209387291106110744231053e-08 1:1399 2:136 3:77 4:0 5:334 6:172 7:108 8:0 9:279 10:108 11:125 12:0 13:3453 14:150 15:150 16:0 #
-3.179064209387291106110744231053e-08 1:0 2:1861 3:1831 4:22 5:15 6:5 7:2 8:0 9:303 10:176 11:26 12:0 13:37 14:133 15:34 16:0 #
-3.179064209387291106110744231053e-08 1:0 2:1239 3:1061 4:0 5:1 6:194 7:173 8:0 9:5856 10:208 11:38 12:1 13:0 14:75 15:16 16:0 #
3.179064209387291106110744231053e-08 1:20 2:1210 3:158 4:2 5:0 6:833 7:87 8:0 9:11 10:166 11:96 12:1 13:3103 14:4518 15:106 16:0 #
3.179064209387291106110744231053e-08 1:4 2:102 3:26 4:0 5:844 6:79 7:29 8:0 9:840 10:84 11:30 12:0 13:0 14:108 15:20 16:0 #
-1.639619733821012781405102032295e-09 1:0 2:126 3:0 4:5 5:0 6:216 7:0 8:0 9:0 10:229 11:0 12:4 13:0 14:7272 15:0 16:9 #
-3.179064209387291106110744231053e-08 1:0 2:120 3:0 4:0 5:0 6:415 7:0 8:0 9:0 10:143 11:0 12:0 13:0 14:87 15:0 16:188 #
-3.179064209387291106110744231053e-08 1:3 2:181 3:27 4:0 5:51 6:117 7:35 8:0 9:0 10:121 11:22 12:0 13:109 14:109 15:29 16:391 #
-3.179064209387291106110744231053e-08 1:91 2:185 3:123 4:0 5:112 6:202 7:109 8:0 9:218 10:189 11:99 12:0 13:25 14:177 15:98 16:0 #
-3.179064209387291106110744231053e-08 1:2 2:1602 3:1290 4:1 5:61 6:75 7:10 8:1 9:4 10:197 11:54 12:0 13:29 14:182 15:31 16:0 #
-3.179064209387291106110744231053e-08 1:19 2:317 3:96 4:0 5:5 6:249 7:89 8:2 9:12 10:250 11:84 12:0 13:12463 14:202 15:85 16:5 #
3.179064209387291106110744231053e-08 1:5836 2:44 3:6 4:0 5:10 6:61 7:14 8:0 9:14 10:90 11:21 12:0 13:11 14:58 15:20 16:0 #
-3.179064209387291106110744231053e-08 1:0 2:1481 3:1235 4:1 5:2 6:236 7:44 8:0 9:65 10:266 11:56 12:0 13:0 14:55 15:27 16:0 #
-3.179064209387291106110744231053e-08 1:17 2:1357 3:1289 4:4 5:93 6:92 7:70 8:0 9:31 10:178 11:88 12:0 13:91 14:185 15:123 16:0 #
-3.179064209387291106110744231053e-08 1:2 2:68 3:14 4:0 5:6 6:1437 7:2148 8:2 9:2 10:47 11:19 12:0 13:0 14:13 15:3 16:674 #
3.179064209387291106110744231053e-08 1:35 2:1660 3:95 4:0 5:29 6:225 7:100 8:0 9:30 10:312 11:99 12:189 13:3468 14:329 15:98 16:1 #
-3.179064209387291106110744231053e-08 1:7743 2:200 3:168 4:94 5:9 6:238 7:251 8:205 9:4 10:155 11:170 12:5 13:1884 14:190 15:165 16:7 #
3.179064209387291106110744231053e-08 1:0 2:7093 3:0 4:0 5:0 6:251 7:0 8:0 9:0 10:104 11:0 12:0 13:0 14:104 15:0 16:1 #
3.179064209387291106110744231053e-08 1:123 2:93 3:7 4:0 5:2 6:68 7:14 8:0 9:6 10:1437 11:2148 12:2 13:2 14:47 15:19 16:0 #
3.179064209387291106110744231053e-08 1:0 2:875 3:0 4:0 5:0 6:3458 7:0 8:0 9:0 10:5193 11:0 12:3 13:0 14:170 15:0 16:9 #
3.179064209387291106110744231053e-08 1:0 2:117 3:22 4:23 5:0 6:18 7:2 8:0 9:737 10:1140 11:1901 12:1 13:4 14:293 15:32 16:0 #
3.179064209387291106110744231053e-08 1:24 2:149 3:207 4:8 5:0 6:6844 7:1068 8:4 9:0 10:0 11:3 12:0 13:48 14:440 15:150 16:9 #
-3.179064209387291106110744231053e-08 1:0 2:396 3:162 4:0 5:0 6:262 7:143 8:0 9:0 10:230 11:158 12:0 13:0 14:247 15:158 16:2 #
3.179064209387291106110744231053e-08 1:5455 2:94 3:76 4:2 5:240 6:103 7:101 8:0 9:56 10:70 11:86 12:0 13:217 14:86 15:100 16:0 #
3.179064209387291106110744231053e-08 1:144 2:72 3:10 4:0 5:144 6:330 7:20 8:0 9:134 10:100 11:38 12:0 13:63 14:231 15:58 16:0 #
3.179064209387291106110744231053e-08 1:0 2:74 3:17 4:0 5:0 6:1224 7:1117 8:1 9:13 10:37 11:14 12:0 13:0 14:87 15:92 16:0 #
3.179064209387291106110744231053e-08 1:0 2:29 3:0 4:0 5:0 6:875 7:0 8:0 9:0 10:3458 11:0 12:0 13:0 14:5193 15:0 16:3 #
3.179064209387291106110744231053e-08 1:0 2:3458 3:0 4:0 5:0 6:5193 7:0 8:3 9:0 10:170 11:0 12:9 13:0 14:148 15:0 16:3 #
3.179064209387291106110744231053e-08 1:3805 2:188 3:91 4:0 5:27 6:3495 7:97 8:2 9:20 10:1210 11:158 12:2 13:0 14:833 15:87 16:0 #
3.179064209387291106110744231053e-08 1:18 2:473 3:284 4:0 5:0 6:170 7:84 8:0 9:3805 10:188 11:91 12:0 13:27 14:3495 15:97 16:2 #
3.179064209387291106110744231053e-08 1:276 2:1993 3:74 4:261 5:18 6:581 7:87 8:0 9:0 10:359 11:87 12:0 13:48 14:997 15:90 16:51 #
3.179064209387291106110744231053e-08 1:5169 2:205 3:99 4:0 5:42 6:207 7:99 8:0 9:174 10:312 11:90 12:0 13:0 14:706 15:76 16:0 #
2.6132538889847992558388464334057e-08 1:1250 2:182 3:686 4:4 5:0 6:224 7:735 8:0 9:959 10:1379 11:388 12:14049 13:78 14:195 15:55 16:13 #
-9.3721787533982178170355512828067e-09 1:0 2:137 3:93 4:1 5:0 6:175 7:105 8:0 9:0 10:85 11:85 12:0 13:11 14:1259 15:14701 16:1383 #
-2.1495164311581619797466614647102e-08 1:443 2:276 3:106 4:0 5:7676 6:209 7:85 8:0 9:7063 10:194 11:100 12:0 13:679 14:162 15:90 16:0 #
-3.179064209387291106110744231053e-08 1:17 2:1439 3:845 4:1 5:9 6:383 7:83 8:0 9:1 10:41 11:3 12:4 13:111 14:53 15:11 16:0 #
-3.179064209387291106110744231053e-08 1:0 2:0 3:3 4:0 5:48 6:440 7:150 8:9 9:18 10:318 11:362 12:2765 13:151 14:292 15:84 16:0 #
-3.179064209387291106110744231053e-08 1:0 2:181 3:55 4:0 5:0 6:183 7:48 8:0 9:0 10:172 11:35 12:0 13:0 14:112 15:17 16:0 #
-3.179064209387291106110744231053e-08 1:117 2:689 3:591 4:2 5:8 6:90 7:23 8:0 9:0 10:73 11:15 12:0 13:12 14:85 15:6 16:0 #
-3.179064209387291106110744231053e-08 1:4 2:155 3:170 4:5 5:1884 6:190 7:165 8:7 9:15256 10:127 11:167 12:0 13:484 14:121 15:165 16:0 #
-3.179064209387291106110744231053e-08 1:15256 2:127 3:167 4:0 5:484 6:121 7:165 8:0 9:0 10:115 11:163 12:0 13:204 14:134 15:161 16:0 #
-3.179064209387291106110744231053e-08 1:0 2:262 3:143 4:0 5:0 6:230 7:158 8:0 9:0 10:247 11:158 12:2 13:0 14:276 15:147 16:0 #
-3.179064209387291106110744231053e-08 1:46 2:232 3:96 4:0 5:8 6:6929 7:87 8:5 9:0 10:341 11:98 12:14 13:0 14:164 15:92 16:0 #
-3.179064209387291106110744231053e-08 1:0 2:169 3:136 4:0 5:3 6:179 7:151 8:0 9:0 10:178 11:149 12:0 13:3 14:174 15:141 16:0 #
-3.179064209387291106110744231053e-08 1:7 2:1275 3:1042 4:0 5:5 6:478 7:359 8:0 9:78 10:155 11:112 12:0 13:9 14:136 15:88 16:4 #
-3.179064209387291106110744231053e-08 1:6112 2:155 3:16 4:0 5:1 6:96 7:29 8:0 9:0 10:99 11:44 12:0 13:0 14:90 15:27 16:156 #
-3.179064209387291106110744231053e-08 1:0 2:301 3:41 4:0 5:0 6:277 7:40 8:150 9:2346 10:218 11:641 12:3459 13:1250 14:182 15:686 16:4 #
-3.179064209387291106110744231053e-08 1:0 2:121 3:22 4:0 5:109 6:109 7:29 8:391 9:22 10:81 11:36 12:0 13:94 14:83 15:28 16:497 #
3.179064209387291106110744231053e-08 1:0 2:123 3:76 4:0 5:5 6:180 7:85 8:0 9:2 10:129 11:82 12:1 13:70 14:1331 15:1251 16:6 #
-3.179064209387291106110744231053e-08 1:0 2:415 3:0 4:0 5:0 6:143 7:0 8:0 9:0 10:87 11:0 12:188 13:0 14:60 15:0 16:0 #
3.179064209387291106110744231053e-08 1:1189 2:419 3:89 4:0 5:206 6:363 7:94 8:0 9:177 10:419 11:129 12:25 13:205 14:472 15:165 16:58 #
3.179064209387291106110744231053e-08 1:241 2:181 3:35 4:0 5:47 6:103 7:25 8:0 9:91 10:141 11:20 12:0 13:530 14:227 15:39 16:1 #
3.179064209387291106110744231053e-08 1:111 2:53 3:11 4:0 5:212 6:52 7:20 8:0 9:536 10:129 11:23 12:1 13:300 14:37 15:13 16:12 #
3.179064209387291106110744231053e-08 1:0 2:154 3:96 4:0 5:0 6:151 7:92 8:1 9:0 10:4902 11:93 12:0 13:0 14:1249 15:84 16:0 #
-3.179064209387291106110744231053e-08 1:3 2:70 3:15 4:0 5:1 6:127 7:34 8:0 9:2 10:130 11:54 12:298 13:4 14:111 15:44 16:0 #
-3.179064209387291106110744231053e-08 1:8 2:834 3:723 4:1 5:117 6:689 7:591 8:2 9:8 10:90 11:23 12:0 13:0 14:73 15:15 16:0 #
-3.179064209387291106110744231053e-08 1:0 2:124 3:54 4:0 5:43 6:23 7:69 8:0 9:81 10:0 11:90 12:455 13:486 14:1106 15:969 16:612 #
3.179064209387291106110744231053e-08 1:14 2:269 3:202 4:16 5:12 6:1140 7:846 8:1 9:41 10:803 11:670 12:1 13:429 14:244 15:164 16:0 #
3.179064209387291106110744231053e-08 1:2 2:173 3:98 4:0 5:7 6:1275 7:1042 8:0 9:5 10:478 11:359 12:0 13:78 14:155 15:112 16:0 #
-3.179064209387291106110744231053e-08 1:24 2:127 3:85 4:0 5:94 6:118 7:86 8:0 9:276 10:1993 11:74 12:261 13:18 14:581 15:87 16:0 #
3.179064209387291106110744231053e-08 1:1 2:30 3:7 4:1 5:6 6:688 7:585 8:0 9:17 10:1439 11:845 12:1 13:9 14:383 15:83 16:0 #
3.179064209387291106110744231053e-08 1:94 2:118 3:86 4:0 5:276 6:1993 7:74 8:261 9:18 10:581 11:87 12:0 13:0 14:359 15:87 16:0 #
3.179064209387291106110744231053e-08 1:12 2:1140 3:846 4:1 5:41 6:803 7:670 8:1 9:429 10:244 11:164 12:0 13:25 14:385 15:233 16:1 #
-3.179064209387291106110744231053e-08 1:1 2:96 3:29 4:0 5:0 6:99 7:44 8:0 9:0 10:90 11:27 12:156 13:0 14:88 15:22 16:0 #
-3.179064209387291106110744231053e-08 1:27 2:750 3:975 4:0 5:1675 6:172 7:46 8:0 9:243 10:122 11:48 12:0 13:353 14:208 15:42 16:0 #
3.179064209387291106110744231053e-08 1:605 2:233 3:89 4:1 5:391 6:258 7:98 8:0 9:226 10:591 11:95 12:0 13:120 14:615 15:90 16:0 #
3.179064209387291106110744231053e-08 1:0 2:70 3:11 4:0 5:2 6:51 7:15 8:1 9:0 10:55 11:13 12:0 13:2 14:1763 15:1246 16:3 #
3.179064209387291106110744231053e-08 1:17 2:163 3:170 4:0 5:104 6:77 7:146 8:0 9:14 10:269 11:202 12:16 13:12 14:1140 15:846 16:1 #
-3.179064209387291106110744231053e-08 1:0 2:55 3:13 4:0 5:2 6:1763 7:1246 8:3 9:6 10:57 11:25 12:250 13:2 14:84 15:12 16:55 #
-3.179064209387291106110744231053e-08 1:1 2:111 3:14 4:0 5:3 6:50 7:18 8:0 9:198 10:192 11:25 12:191 13:3 14:120 15:11 16:3 #
3.179064209387291106110744231053e-08 1:3 2:92 3:24 4:0 5:0 6:144 7:33 8:0 9:0 10:67 11:12 12:0 13:0 14:1445 15:1230 16:0 #
-3.179064209387291106110744231053e-08 1:6 2:688 3:585 4:0 5:17 6:1439 7:845 8:1 9:9 10:383 11:83 12:0 13:1 14:41 15:3 16:4 #
3.179064209387291106110744231053e-08 1:111 2:118 3:14 4:0 5:0 6:94 7:24 8:0 9:0 10:1239 11:1061 12:0 13:1 14:194 15:173 16:0 #
-3.179064209387291106110744231053e-08 1:18 2:318 3:362 4:2765 5:151 6:292 7:84 8:0 9:0 10:873 11:87 12:0 13:0 14:679 15:99 16:0 #
3.179064209387291106110744231053e-08 1:852 2:130 3:17 4:0 5:419 6:168 7:15 8:0 9:104 10:308 11:56 12:238 13:0 14:301 15:41 16:0 #
3.179064209387291106110744231053e-08 1:440 2:140 3:148 4:17 5:17 6:163 7:170 8:0 9:104 10:77 11:146 12:0 13:14 14:269 15:202 16:16 #
3.179064209387291106110744231053e-08 1:2 2:51 3:15 4:1 5:0 6:55 7:13 8:0 9:2 10:1763 11:1246 12:3 13:6 14:57 15:25 16:250 #
3.179064209387291106110744231053e-08 1:737 2:1140 3:1901 4:1 5:4 6:293 7:32 8:0 9:0 10:75 11:18 12:29 13:731 14:85 15:23 16:0 #
3.179064209387291106110744231053e-08 1:104 2:308 3:56 4:238 5:0 6:301 7:41 8:0 9:0 10:277 11:40 12:150 13:2346 14:218 15:641 16:3459 #
-3.179064209387291106110744231053e-08 1:0 2:84 3:76 4:0 5:0 6:73 7:77 8:0 9:659 10:117 11:27 12:0 13:1 14:62 15:17 16:0 #
-3.1391594877659147709569875672742e-08 1:0 2:20 3:6 4:0 5:0 6:72 7:2 8:0 9:0 10:32 11:2 12:0 13:0 14:18 15:0 16:0 #
3.179064209387291106110744231053e-08 1:3 2:115 3:25 4:1 5:1 6:109 7:25 8:0 9:0 10:90 11:27 12:0 13:8 14:834 15:723 16:1 #
-3.179064209387291106110744231053e-08 1:481 2:85 3:144 4:0 5:136 6:121 7:144 8:0 9:82 10:136 11:159 12:0 13:519 14:13882 15:162 16:0 #
-3.179064209387291106110744231053e-08 1:0 2:4902 3:93 4:0 5:0 6:1249 7:84 8:0 9:605 10:233 11:89 12:1 13:391 14:258 15:98 16:0 #
-3.179064209387291106110744231053e-08 1:0 2:73 3:77 4:0 5:659 6:117 7:27 8:0 9:1 10:62 11:17 12:0 13:2 14:109 15:26 16:0 #
3.179064209387291106110744231053e-08 1:419 2:168 3:15 4:0 5:104 6:308 7:56 8:238 9:0 10:301 11:41 12:0 13:0 14:277 15:40 16:150 #
-3.1282367466253636445298880186527e-08 1:0 2:118 3:0 4:0 5:0 6:7222 7:0 8:0 9:0 10:210 11:0 12:0 13:0 14:7162 15:0 16:0 #
3.179064209387291106110744231053e-08 1:1 2:146 3:151 4:1 5:440 6:140 7:148 8:17 9:17 10:163 11:170 12:0 13:104 14:77 15:146 16:0 #
-3.179064209387291106110744231053e-08 1:3 2:179 3:151 4:0 5:0 6:178 7:149 8:0 9:3 10:174 11:141 12:0 13:2 14:117 15:92 16:0 #
-3.179064209387291106110744231053e-08 1:0 2:276 3:147 4:0 5:0 6:169 7:136 8:0 9:3 10:179 11:151 12:0 13:0 14:178 15:149 16:0 #
3.179064209387291106110744231053e-08 1:0 2:5193 3:0 4:3 5:0 6:170 7:0 8:9 9:0 10:148 11:0 12:3 13:0 14:192 15:0 16:11 #
-3.179064209387291106110744231053e-08 1:13 2:37 3:14 4:0 5:0 6:87 7:92 8:0 9:0 10:189 11:95 12:2 13:333 14:435 15:82 16:120 #
-3.179064209387291106110744231053e-08 1:78 2:195 3:55 4:13 5:0 6:213 7:29 8:1 9:0 10:165 11:22 12:0 13:0 14:249 15:33 16:0 #
3.179064209387291106110744231053e-08 1:8 2:44 3:32 4:1 5:1 6:26 7:12 8:0 9:1 10:30 11:7 12:1 13:6 14:688 15:585 16:0 #
-3.179064209387291106110744231053e-08 1:0 2:230 3:158 4:0 5:0 6:247 7:158 8:2 9:0 10:276 11:147 12:0 13:0 14:169 15:136 16:0 #
-3.179064209387291106110744231053e-08 1:177 2:419 3:129 4:25 5:205 6:472 7:165 8:58 9:98 10:405 11:155 12:49 13:7193 14:428 15:83 16:0 #
-3.179064209387291106110744231053e-08 1:0 2:151 3:92 4:1 5:0 6:4902 7:93 8:0 9:0 10:1249 11:84 12:0 13:605 14:233 15:89 16:1 #
-3.179064209387291106110744231053e-08 1:7071 2:149 3:108 4:0 5:1 6:149 7:108 8:0 9:0 10:177 11:91 12:0 13:25 14:173 15:116 16:0 #
-3.179064209387291106110744231053e-08 1:1111 2:328 3:57 4:0 5:852 6:130 7:17 8:0 9:419 10:168 11:15 12:0 13:104 14:308 15:56 16:238 #
-3.179064209387291106110744231053e-08 1:7080 2:195 3:158 4:0 5:72 6:162 7:166 8:0 9:1 10:146 11:151 12:1 13:440 14:140 15:148 16:17 #
3.179064209387291106110744231053e-08 1:1 2:41 3:3 4:4 5:111 6:53 7:11 8:0 9:212 10:52 11:20 12:0 13:536 14:129 15:23 16:1 #
3.179064209387291106110744231053e-08 1:240 2:103 3:101 4:0 5:56 6:70 7:86 8:0 9:217 10:86 11:100 12:0 13:64 14:78 15:109 16:1 #
-3.179064209387291106110744231053e-08 1:447 2:145 3:93 4:9 5:24 6:127 7:85 8:0 9:94 10:118 11:86 12:0 13:276 14:1993 15:74 16:261 #
3.179064209387291106110744231053e-08 1:0 2:91 3:52 4:0 5:0 6:123 7:76 8:0 9:5 10:180 11:85 12:0 13:2 14:129 15:82 16:1 #
-3.179064209387291106110744231053e-08 1:0 2:151 3:61 4:0 5:0 6:130 7:39 8:0 9:0 10:125 11:17 12:0 13:0 14:137 15:35 16:0 #
-3.179064209387291106110744231053e-08 1:164 2:94 3:160 4:1 5:176 6:154 7:131 8:2 9:76 10:146 11:58 12:0 13:3 14:12 15:8 16:0 #
-3.179064209387291106110744231053e-08 1:72 2:162 3:166 4:0 5:1 6:146 7:151 8:1 9:440 10:140 11:148 12:17 13:17 14:163 15:170 16:0 #
-3.178741034455534464342463252251e-08 1:0 2:433 3:0 4:0 5:0 6:7170 7:0 8:0 9:0 10:174 11:0 12:0 13:0 14:2425 15:0 16:0 #
3.179064209387291106110744231053e-08 1:303 2:176 3:26 4:0 5:37 6:133 7:34 8:0 9:229 10:124 11:23 12:0 13:47 14:78 15:28 16:0 #
-3.179064209387291106110744231053e-08 1:0 2:247 3:158 4:2 5:0 6:276 7:147 8:0 9:0 10:169 11:136 12:0 13:3 14:179 15:151 16:0 #
-3.179064209387291106110744231053e-08 1:0 2:92 3:67 4:0 5:0 6:434 7:1 8:0 9:0 10:592 11:0 12:0 13:0 14:243 15:0 16:0 #
3.179064209387291106110744231053e-08 1:0 2:93 3:128 4:0 5:0 6:117 7:152 8:0 9:0 10:111 11:151 12:53 13:11 14:183 15:210 16:2 #
-3.179064209387291106110744231053e-08 1:1 2:511 3:38 4:0 5:0 6:25 7:2 8:0 9:0 10:27 11:2 12:0 13:0 14:42 15:1 16:0 #
3.179064209387291106110744231053e-08 1:0 2:679 3:99 4:0 5:0 6:2013 7:87 8:0 9:0 10:1624 11:81 12:0 13:0 14:154 15:96 16:0 #
3.179064209387291106110744231053e-08 1:18 2:168 3:128 4:0 5:1 6:101 7:138 8:0 9:4 10:135 11:158 12:0 13:0 14:144 15:159 16:0 #
3.179064209387291106110744231053e-08 1:0 2:112 3:0 4:3 5:0 6:29 7:0 8:0 9:0 10:875 11:0 12:0 13:0 14:3458 15:0 16:0 #
3.179064209387291106110744231053e-08 1:0 2:164 3:92 4:0 5:3 6:317 7:95 8:0 9:35 10:1660 11:95 12:0 13:29 14:225 15:100 16:0 #
-3.179064209387291106110744231053e-08 1:3 2:174 3:141 4:0 5:2 6:117 7:92 8:0 9:0 10:0 11:0 12:0 13:0 14:0 15:0 16:0 #
-3.179064209387291106110744231053e-08 1:112 2:202 3:109 4:0 5:218 6:189 7:99 8:0 9:25 10:177 11:98 12:0 13:1030 14:207 15:94 16:0 #
3.179064209387291106110744231053e-08 1:0 2:142 3:149 4:0 5:0 6:140 7:143 8:0 9:7 10:181 11:149 12:4 13:24 14:149 15:207 16:8 #
3.179064209387291106110744231053e-08 1:210 2:127 3:28 4:2 5:241 6:181 7:35 8:0 9:47 10:103 11:25 12:0 13:91 14:141 15:20 16:0 #
-3.179064209387291106110744231053e-08 1:0 2:140 3:141 4:0 5:0 6:142 7:146 8:0 9:0 10:140 11:143 12:0 13:0 14:142 15:149 16:0 #
3.179064209387291106110744231053e-08 1:1 2:1579 3:12 4:0 5:0 6:233 7:4 8:0 9:0 10:124 11:54 12:0 13:43 14:23 15:69 16:0 #
3.179064209387291106110744231053e-08 1:3 2:317 3:95 4:0 5:35 6:1660 7:95 8:0 9:29 10:225 11:100 12:0 13:30 14:312 15:99 16:189 #
3.179064209387291106110744231053e-08 1:190 2:299 3:193 4:0 5:0 6:147 7:149 8:0 9:0 10:93 11:128 12:0 13:0 14:117 15:152 16:0 #
-4.4081797505368723686519638604864e-11 1:125 2:92 3:27 4:0 5:32 6:88 7:9 8:0 9:1 10:66 11:15 12:0 13:0 14:26 15:5 16:0 #
3.179064209387291106110744231053e-08 1:0 2:125 3:17 4:0 5:0 6:137 7:35 8:0 9:348 10:239 11:39 12:0 13:0 14:225 15:39 16:0 #
-3.179064209387291106110744231053e-08 1:273 2:968 3:685 4:0 5:166 6:137 7:94 8:0 9:3 10:129 11:132 12:0 13:19 14:125 15:154 16:0 #
-3.179064209387291106110744231053e-08 1:121 2:257 3:111 4:0 5:6 6:260 7:96 8:0 9:5 10:239 11:103 12:0 13:5 14:176 15:109 16:0 #
-3.1790641991566121022140409485904e-08 1:65 2:134 3:161 4:0 5:0 6:133 7:157 8:0 9:76 10:181 11:169 12:0 13:190 14:299 15:193 16:0 #
3.179064209387291106110744231053e-08 1:26 2:110 3:20 4:0 5:32 6:165 7:29 8:0 9:189 10:191 11:35 12:2 13:164 14:161 15:39 16:0 #
-3.179064209387291106110744231053e-08 1:212 2:52 3:20 4:0 5:536 6:129 7:23 8:1 9:300 10:37 11:13 12:12 13:146 14:74 15:24 16:20 #
-3.179064209387291106110744231053e-08 1:0 2:627 3:0 4:0 5:0 6:3665 7:0 8:0 9:0 10:165 11:0 12:4 13:0 14:1225 15:0 16:0 #
-3.179064209387291106110744231053e-08 1:4 2:163 3:81 4:6 5:1 6:122 7:71 8:0 9:0 10:91 11:52 12:0 13:0 14:123 15:76 16:0 #
-3.179064209387291106110744231053e-08 1:0 2:133 3:51 4:0 5:1 6:127 7:33 8:0 9:372 10:86 11:21 12:0 13:4 14:162 15:36 16:0 #
3.179064209387291106110744231053e-08 1:7 2:219 3:164 4:0 5:0 6:396 7:162 8:0 9:0 10:262 11:143 12:0 13:0 14:230 15:158 16:0 #
3.179064209387291106110744231053e-08 1:145 2:144 3:24 4:0 5:16 6:129 7:34 8:0 9:106 10:131 11:28 12:0 13:156 14:88 15:15 16:0 #
-3.179064209387291106110744231053e-08 1:5 2:478 3:359 4:0 5:78 6:155 7:112 8:0 9:9 10:136 11:88 12:4 13:8 14:237 15:92 16:0 #
3.179064209387291106110744231053e-08 1:0 2:90 3:27 4:156 5:0 6:88 7:22 8:0 9:0 10:62 11:24 12:0 13:0 14:70 15:11 16:0 #
-3.179064209387291106110744231053e-08 1:1 2:149 3:108 4:0 5:0 6:177 7:91 8:0 9:25 10:173 11:116 12:0 13:3 14:181 15:112 16:0 #
3.179064209387291106110744231053e-08 1:153 2:367 3:11 4:0 5:152 6:99 7:18 8:0 9:68 10:218 11:31 12:0 13:0 14:154 15:30 16:0 #
3.179064209387291106110744231053e-08 1:82 2:127 3:88 4:0 5:115 6:127 7:101 8:0 9:2 10:180 11:83 12:0 13:49 14:100 15:86 16:0 #
-3.179064209387291106110744231053e-08 1:25 2:385 3:233 4:1 5:1820 6:182 7:210 8:2 9:481 10:85 11:144 12:0 13:136 14:121 15:144 16:0 #
3.179064209387291106110744231053e-08 1:0 2:140 3:143 4:0 5:0 6:142 7:149 8:0 9:0 10:140 11:143 12:0 13:7 14:181 15:149 16:4 #
-6.8168309313254247162107479828062e-09 1:0 2:229095 3:19 4:0 5:364 6:66773 7:14 8:0 9:547 10:126 11:16 12:0 13:1274 14:25448 15:17 16:0 #
3.179064209387291106110744231053e-08 1:0 2:142 3:146 4:0 5:0 6:140 7:143 8:0 9:0 10:142 11:149 12:0 13:0 14:140 15:143 16:0 #
3.179064209387291106110744231053e-08 1:0 2:401 3:65 4:0 5:19 6:317 7:96 8:0 9:5 10:249 11:89 12:2 13:12 14:250 15:84 16:0 #
-3.179064209387291106110744231053e-08 1:76 2:181 3:169 4:0 5:190 6:299 7:193 8:0 9:0 10:147 11:149 12:0 13:0 14:93 15:128 16:0 #
-3.179064209387291106110744231053e-08 1:2 2:110 3:67 4:0 5:3 6:59 7:21 8:0 9:1 10:58 11:7 12:0 13:1 14:81 15:33 16:0 #
3.179064209387291106110744231053e-08 1:0 2:165 3:0 4:4 5:0 6:1225 7:0 8:0 9:0 10:194 11:0 12:0 13:0 14:338 15:0 16:0 #
3.179064209387291106110744231053e-08 1:196 2:207 3:48 4:0 5:145 6:81 7:32 8:0 9:79 10:106 11:25 12:0 13:9 14:36 15:15 16:0 #
3.179064209387291106110744231053e-08 1:115 2:127 3:101 4:0 5:2 6:180 7:83 8:0 9:49 10:100 11:86 12:0 13:28 14:108 15:106 16:1 #
-3.179064209387291106110744231053e-08 1:0 2:172 3:35 4:0 5:0 6:112 7:17 8:0 9:0 10:49 11:12 12:0 13:0 14:12 15:0 16:0 #
3.179064209387291106110744231053e-08 1:0 2:389 3:28 4:0 5:0 6:261 7:28 8:0 9:0 10:401 11:65 12:0 13:19 14:317 15:96 16:0 #
3.179064209387291106110744231053e-08 1:0 2:593 3:1 4:0 5:0 6:266 7:0 8:0 9:0 10:451 11:0 12:1 13:0 14:184 15:0 16:0 #
-4.7111516535292631940022058112394e-10 1:0 2:1249 3:84 4:0 5:605 6:233 7:89 8:1 9:391 10:258 11:98 12:0 13:226 14:591 15:95 16:0 #
-3.179064209387291106110744231053e-08 1:14 2:90 3:21 4:0 5:11 6:58 7:20 8:0 9:4 10:66 11:24 12:28 13:0 14:117 15:22 16:23 #
3.179064209387291106110744231053e-08 1:1 2:89 3:24 4:0 5:84 6:72 7:26 8:5 9:38 10:121 11:18 12:0 13:29 14:163 15:52 16:0 #
-3.179064209387291106110744231053e-08 1:29 2:163 3:52 4:0 5:13 6:157 7:49 8:1 9:133 10:106 11:11 12:0 13:5 14:118 15:41 16:0 #
3.179064209387291106110744231053e-08 1:2 2:236 3:44 4:0 5:65 6:266 7:56 8:0 9:0 10:55 11:27 12:0 13:60 14:138 15:45 16:0 #
-3.179064209387291106110744231053e-08 1:176 2:154 3:131 4:2 5:76 6:146 7:58 8:0 9:3 10:12 11:8 12:0 13:82 14:3 15:2 16:0 #
-3.179064209387291106110744231053e-08 1:78 2:155 3:112 4:0 5:9 6:136 7:88 8:4 9:8 10:237 11:92 12:0 13:0 14:84 15:76 16:0 #
3.179064209387291106110744231053e-08 1:9 2:383 3:83 4:0 5:1 6:41 7:3 8:4 9:111 10:53 11:11 12:0 13:212 14:52 15:20 16:0 #
-3.179064209387291106110744231053e-08 1:0 2:102 3:32 4:0 5:0 6:59 7:17 8:0 9:0 10:91 11:20 12:3 13:14 14:125 15:20 16:0 #
-1.4517568098679992788513359869285e-08 1:5 2:56 3:13 4:0 5:0 6:50 7:10 8:1 9:1 10:16 11:7 12:0 13:10 14:14 15:4 16:0 #
-3.179064209387291106110744231053e-08 1:206 2:363 3:94 4:0 5:177 6:419 7:129 8:25 9:205 10:472 11:165 12:58 13:98 14:405 15:155 16:49 #
-3.179064209387291106110744231053e-08 1:52 2:117 3:30 4:0 5:5 6:56 7:13 8:0 9:0 10:50 11:10 12:1 13:1 14:16 15:7 16:0 #
3.179064209387291106110744231053e-08 1:43 2:90 3:25 4:1 5:206 6:101 7:15 8:0 9:34 10:113 11:23 12:0 13:2 14:65 15:9 16:0 #
3.179064209387291106110744231053e-08 1:3 2:141 3:35 4:2 5:13 6:200 7:21 8:0 9:1 10:110 11:17 12:0 13:33 14:212 15:42 16:1 #
3.179064209387291106110744231053e-08 1:1 2:30 3:10 4:0 5:9 6:23 7:4 8:0 9:26 10:31 11:13 12:0 13:2 14:20 15:11 16:0 #
3.179064209387291106110744231053e-08 1:0 2:125 3:82 4:0 5:0 6:137 7:93 8:1 9:0 10:175 11:105 12:0 13:0 14:85 15:85 16:0 #
3.179064209387291106110744231053e-08 1:0 2:49 3:0 4:0 5:0 6:120 7:0 8:0 9:0 10:415 11:0 12:0 13:0 14:143 15:0 16:0 #
-3.179064209387291106110744231053e-08 1:6 2:125 3:89 4:0 5:3 6:94 7:77 8:0 9:0 10:85 11:66 12:2 13:0 14:106 15:75 16:0 #
-1.7489176077822378066852285205535e-08 1:0 2:112 3:17 4:0 5:0 6:49 7:12 8:0 9:0 10:12 11:0 12:0 13:1 14:71 15:11 16:0 #
3.179064209387291106110744231053e-08 1:145 2:81 3:32 4:0 5:79 6:106 7:25 8:0 9:9 10:36 11:15 12:0 13:16 14:113 15:63 16:4 #
3.179064209387291106110744231053e-08 1:0 2:192 3:0 4:11 5:0 6:126 7:0 8:5 9:0 10:216 11:0 12:0 13:0 14:229 15:0 16:4 #
3.179064209387291106110744231053e-08 1:1 2:110 3:17 4:0 5:33 6:212 7:42 8:1 9:1 10:179 11:27 12:1 13:6 14:83 15:14 16:0 #
3.179064209387291106110744231053e-08 1:164 2:161 3:39 4:0 5:3 6:141 7:35 8:2 9:13 10:200 11:21 12:0 13:1 14:110 15:17 16:0 #
3.179064209387291106110744231053e-08 1:5 2:239 3:103 4:0 5:5 6:176 7:109 8:0 9:6 10:125 11:89 12:0 13:3 14:94 15:77 16:0 #
3.179064209387291106110744231053e-08 1:0 2:81 3:21 4:0 5:0 6:147 7:26 8:0 9:0 10:125 11:32 12:0 13:71 14:68 15:20 16:0 #
3.179064209387291106110744231053e-08 1:0 2:148 3:0 4:3 5:0 6:192 7:0 8:11 9:0 10:126 11:0 12:5 13:0 14:216 15:0 16:0 #
3.179064209387291106110744231053e-08 1:57 2:158 3:23 4:0 5:22 6:115 7:8 8:0 9:41 10:169 11:31 12:0 13:0 14:136 15:20 16:0 #
3.179064209387291106110744231053e-08 1:0 2:103 3:23 4:0 5:3 6:115 7:25 8:1 9:1 10:109 11:25 12:0 13:0 14:90 15:27 16:0 #
3.179064209387291106110744231053e-08 1:173 2:173 3:49 4:0 5:3 6:181 7:27 8:0 9:51 10:117 11:35 12:0 13:0 14:121 15:22 16:0 #
-2.851724142224517370469748581141e-11 1:959 2:1379 3:388 4:14049 5:78 6:195 7:55 8:13 9:0 10:213 11:29 12:1 13:0 14:165 15:22 16:0 #
3.179064209387291106110744231053e-08 1:65 2:266 3:56 4:0 5:0 6:55 7:27 8:0 9:60 10:138 11:45 12:0 13:0 14:130 15:33 16:1 #
-3.179064209387291106110744231053e-08 1:0 2:278 3:20 4:0 5:1 6:511 7:38 8:0 9:0 10:25 11:2 12:0 13:0 14:27 15:2 16:0 #
-3.179064209387291106110744231053e-08 1:3 2:181 3:112 4:0 5:1 6:196 7:96 8:0 9:20 10:200 11:111 12:0 13:2 14:176 15:122 16:0 #
-3.179064209387291106110744231053e-08 1:0 2:341 3:98 4:14 5:0 6:164 7:92 8:0 9:3 10:317 11:95 12:0 13:35 14:1660 15:95 16:0 #
-3.179064209387291106110744231053e-08 1:0 2:80 3:27 4:0 5:0 6:71 7:16 8:0 9:0 10:46 11:7 12:0 13:0 14:53 15:20 16:0 #
-3.179064209387291106110744231053e-08 1:174 2:312 3:90 4:0 5:0 6:706 7:76 8:0 9:4 10:163 11:81 12:6 13:1 14:122 15:71 16:0 #
3.179064209387291106110744231053e-08 1:0 2:54 3:17 4:0 5:66 6:98 7:20 8:0 9:52 10:117 11:30 12:0 13:5 14:56 15:13 16:0 #
3.179064209387291106110744231053e-08 1:22 2:123 3:26 4:0 5:32 6:111 7:20 8:0 9:69 10:90 11:15 12:0 13:2 14:145 15:38 16:0 #
3.179064209387291106110744231053e-08 1:3 2:111 3:26 4:0 5:1 6:79 7:18 8:0 9:25 10:138 11:26 12:2 13:0 14:148 15:23 16:0 #
3.179064209387291106110744231053e-08 1:3 2:159 3:32 4:0 5:5 6:109 7:19 8:0 9:123 10:93 11:7 12:0 13:2 14:68 15:14 16:0 #
-3.179064209387291106110744231053e-08 1:0 2:128 3:59 4:0 5:0 6:111 7:29 8:0 9:0 10:133 11:51 12:0 13:1 14:127 15:33 16:0 #
3.179064209387291106110744231053e-08 1:34 2:19 3:2 4:0 5:1 6:77 7:12 8:0 9:5 10:51 11:21 12:0 13:13 14:54 15:18 16:56 #
-3.179064209387291106110744231053e-08 1:0 2:71 3:16 4:0 5:0 6:46 7:7 8:0 9:0 10:53 11:20 12:0 13:0 14:61 15:22 16:0 #
-3.179064209387291106110744231053e-08 1:0 2:2041 3:48 4:0 5:2 6:110 7:67 8:0 9:3 10:59 11:21 12:0 13:1 14:58 15:7 16:0 #
-3.179064209387291106110744231053e-08 1:156 2:207 3:102 4:0 5:82 6:127 7:88 8:0 9:115 10:127 11:101 12:0 13:2 14:180 15:83 16:0 #
3.179064209387291106110744231053e-08 1:11 2:58 3:20 4:0 5:4 6:66 7:24 8:28 9:0 10:117 11:22 12:23 13:0 14:18 15:2 16:0 #
-3.179064209387291106110744231053e-08 1:25 2:173 3:116 4:0 5:3 6:181 7:112 8:0 9:1 10:196 11:96 12:0 13:20 14:200 15:111 16:0 #
3.179064209387291106110744231053e-08 1:1 2:122 3:71 4:0 5:0 6:91 7:52 8:0 9:0 10:123 11:76 12:0 13:5 14:180 15:85 16:0 #
-3.179064209387291106110744231053e-08 1:18 2:297 3:197 4:0 5:8 6:298 7:177 8:0 9:18 10:168 11:128 12:0 13:1 14:101 15:138 16:0 #
3.179064209387291106110744231053e-08 1:107 2:81 3:25 4:0 5:0 6:118 7:22 8:0 9:3 10:76 11:79 12:0 13:0 14:96 15:21 16:0 #
3.179064209387291106110744231053e-08 1:51 2:117 3:35 4:0 5:0 6:121 7:22 8:0 9:109 10:109 11:29 12:391 13:22 14:81 15:36 16:0 #
-3.179064209387291106110744231053e-08 1:7193 2:428 3:83 4:0 5:1 6:325 7:111 8:0 9:10 10:1178 11:877 12:123 13:182 14:886 15:370 16:0 #
-3.179064209387291106110744231053e-08 1:0 2:178 3:149 4:0 5:3 6:174 7:141 8:0 9:2 10:117 11:92 12:0 13:0 14:0 15:0 16:0 #
3.179064209387291106110744231053e-08 1:1 2:77 3:12 4:0 5:5 6:51 7:21 8:0 9:13 10:54 11:18 12:56 13:37 14:129 15:80 16:1 #
-3.179064209387291106110744231053e-08 1:0 2:113 3:29 4:0 5:0 6:80 7:27 8:0 9:0 10:71 11:16 12:0 13:0 14:46 15:7 16:0 #
-3.8346136645870862718482596775971e-11 1:0 2:104 3:0 4:1 5:0 6:63 7:0 8:1 9:0 10:112 11:0 12:3 13:0 14:29 15:0 16:0 #
-3.179064209387291106110744231053e-08 1:0 2:88 3:22 4:0 5:0 6:62 7:24 8:0 9:0 10:70 11:11 12:0 13:2 14:51 15:15 16:1 #
3.179064209387291106110744231053e-08 1:0 2:73 3:15 4:0 5:12 6:85 7:6 8:0 9:47 10:80 11:15 12:0 13:1 14:96 15:37 16:0 #
3.179064209387291106110744231053e-08 1:4 2:60 3:15 4:0 5:60 6:104 7:15 8:0 9:0 10:60 11:15 12:0 13:1 14:89 15:24 16:0 #
3.179064209387291106110744231053e-08 1:0 2:96 3:31 4:0 5:56 6:87 7:20 8:0 9:7 10:109 11:28 12:0 13:0 14:103 15:23 16:0 #
3.179064209387291106110744231053e-08 1:14 2:125 3:20 4:0 5:1 6:125 7:25 8:0 9:3 10:111 11:26 12:0 13:1 14:79 15:18 16:0 #
-3.179064209387291106110744231053e-08 1:7084 2:2223 3:107 4:0 5:46 6:232 7:96 8:0 9:8 10:6929 11:87 12:5 13:0 14:341 15:98 16:14 #
-3.179064209387291106110744231053e-08 1:2 2:176 3:122 4:0 5:99 6:135 7:91 8:0 9:121 10:257 11:111 12:0 13:6 14:260 15:96 16:0 #
3.179064209387291106110744231053e-08 1:0 2:147 3:149 4:0 5:0 6:93 7:128 8:0 9:0 10:117 11:152 12:0 13:0 14:111 15:151 16:53 #
-3.179064209387291106110744231053e-08 1:0 2:104 3:0 4:0 5:0 6:104 7:0 8:1 9:0 10:63 11:0 12:1 13:0 14:112 15:0 16:3 #
3.179064209387291106110744231053e-08 1:2 2:160 3:39 4:0 5:5 6:123 7:39 8:0 9:0 10:103 11:34 12:0 13:1 14:107 15:17 16:0 #
-3.179064209387291106110744231053e-08 1:334 2:172 3:108 4:0 5:279 6:108 7:125 8:0 9:3453 10:150 11:150 12:0 13:259 14:174 15:168 16:25 #
3.179064209387291106110744231053e-08 1:11 2:125 3:22 4:0 5:2 6:72 7:10 8:0 9:3 10:70 11:15 12:0 13:1 14:127 15:34 16:0 #
-3.179064209387291106110744231053e-08 1:1884 2:190 3:165 4:7 5:15256 6:127 7:167 8:0 9:484 10:121 11:165 12:0 13:0 14:115 15:163 16:0 #
3.179064209387291106110744231053e-08 1:0 2:251 3:0 4:0 5:0 6:104 7:0 8:0 9:0 10:104 11:0 12:1 13:0 14:63 15:0 16:1 #
3.179064209387291106110744231053e-08 1:10 2:61 3:14 4:0 5:14 6:90 7:21 8:0 9:11 10:58 11:20 12:0 13:4 14:66 15:24 16:28 #
-2.2321560196926551767200536607145e-09 1:840 2:84 3:30 4:0 5:0 6:108 7:20 8:0 9:1 10:130 11:18 12:1 13:11 14:125 15:22 16:0 #
-3.179064209387291106110744231053e-08 1:0 2:183 3:48 4:0 5:0 6:172 7:35 8:0 9:0 10:112 11:17 12:0 13:0 14:49 15:12 16:0 #
-1.3490345903905390766231776368544e-08 1:226 2:591 3:95 4:0 5:120 6:615 7:90 8:0 9:216 10:319 11:84 12:1 13:7084 14:2223 15:107 16:0 #
3.179064209387291106110744231053e-08 1:26 2:31 3:13 4:0 5:2 6:20 7:11 8:0 9:8 10:44 11:32 12:1 13:1 14:26 15:12 16:0 #
3.179064209387291106110744231053e-08 1:0 2:62 3:24 4:0 5:0 6:70 7:11 8:0 9:2 10:51 11:15 12:1 13:0 14:55 15:13 16:0 #
-1.5221310990481445072002671028283e-08 1:5 2:249 3:89 4:2 5:12 6:250 7:84 8:0 9:12463 10:202 11:85 12:5 13:0 14:136 15:86 16:0 #
-3.179064209387291106110744231053e-08 1:18 2:581 3:87 4:0 5:0 6:359 7:87 8:0 9:48 10:997 11:90 12:51 13:1535 14:255 15:97 16:1 #
3.179064209387291106110744231053e-08 1:14 2:72 3:13 4:0 5:1 6:111 7:14 8:0 9:3 10:50 11:18 12:0 13:198 14:192 15:25 16:191 #
-3.179064209387291106110744231053e-08 1:9 2:136 3:88 4:4 5:8 6:237 7:92 8:0 9:0 10:84 11:76 12:0 13:0 14:73 15:77 16:0 #
3.179064209387291106110744231053e-08 1:2 2:117 3:92 4:0 5:0 6:0 7:0 8:0 9:0 10:0 11:0 12:0 13:0 14:0 15:0 16:0 #
-3.179064209387291106110744231053e-08 1:13 2:157 3:49 4:1 5:133 6:106 7:11 8:0 9:5 10:118 11:41 12:0 13:1 14:104 15:15 16:0 #
3.179064209387291106110744231053e-08 1:0 2:233 3:4 4:0 5:0 6:124 7:54 8:0 9:43 10:23 11:69 12:0 13:81 14:0 15:90 16:455 #
3.179064209387291106110744231053e-08 1:70 2:1331 3:1251 4:6 5:447 6:145 7:93 8:9 9:24 10:127 11:85 12:0 13:94 14:118 15:86 16:0 #
-3.179064209387291106110744231053e-08 1:106 2:192 3:73 4:0 5:23599 6:234 7:27 8:2 9:67 10:127 11:20 12:2 13:0 14:74 15:14 16:0 #
-3.179064209387291106110744231053e-08 1:20 2:200 3:111 4:0 5:2 6:176 7:122 8:0 9:99 10:135 11:91 12:0 13:121 14:257 15:111 16:0 #
3.179064209387291106110744231053e-08 1:0 2:1224 3:1117 4:1 5:13 6:37 7:14 8:0 9:0 10:87 11:92 12:0 13:0 14:189 15:95 16:2 #
-3.179064209387291106110744231053e-08 1:5 2:176 3:109 4:0 5:6 6:125 7:89 8:0 9:3 10:94 11:77 12:0 13:0 14:85 15:66 16:2 #
3.179064209387291106110744231053e-08 1:0 2:1445 3:1230 4:0 5:466 6:481 7:14 8:6 9:79 10:183 11:15 12:0 13:44 14:246 15:36 16:0 #
-3.179064209387291106110744231053e-08 1:41 2:803 3:670 4:1 5:429 6:244 7:164 8:0 9:25 10:385 11:233 12:1 13:1820 14:182 15:210 16:2 #
-3.179064209387291106110744231053e-08 1:97 2:130 3:98 4:0 5:239 6:111 7:96 8:0 9:156 10:207 11:102 12:0 13:82 14:127 15:88 16:0 #
-2.285325125480649945644464737099e-11 1:0 2:113 3:45 4:0 5:1 6:107 7:21 8:0 9:4726 10:83 11:25 12:0 13:0 14:76 15:7 16:0 #
-3.179064209387291106110744231053e-08 1:12 2:481 3:576 4:5 5:27 6:750 7:975 8:0 9:1675 10:172 11:46 12:0 13:243 14:122 15:48 16:0 #
-3.179064209387291106110744231053e-08 1:29 2:225 3:100 4:0 5:30 6:312 7:99 8:189 9:3468 10:329 11:98 12:1 13:188 14:15859 15:75 16:2 #
3.179064209387291106110744231053e-08 1:0 2:1419 3:1294 4:0 5:0 6:88 7:14 8:0 9:0 10:102 11:32 12:0 13:0 14:59 15:17 16:0 #
-3.179064209387291106110744231053e-08 1:0 2:1985 3:170 4:0 5:0 6:645 7:153 8:0 9:7049 10:280 11:161 12:1 13:7 14:219 15:164 16:0 #
-3.179064209387291106110744231053e-08 1:486 2:1106 3:969 4:612 5:1519 6:119 7:25 8:0 9:847 10:105 11:16 12:31 13:413 14:163 15:12 16:48 #
3.179064209387291106110744231053e-08 1:26 2:1401 3:1637 4:2 5:34 6:19 7:2 8:0 9:1 10:77 11:12 12:0 13:5 14:51 15:21 16:0 #
-2.8952347796759736808856582068739e-08 1:8 2:6929 3:87 4:5 5:0 6:341 7:98 8:14 9:0 10:164 11:92 12:0 13:3 14:317 15:95 16:0 #
-3.179064209387291106110744231053e-08 1:109 2:109 3:29 4:391 5:22 6:81 7:36 8:0 9:94 10:83 11:28 12:497 13:7150 14:67 15:21 16:0 #
-1.8333641824864035645040009903095e-10 1:0 2:1624 3:81 4:0 5:0 6:154 7:96 8:0 9:0 10:151 11:92 12:1 13:0 14:4902 15:93 16:0 #
-3.179064209387291106110744231053e-08 1:84 2:222 3:55 4:0 5:0 6:54 7:17 8:0 9:66 10:98 11:20 12:0 13:52 14:117 15:30 16:0 #
-7.9049319337728514585035067326751e-09 1:41 2:967 3:91 4:0 5:23352 6:164 7:82 8:0 9:10 10:125 11:84 12:0 13:1 14:136 15:88 16:0 #
-2.9154036749964873116020003251947e-08 1:7063 2:194 3:100 4:0 5:679 6:162 7:90 8:0 9:1399 10:136 11:77 12:0 13:334 14:172 15:108 16:0 #
-3.9953952916806241932445621916226e-09 1:0 2:2013 3:87 4:0 5:0 6:1624 7:81 8:0 9:0 10:154 11:96 12:0 13:0 14:151 15:92 16:1 #
-1.2598744613697370289805436884695e-08 1:2 2:148689 3:23 4:0 5:0 6:229095 7:19 8:0 9:364 10:66773 11:14 12:0 13:547 14:126 15:16 16:0 #
-1.2423773934066591459048447577962e-08 1:20 2:103 3:34 4:0 5:1 6:52 7:31 8:0 9:0 10:44 11:10 12:0 13:124 14:84 15:11 16:0 #
-2.5414473306825817114783209343422e-08 1:0 2:267 3:59 4:0 5:141 6:202 7:15 8:0 9:7101 10:180 11:14 12:0 13:2 14:162 15:43 16:0 #
-2.6148388672505853272971917868744e-08 1:8 2:90 3:23 4:0 5:0 6:73 7:15 8:0 9:12 10:85 11:6 12:0 13:47 14:80 15:15 16:0 #
-1.8767975953050193255134211632248e-08 1:2 2:130 3:54 4:298 5:4 6:111 7:44 8:0 9:0 10:96 11:31 12:0 13:56 14:87 15:20 16:0 #
-1.0931943101618643512085714850166e-08 1:2 2:145 3:38 4:0 5:7043 6:123 7:28 8:10 9:0 10:69 11:23 12:0 13:6112 14:155 15:16 16:0 #
-9.0690339373589345565120867041905e-11 1:33 2:212 3:42 4:1 5:1 6:179 7:27 8:1 9:6 10:83 11:14 12:0 13:10 14:137 15:27 16:1 #
-2.8003374442745877923273206070581e-09 1:638 2:440 3:44 4:0 5:2 6:196 7:21 8:1 9:2 10:178 11:16 12:0 13:714 14:286 15:20 16:0 #
-1.557550566793448540425792714359e-12 1:32 2:111 3:20 4:0 5:69 6:90 7:15 8:0 9:2 10:145 11:38 12:0 13:7043 14:123 15:28 16:10 #
-3.179064209387291106110744231053e-08 1:0 2:170 3:0 4:9 5:0 6:148 7:0 8:3 9:0 10:192 11:0 12:11 13:0 14:126 15:0 16:5 #
-2.9718679644324837152685042651612e-12 1:25 2:177 3:98 4:0 5:1030 6:207 7:94 8:0 9:443 10:276 11:106 12:0 13:7676 14:209 15:85 16:0 #
-3.0998998094445620723807674479211e-12 1:136 2:121 3:144 4:0 5:82 6:136 7:159 8:0 9:519 10:13882 11:162 12:0 13:0 14:132 15:160 16:0 #
