SVM-light Version V6.02
0 # kernel type
3 # kernel parameter -d 
1 # kernel parameter -g 
1 # kernel parameter -s 
1 # kernel parameter -r 
empty# kernel parameter -u 
16 # highest feature index 
1144 # number of training documents 
407 # number of support vectors plus 1 
1.0005787 # threshold b, each following line is a SV (starting with alpha*y)
-6.7369987940691014319422068919868e-08 1:0 2:88 3:0 4:0 5:0 6:53 7:0 8:0 9:0 10:29 11:0 12:0 13:0 14:14 15:2 16:0 #
6.7369987940691014319422068919868e-08 1:0 2:7087 3:0 4:0 5:0 6:220 7:0 8:0 9:0 10:49 11:0 12:0 13:0 14:86 15:0 16:0 #
6.7369987940691014319422068919868e-08 1:0 2:868 3:0 4:0 5:0 6:2448 7:0 8:0 9:0 10:1343 11:0 12:3 13:0 14:4866 15:0 16:0 #
6.7369987940691014319422068919868e-08 1:0 2:0 3:0 4:0 5:0 6:0 7:0 8:0 9:0 10:0 11:0 12:0 13:0 14:0 15:0 16:0 #
-1.5876240451251875723245060730536e-08 1:0 2:116 3:72 4:0 5:0 6:53 7:54 8:0 9:0 10:33 11:13710 12:1380 13:29 14:1617 15:1232 16:3 #
6.7369987940691014319422068919868e-08 1:4725 2:36 3:15 4:0 5:1 6:57 7:8 8:0 9:0 10:31776 11:1 12:0 13:0 14:75375 15:14 16:0 #
6.7369987940691014319422068919868e-08 1:7116 2:107 3:117 4:1 5:3935 6:104 7:124 8:94 9:5 10:187 11:169 12:3 13:13 14:202 15:158 16:202 #
6.7369987940691014319422068919868e-08 1:208 2:695 3:65 4:1 5:7084 6:1627 7:78 8:0 9:45 10:166 11:64 12:0 13:9 14:149 15:68 16:0 #
-6.7369987940691014319422068919868e-08 1:14 2:2423 3:2680 4:0 5:6 6:33 7:7 8:0 9:5 10:67 11:14 12:0 13:2 14:67 15:10 16:0 #
-3.219068989337103308041344862378e-08 1:3 2:58 3:14 4:1 5:27 6:96 7:10 8:0 9:5971 10:135 11:18 12:0 13:7064 14:62 15:23 16:0 #
-6.7369987940691014319422068919868e-08 1:199 2:323 3:131 4:51 5:34 6:295 7:106 8:29 9:7193 10:361 11:57 12:0 13:0 14:214 15:70 16:0 #
-6.7369987940691014319422068919868e-08 1:7195 2:175 3:79 4:0 5:597 6:160 7:56 8:0 9:7061 10:148 11:70 12:0 13:427 14:109 15:67 16:0 #
-6.7369987940691014319422068919868e-08 1:0 2:84 3:0 4:0 5:0 6:83 7:0 8:0 9:0 10:64 11:0 12:188 13:0 14:41 15:0 16:0 #
-2.3499145749661891737283814229897e-08 1:44 2:63 3:28 4:0 5:68 6:86 7:11 8:2 9:7073 10:86 11:23 12:0 13:63 14:130 15:29 16:0 #
6.7369987940691014319422068919868e-08 1:0 2:75375 3:14 4:0 5:31 6:62 7:12 8:15 9:7057 10:84 11:35 12:0 13:0 14:79 15:20 16:0 #
6.7369987940691014319422068919868e-08 1:0 2:810 3:66 4:0 5:0 6:3601 7:62 8:0 9:0 10:1756 11:64 12:0 13:0 14:148 15:59 16:0 #
6.7369987940691014319422068919868e-08 1:12210 2:38 3:9 4:0 5:3 6:104 7:12 8:0 9:11855 10:80 11:17 12:0 13:1 14:121 15:14 16:0 #
-2.0487728003699744496466424864556e-08 1:28 2:116 3:62 4:0 5:41 6:928 7:66 8:0 9:23349 10:124 11:62 12:0 13:3 14:97 15:54 16:0 #
-6.7369987940691014319422068919868e-08 1:3 2:62 3:27 4:0 5:111 6:37 7:18 8:394 9:4 10:86 11:30 12:103 13:7148 14:34 15:8 16:0 #
6.7369987940691014319422068919868e-08 1:6 2:69 3:30 4:0 5:2 6:68 7:29 8:0 9:7063 10:60 11:9 12:0 13:0 14:53 15:20 16:0 #
-8.409429615656084532329461256675e-09 1:77 2:971 3:28 4:0 5:70 6:73 7:10 8:0 9:83 10:131 11:25 12:0 13:139 14:67 15:19 16:0 #
-2.409367391595213592290613408009e-08 1:0 2:0 3:0 4:0 5:0 6:0 7:0 8:0 9:0 10:0 11:0 12:0 13:0 14:0 15:0 16:0 #
6.7369987940691014319422068919868e-08 1:0 2:119 3:56 4:0 5:0 6:114 7:60 8:0 9:0 10:122 11:59 12:0 13:3815 14:127 15:65 16:0 #
6.7369987940691014319422068919868e-08 1:11 2:121 3:69 4:1 5:3103 6:4445 7:72 8:0 9:7042 10:203 11:94 12:1 13:0 14:166 15:114 16:0 #
6.7369987940691014319422068919868e-08 1:7063 2:60 3:9 4:0 5:0 6:53 7:20 8:0 9:0 10:52 11:15 12:3 13:0 14:44 15:13 16:1 #
-6.6697308175492213985855599611696e-08 1:0 2:164 3:0 4:0 5:0 6:119 7:0 8:0 9:0 10:7136 11:0 12:0 13:0 14:20 15:0 16:0 #
-6.7369987940691014319422068919868e-08 1:6 2:124 3:23 4:1 5:0 6:60 7:18 8:0 9:0 10:66 11:15 12:0 13:14 14:2423 15:2680 16:0 #
6.7369987940691014319422068919868e-08 1:0 2:100 3:70 4:1 5:0 6:108 7:75 8:0 9:0 10:116 11:72 12:0 13:0 14:53 15:54 16:0 #
-6.7369987940691014319422068919868e-08 1:0 2:7183 3:0 4:2 5:0 6:159 7:0 8:7 9:0 10:106 11:0 12:0 13:0 14:49 15:0 16:0 #
-5.7412290312175664921783002636602e-11 1:0 2:185 3:0 4:0 5:0 6:32 7:0 8:0 9:0 10:0 11:0 12:0 13:0 14:218 15:0 16:0 #
6.7369987940691014319422068919868e-08 1:10 2:2851 3:667 4:11 5:0 6:4004 7:570 8:1 9:0 10:0 11:3 12:0 13:22 14:436 15:149 16:9 #
-1.1053831522292489522975647564529e-08 1:0 2:106 3:56 4:0 5:0 6:90 7:61 8:0 9:0 10:100 11:70 12:1 13:0 14:108 15:75 16:0 #
-6.7369987940691014319422068919868e-08 1:126 2:48 3:12 4:0 5:365 6:19 7:7 8:12 9:80 10:69 11:17 12:20 13:7063 14:109 15:23 16:0 #
6.7369987940691014319422068919868e-08 1:0 2:114 3:60 4:0 5:0 6:122 7:59 8:0 9:3815 10:127 11:65 12:0 13:17 14:3453 15:75 16:2 #
6.7369987940691014319422068919868e-08 1:8 2:1340 3:1499 4:0 5:443 6:831 7:477 8:0 9:427 10:79 11:107 12:0 13:6755 14:96 15:123 16:0 #
6.7369987940691014319422068919868e-08 1:84 2:90 3:64 4:0 5:111 6:98 7:75 8:0 9:2 10:127 11:60 12:0 13:13 14:95 15:56 16:0 #
6.7369987940691014319422068919868e-08 1:0 2:2448 3:0 4:0 5:0 6:1343 7:0 8:3 9:0 10:4866 11:0 12:0 13:0 14:156 15:0 16:9 #
-5.7223982317800631714864044354701e-08 1:443 2:124 3:116 4:5 5:9460 6:119 7:122 8:2 9:7341 10:92 11:123 12:0 13:380 14:91 15:112 16:0 #
6.7369987940691014319422068919868e-08 1:188 2:15818 3:53 4:2 5:1189 6:187 7:63 8:0 9:0 10:405 11:69 12:0 13:235 14:235 15:63 16:0 #
-5.0756179764248071800228378526454e-08 1:0 2:53 3:54 4:0 5:0 6:33 7:13710 8:1380 9:29 10:1617 11:1232 12:3 13:0 14:119 15:56 16:0 #
6.7369987940691014319422068919868e-08 1:427 2:79 3:107 4:0 5:6755 6:96 7:123 8:0 9:7116 10:107 11:117 12:1 13:3935 14:104 15:124 16:94 #
6.7369987940691014319422068919868e-08 1:1401 2:158 3:66 4:0 5:0 6:135 7:59 8:0 9:0 10:100 11:62 12:0 13:23704 14:148 15:30 16:0 #
6.7369987940691014319422068919868e-08 1:0 2:73 3:97 4:0 5:0 6:81 7:108 8:0 9:0 10:83 11:106 12:0 13:0 14:99 15:123 16:53 #
6.7369987940691014319422068919868e-08 1:0 2:81 3:108 4:0 5:0 6:83 7:106 8:0 9:0 10:99 11:123 12:53 13:11 14:116 15:132 16:2 #
6.7369987940691014319422068919868e-08 1:8 2:190 3:53 4:2 5:12 6:168 7:68 8:0 9:3 10:190 11:63 12:0 13:7056 14:159 15:57 16:4 #
6.7369987940691014319422068919868e-08 1:0 2:1343 3:0 4:3 5:0 6:4866 7:0 8:0 9:0 10:156 11:0 12:9 13:0 14:109 15:0 16:1 #
-6.7369987940691014319422068919868e-08 1:0 2:42 3:16 4:0 5:0 6:50 7:15 8:0 9:0 10:44 11:19 12:0 13:20 14:2213 15:1865 16:0 #
-6.7369987940691014319422068919868e-08 1:0 2:92 3:17 4:0 5:0 6:54 7:14 8:0 9:0 10:34 11:8 12:0 13:1 14:1212 15:1113 16:1 #
6.7369987940691014319422068919868e-08 1:6755 2:96 3:123 4:0 5:7116 6:107 7:117 8:1 9:3935 10:104 11:124 12:94 13:5 14:187 15:169 16:3 #
6.7369987940691014319422068919868e-08 1:0 2:108 3:75 4:0 5:0 6:116 7:72 8:0 9:0 10:53 11:54 12:0 13:0 14:33 15:13710 16:1380 #
1.4635606145051857374337489362329e-08 1:0 2:159 3:524 4:0 5:143 6:1262 7:580 8:13939 9:816 10:217 11:20 12:110 13:73 14:139 15:50 16:12 #
-6.7369987940691014319422068919868e-08 1:9 2:54 3:10 4:0 5:0 6:57 7:13 8:0 9:12210 10:38 11:9 12:0 13:3 14:104 15:12 16:0 #
-6.7369987940691014319422068919868e-08 1:279 2:63 3:98 4:0 5:3446 6:99 7:104 8:0 9:191 10:133 11:121 12:0 13:88 14:116 15:116 16:25 #
6.7369987940691014319422068919868e-08 1:2 2:63 3:11 4:0 5:1 6:717 7:1167 8:2 9:5 10:721 11:982 12:0 13:2 14:47 15:19 16:0 #
6.7369987940691014319422068919868e-08 1:443 2:831 3:477 4:0 5:427 6:79 7:107 8:0 9:6755 10:96 11:123 12:0 13:7116 14:107 15:117 16:1 #
-4.9226108260180514035781692028327e-11 1:0 2:107 3:13 4:0 5:7070 6:173 7:15 8:0 9:0 10:95 11:21 12:0 13:0 14:146 15:47 16:0 #
6.7369987940691014319422068919868e-08 1:0 2:33 3:8 4:0 5:0 6:1762 7:1244 8:1 9:2 10:20 11:11 12:2 13:6 14:50 15:16 16:250 #
-6.7369987940691014319422068919868e-08 1:22 2:436 3:149 4:9 5:34 6:22 7:11 8:1287 9:10 10:300 11:352 12:1478 13:50 14:106 15:55 16:0 #
-1.4948964671764544538263002216444e-08 1:0 2:129 3:0 4:0 5:0 6:159 7:0 8:0 9:0 10:72 11:0 12:0 13:0 14:64 15:66 16:0 #
6.7369987940691014319422068919868e-08 1:0 2:59 3:89 4:0 5:0 6:73 7:97 8:0 9:0 10:81 11:108 12:0 13:0 14:83 15:106 16:0 #
-6.7369987940691014319422068919868e-08 1:0 2:220 3:34 4:99 5:0 6:171 7:26 8:51 9:4 10:132 11:27 12:0 13:3592 14:195 15:800 16:3463 #
-6.7369987940691014319422068919868e-08 1:34 2:22 3:11 4:1287 5:10 6:300 7:352 8:1478 9:50 10:106 11:55 12:0 13:101 14:583 15:60 16:0 #
-6.7369987940691014319422068919868e-08 1:94 2:92 3:70 4:0 5:0 6:77 7:50 8:0 9:124 10:1952 11:54 12:156 13:153 14:532 15:62 16:105 #
-2.1897890073496893274904935068094e-08 1:3 2:45 3:26 4:0 5:0 6:69 7:11 8:0 9:0 10:85 11:11 12:0 13:2 14:81347 15:19 16:0 #
-6.7369987940691014319422068919868e-08 1:0 2:99 3:123 4:53 5:11 6:116 7:132 8:2 9:611 10:393 11:250 12:1 13:8 14:1340 15:1499 16:0 #
-6.7369987940691014319422068919868e-08 1:0 2:83 3:106 4:0 5:0 6:99 7:123 8:53 9:11 10:116 11:132 12:2 13:611 14:393 15:250 16:1 #
6.7369987940691014319422068919868e-08 1:7050 2:86 3:16 4:0 5:0 6:92 7:17 8:0 9:0 10:54 11:14 12:0 13:0 14:34 15:8 16:0 #
6.7369987940691014319422068919868e-08 1:88 2:116 3:116 4:25 5:4 6:144 7:110 8:0 9:7117 10:124 11:128 12:0 13:18 14:94 15:105 16:0 #
6.7369987940691014319422068919868e-08 1:4 2:144 3:110 4:0 5:7117 6:124 7:128 8:0 9:18 10:94 11:105 12:0 13:1 14:117 15:109 16:1 #
-6.7369987940691014319422068919868e-08 1:1 2:117 3:109 4:1 5:439 6:117 7:110 8:17 9:2 10:85 11:109 12:0 13:16 14:113 15:119 16:0 #
6.7369987940691014319422068919868e-08 1:34 2:295 3:106 4:29 5:7193 6:361 7:57 8:0 9:0 10:214 11:70 12:0 13:1 14:199 15:79 16:0 #
-4.8543217228995363574876181766982e-08 1:409 2:224 3:69 4:1 5:3071 6:186 7:65 8:0 9:188 10:15818 11:53 12:2 13:1189 14:187 15:63 16:0 #
6.7369987940691014319422068919868e-08 1:2 2:91 3:65 4:0 5:279 6:63 7:98 8:0 9:3446 10:99 11:104 12:0 13:191 14:133 15:121 16:0 #
-6.7369987940691014319422068919868e-08 1:142 2:340 3:101 4:31 5:199 6:323 7:131 8:51 9:34 10:295 11:106 12:29 13:7193 14:361 15:57 16:0 #
-6.7369987940288157508774043169542e-08 1:0 2:116 3:0 4:8 5:0 6:123 7:0 8:5 9:0 10:93 11:0 12:5 13:0 14:124 15:0 16:0 #
-6.327668139250573615020009415541e-08 1:0 2:100 3:62 4:0 5:23704 6:148 7:30 8:0 9:1 10:198 11:24 12:2 13:67 14:116 15:14 16:2 #
6.7369987940691014319422068919868e-08 1:31 2:62 3:12 4:15 5:7057 6:84 7:35 8:0 9:0 10:79 11:20 12:0 13:0 14:82 15:26 16:1 #
-6.7369987940691014319422068919868e-08 1:2 2:20 3:11 4:2 5:6 6:50 7:16 8:250 9:2 10:70 11:10 12:55 13:4 14:18 15:8 16:0 #
-3.1258233843537267963646683610612e-08 1:1 2:73 3:15 4:0 5:7042 6:92 7:19 8:10 9:0 10:48 11:20 12:0 13:3460 14:63 15:5 16:0 #
6.7369987940691014319422068919868e-08 1:2 2:68 3:29 4:0 5:7063 6:60 7:9 8:0 9:0 10:53 11:20 12:0 13:0 14:52 15:15 16:3 #
-6.7369987940691014319422068919868e-08 1:0 2:83 3:0 4:0 5:0 6:64 7:0 8:188 9:0 10:41 11:0 12:0 13:0 14:19 15:0 16:0 #
-6.7369987940691014319422068919868e-08 1:1 2:77 3:22 4:0 5:0 6:90 7:43 8:298 9:6 10:106 11:34 12:0 13:0 14:68 15:30 16:0 #
6.7369987940691014319422068919868e-08 1:49 2:89 3:109 4:0 5:1751 6:129 7:126 8:0 9:5232 10:94 11:119 12:0 13:34 14:72 15:106 16:2 #
-5.4553687261881096627526982478784e-08 1:2 2:70 3:10 4:55 5:4 6:18 7:8 8:0 9:11983 10:46 11:3 12:0 13:4 14:58 15:8 16:0 #
6.7369987940691014319422068919868e-08 1:0 2:135 3:59 4:0 5:0 6:100 7:62 8:0 9:23704 10:148 11:30 12:0 13:1 14:198 15:24 16:2 #
-6.7369987940691014319422068919868e-08 1:737 2:601 3:981 4:1 5:4 6:279 7:31 8:0 9:0 10:58 11:15 12:0 13:8 14:42 15:4 16:29 #
-6.7369987940691014319422068919868e-08 1:0 2:45 3:24 4:0 5:0 6:82 7:97 8:0 9:0 10:155 11:71 12:2 13:333 14:388 15:55 16:120 #
6.7369987940691014319422068919868e-08 1:155 2:96 3:123 4:0 5:49 6:89 7:109 8:0 9:1751 10:129 11:126 12:0 13:5232 14:94 15:119 16:0 #
-6.7369987940691014319422068919868e-08 1:11855 2:80 3:17 4:0 5:1 6:121 7:14 8:0 9:0 10:70 11:10 12:6 13:0 14:100 15:7 16:0 #
-5.5795030675427811624276369650843e-08 1:0 2:104 3:0 4:0 5:0 6:76 7:0 8:0 9:0 10:7160 11:0 12:0 13:0 14:164 15:0 16:0 #
-5.4948397271840355932857836648853e-08 1:10 2:1130 3:1414 4:3 5:17 6:41 7:32 8:0 9:1675 10:152 11:36 12:0 13:0 14:31 15:10 16:0 #
6.7369987940691014319422068919868e-08 1:14 2:138 3:38 4:0 5:10 6:2851 7:667 8:11 9:0 10:4004 11:570 12:1 13:0 14:0 15:3 16:0 #
-4.4224513105382374175479799757391e-08 1:11983 2:46 3:3 4:0 5:4 6:58 7:8 8:0 9:0 10:51 11:14 12:0 13:1 14:105 15:12 16:0 #
-5.5140027567231013339021927777139e-11 1:0 2:7219 3:0 4:0 5:0 6:262 7:0 8:0 9:0 10:185 11:0 12:0 13:0 14:92 15:0 16:0 #
6.7369987940691014319422068919868e-08 1:976 2:164 3:33 4:0 5:1442 6:91 7:8 8:0 9:395 10:57 11:9 12:31 13:4 14:147 15:11 16:45 #
5.5176006788111997866297831101534e-08 1:0 2:124 3:507 4:0 5:0 6:159 7:524 8:0 9:143 10:1262 11:580 12:13939 13:816 14:217 15:20 16:110 #
6.7369987940691014319422068919868e-08 1:0 2:55 3:12 4:1 5:0 6:33 7:8 8:0 9:0 10:1762 11:1244 12:1 13:2 14:20 15:11 16:2 #
2.5520482502330312875458005641809e-08 1:3592 2:195 3:800 4:3463 5:0 6:124 7:507 8:0 9:0 10:159 11:524 12:0 13:143 14:1262 15:580 16:13939 #
6.7369987940691014319422068919868e-08 1:13 2:95 3:56 4:0 5:37 6:70 7:63 8:1 9:27 10:76 11:82 12:0 13:5455 14:74 15:55 16:0 #
6.7369987940691014319422068919868e-08 1:4 2:132 3:27 4:0 5:3592 6:195 7:800 8:3463 9:0 10:124 11:507 12:0 13:0 14:159 15:524 16:0 #
-6.7369987940691014319422068919868e-08 1:2 2:14 3:3 4:0 5:9 6:14 7:3 8:0 9:1 10:19 11:8 12:0 13:2 14:14 15:1 16:0 #
6.7369987940691014319422068919868e-08 1:77 2:0 3:25 4:455 5:39 6:1018 7:960 8:612 9:976 10:164 11:33 12:0 13:1442 14:91 15:8 16:0 #
6.7369987940691014319422068919868e-08 1:5476 2:45 3:8 4:0 5:6 6:93 7:18 8:0 9:31 10:130 11:21 12:0 13:166 14:109 15:24 16:0 #
6.7369987940691014319422068919868e-08 1:0 2:116 3:59 4:0 5:0 6:763 7:61 8:0 9:11 10:121 11:69 12:1 13:3103 14:4445 15:72 16:0 #
6.7369987940691014319422068919868e-08 1:0 2:547 3:921 4:0 5:737 6:601 7:981 8:1 9:4 10:279 11:31 12:0 13:0 14:58 15:15 16:0 #
-6.7369987940691014319422068919868e-08 1:9 2:50 3:17 4:0 5:2 6:26 7:11 8:28 9:4 10:69 11:16 12:0 13:0 14:78 15:13 16:23 #
6.7369987940691014319422068919868e-08 1:17 2:3453 3:75 4:2 5:20 6:1178 7:136 8:2 9:0 10:116 11:59 12:0 13:0 14:763 15:61 16:0 #
6.7369987940691014319422068919868e-08 1:3935 2:104 3:124 4:94 5:5 6:187 7:169 8:3 9:13 10:202 11:158 12:202 13:0 14:81 15:117 16:5 #
-6.7369881914317425194267067306564e-08 1:0 2:17 3:9 4:0 5:0 6:30 7:11 8:0 9:5836 10:25 11:6 12:0 13:4 14:46 15:8 16:0 #
6.7369987940691014319422068919868e-08 1:5295 2:40 3:4 4:0 5:12 6:70 7:12 8:0 9:1 10:80 11:10 12:0 13:1 14:24 15:9 16:0 #
-6.7369987940691014319422068919868e-08 1:0 2:0 3:0 4:0 5:0 6:0 7:0 8:0 9:0 10:0 11:0 12:0 13:9 14:48 15:48 16:1 #
-6.6823157935714295127244252616577e-08 1:7064 2:62 3:23 4:0 5:0 6:64 7:24 8:0 9:0 10:89 11:17 12:0 13:2 14:65 15:21 16:0 #
-6.7369987940691014319422068919868e-08 1:0 2:58 3:14 4:0 5:0 6:61 7:18 8:156 9:0 10:68 11:19 12:0 13:0 14:34 15:8 16:0 #
-6.7369987940691014319422068919868e-08 1:0 2:70 3:8 4:0 5:2966 6:58 7:5 8:0 9:4840 10:56 11:8 12:0 13:16 14:44 15:9 16:0 #
-6.7369987940691014319422068919868e-08 1:0 2:171 3:26 4:51 5:4 6:132 7:27 8:0 9:3592 10:195 11:800 12:3463 13:0 14:124 15:507 16:0 #
-6.7369987940691014319422068919868e-08 1:0 2:90 3:24 4:0 5:0 6:62 7:18 8:0 9:71 10:27 11:13 12:0 13:26 14:1397 15:1631 16:2 #
6.7369987940691014319422068919868e-08 1:39 2:1018 3:960 4:612 5:976 6:164 7:33 8:0 9:1442 10:91 11:8 12:0 13:395 14:57 15:9 16:31 #
6.7369987940691014319422068919868e-08 1:0 2:4866 3:0 4:0 5:0 6:156 7:0 8:9 9:0 10:109 11:0 12:1 13:0 14:116 15:0 16:8 #
-6.7369987541727127392307680406325e-08 1:7084 2:1627 3:78 4:0 5:45 6:166 7:64 8:0 9:9 10:149 11:68 12:0 13:0 14:7029 15:68 16:19 #
6.7369987940691014319422068919868e-08 1:0 2:19 3:0 4:0 5:0 6:32 7:0 8:0 9:0 10:868 11:0 12:0 13:0 14:2448 15:0 16:0 #
-6.7369987940691014319422068919868e-08 1:365 2:19 3:7 4:12 5:80 6:69 7:17 8:20 9:7063 10:109 11:23 12:0 13:69 14:30 15:3 16:0 #
6.7369987940691014319422068919868e-08 1:0 2:166 3:78 4:3 5:18 6:234 7:69 8:186 9:409 10:224 11:69 12:1 13:3071 14:186 15:65 16:0 #
6.7369987940691014319422068919868e-08 1:1442 2:91 3:8 4:0 5:395 6:57 7:9 8:31 9:4 10:147 11:11 12:45 13:838 14:295 15:23 16:3 #
-6.7369987940691014319422068919868e-08 1:4 2:43 3:4 4:0 5:121 6:72 7:9 8:0 9:2 10:63 11:11 12:0 13:1 14:717 15:1167 16:2 #
6.7369987940691014319422068919868e-08 1:2652 2:126 3:14 4:0 5:1 6:51 7:15 8:0 9:0 10:102 11:53 12:0 13:0 14:58 15:14 16:0 #
6.7369987940691014319422068919868e-08 1:10 2:744 3:738 4:1 5:18 6:751 7:629 8:1 9:446 10:104 11:108 12:0 13:7 14:265 15:140 16:0 #
-6.7369987940691014319422068919868e-08 1:0 2:0 3:3 4:0 5:22 6:436 7:149 8:9 9:34 10:22 11:11 12:1287 13:10 14:300 15:352 16:1478 #
-6.5058444432988891265035036326481e-08 1:0 2:116 3:1 4:0 5:0 6:125 7:0 8:0 9:0 10:7087 11:0 12:0 13:0 14:220 15:0 16:0 #
6.7369987940691014319422068919868e-08 1:6 2:686 3:584 4:0 5:17 6:914 7:782 8:0 9:3 10:700 11:102 12:1 13:6 14:213 15:44 16:0 #
-6.7369987940691014319422068919868e-08 1:16 2:22 3:9 4:0 5:31 6:1 7:125 8:0 9:77 10:0 11:25 12:455 13:39 14:1018 15:960 16:612 #
6.7369987940691014319422068919868e-08 1:4 2:127 3:66 4:0 5:2 6:96 7:56 8:0 9:23 10:1122 11:1081 12:1 13:132 14:246 15:222 16:6 #
6.7369987940691014319422068919868e-08 1:0 2:61 3:15 4:0 5:0 6:81 7:18 8:0 9:0 10:1199 11:1054 12:0 13:1 14:155 15:164 16:0 #
6.7369987940691014319422068919868e-08 1:38 2:102 3:16 4:0 5:0 6:136 7:19 8:0 9:2 10:0 11:5 12:1 13:8 14:1602 15:1286 16:0 #
-6.7369987940691014319422068919868e-08 1:0 2:82 3:97 4:0 5:0 6:155 7:71 8:2 9:333 10:388 11:55 12:120 13:0 14:94 15:72 16:0 #
6.7369987940691014319422068919868e-08 1:0 2:1717 3:72 4:0 5:0 6:949 7:58 8:0 9:0 10:1375 11:54 12:0 13:0 14:108 15:67 16:0 #
-6.7369987940691014319422068919868e-08 1:17 2:104 3:59 4:0 5:0 6:319 7:65 8:0 9:2 10:926 11:61 12:0 13:180 14:182 15:72 16:52 #
-6.4630733202213210231113979520323e-08 1:0 2:7160 3:0 4:0 5:0 6:164 7:0 8:0 9:0 10:119 11:0 12:0 13:0 14:7136 15:0 16:0 #
6.7369987940691014319422068919868e-08 1:6 2:166 3:118 4:1 5:7 6:1253 7:127 8:0 9:0 10:1070 11:117 12:0 13:0 14:540 15:109 16:0 #
-6.7369987940691014319422068919868e-08 1:0 2:40 3:2 4:0 5:0 6:10 7:0 8:0 9:0 10:0 11:0 12:0 13:0 14:3 15:0 16:0 #
-6.7369987940691014319422068919868e-08 1:0 2:10 3:0 4:0 5:0 6:0 7:0 8:0 9:0 10:3 11:0 12:0 13:0 14:3148 15:0 16:0 #
-6.7369987940691014319422068919868e-08 1:88 2:65 3:16 4:391 5:3 6:62 7:27 8:0 9:111 10:37 11:18 12:394 13:4 14:86 15:30 16:103 #
-6.7369987940691014319422068919868e-08 1:2 2:62 3:8 4:0 5:1 6:77 7:22 8:0 9:0 10:90 11:43 12:298 13:6 14:106 15:34 16:0 #
6.7369987940691014319422068919868e-08 1:1 2:24 3:6 4:1 5:0 6:11 7:5 8:0 9:6 10:686 11:584 12:0 13:17 14:914 15:782 16:0 #
6.7369987940691014319422068919868e-08 1:0 2:124 3:0 4:0 5:0 6:155 7:0 8:0 9:0 10:169 11:0 12:4 13:0 14:7183 15:0 16:2 #
-6.7369987940691014319422068919868e-08 1:0 2:113 3:22 4:0 5:21 6:348 7:32 8:7 9:5476 10:45 11:8 12:0 13:6 14:93 15:18 16:0 #
6.7369987940691014319422068919868e-08 1:179 2:214 3:31 4:0 5:1270 6:140 7:19 8:0 9:0 10:97 11:16 12:0 13:419 14:127 15:8 16:0 #
6.7369987940691014319422068919868e-08 1:9 2:47 3:22 4:0 5:841 6:67 7:24 8:0 9:834 10:62 11:13 12:0 13:0 14:79 15:16 16:0 #
-6.7369987940691014319422068919868e-08 1:5 2:721 3:982 4:0 5:2 6:47 7:19 8:0 9:0 10:13 11:2 12:674 13:0 14:0 15:2 16:0 #
-6.7369987940691014319422068919868e-08 1:0 2:79 3:11 4:0 5:0 6:61 7:15 8:0 9:0 10:81 11:18 12:0 13:0 14:1199 15:1054 16:0 #
-6.7369987940691014319422068919868e-08 1:10 2:43 3:15 4:0 5:13 6:95 7:64 8:4 9:11 10:61 11:101 12:2 13:10 14:1130 15:1414 16:3 #
-6.7369987940691014319422068919868e-08 1:1 2:52 3:42 4:0 5:2 6:59 7:47 8:0 9:0 10:69 11:12 12:0 13:0 14:1353 15:1056 16:1 #
6.7369987940691014319422068919868e-08 1:5 2:1489 3:770 4:0 5:27 6:98 7:59 8:0 9:48 10:113 11:87 12:0 13:6 14:105 15:71 16:0 #
6.7369987940691014319422068919868e-08 1:1 2:1212 3:1113 4:1 5:12 6:29 7:8 8:0 9:0 10:45 11:24 12:0 13:0 14:82 15:97 16:0 #
6.7369987940691014319422068919868e-08 1:0 2:229 3:65 4:0 5:35 6:1362 7:63 8:0 9:29 10:395 11:70 12:0 13:0 14:166 15:78 16:3 #
6.7369987940691014319422068919868e-08 1:1189 2:187 3:63 4:0 5:0 6:405 7:69 8:0 9:235 10:235 11:63 12:0 13:76 14:293 15:99 16:21 #
6.7369987940691014319422068919868e-08 1:18 2:751 3:629 4:1 5:446 6:104 7:108 8:0 9:7 10:265 11:140 12:0 13:24 14:274 15:167 16:1 #
-6.7369987940691014319422068919868e-08 1:1 2:13 3:7 4:0 5:1 6:24 7:6 8:1 9:0 10:11 11:5 12:0 13:6 14:686 15:584 16:0 #
-2.3467279053161760327128604330937e-10 1:0 2:23 3:5 4:0 5:4 6:28 7:7 8:0 9:136 10:47 11:7 12:0 13:7056 14:56 15:25 16:0 #
-6.7369987940691014319422068919868e-08 1:410 2:100 3:18 4:1 5:126 6:48 7:12 8:0 9:365 10:19 11:7 12:12 13:80 14:69 15:17 16:20 #
6.7369987940691014319422068919868e-08 1:121 2:206 3:63 4:0 5:108 6:482 7:69 8:0 9:96 10:472 11:65 12:0 13:31 14:324 15:62 16:0 #
-6.7369987940691014319422068919868e-08 1:0 2:78 3:13 4:23 5:0 6:28 7:10 8:0 9:0 10:547 11:921 12:0 13:737 14:601 15:981 16:1 #
6.7369987940691014319422068919868e-08 1:104 2:55 3:106 4:0 5:0 6:50 7:103 8:0 9:16 10:625 11:227 12:16 13:10 14:744 15:738 16:1 #
-6.7369987940691014319422068919868e-08 1:0 2:27 3:0 4:0 5:0 6:0 7:0 8:0 9:0 10:0 11:0 12:0 13:0 14:106 15:0 16:0 #
-6.7369987940691014319422068919868e-08 1:32 2:75 3:17 4:0 5:3 6:54 7:11 8:0 9:1 10:62 11:6 12:0 13:0 14:1165 15:879 16:22 #
6.7369987940691014319422068919868e-08 1:235 2:235 3:63 4:0 5:76 6:293 7:99 8:21 9:142 10:340 11:101 12:31 13:199 14:323 15:131 16:51 #
6.7369987940691014319422068919868e-08 1:1270 2:140 3:19 4:0 5:0 6:97 7:16 8:0 9:419 10:127 11:8 12:0 13:104 14:234 15:48 16:153 #
6.7369987940691014319422068919868e-08 1:0 2:100 3:101 4:0 5:7 6:141 7:109 8:4 9:14 10:138 11:38 12:0 13:10 14:2851 15:667 16:11 #
-6.7369987940691014319422068919868e-08 1:0 2:186 3:0 4:0 5:0 6:8 7:0 8:0 9:0 10:0 11:0 12:0 13:0 14:33 15:0 16:0 #
6.7369987940691014319422068919868e-08 1:0 2:405 3:69 4:0 5:235 6:235 7:63 8:0 9:76 10:293 11:99 12:21 13:142 14:340 15:101 16:31 #
6.7369987940691014319422068919868e-08 1:240 2:90 3:80 4:0 5:0 6:45 7:62 8:0 9:56 10:53 11:67 12:0 13:221 14:67 15:67 16:0 #
-6.7369987940691014319422068919868e-08 1:12 2:70 3:12 4:0 5:1 6:80 7:10 8:0 9:1 10:24 11:9 12:0 13:195 14:122 15:23 16:191 #
6.7369987940691014319422068919868e-08 1:70 2:37 3:6 4:0 5:142 6:43 7:19 8:0 9:410 10:100 11:18 12:1 13:126 14:48 15:12 16:0 #
-6.7369987940691014319422068919868e-08 1:0 2:154 3:0 4:0 5:0 6:104 7:0 8:0 9:0 10:76 11:0 12:0 13:0 14:7160 15:0 16:0 #
-6.7292359742834391782669500522984e-08 1:0 2:43 3:0 4:0 5:0 6:27 7:0 8:0 9:0 10:0 11:0 12:0 13:0 14:0 15:0 16:0 #
-6.7369987940691014319422068919868e-08 1:0 2:41 3:0 4:0 5:0 6:19 7:0 8:0 9:0 10:0 11:0 12:0 13:0 14:95 15:0 16:0 #
6.7369987940691014319422068919868e-08 1:63 2:130 3:29 4:0 5:570 6:138 7:28 8:0 9:111 10:98 11:33 12:0 13:115 14:117 15:10 16:0 #
6.7369987940691014319422068919868e-08 1:362 2:129 3:55 4:9 5:24 6:102 7:59 8:0 9:94 10:92 11:70 12:0 13:0 14:77 15:50 16:0 #
-5.2818192569827642907951623920879e-09 1:0 2:69 3:11 4:0 5:0 6:85 7:11 8:0 9:2 10:81347 11:19 12:0 13:0 14:168346 15:14 16:0 #
-6.7369987940691014319422068919868e-08 1:68 2:158 3:20 4:0 5:0 6:131 7:24 8:0 9:0 10:658 11:579 12:2 13:15 14:1006 15:689 16:1 #
-6.7369867357380664914121232503263e-08 1:0 2:14 3:2 4:0 5:0 6:116 7:1 8:0 9:0 10:125 11:0 12:0 13:0 14:7087 15:0 16:0 #
6.7369987940691014319422068919868e-08 1:36 2:88 3:28 4:0 5:2 6:83 7:12 8:0 9:229 10:95 11:17 12:0 13:44 14:63 15:28 16:0 #
-6.7369987940691014319422068919868e-08 1:2 2:926 3:61 4:0 5:180 6:182 7:72 8:52 9:1401 10:158 11:66 12:0 13:0 14:135 15:59 16:0 #
6.7369987940691014319422068919868e-08 1:142 2:43 3:19 4:0 5:410 6:100 7:18 8:1 9:126 10:48 11:12 12:0 13:365 14:19 15:7 16:12 #
-6.7369987940691014319422068919868e-08 1:0 2:27 3:2 4:0 5:0 6:42 7:1 8:0 9:0 10:0 11:0 12:0 13:0 14:20 15:6 16:0 #
6.7369987940691014319422068919868e-08 1:0 2:45 3:62 4:0 5:56 6:53 7:67 8:0 9:221 10:67 11:67 12:0 13:60 14:54 15:76 16:1 #
-6.7369987940691014319422068919868e-08 1:0 2:63 3:0 4:0 5:1 6:5 7:0 8:0 9:0 10:3 11:0 12:0 13:0 14:35 15:1 16:0 #
6.7369987940691014319422068919868e-08 1:21 2:147 3:83 4:0 5:37 6:135 7:62 8:0 9:172 10:162 11:66 12:0 13:2 14:787 15:61 16:0 #
-6.7369987940691014319422068919868e-08 1:0 2:77 3:50 4:0 5:124 6:1952 7:54 8:156 9:153 10:532 11:62 12:105 13:17 14:104 15:59 16:0 #
-6.7369987940691014319422068919868e-08 1:0 2:92 3:117 4:0 5:4 6:112 7:112 8:0 9:0 10:101 11:115 12:0 13:15 14:1041 15:1230 16:4 #
-6.7369987940691014319422068919868e-08 1:0 2:38 3:2 4:0 5:0 6:40 7:2 8:0 9:0 10:10 11:0 12:0 13:0 14:0 15:0 16:0 #
-6.7369987940691014319422068919868e-08 1:3 2:62 3:15 4:0 5:2 6:62 7:8 8:0 9:1 10:77 11:22 12:0 13:0 14:90 15:43 16:298 #
-6.732076183247491690332978912098e-08 1:0 2:33 3:8 4:0 5:0 6:33 7:7 8:0 9:0 10:3 11:0 12:0 13:1 14:51 15:8 16:0 #
-6.7369987940691014319422068919868e-08 1:0 2:18 3:0 4:0 5:0 6:281 7:0 8:0 9:0 10:7 11:0 12:0 13:0 14:59 15:0 16:0 #
6.7369987940691014319422068919868e-08 1:83 2:67 3:13 4:0 5:7 6:64 7:14 8:0 9:247 10:89 11:27 12:0 13:10 14:53 15:13 16:0 #
6.7369987940691014319422068919868e-08 1:2 2:85 3:109 4:0 5:16 6:113 7:119 8:0 9:104 10:55 11:106 12:0 13:0 14:50 15:103 16:0 #
6.7369987940691014319422068919868e-08 1:1 2:99 3:52 4:0 5:4 6:127 7:66 8:0 9:2 10:96 11:56 12:0 13:23 14:1122 15:1081 16:1 #
-7.3525369409391597153025088573486e-09 1:0 2:7136 3:0 4:0 5:0 6:20 7:0 8:0 9:0 10:45 11:0 12:0 13:0 14:186 15:0 16:0 #
6.7369987940691014319422068919868e-08 1:0 2:611 3:0 4:0 5:0 6:524 7:0 8:0 9:0 10:3664 11:0 12:0 13:0 14:158 15:0 16:0 #
-6.7369987940691014319422068919868e-08 1:3 2:54 3:11 4:0 5:1 6:62 7:6 8:0 9:0 10:1165 11:879 12:22 13:15 14:683 15:951 16:0 #
-6.7369987940691014319422068919868e-08 1:0 2:214 3:70 4:0 5:1 6:199 7:79 8:0 9:10 10:177 11:304 12:123 13:27 14:1762 15:923 16:0 #
-6.7369987940691014319422068919868e-08 1:0 2:66 3:54 4:0 5:2 6:89 7:63 8:0 9:0 10:145 11:74 12:0 13:7 14:193 15:585 16:0 #
-6.7369987940691014319422068919868e-08 1:29 2:395 3:70 4:0 5:0 6:166 7:78 8:3 9:18 10:234 11:69 12:186 13:409 14:224 15:69 16:1 #
6.7369987940691014319422068919868e-08 1:5 2:187 3:169 4:3 5:13 6:202 7:158 8:202 9:0 10:81 11:117 12:5 13:443 14:124 15:116 16:5 #
6.7369987940691014319422068919868e-08 1:0 2:229 3:1 4:0 5:0 6:429 7:0 8:1 9:0 10:175 11:0 12:0 13:0 14:156 15:0 16:0 #
6.7369987940691014319422068919868e-08 1:0 2:111 3:0 4:0 5:0 6:412 7:0 8:0 9:0 10:84 11:0 12:0 13:0 14:83 15:0 16:0 #
-6.7369987940691014319422068919868e-08 1:51 2:99 3:33 4:0 5:0 6:91 7:20 8:0 9:21 10:86 11:17 12:0 13:88 14:65 15:16 16:391 #
6.7369987940691014319422068919868e-08 1:3 2:169 3:71 4:0 5:0 6:229 7:65 8:0 9:35 10:1362 11:63 12:0 13:29 14:395 15:70 16:0 #
-6.7369987940691014319422068919868e-08 1:0 2:102 3:53 4:0 5:0 6:58 7:14 8:0 9:0 10:61 11:18 12:156 13:0 14:68 15:19 16:0 #
-6.7369987940691014319422068919868e-08 1:0 2:412 3:0 4:0 5:0 6:84 7:0 8:0 9:0 10:83 11:0 12:0 13:0 14:64 15:0 16:188 #
-6.7369987940691014319422068919868e-08 1:1 2:24 3:9 4:0 5:195 6:122 7:23 8:191 9:5 10:103 11:12 12:0 13:3 14:108 15:5 16:3 #
6.7369987940691014319422068919868e-08 1:153 2:532 3:62 4:105 5:17 6:104 7:59 8:0 9:0 10:319 11:65 12:0 13:2 14:926 15:61 16:0 #
6.7369987940691014319422068919868e-08 1:35 2:1362 3:63 4:0 5:29 6:395 7:70 8:0 9:0 10:166 11:78 12:3 13:18 14:234 15:69 16:186 #
6.7369987940691014319422068919868e-08 1:24 2:102 3:59 4:0 5:94 6:92 7:70 8:0 9:0 10:77 11:50 12:0 13:124 14:1952 15:54 16:156 #
6.7369987940691014319422068919868e-08 1:41 2:61 3:16 4:0 5:4 6:81 7:15 8:0 9:107 10:147 11:30 12:0 13:511 14:155 15:14 16:1 #
-6.7369987940691014319422068919868e-08 1:45 2:166 3:64 4:0 5:9 6:149 7:68 8:0 9:0 10:7029 11:68 12:19 13:0 14:139 15:71 16:0 #
-6.7369987940691014319422068919868e-08 1:2 2:57 3:52 4:0 5:0 6:0 7:0 8:0 9:0 10:0 11:0 12:0 13:0 14:0 15:0 16:0 #
-6.7369987940691014319422068919868e-08 1:1 2:717 3:1167 4:2 5:5 6:721 7:982 8:0 9:2 10:47 11:19 12:0 13:0 14:13 15:2 16:674 #
-6.7369987940691014319422068919868e-08 1:1 2:51 3:15 4:0 5:0 6:102 7:53 8:0 9:0 10:58 11:14 12:0 13:0 14:61 15:18 16:156 #
6.7369987940691014319422068919868e-08 1:0 2:34 3:0 4:0 5:0 6:137 7:0 8:0 9:0 10:442 11:0 12:0 13:0 14:229 15:1 16:0 #
6.7369987940691014319422068919868e-08 1:0 2:242 3:30 4:0 5:0 6:194 7:11 8:0 9:0 10:320 11:65 12:0 13:13 14:243 15:75 16:0 #
6.7369987940691014319422068919868e-08 1:0 2:324 3:118 4:0 5:0 6:159 7:105 8:0 9:0 10:232 11:103 12:0 13:0 14:145 15:113 16:0 #
6.7369987940691014319422068919868e-08 1:0 2:4004 3:570 4:1 5:0 6:0 7:3 8:0 9:22 10:436 11:149 12:9 13:34 14:22 15:11 16:1287 #
-6.7343140114473182054952019644917e-08 1:0 2:4533 3:0 4:0 5:0 6:258 7:1 8:0 9:0 10:154 11:0 12:0 13:0 14:198 15:0 16:0 #
6.7369987940691014319422068919868e-08 1:0 2:102 3:106 4:0 5:0 6:100 7:101 8:0 9:7 10:141 11:109 12:4 13:14 14:138 15:38 16:0 #
-6.7369987940691014319422068919868e-08 1:111 2:37 3:18 4:394 5:4 6:86 7:30 8:103 9:7148 10:34 11:8 12:0 13:126 14:127 15:22 16:0 #
-6.7369987940691014319422068919868e-08 1:1 2:4 3:5 4:0 5:19 6:3 7:2 8:0 9:163 10:16 11:0 12:0 13:21 14:118 15:47 16:0 #
-6.7369987940691014319422068919868e-08 1:0 2:12 3:7 4:0 5:2 6:14 7:3 8:0 9:9 10:14 11:3 12:0 13:1 14:19 15:8 16:0 #
6.7369987940691014319422068919868e-08 1:13 2:243 3:75 4:0 5:8 6:190 7:53 8:2 9:12 10:168 11:68 12:0 13:3 14:190 15:63 16:0 #
6.7369987940691014319422068919868e-08 1:0 2:141 3:21 4:0 5:348 6:175 7:29 8:0 9:0 10:181 11:31 12:0 13:0 14:105 15:21 16:0 #
-6.4068908618303147987946917409768e-08 1:0 2:208 3:0 4:0 5:0 6:955 7:0 8:0 9:0 10:190 11:0 12:0 13:0 14:7219 15:0 16:0 #
6.7369987940691014319422068919868e-08 1:0 2:103 3:17 4:0 5:0 6:90 7:24 8:0 9:0 10:62 11:18 12:0 13:71 14:27 15:13 16:0 #
6.7369987940691014319422068919868e-08 1:0 2:86 3:0 4:0 5:0 6:52 7:0 8:1 9:0 10:110 11:0 12:1 13:0 14:25 15:0 16:0 #
-6.7369987940691014319422068919868e-08 1:0 2:42 3:1 4:0 5:0 6:0 7:0 8:0 9:0 10:20 11:6 12:0 13:0 14:34 15:0 16:0 #
6.7369987940691014319422068919868e-08 1:0 2:156 3:0 4:0 5:0 6:148 7:0 8:0 9:0 10:271 11:0 12:0 13:0 14:174 15:0 16:0 #
-6.7369987940691014319422068919868e-08 1:0 2:25 3:2 4:0 5:0 6:0 7:0 8:0 9:0 10:27 11:2 12:0 13:0 14:42 15:1 16:0 #
-6.7369987940691014319422068919868e-08 1:0 2:50 3:0 4:0 5:0 6:17 7:0 8:0 9:0 10:17 11:0 12:0 13:0 14:20 15:0 16:0 #
6.7369987940691014319422068919868e-08 1:1 2:66 3:94 4:0 5:0 6:92 7:117 8:0 9:4 10:112 11:112 12:0 13:0 14:101 15:115 16:0 #
6.7369987940691014319422068919868e-08 1:0 2:60 3:13 4:0 5:79 6:221 7:19 8:0 9:44 10:143 11:17 12:0 13:3 14:133 15:20 16:0 #
-6.7369987940691014319422068919868e-08 1:0 2:17 3:0 4:0 5:0 6:17 7:0 8:0 9:0 10:20 11:0 12:0 13:0 14:630 15:0 16:0 #
-2.9790051777961821378931997744005e-08 1:0 2:30 3:11 4:0 5:5836 6:25 7:6 8:0 9:4 10:46 11:8 12:0 13:10 14:53 15:7 16:0 #
6.7369987940691014319422068919868e-08 1:0 2:100 3:103 4:0 5:0 6:100 7:105 8:0 9:0 10:102 11:106 12:0 13:0 14:100 15:101 16:0 #
-6.7369987940691014319422068919868e-08 1:0 2:1762 3:1244 4:1 5:2 6:20 7:11 8:2 9:6 10:50 11:16 12:250 13:2 14:70 15:10 16:55 #
6.7369987940691014319422068919868e-08 1:0 2:97 3:16 4:0 5:419 6:127 7:8 8:0 9:104 10:234 11:48 12:153 13:0 14:210 15:22 16:85 #
6.7369987940691014319422068919868e-08 1:31 2:130 3:21 4:0 5:166 6:109 7:24 8:0 9:25 10:162 11:24 12:2 13:163 14:96 15:22 16:0 #
-6.7369987940691014319422068919868e-08 1:7117 2:124 3:128 4:0 5:18 6:94 7:105 8:0 9:1 10:117 11:109 12:1 13:439 14:117 15:110 16:17 #
6.7369987940691014319422068919868e-08 1:16 2:113 3:119 4:0 5:104 6:55 7:106 8:0 9:0 10:50 11:103 12:0 13:16 14:625 15:227 16:16 #
6.7369987940691014319422068919868e-08 1:4 2:279 3:31 4:0 5:0 6:58 7:15 8:0 9:8 10:42 11:4 12:29 13:629 14:64 15:15 16:0 #
-6.7369987940691014319422068919868e-08 1:1 2:511 3:38 4:0 5:0 6:25 7:2 8:0 9:0 10:0 11:0 12:0 13:0 14:27 15:2 16:0 #
-6.7369987940691014319422068919868e-08 1:0 2:470 3:0 4:0 5:0 6:0 7:0 8:0 9:0 10:0 11:0 12:0 13:0 14:278 15:20 16:0 #
-6.7369987940691014319422068919868e-08 1:7193 2:361 3:57 4:0 5:0 6:214 7:70 8:0 9:1 10:199 11:79 12:0 13:10 14:177 15:304 16:123 #
-6.6907781889811001907011661811453e-08 1:517 2:173 3:26 4:0 5:179 6:214 7:31 8:0 9:1270 10:140 11:19 12:0 13:0 14:97 15:16 16:0 #
-1.3156484311181744151155077748871e-09 1:55 2:104 3:15 4:0 5:49 6:69 7:21 8:0 9:28 10:48 11:10 12:0 13:7365 14:92 15:17 16:3 #
6.7369987940691014319422068919868e-08 1:0 2:4 3:6 4:0 5:0 6:124 7:52 8:0 9:16 10:22 11:9 12:0 13:31 14:1 15:125 16:0 #
-6.7369987940691014319422068919868e-08 1:0 2:71 3:25 4:0 5:0 6:62 7:13 8:0 9:3 10:559 11:535 12:0 13:15 14:909 15:758 16:3 #
6.7369987940691014319422068919868e-08 1:419 2:127 3:8 4:0 5:104 6:234 7:48 8:153 9:0 10:210 11:22 12:85 13:0 14:220 15:34 16:99 #
6.7369987940691014319422068919868e-08 1:0 2:93 3:0 4:5 5:0 6:124 7:0 8:0 9:0 10:155 11:0 12:0 13:0 14:169 15:0 16:4 #
-6.7369987940691014319422068919868e-08 1:0 2:0 3:0 4:0 5:0 6:0 7:0 8:0 9:9 10:48 11:48 12:1 13:0 14:100 15:101 16:0 #
-6.7369987940691014319422068919868e-08 1:0 2:84245 3:11 4:0 5:2 6:32870 7:5 8:0 9:1 10:47 11:6 12:0 13:0 14:1404 15:1293 16:0 #
6.7369987940691014319422068919868e-08 1:144 2:152 3:10 4:0 5:33 6:33 7:8 8:0 9:109 10:188 11:57 12:0 13:57 14:139 15:38 16:0 #
-1.4548512557876423130102721756329e-08 1:9 2:149 3:68 4:0 5:0 6:7029 7:68 8:19 9:0 10:139 11:71 12:0 13:0 14:102 15:61 16:0 #
6.7369987940691014319422068919868e-08 1:45 2:83 3:13 4:0 5:107 6:87 7:22 8:0 9:68 10:158 11:20 12:0 13:0 14:131 15:24 16:0 #
-6.7361883098527749604211227029554e-08 1:5836 2:25 3:6 4:0 5:4 6:46 7:8 8:0 9:10 10:53 11:7 12:0 13:10 14:60 15:20 16:0 #
6.7369987940691014319422068919868e-08 1:0 2:35 3:3 4:4 5:112 6:26 7:6 8:0 9:70 10:37 11:6 12:0 13:142 14:43 15:19 16:0 #
-6.7369987940691014319422068919868e-08 1:0 2:35 3:10 4:1 5:0 6:12 7:7 8:0 9:2 10:14 11:3 12:0 13:9 14:14 15:3 16:0 #
6.7369987940691014319422068919868e-08 1:0 2:64 3:24 4:0 5:0 6:89 7:17 8:0 9:2 10:65 11:21 12:0 13:3 14:71 15:5 16:0 #
-5.513960922172240205123099326262e-08 1:7 2:24 3:15 4:1 5:1 6:13 7:7 8:0 9:1 10:24 11:6 12:1 13:0 14:11 15:5 16:0 #
6.7369987940691014319422068919868e-08 1:14 2:80 3:18 4:0 5:41 6:61 7:16 8:0 9:4 10:81 11:15 12:0 13:107 14:147 15:30 16:0 #
6.7369987940691014319422068919868e-08 1:0 2:85 3:10 4:0 5:46 6:108 7:30 8:0 9:21 10:110 11:35 12:0 13:12 14:112 15:31 16:0 #
6.7369987940691014319422068919868e-08 1:3 2:83 3:31 4:2 5:0 6:154 7:23 8:0 9:13 10:124 11:14 12:0 13:0 14:77 15:15 16:0 #
6.7369987940691014319422068919868e-08 1:324 2:108 3:23 4:0 5:0 6:56 7:15 8:0 9:3 10:96 11:12 12:0 13:1 14:68 15:22 16:0 #
-6.7369987940691014319422068919868e-08 1:26 2:1397 3:1631 4:2 5:4 6:0 7:2 8:0 9:30 10:63 11:3 12:0 13:2 14:38 15:10 16:0 #
6.7369987940691014319422068919868e-08 1:32 2:95 3:24 4:0 5:55 6:104 7:15 8:0 9:49 10:69 11:21 12:0 13:28 14:48 15:10 16:0 #
6.7369987940691014319422068919868e-08 1:0 2:89 3:55 4:0 5:1 6:99 7:52 8:0 9:4 10:127 11:66 12:0 13:2 14:96 15:56 16:0 #
-6.7369987940691014319422068919868e-08 1:0 2:0 3:0 4:0 5:0 6:20 7:6 8:0 9:0 10:34 11:0 12:0 13:0 14:38 15:2 16:0 #
6.7369987940691014319422068919868e-08 1:0 2:124 3:70 4:0 5:10 6:142 7:85 8:0 9:1 10:59 11:55 12:0 13:3 14:65 15:59 16:0 #
-6.7369987940691014319422068919868e-08 1:0 2:8 3:0 4:0 5:0 6:0 7:0 8:0 9:0 10:33 11:0 12:0 13:0 14:470 15:0 16:0 #
-6.7369987940691014319422068919868e-08 1:0 2:118 3:0 4:0 5:0 6:23 7:0 8:0 9:0 10:0 11:0 12:0 13:3 14:1328 15:16 16:0 #
6.7369987940691014319422068919868e-08 1:0 2:106 3:64 4:0 5:0 6:122 7:66 8:0 9:0 10:106 11:56 12:0 13:0 14:90 15:61 16:0 #
-6.7369987940691014319422068919868e-08 1:104 2:234 3:48 4:153 5:0 6:210 7:22 8:85 9:0 10:220 11:34 12:99 13:0 14:171 15:26 16:51 #
-6.7369987940691014319422068919868e-08 1:1 2:5 3:0 4:0 5:0 6:3 7:0 8:0 9:0 10:35 11:1 12:0 13:0 14:171 15:0 16:0 #
-6.7369987940691014319422068919868e-08 1:0 2:53 3:0 4:0 5:0 6:29 7:0 8:0 9:0 10:14 11:2 12:0 13:0 14:116 15:1 16:0 #
6.7369987940691014319422068919868e-08 1:65 2:166 3:35 4:0 5:0 6:56 7:30 8:0 9:0 10:50 11:17 12:0 13:60 14:102 15:31 16:0 #
6.7369987940691014319422068919868e-08 1:3 2:91 3:15 4:0 5:4 6:43 7:4 8:0 9:121 10:72 11:9 12:0 13:2 14:63 15:11 16:0 #
6.7369987940691014319422068919868e-08 1:3 2:73 3:9 4:0 5:51 6:99 7:33 8:0 9:0 10:91 11:20 12:0 13:21 14:86 15:17 16:0 #
-6.7369987940691014319422068919868e-08 1:0 2:0 3:0 4:0 5:0 6:27 7:2 8:0 9:0 10:42 11:1 12:0 13:0 14:0 15:0 16:0 #
-6.7369987940691014319422068919868e-08 1:2 2:14 3:1 4:0 5:29 6:17 7:7 8:0 9:4 10:24 11:9 12:0 13:0 14:18 15:10 16:0 #
6.7369987940691014319422068919868e-08 1:13 2:124 3:14 4:0 5:0 6:77 7:15 8:0 9:34 10:136 11:23 12:1 13:0 14:141 15:25 16:0 #
6.7369987940691014319422068919868e-08 1:19 2:96 3:6 4:0 5:6 6:109 7:19 8:0 9:38 10:102 11:16 12:0 13:0 14:136 15:19 16:0 #
6.7369987940691014319422068919868e-08 1:140 2:87 3:38 4:0 5:63 6:79 7:16 8:0 9:3 10:30 11:13 12:0 13:10 14:43 15:15 16:0 #
-6.7369987940691014319422068919868e-08 1:0 2:4317 3:0 4:0 5:0 6:266 7:0 8:0 9:0 10:208 11:0 12:0 13:0 14:955 15:0 16:0 #
6.7369987940691014319422068919868e-08 1:32 2:92 3:10 4:0 5:67 6:81 7:12 8:0 9:4 10:104 11:35 12:0 13:1 14:73 15:15 16:0 #
-6.7369987940691014319422068919868e-08 1:0 2:33 3:7 4:0 5:0 6:3 7:0 8:0 9:1 10:51 11:8 12:0 13:0 14:56 15:20 16:0 #
6.7369987940691014319422068919868e-08 1:0 2:141 3:25 4:0 5:1 6:138 7:21 8:1 9:0 10:52 11:9 12:0 13:10 14:53 15:11 16:0 #
-6.7369987940691014319422068919868e-08 1:10 2:53 3:7 4:0 5:10 6:60 7:20 8:0 9:9 10:50 11:17 12:0 13:2 14:26 15:11 16:28 #
-6.7369987940691014319422068919868e-08 1:2 2:89 3:63 4:0 5:0 6:145 7:74 8:0 9:7 10:193 11:585 12:0 13:5 14:1489 15:770 16:0 #
6.7369987940691014319422068919868e-08 1:12 2:29 3:8 4:0 5:0 6:45 7:24 8:0 9:0 10:82 11:97 12:0 13:0 14:155 15:71 16:2 #
-1.4586221764625671010445068231931e-08 1:0 2:25 3:0 4:0 5:0 6:77 7:0 8:3 9:0 10:19 11:0 12:0 13:0 14:32 15:0 16:0 #
-6.7369987940691014319422068919868e-08 1:0 2:75 3:0 4:0 5:0 6:43 7:0 8:0 9:0 10:27 11:0 12:0 13:0 14:0 15:0 16:0 #
-6.7369987940691014319422068919868e-08 1:0 2:34 3:0 4:0 5:0 6:38 7:2 8:0 9:0 10:40 11:2 12:0 13:0 14:10 15:0 16:0 #
6.7369987940691014319422068919868e-08 1:2 2:25 3:10 4:0 5:0 6:55 7:12 8:1 9:0 10:33 11:8 12:0 13:0 14:1762 15:1244 16:1 #
6.7369987940691014319422068919868e-08 1:0 2:95 3:14 4:0 5:0 6:95 7:18 8:0 9:0 10:41 11:12 12:0 13:0 14:1411 15:1223 16:0 #
6.7369987940691014319422068919868e-08 1:107 2:87 3:22 4:0 5:68 6:158 7:20 8:0 9:0 10:131 11:24 12:0 13:0 14:658 15:579 16:2 #
6.7369987940691014319422068919868e-08 1:0 2:18 3:10 4:0 5:3 6:32 7:20 8:0 9:7 10:24 11:15 12:1 13:1 14:13 15:7 16:0 #
-2.0835124937076506722390217650606e-09 1:121 2:72 3:9 4:0 5:2 6:63 7:11 8:0 9:1 10:717 11:1167 12:2 13:5 14:721 15:982 16:0 #
6.7369987940691014319422068919868e-08 1:0 2:123 3:0 4:5 5:0 6:93 7:0 8:5 9:0 10:124 11:0 12:0 13:0 14:155 15:0 16:0 #
6.7369987940691014319422068919868e-08 1:0 2:95 3:17 4:0 5:1 6:52 7:42 8:0 9:2 10:59 11:47 12:0 13:0 14:69 15:12 16:0 #
-6.7369987940691014319422068919868e-08 1:0 2:176 3:3 4:0 5:0 6:63 7:0 8:0 9:1 10:5 11:0 12:0 13:0 14:3 15:0 16:0 #
-1.2167572068714875566097788350817e-10 1:49 2:69 3:21 4:0 5:28 6:48 7:10 8:0 9:7365 10:92 11:17 12:3 13:13 14:54 15:10 16:0 #
-6.7369987940691014319422068919868e-08 1:0 2:7 3:0 4:0 5:0 6:59 7:0 8:0 9:0 10:99 11:0 12:0 13:0 14:4533 15:0 16:0 #
6.7369987940691014319422068919868e-08 1:3 2:30 3:13 4:0 5:10 6:43 7:15 8:0 9:13 10:95 11:64 12:4 13:11 14:61 15:101 16:2 #
-6.7369987940691014319422068919868e-08 1:0 2:115 3:0 4:0 5:0 6:118 7:0 8:0 9:0 10:23 11:0 12:0 13:0 14:0 15:0 16:0 #
6.7369987940691014319422068919868e-08 1:1 2:75 3:16 4:0 5:0 6:71 7:25 8:0 9:0 10:62 11:13 12:0 13:3 14:559 15:535 16:0 #
-6.7369987940691014319422068919868e-08 1:0 2:1744 3:0 4:0 5:0 6:199 7:0 8:0 9:0 10:50 11:0 12:0 13:0 14:17 15:0 16:0 #
-1.5762166431139511178598900222395e-08 1:23704 2:148 3:30 4:0 5:1 6:198 7:24 8:2 9:67 10:116 11:14 12:2 13:0 14:22 15:13 16:0 #
6.7369987940691014319422068919868e-08 1:1 2:67 3:11 4:0 5:0 6:70 7:20 8:2 9:25 10:98 11:14 12:0 13:0 14:113 15:22 16:0 #
6.7369987940691014319422068919868e-08 1:56 2:63 3:14 4:0 5:0 6:81 7:19 8:0 9:7 10:82 11:23 12:0 13:0 14:56 15:5 16:0 #
6.7369987940691014319422068919868e-08 1:2 2:47 3:19 4:0 5:0 6:13 7:2 8:674 9:0 10:0 11:2 12:0 13:0 14:0 15:4 16:0 #
-6.7369987940691014319422068919868e-08 1:0 2:155 3:71 4:2 5:333 6:388 7:55 8:120 9:0 10:94 11:72 12:0 13:7072 14:121 15:76 16:0 #
-6.7369987940691014319422068919868e-08 1:0 2:93 3:115 4:0 5:2 6:107 7:113 8:0 9:221 10:941 11:53 12:0 13:138 14:73 15:668 16:0 #
-6.7369987940691014319422068919868e-08 1:0 2:3664 3:0 4:0 5:0 6:158 7:0 8:0 9:0 10:88 11:0 12:4 13:0 14:1154 15:0 16:0 #
-6.7369908768381793137680624283803e-08 1:0 2:1869 3:0 4:0 5:0 6:854 7:0 8:0 9:0 10:34 11:0 12:0 13:0 14:137 15:0 16:0 #
-2.906119087278243019961763288217e-09 1:561 2:79 3:8 4:0 5:428 6:88 7:17 8:0 9:1002 10:25426 11:11 12:0 13:0 14:84245 15:11 16:0 #
6.7369987940691014319422068919868e-08 1:0 2:50 3:17 4:0 5:60 6:102 7:31 8:0 9:0 10:87 11:17 12:1 13:1 14:84 15:30 16:0 #
6.7369987940691014319422068919868e-08 1:0 2:156 3:0 4:9 5:0 6:109 7:0 8:1 9:0 10:116 11:0 12:8 13:0 14:123 15:0 16:5 #
6.7369987940691014319422068919868e-08 1:3 2:83 3:20 4:0 5:2 6:89 7:35 8:0 9:0 10:69 11:20 12:0 13:0 14:71 15:12 16:0 #
-6.7369987940691014319422068919868e-08 1:1 2:19 3:8 4:0 5:2 6:14 7:1 8:0 9:29 10:17 11:7 12:0 13:4 14:24 15:9 16:0 #
6.7369987940691014319422068919868e-08 1:0 2:210 3:22 4:85 5:0 6:220 7:34 8:99 9:0 10:171 11:26 12:51 13:4 14:132 15:27 16:0 #
-6.7369987940691014319422068919868e-08 1:124 2:1952 3:54 4:156 5:153 6:532 7:62 8:105 9:17 10:104 11:59 12:0 13:0 14:319 15:65 16:0 #
-7.4077898628184764000140054285293e-09 1:20 2:2213 3:1865 4:0 5:3 6:14 7:3 8:0 9:2 10:74 11:18 12:0 13:59 14:76 15:9 16:0 #
6.7369987940691014319422068919868e-08 1:4 2:69 3:16 4:0 5:0 6:78 7:13 8:23 9:0 10:28 11:10 12:0 13:0 14:547 15:921 16:0 #
-6.7369987940691014319422068919868e-08 1:9 2:14 3:3 4:0 5:1 6:19 7:8 8:0 9:2 10:14 11:1 12:0 13:29 14:17 15:7 16:0 #
-1.405962067880559092063185859826e-08 1:67 2:81 3:12 4:0 5:4 6:104 7:35 8:0 9:1 10:73 11:15 12:0 13:7042 14:92 15:19 16:10 #
-6.7369987940691014319422068919868e-08 1:76 2:293 3:99 4:21 5:142 6:340 7:101 8:31 9:199 10:323 11:131 12:51 13:34 14:295 15:106 16:29 #
-6.7369987940691014319422068919868e-08 1:8 2:1602 3:1286 4:0 5:47 6:35 7:2 8:1 9:8 10:160 11:50 12:0 13:16 14:126 15:21 16:0 #
6.7369987940691014319422068919868e-08 1:15 2:75 3:13 4:0 5:32 6:75 7:17 8:0 9:3 10:54 11:11 12:0 13:1 14:62 15:6 16:0 #
6.7369987940691014319422068919868e-08 1:0 2:45 3:5 4:0 5:3 6:62 7:15 8:0 9:2 10:62 11:8 12:0 13:1 14:77 15:22 16:0 #
6.7369987940691014319422068919868e-08 1:15 2:114 3:20 4:0 5:0 6:74 7:20 8:0 9:3 10:70 11:13 12:0 13:1 14:67 15:11 16:0 #
-6.7369987940691014319422068919868e-08 1:0 2:199 3:0 4:0 5:0 6:50 7:0 8:0 9:0 10:17 11:0 12:0 13:0 14:17 15:0 16:0 #
6.7369987940691014319422068919868e-08 1:0 2:68 3:16 4:0 5:52 6:66 7:12 8:0 9:5 10:60 11:16 12:0 13:0 14:31 15:8 16:0 #
-6.7369987940691014319422068919868e-08 1:0 2:31 3:8 4:0 5:0 6:35 7:10 8:1 9:0 10:12 11:7 12:0 13:2 14:14 15:3 16:0 #
6.7369987940691014319422068919868e-08 1:5 2:54 3:6 4:0 5:47 6:55 7:11 8:0 9:1 10:68 11:24 12:0 13:0 14:66 15:17 16:0 #
6.7369987940691014319422068919868e-08 1:2 2:74 3:18 4:0 5:59 6:76 7:9 8:0 9:0 10:40 11:12 12:0 13:0 14:52 15:14 16:0 #
-6.7369987940691014319422068919868e-08 1:0 2:74 3:11 4:0 5:0 6:33 7:8 8:0 9:0 10:33 11:7 12:0 13:0 14:3 15:0 16:0 #
6.7369987940691014319422068919868e-08 1:63 2:79 3:16 4:0 5:3 6:30 7:13 8:0 9:10 10:43 11:15 12:0 13:13 14:95 15:64 16:4 #
-6.7369987940691014319422068919868e-08 1:3 2:32 3:20 4:0 5:7 6:24 7:15 8:1 9:1 10:13 11:7 12:0 13:1 14:24 15:6 16:1 #
6.7369987940691014319422068919868e-08 1:0 2:53 3:20 4:0 5:0 6:52 7:15 8:3 9:0 10:44 11:13 12:1 13:29 14:73 15:22 16:1 #
-6.7369987940691014319422068919868e-08 1:4 2:24 3:9 4:0 5:0 6:18 7:10 8:0 9:3 10:32 11:20 12:0 13:7 14:24 15:15 16:1 #
6.7369987940691014319422068919868e-08 1:4 2:46 3:8 4:0 5:10 6:53 7:7 8:0 9:10 10:60 11:20 12:0 13:9 14:50 15:17 16:0 #
-6.7369987940691014319422068919868e-08 1:5 2:60 3:16 4:0 5:0 6:31 7:8 8:0 9:0 10:35 11:10 12:1 13:0 14:12 15:7 16:0 #
6.7369987940691014319422068919868e-08 1:0 2:69 3:24 4:0 5:0 6:75 7:19 8:0 9:0 10:39 11:8 12:0 13:0 14:45 15:17 16:0 #
-6.7369987940691014319422068919868e-08 1:0 2:171 3:0 4:0 5:0 6:93 7:0 8:0 9:0 10:0 11:0 12:0 13:0 14:62 15:3 16:0 #
6.7369987940691014319422068919868e-08 1:0 2:220 3:0 4:0 5:0 6:49 7:0 8:0 9:0 10:86 11:0 12:0 13:0 14:52 15:0 16:1 #
-6.7369987940691014319422068919868e-08 1:0 2:281 3:0 4:0 5:0 6:7 7:0 8:0 9:0 10:59 11:0 12:0 13:0 14:99 15:0 16:0 #
6.7369987940691014319422068919868e-08 1:0 2:34 3:8 4:0 5:0 6:63 7:23 8:0 9:0 10:48 11:5 12:0 13:2 14:25 15:10 16:0 #
-6.7369987940691014319422068919868e-08 1:0 2:55 3:10 4:0 5:0 6:32 7:7 8:0 9:0 10:36 11:7 12:0 13:0 14:39 15:16 16:0 #
-6.7369987940691014319422068919868e-08 1:395 2:57 3:9 4:31 5:4 6:147 7:11 8:45 9:838 10:295 11:23 12:3 13:209 14:170 15:23 16:1 #
-6.7369987940691014319422068919868e-08 1:0 2:20 3:6 4:0 5:0 6:34 7:0 8:0 9:0 10:38 11:2 12:0 13:0 14:40 15:2 16:0 #
6.7369987940691014319422068919868e-08 1:30 2:63 3:3 4:0 5:2 6:38 7:10 8:0 9:4 10:37 11:18 12:0 13:1 14:29 15:17 16:0 #
6.7369987940691014319422068919868e-08 1:10 2:60 3:20 4:0 5:9 6:50 7:17 8:0 9:2 10:26 11:11 12:28 13:4 14:69 15:16 16:0 #
6.7369987940691014319422068919868e-08 1:0 2:48 3:5 4:0 5:2 6:25 7:10 8:0 9:0 10:55 11:12 12:1 13:0 14:33 15:8 16:0 #
6.7369987940691014319422068919868e-08 1:4 2:37 3:18 4:0 5:1 6:29 7:17 8:0 9:12 10:59 11:16 12:56 13:37 14:104 15:67 16:1 #
-6.7369987940691014319422068919868e-08 1:0 2:32 3:7 4:0 5:0 6:36 7:7 8:0 9:0 10:39 11:16 12:0 13:0 14:42 15:16 16:0 #
6.7369987940691014319422068919868e-08 1:29 2:17 3:7 4:0 5:4 6:24 7:9 8:0 9:0 10:18 11:10 12:0 13:3 14:32 15:20 16:0 #
-6.7369987940691014319422068919868e-08 1:31 2:71 3:14 4:0 5:21 6:30 7:7 8:0 9:0 10:17 11:9 12:0 13:0 14:30 15:11 16:0 #
-6.7369987940691014319422068919868e-08 1:0 2:110 3:0 4:1 5:0 6:25 7:0 8:0 9:0 10:77 11:0 12:3 13:0 14:19 15:0 16:0 #
-6.7369987940691014319422068919868e-08 1:32 2:53 3:4 4:0 5:1 6:47 7:12 8:0 9:0 10:23 11:5 12:0 13:4 14:28 15:7 16:0 #
6.7369987940691014319422068919868e-08 1:1 2:80 3:10 4:0 5:1 6:24 7:9 8:0 9:195 10:122 11:23 12:191 13:5 14:103 15:12 16:0 #
6.7369987940691014319422068919868e-08 1:2 2:38 3:10 4:0 5:4 6:37 7:18 8:0 9:1 10:29 11:17 12:0 13:12 14:59 15:16 16:56 #
-9.9848410899585769880115737606729e-14 1:0 2:36 3:7 4:0 5:0 6:39 7:16 8:0 9:0 10:42 11:16 12:0 13:0 14:50 15:15 16:0 #
-6.7369987940691014319422068919868e-08 1:16 2:44 3:9 4:0 5:6 6:39 7:8 8:0 9:6 10:18 11:3 12:0 13:18 14:42 15:8 16:0 #
-6.7143049866348845572459717867542e-08 1:0 2:65 3:29 4:0 5:1 6:23 7:15 8:0 9:0 10:37 11:7 12:0 13:1 14:50 15:10 16:0 #
6.7369987940691014319422068919868e-08 1:0 2:91 3:20 4:0 5:21 6:86 7:17 8:0 9:88 10:65 11:16 12:391 13:3 14:62 15:27 16:0 #
6.7369987940691014319422068919868e-08 1:0 2:124 3:52 4:0 5:16 6:22 7:9 8:0 9:31 10:1 11:125 12:0 13:77 14:0 15:25 16:455 #
6.7369987940691014319422068919868e-08 1:21 2:86 3:17 4:0 5:88 6:65 7:16 8:391 9:3 10:62 11:27 12:0 13:111 14:37 15:18 16:394 #
-6.7369987940691014319422068919868e-08 1:1 2:29 3:17 4:0 5:12 6:59 7:16 8:56 9:37 10:104 11:67 12:1 13:2 14:88 15:57 16:1 #
-6.7369987940691014319422068919868e-08 1:31 2:1 3:125 4:0 5:77 6:0 7:25 8:455 9:39 10:1018 11:960 12:612 13:976 14:164 15:33 16:0 #
-6.7369987940691014319422068919868e-08 1:2 2:26 3:11 4:28 5:4 6:69 7:16 8:0 9:0 10:78 11:13 12:23 13:0 14:28 15:10 16:0 #
-4.1986052299170044714042766310913e-08 1:7 2:141 3:109 4:4 5:14 6:138 7:38 8:0 9:10 10:2851 11:667 12:11 13:0 14:4004 15:570 16:1 #
-6.7369987940691014319422068919868e-08 1:0 2:319 3:65 4:0 5:2 6:926 7:61 8:0 9:180 10:182 11:72 12:52 13:1401 14:158 15:66 16:0 #
-6.7369987940691014319422068919868e-08 1:6 2:50 3:16 4:250 5:2 6:70 7:10 8:55 9:4 10:18 11:8 12:0 13:11983 14:46 15:3 16:0 #
-6.7369987940691014319422068919868e-08 1:191 2:133 3:121 4:0 5:88 6:116 7:116 8:25 9:4 10:144 11:110 12:0 13:7117 14:124 15:128 16:0 #
-6.7369987940691014319422068919868e-08 1:0 2:109 3:0 4:1 5:0 6:116 7:0 8:8 9:0 10:123 11:0 12:5 13:0 14:93 15:0 16:5 #
-3.8794518754921816219841308216731e-09 1:0 2:7140 3:0 4:0 5:0 6:54 7:0 8:0 9:0 10:176 11:0 12:0 13:0 14:1869 15:0 16:0 #
-6.7369987940691014319422068919868e-08 1:4 2:104 3:35 4:0 5:1 6:73 7:15 8:0 9:7042 10:92 11:19 12:10 13:0 14:48 15:20 16:0 #
-4.0545707299322143424864230506653e-11 1:12 2:168 3:68 4:0 5:3 6:190 7:63 8:0 9:7056 10:159 11:57 12:4 13:5407 14:98 15:60 16:1 #
-6.7369987940691014319422068919868e-08 1:0 2:58 3:15 4:0 5:8 6:42 7:4 8:29 9:629 10:64 11:15 12:0 13:307 14:80 15:34 16:1 #
-6.7369987940691014319422068919868e-08 1:3446 2:99 3:104 4:0 5:191 6:133 7:121 8:0 9:88 10:116 11:116 12:25 13:4 14:144 15:110 16:0 #
-6.5700222954788968889815973118546e-08 1:0 2:57 3:13 4:0 5:12210 6:38 7:9 8:0 9:3 10:104 11:12 12:0 13:11855 14:80 15:17 16:0 #
-6.7369987940691014319422068919868e-08 1:0 2:155 3:0 4:0 5:0 6:169 7:0 8:4 9:0 10:7183 11:0 12:2 13:0 14:159 15:0 16:7 #
-3.3879705512341508326791105626397e-08 1:0 2:122 3:59 4:0 5:3815 6:127 7:65 8:0 9:17 10:3453 11:75 12:2 13:20 14:1178 15:136 16:2 #
-6.7369987940691014319422068919868e-08 1:18 2:94 3:105 4:0 5:1 6:117 7:109 8:1 9:439 10:117 11:110 12:17 13:2 14:85 15:109 16:0 #
-3.2692434778786369681115271191088e-09 1:175 2:49986 3:10 4:0 5:561 6:79 7:8 8:0 9:428 10:88 11:17 12:0 13:1002 14:25426 15:11 16:0 #
-3.4154215122185841037706979794741e-09 1:0 2:1404 3:1293 4:0 5:0 6:46 7:3 8:0 9:0 10:69 11:24 12:0 13:0 14:75 15:19 16:0 #
-1.2842183065357345652912873356505e-08 1:0 2:1411 3:1223 4:0 5:466 6:464 7:12 8:6 9:0 10:60 11:13 12:0 13:79 14:221 15:19 16:0 #
-6.7369987940691014319422068919868e-08 1:3 2:104 3:12 4:0 5:11855 6:80 7:17 8:0 9:1 10:121 11:14 12:0 13:0 14:70 15:10 16:6 #
-6.7025907425978650419441648758943e-11 1:0 2:81 3:117 4:5 5:443 6:124 7:116 8:5 9:9460 10:119 11:122 12:2 13:7341 14:92 15:123 16:0 #
-6.7369888092286441010976994359788e-08 1:59 2:76 3:9 4:0 5:0 6:40 7:12 8:0 9:0 10:52 11:14 12:0 13:65 14:69 15:18 16:5 #
-7.0692392141667373355983904764654e-11 1:3460 2:63 3:5 4:0 5:2652 6:126 7:14 8:0 9:1 10:51 11:15 12:0 13:0 14:102 15:53 16:0 #
-2.2261574950500859937803988300702e-11 1:80 2:118 3:13 4:0 5:62 6:176 7:15 8:0 9:7100 10:110 11:11 12:0 13:2 14:89 15:17 16:0 #
-1.0505759823975149553596268245381e-10 1:17 2:41 3:32 4:0 5:1675 6:152 7:36 8:0 9:0 10:31 11:10 12:0 13:593 14:174 15:69 16:0 #
-2.1454440622016920350600174393491e-10 1:8 2:160 3:50 4:0 5:16 6:126 7:21 8:0 9:15 10:133 11:22 12:0 13:80 14:106 15:75 16:0 #
-1.2230378718923018072827152771809e-08 1:0 2:87 3:30 4:0 5:5 6:84 7:19 8:0 9:2 10:55 11:4 12:0 13:83 14:202 15:54 16:0 #
-3.9941304462330214325276045439495e-13 1:0 2:70 3:20 4:2 5:25 6:98 7:14 8:0 9:0 10:113 11:22 12:0 13:21 14:348 15:32 16:7 #
-4.7153084388462662701613226090558e-11 1:0 2:44 3:13 4:1 5:29 6:73 7:22 8:1 9:5925 10:71 11:16 12:1 13:49 14:70 15:20 16:0 #
-2.2998260170488487762971867023696e-12 1:41 2:928 3:66 4:0 5:23349 6:124 7:62 8:0 9:3 10:97 11:54 12:0 13:10 14:84 15:63 16:0 #
-2.6917572531870213425771394122776e-12 1:28 2:94 3:61 4:0 5:28 6:116 7:62 8:0 9:41 10:928 11:66 12:0 13:23349 14:124 15:62 16:0 #
