SVM-light Version V6.02
0 # kernel type
3 # kernel parameter -d 
1 # kernel parameter -g 
1 # kernel parameter -s 
1 # kernel parameter -r 
empty# kernel parameter -u 
8 # highest feature index 
818 # number of training documents 
351 # number of support vectors plus 1 
1.9985893 # threshold b, each following line is a SV (starting with alpha*y)
-9.9694840187056356229054483297086e-08 1:0 2:54 3:0 4:0 5:0 6:63 7:3 8:0 #
9.9694840187056356229054483297086e-08 1:0 2:251 3:0 4:0 5:0 6:104 7:0 8:0 #
-9.9694840187056356229054483297086e-08 1:14 2:21 3:9 4:0 5:11977 6:99 7:8 8:0 #
9.9694840187056356229054483297086e-08 1:0 2:0 3:0 4:0 5:0 6:0 7:0 8:0 #
-9.7014212371995799615750064905095e-08 1:0 2:0 3:0 4:0 5:0 6:0 7:0 8:0 #
-9.9694840187056356229054483297086e-08 1:2 2:130 3:54 4:298 5:4 6:111 7:44 8:0 #
-9.9694840187056356229054483297086e-08 1:0 2:7289 3:0 4:0 5:0 6:338 7:0 8:0 #
9.9694840187056356229054483297086e-08 1:0 2:6844 3:1068 4:4 5:0 6:0 7:3 8:0 #
-9.9694840187056356229054483297086e-08 1:11 2:1259 3:14701 4:1383 5:18 6:473 7:284 8:0 #
9.9694840187056356229054483297086e-08 1:3103 2:4518 3:106 4:0 5:7042 6:265 7:158 8:1 #
9.9694840187056356229054483297086e-08 1:106 2:192 3:73 4:0 5:23599 6:234 7:27 8:2 #
9.9694840187056356229054483297086e-08 1:0 2:5193 3:0 4:3 5:0 6:170 7:0 8:9 #
-9.9694840187056356229054483297086e-08 1:9 2:87 3:12 4:0 5:12210 6:69 7:19 8:0 #
6.232211457918734892223386334642e-08 1:959 2:1379 3:388 4:14049 5:78 6:195 7:55 8:13 #
-9.9694840187056356229054483297086e-08 1:0 2:97 3:11 4:0 5:2974 6:78 7:5 8:0 #
-9.9694840187056356229054483297086e-08 1:18 2:318 3:362 4:2765 5:151 6:292 7:84 8:0 #
-9.9694840187056356229054483297086e-08 1:23599 2:234 3:27 4:2 5:67 6:127 7:20 8:2 #
-9.9694840187056356229054483297086e-08 1:0 2:0 3:0 4:0 5:0 6:95 7:0 8:0 #
-9.9694840187056356229054483297086e-08 1:2346 2:218 3:641 4:3459 5:1250 6:182 7:686 8:4 #
-9.9694840187056356229054483297086e-08 1:81 2:0 3:90 4:455 5:486 6:1106 7:969 8:612 #
2.0928544659082786839203571657882e-08 1:0 2:224 3:735 4:0 5:959 6:1379 7:388 8:14049 #
-9.9694840187056356229054483297086e-08 1:12 2:250 3:84 4:0 5:12463 6:202 7:85 8:5 #
9.9694840187056356229054483297086e-08 1:10068 2:142 3:168 4:1 5:7743 6:200 7:168 8:94 #
9.9694840187056356229054483297086e-08 1:6 2:1437 3:2148 4:2 5:2 6:47 7:19 8:0 #
-2.1985602723872309937329998469173e-08 1:23352 2:164 3:82 4:0 5:10 6:125 7:84 8:0 #
9.9694840187056356229054483297086e-08 1:427 2:121 3:158 4:0 5:10068 6:142 7:168 8:1 #
9.9694840187056356229054483297086e-08 1:0 2:67 3:12 4:0 5:0 6:1445 7:1230 8:0 #
-9.9694840187056356229054483297086e-08 1:48 2:440 3:150 4:9 5:18 6:318 7:362 8:2765 #
-9.9694840187056356229054483297086e-08 1:2 2:47 3:19 4:0 5:0 6:13 7:3 8:674 #
-9.9694840187056356229054483297086e-08 1:1884 2:190 3:165 4:7 5:15256 6:127 7:167 8:0 #
9.9694840187056356229054483297086e-08 1:7743 2:200 3:168 4:94 5:9 6:238 7:251 8:205 #
-9.9694840187056356229054483297086e-08 1:0 2:249 3:33 4:0 5:0 6:142 7:31 8:0 #
-7.5707809162290534003202308391267e-08 1:300 2:37 3:13 4:12 5:146 6:74 7:24 8:20 #
-8.3323023219005042198440622903954e-08 1:240 2:103 3:101 4:0 5:56 6:70 7:86 8:0 #
-9.9694840187056356229054483297086e-08 1:6 2:57 3:25 4:250 5:2 6:84 7:12 8:55 #
-9.9694840187056356229054483297086e-08 1:94 2:83 3:28 4:497 5:7150 6:67 7:21 8:0 #
-9.9694840187056356229054483297086e-08 1:12463 2:202 3:85 4:5 5:0 6:136 7:86 8:0 #
-5.7439992992418540208165791418303e-09 1:5 2:2442 3:2672 4:0 5:15 6:37 7:26 8:0 #
-9.9694840187056356229054483297086e-08 1:11977 2:99 3:8 4:0 5:0 6:75 7:18 8:0 #
9.9694840187056356229054483297086e-08 1:0 2:136 3:20 4:0 5:2 6:1602 7:1290 8:1 #
-9.9694840187056356229054483297086e-08 1:0 2:87 3:0 4:188 5:0 6:60 7:0 8:0 #
9.9694840187056356229054483297086e-08 1:31 2:87 3:26 4:15 5:7057 6:113 7:37 8:0 #
9.9694840187056356229054483297086e-08 1:7084 2:2223 3:107 4:0 5:46 6:232 7:96 8:0 #
9.9694840187056356229054483297086e-08 1:11857 2:142 3:16 4:0 5:2 6:144 7:22 8:0 #
-9.9694840187056356229054483297086e-08 1:15256 2:127 3:167 4:0 5:484 6:121 7:165 8:0 #
9.9694840187056356229054483297086e-08 1:7193 2:428 3:83 4:0 5:1 6:325 7:111 8:0 #
-3.0694575278887045201225091360653e-08 1:41 2:967 3:91 4:0 5:23352 6:164 7:82 8:0 #
9.9694840187056356229054483297086e-08 1:0 2:92 3:23 4:0 5:7063 6:64 7:23 8:0 #
-9.9694840187056356229054483297086e-08 1:0 2:18 3:0 4:0 5:0 6:0 7:0 8:0 #
-8.2269521573755254417021319512937e-08 1:0 2:114 3:16 4:0 5:2 6:148689 7:23 8:0 #
9.9694840187056356229054483297086e-08 1:104 2:77 3:146 4:0 5:14 6:269 7:202 8:16 #
-9.9694840187056356229054483297086e-08 1:1 2:127 3:34 4:0 5:2 6:130 7:54 8:298 #
9.9694840187056356229054483297086e-08 1:7063 2:64 3:23 4:0 5:0 6:78 7:22 8:3 #
9.9694840187056356229054483297086e-08 1:204 2:134 3:161 4:0 5:6851 6:172 7:172 8:0 #
-9.9694840187056356229054483297086e-08 1:0 2:0 3:0 4:0 5:0 6:173 7:0 8:0 #
-9.9694840187056356229054483297086e-08 1:34 2:19 3:2 4:0 5:1 6:77 7:12 8:0 #
-9.9694840187056356229054483297086e-08 1:7063 2:194 3:100 4:0 5:679 6:162 7:90 8:0 #
-2.3558712350157895065257314132917e-08 1:0 2:85 3:85 4:0 5:11 6:1259 7:14701 8:1383 #
9.9694840187056356229054483297086e-08 1:7057 2:113 3:37 4:0 5:0 6:122 7:32 8:1 #
9.9694840187056356229054483297086e-08 1:6851 2:172 3:172 4:0 5:164 6:94 7:160 8:1 #
9.9694840187056356229054483297086e-08 1:279 2:108 3:125 4:0 5:3453 6:150 7:150 8:0 #
-9.9694840187056356229054483297086e-08 1:0 2:120 3:0 4:0 5:1 6:74 7:5 8:0 #
-9.9694840187056356229054483297086e-08 1:0 2:143 3:0 4:0 5:0 6:87 7:0 8:188 #
-9.9694840187056356229054483297086e-08 1:22 2:81 3:36 4:0 5:94 6:83 7:28 8:497 #
9.9694840187056356229054483297086e-08 1:7080 2:195 3:158 4:0 5:72 6:162 7:166 8:0 #
9.9694840187056356229054483297086e-08 1:0 2:170 3:84 4:0 5:3805 6:188 7:91 8:0 #
9.9694840187056356229054483297086e-08 1:30 2:312 3:99 4:189 5:3468 6:329 7:98 8:1 #
-9.9694840187056356229054483297086e-08 1:0 2:121 3:22 4:0 5:109 6:109 7:29 8:391 #
9.9694840187056356229054483297086e-08 1:11 2:166 3:96 4:1 5:3103 6:4518 7:106 8:0 #
9.9694840187056356229054483297086e-08 1:0 2:76 3:7 4:0 5:0 6:107119 7:14 8:0 #
-9.9694840187056356229054483297086e-08 1:0 2:8 3:0 4:0 5:0 6:30 7:0 8:0 #
9.9694840187056356229054483297086e-08 1:46 2:232 3:96 4:0 5:8 6:6929 7:87 8:5 #
9.9694840187056356229054483297086e-08 1:0 2:55 3:13 4:0 5:2 6:1763 7:1246 8:3 #
9.9694840187056356229054483297086e-08 1:2 2:129 3:82 4:1 5:70 6:1331 7:1251 8:6 #
-9.9694840187056356229054483297086e-08 1:198 2:192 3:25 4:191 5:3 6:120 7:11 8:3 #
-9.9694840187056356229054483297086e-08 1:12 2:85 3:6 4:0 5:47 6:80 7:15 8:0 #
9.9694840187056356229054483297086e-08 1:443 2:2016 3:1619 4:0 5:427 6:121 7:158 8:0 #
9.9694840187056356229054483297086e-08 1:3805 2:188 3:91 4:0 5:27 6:3495 7:97 8:2 #
9.9694840187056356229054483297086e-08 1:737 2:1140 3:1901 4:1 5:4 6:293 7:32 8:0 #
9.9694840187056356229054483297086e-08 1:486 2:1106 3:969 4:612 5:1519 6:119 7:25 8:0 #
-9.9688119008734465357340903679528e-08 1:2 2:173 3:98 4:0 5:7 6:1275 7:1042 8:0 #
9.9694840187056356229054483297086e-08 1:1519 2:119 3:25 4:0 5:847 6:105 7:16 8:31 #
9.9694840187056356229054483297086e-08 1:0 2:1239 3:1061 4:0 5:1 6:194 7:173 8:0 #
9.9694840187056356229054483297086e-08 1:1250 2:182 3:686 4:4 5:0 6:224 7:735 8:0 #
9.9694840187056356229054483297086e-08 1:0 2:90 3:27 4:0 5:8 6:834 7:723 8:1 #
9.9694840187056356229054483297086e-08 1:14 2:269 3:202 4:16 5:12 6:1140 7:846 8:1 #
-9.9694840187056356229054483297086e-08 1:56 2:87 3:20 4:0 5:7 6:109 7:28 8:0 #
9.9694840187056356229054483297086e-08 1:0 2:3458 3:0 4:0 5:0 6:5193 7:0 8:3 #
-9.9694840187056356229054483297086e-08 1:0 2:87 3:31 4:0 5:71 6:111 7:33 8:0 #
9.9694840187056356229054483297086e-08 1:2 2:1763 3:1246 4:3 5:6 6:57 7:25 8:250 #
9.9694840187056356229054483297086e-08 1:0 2:277 3:40 4:150 5:2346 6:218 7:641 8:3459 #
9.9694840187056356229054483297086e-08 1:840 2:84 3:30 4:0 5:0 6:108 7:20 8:0 #
9.9694840187056356229054483297086e-08 1:0 2:4902 3:93 4:0 5:0 6:1249 7:84 8:0 #
9.9694840187056356229054483297086e-08 1:0 2:78 3:22 4:3 5:29 6:87 7:26 8:2 #
9.9694840187056356229054483297086e-08 1:1189 2:419 3:89 4:0 5:206 6:363 7:94 8:0 #
-9.9694840187056356229054483297086e-08 1:5169 2:205 3:99 4:0 5:42 6:207 7:99 8:0 #
9.9694840187056356229054483297086e-08 1:41 2:803 3:670 4:1 5:429 6:244 7:164 8:0 #
9.9694840187056356229054483297086e-08 1:852 2:130 3:17 4:0 5:419 6:168 7:15 8:0 #
-9.9694840187056356229054483297086e-08 1:0 2:90 3:27 4:156 5:0 6:88 7:22 8:0 #
-9.9694840187056356229054483297086e-08 1:0 2:18 3:0 4:0 5:0 6:0 7:0 8:0 #
9.9694840187056356229054483297086e-08 1:177 2:419 3:129 4:25 5:205 6:472 7:165 8:58 #
-9.9694840187056356229054483297086e-08 1:0 2:30 3:18 4:0 5:5836 6:44 7:6 8:0 #
9.9694840187056356229054483297086e-08 1:91 2:141 3:20 4:0 5:530 6:227 7:39 8:1 #
-9.9694840187056356229054483297086e-08 1:0 2:192 3:0 4:11 5:0 6:126 7:0 8:5 #
-9.9694840187056356229054483297086e-08 1:2 2:84 3:12 4:55 5:14 6:21 7:9 8:0 #
-9.9694840187056356229054483297086e-08 1:0 2:3 3:0 4:0 5:0 6:113 7:1 8:0 #
-9.9694840187056356229054483297086e-08 1:276 2:1993 3:74 4:261 5:18 6:581 7:87 8:0 #
-9.9694840187056356229054483297086e-08 1:0 2:0 3:0 4:0 5:9 6:8 7:8 8:1 #
-9.9694840187056356229054483297086e-08 1:0 2:32 3:0 4:0 5:0 6:20 7:0 8:0 #
-9.9694840187056356229054483297086e-08 1:0 2:60 3:0 4:0 5:0 6:0 7:0 8:0 #
-9.9694840187056356229054483297086e-08 1:0 2:165 3:22 4:0 5:0 6:249 7:33 8:0 #
9.9694840187056356229054483297086e-08 1:123 2:93 3:7 4:0 5:2 6:68 7:14 8:0 #
-9.9694840187056356229054483297086e-08 1:5455 2:94 3:76 4:2 5:240 6:103 7:101 8:0 #
-9.9694840187056356229054483297086e-08 1:26 2:1401 3:1637 4:2 5:34 6:19 7:2 8:0 #
9.9694840187056356229054483297086e-08 1:17 2:1439 3:845 4:1 5:9 6:383 7:83 8:0 #
9.9694840187056356229054483297086e-08 1:0 2:75 3:18 4:29 5:731 6:85 7:23 8:0 #
9.9694840187056356229054483297086e-08 1:1 2:30 3:7 4:1 5:6 6:688 7:585 8:0 #
9.9694840187056356229054483297086e-08 1:0 2:627 3:0 4:0 5:0 6:3665 7:0 8:0 #
-9.9694840187056356229054483297086e-08 1:48 2:997 3:90 4:51 5:1535 6:255 7:97 8:1 #
9.9694840187056356229054483297086e-08 1:5 2:478 3:359 4:0 5:78 6:155 7:112 8:0 #
9.9694840187056356229054483297086e-08 1:0 2:875 3:0 4:0 5:0 6:3458 7:0 8:0 #
-9.9694840187056356229054483297086e-08 1:4 2:155 3:170 4:5 5:1884 6:190 7:165 8:7 #
9.9694840187056356229054483297086e-08 1:212 2:52 3:20 4:0 5:536 6:129 7:23 8:1 #
9.9694840187056356229054483297086e-08 1:413 2:163 3:12 4:48 5:638 6:440 7:44 8:0 #
9.9694840187056356229054483297086e-08 1:536 2:129 3:23 4:1 5:300 6:37 7:13 8:12 #
-9.9694840187056356229054483297086e-08 1:0 2:32 3:2 4:0 5:0 6:18 7:0 8:0 #
-9.9694840187056356229054483297086e-08 1:0 2:112 3:0 4:3 5:0 6:29 7:0 8:0 #
-5.9242077721273518985282356122055e-08 1:0 2:144 3:159 4:0 5:17 6:1357 7:1289 8:4 #
-9.9694840187056356229054483297086e-08 1:1 2:58 3:0 4:0 5:0 6:3 7:0 8:0 #
9.9694840187056356229054483297086e-08 1:429 2:244 3:164 4:0 5:25 6:385 7:233 8:1 #
9.9694840187056356229054483297086e-08 1:8 2:64 3:14 4:0 5:251 6:121 7:35 8:0 #
9.9694840187056356229054483297086e-08 1:0 2:1985 3:170 4:0 5:0 6:645 7:153 8:0 #
-6.7737115624270812704743474977342e-08 1:0 2:7162 3:0 4:0 5:0 6:20 7:0 8:0 #
-9.9694840187056356229054483297086e-08 1:0 2:7272 3:0 4:9 5:0 6:146 7:0 8:0 #
-9.8418618996076196326749235820941e-08 1:0 2:94 3:24 4:0 5:0 6:1239 7:1061 8:0 #
9.9694840187056356229054483297086e-08 1:7 2:181 3:149 4:4 5:24 6:149 7:207 8:8 #
-9.9694840187056356229054483297086e-08 1:1 2:325 3:111 4:0 5:10 6:1178 7:877 8:123 #
9.9694840187056356229054483297086e-08 1:17 2:163 3:170 4:0 5:104 6:77 7:146 8:0 #
-9.9694840187056356229054483297086e-08 1:0 2:96 3:21 4:0 5:0 6:1481 7:1235 8:1 #
9.9694840187056356229054483297086e-08 1:60 2:138 3:45 4:0 5:0 6:130 7:33 8:1 #
-9.9675703737195597502372614202859e-08 1:0 2:7170 3:0 4:0 5:0 6:174 7:0 8:0 #
-9.9694840187056356229054483297086e-08 1:0 2:74 3:17 4:0 5:0 6:1224 7:1117 8:1 #
-9.9694840187056356229054483297086e-08 1:0 2:7093 3:0 4:0 5:0 6:251 7:0 8:0 #
9.9694840187056356229054483297086e-08 1:72 2:162 3:166 4:0 5:1 6:146 7:151 8:1 #
9.9694840187056356229054483297086e-08 1:20 2:1210 3:158 4:2 5:0 6:833 7:87 8:0 #
9.9694840187056356229054483297086e-08 1:35 2:1660 3:95 4:0 5:29 6:225 7:100 8:0 #
-9.9694840187056356229054483297086e-08 1:0 2:7222 3:0 4:0 5:0 6:210 7:0 8:0 #
9.9694840187056356229054483297086e-08 1:226 2:591 3:95 4:0 5:120 6:615 7:90 8:0 #
-4.1100538124771391099218501626739e-08 1:3 2:66 3:6 4:0 5:0 6:1419 7:1294 8:0 #
-1.3603898097525482115235554532104e-08 1:0 2:1642 3:0 4:0 5:0 6:213 7:0 8:0 #
-9.9694840187056356229054483297086e-08 1:0 2:99 3:44 4:0 5:0 6:90 7:27 8:156 #
9.9694840187056356229054483297086e-08 1:0 2:1624 3:81 4:0 5:0 6:154 7:96 8:0 #
9.9694840187056356229054483297086e-08 1:0 2:262 3:143 4:0 5:0 6:230 7:158 8:0 #
9.9694840187056356229054483297086e-08 1:217 2:86 3:100 4:0 5:64 6:78 7:109 8:1 #
9.9694840187056356229054483297086e-08 1:643 2:160 3:39 4:0 5:152 6:178 7:30 8:0 #
9.9694840187056356229054483297086e-08 1:206 2:363 3:94 4:0 5:177 6:419 7:129 8:25 #
9.9694840187056356229054483297086e-08 1:0 2:111 3:151 4:53 5:11 6:183 7:210 8:2 #
9.9694840187056356229054483297086e-08 1:18 2:581 3:87 4:0 5:0 6:359 7:87 8:0 #
-9.9694840187056356229054483297086e-08 1:0 2:154 3:30 4:0 5:9 6:1652 7:1266 8:3 #
-9.954164901743609664400873945217e-08 1:24 2:149 3:207 4:8 5:0 6:6844 7:1068 8:4 #
-9.9639568399411668373500121538566e-08 1:12 2:481 3:576 4:5 5:27 6:750 7:975 8:0 #
9.9694840187056356229054483297086e-08 1:0 2:593 3:1 4:0 5:0 6:266 7:0 8:0 #
9.9694840187056356229054483297086e-08 1:0 2:401 3:65 4:0 5:19 6:317 7:96 8:0 #
9.9694840187056356229054483297086e-08 1:9 2:238 3:251 4:205 5:4 6:155 7:170 8:5 #
-9.9694840187056356229054483297086e-08 1:205 2:472 3:165 4:58 5:98 6:405 7:155 8:49 #
9.9694840187056356229054483297086e-08 1:4 2:135 3:158 4:0 5:0 6:144 7:159 8:0 #
-3.9071675133011184831523162361636e-08 1:8 2:6929 3:87 4:5 5:0 6:341 7:98 8:14 #
-9.9694840187056356229054483297086e-08 1:0 2:262 3:0 4:0 5:0 6:40 7:0 8:0 #
-9.9694840187056356229054483297086e-08 1:0 2:20 3:0 4:0 5:0 6:216 7:0 8:0 #
9.9694840187056356229054483297086e-08 1:0 2:140 3:143 4:0 5:7 6:181 7:149 8:4 #
-9.9694840187056356229054483297086e-08 1:0 2:27 3:2 4:0 5:0 6:42 7:1 8:0 #
9.9694840187056356229054483297086e-08 1:0 2:359 3:87 4:0 5:48 6:997 7:90 8:51 #
9.9694840187056356229054483297086e-08 1:0 2:117 3:152 4:0 5:0 6:111 7:151 8:53 #
-9.9694840187056356229054483297086e-08 1:0 2:25 3:2 4:0 5:0 6:27 7:2 8:0 #
9.9694840187056356229054483297086e-08 1:0 2:142 3:149 4:0 5:0 6:140 7:143 8:0 #
-9.9694840187056356229054483297086e-08 1:0 2:20 3:6 4:0 5:0 6:72 7:2 8:0 #
9.9694840187056356229054483297086e-08 1:0 2:93 3:128 4:0 5:0 6:117 7:152 8:0 #
-9.9694840187056356229054483297086e-08 1:1 2:16 3:7 4:0 5:10 6:14 7:4 8:0 #
-9.9694840187056356229054483297086e-08 1:0 2:0 3:0 4:0 5:0 6:3151 7:0 8:0 #
-9.9694840187056356229054483297086e-08 1:3 2:12 3:8 4:0 5:82 6:3 7:2 8:0 #
-9.9694840187056356229054483297086e-08 1:0 2:20 3:0 4:0 5:0 6:716 7:0 8:0 #
9.9694840187056356229054483297086e-08 1:0 2:0 3:3 4:0 5:48 6:440 7:150 8:9 #
-9.9694840187056356229054483297086e-08 1:0 2:29 3:0 4:0 5:0 6:875 7:0 8:0 #
-9.9694840187056356229054483297086e-08 1:0 2:30 3:0 4:0 5:0 6:473 7:0 8:0 #
9.9694840187056356229054483297086e-08 1:174 2:312 3:90 4:0 5:0 6:706 7:76 8:0 #
9.9694840187056356229054483297086e-08 1:56 2:70 3:86 4:0 5:217 6:86 7:100 8:0 #
-9.9694840187056356229054483297086e-08 1:0 2:49 3:12 4:0 5:0 6:12 7:0 8:0 #
-9.9694840187056356229054483297086e-08 1:0 2:40 3:0 4:0 5:0 6:99 7:0 8:0 #
9.9694840187056356229054483297086e-08 1:49 2:100 3:86 4:0 5:28 6:108 7:106 8:1 #
-9.9626383490695829150913869973194e-08 1:0 2:43 3:0 4:0 5:0 6:380 7:0 8:0 #
9.9694840187056356229054483297086e-08 1:5 2:249 3:89 4:2 5:12 6:250 7:84 8:0 #
9.9694840187056356229054483297086e-08 1:0 2:87 3:92 4:0 5:0 6:189 7:95 8:2 #
-9.9694840187056356229054483297086e-08 1:0 2:49 3:0 4:0 5:0 6:120 7:0 8:0 #
9.9694840187056356229054483297086e-08 1:0 2:175 3:105 4:0 5:0 6:85 7:85 8:0 #
-9.9694840187056356229054483297086e-08 1:0 2:63 3:0 4:1 5:0 6:112 7:0 8:3 #
9.9694840187056356229054483297086e-08 1:2 2:180 3:83 4:0 5:49 6:100 7:86 8:0 #
9.9694840187056356229054483297086e-08 1:29 2:225 3:100 4:0 5:30 6:312 7:99 8:189 #
-9.9694840187056356229054483297086e-08 1:0 2:50 3:0 4:0 5:0 6:262 7:0 8:0 #
9.9694840187056356229054483297086e-08 1:0 2:124 3:54 4:0 5:43 6:23 7:69 8:0 #
-9.9694840187056356229054483297086e-08 1:0 2:72 3:0 4:0 5:0 6:18 7:0 8:0 #
9.9694840187056356229054483297086e-08 1:24 2:127 3:85 4:0 5:94 6:118 7:86 8:0 #
-9.9694840187056356229054483297086e-08 1:0 2:66 3:0 4:0 5:0 6:189 7:0 8:0 #
9.9694840187056356229054483297086e-08 1:0 2:123 3:76 4:0 5:5 6:180 7:85 8:0 #
-9.9694840187056356229054483297086e-08 1:0 2:89 3:0 4:0 5:0 6:72 7:0 8:0 #
9.9694840187056356229054483297086e-08 1:0 2:173 3:89 4:0 5:0 6:125 7:82 8:0 #
9.9694840187056356229054483297086e-08 1:13 2:37 3:14 4:0 5:0 6:87 7:92 8:0 #
-9.9694840187056356229054483297086e-08 1:0 2:186 3:0 4:0 5:0 6:1 7:0 8:0 #
-9.9694840187056356229054483297086e-08 1:0 2:59 3:0 4:0 5:0 6:239 7:0 8:0 #
-9.9694840187056356229054483297086e-08 1:0 2:75 3:0 4:0 5:0 6:244 7:0 8:0 #
9.9694840187056356229054483297086e-08 1:5 2:180 3:85 4:0 5:2 6:129 7:82 8:1 #
9.9694840187056356229054483297086e-08 1:6 2:125 3:89 4:0 5:3 6:94 7:77 8:0 #
9.9694840187056356229054483297086e-08 1:0 2:169 3:87 4:0 5:106 6:192 7:73 8:0 #
-9.9694840187056356229054483297086e-08 1:4 2:206 3:34 4:1 5:72 6:119 7:41 8:0 #
9.9694840187056356229054483297086e-08 1:79 2:183 3:15 4:0 5:44 6:246 7:36 8:0 #
-9.9694840187056356229054483297086e-08 1:1 2:30 3:10 4:0 5:9 6:23 7:4 8:0 #
-9.9694840187056356229054483297086e-08 1:0 2:1 3:0 4:0 5:0 6:142 7:9 8:0 #
-9.9694840187056356229054483297086e-08 1:2 2:109 3:26 4:0 5:5293 6:47 7:6 8:0 #
9.9694840187056356229054483297086e-08 1:13 2:54 3:18 4:56 5:37 6:129 7:80 8:1 #
-9.9694840187056356229054483297086e-08 1:0 2:92 3:67 4:0 5:0 6:434 7:1 8:0 #
-9.9694840187056356229054483297086e-08 1:0 2:63 3:3 4:0 5:0 6:186 7:0 8:0 #
9.9694840187056356229054483297086e-08 1:134 2:100 3:38 4:0 5:63 6:231 7:58 8:0 #
-9.9694840187056356229054483297086e-08 1:0 2:72 3:2 4:0 5:0 6:32 7:2 8:0 #
-9.9694840187056356229054483297086e-08 1:1 2:107 3:21 4:0 5:4726 6:83 7:25 8:0 #
9.9694840187056356229054483297086e-08 1:9 2:36 3:15 4:0 5:16 6:113 7:63 8:4 #
-9.9694840187056356229054483297086e-08 1:847 2:105 3:16 4:31 5:413 6:163 7:12 8:48 #
-9.9694840187056356229054483297086e-08 1:0 2:99 3:0 4:0 5:0 6:105 7:0 8:0 #
9.9694840187056356229054483297086e-08 1:348 2:239 3:39 4:0 5:0 6:225 7:39 8:0 #
-9.9694840187056356229054483297086e-08 1:0 2:105 3:0 4:0 5:0 6:54 7:0 8:0 #
9.9694840187056356229054483297086e-08 1:38 2:121 3:18 4:0 5:29 6:163 7:52 8:0 #
9.9694840187056356229054483297086e-08 1:189 2:191 3:35 4:2 5:164 6:161 7:39 8:0 #
-9.9694840187056356229054483297086e-08 1:0 2:95 3:0 4:0 5:0 6:324 7:0 8:0 #
9.9694840187056356229054483297086e-08 1:0 2:55 3:27 4:0 5:60 6:138 7:45 8:0 #
-9.9694840187056356229054483297086e-08 1:0 2:113 3:1 4:0 5:0 6:186 7:0 8:0 #
9.9694840187056356229054483297086e-08 1:1 2:96 3:29 4:0 5:0 6:99 7:44 8:0 #
9.9694840187056356229054483297086e-08 1:111 2:53 3:11 4:0 5:212 6:52 7:20 8:0 #
-9.9694840187056356229054483297086e-08 1:2 2:90 3:11 4:0 5:0 6:225 7:0 8:0 #
9.9694840187056356229054483297086e-08 1:1 2:110 3:17 4:0 5:33 6:212 7:42 8:1 #
-9.9694840187056356229054483297086e-08 1:0 2:146 3:0 4:0 5:0 6:49 7:0 8:0 #
-9.9694840187056356229054483297086e-08 1:0 2:120 3:0 4:0 5:0 6:415 7:0 8:0 #
9.9694840187056356229054483297086e-08 1:229 2:124 3:23 4:0 5:47 6:78 7:28 8:0 #
9.9694840187056356229054483297086e-08 1:3 2:70 3:15 4:0 5:1 6:127 7:34 8:0 #
9.9694840187056356229054483297086e-08 1:47 2:80 3:15 4:0 5:1 6:96 7:37 8:0 #
-9.9694840187056356229054483297086e-08 1:2 2:117 3:92 4:0 5:0 6:0 7:0 8:0 #
9.9694840187056356229054483297086e-08 1:104 2:308 3:56 4:238 5:0 6:301 7:41 8:0 #
9.9694840187056356229054483297086e-08 1:69 2:90 3:15 4:0 5:2 6:145 7:38 8:0 #
-9.9694840187056356229054483297086e-08 1:0 2:473 3:0 4:0 5:0 6:0 7:0 8:0 #
-9.9694840187056356229054483297086e-08 1:0 2:142 3:9 4:0 5:0 6:217 7:0 8:0 #
9.9694840187056356229054483297086e-08 1:106 2:131 3:28 4:0 5:156 6:88 7:15 8:0 #
-9.9694840187056356229054483297086e-08 1:0 2:165 3:0 4:0 5:0 6:23 7:0 8:0 #
9.9694840187056356229054483297086e-08 1:68 2:218 3:31 4:0 5:0 6:154 7:30 8:0 #
-9.9694840187056356229054483297086e-08 1:0 2:152 3:0 4:0 5:0 6:50 7:0 8:0 #
-9.9694840187056356229054483297086e-08 1:0 2:150 3:0 4:0 5:0 6:75 7:0 8:0 #
-9.9694840187056356229054483297086e-08 1:419 2:168 3:15 4:0 5:104 6:308 7:56 8:238 #
-4.2078506296365972809284464184465e-08 1:0 2:442 3:0 4:0 5:0 6:433 7:0 8:0 #
-9.9694840187056356229054483297086e-08 1:0 2:216 3:0 4:0 5:0 6:8 7:0 8:0 #
9.9694840187056356229054483297086e-08 1:26 2:110 3:20 4:0 5:32 6:165 7:29 8:0 #
9.9694840187056356229054483297086e-08 1:3 2:76 3:79 4:0 5:0 6:96 7:21 8:0 #
-9.9694840187056356229054483297086e-08 1:0 2:42 3:1 4:0 5:0 6:20 7:6 8:0 #
9.9694840187056356229054483297086e-08 1:0 2:125 3:32 4:0 5:71 6:68 7:20 8:0 #
9.9694840187056356229054483297086e-08 1:51 2:117 3:35 4:0 5:0 6:121 7:22 8:0 #
9.9694840187056356229054483297086e-08 1:1 2:109 3:25 4:0 5:0 6:90 7:27 8:0 #
-9.9694840187056356229054483297086e-08 1:0 2:213 3:0 4:0 5:0 6:32 7:0 8:0 #
-9.9694840187056356229054483297086e-08 1:0 2:161 3:0 4:0 5:0 6:187 7:0 8:0 #
9.9694840187056356229054483297086e-08 1:47 2:103 3:25 4:0 5:91 6:141 7:20 8:0 #
-9.9694840187056356229054483297086e-08 1:1 2:26 3:12 4:0 5:1 6:30 7:7 8:1 #
9.9694840187056356229054483297086e-08 1:41 2:169 3:31 4:0 5:0 6:136 7:20 8:0 #
9.9694840187056356229054483297086e-08 1:0 2:75 3:16 4:0 5:4 6:119 7:30 8:0 #
-9.9694840187056356229054483297086e-08 1:0 2:12 3:0 4:0 5:1 6:71 7:11 8:0 #
-9.9694840187056356229054483297086e-08 1:0 2:173 3:0 4:0 5:0 6:150 7:0 8:0 #
9.9694840187056356229054483297086e-08 1:25 2:138 3:26 4:2 5:0 6:148 7:23 8:0 #
-9.9694840187056356229054483297086e-08 1:0 2:181 3:0 4:0 5:0 6:118 7:0 8:0 #
-9.9694840187056356229054483297086e-08 1:0 2:50 3:10 4:1 5:1 6:16 7:7 8:0 #
9.9694840187056356229054483297086e-08 1:0 2:89 3:28 4:0 5:4 6:105 7:25 8:0 #
9.9694840187056356229054483297086e-08 1:7 2:109 3:28 4:0 5:0 6:103 7:23 8:0 #
-9.9694840187056356229054483297086e-08 1:0 2:149 3:0 4:0 5:0 6:593 7:1 8:0 #
9.9694840187056356229054483297086e-08 1:79 2:106 3:25 4:0 5:9 6:36 7:15 8:0 #
-9.9694840187056356229054483297086e-08 1:10 2:14 3:4 4:0 5:1 6:30 7:10 8:0 #
9.9694840187056356229054483297086e-08 1:13 2:200 3:21 4:0 5:1 6:110 7:17 8:0 #
-9.9694840187056356229054483297086e-08 1:0 2:237 3:0 4:0 5:0 6:59 7:0 8:0 #
9.9694840187056356229054483297086e-08 1:0 2:60 3:15 4:0 5:1 6:89 7:24 8:0 #
-9.9694840187056356229054483297086e-08 1:0 2:179 3:0 4:0 5:0 6:152 7:0 8:0 #
9.9694840187056356229054483297086e-08 1:0 2:103 3:34 4:0 5:1 6:107 7:17 8:0 #
-9.9694840187056356229054483297086e-08 1:0 2:0 3:4 4:0 5:20 6:127 7:12 8:5 #
9.9694840187056356229054483297086e-08 1:0 2:451 3:0 4:1 5:0 6:184 7:0 8:0 #
-9.9694840187056356229054483297086e-08 1:0 2:0 3:0 4:0 5:0 6:278 7:20 8:0 #
9.9694840187056356229054483297086e-08 1:14 2:90 3:21 4:0 5:11 6:58 7:20 8:0 #
-9.9694840187056356229054483297086e-08 1:0 2:180 3:0 4:0 5:0 6:155 7:0 8:0 #
-9.9694840187056356229054483297086e-08 1:9 2:23 3:4 4:0 5:26 6:31 7:13 8:0 #
-9.9549015905335934024990318137738e-08 1:1 2:66 3:15 4:0 5:0 6:26 7:5 8:0 #
9.9694840187056356229054483297086e-08 1:1 2:179 3:27 4:1 5:6 6:83 7:14 8:0 #
-9.9694840187056356229054483297086e-08 1:0 2:195 3:3 4:0 5:1 6:58 7:0 8:0 #
9.9694840187056356229054483297086e-08 1:1 2:77 3:12 4:0 5:5 6:51 7:21 8:0 #
-9.9694840187056356229054483297086e-08 1:4 2:66 3:24 4:28 5:0 6:117 7:22 8:23 #
9.9694840187056356229054483297086e-08 1:3 2:111 3:26 4:0 5:1 6:79 7:18 8:0 #
-9.9694840187056356229054483297086e-08 1:0 2:184 3:0 4:0 5:0 6:160 7:0 8:0 #
9.9694840187056356229054483297086e-08 1:1 2:129 3:25 4:0 5:0 6:74 7:17 8:0 #
-9.9694840187056356229054483297086e-08 1:0 2:49 3:18 4:0 5:96 6:54 7:5 8:0 #
-9.9694840187056356229054483297086e-08 1:0 2:184 3:0 4:0 5:0 6:288 7:0 8:1 #
9.9694840187056356229054483297086e-08 1:1 2:111 3:14 4:0 5:3 6:50 7:18 8:0 #
9.9694840187056356229054483297086e-08 1:0 2:415 3:0 4:0 5:0 6:143 7:0 8:0 #
-9.9694840187056356229054483297086e-08 1:0 2:187 3:0 4:0 5:0 6:181 7:0 8:0 #
9.9694840187056356229054483297086e-08 1:0 2:102 3:32 4:0 5:0 6:59 7:17 8:0 #
-9.9694840187056356229054483297086e-08 1:0 2:71 3:16 4:0 5:0 6:46 7:7 8:0 #
9.9694840187056356229054483297086e-08 1:52 2:117 3:30 4:0 5:5 6:56 7:13 8:0 #
-9.9694840187056356229054483297086e-08 1:0 2:208 3:7 4:0 5:0 6:120 7:0 8:0 #
9.9694840187056356229054483297086e-08 1:11 2:58 3:20 4:0 5:4 6:66 7:24 8:28 #
-9.9694840187056356229054483297086e-08 1:3 2:59 3:21 4:0 5:1 6:58 7:7 8:0 #
9.9694840187056356229054483297086e-08 1:34 2:113 3:23 4:0 5:2 6:65 7:9 8:0 #
9.9694840187056356229054483297086e-08 1:0 2:194 3:0 4:0 5:0 6:338 7:0 8:0 #
-9.9694840187056356229054483297086e-08 1:0 2:262 3:0 4:0 5:0 6:66 7:0 8:0 #
9.9694840187056356229054483297086e-08 1:2 2:51 3:15 4:1 5:0 6:55 7:13 8:0 #
-9.9694840187056356229054483297086e-08 1:0 2:73 3:15 4:0 5:12 6:85 7:6 8:0 #
9.9694840187056356229054483297086e-08 1:0 2:216 3:0 4:0 5:0 6:229 7:0 8:4 #
-9.9694840187056356229054483297086e-08 1:6 2:54 3:13 4:0 5:17 6:45 7:9 8:0 #
9.9694840187056356229054483297086e-08 1:0 2:62 3:24 4:0 5:0 6:70 7:11 8:0 #
-9.9694840187056356229054483297086e-08 1:0 2:243 3:0 4:0 5:0 6:89 7:0 8:0 #
9.9694840187056356229054483297086e-08 1:8 2:44 3:32 4:1 5:1 6:26 7:12 8:0 #
-9.9694840187056356229054483297086e-08 1:5 2:56 3:13 4:0 5:0 6:50 7:10 8:1 #
9.9694840187056356229054483297086e-08 1:0 2:301 3:41 4:0 5:0 6:277 7:40 8:150 #
-9.9694840187056356229054483297086e-08 1:1 2:146 3:151 4:1 5:440 6:140 7:148 8:17 #
9.9694840187056356229054483297086e-08 1:109 2:109 3:29 4:391 5:22 6:81 7:36 8:0 #
9.9694840187056356229054483297086e-08 1:26 2:31 3:13 4:0 5:2 6:20 7:11 8:0 #
-9.9694840187056356229054483297086e-08 1:0 2:188 3:0 4:0 5:0 6:442 7:0 8:0 #
9.9694840187056356229054483297086e-08 1:0 2:170 3:0 4:9 5:0 6:148 7:0 8:3 #
9.9694840187056356229054483297086e-08 1:0 2:126 3:0 4:5 5:0 6:216 7:0 8:0 #
-9.9694840187056356229054483297086e-08 1:1 2:52 3:31 4:0 5:0 6:44 7:10 8:0 #
-8.3925715717750684098652502740379e-08 1:1 2:74 3:5 4:0 5:2 6:90 7:11 8:0 #
-9.9694840187056356229054483297086e-08 1:0 2:194 3:0 4:0 5:0 6:180 7:0 8:0 #
9.9694840187056356229054483297086e-08 1:0 2:104 3:0 4:0 5:0 6:104 7:0 8:1 #
9.9694840187056356229054483297086e-08 1:0 2:117 3:22 4:23 5:0 6:18 7:2 8:0 #
-9.9694840187056356229054483297086e-08 1:0 2:155 3:0 4:0 5:0 6:195 7:3 8:0 #
9.9694840187056356229054483297086e-08 1:0 2:148 3:0 4:3 5:0 6:192 7:0 8:11 #
-9.9694840187056356229054483297086e-08 1:0 2:203 3:0 4:0 5:0 6:319 7:0 8:0 #
9.9694840187056356229054483297086e-08 1:0 2:104 3:0 4:1 5:0 6:63 7:0 8:1 #
-9.9694840187056356229054483297086e-08 1:0 2:23 3:0 4:0 5:3 6:555 7:16 8:0 #
-9.9694840187056356229054483297086e-08 1:0 2:225 3:0 4:0 5:0 6:942 7:0 8:0 #
9.9694840187056356229054483297086e-08 1:5 2:51 3:21 4:0 5:13 6:54 7:18 8:56 #
9.9694840187056356229054483297086e-08 1:3 2:50 3:18 4:0 5:198 6:192 7:25 8:191 #
9.9694840187056356229054483297086e-08 1:43 2:23 3:69 4:0 5:81 6:0 7:90 8:455 #
-9.9694840187056356229054483297086e-08 1:0 2:99 3:15 4:0 5:0 6:115 7:10 8:0 #
9.9694840187056356229054483297086e-08 1:0 2:13 3:3 4:674 5:0 6:0 7:4 8:0 #
-4.6749284099553014919757598644168e-09 1:0 2:70 3:11 4:0 5:2 6:51 7:15 8:1 #
-5.1073612835777381551219389343999e-08 1:89 2:35 3:11 4:0 5:43 6:37 7:13 8:0 #
-3.5373023051885492102933638246254e-08 1:0 2:26 3:5 4:0 5:140 6:63 7:12 8:0 #
-2.3187785425316653428818637096287e-08 1:333 2:435 3:82 4:120 5:7071 6:149 7:108 8:0 #
-8.6674327498244229012980765179675e-08 1:94 2:118 3:86 4:0 5:276 6:1993 7:74 8:261 #
-9.9694840187056356229054483297086e-08 1:0 2:189 3:95 4:2 5:333 6:435 7:82 8:120 #
-1.315910544224729630177581237143e-08 1:1535 2:255 3:97 4:1 5:0 6:169 7:87 8:0 #
-7.6596005509277269681708403989374e-10 1:2 2:148689 3:23 4:0 5:0 6:229095 7:19 8:0 #
-2.6331826359180121287781670683841e-10 1:0 2:229095 3:19 4:0 5:364 6:66773 7:14 8:0 #
