SVM-light Version V6.02
0 # kernel type
3 # kernel parameter -d 
1 # kernel parameter -g 
1 # kernel parameter -s 
1 # kernel parameter -r 
empty# kernel parameter -u 
24 # highest feature index 
1906 # number of training documents 
449 # number of support vectors plus 1 
1.0548504 # threshold b, each following line is a SV (starting with alpha*y)
-9.8084983989546160267288291926407e-08 1:0 2:0 3:0 4:0 5:0 6:30 7:0 8:0 9:0 10:69 11:0 12:0 13:0 14:63 15:0 16:0 17:0 18:38 19:0 20:0 21:0 22:29 23:0 24:0 #
9.8084983989546160267288291926407e-08 1:0 2:7051 3:0 4:0 5:0 6:220 7:0 8:0 9:0 10:31 11:0 12:0 13:0 14:52 15:0 16:0 17:0 18:52 19:0 20:0 21:0 22:6 23:0 24:0 #
9.8084983989546160267288291926407e-08 1:4 2:2061 3:367 4:11 5:0 6:2384 7:509 8:1 9:0 10:2399 11:358 12:0 13:0 14:0 15:3 16:0 17:0 18:0 19:0 20:0 21:22 22:105 23:3 24:1 #
9.8084983989546160267288291926407e-08 1:37 2:25 3:7 4:0 5:1 6:39 7:5 8:0 9:0 10:26 11:3 12:0 13:0 14:14926 15:1 16:0 17:0 18:50540 19:3 20:0 21:0 22:41677 23:11 24:0 #
9.8084983989546160267288291926407e-08 1:0 2:1424 3:0 4:0 5:0 6:1550 7:0 8:0 9:0 10:811 11:0 12:3 13:0 14:33 15:0 16:0 17:0 18:4839 19:0 20:0 21:0 22:70 23:0 24:0 #
9.8084983989546160267288291926407e-08 1:0 2:33 3:0 4:0 5:0 6:4839 7:0 8:0 9:0 10:70 11:0 12:0 13:0 14:94 15:0 16:9 17:0 18:53 19:0 20:0 21:0 22:84 23:0 24:3 #
9.8084983989546160267288291926407e-08 1:14 2:121 3:14 4:0 5:4 6:2061 7:367 8:11 9:0 10:2384 11:509 12:1 13:0 14:2399 15:358 16:0 17:0 18:0 19:3 20:0 21:0 22:0 23:0 24:0 #
9.8084983989546160267288291926407e-08 1:1 2:15741 3:33 4:2 5:768 6:105 7:38 8:0 9:421 10:281 11:38 12:0 13:0 14:166 15:42 16:0 17:91 18:135 19:41 20:0 21:144 22:140 23:36 24:0 #
-2.4090982971914417370973282572777e-08 1:11855 2:67 3:11 4:0 5:0 6:46 7:7 8:0 9:1 10:84 11:12 12:0 13:0 14:21 15:3 16:0 17:0 18:69 19:9 20:6 21:0 22:66 23:4 24:0 #
-9.8084983989546160267288291926407e-08 1:0 2:0 3:0 4:0 5:0 6:0 7:0 8:0 9:0 10:0 11:0 12:0 13:0 14:0 15:0 16:0 17:0 18:0 19:0 20:0 21:0 22:0 23:0 24:0 #
-4.4576455705489510947742089240833e-08 1:0 2:31 3:33 4:0 5:0 6:30 7:34 8:0 9:0 10:13 11:13686 12:1380 13:13 14:1485 15:1203 16:3 17:16 18:148 19:38 20:0 21:0 22:66 23:34 24:0 #
-4.4748885200452073081437537847849e-08 1:0 2:1307 3:1208 4:0 5:1 6:15 7:1 8:0 9:0 10:71 11:18 12:0 13:5532 14:103 15:15 16:1 17:324 18:96 19:22 20:0 21:0 22:17 23:3 24:0 #
-5.9934595460314218879197044418522e-08 1:0 2:63 3:41 4:0 5:0 6:63 7:34 8:0 9:106 10:112 11:27 12:0 13:23598 14:66 15:7 16:0 17:1 18:122 19:12 20:2 21:67 22:124 23:16 24:2 #
9.8084983989546160267288291926407e-08 1:0 2:86 3:68 4:0 5:7063 6:65 7:77 8:0 9:72 10:81 11:71 12:0 13:0 14:58 15:65 16:0 17:1 18:53 19:69 20:0 21:0 22:78 23:60 24:1 #
-6.3343154096043679148739019221792e-08 1:0 2:0 3:0 4:0 5:0 6:0 7:0 8:0 9:0 10:3 11:0 12:0 13:0 14:82 15:0 16:0 17:0 18:7188 19:0 20:0 21:0 22:144 23:0 24:0 #
9.8084983989546160267288291926407e-08 1:0 2:811 3:0 4:3 5:0 6:33 7:0 8:0 9:0 10:4839 11:0 12:0 13:0 14:70 15:0 16:0 17:0 18:94 19:0 20:9 21:0 22:53 23:0 24:0 #
9.8084983989546160267288291926407e-08 1:115 2:41 3:14 4:0 5:410 6:67 7:9 8:1 9:126 10:38 11:9 12:0 13:0 14:14 15:4 16:0 17:300 18:14 19:5 20:12 21:66 22:7 23:4 24:0 #
-9.8084983989546160267288291926407e-08 1:0 2:67 3:10 4:23 5:0 6:32 7:3 8:0 9:0 10:24 11:9 12:0 13:0 14:7 15:1 16:0 17:0 18:6 19:119 20:0 21:0 22:1110 23:1777 24:1 #
-9.8084983989546160267288291926407e-08 1:0 2:41 3:31 4:0 5:0 6:49 7:80 8:0 9:0 10:62 11:49 12:0 13:330 14:328 15:33 16:2 17:3 18:139 19:32 20:120 21:0 22:61 23:39 24:0 #
9.8084983989546160267288291926407e-08 1:4 2:58 3:69 4:1 5:7114 6:67 7:71 8:0 9:2452 10:75 11:77 12:94 13:1488 14:106 15:70 16:0 17:0 18:69 19:106 20:3 21:0 22:126 23:115 24:0 #
9.8084983989546160267288291926407e-08 1:7114 2:67 3:71 4:0 5:2452 6:75 7:77 8:94 9:1488 10:106 11:70 12:0 13:0 14:69 15:106 16:3 17:0 18:126 19:115 20:0 21:13 22:117 23:83 24:202 #
9.8084983989546160267288291926407e-08 1:0 2:41677 3:11 4:0 5:31 6:31 7:4 8:15 9:0 10:42 11:15 12:0 13:7057 14:50 15:23 16:0 17:0 18:48 19:13 20:0 21:0 22:54 23:12 24:0 #
9.8084983989546160267288291926407e-08 1:3 2:48 3:69 4:0 5:6753 6:66 7:73 8:0 9:4 10:58 11:69 12:1 13:7114 14:67 15:71 16:0 17:2452 18:75 19:77 20:94 21:1488 22:106 23:70 24:0 #
9.8084983989546160267288291926407e-08 1:101 2:74 3:41 4:0 5:0 6:95 7:31 8:0 9:0 10:63 11:41 12:0 13:0 14:63 15:34 16:0 17:106 18:112 19:27 20:0 21:23598 22:66 23:7 24:0 #
9.8084983989546160267288291926407e-08 1:3 2:77 3:46 4:0 5:7 6:90 7:51 8:0 9:1 10:35 11:35 12:0 13:0 14:37 15:30 16:0 17:3 18:43 19:36 20:0 21:0 22:38 23:31 24:0 #
9.8084983989546160267288291926407e-08 1:2 2:127 3:43 4:0 5:10 6:84 7:36 8:0 9:3 10:109 11:32 12:0 13:0 14:106 15:41 16:0 17:5068 18:109 19:37 20:3 21:7395 22:70 23:33 24:1 #
-9.8084983989546160267288291926407e-08 1:99 2:127 3:19 4:204 5:0 6:121 7:13 8:34 9:0 10:129 11:18 12:0 13:0 14:135 15:22 16:99 17:0 18:102 19:17 20:51 21:0 22:120 23:16 24:0 #
-7.2070854995883804408607353764182e-08 1:0 2:0 3:0 4:0 5:0 6:3 7:0 8:0 9:0 10:82 11:0 12:0 13:0 14:7188 15:0 16:0 17:0 18:144 19:0 20:0 21:0 22:163 23:0 24:0 #
8.0922478343890018218162050924608e-08 1:0 2:100 3:328 4:0 5:0 6:101 7:301 8:0 9:143 10:1197 11:369 12:13939 13:816 14:84 15:13 16:0 17:7 18:164 19:15 20:110 21:9 22:85 23:35 24:10 #
-9.8084983989546160267288291926407e-08 1:94 2:46 3:35 4:0 5:0 6:51 7:30 8:0 9:79 10:1424 11:33 12:156 13:197 14:543 15:33 16:105 17:1 18:494 19:37 20:0 21:0 22:58 23:35 24:0 #
-3.0663907172167522415619683772217e-08 1:0 2:44 3:42 4:0 5:0 6:31 7:33 8:0 9:0 10:30 11:34 12:0 13:0 14:13 15:13686 16:1380 17:13 18:1485 19:1203 20:3 21:16 22:148 23:38 24:0 #
-4.2770684513851503303556484021641e-08 1:0 2:30 3:34 4:0 5:0 6:13 7:13686 8:1380 9:13 10:1485 11:1203 12:3 13:16 14:148 15:38 16:0 17:0 18:66 19:34 20:0 21:0 22:95 23:36 24:0 #
-9.8084983989546160267288291926407e-08 1:0 2:11 3:0 4:0 5:2 6:36 7:19 8:0 9:0 10:13 11:1 12:674 13:0 14:0 15:2 16:0 17:0 18:0 19:1 20:0 21:0 22:0 23:2 24:0 #
9.8084983989546160267288291926407e-08 1:0 2:95 3:31 4:0 5:0 6:63 7:41 8:0 9:0 10:63 11:34 12:0 13:106 14:112 15:27 16:0 17:23598 18:66 19:7 20:0 21:1 22:122 23:12 24:2 #
-9.8084983989546160267288291926407e-08 1:12 2:1890 3:1855 4:0 5:8 6:294 7:1 8:0 9:3 10:14 11:3 12:0 13:1 14:46 15:12 16:0 17:1 18:33 19:7 20:0 21:59 22:50 23:6 24:0 #
-9.8084983989546160267288291926407e-08 1:0 2:80 3:0 4:0 5:0 6:101 7:0 8:0 9:0 10:125 11:0 12:4 13:0 14:91 15:0 16:2 17:0 18:7110 19:0 20:0 21:0 22:119 23:0 24:7 #
9.8084983989546160267288291926407e-08 1:7084 2:968 3:45 4:0 5:0 6:707 7:43 8:0 9:45 10:94 11:42 12:0 13:1 14:90 15:44 16:0 17:8 18:83 19:36 20:0 21:0 22:100 23:37 24:0 #
9.8084983989546160267288291926407e-08 1:443 2:45 3:77 4:0 5:424 6:43 7:65 8:0 9:3 10:48 11:69 12:0 13:6753 14:66 15:73 16:0 17:4 18:58 19:69 20:1 21:7114 22:67 23:71 24:0 #
-9.8084983989546160267288291926407e-08 1:0 2:28 3:0 4:0 5:0 6:234 7:0 8:0 9:0 10:140 11:0 12:0 13:0 14:1604 15:0 16:0 17:0 18:35 19:0 20:0 21:0 22:193 23:0 24:0 #
-9.8084983989546160267288291926407e-08 1:70 2:208 3:83 4:29 5:129 6:178 7:77 8:31 9:3 10:215 11:82 12:29 13:65 14:135 15:35 16:0 17:7159 18:270 19:34 20:0 21:0 22:103 23:38 24:0 #
9.8084983989546160267288291926407e-08 1:0 2:4369 3:43 4:0 5:3103 6:95 7:41 8:0 9:7042 10:153 11:66 12:1 13:0 14:104 15:68 16:0 17:0 18:92 19:69 20:0 21:3 22:91 23:67 24:0 #
-2.5377423193201689182049867496253e-08 1:1250 2:93 3:265 4:2608 5:0 6:74 7:283 8:0 9:0 10:73 11:330 12:0 13:0 14:100 15:328 16:0 17:0 18:101 19:301 20:0 21:143 22:1197 23:369 24:13939 #
-9.8084983989546160267288291926407e-08 1:0 2:128 3:57 4:7 5:148 6:246 7:60 8:18 9:70 10:196 11:54 12:18 13:70 14:208 15:83 16:29 17:129 18:178 19:77 20:31 21:3 22:215 23:82 24:29 #
-9.8084983989546160267288291926407e-08 1:106 2:112 3:27 4:0 5:23598 6:66 7:7 8:0 9:1 10:122 11:12 12:2 13:67 14:124 15:16 16:2 17:0 18:38 19:6 20:0 21:0 22:13 23:8 24:0 #
-9.8084983989546160267288291926407e-08 1:70 2:196 3:54 4:18 5:70 6:208 7:83 8:29 9:129 10:178 11:77 12:31 13:3 14:215 15:82 16:29 17:65 18:135 19:35 20:0 21:7159 22:270 23:34 24:0 #
-9.8084983989546160267288291926407e-08 1:0 2:49 3:80 4:0 5:0 6:62 7:49 8:0 9:330 10:328 11:33 12:2 13:3 14:139 15:32 16:120 17:0 18:61 19:39 20:0 21:0 22:47 23:45 24:0 #
-1.5734568702417631982161698098177e-08 1:23338 2:98 3:38 4:0 5:14 6:49 7:35 8:0 9:0 10:47 11:33 12:0 13:5 14:59 15:33 16:0 17:5 18:52 19:40 20:0 21:0 22:64 23:33 24:0 #
-5.5376325381525576328593796215927e-09 1:0 2:17 3:2 4:0 5:2 6:14000 7:11 8:0 9:0 10:101007 11:8 12:0 13:0 14:101013 15:12 16:0 17:0 18:101014 19:4 20:0 21:19 22:77518 23:8 24:0 #
-9.8084983989546160267288291926407e-08 1:39 2:49953 3:5 4:0 5:306 6:52 7:8 8:0 9:385 10:42 11:4 12:0 13:9 14:50 15:7 16:0 17:425 18:56 19:11 20:0 21:489 22:41 23:6 24:0 #
-9.8084983989546160267288291926407e-08 1:452 2:64 3:7 4:0 5:390 6:39 7:7 8:8 9:6 10:45 11:2 12:38 13:2 14:75 15:1 16:30 17:410 18:61 19:11 20:3 21:429 22:279 23:22 24:0 #
9.8084983989546160267288291926407e-08 1:0 2:65 3:46 4:0 5:0 6:84 7:41 8:0 9:0 10:44 11:42 12:0 13:0 14:31 15:33 16:0 17:0 18:30 19:34 20:0 21:0 22:13 23:13686 24:1380 #
9.8084983989546160267288291926407e-08 1:0 2:1110 3:1777 4:1 5:737 6:29 7:6 8:0 9:4 10:257 11:29 12:0 13:0 14:29 15:3 16:0 17:0 18:38 19:13 20:0 21:0 22:29 23:3 24:0 #
9.8084983989546160267288291926407e-08 1:0 2:689 3:780 4:0 5:0 6:1416 7:1094 8:0 9:443 10:45 11:77 12:0 13:424 14:43 15:65 16:0 17:3 18:48 19:69 20:0 21:6753 22:66 23:73 24:0 #
9.8084983989546160267288291926407e-08 1:2 2:85 3:11 4:0 5:1 6:23 7:2 8:0 9:11855 10:67 11:11 12:0 13:0 14:46 15:7 16:0 17:1 18:84 19:12 20:0 21:0 22:21 23:3 24:0 #
9.8084983989546160267288291926407e-08 1:35 2:49 3:67 4:0 5:445 6:71 7:64 8:0 9:1306 10:80 11:80 12:0 13:5232 14:53 15:69 16:0 17:0 18:52 19:75 20:0 21:32 22:32 23:62 24:1 #
9.8084983989546160267288291926407e-08 1:7159 2:270 3:34 4:0 5:0 6:103 7:38 8:0 9:0 10:147 11:44 12:0 13:1 14:139 15:47 16:0 17:0 18:70 19:42 20:0 21:10 22:12 23:12 24:1 #
9.8084983989546160267288291926407e-08 1:17 2:82 3:65 4:0 5:0 6:86 7:68 8:0 9:7063 10:65 11:77 12:0 13:72 14:81 15:71 16:0 17:0 18:58 19:65 20:0 21:1 22:53 23:69 24:0 #
-9.8084983989546160267288291926407e-08 1:6 2:47 3:6 4:0 5:4 6:27 7:5 8:0 9:8 10:32 11:16 12:0 13:5 14:34 15:11 16:0 17:2 18:11 19:5 20:28 21:1 22:20 23:9 24:0 #
-9.8084983989546160267288291926407e-08 1:0 2:135 3:22 4:99 5:0 6:102 7:17 8:51 9:0 10:120 11:16 12:0 13:1 14:62 15:12 16:0 17:2345 18:121 19:543 20:855 21:1250 22:93 23:265 24:2608 #
9.8084983989546160267288291926407e-08 1:0 2:109 3:18 4:0 5:0 6:55 7:7 8:0 9:0 10:11 11:3 12:0 13:0 14:35 15:9 16:0 17:0 18:1411 19:1222 20:0 21:0 22:0 23:3 24:0 #
-3.881775216452680379321769910117e-08 1:0 2:50584 3:7 4:0 5:0 6:49634 7:6 8:0 9:2 10:34 11:1 12:0 13:1 14:27 15:5 16:0 17:0 18:48 19:2 20:0 21:0 22:1376 23:1292 24:0 #
-9.8084983989546160267288291926407e-08 1:0 2:14 3:0 4:0 5:0 6:28 7:0 8:0 9:0 10:48 11:0 12:188 13:0 14:31 15:0 16:0 17:0 18:29 19:0 20:0 21:0 22:0 23:0 24:0 #
-9.8084983989546160267288291926407e-08 1:0 2:63 3:0 4:0 5:0 6:77 7:0 8:0 9:0 10:45 11:0 12:0 13:0 14:37 15:0 16:0 17:0 18:7021 19:0 20:0 21:0 22:165 23:0 24:0 #
-9.8084983989546160267288291926407e-08 1:0 2:0 3:0 4:0 5:0 6:0 7:0 8:0 9:0 10:0 11:0 12:0 13:0 14:0 15:0 16:0 17:0 18:0 19:0 20:0 21:0 22:0 23:0 24:0 #
-9.3141104702948864462299163879955e-08 1:0 2:165 3:0 4:0 5:0 6:102 7:0 8:0 9:0 10:79 11:0 12:0 13:0 14:76 15:0 16:0 17:0 18:7110 19:0 20:0 21:0 22:41 23:0 24:0 #
-6.6192439109741263436603730951902e-08 1:0 2:7110 3:0 4:0 5:0 6:41 7:0 8:0 9:0 10:4 11:0 12:0 13:0 14:6 15:0 16:0 17:0 18:40 19:0 20:0 21:0 22:171 23:0 24:0 #
-9.8084983989546160267288291926407e-08 1:2 2:44 3:4 4:0 5:120 6:37 7:3 8:0 9:2 10:33 11:2 12:0 13:0 14:34 15:11 16:0 17:0 18:59 19:5 20:0 21:6 22:1379 23:2144 24:2 #
-9.8084983989546160267288291926407e-08 1:0 2:53 3:65 4:0 5:0 6:44 7:66 8:53 9:0 10:57 11:75 12:0 13:11 14:94 15:91 16:2 17:97 18:258 19:139 20:0 21:522 22:156 23:136 24:1 #
-9.8084983989546160267288291926407e-08 1:19 2:331 3:146 4:8 5:15 6:22 7:11 8:1287 9:5 10:38 11:41 12:1402 13:55 14:286 15:321 16:76 17:0 18:59 19:34 20:0 21:101 22:209 23:40 24:0 #
9.8084983989546160267288291926407e-08 1:0 2:56 3:37 4:0 5:0 6:54 7:35 8:0 9:0 10:91 11:38 12:0 13:3815 14:91 15:41 16:0 17:0 18:527 19:39 20:1 21:17 22:2939 23:46 24:1 #
9.8084983989546160267288291926407e-08 1:0 2:33 3:7 4:1 5:0 6:26 7:5 8:0 9:0 10:21 11:7 12:0 13:0 14:30 15:14 16:0 17:0 18:1740 19:1231 20:1 21:2 22:10 23:3 24:2 #
9.8084983989546160267288291926407e-08 1:169 2:63 3:76 4:0 5:35 6:49 7:67 8:0 9:445 10:71 11:64 12:0 13:1306 14:80 15:80 16:0 17:5232 18:53 19:69 20:0 21:0 22:52 23:75 24:0 #
-9.8084983989546160267288291926407e-08 1:0 2:102 3:47 4:0 5:5 6:123 7:47 8:189 9:13 10:149 11:38 12:0 13:13 14:133 15:44 16:1 17:397 18:156 19:42 20:0 21:3070 22:103 23:38 24:0 #
3.1663611293748653673436112840692e-08 1:0 2:101 3:301 4:0 5:143 6:1197 7:369 8:13939 9:816 10:84 11:13 12:0 13:7 14:164 15:15 16:110 17:9 18:85 19:35 20:10 21:62 22:56 23:21 24:3 #
7.6907282681823438098294332294913e-08 1:0 2:73 3:330 4:0 5:0 6:100 7:328 8:0 9:0 10:101 11:301 12:0 13:143 14:1197 15:369 16:13939 17:816 18:84 19:13 20:0 21:7 22:164 23:15 24:110 #
9.8084983989546160267288291926407e-08 1:2345 2:121 3:543 4:855 5:1250 6:93 7:265 8:2608 9:0 10:74 11:283 12:0 13:0 14:73 15:330 16:0 17:0 18:100 19:328 20:0 21:0 22:101 23:301 24:0 #
-7.4754975361605510708606914249685e-08 1:0 2:7110 3:0 4:0 5:0 6:119 7:0 8:7 9:0 10:66 11:0 12:0 13:0 14:60 15:0 16:0 17:0 18:54 19:0 20:0 21:0 22:15 23:0 24:0 #
9.8084983989546160267288291926407e-08 1:2 2:41 3:22 4:0 5:0 6:39 7:15 8:0 9:0 10:32 11:7 12:0 13:7063 14:33 15:9 16:0 17:0 18:37 19:7 20:0 21:0 22:18 23:14 24:0 #
-6.2040796923502215472820810280435e-08 1:0 2:1411 3:1222 4:0 5:0 6:0 7:3 8:0 9:418 10:388 11:10 12:5 13:48 14:93 15:2 16:1 17:0 18:43 19:11 20:0 21:0 22:69 23:2 24:0 #
-9.8084983989546160267288291926407e-08 1:0 2:51 3:30 4:0 5:79 6:1424 7:33 8:156 9:197 10:543 11:33 12:105 13:1 14:494 15:37 16:0 17:0 18:58 19:35 20:0 21:17 22:69 23:37 24:0 #
-8.9847949462208262236643260909702e-08 1:10 2:84 3:36 4:0 5:3 6:109 7:32 8:0 9:0 10:106 11:41 12:0 13:5068 14:109 15:37 16:3 17:7395 18:70 19:33 20:1 21:0 22:53 23:37 24:1 #
9.8084983989546160267288291926407e-08 1:0 2:91 3:0 4:0 5:0 6:80 7:0 8:0 9:0 10:101 11:0 12:0 13:0 14:125 15:0 16:4 17:0 18:91 19:0 20:2 21:0 22:7110 23:0 24:0 #
9.8084983989546160267288291926407e-08 1:0 2:55 3:7 4:0 5:0 6:11 7:3 8:0 9:0 10:35 11:9 12:0 13:0 14:1411 15:1222 16:0 17:0 18:0 19:3 20:0 21:418 22:388 23:10 24:5 #
9.8084983989546160267288291926407e-08 1:0 2:26 3:5 4:0 5:0 6:21 7:7 8:0 9:0 10:30 11:14 12:0 13:0 14:1740 15:1231 16:1 17:2 18:10 19:3 20:2 21:5 22:24 23:20 24:66 #
-1.5196315039241504882489355865438e-08 1:0 2:40 3:7 4:0 5:0 6:87 7:13 8:0 9:0 10:17 11:2 12:0 13:2 14:14000 15:11 16:0 17:0 18:101007 19:8 20:0 21:0 22:101013 23:12 24:0 #
9.8084983989546160267288291926407e-08 1:0 2:95 3:36 4:0 5:0 6:56 7:37 8:0 9:0 10:54 11:35 12:0 13:0 14:91 15:38 16:0 17:3815 18:91 19:41 20:0 21:0 22:527 23:39 24:1 #
9.8084983989546160267288291926407e-08 1:5 2:123 3:47 4:189 5:13 6:149 7:38 8:0 9:13 10:133 11:44 12:1 13:397 14:156 15:42 16:0 17:3070 18:103 19:38 20:0 21:187 22:95 23:30 24:0 #
9.8084983989546160267288291926407e-08 1:22 2:584 3:606 4:588 5:464 6:522 7:363 8:24 9:529 10:74 11:23 12:0 13:990 14:29 15:2 16:0 17:452 18:64 19:7 20:0 21:390 22:39 23:7 24:8 #
-9.6623485717376399846990908931027e-08 1:3 2:56 3:8 4:0 5:26 6:55 7:7 8:0 9:0 10:106 11:11 12:0 13:5972 14:46 15:8 16:0 17:7063 18:21 19:21 20:0 21:0 22:58 23:10 24:0 #
9.8084983989546160267288291926407e-08 1:0 2:225 3:41 4:0 5:0 6:561 7:34 8:0 9:11 10:89 11:43 12:1 13:0 14:63 15:42 16:0 17:0 18:4369 19:43 20:0 21:3103 22:95 23:41 24:0 #
-9.8063305806912137164752072023e-08 1:0 2:156 3:21 4:0 5:1270 6:102 7:17 8:0 9:0 10:48 11:5 12:0 13:0 14:70 15:10 16:0 17:0 18:86 19:5 20:0 21:419 22:58 23:6 24:0 #
-9.8084983989546160267288291926407e-08 1:0 2:0 3:0 4:0 5:22 6:105 7:3 8:1 9:19 10:331 11:146 12:8 13:15 14:22 15:11 16:1287 17:5 18:38 19:41 20:1402 21:55 22:286 23:321 24:76 #
-9.8084983989546160267288291926407e-08 1:6 2:35 3:17 4:0 5:834 6:28 7:9 8:0 9:0 10:41 11:4 12:0 13:0 14:53 15:14 16:0 17:0 18:54 19:10 20:0 21:0 22:46 23:4 24:1 #
9.8084983989546160267288291926407e-08 1:0 2:70 3:40 4:0 5:279 6:28 7:65 8:0 9:1673 10:55 11:56 12:0 13:1773 14:54 15:68 16:0 17:7 18:75 19:66 20:0 21:184 22:77 23:77 24:0 #
5.9860583987690449571096541411808e-08 1:0 2:74 3:283 4:0 5:0 6:73 7:330 8:0 9:0 10:100 11:328 12:0 13:0 14:101 15:301 16:0 17:143 18:1197 19:369 20:13939 21:816 22:84 23:13 24:0 #
9.8084983989546160267288291926407e-08 1:65 2:135 3:35 4:0 5:7159 6:270 7:34 8:0 9:0 10:103 11:38 12:0 13:0 14:147 15:44 16:0 17:1 18:139 19:47 20:0 21:0 22:70 23:42 24:0 #
-5.1941293820094817121433422579813e-10 1:0 2:101007 3:8 4:0 5:0 6:101013 7:12 8:0 9:0 10:101014 11:4 12:0 13:19 14:77518 15:8 16:0 17:39 18:49953 19:5 20:0 21:306 22:52 23:8 24:0 #
9.8084983989546160267288291926407e-08 1:0 2:70 3:11 4:0 5:0 6:100 7:17 8:0 9:0 10:36 11:2 12:0 13:0 14:0 15:2 16:0 17:2 18:1487 19:1229 20:1 21:8 22:115 23:60 24:0 #
-9.8084983989546160267288291926407e-08 1:0 2:0 3:0 4:0 5:0 6:11 7:0 8:0 9:2 10:36 11:19 12:0 13:0 14:13 15:1 16:674 17:0 18:0 19:2 20:0 21:0 22:0 23:1 24:0 #
-9.8084983989546160267288291926407e-08 1:22 2:105 3:3 4:1 5:19 6:331 7:146 8:8 9:15 10:22 11:11 12:1287 13:5 14:38 15:41 16:1402 17:55 18:286 19:321 20:76 21:0 22:59 23:34 24:0 #
-9.8084983989546160267288291926407e-08 1:15 2:22 3:11 4:1287 5:5 6:38 7:41 8:1402 9:55 10:286 11:321 12:76 13:0 14:59 15:34 16:0 17:101 18:209 19:40 20:0 21:0 22:397 23:31 24:0 #
-9.8084983989546160267288291926407e-08 1:0 2:61 3:45 4:0 5:94 6:46 7:35 8:0 9:0 10:51 11:30 12:0 13:79 14:1424 15:33 16:156 17:197 18:543 19:33 20:105 21:1 22:494 23:37 24:0 #
9.8084983989546160267288291926407e-08 1:3 2:93 3:31 4:2 5:2 6:127 7:43 8:0 9:10 10:84 11:36 12:0 13:3 14:109 15:32 16:0 17:0 18:106 19:41 20:0 21:5068 22:109 23:37 24:3 #
9.8084983989546160267288291926407e-08 1:72 2:10 3:3 4:0 5:25 6:34 7:12 8:0 9:115 10:41 11:14 12:0 13:410 14:67 15:9 16:1 17:126 18:38 19:9 20:0 21:0 22:14 23:4 24:0 #
-9.8084983989546160267288291926407e-08 1:0 2:29 3:4 4:0 5:2 6:26 7:5 8:0 9:0 10:61 11:11 12:0 13:1 14:43 15:14 16:0 17:0 18:54 19:23 20:1 21:2 22:65 23:27 24:297 #
-1.1783150455990754185220773539531e-08 1:10 2:55 3:8 4:0 5:0 6:67 7:11 8:0 9:0 10:36 11:8 12:0 13:0 14:50 15:5 16:0 17:0 18:34 19:3 20:0 21:2966 22:39 23:1 24:0 #
-8.8121827771247646521939555185055e-08 1:0 2:36 3:8 4:0 5:0 6:50 7:5 8:0 9:0 10:34 11:3 12:0 13:2966 14:39 15:1 16:0 17:6 18:25 19:4 20:0 21:4834 22:40 23:8 24:0 #
-9.8084983989546160267288291926407e-08 1:0 2:120 3:16 4:0 5:1 6:62 7:12 8:0 9:2345 10:121 11:543 12:855 13:1250 14:93 15:265 16:2608 17:0 18:74 19:283 20:0 21:0 22:73 23:330 24:0 #
9.8084983989546160267288291926407e-08 1:0 2:42 3:15 4:0 5:7057 6:50 7:23 8:0 9:0 10:48 11:13 12:0 13:0 14:54 15:12 16:0 17:0 18:41 19:14 20:1 21:0 22:56 23:14 24:0 #
-9.8084983989546160267288291926407e-08 1:0 2:28 3:0 4:0 5:0 6:48 7:0 8:188 9:0 10:31 11:0 12:0 13:0 14:29 15:0 16:0 17:0 18:0 19:0 20:0 21:0 22:0 23:0 24:0 #
9.8084983989546160267288291926407e-08 1:7063 2:33 3:9 4:0 5:0 6:37 7:7 8:0 9:0 10:18 11:14 12:0 13:0 14:45 15:7 16:3 17:0 18:30 19:9 20:0 21:26 22:28 23:13 24:1 #
9.8084983989546160267288291926407e-08 1:0 2:2384 3:509 4:1 5:0 6:2399 7:358 8:0 9:0 10:0 11:3 12:0 13:0 14:0 15:0 16:0 17:22 18:105 19:3 20:1 21:19 22:331 23:146 24:8 #
9.8084983989546160267288291926407e-08 1:7050 2:50 3:9 4:0 5:0 6:55 7:11 8:0 9:0 10:56 11:8 12:0 13:0 14:36 15:11 16:0 17:0 18:26 19:3 20:0 21:0 22:25 23:8 24:0 #
-9.8084983989546160267288291926407e-08 1:330 2:328 3:33 4:2 5:3 6:139 7:32 8:120 9:0 10:61 11:39 12:0 13:0 14:47 15:45 16:0 17:7071 18:69 19:45 20:0 21:1 22:71 23:47 24:0 #
-9.8084983989546160267288291926407e-08 1:0 2:320 3:0 4:0 5:0 6:102 7:0 8:0 9:0 10:7087 11:0 12:0 13:0 14:64 15:0 16:0 17:0 18:39 19:0 20:0 21:0 22:18 23:0 24:0 #
9.8084983989546160267288291926407e-08 1:59 2:0 3:2 4:3 5:22 6:584 7:606 8:588 9:464 10:522 11:363 12:24 13:529 14:74 15:23 16:0 17:990 18:29 19:2 20:0 21:452 22:64 23:7 24:0 #
-9.8084983989546160267288291926407e-08 1:0 2:41 3:17 4:0 5:23 6:20 7:19 8:0 9:88 10:23 11:7 12:394 13:2 14:53 15:17 16:103 17:20 18:37 19:18 20:0 21:2363 22:15 23:3 24:0 #
9.8084983989546160267288291926407e-08 1:0 2:490 3:0 4:0 5:0 6:2907 7:0 8:0 9:0 10:777 11:0 12:0 13:0 14:81 15:0 16:0 17:0 18:109 19:0 20:0 21:0 22:56 23:0 24:3 #
9.8084983989546160267288291926407e-08 1:0 2:69 3:36 4:0 5:0 6:2212 7:42 8:0 9:0 10:2112 11:37 12:0 13:0 14:1694 15:39 16:0 17:0 18:81 19:37 20:0 21:0 22:91 23:33 24:0 #
9.8084983989546160267288291926407e-08 1:0 2:75 3:34 4:0 5:33 6:26 7:35 8:0 9:16 10:52 11:40 12:0 13:8 14:39 15:42 16:1 17:20 18:49 19:50 20:0 21:5455 22:41 23:35 24:0 #
-9.8084983989546160267288291926407e-08 1:0 2:21 3:11 4:0 5:0 6:30 7:6 8:0 9:0 10:31 11:9 12:0 13:0 14:39 15:15 16:0 17:0 18:34 19:13 20:0 21:12 22:1890 23:1855 24:0 #
-9.8084983989546160267288291926407e-08 1:1773 2:54 3:68 4:0 5:7 6:75 7:66 8:0 9:184 10:77 11:77 12:0 13:75 14:73 15:71 16:25 17:17 18:82 19:65 20:0 21:0 22:86 23:68 24:0 #
-3.772723910112630836891089991525e-08 1:3160 2:90 3:22 4:0 5:0 6:52 7:9 8:0 9:0 10:38 11:8 12:0 13:1 14:138 15:12 16:0 17:0 18:208 19:10 20:0 21:0 22:87 23:5 24:0 #
-9.8084983016441001197225301420912e-08 1:0 2:264 3:37 4:0 5:2 6:719 7:38 8:0 9:46 10:254 11:40 12:51 13:134 14:111 15:43 16:1 17:1300 18:98 19:40 20:0 21:101 22:74 23:41 24:0 #
9.8084983989546160267288291926407e-08 1:0 2:66 3:34 4:0 5:0 6:95 7:36 8:0 9:0 10:56 11:37 12:0 13:0 14:54 15:35 16:0 17:0 18:91 19:38 20:0 21:3815 22:91 23:41 24:0 #
-9.8084983989546160267288291926407e-08 1:0 2:53 3:0 4:0 5:0 6:84 7:0 8:3 9:0 10:80 11:0 12:6 13:0 14:97 15:0 16:3 17:0 18:61 19:0 20:4 21:0 22:42 23:0 24:3 #
9.8084983989546160267288291926407e-08 1:0 2:18 3:14 4:0 5:0 6:45 7:7 8:3 9:0 10:30 11:9 12:0 13:26 14:28 15:13 16:1 17:2 18:37 19:12 20:1 21:5925 22:56 23:8 24:0 #
-3.9500229606823813294745606494729e-09 1:7 2:75 3:66 4:0 5:184 6:77 7:77 8:0 9:75 10:73 11:71 12:25 13:17 14:82 15:65 16:0 17:0 18:86 19:68 20:0 21:7063 22:65 23:77 24:0 #
-9.8084983989546160267288291926407e-08 1:0 2:1 3:107 4:0 5:22 6:0 7:38 8:452 9:59 10:0 11:2 12:3 13:22 14:584 15:606 16:588 17:464 18:522 19:363 20:24 21:529 22:74 23:23 24:0 #
-9.7128690927097872541331330387138e-08 1:20 2:37 3:18 4:0 5:2363 6:15 7:3 8:0 9:4825 10:70 11:16 12:0 13:68 14:72 15:6 16:0 17:22 18:33 19:4 20:0 21:10 22:66 23:23 24:0 #
-9.8084983989546160267288291926407e-08 1:990 2:29 3:2 4:0 5:452 6:64 7:7 8:0 9:390 10:39 11:7 12:8 13:6 14:45 15:2 16:38 17:2 18:75 19:1 20:30 21:410 22:61 23:11 24:3 #
9.8084983989546160267288291926407e-08 1:0 2:21 3:7 4:0 5:0 6:30 7:14 8:0 9:0 10:1740 11:1231 12:1 13:2 14:10 15:3 16:2 17:5 18:24 19:20 20:66 21:1 22:24 23:4 24:184 #
-9.8084983989546160267288291926407e-08 1:0 2:47 3:63 4:0 5:0 6:50 7:64 8:0 9:0 10:53 11:65 12:0 13:0 14:44 15:66 16:53 17:0 18:57 19:75 20:0 21:11 22:94 23:91 24:2 #
-9.8084983989546160267288291926407e-08 1:0 2:130 3:0 4:0 5:0 6:2 7:0 8:0 9:0 10:139 11:0 12:0 13:0 14:14 15:0 16:0 17:0 18:28 19:0 20:0 21:0 22:48 23:0 24:188 #
-2.2989980900329164045027263019042e-09 1:1 2:62 3:9 4:0 5:0 6:94 7:4 8:0 9:0 10:158 11:8 12:0 13:713 14:107 15:9 16:0 17:1938 18:67 19:3 20:0 21:3160 22:90 23:22 24:0 #
9.8084983989546160267288291926407e-08 1:3 2:91 3:67 4:0 5:10 6:316 7:84 8:1 9:0 10:982 11:71 12:0 13:0 14:918 15:76 16:0 17:0 18:205 19:59 20:0 21:0 22:419 23:71 24:0 #
9.8084983989546160267288291926407e-08 1:464 2:522 3:363 4:24 5:529 6:74 7:23 8:0 9:990 10:29 11:2 12:0 13:452 14:64 15:7 16:0 17:390 18:39 19:7 20:8 21:6 22:45 23:2 24:38 #
-9.8084983989546160267288291926407e-08 1:1 2:62 3:12 4:0 5:2345 6:121 7:543 8:855 9:1250 10:93 11:265 12:2608 13:0 14:74 15:283 16:0 17:0 18:73 19:330 20:0 21:0 22:100 23:328 24:0 #
9.8084983989546160267288291926407e-08 1:0 2:70 3:0 4:0 5:0 6:490 7:0 8:0 9:0 10:2907 11:0 12:0 13:0 14:777 15:0 16:0 17:0 18:81 19:0 20:0 21:0 22:109 23:0 24:0 #
9.8084983989546160267288291926407e-08 1:0 2:34 3:11 4:0 5:0 6:59 7:5 8:0 9:6 10:1379 11:2144 12:2 13:0 14:0 15:0 16:0 17:0 18:11 19:0 20:0 21:2 22:36 23:19 24:0 #
9.8084983989546160267288291926407e-08 1:2 2:67 3:41 4:0 5:2 6:57 7:33 8:0 9:0 10:51 11:35 12:0 13:0 14:48 15:38 16:1 17:47 18:1084 19:1053 20:0 21:64 22:236 23:198 24:6 #
9.8084983989546160267288291926407e-08 1:0 2:34 3:35 4:0 5:0 6:17 7:38 8:0 9:56 10:44 11:44 12:0 13:0 14:8 15:34 16:0 17:221 18:62 19:45 20:0 21:60 22:32 23:51 24:0 #
9.8084983989546160267288291926407e-08 1:10 2:243 3:106 4:0 5:1 6:1213 7:1183 8:2 9:17 10:28 11:58 12:0 13:23 14:63 15:61 16:0 17:423 18:52 19:67 20:0 21:2 22:133 23:69 24:0 #
9.8084983989546160267288291926407e-08 1:17 2:2939 3:46 4:1 5:0 6:1115 7:113 8:2 9:20 10:78 11:34 12:0 13:0 14:78 15:34 16:0 17:0 18:225 19:41 20:0 21:0 22:561 23:34 24:0 #
9.8084983989546160267288291926407e-08 1:2452 2:75 3:77 4:94 5:1488 6:106 7:70 8:0 9:0 10:69 11:106 12:3 13:0 14:126 15:115 16:0 17:13 18:117 19:83 20:202 21:0 22:56 23:66 24:1 #
-9.8084983989546160267288291926407e-08 1:410 2:67 3:9 4:1 5:126 6:38 7:9 8:0 9:0 10:14 11:4 12:0 13:300 14:14 15:5 16:12 17:66 18:7 19:4 20:0 21:79 22:63 23:14 24:20 #
9.8084983989546160267288291926407e-08 1:1 2:9 3:3 4:0 5:12 6:677 7:582 8:0 9:10 10:914 11:780 12:0 13:0 14:525 15:64 16:1 17:3 18:175 19:39 20:0 21:6 22:129 23:25 24:0 #
9.8084983989546160267288291926407e-08 1:0 2:2399 3:358 4:0 5:0 6:0 7:3 8:0 9:0 10:0 11:0 12:0 13:22 14:105 15:3 16:1 17:19 18:331 19:146 20:8 21:15 22:22 23:11 24:1287 #
9.8084983989546160267288291926407e-08 1:529 2:74 3:23 4:0 5:990 6:29 7:2 8:0 9:452 10:64 11:7 12:0 13:390 14:39 15:7 16:8 17:6 18:45 19:2 20:38 21:2 22:75 23:1 24:30 #
9.8084983989546160267288291926407e-08 1:0 2:4839 3:0 4:0 5:0 6:70 7:0 8:0 9:0 10:94 11:0 12:9 13:0 14:53 15:0 16:0 17:0 18:84 19:0 20:3 21:0 22:80 23:0 24:6 #
9.8084983989546160267288291926407e-08 1:0 2:129 3:18 4:0 5:0 6:135 7:22 8:99 9:0 10:102 11:17 12:51 13:0 14:120 15:16 16:0 17:1 18:62 19:12 20:0 21:2345 22:121 23:543 24:855 #
9.8084983989546160267288291926407e-08 1:390 2:39 3:7 4:8 5:6 6:45 7:2 8:38 9:2 10:75 11:1 12:30 13:410 14:61 15:11 16:3 17:429 18:279 19:22 20:0 21:3 22:104 23:20 24:0 #
9.8084983989546160267288291926407e-08 1:1488 2:106 3:70 4:0 5:0 6:69 7:106 8:3 9:0 10:126 11:115 12:0 13:13 14:117 15:83 16:202 17:0 18:56 19:66 20:1 21:0 22:43 23:73 24:4 #
-8.2907803894435521949640493719058e-08 1:2363 2:15 3:3 4:0 5:4825 6:70 7:16 8:0 9:68 10:72 11:6 12:0 13:22 14:33 15:4 16:0 17:10 18:66 19:23 20:0 21:3 22:47 23:9 24:0 #
-1.0512043438406365458703817239439e-13 1:1 2:23 3:2 4:0 5:11855 6:67 7:11 8:0 9:0 10:46 11:7 12:0 13:1 14:84 15:12 16:0 17:0 18:21 19:3 20:0 21:0 22:69 23:9 24:6 #
9.8084983989546160267288291926407e-08 1:768 2:105 3:38 4:0 5:421 6:281 7:38 8:0 9:0 10:166 11:42 12:0 13:91 14:135 15:41 16:0 17:144 18:140 19:36 20:0 21:0 22:128 23:57 24:7 #
-9.8084983989546160267288291926407e-08 1:8 2:32 3:16 4:0 5:5 6:34 7:11 8:0 9:2 10:11 11:5 12:28 13:1 14:20 15:9 16:0 17:3 18:43 19:13 20:0 21:0 22:67 23:10 24:23 #
-9.8084983989546160267288291926407e-08 1:0 2:79 3:40 4:0 5:0 6:264 7:37 8:0 9:2 10:719 11:38 12:0 13:46 14:254 15:40 16:51 17:134 18:111 19:43 20:1 21:1300 22:98 23:40 24:0 #
-1.0847868585014940841685517585033e-09 1:41 2:83 3:42 4:0 5:15 6:65 7:37 8:0 9:0 10:67 11:38 12:0 13:41 14:879 15:38 16:0 17:23338 18:98 19:38 20:0 21:14 22:49 23:35 24:0 #
9.8084983989546160267288291926407e-08 1:22 2:64 3:37 4:0 5:2 6:49 7:32 8:0 9:0 10:61 11:45 12:0 13:94 14:46 15:35 16:0 17:0 18:51 19:30 20:0 21:79 22:1424 23:33 24:156 #
-9.8084983989546160267288291926407e-08 1:0 2:102 3:17 4:51 5:0 6:120 7:16 8:0 9:1 10:62 11:12 12:0 13:2345 14:121 15:543 16:855 17:1250 18:93 19:265 20:2608 21:0 22:74 23:283 24:0 #
9.8084983989546160267288291926407e-08 1:0 2:38 3:10 4:0 5:0 6:49 7:8 8:0 9:0 10:0 11:0 12:0 13:0 14:1307 15:1208 16:0 17:1 18:15 19:1 20:0 21:0 22:71 23:18 24:0 #
-9.8084983989546160267288291926407e-08 1:1 2:43 3:14 4:0 5:0 6:54 7:23 8:1 9:2 10:65 11:27 12:297 13:1 14:55 15:21 16:0 17:3 18:58 19:15 20:0 21:0 22:32 23:21 24:0 #
-4.1674644693675567471483598986498e-08 1:0 2:67 3:0 4:0 5:0 6:95 7:0 8:0 9:0 10:32 11:0 12:0 13:0 14:34 15:0 16:0 17:0 18:7051 19:0 20:0 21:0 22:220 23:0 24:0 #
-2.2070910436448933624298303769577e-10 1:13 2:1485 3:1203 4:3 5:16 6:148 7:38 8:0 9:0 10:66 11:34 12:0 13:0 14:95 15:36 16:0 17:0 18:56 19:37 20:0 21:0 22:54 23:35 24:0 #
9.8084983989546160267288291926407e-08 1:0 2:32 3:7 4:0 5:7063 6:33 7:9 8:0 9:0 10:37 11:7 12:0 13:0 14:18 15:14 16:0 17:0 18:45 19:7 20:3 21:0 22:30 23:9 24:0 #
-9.8084983989546160267288291926407e-08 1:0 2:2 3:0 4:0 5:0 6:139 7:0 8:0 9:0 10:14 11:0 12:0 13:0 14:28 15:0 16:0 17:0 18:48 19:0 20:188 21:0 22:31 23:0 24:0 #
-9.8084983989546160267288291926407e-08 1:0 2:35 3:5 4:0 5:0 6:47 7:13 8:0 9:0 10:38 11:10 12:0 13:0 14:49 15:8 16:0 17:0 18:0 19:0 20:0 21:0 22:1307 23:1208 24:0 #
-9.8084983989546160267288291926407e-08 1:6 2:93 3:21 4:1 5:0 6:40 7:5 8:0 9:0 10:28 11:4 12:0 13:0 14:47 15:19 16:0 17:0 18:51 19:9 20:0 21:0 22:904 23:1206 24:0 #
9.8084983989546160267288291926407e-08 1:0 2:58 3:35 4:0 5:17 6:69 7:37 8:0 9:0 10:79 11:40 12:0 13:0 14:264 15:37 16:0 17:2 18:719 19:38 20:0 21:46 22:254 23:40 24:51 #
-9.8084983989546160267288291926407e-08 1:0 2:54 3:23 4:1 5:2 6:65 7:27 8:297 9:1 10:55 11:21 12:0 13:3 14:58 15:15 16:0 17:0 18:32 19:21 20:0 21:0 22:36 23:15 24:0 #
9.8084983989546160267288291926407e-08 1:0 2:13 3:1 4:674 5:0 6:0 7:2 8:0 9:0 10:0 11:1 12:0 13:0 14:0 15:2 16:0 17:0 18:0 19:2 20:0 21:0 22:53 23:8 24:2 #
9.8084983989546160267288291926407e-08 1:0 2:41 3:15 4:0 5:1 6:35 7:32 8:0 9:2 10:32 11:38 12:0 13:0 14:31 15:10 16:0 17:0 18:65 19:11 20:0 21:0 22:65 23:1 24:0 #
9.8084983989546160267288291926407e-08 1:1270 2:102 3:17 4:0 5:0 6:48 7:5 8:0 9:0 10:70 11:10 12:0 13:0 14:86 15:5 16:0 17:419 18:58 19:6 20:0 21:5 22:152 23:32 24:0 #
9.8084983989546160267288291926407e-08 1:0 2:976 3:36 4:0 5:0 6:700 7:31 8:0 9:0 10:538 11:39 12:0 13:0 14:702 15:30 16:0 17:0 18:432 19:46 20:0 21:0 22:60 23:33 24:0 #
9.8084983989546160267288291926407e-08 1:65 2:83 3:20 4:0 5:0 6:38 7:21 8:0 9:0 10:21 11:10 12:0 13:0 14:30 15:9 16:0 17:0 18:44 19:8 20:0 21:60 22:75 23:30 24:0 #
-9.8084938074728801420381490983047e-08 1:20 2:87 3:25 4:0 5:503 6:106 7:13 8:1 9:8 10:56 11:3 12:0 13:5 14:33 15:1 16:2 17:2 18:41 19:7 20:0 21:0 22:26 23:9 24:0 #
-9.8084983989546160267288291926407e-08 1:0 2:57 3:12 4:0 5:0 6:50 7:17 8:0 9:0 10:26 11:10 12:0 13:1 14:41 15:7 16:0 17:70 18:5 19:9 20:0 21:9 22:901 23:1164 24:2 #
9.8084983989546160267288291926407e-08 1:0 2:1377 3:748 4:0 5:5 6:125 7:31 8:0 9:0 10:58 11:37 12:0 13:75 14:71 15:41 16:0 17:0 18:69 19:59 20:0 21:5 22:59 23:44 24:0 #
9.8084983989546160267288291926407e-08 1:0 2:17 3:0 4:0 5:0 6:15 7:0 8:0 9:0 10:12 11:0 12:0 13:0 14:860 15:0 16:0 17:0 18:1424 19:0 20:0 21:0 22:1550 23:0 24:0 #
9.8084983989546160267288291926407e-08 1:23 2:63 3:61 4:0 5:423 6:52 7:67 8:0 9:2 10:133 11:69 12:0 13:6 14:204 15:104 16:1 17:23 18:160 19:108 20:0 21:4 22:103 23:72 24:0 #
-9.8084983989546160267288291926407e-08 1:0 2:1740 3:1231 4:1 5:2 6:10 7:3 8:2 9:5 10:24 11:20 12:66 13:1 14:24 15:4 16:184 17:0 18:44 19:2 20:55 21:2 22:38 23:8 24:0 #
-9.8084983989546160267288291926407e-08 1:10 2:62 3:11 4:0 5:0 6:57 7:9 8:0 9:1 10:22 11:2 12:0 13:0 14:13 15:8 16:0 17:2 18:33 19:10 20:0 21:194 22:116 23:18 24:191 #
9.8084983989546160267288291926407e-08 1:1 2:20 3:2 4:1 5:0 6:10 7:4 8:0 9:0 10:2 11:2 12:0 13:1 14:9 15:3 16:0 17:12 18:677 19:582 20:0 21:10 22:914 23:780 24:0 #
-9.8084983989546160267288291926407e-08 1:2 2:10 3:3 4:2 5:5 6:24 7:20 8:66 9:1 10:24 11:4 12:184 13:0 14:44 15:2 16:55 17:2 18:38 19:8 20:0 21:0 22:14 23:7 24:0 #
-9.8084983989546160267288291926407e-08 1:5 2:24 3:20 4:66 5:1 6:24 7:4 8:184 9:0 10:44 11:2 12:55 13:2 14:38 15:8 16:0 17:0 18:14 19:7 20:0 21:6 22:4 23:3 24:0 #
-9.8084983989546160267288291926407e-08 1:0 2:38 3:10 4:0 5:0 6:40 7:12 8:156 9:0 10:34 11:6 12:0 13:0 14:32 15:16 16:0 17:0 18:43 19:6 20:0 21:0 22:14 23:5 24:0 #
9.8084983989546160267288291926407e-08 1:0 2:60 3:61 4:0 5:0 6:62 7:62 8:0 9:7 10:99 11:67 12:4 13:6 14:28 15:27 16:0 17:14 18:121 19:14 20:0 21:4 22:2061 23:367 24:11 #
9.8084983989546160267288291926407e-08 1:0 2:10 3:4 4:0 5:0 6:33 7:7 8:1 9:0 10:26 11:5 12:0 13:0 14:21 15:7 16:0 17:0 18:30 19:14 20:0 21:0 22:1740 23:1231 24:1 #
9.8084983989546160267288291926407e-08 1:0 2:166 3:42 4:0 5:91 6:135 7:41 8:0 9:144 10:140 11:36 12:0 13:0 14:128 15:57 16:7 17:148 18:246 19:60 20:18 21:70 22:196 23:54 24:18 #
9.8084983989546160267288291926407e-08 1:91 2:135 3:41 4:0 5:144 6:140 7:36 8:0 9:0 10:128 11:57 12:7 13:148 14:246 15:60 16:18 17:70 18:196 19:54 20:18 21:70 22:208 23:83 24:29 #
-9.8084983989546160267288291926407e-08 1:38 2:58 3:10 4:0 5:0 6:70 7:11 8:0 9:0 10:100 11:17 12:0 13:0 14:36 15:2 16:0 17:0 18:0 19:2 20:0 21:2 22:1487 23:1229 24:1 #
-9.8084983989546160267288291926407e-08 1:68 2:128 3:21 4:0 5:0 6:83 7:8 8:0 9:0 10:85 11:23 12:0 13:0 14:57 15:7 16:0 17:0 18:71 19:9 20:0 21:0 22:1593 23:1255 24:3 #
9.8084983989546160267288291926407e-08 1:0 2:53 3:13 4:0 5:0 6:37 7:16 8:0 9:0 10:36 11:7 12:0 13:0 14:35 15:9 16:0 17:0 18:125 19:134 20:0 21:11 22:1254 23:1037 24:2 #
-9.8084983989546160267288291926407e-08 1:0 2:23 3:7 4:0 5:0 6:38 7:10 8:0 9:0 10:40 11:12 12:156 13:0 14:34 15:6 16:0 17:0 18:32 19:16 20:0 21:0 22:43 23:6 24:0 #
-9.8084983989546160267288291926407e-08 1:0 2:139 3:0 4:0 5:0 6:14 7:0 8:0 9:0 10:28 11:0 12:0 13:0 14:48 15:0 16:188 17:0 18:31 19:0 20:0 21:0 22:29 23:0 24:0 #
-9.8084983989546160267288291926407e-08 1:0 2:61 3:11 4:0 5:1 6:43 7:14 8:0 9:0 10:54 11:23 12:1 13:2 14:65 15:27 16:297 17:1 18:55 19:21 20:0 21:3 22:58 23:15 24:0 #
-9.8084983989546160267288291926407e-08 1:0 2:58 3:11 4:0 5:0 6:44 7:11 8:0 9:21 10:56 11:15 12:0 13:88 14:46 15:7 16:368 17:3 18:34 19:11 20:23 21:0 22:41 23:17 24:0 #
9.8084983989546160267288291926407e-08 1:0 2:0 3:3 4:0 5:0 6:0 7:0 8:0 9:22 10:105 11:3 12:1 13:19 14:331 15:146 16:8 17:15 18:22 19:11 20:1287 21:5 22:38 23:41 24:1402 #
9.8084983989546160267288291926407e-08 1:0 2:48 3:5 4:0 5:0 6:70 7:10 8:0 9:0 10:86 11:5 12:0 13:419 14:58 15:6 16:0 17:5 18:152 19:32 20:0 21:99 22:127 23:19 24:204 #
-9.8084983989546160267288291926407e-08 1:5 2:152 3:32 4:0 5:99 6:127 7:19 8:204 9:0 10:121 11:13 12:34 13:0 14:129 15:18 16:0 17:0 18:135 19:22 20:99 21:0 22:102 23:17 24:51 #
9.8084983989546160267288291926407e-08 1:0 2:86 3:5 4:0 5:419 6:58 7:6 8:0 9:5 10:152 11:32 12:0 13:99 14:127 15:19 16:204 17:0 18:121 19:13 20:34 21:0 22:129 23:18 24:0 #
9.8084983989546160267288291926407e-08 1:30 2:82 3:21 4:0 5:354 6:52 7:8 8:0 9:272 10:95 11:26 12:0 13:24 14:52 15:17 16:0 17:79 18:93 19:11 20:0 21:67 22:61 23:9 24:0 #
9.8084983989546160267288291926407e-08 1:421 2:281 3:38 4:0 5:0 6:166 7:42 8:0 9:91 10:135 11:41 12:0 13:144 14:140 15:36 16:0 17:0 18:128 19:57 20:7 21:148 22:246 23:60 24:18 #
-9.8084983989546160267288291926407e-08 1:3 2:34 3:11 4:23 5:0 6:41 7:17 8:0 9:23 10:20 11:19 12:0 13:88 14:23 15:7 16:394 17:2 18:53 19:17 20:103 21:20 22:37 23:18 24:0 #
9.8084983989546160267288291926407e-08 1:836 2:42 3:10 4:0 5:6 6:35 7:17 8:0 9:834 10:28 11:9 12:0 13:0 14:41 15:4 16:0 17:0 18:53 19:14 20:0 21:0 22:54 23:10 24:0 #
9.8084983989546160267288291926407e-08 1:0 2:34 3:13 4:0 5:0 6:90 7:39 8:0 9:0 10:19 11:4 12:0 13:43 14:3 15:8 16:0 17:0 18:1 19:107 20:0 21:22 22:0 23:38 24:452 #
9.8084983989546160267288291926407e-08 1:0 2:19 3:4 4:0 5:43 6:3 7:8 8:0 9:0 10:1 11:107 12:0 13:22 14:0 15:38 16:452 17:59 18:0 19:2 20:3 21:22 22:584 23:606 24:588 #
-9.8084983989546160267288291926407e-08 1:0 2:67 3:36 4:0 5:0 6:23 7:7 8:0 9:0 10:38 11:10 12:0 13:0 14:40 15:12 16:156 17:0 18:34 19:6 20:0 21:0 22:32 23:16 24:0 #
-9.8084983989546160267288291926407e-08 1:0 2:13 3:0 4:0 5:0 6:10 7:0 8:0 9:0 10:17 11:0 12:0 13:0 14:0 15:0 16:0 17:0 18:0 19:0 20:0 21:0 22:281 23:0 24:0 #
-9.8084983989546160267288291926407e-08 1:2 2:33 3:10 4:0 5:194 6:116 7:18 8:191 9:3 10:61 11:6 12:0 13:3 14:59 15:4 16:0 17:1 18:64 19:2 20:3 21:4 22:37 23:7 24:0 #
9.8084983989546160267288291926407e-08 1:0 2:29 3:3 4:0 5:0 6:38 7:13 8:0 9:0 10:29 11:3 12:0 13:8 14:26 15:2 16:29 17:629 18:32 19:10 20:0 21:94 22:42 23:13 24:0 #
9.8084983989546160267288291926407e-08 1:27 2:51 3:10 4:0 5:3 6:42 7:6 8:0 9:1 10:16 11:5 12:0 13:1 14:28 15:4 16:0 17:0 18:34 19:3 20:0 21:0 22:941 23:878 24:6 #
9.8084983989546160267288291926407e-08 1:289 2:91 3:32 4:0 5:22 6:64 7:37 8:0 9:2 10:49 11:32 12:0 13:0 14:61 15:45 16:0 17:94 18:46 19:35 20:0 21:0 22:51 23:30 24:0 #
9.8084983989546160267288291926407e-08 1:1 2:494 3:37 4:0 5:0 6:58 7:35 8:0 9:17 10:69 11:37 12:0 13:0 14:79 15:40 16:0 17:0 18:264 19:37 20:0 21:2 22:719 23:38 24:0 #
-9.8084983989546160267288291926407e-08 1:6 2:12 3:6 4:0 5:4 6:37 7:13 8:0 9:11 10:69 11:32 12:2 13:3 14:30 15:49 16:2 17:10 18:57 19:84 20:0 21:0 22:976 23:1198 24:5 #
-9.8084983989546160267288291926407e-08 1:0 2:46 3:67 4:0 5:4 6:69 7:68 8:0 9:0 10:62 11:66 12:0 13:0 14:65 15:71 16:0 17:0 18:38 19:66 20:0 21:15 22:1020 23:1186 24:4 #
-7.6295688335789579198766398662745e-08 1:0 2:132 3:23 4:0 5:269 6:57 7:6 8:0 9:59 10:97 11:14 12:0 13:10 14:22 15:3 16:0 17:17 18:25 19:12 20:0 21:11 22:32 23:16 24:0 #
9.8084983989546160267288291926407e-08 1:31 2:27 3:2 4:0 5:2 6:41 7:10 8:0 9:87 10:95 11:10 12:0 13:20 14:87 15:25 16:0 17:503 18:106 19:13 20:1 21:8 22:56 23:3 24:0 #
9.8084983989546160267288291926407e-08 1:2 2:92 3:34 4:0 5:2 6:67 7:41 8:0 9:2 10:57 11:33 12:0 13:0 14:51 15:35 16:0 17:0 18:48 19:38 20:1 21:47 22:1084 23:1053 24:0 #
-9.8084983989546160267288291926407e-08 1:0 2:41 3:0 4:0 5:0 6:57 7:0 8:0 9:0 10:0 11:0 12:0 13:0 14:0 15:0 16:0 17:2 18:0 19:0 20:0 21:1 22:555 23:16 24:0 #
-9.8084983989546160267288291926407e-08 1:0 2:7 3:0 4:0 5:0 6:0 7:0 8:0 9:0 10:0 11:0 12:0 13:0 14:25 15:0 16:0 17:0 18:12 19:0 20:0 21:0 22:466 23:0 24:0 #
-9.8084983989546160267288291926407e-08 1:0 2:0 3:0 4:0 5:0 6:0 7:0 8:0 9:0 10:0 11:0 12:0 13:0 14:19 15:2 16:0 17:0 18:118 19:8 20:0 21:1 22:652 23:48 24:0 #
-9.8084983989546160267288291926407e-08 1:0 2:11 3:6 4:0 5:1 6:20 7:2 8:1 9:0 10:10 11:4 12:0 13:0 14:2 15:2 16:0 17:1 18:9 19:3 20:0 21:12 22:677 23:582 24:0 #
9.8084983989546160267288291926407e-08 1:144 2:140 3:36 4:0 5:0 6:128 7:57 8:7 9:148 10:246 11:60 12:18 13:70 14:196 15:54 16:18 17:70 18:208 19:83 20:29 21:129 22:178 23:77 24:31 #
-9.8084983989546160267288291926407e-08 1:0 2:21 3:7 4:0 5:0 6:109 7:18 8:0 9:0 10:55 11:7 12:0 13:0 14:11 15:3 16:0 17:0 18:35 19:9 20:0 21:0 22:1411 23:1222 24:0 #
9.8084983989546160267288291926407e-08 1:0 2:110 3:35 4:0 5:0 6:837 7:42 8:0 9:35 10:623 11:36 12:0 13:0 14:328 15:45 16:0 17:29 18:93 19:40 20:0 21:0 22:102 23:47 24:0 #
9.8084983989546160267288291926407e-08 1:348 2:95 3:13 4:0 5:0 6:114 7:18 8:0 9:0 10:126 11:21 12:0 13:0 14:85 15:18 16:0 17:0 18:75 19:15 20:0 21:0 22:52 23:10 24:0 #
-9.0434000584700015291217791227329e-08 1:0 2:11 3:3 4:0 5:145 6:47 7:10 8:0 9:2 10:24 11:11 12:0 13:0 14:19 15:5 16:0 17:0 18:30 19:4 20:0 21:58 22:26 23:10 24:0 #
-9.7240148073780034009767664522628e-08 1:0 2:38 3:31 4:0 5:0 6:61 7:39 8:0 9:2 10:57 11:36 12:0 13:0 14:90 15:50 16:0 17:7 18:70 19:39 20:0 21:0 22:149 23:558 24:0 #
-9.8084983989546160267288291926407e-08 1:0 2:55 3:11 4:0 5:0 6:56 7:8 8:0 9:0 10:36 11:11 12:0 13:0 14:26 15:3 16:0 17:0 18:25 19:8 20:0 21:0 22:682 23:594 24:1 #
9.8084983989546160267288291926407e-08 1:0 2:18 3:11 4:0 5:0 6:31 7:5 8:0 9:0 10:41 11:31 12:0 13:0 14:49 15:80 16:0 17:0 18:62 19:49 20:0 21:330 22:328 23:33 24:2 #
9.8084983989546160267288291926407e-08 1:56 2:44 3:44 4:0 5:0 6:8 7:34 8:0 9:221 10:62 11:45 12:0 13:60 14:32 15:51 16:0 17:0 18:37 19:48 20:1 21:17 22:78 23:76 24:0 #
9.8084983989546160267288291926407e-08 1:0 2:50 3:64 4:0 5:0 6:53 7:65 8:0 9:0 10:44 11:66 12:53 13:0 14:57 15:75 16:0 17:11 18:94 19:91 20:2 21:97 22:258 23:139 24:0 #
9.8084983989546160267288291926407e-08 1:104 2:34 3:65 4:0 5:0 6:31 7:61 8:0 9:0 10:29 11:60 12:0 13:13 14:98 15:103 16:14 17:3 18:538 19:147 20:2 21:10 22:243 23:106 24:0 #
-9.8084983989546160267288291926407e-08 1:0 2:31 3:2 4:0 5:145 6:53 7:5 8:0 9:6 10:35 11:7 12:0 13:0 14:26 15:11 16:0 17:0 18:17 19:7 20:0 21:0 22:36 23:1 24:0 #
9.8084983989546160267288291926407e-08 1:0 2:60 3:60 4:0 5:0 6:60 7:61 8:0 9:0 10:62 11:62 12:0 13:7 14:99 15:67 16:4 17:6 18:28 19:27 20:0 21:14 22:121 23:14 24:0 #
-9.8084983989546160267288291926407e-08 1:1 2:35 3:32 4:0 5:2 6:32 7:38 8:0 9:0 10:31 11:10 12:0 13:0 14:65 15:11 16:0 17:0 18:65 19:1 20:0 21:0 22:1288 23:1055 24:1 #
-9.8084983989546160267288291926407e-08 1:0 2:36 3:1 4:0 5:96 6:14 7:4 8:0 9:3 10:19 11:3 12:0 13:0 14:36 15:23 16:0 17:0 18:40 19:7 20:0 21:0 22:87 23:13 24:0 #
-9.1540800760389180815981488570365e-09 1:0 2:54 3:17 4:0 5:0 6:31 7:5 8:0 9:0 10:90 11:24 12:0 13:0 14:55 15:2 16:0 17:0 18:17 19:5 20:0 21:1 22:1508 23:5 24:0 #
9.8084983989546160267288291926407e-08 1:0 2:99 3:64 4:0 5:0 6:91 7:59 8:0 9:0 10:144 11:64 12:0 13:0 14:119 15:72 16:0 17:0 18:83 19:62 20:0 21:0 22:90 23:65 24:0 #
9.8084983989546160267288291926407e-08 1:13 2:79 3:70 4:0 5:3 6:49 7:70 8:0 9:104 10:34 11:65 12:0 13:0 14:31 15:61 16:0 17:0 18:29 19:60 20:0 21:13 22:98 23:103 24:14 #
-9.8084983989546160267288291926407e-08 1:6 2:1379 3:2144 4:2 5:0 6:0 7:0 8:0 9:0 10:11 11:0 12:0 13:2 14:36 15:19 16:0 17:0 18:13 19:1 20:674 21:0 22:0 23:2 24:0 #
9.8084983989546160267288291926407e-08 1:1 2:59 3:68 4:0 5:13 6:79 7:70 8:0 9:3 10:49 11:70 12:0 13:104 14:34 15:65 16:0 17:0 18:31 19:61 20:0 21:0 22:29 23:60 24:0 #
9.8084983989546160267288291926407e-08 1:109 2:71 3:51 4:0 5:2 6:50 7:33 8:0 9:0 10:94 11:41 12:0 13:0 14:75 15:34 16:0 17:33 18:26 19:35 20:0 21:16 22:52 23:40 24:0 #
9.8084983989546160267288291926407e-08 1:0 2:45 3:52 4:0 5:0 6:33 7:53 8:0 9:0 10:49 11:68 12:0 13:0 14:47 15:63 16:0 17:0 18:50 19:64 20:0 21:0 22:53 23:65 24:0 #
-9.8084983989546160267288291926407e-08 1:17 2:91 3:19 4:0 5:170 6:112 7:18 8:2 9:0 10:37 11:8 12:0 13:1 14:51 15:17 16:2 17:3 18:50 19:15 20:0 21:0 22:78 23:16 24:0 #
-1.7310552075568902763325632382721e-08 1:7058 2:39 3:12 4:0 5:1 6:28 7:9 8:0 9:0 10:23 11:0 12:0 13:0 14:35 15:10 16:0 17:2 18:57 19:18 20:0 21:7050 22:50 23:9 24:0 #
9.8084983989546160267288291926407e-08 1:35 2:623 3:36 4:0 5:0 6:328 7:45 8:0 9:29 10:93 11:40 12:0 13:0 14:102 15:47 16:0 17:5 18:123 19:47 20:189 21:13 22:149 23:38 24:0 #
9.8084983989546160267288291926407e-08 1:1 2:13 3:2 4:0 5:111 6:23 7:4 8:0 9:0 10:28 11:5 12:0 13:72 14:10 15:3 16:0 17:25 18:34 19:12 20:0 21:115 22:41 23:14 24:0 #
9.8084983989546160267288291926407e-08 1:1 2:60 3:73 4:0 5:0 6:46 7:67 8:0 9:4 10:69 11:68 12:0 13:0 14:62 15:66 16:0 17:0 18:65 19:71 20:0 21:0 22:38 23:66 24:0 #
-9.7970877094924125088858395289659e-08 1:3 2:104 3:20 4:0 5:206 6:102 7:5 8:1 9:2 10:95 11:8 12:0 13:1 14:78 15:13 16:0 17:1 18:62 19:9 20:0 21:0 22:94 23:4 24:0 #
-9.8084983989546160267288291926407e-08 1:17 2:69 3:37 4:0 5:0 6:79 7:40 8:0 9:0 10:264 11:37 12:0 13:2 14:719 15:38 16:0 17:46 18:254 19:40 20:51 21:134 22:111 23:43 24:1 #
-9.8084983989546160267288291926407e-08 1:1 2:79 3:27 4:0 5:189 6:91 7:24 8:0 9:7 10:88 11:16 12:0 13:20 14:20 15:3 16:0 17:3 18:30 19:9 20:0 21:138 22:58 23:29 24:0 #
-9.8084968112533155351455155940288e-08 1:1 2:51 3:5 4:0 5:227 6:64 7:14 8:0 9:37 10:36 11:3 12:0 13:8 14:36 15:25 16:0 17:60 18:35 19:1 20:2 21:25 22:97 23:14 24:0 #
9.8084983989546160267288291926407e-08 1:0 2:83 3:11 4:0 5:33 6:20 7:2 8:0 9:101 10:74 11:34 12:0 13:8 14:121 15:27 16:0 17:55 18:103 19:31 20:0 21:2 22:54 23:8 24:0 #
9.8084983989546160267288291926407e-08 1:0 2:60 3:62 4:0 5:0 6:60 7:63 8:0 9:0 10:62 11:66 12:0 13:0 14:60 15:60 16:0 17:0 18:60 19:61 20:0 21:0 22:62 23:62 24:0 #
9.8084983989546160267288291926407e-08 1:2 2:7 3:7 4:0 5:0 6:13 7:3 8:0 9:6 10:27 11:27 12:0 13:2 14:15 15:4 16:1 17:1 18:5 19:4 20:0 21:0 22:11 23:6 24:0 #
-9.8084983989546160267288291926407e-08 1:0 2:31 3:61 4:0 5:0 6:29 7:60 8:0 9:13 10:98 11:103 12:14 13:3 14:538 15:147 16:2 17:10 18:243 19:106 20:0 21:1 22:1213 23:1183 24:2 #
9.8084983989546160267288291926407e-08 1:138 2:58 3:29 4:0 5:54 6:66 7:14 8:0 9:9 10:20 11:3 12:0 13:3 14:17 15:8 16:0 17:6 18:12 19:6 20:0 21:4 22:37 23:13 24:0 #
9.8084983989546160267288291926407e-08 1:0 2:48 3:15 4:0 5:0 6:33 7:4 8:2 9:25 10:77 11:10 12:0 13:0 14:44 15:10 16:0 17:0 18:86 19:12 20:0 21:21 22:204 23:25 24:4 #
-7.0378506168147851292452021887414e-08 1:0 2:837 3:42 4:0 5:35 6:623 7:36 8:0 9:0 10:328 11:45 12:0 13:29 14:93 15:40 16:0 17:0 18:102 19:47 20:0 21:5 22:123 23:47 24:189 #
-9.806633684185582963418559374752e-08 1:6 2:44 3:8 4:0 5:242 6:78 7:23 8:0 9:5 10:20 11:7 12:0 13:6 14:28 15:9 16:0 17:32 18:40 19:6 20:1 21:196 22:48 23:12 24:0 #
-9.8084983989546160267288291926407e-08 1:1 2:17 3:14 4:0 5:12 6:34 7:3 8:56 9:0 10:45 11:33 12:0 13:14 14:62 15:37 16:1 17:23 18:62 19:31 20:1 21:2 22:48 23:36 24:0 #
-9.8084983989546160267288291926407e-08 1:0 2:0 3:3 4:0 5:418 6:388 7:10 8:5 9:48 10:93 11:2 12:1 13:0 14:43 15:11 16:0 17:0 18:69 19:2 20:0 21:79 22:215 23:19 24:0 #
9.8084983989546160267288291926407e-08 1:0 2:91 3:9 4:0 5:0 6:104 7:7 8:0 9:0 10:149 11:29 12:0 13:0 14:213 15:36 16:0 17:0 18:180 19:52 20:0 21:18 22:117 23:34 24:0 #
9.8084983989546160267288291926407e-08 1:0 2:69 3:106 4:3 5:0 6:126 7:115 8:0 9:13 10:117 11:83 12:202 13:0 14:56 15:66 16:1 17:0 18:43 19:73 20:4 21:21 22:88 23:71 24:2 #
-9.8084983989546160267288291926407e-08 1:0 2:103 3:38 4:0 5:0 6:147 7:44 8:0 9:1 10:139 11:47 12:0 13:0 14:70 15:42 16:0 17:10 18:12 19:12 20:1 21:5 22:1699 23:1184 24:122 #
9.8084983989546160267288291926407e-08 1:107 2:23 3:7 4:0 5:68 6:128 7:21 8:0 9:0 10:83 11:8 12:0 13:0 14:85 15:23 16:0 17:0 18:57 19:7 20:0 21:0 22:71 23:9 24:0 #
-9.8084983788542634610552054322263e-08 1:0 2:57 3:0 4:0 5:0 6:0 7:0 8:0 9:0 10:0 11:0 12:0 13:2 14:0 15:0 16:0 17:1 18:555 19:16 20:0 21:0 22:1960 23:14 24:0 #
-9.8084983989546160267288291926407e-08 1:0 2:67 3:0 4:0 5:0 6:99 7:0 8:0 9:0 10:555 11:0 12:0 13:0 14:70 15:0 16:0 17:0 18:490 19:0 20:0 21:0 22:2907 23:0 24:0 #
9.8084983989546160267288291926407e-08 1:21 2:56 3:15 4:0 5:88 6:46 7:7 8:368 9:3 10:34 11:11 12:23 13:0 14:41 15:17 16:0 17:23 18:20 19:19 20:0 21:88 22:23 23:7 24:394 #
9.8084983989546160267288291926407e-08 1:0 2:11 3:5 4:0 5:51 6:107 7:28 8:0 9:0 10:58 11:11 12:0 13:0 14:44 15:11 16:0 17:21 18:56 19:15 20:0 21:88 22:46 23:7 24:368 #
9.8084983989546160267288291926407e-08 1:0 2:49 3:68 4:0 5:0 6:47 7:63 8:0 9:0 10:50 11:64 12:0 13:0 14:53 15:65 16:0 17:0 18:44 19:66 20:53 21:0 22:57 23:75 24:0 #
-9.8084983989546160267288291926407e-08 1:0 2:58 3:0 4:3 5:0 6:15 7:0 8:0 9:0 10:17 11:0 12:0 13:0 14:15 15:0 16:0 17:0 18:12 19:0 20:0 21:0 22:860 23:0 24:0 #
-9.8084983989546160267288291926407e-08 1:816 2:84 3:13 4:0 5:7 6:164 7:15 8:110 9:9 10:85 11:35 12:10 13:62 14:56 15:21 16:3 17:0 18:88 19:10 20:1 21:0 22:113 23:9 24:0 #
-9.8084983989546160267288291926407e-08 1:0 2:38 3:0 4:0 5:0 6:9 7:0 8:0 9:0 10:28 11:0 12:0 13:0 14:234 15:0 16:0 17:0 18:140 19:0 20:0 21:0 22:1604 23:0 24:0 #
9.8084983989546160267288291926407e-08 1:121 2:124 3:40 4:0 5:103 6:369 7:45 8:0 9:5 10:174 11:36 12:0 13:92 14:132 15:36 16:0 17:27 18:444 19:43 20:0 21:0 22:204 23:36 24:0 #
9.8084983989546160267288291926407e-08 1:0 2:49 3:10 4:0 5:0 6:53 7:13 8:0 9:0 10:37 11:16 12:0 13:0 14:36 15:7 16:0 17:0 18:35 19:9 20:0 21:0 22:125 23:134 24:0 #
-2.4065428485309722342131222359678e-10 1:37 2:36 3:3 4:0 5:8 6:36 7:25 8:0 9:60 10:35 11:1 12:2 13:25 14:97 15:14 16:0 17:2641 18:36 19:16 20:0 21:4448 22:52 23:11 24:0 #
-9.8084983989546160267288291926407e-08 1:1 2:39 3:17 4:0 5:372 6:21 7:6 8:0 9:0 10:43 11:4 12:0 13:2 14:75 15:12 16:0 17:2 18:72 19:20 20:0 21:0 22:78 23:19 24:0 #
-9.8084983989546160267288291926407e-08 1:3 2:30 3:31 4:0 5:407 6:38 7:2 8:0 9:249 10:70 11:16 12:0 13:0 14:19 15:0 16:0 17:1 18:25 19:7 20:0 21:2 22:48 23:21 24:0 #
9.8084983989546160267288291926407e-08 1:0 2:76 3:13 4:0 5:6 6:22 7:6 8:0 9:4 10:90 11:18 12:0 13:28 14:70 15:10 16:0 17:165 18:74 19:16 20:0 21:17 22:91 23:19 24:0 #
9.8084983989546160267288291926407e-08 1:0 2:26 3:0 4:0 5:0 6:117 7:0 8:0 9:0 10:321 11:0 12:0 13:0 14:154 15:0 16:0 17:0 18:186 19:1 20:0 21:0 22:139 23:0 24:0 #
9.8084983989546160267288291926407e-08 1:4 2:90 3:18 4:0 5:28 6:70 7:10 8:0 9:165 10:74 11:16 12:0 13:17 14:91 15:19 16:0 17:170 18:112 19:18 20:2 21:0 22:37 23:8 24:0 #
9.8084983989546160267288291926407e-08 1:18 2:117 3:34 4:0 5:3 6:93 7:31 8:2 9:2 10:127 11:43 12:0 13:10 14:84 15:36 16:0 17:3 18:109 19:32 20:0 21:0 22:106 23:41 24:0 #
9.8084983989546160267288291926407e-08 1:3 2:17 3:8 4:0 5:6 6:12 7:6 8:0 9:4 10:37 11:13 12:0 13:11 14:69 15:32 16:2 17:3 18:30 19:49 20:2 21:10 22:57 23:84 24:0 #
-9.8084983989546160267288291926407e-08 1:1 2:21 3:4 4:0 5:1 6:17 7:14 8:0 9:12 10:34 11:3 12:56 13:0 14:45 15:33 16:0 17:14 18:62 19:37 20:1 21:23 22:62 23:31 24:1 #
9.8084983989546160267288291926407e-08 1:0 2:44 3:8 4:0 5:60 6:75 7:30 8:0 9:0 10:50 11:9 12:1 13:0 14:61 15:14 16:0 17:1 18:44 19:24 20:0 21:1 22:50 23:13 24:0 #
-9.8084983989546160267288291926407e-08 1:1 2:52 3:12 4:0 5:7042 6:64 7:7 8:10 9:0 10:41 11:13 12:0 13:0 14:24 15:16 16:0 17:0 18:41 19:7 20:0 21:0 22:18 23:0 24:0 #
9.8084983989546160267288291926407e-08 1:9 2:32 3:6 4:0 5:1 6:25 7:6 8:0 9:6 10:44 11:8 12:0 13:242 14:78 15:23 16:0 17:5 18:20 19:7 20:0 21:6 22:28 23:9 24:0 #
-9.8084983989546160267288291926407e-08 1:0 2:84 3:0 4:3 5:0 6:80 7:0 8:6 9:0 10:97 11:0 12:3 13:0 14:61 15:0 16:4 17:0 18:42 19:0 20:3 21:0 22:49 23:0 24:0 #
-6.4598810503595293313174388605269e-08 1:0 2:44 3:34 4:0 5:41 6:83 7:42 8:0 9:15 10:65 11:37 12:0 13:0 14:67 15:38 16:0 17:41 18:879 19:38 20:0 21:23338 22:98 23:38 24:0 #
9.8084983989546160267288291926407e-08 1:6 2:61 3:13 4:0 5:12 6:39 7:14 8:0 9:31 10:27 11:2 12:0 13:2 14:41 15:10 16:0 17:87 18:95 19:10 20:0 21:20 22:87 23:25 24:0 #
9.8084983989546160267288291926407e-08 1:0 2:43 3:11 4:0 5:0 6:69 7:2 8:0 9:79 10:215 11:19 12:0 13:44 14:68 15:10 16:0 17:3 18:77 19:15 20:0 21:0 22:68 23:10 24:0 #
-9.8084983989546160267288291926407e-08 1:8 2:23 3:13 4:0 5:836 6:42 7:10 8:0 9:6 10:35 11:17 12:0 13:834 14:28 15:9 16:0 17:0 18:41 19:4 20:0 21:0 22:53 23:14 24:0 #
9.8084983989546160267288291926407e-08 1:419 2:58 3:6 4:0 5:5 6:152 7:32 8:0 9:99 10:127 11:19 12:204 13:0 14:121 15:13 16:34 17:0 18:129 19:18 20:0 21:0 22:135 23:22 24:99 #
9.8084983989546160267288291926407e-08 1:17 2:53 3:21 4:0 5:2 6:54 7:10 8:0 9:1 10:51 11:5 12:0 13:227 14:64 15:14 16:0 17:37 18:36 19:3 20:0 21:8 22:36 23:25 24:0 #
-9.8084983989546160267288291926407e-08 1:0 2:29 3:3 4:0 5:8 6:26 7:2 8:29 9:629 10:32 11:10 12:0 13:94 14:42 15:13 16:0 17:213 18:55 19:21 20:1 21:0 22:37 23:10 24:0 #
9.8084983989546160267288291926407e-08 1:1 2:22 3:2 4:0 5:0 6:13 7:8 8:0 9:2 10:33 11:10 12:0 13:194 14:116 15:18 16:191 17:3 18:61 19:6 20:0 21:3 22:59 23:4 24:0 #
-9.8084983989546160267288291926407e-08 1:3 2:59 3:4 4:0 5:1 6:64 7:2 8:3 9:4 10:37 11:7 12:0 13:5 14:22 15:7 16:0 17:0 18:40 19:4 20:0 21:12209 22:41 23:12 24:0 #
-3.2958287869771969422115123980993e-11 1:0 2:79 3:0 4:0 5:0 6:76 7:0 8:0 9:0 10:7110 11:0 12:0 13:0 14:41 15:0 16:0 17:0 18:4 19:0 20:0 21:0 22:6 23:0 24:0 #
-9.8084983989546160267288291926407e-08 1:0 2:38 3:13 4:0 5:0 6:29 7:3 8:0 9:8 10:26 11:2 12:29 13:629 14:32 15:10 16:0 17:94 18:42 19:13 20:0 21:213 22:55 23:21 24:1 #
-5.4603798058402801523375513781389e-08 1:0 2:63 3:34 4:0 5:106 6:112 7:27 8:0 9:23598 10:66 11:7 12:0 13:1 14:122 15:12 16:2 17:67 18:124 19:16 20:2 21:0 22:38 23:6 24:0 #
-9.8084983989546160267288291926407e-08 1:0 2:0 3:0 4:0 5:0 6:12 7:0 8:0 9:0 10:42 11:0 12:0 13:0 14:27 15:0 16:0 17:0 18:84 19:0 20:0 21:0 22:4283 23:0 24:0 #
9.8084983989546160267288291926407e-08 1:1 2:19 3:7 4:0 5:0 6:48 7:15 8:0 9:0 10:33 11:4 12:2 13:25 14:77 15:10 16:0 17:0 18:44 19:10 20:0 21:0 22:86 23:12 24:0 #
9.8084983989546160267288291926407e-08 1:3 2:32 3:6 4:0 5:0 6:11 7:5 8:0 9:51 10:107 11:28 12:0 13:0 14:58 15:11 16:0 17:0 18:44 19:11 20:0 21:21 22:56 23:15 24:0 #
9.8084983989546160267288291926407e-08 1:12 2:67 3:8 4:0 5:0 6:65 7:6 8:0 9:0 10:40 11:10 12:0 13:1 14:65 15:10 16:0 17:33 18:100 19:15 20:1 21:0 22:80 23:19 24:0 #
-9.8084983989546160267288291926407e-08 1:0 2:12 3:0 4:0 5:0 6:42 7:0 8:0 9:0 10:27 11:0 12:0 13:0 14:84 15:0 16:0 17:0 18:4283 19:0 20:0 21:0 22:279 23:0 24:0 #
-9.8084983989546160267288291926407e-08 1:0 2:25 3:0 4:0 5:0 6:12 7:0 8:0 9:0 10:466 11:0 12:0 13:0 14:0 15:0 16:0 17:0 18:0 19:0 20:0 21:0 22:0 23:0 24:0 #
9.8084983989546160267288291926407e-08 1:5 2:14 3:5 4:0 5:0 6:16 7:5 8:0 9:0 10:12 11:4 12:0 13:2 14:7 15:7 16:0 17:0 18:13 19:3 20:0 21:6 22:27 23:27 24:0 #
9.8084983989546160267288291926407e-08 1:17 2:89 3:36 4:0 5:23 6:70 7:37 8:0 9:169 10:108 11:43 12:0 13:2 14:180 15:36 16:0 17:0 18:637 19:37 20:0 21:0 22:45 23:30 24:0 #
-9.8084983989546160267288291926407e-08 1:148 2:246 3:60 4:18 5:70 6:196 7:54 8:18 9:70 10:208 11:83 12:29 13:129 14:178 15:77 16:31 17:3 18:215 19:82 20:29 21:65 22:135 23:35 24:0 #
-9.8084983989546160267288291926407e-08 1:1 2:41 3:2 4:0 5:0 6:42 7:27 8:0 9:0 10:67 11:36 12:0 13:0 14:23 15:7 16:0 17:0 18:38 19:10 20:0 21:0 22:40 23:12 24:156 #
-9.8084983989546160267288291926407e-08 1:0 2:14 3:4 4:0 5:300 6:14 7:5 8:12 9:66 10:7 11:4 12:0 13:79 14:63 15:14 16:20 17:7024 18:75 19:15 20:0 21:108 22:48 23:9 24:0 #
-9.8084983989546160267288291926407e-08 1:126 2:38 3:9 4:0 5:0 6:14 7:4 8:0 9:300 10:14 11:5 12:12 13:66 14:7 15:4 16:0 17:79 18:63 19:14 20:20 21:7024 22:75 23:15 24:0 #
-9.8084983989546160267288291926407e-08 1:24 2:8 3:2 4:0 5:23 6:22 7:3 8:0 9:19 10:11 11:7 12:0 13:94 14:54 15:16 16:0 17:81 18:54 19:19 20:0 21:0 22:75 23:19 24:0 #
-9.8084983989546160267288291926407e-08 1:23598 2:66 3:7 4:0 5:1 6:122 7:12 8:2 9:67 10:124 11:16 12:2 13:0 14:38 15:6 16:0 17:0 18:13 19:8 20:0 21:0 22:22 23:6 24:0 #
9.8084983989546160267288291926407e-08 1:0 2:121 3:13 4:34 5:0 6:129 7:18 8:0 9:0 10:135 11:22 12:99 13:0 14:102 15:17 16:51 17:0 18:120 19:16 20:0 21:1 22:62 23:12 24:0 #
-9.8084983989546160267288291926407e-08 1:4 2:257 3:29 4:0 5:0 6:29 7:3 8:0 9:0 10:38 11:13 12:0 13:0 14:29 15:3 16:0 17:8 18:26 19:2 20:29 21:629 22:32 23:10 24:0 #
9.8084983989546160267288291926407e-08 1:0 2:65 3:37 4:0 5:0 6:92 7:40 8:0 9:0 10:65 11:35 12:0 13:0 14:55 15:33 16:0 17:0 18:44 19:34 20:0 21:0 22:62 23:37 24:0 #
-9.8084983989546160267288291926407e-08 1:22 2:0 3:38 4:452 5:59 6:0 7:2 8:3 9:22 10:584 11:606 12:588 13:464 14:522 15:363 16:24 17:529 18:74 19:23 20:0 21:990 22:29 23:2 24:0 #
9.8084983989546160267288291926407e-08 1:0 2:139 3:0 4:0 5:0 6:300 7:0 8:1 9:0 10:103 11:0 12:0 13:0 14:107 15:0 16:0 17:0 18:78 19:0 20:0 21:0 22:84 23:0 24:0 #
-9.8084983989546160267288291926407e-08 1:0 2:27 3:0 4:0 5:0 6:0 7:0 8:0 9:0 10:0 11:0 12:0 13:0 14:0 15:0 16:0 17:0 18:0 19:0 20:0 21:0 22:32 23:0 24:0 #
-9.8084983989546160267288291926407e-08 1:0 2:101 3:0 4:0 5:0 6:125 7:0 8:4 9:0 10:91 11:0 12:2 13:0 14:7110 15:0 16:0 17:0 18:119 19:0 20:7 21:0 22:66 23:0 24:0 #
-9.8084983989546160267288291926407e-08 1:45 2:94 3:42 4:0 5:1 6:90 7:44 8:0 9:8 10:83 11:36 12:0 13:0 14:100 15:37 16:0 17:0 18:6963 19:52 20:19 21:0 22:74 23:33 24:0 #
-9.8033233501284805134373158408412e-08 1:0 2:0 3:0 4:0 5:0 6:0 7:0 8:0 9:2 10:0 11:0 12:0 13:1 14:555 15:16 16:0 17:0 18:1960 19:14 20:0 21:0 22:68 23:25 24:0 #
9.8084983989546160267288291926407e-08 1:0 2:55 3:33 4:0 5:1 6:55 7:31 8:0 9:2 10:92 11:34 12:0 13:2 14:67 15:41 16:0 17:2 18:57 19:33 20:0 21:0 22:51 23:35 24:0 #
-9.8084983989546160267288291926407e-08 1:0 2:28 3:0 4:0 5:0 6:10 7:0 8:0 9:0 10:0 11:0 12:0 13:0 14:0 15:0 16:0 17:0 18:0 19:0 20:0 21:0 22:3 23:0 24:0 #
9.8084983989546160267288291926407e-08 1:0 2:61 3:0 4:0 5:0 6:87 7:0 8:0 9:0 10:144 11:0 12:0 13:0 14:166 15:0 16:0 17:0 18:126 19:0 20:0 21:0 22:70 23:0 24:0 #
-9.8084983989546160267288291926407e-08 1:0 2:23 3:0 4:0 5:0 6:27 7:0 8:0 9:0 10:0 11:0 12:0 13:0 14:0 15:0 16:0 17:0 18:0 19:0 20:0 21:0 22:0 23:0 24:0 #
9.8084983989546160267288291926407e-08 1:0 2:42 3:0 4:3 5:0 6:49 7:0 8:0 9:0 10:91 11:0 12:0 13:0 14:80 15:0 16:0 17:0 18:101 19:0 20:0 21:0 22:125 23:0 24:4 #
-9.8084983989546160267288291926407e-08 1:0 2:0 3:0 4:0 5:0 6:0 7:0 8:0 9:0 10:0 11:0 12:0 13:0 14:0 15:0 16:0 17:0 18:0 19:0 20:0 21:9 22:8 23:8 24:1 #
9.8084983989546160267288291926407e-08 1:0 2:94 3:0 4:9 5:0 6:53 7:0 8:0 9:0 10:84 11:0 12:3 13:0 14:80 15:0 16:6 17:0 18:97 19:0 20:3 21:0 22:61 23:0 24:4 #
9.8084983989546160267288291926407e-08 1:0 2:53 3:10 4:0 5:45 6:86 7:13 8:0 9:14 10:63 11:31 12:0 13:8 14:55 15:15 16:0 17:0 18:79 19:16 20:0 21:13 22:56 23:26 24:0 #
-9.8084983989546160267288291926407e-08 1:0 2:35 3:0 4:0 5:1 6:5 7:0 8:0 9:0 10:0 11:0 12:0 13:0 14:3 15:0 16:0 17:0 18:0 19:0 20:0 21:0 22:35 23:1 24:0 #
-9.8084983989546160267288291926407e-08 1:0 2:0 3:0 4:0 5:0 6:25 7:0 8:0 9:0 10:12 11:0 12:0 13:0 14:466 15:0 16:0 17:0 18:0 19:0 20:0 21:0 22:0 23:0 24:0 #
9.8084983989546160267288291926407e-08 1:0 2:70 3:46 4:0 5:0 6:65 7:46 8:0 9:0 10:84 11:41 12:0 13:0 14:44 15:42 16:0 17:0 18:31 19:33 20:0 21:0 22:30 23:34 24:0 #
-9.8084983989546160267288291926407e-08 1:0 2:10 3:0 4:0 5:0 6:0 7:0 8:0 9:0 10:0 11:0 12:0 13:0 14:0 15:0 16:0 17:0 18:3 19:0 20:0 21:0 22:82 23:0 24:0 #
9.8084983989546160267288291926407e-08 1:32 2:79 3:10 4:0 5:0 6:61 7:3 8:0 9:67 10:28 11:9 12:0 13:2 14:37 15:16 16:0 17:2 18:75 19:21 20:0 21:1 22:52 23:12 24:0 #
-9.8084983989546160267288291926407e-08 1:0 2:31 3:0 4:0 5:0 6:29 7:0 8:0 9:0 10:0 11:0 12:0 13:0 14:0 15:0 16:0 17:0 18:0 19:0 20:0 21:0 22:19 23:0 24:0 #
-9.8084983989546160267288291926407e-08 1:0 2:15 3:0 4:0 5:0 6:13 7:0 8:0 9:0 10:10 11:0 12:0 13:0 14:17 15:0 16:0 17:0 18:0 19:0 20:0 21:0 22:0 23:0 24:0 #
9.8084983989546160267288291926407e-08 1:0 2:70 3:0 4:0 5:0 6:94 7:0 8:9 9:0 10:53 11:0 12:0 13:0 14:84 15:0 16:3 17:0 18:80 19:0 20:6 21:0 22:97 23:0 24:3 #
-9.8084983989546160267288291926407e-08 1:0 2:171 3:0 4:0 5:0 6:16 7:0 8:0 9:0 10:7 11:0 12:0 13:0 14:0 15:0 16:0 17:0 18:0 19:0 20:0 21:0 22:25 23:0 24:0 #
9.8084983989546160267288291926407e-08 1:10 2:66 3:23 4:0 5:3 6:47 7:9 8:0 9:72 10:86 11:12 12:0 13:29 14:36 15:12 16:0 17:8 18:25 19:8 20:0 21:25 22:25 23:3 24:0 #
-9.8084983989546160267288291926407e-08 1:0 2:0 3:0 4:0 5:0 6:25 7:2 8:0 9:0 10:0 11:0 12:0 13:0 14:27 15:2 16:0 17:0 18:0 19:0 20:0 21:0 22:18 23:1 24:0 #
9.8084983989546160267288291926407e-08 1:0 2:61 3:0 4:4 5:0 6:42 7:0 8:3 9:0 10:49 11:0 12:0 13:0 14:91 15:0 16:0 17:0 18:80 19:0 20:0 21:0 22:101 23:0 24:0 #
-1.4680534618150148982301557833239e-08 1:41 2:879 3:38 4:0 5:23338 6:98 7:38 8:0 9:14 10:49 11:35 12:0 13:0 14:47 15:33 16:0 17:5 18:59 19:33 20:0 21:5 22:52 23:40 24:0 #
9.8084983989546160267288291926407e-08 1:56 2:46 3:11 4:0 5:0 6:48 7:12 8:0 9:7 10:50 11:18 12:0 13:0 14:33 15:5 16:0 17:0 18:41 19:2 20:0 21:0 22:46 23:19 24:0 #
-9.8084983989546160267288291926407e-08 1:0 2:12 3:2 4:0 5:0 6:28 7:0 8:0 9:0 10:10 11:0 12:0 13:0 14:0 15:0 16:0 17:0 18:0 19:0 20:0 21:0 22:0 23:0 24:0 #
-9.8084983989546160267288291926407e-08 1:0 2:23 3:5 4:0 5:5834 6:13 7:3 8:0 9:2 10:14 11:8 12:0 13:4 14:38 15:3 16:0 17:6 18:23 19:6 20:0 21:6 22:47 23:6 24:0 #
-9.8084983989546160267288291926407e-08 1:51 2:107 3:28 4:0 5:0 6:58 7:11 8:0 9:0 10:44 11:11 12:0 13:21 14:56 15:15 16:0 17:88 18:46 19:7 20:368 21:3 22:34 23:11 24:23 #
9.8084983989546160267288291926407e-08 1:0 2:17 3:3 4:0 5:0 6:37 7:6 8:0 9:1 10:34 11:9 12:0 13:2 14:76 15:10 16:0 17:1 18:39 19:19 20:0 21:94 22:49 23:15 24:0 #
9.8084983989546160267288291926407e-08 1:0 2:1 3:5 4:0 5:0 6:34 7:13 8:0 9:0 10:90 11:39 12:0 13:0 14:19 15:4 16:0 17:43 18:3 19:8 20:0 21:0 22:1 23:107 24:0 #
9.8084983989546160267288291926407e-08 1:0 2:80 3:19 4:0 5:1 6:74 7:16 8:1 9:0 10:96 11:9 12:0 13:0 14:41 15:7 16:0 17:0 18:28 19:5 20:0 21:10 22:27 23:5 24:0 #
9.8084983989546160267288291926407e-08 1:0 2:78 3:16 4:0 5:1 6:105 7:12 8:0 9:12 10:67 11:8 12:0 13:0 14:65 15:6 16:0 17:0 18:40 19:10 20:0 21:1 22:65 23:10 24:0 #
9.8084983989546160267288291926407e-08 1:0 2:284 3:0 4:0 5:0 6:130 7:0 8:0 9:0 10:2 11:0 12:0 13:0 14:139 15:0 16:0 17:0 18:14 19:0 20:0 21:0 22:28 23:0 24:0 #
-9.8084983989546160267288291926407e-08 1:0 2:0 3:0 4:0 5:0 6:0 7:0 8:0 9:0 10:25 11:2 12:0 13:0 14:0 15:0 16:0 17:0 18:27 19:2 20:0 21:0 22:0 23:0 24:0 #
-9.8084983989546160267288291926407e-08 1:0 2:16 3:0 4:0 5:0 6:7 7:0 8:0 9:0 10:0 11:0 12:0 13:0 14:0 15:0 16:0 17:0 18:25 19:0 20:0 21:0 22:12 23:0 24:0 #
-9.8084983989546160267288291926407e-08 1:0 2:27 3:2 4:0 5:0 6:0 7:0 8:0 9:0 10:18 11:1 12:0 13:0 14:24 15:0 16:0 17:0 18:0 19:0 20:0 21:0 22:0 23:0 24:0 #
9.8084983989546160267288291926407e-08 1:4 2:72 3:14 4:0 5:38 6:58 7:10 8:0 9:0 10:70 11:11 12:0 13:0 14:100 15:17 16:0 17:0 18:36 19:2 20:0 21:0 22:0 23:2 24:0 #
9.8084983989546160267288291926407e-08 1:0 2:54 3:9 4:0 5:0 6:57 7:12 8:0 9:0 10:50 11:17 12:0 13:0 14:26 15:10 16:0 17:1 18:41 19:7 20:0 21:70 22:5 23:9 24:0 #
-5.7747432706042195211387779707479e-08 1:0 2:125 3:0 4:4 5:0 6:91 7:0 8:2 9:0 10:7110 11:0 12:0 13:0 14:119 15:0 16:7 17:0 18:66 19:0 20:0 21:0 22:60 23:0 24:0 #
9.8084983989546160267288291926407e-08 1:1 2:55 3:11 4:0 5:51 6:51 7:11 8:0 9:0 10:33 11:13 12:0 13:5 14:31 15:4 16:0 17:0 18:16 19:8 20:0 21:0 22:21 23:1 24:0 #
-9.8084983989546160267288291926407e-08 1:0 2:1 3:0 4:0 5:0 6:12 7:2 8:0 9:0 10:28 11:0 12:0 13:0 14:10 15:0 16:0 17:0 18:0 19:0 20:0 21:0 22:0 23:0 24:0 #
-9.8076836108234081122725367407611e-08 1:0 2:38 3:2 4:0 5:0 6:1 7:0 8:0 9:0 10:12 11:2 12:0 13:0 14:28 15:0 16:0 17:0 18:10 19:0 20:0 21:0 22:0 23:0 24:0 #
9.8084983989546160267288291926407e-08 1:0 2:18 3:2 4:0 5:1 6:63 7:14 8:0 9:2 10:43 11:12 12:0 13:0 14:58 15:9 16:0 17:1 18:19 19:7 20:0 21:0 22:48 23:15 24:0 #
-9.8084983989546160267288291926407e-08 1:2 2:57 3:52 4:0 5:0 6:0 7:0 8:0 9:0 10:0 11:0 12:0 13:0 14:0 15:0 16:0 17:0 18:0 19:0 20:0 21:0 22:0 23:0 24:0 #
9.8084983989546160267288291926407e-08 1:0 2:67 3:12 4:0 5:1 6:41 7:2 8:0 9:0 10:42 11:27 12:0 13:0 14:67 15:36 16:0 17:0 18:23 19:7 20:0 21:0 22:38 23:10 24:0 #
-9.8084983989546160267288291926407e-08 1:0 2:25 3:2 4:0 5:0 6:0 7:0 8:0 9:0 10:27 11:2 12:0 13:0 14:0 15:0 16:0 17:0 18:18 19:1 20:0 21:0 22:24 23:0 24:0 #
-9.8084983989546160267288291926407e-08 1:0 2:9 3:4 4:0 5:1 6:5 7:1 8:0 9:1 10:9 11:3 12:0 13:9 14:4 15:0 16:0 17:1 18:16 19:4 20:0 21:0 22:13 23:6 24:0 #
-9.8084983989546160267288291926407e-08 1:2 2:15 3:4 4:1 5:1 6:5 7:4 8:0 9:0 10:11 11:6 12:0 13:1 14:20 15:2 16:1 17:0 18:10 19:4 20:0 21:0 22:2 23:2 24:0 #
9.8084983989546160267288291926407e-08 1:2 2:55 3:21 4:0 5:0 6:47 7:18 8:0 9:0 10:48 11:12 12:0 13:0 14:37 15:10 16:0 17:0 18:42 19:6 20:0 21:1 22:48 23:10 24:0 #
9.8084983989546160267288291926407e-08 1:0 2:30 3:15 4:0 5:0 6:43 7:6 8:0 9:0 10:62 11:15 12:0 13:1 14:45 15:17 16:0 17:4 18:47 19:0 20:0 21:0 22:28 23:5 24:0 #
9.8084983989546160267288291926407e-08 1:3 2:30 3:4 4:0 5:2 6:44 7:4 8:0 9:120 10:37 11:3 12:0 13:2 14:33 15:2 16:0 17:0 18:34 19:11 20:0 21:0 22:59 23:5 24:0 #
9.8084983989546160267288291926407e-08 1:3 2:43 3:13 4:0 5:0 6:67 7:10 8:23 9:0 10:32 11:3 12:0 13:0 14:24 15:9 16:0 17:0 18:7 19:1 20:0 21:0 22:6 23:119 24:0 #
-9.8084983989546160267288291926407e-08 1:0 2:0 3:0 4:0 5:0 6:0 7:0 8:0 9:0 10:0 11:0 12:0 13:0 14:0 15:0 16:0 17:9 18:8 19:8 20:1 21:0 22:60 23:60 24:0 #
-9.8084983989546160267288291926407e-08 1:0 2:29 3:0 4:0 5:0 6:0 7:0 8:0 9:0 10:0 11:0 12:0 13:0 14:0 15:0 16:0 17:0 18:19 19:0 20:0 21:0 22:76 23:0 24:0 #
9.8084983989546160267288291926407e-08 1:3 2:20 3:1 4:0 5:10 6:62 7:11 8:0 9:0 10:57 11:9 12:0 13:1 14:22 15:2 16:0 17:0 18:13 19:8 20:0 21:2 22:33 23:10 24:0 #
-9.8084983989546160267288291926407e-08 1:1 2:5 3:1 4:0 5:1 6:9 7:3 8:0 9:9 10:4 11:0 12:0 13:1 14:16 15:4 16:0 17:0 18:13 19:6 20:0 21:0 22:5 23:0 24:0 #
9.8084983989546160267288291926407e-08 1:12 2:17 3:2 4:0 5:0 6:18 7:11 8:0 9:0 10:31 11:5 12:0 13:0 14:41 15:31 16:0 17:0 18:49 19:80 20:0 21:0 22:62 23:49 24:0 #
9.8084983989546160267288291926407e-08 1:4 2:43 3:12 4:0 5:27 6:51 7:10 8:0 9:3 10:42 11:6 12:0 13:1 14:16 15:5 16:0 17:1 18:28 19:4 20:0 21:0 22:34 23:3 24:0 #
9.8084983989546160267288291926407e-08 1:54 2:66 3:14 4:0 5:9 6:20 7:3 8:0 9:3 10:17 11:8 12:0 13:6 14:12 15:6 16:0 17:4 18:37 19:13 20:0 21:11 22:69 23:32 24:2 #
-9.8084983989546160267288291926407e-08 1:0 2:10 3:7 4:0 5:0 6:9 7:4 8:0 9:1 10:5 11:1 12:0 13:1 14:9 15:3 16:0 17:9 18:4 19:0 20:0 21:1 22:16 23:4 24:0 #
-9.8084983989546160267288291926407e-08 1:1 2:9 3:3 4:0 5:9 6:4 7:0 8:0 9:1 10:16 11:4 12:0 13:0 14:13 15:6 16:0 17:0 18:5 19:0 20:0 21:3 22:15 23:1 24:0 #
9.8084983989546160267288291926407e-08 1:59 2:50 3:6 4:0 5:0 6:33 7:6 8:0 9:0 10:28 11:8 12:0 13:0 14:22 15:4 16:0 17:0 18:49 19:20 20:0 21:1 22:38 23:3 24:0 #
-9.8084983989546160267288291926407e-08 1:0 2:0 3:0 4:0 5:0 6:0 7:0 8:0 9:0 10:20 11:6 12:0 13:0 14:33 15:0 16:0 17:0 18:38 19:2 20:0 21:0 22:1 23:0 24:0 #
9.8084983989546160267288291926407e-08 1:0 2:31 3:0 4:0 5:0 6:52 7:0 8:0 9:0 10:52 11:0 12:0 13:0 14:6 15:0 16:0 17:0 18:46 19:0 20:1 21:0 22:76 23:0 24:0 #
-3.8033541539866273426160426856732e-08 1:0 2:84 3:41 4:0 5:0 6:44 7:42 8:0 9:0 10:31 11:33 12:0 13:0 14:30 15:34 16:0 17:0 18:13 19:13686 20:1380 21:13 22:1485 23:1203 24:3 #
-9.8084983989546160267288291926407e-08 1:43 2:3 3:8 4:0 5:0 6:1 7:107 8:0 9:22 10:0 11:38 12:452 13:59 14:0 15:2 16:3 17:22 18:584 19:606 20:588 21:464 22:522 23:363 24:24 #
-9.8084983989546160267288291926407e-08 1:0 2:70 3:10 4:0 5:0 6:86 7:5 8:0 9:419 10:58 11:6 12:0 13:5 14:152 15:32 16:0 17:99 18:127 19:19 20:204 21:0 22:121 23:13 24:34 #
-9.8084983989546160267288291926407e-08 1:2 2:26 3:5 4:0 5:0 6:61 7:11 8:0 9:1 10:43 11:14 12:0 13:0 14:54 15:23 16:1 17:2 18:65 19:27 20:297 21:1 22:55 23:21 24:0 #
9.8084983989546160267288291926407e-08 1:3 2:34 3:1 4:0 5:1 6:24 7:6 8:0 9:46 10:38 11:7 12:0 13:0 14:48 15:18 16:0 17:1 18:37 19:11 20:0 21:0 22:38 23:12 24:0 #
9.8084983989546160267288291926407e-08 1:4 2:38 3:3 4:0 5:6 6:23 7:6 8:0 9:6 10:47 11:6 12:0 13:4 14:27 15:5 16:0 17:8 18:32 19:16 20:0 21:5 22:34 23:11 24:0 #
9.8084983989546160267288291926407e-08 1:3 2:42 3:11 4:0 5:0 6:29 7:4 8:0 9:2 10:26 11:5 12:0 13:0 14:61 15:11 16:0 17:1 18:43 19:14 20:0 21:0 22:54 23:23 24:1 #
-9.8084983989546160267288291926407e-08 1:0 2:42 3:27 4:0 5:0 6:67 7:36 8:0 9:0 10:23 11:7 12:0 13:0 14:38 15:10 16:0 17:0 18:40 19:12 20:156 21:0 22:34 23:6 24:0 #
-9.8084983989546160267288291926407e-08 1:0 2:57 3:9 4:0 5:1 6:22 7:2 8:0 9:0 10:13 11:8 12:0 13:2 14:33 15:10 16:0 17:194 18:116 19:18 20:191 21:3 22:61 23:6 24:0 #
9.8084983989546160267288291926407e-08 1:3 2:25 3:13 4:0 5:1 6:21 7:4 8:0 9:1 10:17 11:14 12:0 13:12 14:34 15:3 16:56 17:0 18:45 19:33 20:0 21:14 22:62 23:37 24:1 #
9.8084983989546160267288291926407e-08 1:0 2:17 3:3 4:0 5:3 6:42 7:11 8:0 9:0 10:29 11:4 12:0 13:2 14:26 15:5 16:0 17:0 18:61 19:11 20:0 21:1 22:43 23:14 24:0 #
-9.8084983989546160267288291926407e-08 1:0 2:13 3:8 4:0 5:2 6:33 7:10 8:0 9:194 10:116 11:18 12:191 13:3 14:61 15:6 16:0 17:3 18:59 19:4 20:0 21:1 22:64 23:2 24:3 #
-9.8084983989546160267288291926407e-08 1:0 2:50 3:0 4:0 5:0 6:35 7:0 8:0 9:1 10:5 11:0 12:0 13:0 14:0 15:0 16:0 17:0 18:3 19:0 20:0 21:0 22:0 23:0 24:0 #
9.8084983989546160267288291926407e-08 1:4 2:27 3:5 4:0 5:8 6:32 7:16 8:0 9:5 10:34 11:11 12:0 13:2 14:11 15:5 16:28 17:1 18:20 19:9 20:0 21:3 22:43 23:13 24:0 #
-9.8084983989546160267288291926407e-08 1:0 2:30 3:14 4:0 5:0 6:1740 7:1231 8:1 9:2 10:10 11:3 12:2 13:5 14:24 15:20 16:66 17:1 18:24 19:4 20:184 21:0 22:44 23:2 24:55 #
-9.8084983989546160267288291926407e-08 1:88 2:46 3:7 4:368 5:3 6:34 7:11 8:23 9:0 10:41 11:17 12:0 13:23 14:20 15:19 16:0 17:88 18:23 19:7 20:394 21:2 22:53 23:17 24:103 #
9.8084983989546160267288291926407e-08 1:0 2:6 3:0 4:0 5:0 6:46 7:0 8:1 9:0 10:76 11:0 12:0 13:0 14:34 15:0 16:1 17:0 18:5 19:0 20:0 21:0 22:39 23:0 24:0 #
-5.4227136278974129497167100399935e-08 1:0 2:31 3:5 4:0 5:0 6:90 7:24 8:0 9:0 10:55 11:2 12:0 13:0 14:17 15:5 16:0 17:1 18:1508 19:5 20:0 21:0 22:231 23:1 24:0 #
9.8084983989546160267288291926407e-08 1:0 2:44 3:3 4:0 5:0 6:10 7:3 8:0 9:2 10:31 11:11 12:0 13:3 14:25 15:13 16:0 17:1 18:21 19:4 20:0 21:1 22:17 23:14 24:0 #
-9.8084983989546160267288291926407e-08 1:0 2:9 3:0 4:0 5:0 6:28 7:0 8:0 9:0 10:234 11:0 12:0 13:0 14:140 15:0 16:0 17:0 18:1604 19:0 20:0 21:0 22:35 23:0 24:0 #
9.8084983989546160267288291926407e-08 1:0 2:14 3:5 4:0 5:0 6:39 7:16 8:0 9:0 10:40 11:7 12:0 13:0 14:27 15:2 16:0 17:2 18:20 19:9 20:0 21:0 22:10 23:4 24:0 #
-9.8084983989546160267288291926407e-08 1:0 2:0 3:0 4:0 5:0 6:0 7:0 8:0 9:0 10:25 11:0 12:0 13:0 14:12 15:0 16:0 17:0 18:466 19:0 20:0 21:0 22:0 23:0 24:0 #
9.8084983989546160267288291926407e-08 1:2 2:20 3:9 4:0 5:0 6:10 7:4 8:0 9:0 10:33 11:7 12:1 13:0 14:26 15:5 16:0 17:0 18:21 19:7 20:0 21:0 22:30 23:14 24:0 #
-9.8084983989546160267288291926407e-08 1:0 2:0 3:0 4:0 5:0 6:27 7:2 8:0 9:0 10:0 11:0 12:0 13:0 14:18 15:1 16:0 17:0 18:24 19:0 20:0 21:0 22:0 23:0 24:0 #
9.8084983989546160267288291926407e-08 1:0 2:50 3:18 4:0 5:0 6:45 7:13 8:0 9:0 10:22 11:5 12:0 13:0 14:24 15:4 16:0 17:0 18:32 19:11 20:0 21:0 22:27 23:8 24:0 #
9.8084983989546160267288291926407e-08 1:2 2:31 3:11 4:0 5:3 6:25 7:13 8:0 9:1 10:21 11:4 12:0 13:1 14:17 15:14 16:0 17:12 18:34 19:3 20:56 21:0 22:45 23:33 24:0 #
-9.8084983989546160267288291926407e-08 1:0 2:23 3:5 4:0 5:0 6:22 7:7 8:0 9:0 10:13 11:0 12:0 13:0 14:0 15:0 16:0 17:0 18:9 19:0 20:0 21:0 22:0 23:0 24:0 #
-9.8084983989546160267288291926407e-08 1:1 2:652 3:48 4:0 5:0 6:0 7:0 8:0 9:0 10:0 11:0 12:0 13:0 14:25 15:2 16:0 17:0 18:0 19:0 20:0 21:0 22:27 23:2 24:0 #
-9.8084983989546160267288291926407e-08 1:0 2:328 3:45 4:0 5:29 6:93 7:40 8:0 9:0 10:102 11:47 12:0 13:5 14:123 15:47 16:189 17:13 18:149 19:38 20:0 21:13 22:133 23:44 24:1 #
-9.8084983989546160267288291926407e-08 1:0 2:193 3:0 4:0 5:0 6:15 7:0 8:0 9:0 10:13 11:0 12:0 13:0 14:10 15:0 16:0 17:0 18:17 19:0 20:0 21:0 22:0 23:0 24:0 #
9.8084983989546160267288291926407e-08 1:0 2:0 3:0 4:0 5:0 6:0 7:0 8:0 9:0 10:0 11:0 12:0 13:0 14:0 15:0 16:0 17:0 18:0 19:0 20:0 21:0 22:0 23:0 24:0 #
9.8084983989546160267288291926407e-08 1:0 2:90 3:39 4:0 5:0 6:19 7:4 8:0 9:43 10:3 11:8 12:0 13:0 14:1 15:107 16:0 17:22 18:0 19:38 20:452 21:59 22:0 23:2 24:3 #
-9.8084983989546160267288291926407e-08 1:5 2:34 3:11 4:0 5:2 6:11 7:5 8:28 9:1 10:20 11:9 12:0 13:3 14:43 15:13 16:0 17:0 18:67 19:10 20:23 21:0 22:32 23:3 24:0 #
9.8084983989546160267288291926407e-08 1:0 2:44 3:11 4:0 5:21 6:56 7:15 8:0 9:88 10:46 11:7 12:368 13:3 14:34 15:11 16:23 17:0 18:41 19:17 20:0 21:23 22:20 23:19 24:0 #
-9.6839928278377870266707683200025e-08 1:0 2:12 3:0 4:0 5:0 6:466 7:0 8:0 9:0 10:0 11:0 12:0 13:0 14:0 15:0 16:0 17:0 18:0 19:0 20:0 21:0 22:19 23:2 24:0 #
9.8084983989546160267288291926407e-08 1:2 2:36 3:19 4:0 5:0 6:13 7:1 8:674 9:0 10:0 11:2 12:0 13:0 14:0 15:1 16:0 17:0 18:0 19:2 20:0 21:0 22:0 23:2 24:0 #
-9.8084983989546160267288291926407e-08 1:0 2:126 3:115 4:0 5:13 6:117 7:83 8:202 9:0 10:56 11:66 12:1 13:0 14:43 15:73 16:4 17:21 18:88 19:71 20:2 21:1863 22:84 23:72 24:5 #
-9.8084983989546160267288291926407e-08 1:23 2:20 3:19 4:0 5:88 6:23 7:7 8:394 9:2 10:53 11:17 12:103 13:20 14:37 15:18 16:0 17:2363 18:15 19:3 20:0 21:4825 22:70 23:16 24:0 #
-9.8084983989546160267288291926407e-08 1:29 2:93 3:40 4:0 5:0 6:102 7:47 8:0 9:5 10:123 11:47 12:189 13:13 14:149 15:38 16:0 17:13 18:133 19:44 20:1 21:397 22:156 23:42 24:0 #
-9.8084983989546160267288291926407e-08 1:2 2:49 3:32 4:0 5:0 6:61 7:45 8:0 9:94 10:46 11:35 12:0 13:0 14:51 15:30 16:0 17:79 18:1424 19:33 20:156 21:197 22:543 23:33 24:105 #
-9.8084983989546160267288291926407e-08 1:6753 2:66 3:73 4:0 5:4 6:58 7:69 8:1 9:7114 10:67 11:71 12:0 13:2452 14:75 15:77 16:94 17:1488 18:106 19:70 20:0 21:0 22:69 23:106 24:3 #
-9.8084983989546160267288291926407e-08 1:14 2:1519 3:1475 4:0 5:4 6:13 7:6 8:0 9:2 10:24 11:3 12:0 13:5 14:58 15:11 16:0 17:0 18:38 19:9 20:0 21:2 22:34 23:2 24:0 #
-9.8084983989546160267288291926407e-08 1:0 2:62 3:49 4:0 5:330 6:328 7:33 8:2 9:3 10:139 11:32 12:120 13:0 14:61 15:39 16:0 17:0 18:47 19:45 20:0 21:7071 22:69 23:45 24:0 #
-9.8084983989546160267288291926407e-08 1:2 2:719 3:38 4:0 5:46 6:254 7:40 8:51 9:134 10:111 11:43 12:1 13:1300 14:98 15:40 16:0 17:101 18:74 19:41 20:0 21:0 22:95 23:31 24:0 #
-1.4418669834351534235329025674787e-08 1:12209 2:41 3:12 4:0 5:1 6:9 7:2 8:0 9:2 10:85 11:11 12:0 13:1 14:23 15:2 16:0 17:11855 18:67 19:11 20:0 21:0 22:46 23:7 24:0 #
-9.8084983989546160267288291926407e-08 1:66 2:7 3:4 4:0 5:79 6:63 7:14 8:20 9:7024 10:75 11:15 12:0 13:108 14:48 15:9 16:0 17:0 18:14 19:1 20:0 21:0 22:30 23:4 24:0 #
-2.6820874080707435282988626568113e-11 1:0 2:3 3:0 4:0 5:0 6:82 7:0 8:0 9:0 10:7188 11:0 12:0 13:0 14:144 15:0 16:0 17:0 18:163 19:0 20:0 21:0 22:154 23:0 24:0 #
-4.1314583667626385219122809450143e-09 1:0 2:26 3:3 4:0 5:0 6:14926 7:1 8:0 9:0 10:50540 11:3 12:0 13:0 14:41677 15:11 16:0 17:31 18:31 19:4 20:15 21:0 22:42 23:15 24:0 #
-9.8084983989546160267288291926407e-08 1:300 2:14 3:5 4:12 5:66 6:7 7:4 8:0 9:79 10:63 11:14 12:20 13:7024 14:75 15:15 16:0 17:108 18:48 19:9 20:0 21:0 22:14 23:1 24:0 #
-9.8084983989546160267288291926407e-08 1:1 2:20 3:9 4:0 5:3 6:43 7:13 8:0 9:0 10:67 11:10 12:23 13:0 14:32 15:3 16:0 17:0 18:24 19:9 20:0 21:0 22:7 23:1 24:0 #
-2.8924226312513494802384703130649e-09 1:19 2:77518 3:8 4:0 5:39 6:49953 7:5 8:0 9:306 10:52 11:8 12:0 13:385 14:42 15:4 16:0 17:9 18:50 19:7 20:0 21:425 22:56 23:11 24:0 #
-4.7840105955095062089135434565262e-11 1:0 2:719 3:0 4:0 5:0 6:114 7:0 8:0 9:0 10:7143 11:0 12:0 13:0 14:115 15:0 16:0 17:0 18:169 19:0 20:0 21:0 22:142 23:0 24:0 #
-7.1182425876280506777792761452517e-11 1:3070 2:103 3:38 4:0 5:187 6:95 7:30 8:0 9:1 10:15741 11:33 12:2 13:768 14:105 15:38 16:0 17:421 18:281 19:38 20:0 21:0 22:166 23:42 24:0 #
-6.3027760372831692875332521008858e-11 1:13 2:133 3:44 4:1 5:397 6:156 7:42 8:0 9:3070 10:103 11:38 12:0 13:187 14:95 15:30 16:0 17:1 18:15741 19:33 20:2 21:768 22:105 23:38 24:0 #
-2.0056046125087323428459740171093e-17 1:8 2:83 3:36 4:0 5:0 6:100 7:37 8:0 9:0 10:6963 11:52 12:19 13:0 14:74 15:33 16:0 17:0 18:80 19:39 20:0 21:0 22:53 23:39 24:0 #
-1.2284636118886616516776566498947e-09 1:385 2:42 3:4 4:0 5:9 6:50 7:7 8:0 9:425 10:56 11:11 12:0 13:489 14:41 15:6 16:0 17:513 18:42248 19:7 20:0 21:0 22:50584 23:7 24:0 #
-2.7311556072815747209237002834925e-09 1:0 2:77 3:0 4:0 5:0 6:45 7:0 8:0 9:0 10:37 11:0 12:0 13:0 14:7021 15:0 16:0 17:0 18:165 19:0 20:0 21:0 22:102 23:0 24:0 #
-1.1164822779634824053015228206842e-08 1:0 2:36 3:23 4:0 5:0 6:40 7:7 8:0 9:0 10:87 11:13 12:0 13:0 14:17 15:2 16:0 17:2 18:14000 19:11 20:0 21:0 22:101007 23:8 24:0 #
-8.3945884910043442489965023582676e-10 1:425 2:56 3:11 4:0 5:489 6:41 7:6 8:0 9:513 10:42248 11:7 12:0 13:0 14:50584 15:7 16:0 17:0 18:49634 19:6 20:0 21:2 22:34 23:1 24:0 #
-8.6859799062154890900947380033559e-10 1:0 2:101014 3:4 4:0 5:19 6:77518 7:8 8:0 9:39 10:49953 11:5 12:0 13:306 14:52 15:8 16:0 17:385 18:42 19:4 20:0 21:9 22:50 23:7 24:0 #
