SVM-light Version V6.02
0 # kernel type
3 # kernel parameter -d 
1 # kernel parameter -g 
1 # kernel parameter -s 
1 # kernel parameter -r 
empty# kernel parameter -u 
24 # highest feature index 
1142 # number of training documents 
428 # number of support vectors plus 1 
1.0010677 # threshold b, each following line is a SV (starting with alpha*y)
-3.5144641041269254488028993092807e-08 1:0 2:197 3:120 4:0 5:0 6:184 7:99 8:0 9:0 10:124 11:91 12:0 13:3 14:123 15:110 16:0 17:0 18:123 19:106 20:0 21:0 22:127 23:108 24:0 #
3.5144641041269254488028993092807e-08 1:0 2:116 3:1 4:0 5:0 6:125 7:0 8:0 9:0 10:7087 11:0 12:0 13:0 14:220 15:0 16:0 17:0 18:49 19:0 20:0 21:0 22:86 23:0 24:0 #
-3.5144641041269254488028993092807e-08 1:0 2:123 3:110 4:0 5:133 6:231 7:147 8:0 9:57 10:157 11:117 12:0 13:0 14:59 15:89 16:0 17:0 18:73 19:97 20:0 21:0 22:81 23:108 24:0 #
3.5144641041269254488028993092807e-08 1:0 2:87 3:34 4:0 5:1 6:89 7:12 8:0 9:4725 10:36 11:15 12:0 13:1 14:57 15:8 16:0 17:0 18:31776 19:1 20:0 21:0 22:75375 23:14 24:0 #
-3.5144641041269254488028993092807e-08 1:1 2:51 3:15 4:0 5:0 6:102 7:53 8:0 9:0 10:58 11:14 12:0 13:0 14:61 15:18 16:156 17:0 18:68 19:19 20:0 21:0 22:34 23:8 24:0 #
3.5144641041269254488028993092807e-08 1:0 2:31776 3:1 4:0 5:0 6:75375 7:14 8:0 9:31 10:62 11:12 12:15 13:7057 14:84 15:35 16:0 17:0 18:79 19:20 20:0 21:0 22:82 23:26 24:1 #
-3.5144641041269254488028993092807e-08 1:1401 2:158 3:66 4:0 5:0 6:135 7:59 8:0 9:0 10:100 11:62 12:0 13:23704 14:148 15:30 16:0 17:1 18:198 19:24 20:2 21:67 22:116 23:14 24:2 #
-3.5144641041269254488028993092807e-08 1:35 2:104 3:112 4:0 5:513 6:13843 7:114 8:0 9:0 10:95 11:113 12:0 13:0 14:93 15:115 16:0 17:2 18:107 19:113 20:0 21:221 22:941 23:53 24:0 #
-3.5144641041269254488028993092807e-08 1:0 2:4004 3:570 4:1 5:0 6:0 7:3 8:0 9:22 10:436 11:149 12:9 13:34 14:22 15:11 16:1287 17:10 18:300 19:352 20:1478 21:50 22:106 23:55 24:0 #
-3.5144641041269254488028993092807e-08 1:169 2:103 3:103 4:1 5:40 6:141 7:48 8:0 9:43 10:35 11:22 12:0 13:1 14:4 15:5 16:0 17:19 18:3 19:2 20:0 21:163 22:16 23:0 24:0 #
-1.531211848370537386409892120949e-08 1:1002 2:25426 3:11 4:0 5:0 6:84245 7:11 8:0 9:2 10:32870 11:5 12:0 13:1 14:47 15:6 16:0 17:0 18:1404 19:1293 20:0 21:0 22:46 23:3 24:0 #
3.5144641041269254488028993092807e-08 1:1 2:57 3:8 4:0 5:0 6:31776 7:1 8:0 9:0 10:75375 11:14 12:0 13:31 14:62 15:12 16:15 17:7057 18:84 19:35 20:0 21:0 22:79 23:20 24:0 #
3.5144641041269254488028993092807e-08 1:188 2:15818 3:53 4:2 5:1189 6:187 7:63 8:0 9:0 10:405 11:69 12:0 13:235 14:235 15:63 16:0 17:76 18:293 19:99 20:21 21:142 22:340 23:101 24:31 #
3.5144641041269254488028993092807e-08 1:7042 2:203 3:94 4:1 5:0 6:166 7:114 8:0 9:6 10:166 11:118 12:1 13:7 14:1253 15:127 16:0 17:0 18:1070 19:117 20:0 21:0 22:540 23:109 24:0 #
3.5144641041269254488028993092807e-08 1:1 2:19 3:8 4:0 5:2 6:14 7:1 8:0 9:29 10:17 11:7 12:0 13:4 14:24 15:9 16:0 17:0 18:18 19:10 20:0 21:3 22:32 23:20 24:0 #
-2.7294206097013316110119762747388e-08 1:32 2:106 3:63 4:0 5:28 6:94 7:61 8:0 9:28 10:116 11:62 12:0 13:41 14:928 15:66 16:0 17:23349 18:124 19:62 20:0 21:3 22:97 23:54 24:0 #
3.5144641041269254488028993092807e-08 1:2 2:926 3:61 4:0 5:180 6:182 7:72 8:52 9:1401 10:158 11:66 12:0 13:0 14:135 15:59 16:0 17:0 18:100 19:62 20:0 21:23704 22:148 23:30 24:0 #
-9.4795310440909721837686972845116e-13 1:0 2:66 3:22 4:0 5:0 6:55 7:10 8:0 9:0 10:32 11:7 12:0 13:0 14:36 15:7 16:0 17:0 18:39 19:16 20:0 21:0 22:42 23:16 24:0 #
-3.5144641041269254488028993092807e-08 1:0 2:405 3:69 4:0 5:235 6:235 7:63 8:0 9:76 10:293 11:99 12:21 13:142 14:340 15:101 16:31 17:199 18:323 19:131 20:51 21:34 22:295 23:106 24:29 #
3.5144641041269254488028993092807e-08 1:180 2:182 3:72 4:52 5:1401 6:158 7:66 8:0 9:0 10:135 11:59 12:0 13:0 14:100 15:62 16:0 17:23704 18:148 19:30 20:0 21:1 22:198 23:24 24:2 #
3.5144641041269254488028993092807e-08 1:39 2:1018 3:960 4:612 5:976 6:164 7:33 8:0 9:1442 10:91 11:8 12:0 13:395 14:57 15:9 16:31 17:4 18:147 19:11 20:45 21:838 22:295 23:23 24:3 #
3.5144641041269254488028993092807e-08 1:2 2:68 3:29 4:0 5:7063 6:60 7:9 8:0 9:0 10:53 11:20 12:0 13:0 14:52 15:15 16:3 17:0 18:44 19:13 20:1 21:29 22:73 23:22 24:1 #
3.5144641041269254488028993092807e-08 1:6755 2:96 3:123 4:0 5:7116 6:107 7:117 8:1 9:3935 10:104 11:124 12:94 13:5 14:187 15:169 16:3 17:13 18:202 19:158 20:202 21:0 22:81 23:117 24:5 #
-2.2647627116073665092758210315438e-08 1:23349 2:124 3:62 4:0 5:3 6:97 7:54 8:0 9:10 10:84 11:63 12:0 13:1 14:100 15:58 16:0 17:5153 18:150 19:70 20:0 21:21 22:147 23:83 24:0 #
-2.3671548652023943239142145245069e-08 1:0 2:145 3:113 4:0 5:0 6:170 7:110 8:2 9:0 10:197 11:120 12:0 13:0 14:184 15:99 16:0 17:0 18:124 19:91 20:0 21:3 22:123 23:110 24:0 #
-3.5144641041269254488028993092807e-08 1:88 2:116 3:116 4:25 5:4 6:144 7:110 8:0 9:7117 10:124 11:128 12:0 13:18 14:94 15:105 16:0 17:1 18:117 19:109 20:1 21:439 22:117 23:110 24:17 #
3.5144641041269254488028993092807e-08 1:5971 2:135 3:18 4:0 5:7064 6:62 7:23 8:0 9:0 10:64 11:24 12:0 13:0 14:89 15:17 16:0 17:2 18:65 19:21 20:0 21:3 22:71 23:5 24:0 #
3.5144641041269254488028993092807e-08 1:7056 2:159 3:57 4:4 5:5407 6:98 7:60 8:1 9:0 10:106 11:64 12:0 13:0 14:122 15:66 16:0 17:0 18:106 19:56 20:0 21:0 22:90 23:61 24:0 #
-3.5144641041269254488028993092807e-08 1:153 2:532 3:62 4:105 5:17 6:104 7:59 8:0 9:0 10:319 11:65 12:0 13:2 14:926 15:61 16:0 17:180 18:182 19:72 20:52 21:1401 22:158 23:66 24:0 #
-1.4168144398006125387860182980766e-08 1:0 2:108 3:75 4:0 5:0 6:116 7:72 8:0 9:0 10:53 11:54 12:0 13:0 14:33 15:13710 16:1380 17:29 18:1617 19:1232 20:3 21:0 22:119 23:56 24:0 #
-3.5144641041269254488028993092807e-08 1:0 2:45 3:24 4:0 5:0 6:82 7:97 8:0 9:0 10:155 11:71 12:2 13:333 14:388 15:55 16:120 17:0 18:94 19:72 20:0 21:7072 22:121 23:76 24:0 #
-3.5144641041269254488028993092807e-08 1:1800 2:104 3:154 4:2 5:483 6:148 7:119 8:0 9:18 10:53 11:104 12:0 13:136 14:102 15:106 16:0 17:53 18:72 19:112 20:0 21:35 22:104 23:112 24:0 #
3.5144641041269254488028993092807e-08 1:7116 2:107 3:117 4:1 5:3935 6:104 7:124 8:94 9:5 10:187 11:169 12:3 13:13 14:202 15:158 16:202 17:0 18:81 19:117 20:5 21:443 22:124 23:116 24:5 #
-9.6574092156163326544074040902466e-09 1:4 2:185 3:77 4:0 5:0 6:124 7:70 8:0 9:10 10:142 11:85 12:0 13:1 14:59 15:55 16:0 17:3 18:65 19:59 20:0 21:0 22:68 23:41 24:2 #
-3.5144641041269254488028993092807e-08 1:18 2:53 3:104 4:0 5:136 6:102 7:106 8:0 9:53 10:72 11:112 12:0 13:35 14:104 15:112 16:0 17:513 18:13843 19:114 20:0 21:0 22:95 23:113 24:0 #
-3.5144641041269254488028993092807e-08 1:4 2:112 3:112 4:0 5:0 6:101 7:115 8:0 9:15 10:1041 11:1230 12:4 13:11 14:326 15:74 16:0 17:84 18:109 19:67 20:0 21:28 22:118 23:64 24:0 #
-3.5144641041269254488028993092807e-08 1:483 2:148 3:119 4:0 5:18 6:53 7:104 8:0 9:136 10:102 11:106 12:0 13:53 14:72 15:112 16:0 17:35 18:104 19:112 20:0 21:513 22:13843 23:114 24:0 #
-6.4538787249070617670848380953387e-12 1:0 2:1070 3:117 4:0 5:0 6:540 7:109 8:0 9:7049 10:178 11:117 12:1 13:1 14:199 15:118 16:0 17:6 18:160 19:116 20:0 21:0 22:324 23:118 24:0 #
3.5144641041269254488028993092807e-08 1:0 2:79 3:15 4:0 5:0 6:33 7:6 8:0 9:5295 10:40 11:4 12:0 13:12 14:70 15:12 16:0 17:1 18:80 19:10 20:0 21:1 22:24 23:9 24:0 #
3.5144641041269254488028993092807e-08 1:0 2:868 3:0 4:0 5:0 6:2448 7:0 8:0 9:0 10:1343 11:0 12:3 13:0 14:4866 15:0 16:0 17:0 18:156 19:0 20:9 21:0 22:109 23:0 24:1 #
3.5144641041269254488028993092807e-08 1:0 2:116 3:59 4:0 5:0 6:763 7:61 8:0 9:11 10:121 11:69 12:1 13:3103 14:4445 15:72 16:0 17:7042 18:203 19:94 20:1 21:0 22:166 23:114 24:0 #
3.5144641041269254488028993092807e-08 1:0 2:43 3:7 4:0 5:2 6:75 7:23 8:0 9:7050 10:86 11:16 12:0 13:0 14:92 15:17 16:0 17:0 18:54 19:14 20:0 21:0 22:34 23:8 24:0 #
3.5144641041269254488028993092807e-08 1:427 2:79 3:107 4:0 5:6755 6:96 7:123 8:0 9:7116 10:107 11:117 12:1 13:3935 14:104 15:124 16:94 17:5 18:187 19:169 20:3 21:13 22:202 23:158 24:202 #
3.5144641041269254488028993092807e-08 1:9 2:54 3:10 4:0 5:0 6:57 7:13 8:0 9:12210 10:38 11:9 12:0 13:3 14:104 15:12 16:0 17:11855 18:80 19:17 20:0 21:1 22:121 23:14 24:0 #
-3.5144641041269254488028993092807e-08 1:53 2:72 3:112 4:0 5:35 6:104 7:112 8:0 9:513 10:13843 11:114 12:0 13:0 14:95 15:113 16:0 17:0 18:93 19:115 20:0 21:2 22:107 23:113 24:0 #
-3.5144641041269254488028993092807e-08 1:3460 2:63 3:5 4:0 5:2652 6:126 7:14 8:0 9:1 10:51 11:15 12:0 13:0 14:102 15:53 16:0 17:0 18:58 19:14 20:0 21:0 22:61 23:18 24:156 #
3.5144641041269254488028993092807e-08 1:1 2:155 3:164 4:0 5:5532 6:142 7:24 8:1 9:324 10:108 11:23 12:0 13:0 14:56 15:15 16:0 17:3 18:96 19:12 20:0 21:1 22:68 23:22 24:0 #
3.5144641041269254488028993092807e-08 1:3446 2:99 3:104 4:0 5:191 6:133 7:121 8:0 9:88 10:116 11:116 12:25 13:4 14:144 15:110 16:0 17:7117 18:124 19:128 20:0 21:18 22:94 23:105 24:0 #
-1.1289382875826570397772834089371e-08 1:0 2:135 3:59 4:0 5:0 6:100 7:62 8:0 9:23704 10:148 11:30 12:0 13:1 14:198 15:24 16:2 17:67 18:116 19:14 20:2 21:0 22:22 23:13 24:0 #
3.5144641041269254488028993092807e-08 1:68 2:86 3:11 4:2 5:7073 6:86 7:23 8:0 9:63 10:130 11:29 12:0 13:570 14:138 15:28 16:0 17:111 18:98 19:33 20:0 21:115 22:117 23:10 24:0 #
-3.5144641041269254488028993092807e-08 1:2 2:63 3:11 4:0 5:1 6:717 7:1167 8:2 9:5 10:721 11:982 12:0 13:2 14:47 15:19 16:0 17:0 18:13 19:2 20:674 21:0 22:0 23:2 24:0 #
-3.5144641041269254488028993092807e-08 1:0 2:55 3:12 4:1 5:0 6:33 7:8 8:0 9:0 10:1762 11:1244 12:1 13:2 14:20 15:11 16:2 17:6 18:50 19:16 20:250 21:2 22:70 23:10 24:55 #
3.5144641041269254488028993092807e-08 1:443 2:831 3:477 4:0 5:427 6:79 7:107 8:0 9:6755 10:96 11:123 12:0 13:7116 14:107 15:117 16:1 17:3935 18:104 19:124 20:94 21:5 22:187 23:169 24:3 #
3.5144641041269254488028993092807e-08 1:6 2:69 3:30 4:0 5:2 6:68 7:29 8:0 9:7063 10:60 11:9 12:0 13:0 14:53 15:20 16:0 17:0 18:52 19:15 20:3 21:0 22:44 23:13 24:1 #
3.3460413090593276440562914850543e-08 1:4 2:132 3:27 4:0 5:3592 6:195 7:800 8:3463 9:0 10:124 11:507 12:0 13:0 14:159 15:524 16:0 17:143 18:1262 19:580 20:13939 21:816 22:217 23:20 24:110 #
3.5144641041269254488028993092807e-08 1:611 2:393 3:250 4:1 5:8 6:1340 7:1499 8:0 9:443 10:831 11:477 12:0 13:427 14:79 15:107 16:0 17:6755 18:96 19:123 20:0 21:7116 22:107 23:117 24:1 #
-3.5078509292534751285352803001905e-08 1:5 2:187 3:169 4:3 5:13 6:202 7:158 8:202 9:0 10:81 11:117 12:5 13:443 14:124 15:116 16:5 17:9460 18:119 19:122 20:2 21:7341 22:92 23:123 24:0 #
3.5144641041269254488028993092807e-08 1:3071 2:186 3:65 4:0 5:188 6:15818 7:53 8:2 9:1189 10:187 11:63 12:0 13:0 14:405 15:69 16:0 17:235 18:235 19:63 20:0 21:76 22:293 23:99 24:21 #
-3.5144641041269254488028993092807e-08 1:0 2:52 3:9 4:0 5:10 6:53 7:11 8:0 9:6 10:124 11:23 12:1 13:0 14:60 15:18 16:0 17:0 18:66 19:15 20:0 21:14 22:2423 23:2680 24:0 #
-3.5144641041269254488028993092807e-08 1:362 2:129 3:55 4:9 5:24 6:102 7:59 8:0 9:94 10:92 11:70 12:0 13:0 14:77 15:50 16:0 17:124 18:1952 19:54 20:156 21:153 22:532 23:62 24:105 #
-3.4797447242786453979509608130938e-08 1:20 2:1178 3:136 4:2 5:0 6:116 7:59 8:0 9:0 10:763 11:61 12:0 13:11 14:121 15:69 16:1 17:3103 18:4445 19:72 20:0 21:7042 22:203 23:94 24:1 #
-3.5144641041269254488028993092807e-08 1:7 2:265 3:140 4:0 5:24 6:274 7:167 8:1 9:1800 10:104 11:154 12:2 13:483 14:148 15:119 16:0 17:18 18:53 19:104 20:0 21:136 22:102 23:106 24:0 #
-3.5144641041269254488028993092807e-08 1:0 2:229 3:65 4:0 5:35 6:1362 7:63 8:0 9:29 10:395 11:70 12:0 13:0 14:166 15:78 16:3 17:18 18:234 19:69 20:186 21:409 22:224 23:69 24:1 #
3.5144641041269254488028993092807e-08 1:409 2:224 3:69 4:1 5:3071 6:186 7:65 8:0 9:188 10:15818 11:53 12:2 13:1189 14:187 15:63 16:0 17:0 18:405 19:69 20:0 21:235 22:235 23:63 24:0 #
3.5144641041269254488028993092807e-08 1:5455 2:74 3:55 4:0 5:0 6:53 7:56 8:2 9:240 10:90 11:80 12:0 13:0 14:45 15:62 16:0 17:56 18:53 19:67 20:0 21:221 22:67 23:67 24:0 #
3.5144641041269254488028993092807e-08 1:0 2:100 3:101 4:0 5:7 6:141 7:109 8:4 9:14 10:138 11:38 12:0 13:10 14:2851 15:667 16:11 17:0 18:4004 19:570 20:1 21:0 22:0 23:3 24:0 #
-3.5144641041269254488028993092807e-08 1:0 2:73 3:97 4:0 5:0 6:81 7:108 8:0 9:0 10:83 11:106 12:0 13:0 14:99 15:123 16:53 17:11 18:116 19:132 20:2 21:611 22:393 23:250 24:1 #
3.5144641041269254488028993092807e-08 1:0 2:108 3:67 4:0 5:0 6:110 7:72 8:1 9:0 10:810 11:66 12:0 13:0 14:3601 15:62 16:0 17:0 18:1756 19:64 20:0 21:0 22:148 23:59 24:0 #
3.5144641041269254488028993092807e-08 1:2 2:63 3:9 4:0 5:1 6:34 7:15 8:0 9:6 10:69 11:30 12:0 13:2 14:68 15:29 16:0 17:7063 18:60 19:9 20:0 21:0 22:53 23:20 24:0 #
3.5144641041269254488028993092807e-08 1:0 2:113 3:22 4:0 5:21 6:348 7:32 8:7 9:5476 10:45 11:8 12:0 13:6 14:93 15:18 16:0 17:31 18:130 19:21 20:0 21:166 22:109 23:24 24:0 #
-2.0855928146482584218507870532644e-08 1:279 2:63 3:98 4:0 5:3446 6:99 7:104 8:0 9:191 10:133 11:121 12:0 13:88 14:116 15:116 16:25 17:4 18:144 19:110 20:0 21:7117 22:124 23:128 24:0 #
-3.5144641041269254488028993092807e-08 1:17 2:214 3:141 4:0 5:8 6:200 7:135 8:0 9:12 10:226 11:102 12:0 13:6 14:49 15:85 16:0 17:1 18:66 19:94 20:0 21:0 22:92 23:117 24:0 #
3.5144641041269254488028993092807e-08 1:8 2:1340 3:1499 4:0 5:443 6:831 7:477 8:0 9:427 10:79 11:107 12:0 13:6755 14:96 15:123 16:0 17:7116 18:107 19:117 20:1 21:3935 22:104 23:124 24:94 #
3.5144641041269254488028993092807e-08 1:14 2:138 3:38 4:0 5:10 6:2851 7:667 8:11 9:0 10:4004 11:570 12:1 13:0 14:0 15:3 16:0 17:22 18:436 19:149 20:9 21:34 22:22 23:11 24:1287 #
-3.0070281307623869861871640605123e-09 1:96 2:43 3:5 4:0 5:3 6:45 7:26 8:0 9:0 10:69 11:11 12:0 13:0 14:85 15:11 16:0 17:2 18:81347 19:19 20:0 21:0 22:168346 23:14 24:0 #
3.5144641041269254488028993092807e-08 1:190 2:92 3:23 4:2 5:252 6:163 7:29 8:0 9:14 10:80 11:18 12:0 13:41 14:61 15:16 16:0 17:4 18:81 19:15 20:0 21:107 22:147 23:30 24:0 #
-3.5144641041269254488028993092807e-08 1:0 2:1762 3:1244 4:1 5:2 6:20 7:11 8:2 9:6 10:50 11:16 12:250 13:2 14:70 15:10 16:55 17:4 18:18 19:8 20:0 21:11983 22:46 23:3 24:0 #
3.5144641041269254488028993092807e-08 1:142 2:340 3:101 4:31 5:199 6:323 7:131 8:51 9:34 10:295 11:106 12:29 13:7193 14:361 15:57 16:0 17:0 18:214 19:70 20:0 21:1 22:199 23:79 24:0 #
3.5144641041269254488028993092807e-08 1:11 2:116 3:132 4:2 5:611 6:393 7:250 8:1 9:8 10:1340 11:1499 12:0 13:443 14:831 15:477 16:0 17:427 18:79 19:107 20:0 21:6755 22:96 23:123 24:0 #
3.5144641041269254488028993092807e-08 1:0 2:320 3:65 4:0 5:13 6:243 7:75 8:0 9:8 10:190 11:53 12:2 13:12 14:168 15:68 16:0 17:3 18:190 19:63 20:0 21:7056 22:159 23:57 24:4 #
-3.5144641041269254488028993092807e-08 1:8 2:200 3:135 4:0 5:12 6:226 7:102 8:0 9:6 10:49 11:85 12:0 13:1 14:66 15:94 16:0 17:0 18:92 19:117 20:0 21:4 22:112 23:112 24:0 #
3.5144641041269254488028993092807e-08 1:7148 2:34 3:8 4:0 5:126 6:127 7:22 8:0 9:32 10:95 11:24 12:0 13:55 14:104 15:15 16:0 17:49 18:69 19:21 20:0 21:28 22:48 23:10 24:0 #
-3.5144641041269254488028993092807e-08 1:32 2:95 3:24 4:0 5:55 6:104 7:15 8:0 9:49 10:69 11:21 12:0 13:28 14:48 15:10 16:0 17:7365 18:92 19:17 20:3 21:13 22:54 23:10 24:0 #
-3.5144641041269254488028993092807e-08 1:199 2:323 3:131 4:51 5:34 6:295 7:106 8:29 9:7193 10:361 11:57 12:0 13:0 14:214 15:70 16:0 17:1 18:199 19:79 20:0 21:10 22:177 23:304 24:123 #
-3.5142869761720411202126170858995e-08 1:65 2:107 3:120 4:0 5:0 6:90 7:113 8:0 9:76 10:120 11:123 12:0 13:0 14:123 15:110 16:0 17:133 18:231 19:147 20:0 21:57 22:157 23:117 24:0 #
-3.5144641041269254488028993092807e-08 1:11 2:121 3:69 4:1 5:3103 6:4445 7:72 8:0 9:7042 10:203 11:94 12:1 13:0 14:166 15:114 16:0 17:6 18:166 19:118 20:1 21:7 22:1253 23:127 24:0 #
-1.685966628514460176761270183976e-08 1:3 2:113 3:66 4:0 5:84 6:90 7:64 8:0 9:111 10:98 11:75 12:0 13:2 14:127 15:60 16:0 17:13 18:95 19:56 20:0 21:37 22:70 23:63 24:1 #
3.5144641041269254488028993092807e-08 1:0 2:63 3:17 4:0 5:3 6:73 7:22 8:0 9:0 10:95 11:14 12:0 13:0 14:95 15:18 16:0 17:0 18:41 19:12 20:0 21:0 22:1411 23:1223 24:0 #
3.5144641041269254488028993092807e-08 1:0 2:125 3:0 4:0 5:0 6:7087 7:0 8:0 9:0 10:220 11:0 12:0 13:0 14:49 15:0 16:0 17:0 18:86 19:0 20:0 21:0 22:52 23:0 24:1 #
-3.5144641041269254488028993092807e-08 1:0 2:76 3:0 4:0 5:0 6:7160 7:0 8:0 9:0 10:164 11:0 12:0 13:0 14:119 15:0 16:0 17:0 18:7136 19:0 20:0 21:0 22:20 23:0 24:0 #
3.5144641041269254488028993092807e-08 1:191 2:133 3:121 4:0 5:88 6:116 7:116 8:25 9:4 10:144 11:110 12:0 13:7117 14:124 15:128 16:0 17:18 18:94 19:105 20:0 21:1 22:117 23:109 24:1 #
3.5144641041269254488028993092807e-08 1:0 2:90 3:61 4:0 5:0 6:100 7:70 8:1 9:0 10:108 11:75 12:0 13:0 14:116 15:72 16:0 17:0 18:53 19:54 20:0 21:0 22:33 23:13710 24:1380 #
-3.5144641041269254488028993092807e-08 1:155 2:96 3:123 4:0 5:49 6:89 7:109 8:0 9:1751 10:129 11:126 12:0 13:5232 14:94 15:119 16:0 17:34 18:72 19:106 20:2 21:169 22:103 23:103 24:1 #
-3.5144641041269254488028993092807e-08 1:14 2:2423 3:2680 4:0 5:6 6:33 7:7 8:0 9:5 10:67 11:14 12:0 13:2 14:67 15:10 16:0 17:1 18:66 19:15 20:0 21:34 22:56 23:12 24:0 #
-3.5144641041269254488028993092807e-08 1:0 2:33 3:6 4:0 5:5295 6:40 7:4 8:0 9:12 10:70 11:12 12:0 13:1 14:80 15:10 16:0 17:1 18:24 19:9 20:0 21:195 22:122 23:23 24:191 #
3.5144641041269254488028993092807e-08 1:0 2:33 3:13710 4:1380 5:29 6:1617 7:1232 8:3 9:0 10:119 11:56 12:0 13:0 14:114 15:60 16:0 17:0 18:122 19:59 20:0 21:3815 22:127 23:65 24:0 #
-7.4317682638114112487211606380283e-11 1:8 2:190 3:53 4:2 5:12 6:168 7:68 8:0 9:3 10:190 11:63 12:0 13:7056 14:159 15:57 16:4 17:5407 18:98 19:60 20:1 21:0 22:106 23:64 24:0 #
-1.811075855818677937763429123836e-08 1:0 2:100 3:62 4:0 5:23704 6:148 7:30 8:0 9:1 10:198 11:24 12:2 13:67 14:116 15:14 16:2 17:0 18:22 19:13 20:0 21:0 22:92 23:10 24:0 #
-3.5144641041269254488028993092807e-08 1:76 2:120 3:123 4:0 5:0 6:123 7:110 8:0 9:133 10:231 11:147 12:0 13:57 14:157 15:117 16:0 17:0 18:59 19:89 20:0 21:0 22:73 23:97 24:0 #
-3.5144641041269254488028993092807e-08 1:2 2:107 3:113 4:0 5:221 6:941 7:53 8:0 9:138 10:73 11:668 12:0 13:82 14:102 15:75 16:0 17:1 18:85 19:93 20:0 21:17 22:97 23:109 24:0 #
3.5144641041269254488028993092807e-08 1:7 2:141 3:109 4:4 5:14 6:138 7:38 8:0 9:10 10:2851 11:667 12:11 13:0 14:4004 15:570 16:1 17:0 18:0 19:3 20:0 21:22 22:436 23:149 24:9 #
3.5144641041269254488028993092807e-08 1:0 2:122 3:59 4:0 5:3815 6:127 7:65 8:0 9:17 10:3453 11:75 12:2 13:20 14:1178 15:136 16:2 17:0 18:116 19:59 20:0 21:0 22:763 23:61 24:0 #
-3.5144641041269254488028993092807e-08 1:208 2:695 3:65 4:1 5:7084 6:1627 7:78 8:0 9:45 10:166 11:64 12:0 13:9 14:149 15:68 16:0 17:0 18:7029 19:68 20:19 21:0 22:139 23:71 24:0 #
1.1171870037483666927074504198782e-08 1:3592 2:195 3:800 4:3463 5:0 6:124 7:507 8:0 9:0 10:159 11:524 12:0 13:143 14:1262 15:580 16:13939 17:816 18:217 19:20 20:110 21:73 22:139 23:50 24:12 #
3.5144641041269254488028993092807e-08 1:0 2:76 3:116 4:0 5:155 6:96 7:123 8:0 9:49 10:89 11:109 12:0 13:1751 14:129 15:126 16:0 17:5232 18:94 19:119 20:0 21:34 22:72 23:106 24:2 #
-3.5144641041269254488028993092807e-08 1:10 2:2851 3:667 4:11 5:0 6:4004 7:570 8:1 9:0 10:0 11:3 12:0 13:22 14:436 15:149 16:9 17:34 18:22 19:11 20:1287 21:10 22:300 23:352 24:1478 #
-3.5144641041269254488028993092807e-08 1:24 2:102 3:59 4:0 5:94 6:92 7:70 8:0 9:0 10:77 11:50 12:0 13:124 14:1952 15:54 16:156 17:153 18:532 19:62 20:105 21:17 22:104 23:59 24:0 #
-3.5144641041269254488028993092807e-08 1:0 2:97 3:16 4:0 5:419 6:127 7:8 8:0 9:104 10:234 11:48 12:153 13:0 14:210 15:22 16:85 17:0 18:220 19:34 20:99 21:0 22:171 23:26 24:51 #
-3.5144641041269254488028993092807e-08 1:0 2:33 3:8 4:0 5:0 6:1762 7:1244 8:1 9:2 10:20 11:11 12:2 13:6 14:50 15:16 16:250 17:2 18:70 19:10 20:55 21:4 22:18 23:8 24:0 #
-3.5144641041269254488028993092807e-08 1:6 2:166 3:118 4:1 5:7 6:1253 7:127 8:0 9:0 10:1070 11:117 12:0 13:0 14:540 15:109 16:0 17:7049 18:178 19:117 20:1 21:1 22:199 23:118 24:0 #
3.5144641041269254488028993092807e-08 1:29 2:1617 3:1232 4:3 5:0 6:119 7:56 8:0 9:0 10:114 11:60 12:0 13:0 14:122 15:59 16:0 17:3815 18:127 19:65 20:0 21:17 22:3453 23:75 24:2 #
-3.5144641041269254488028993092807e-08 1:121 2:72 3:9 4:0 5:2 6:63 7:11 8:0 9:1 10:717 11:1167 12:2 13:5 14:721 15:982 16:0 17:2 18:47 19:19 20:0 21:0 22:13 23:2 24:674 #
-1.0586758477903946043452220815775e-08 1:7049 2:178 3:117 4:1 5:1 6:199 7:118 8:0 9:6 10:160 11:116 12:0 13:0 14:324 15:118 16:0 17:0 18:159 19:105 20:0 21:0 22:232 23:103 24:0 #
-3.5144641041269254488028993092807e-08 1:108 2:482 3:69 4:0 5:96 6:472 7:65 8:0 9:31 10:324 11:62 12:0 13:208 14:695 15:65 16:1 17:7084 18:1627 19:78 20:0 21:45 22:166 23:64 24:0 #
3.5144641041269254488028993092807e-08 1:494 2:98 3:55 4:0 5:392 6:144 7:83 8:0 9:2 10:91 11:65 12:0 13:279 14:63 15:98 16:0 17:3446 18:99 19:104 20:0 21:191 22:133 23:121 24:0 #
-3.5144641041269254488028993092807e-08 1:0 2:36 3:7 4:0 5:0 6:39 7:16 8:0 9:0 10:42 11:16 12:0 13:0 14:50 15:15 16:0 17:0 18:44 19:19 20:0 21:20 22:2213 23:1865 24:0 #
3.5144641041269254488028993092807e-08 1:35 2:1362 3:63 4:0 5:29 6:395 7:70 8:0 9:0 10:166 11:78 12:3 13:18 14:234 15:69 16:186 17:409 18:224 19:69 20:1 21:3071 22:186 23:65 24:0 #
-3.5144641041269254488028993092807e-08 1:0 2:210 3:22 4:85 5:0 6:220 7:34 8:99 9:0 10:171 11:26 12:51 13:4 14:132 15:27 16:0 17:3592 18:195 19:800 20:3463 21:0 22:124 23:507 24:0 #
-1.0115659959871020231106641127164e-08 1:0 2:159 3:524 4:0 5:143 6:1262 7:580 8:13939 9:816 10:217 11:20 12:110 13:73 14:139 15:50 16:12 17:5 18:121 19:24 20:2 21:0 22:164 23:11 24:0 #
-3.5144641041269254488028993092807e-08 1:0 2:0 3:3 4:0 5:22 6:436 7:149 8:9 9:34 10:22 11:11 12:1287 13:10 14:300 15:352 16:1478 17:50 18:106 19:55 20:0 21:101 22:583 23:60 24:0 #
3.5144641041269254488028993092807e-08 1:1 2:34 3:15 4:0 5:6 6:69 7:30 8:0 9:2 10:68 11:29 12:0 13:7063 14:60 15:9 16:0 17:0 18:53 19:20 20:0 21:0 22:52 23:15 24:3 #
3.5144641041269254488028993092807e-08 1:0 2:2448 3:0 4:0 5:0 6:1343 7:0 8:3 9:0 10:4866 11:0 12:0 13:0 14:156 15:0 16:9 17:0 18:109 19:0 20:1 21:0 22:116 23:0 24:8 #
3.5144641041269254488028993092807e-08 1:0 2:48 3:5 4:0 5:2 6:25 7:10 8:0 9:0 10:55 11:12 12:1 13:0 14:33 15:8 16:0 17:0 18:1762 19:1244 20:1 21:2 22:20 23:11 24:2 #
3.5144641041269254488028993092807e-08 1:5476 2:45 3:8 4:0 5:6 6:93 7:18 8:0 9:31 10:130 11:21 12:0 13:166 14:109 15:24 16:0 17:25 18:162 19:24 20:2 21:163 22:96 23:22 24:0 #
3.5144641041269254488028993092807e-08 1:31 2:1 3:125 4:0 5:77 6:0 7:25 8:455 9:39 10:1018 11:960 12:612 13:976 14:164 15:33 16:0 17:1442 18:91 19:8 20:0 21:395 22:57 23:9 24:31 #
3.5144641041269254488028993092807e-08 1:77 2:0 3:25 4:455 5:39 6:1018 7:960 8:612 9:976 10:164 11:33 12:0 13:1442 14:91 15:8 16:0 17:395 18:57 19:9 20:31 21:4 22:147 23:11 24:45 #
3.5144641041269254488028993092807e-08 1:380 2:91 3:112 4:0 5:0 6:76 7:116 8:0 9:155 10:96 11:123 12:0 13:49 14:89 15:109 16:0 17:1751 18:129 19:126 20:0 21:5232 22:94 23:119 24:0 #
3.5144641041269254488028993092807e-08 1:17 2:3453 3:75 4:2 5:20 6:1178 7:136 8:2 9:0 10:116 11:59 12:0 13:0 14:763 15:61 16:0 17:11 18:121 19:69 20:1 21:3103 22:4445 23:72 24:0 #
3.5144641041269254488028993092807e-08 1:96 2:472 3:65 4:0 5:31 6:324 7:62 8:0 9:208 10:695 11:65 12:1 13:7084 14:1627 15:78 16:0 17:45 18:166 19:64 20:0 21:9 22:149 23:68 24:0 #
3.5144641041269254488028993092807e-08 1:111 2:98 3:75 4:0 5:2 6:127 7:60 8:0 9:13 10:95 11:56 12:0 13:37 14:70 15:63 16:1 17:27 18:76 19:82 20:0 21:5455 22:74 23:55 24:0 #
1.8267648849883810830889110292732e-08 1:0 2:171 3:26 4:51 5:4 6:132 7:27 8:0 9:3592 10:195 11:800 12:3463 13:0 14:124 15:507 16:0 17:0 18:159 19:524 20:0 21:143 22:1262 23:580 24:13939 #
3.5144641041269254488028993092807e-08 1:593 2:174 3:69 4:0 5:517 6:173 7:26 8:0 9:179 10:214 11:31 12:0 13:1270 14:140 15:19 16:0 17:0 18:97 19:16 20:0 21:419 22:127 23:8 24:0 #
3.5144641041269254488028993092807e-08 1:0 2:78 3:13 4:23 5:0 6:28 7:10 8:0 9:0 10:547 11:921 12:0 13:737 14:601 15:981 16:1 17:4 18:279 19:31 20:0 21:0 22:58 23:15 24:0 #
3.5144641041269254488028993092807e-08 1:1 2:24 3:6 4:1 5:0 6:11 7:5 8:0 9:6 10:686 11:584 12:0 13:17 14:914 15:782 16:0 17:3 18:700 19:102 20:1 21:6 22:213 23:44 24:0 #
3.5144641041269254488028993092807e-08 1:1 2:100 3:58 4:0 5:5153 6:150 7:70 8:0 9:21 10:147 11:83 12:0 13:37 14:135 15:62 16:0 17:172 18:162 19:66 20:0 21:2 22:787 23:61 24:0 #
3.5144641041269254488028993092807e-08 1:0 2:48 3:20 4:0 5:3460 6:63 7:5 8:0 9:2652 10:126 11:14 12:0 13:1 14:51 15:15 16:0 17:0 18:102 19:53 20:0 21:0 22:58 23:14 24:0 #
-1.4995656951675187312394515632709e-10 1:7195 2:175 3:79 4:0 5:597 6:160 7:56 8:0 9:7061 10:148 11:70 12:0 13:427 14:109 15:67 16:0 17:1099 18:119 19:62 20:0 21:494 22:98 23:55 24:0 #
3.5144641041269254488028993092807e-08 1:0 2:19 3:0 4:0 5:0 6:32 7:0 8:0 9:0 10:868 11:0 12:0 13:0 14:2448 15:0 16:0 17:0 18:1343 19:0 20:3 21:0 22:4866 23:0 24:0 #
3.5144641041269254488028993092807e-08 1:5295 2:40 3:4 4:0 5:12 6:70 7:12 8:0 9:1 10:80 11:10 12:0 13:1 14:24 15:9 16:0 17:195 18:122 19:23 20:191 21:5 22:103 23:12 24:0 #
3.5144641041269254488028993092807e-08 1:0 2:32 3:0 4:0 5:0 6:868 7:0 8:0 9:0 10:2448 11:0 12:0 13:0 14:1343 15:0 16:3 17:0 18:4866 19:0 20:0 21:0 22:156 23:0 24:9 #
3.5144641041269254488028993092807e-08 1:0 2:1343 3:0 4:3 5:0 6:4866 7:0 8:0 9:0 10:156 11:0 12:9 13:0 14:109 15:0 16:1 17:0 18:116 19:0 20:8 21:0 22:123 23:0 24:5 #
3.5144641041269254488028993092807e-08 1:16 2:625 3:227 4:16 5:10 6:744 7:738 8:1 9:18 10:751 11:629 12:1 13:446 14:104 15:108 16:0 17:7 18:265 19:140 20:0 21:24 22:274 23:167 24:1 #
-3.4390895654137978325939748640641e-08 1:0 2:81 3:117 4:5 5:443 6:124 7:116 8:5 9:9460 10:119 11:122 12:2 13:7341 14:92 15:123 16:0 17:380 18:91 19:112 20:0 21:0 22:76 23:116 24:0 #
3.5144641041269254488028993092807e-08 1:2 2:25 3:10 4:0 5:0 6:55 7:12 8:1 9:0 10:33 11:8 12:0 13:0 14:1762 15:1244 16:1 17:2 18:20 19:11 20:2 21:6 22:50 23:16 24:250 #
-2.5271094614692774605262766060565e-08 1:80 2:106 3:75 4:0 5:255 6:72 7:58 8:0 9:81 10:97 11:73 12:0 13:75 14:126 15:74 16:0 17:3 18:113 19:66 20:0 21:84 22:90 23:64 24:0 #
-3.5144641041269254488028993092807e-08 1:4 2:144 3:110 4:0 5:7117 6:124 7:128 8:0 9:18 10:94 11:105 12:0 13:1 14:117 15:109 16:1 17:439 18:117 19:110 20:17 21:2 22:85 23:109 24:0 #
-3.5144641041269254488028993092807e-08 1:104 2:234 3:48 4:153 5:0 6:210 7:22 8:85 9:0 10:220 11:34 12:99 13:0 14:171 15:26 16:51 17:4 18:132 19:27 20:0 21:3592 22:195 23:800 24:3463 #
3.5144641041269254488028993092807e-08 1:0 2:30 3:11 4:0 5:5836 6:25 7:6 8:0 9:4 10:46 11:8 12:0 13:10 14:53 15:7 16:0 17:10 18:60 19:20 20:0 21:9 22:50 23:17 24:0 #
-3.5144641041269254488028993092807e-08 1:392 2:144 3:83 4:0 5:2 6:91 7:65 8:0 9:279 10:63 11:98 12:0 13:3446 14:99 15:104 16:0 17:191 18:133 19:121 20:0 21:88 22:116 23:116 24:25 #
-3.5144641041269254488028993092807e-08 1:235 2:235 3:63 4:0 5:76 6:293 7:99 8:21 9:142 10:340 11:101 12:31 13:199 14:323 15:131 16:51 17:34 18:295 19:106 20:29 21:7193 22:361 23:57 24:0 #
-3.5144641041269254488028993092807e-08 1:443 2:124 3:116 4:5 5:9460 6:119 7:122 8:2 9:7341 10:92 11:123 12:0 13:380 14:91 15:112 16:0 17:0 18:76 19:116 20:0 21:155 22:96 23:123 24:0 #
3.5144641041269254488028993092807e-08 1:0 2:190 3:0 4:0 5:0 6:152 7:0 8:0 9:0 10:611 11:0 12:0 13:0 14:524 15:0 16:0 17:0 18:3664 19:0 20:0 21:0 22:158 23:0 24:0 #
-3.5144641041269254488028993092807e-08 1:0 2:169 3:0 4:4 5:0 6:7183 7:0 8:2 9:0 10:159 11:0 12:7 13:0 14:106 15:0 16:0 17:0 18:49 19:0 20:0 21:0 22:11 23:0 24:0 #
-3.5144641041269254488028993092807e-08 1:18 2:751 3:629 4:1 5:446 6:104 7:108 8:0 9:7 10:265 11:140 12:0 13:24 14:274 15:167 16:1 17:1800 18:104 19:154 20:2 21:483 22:148 23:119 24:0 #
3.5144641041269254488028993092807e-08 1:16 2:22 3:9 4:0 5:31 6:1 7:125 8:0 9:77 10:0 11:25 12:455 13:39 14:1018 15:960 16:612 17:976 18:164 19:33 20:0 21:1442 22:91 23:8 24:0 #
-3.5144641041269254488028993092807e-08 1:6 2:160 3:116 4:0 5:0 6:324 7:118 8:0 9:0 10:159 11:105 12:0 13:0 14:232 15:103 16:0 17:0 18:145 19:113 20:0 21:0 22:170 23:110 24:2 #
3.5144641041269254488028993092807e-08 1:0 2:1869 3:0 4:0 5:0 6:854 7:0 8:0 9:0 10:34 11:0 12:0 13:0 14:137 15:0 16:0 17:0 18:442 19:0 20:0 21:0 22:229 23:1 24:0 #
-5.101450913917982452300096951614e-09 1:17 2:97 3:109 4:0 5:2 6:88 7:108 8:0 9:65 10:107 11:120 12:0 13:0 14:90 15:113 16:0 17:76 18:120 19:123 20:0 21:0 22:123 23:110 24:0 #
-3.5144641041269254488028993092807e-08 1:5 2:721 3:982 4:0 5:2 6:47 7:19 8:0 9:0 10:13 11:2 12:674 13:0 14:0 15:2 16:0 17:0 18:0 19:4 20:0 21:20 22:96 23:10 24:5 #
-3.5144641041269254488028993092807e-08 1:24 2:274 3:167 4:1 5:1800 6:104 7:154 8:2 9:483 10:148 11:119 12:0 13:18 14:53 15:104 16:0 17:136 18:102 19:106 20:0 21:53 22:72 23:112 24:0 #
3.5144641041269254488028993092807e-08 1:0 2:34 3:8 4:0 5:1 6:1212 7:1113 8:1 9:12 10:29 11:8 12:0 13:0 14:45 15:24 16:0 17:0 18:82 19:97 20:0 21:0 22:155 23:71 24:2 #
3.5144641041269254488028993092807e-08 1:0 2:50 3:103 4:0 5:16 6:625 7:227 8:16 9:10 10:744 11:738 12:1 13:18 14:751 15:629 16:1 17:446 18:104 19:108 20:0 21:7 22:265 23:140 24:0 #
3.5144641041269254488028993092807e-08 1:0 2:123 3:0 4:5 5:0 6:93 7:0 8:5 9:0 10:124 11:0 12:0 13:0 14:155 15:0 16:0 17:0 18:169 19:0 20:4 21:0 22:7183 23:0 24:2 #
3.5144641041269254488028993092807e-08 1:0 2:547 3:921 4:0 5:737 6:601 7:981 8:1 9:4 10:279 11:31 12:0 13:0 14:58 15:15 16:0 17:8 18:42 19:4 20:29 21:629 22:64 23:15 24:0 #
-3.5144641041269254488028993092807e-08 1:2652 2:126 3:14 4:0 5:1 6:51 7:15 8:0 9:0 10:102 11:53 12:0 13:0 14:58 15:14 16:0 17:0 18:61 19:18 20:156 21:0 22:68 23:19 24:0 #
3.5144641041269254488028993092807e-08 1:4 2:43 3:4 4:0 5:121 6:72 7:9 8:0 9:2 10:63 11:11 12:0 13:1 14:717 15:1167 16:2 17:5 18:721 19:982 20:0 21:2 22:47 23:19 24:0 #
-3.5144641041269254488028993092807e-08 1:7 2:1253 3:127 4:0 5:0 6:1070 7:117 8:0 9:0 10:540 11:109 12:0 13:7049 14:178 15:117 16:1 17:1 18:199 19:118 20:0 21:6 22:160 23:116 24:0 #
3.5144641041269254488028993092807e-08 1:1189 2:187 3:63 4:0 5:0 6:405 7:69 8:0 9:235 10:235 11:63 12:0 13:76 14:293 15:99 16:21 17:142 18:340 19:101 20:31 21:199 22:323 23:131 24:51 #
3.5144641041269254488028993092807e-08 1:517 2:173 3:26 4:0 5:179 6:214 7:31 8:0 9:1270 10:140 11:19 12:0 13:0 14:97 15:16 16:0 17:419 18:127 19:8 20:0 21:104 22:234 23:48 24:153 #
-5.9797481082485776203579944804156e-09 1:0 2:100 3:70 4:1 5:0 6:108 7:75 8:0 9:0 10:116 11:72 12:0 13:0 14:53 15:54 16:0 17:0 18:33 19:13710 20:1380 21:29 22:1617 23:1232 24:3 #
-3.5144641041269254488028993092807e-08 1:8 2:1602 3:1286 4:0 5:47 6:35 7:2 8:1 9:8 10:160 11:50 12:0 13:16 14:126 15:21 16:0 17:15 18:133 19:22 20:0 21:80 22:106 23:75 24:0 #
-3.5144641041269254488028993092807e-08 1:10 2:53 3:7 4:0 5:10 6:60 7:20 8:0 9:9 10:50 11:17 12:0 13:2 14:26 15:11 16:28 17:4 18:69 19:16 20:0 21:0 22:78 23:13 24:23 #
-3.5144641041269254488028993092807e-08 1:0 2:4 3:6 4:0 5:0 6:124 7:52 8:0 9:16 10:22 11:9 12:0 13:31 14:1 15:125 16:0 17:77 18:0 19:25 20:455 21:39 22:1018 23:960 24:612 #
-3.5144641041269254488028993092807e-08 1:0 2:75 3:21 4:0 5:0 6:103 7:17 8:0 9:0 10:90 11:24 12:0 13:0 14:62 15:18 16:0 17:71 18:27 19:13 20:0 21:26 22:1397 23:1631 24:2 #
3.5144641041269254488028993092807e-08 1:8 2:64 3:21 4:0 5:2 6:74 7:13 8:0 9:9 10:47 11:22 12:0 13:841 14:67 15:24 16:0 17:834 18:62 19:13 20:0 21:0 22:79 23:16 24:0 #
-3.5144641041269254488028993092807e-08 1:0 2:45 3:5 4:0 5:3 6:62 7:15 8:0 9:2 10:62 11:8 12:0 13:1 14:77 15:22 16:0 17:0 18:90 19:43 20:298 21:6 22:106 23:34 24:0 #
3.5144641041269254488028993092807e-08 1:0 2:145 3:74 4:0 5:7 6:193 7:585 8:0 9:5 10:1489 11:770 12:0 13:27 14:98 15:59 16:0 17:48 18:113 19:87 20:0 21:6 22:105 23:71 24:0 #
3.5144641041269254488028993092807e-08 1:0 2:89 3:55 4:0 5:1 6:99 7:52 8:0 9:4 10:127 11:66 12:0 13:2 14:96 15:56 16:0 17:23 18:1122 19:1081 20:1 21:132 22:246 23:222 24:6 #
-3.5144641041269254488028993092807e-08 1:0 2:91 3:20 4:0 5:21 6:86 7:17 8:0 9:88 10:65 11:16 12:391 13:3 14:62 15:27 16:0 17:111 18:37 19:18 20:394 21:4 22:86 23:30 24:103 #
3.5144641041269254488028993092807e-08 1:111 2:97 3:18 4:0 5:0 6:79 7:11 8:0 9:0 10:61 11:15 12:0 13:0 14:81 15:18 16:0 17:0 18:1199 19:1054 20:0 21:1 22:155 23:164 24:0 #
-3.5144641041269254488028993092807e-08 1:10 2:300 3:352 4:1478 5:50 6:106 7:55 8:0 9:101 10:583 11:60 12:0 13:0 14:511 15:67 16:0 17:0 18:240 19:72 20:0 21:0 22:1717 23:72 24:0 #
3.5144641041269254488028993092807e-08 1:605 2:156 3:64 4:1 5:389 6:200 7:72 8:0 9:121 10:206 11:63 12:0 13:108 14:482 15:69 16:0 17:96 18:472 19:65 20:0 21:31 22:324 23:62 24:0 #
-3.5144641041269254488028993092807e-08 1:63 2:79 3:16 4:0 5:3 6:30 7:13 8:0 9:10 10:43 11:15 12:0 13:13 14:95 15:64 16:4 17:11 18:61 19:101 20:2 21:10 22:1130 23:1414 24:3 #
-3.5144641041269254488028993092807e-08 1:9460 2:119 3:122 4:2 5:7341 6:92 7:123 8:0 9:380 10:91 11:112 12:0 13:0 14:76 15:116 16:0 17:155 18:96 19:123 20:0 21:49 22:89 23:109 24:0 #
-6.4697177172226170635549458154401e-09 1:0 2:190 3:0 4:0 5:0 6:7219 7:0 8:0 9:0 10:262 11:0 12:0 13:0 14:185 15:0 16:0 17:0 18:92 19:0 20:0 21:0 22:75 23:0 24:0 #
-3.5144641041269254488028993092807e-08 1:0 2:111 3:0 4:0 5:0 6:412 7:0 8:0 9:0 10:84 11:0 12:0 13:0 14:83 15:0 16:0 17:0 18:64 19:0 20:188 21:0 22:41 23:0 24:0 #
3.5144641041269254488028993092807e-08 1:0 2:511 3:67 4:0 5:0 6:240 7:72 8:0 9:0 10:1717 11:72 12:0 13:0 14:949 15:58 16:0 17:0 18:1375 19:54 20:0 21:0 22:108 23:67 24:0 #
3.5144641041269254488028993092807e-08 1:179 2:214 3:31 4:0 5:1270 6:140 7:19 8:0 9:0 10:97 11:16 12:0 13:419 14:127 15:8 16:0 17:104 18:234 19:48 20:153 21:0 22:210 23:22 24:85 #
3.5144641041269254488028993092807e-08 1:132 2:246 3:222 4:6 5:362 6:129 7:55 8:9 9:24 10:102 11:59 12:0 13:94 14:92 15:70 16:0 17:0 18:77 19:50 20:0 21:124 22:1952 23:54 24:156 #
3.5144641041269254488028993092807e-08 1:7 2:24 3:15 4:1 5:1 6:13 7:7 8:0 9:1 10:24 11:6 12:1 13:0 14:11 15:5 16:0 17:6 18:686 19:584 20:0 21:17 22:914 23:782 24:0 #
3.5144641041269254488028993092807e-08 1:0 2:77 3:50 4:0 5:124 6:1952 7:54 8:156 9:153 10:532 11:62 12:105 13:17 14:104 15:59 16:0 17:0 18:319 19:65 20:0 21:2 22:926 23:61 24:0 #
-3.514464084335960931536769341621e-08 1:0 2:324 3:118 4:0 5:0 6:159 7:105 8:0 9:0 10:232 11:103 12:0 13:0 14:145 15:113 16:0 17:0 18:170 19:110 20:2 21:0 22:197 23:120 24:0 #
-3.5144641041269254488028993092807e-08 1:5836 2:25 3:6 4:0 5:4 6:46 7:8 8:0 9:10 10:53 11:7 12:0 13:10 14:60 15:20 16:0 17:9 18:50 19:17 20:0 21:2 22:26 23:11 24:28 #
-3.5144641041269254488028993092807e-08 1:0 2:11 3:0 4:0 5:0 6:111 7:0 8:0 9:0 10:412 11:0 12:0 13:0 14:84 15:0 16:0 17:0 18:83 19:0 20:0 21:0 22:64 23:0 24:188 #
-3.5144641041269254488028993092807e-08 1:3 2:62 3:15 4:0 5:2 6:62 7:8 8:0 9:1 10:77 11:22 12:0 13:0 14:90 15:43 16:298 17:6 18:106 19:34 20:0 21:0 22:68 23:30 24:0 #
3.5144641041269254488028993092807e-08 1:0 2:54 3:14 4:0 5:0 6:34 7:8 8:0 9:1 10:1212 11:1113 12:1 13:12 14:29 15:8 16:0 17:0 18:45 19:24 20:0 21:0 22:82 23:97 24:0 #
-3.5144641041269254488028993092807e-08 1:9 2:149 3:68 4:0 5:0 6:7029 7:68 8:19 9:0 10:139 11:71 12:0 13:0 14:102 15:61 16:0 17:3 18:169 19:71 20:0 21:0 22:229 23:65 24:0 #
-9.9631058113792542780010416279476e-10 1:13 2:95 3:64 4:4 5:11 6:61 7:101 8:2 9:10 10:1130 11:1414 12:3 13:17 14:41 15:32 16:0 17:1675 18:152 19:36 20:0 21:0 22:31 23:10 24:0 #
-3.5144641041269254488028993092807e-08 1:1 2:1212 3:1113 4:1 5:12 6:29 7:8 8:0 9:0 10:45 11:24 12:0 13:0 14:82 15:97 16:0 17:0 18:155 19:71 20:2 21:333 22:388 23:55 24:120 #
-3.5144641041269254488028993092807e-08 1:513 2:13843 3:114 4:0 5:0 6:95 7:113 8:0 9:0 10:93 11:115 12:0 13:2 14:107 15:113 16:0 17:221 18:941 19:53 20:0 21:138 22:73 23:668 24:0 #
3.5144641041269254488028993092807e-08 1:1270 2:140 3:19 4:0 5:0 6:97 7:16 8:0 9:419 10:127 11:8 12:0 13:104 14:234 15:48 16:153 17:0 18:210 19:22 20:85 21:0 22:220 23:34 24:99 #
-3.5144641041269254488028993092807e-08 1:15 2:1041 3:1230 4:4 5:11 6:326 7:74 8:0 9:84 10:109 11:67 12:0 13:28 14:118 15:64 16:0 17:5 18:139 19:64 20:0 21:96 22:152 23:118 24:0 #
-3.5144641041269254488028993092807e-08 1:15 2:683 3:951 4:0 5:295 6:70 7:10 8:0 9:8 10:111 11:17 12:0 13:36 14:88 15:28 16:0 17:2 18:83 19:12 20:0 21:229 22:95 23:17 24:0 #
3.5144641041269254488028993092807e-08 1:0 2:102 3:61 4:0 5:3 6:169 7:71 8:0 9:0 10:229 11:65 12:0 13:35 14:1362 15:63 16:0 17:29 18:395 19:70 20:0 21:0 22:166 23:78 24:3 #
3.5144641041269254488028993092807e-08 1:1 2:1736 3:5 4:0 5:0 6:4 7:6 8:0 9:0 10:124 11:52 12:0 13:16 14:22 15:9 16:0 17:31 18:1 19:125 20:0 21:77 22:0 23:25 24:455 #
-3.5144641041269254488028993092807e-08 1:70 2:37 3:6 4:0 5:142 6:43 7:19 8:0 9:410 10:100 11:18 12:1 13:126 14:48 15:12 16:0 17:365 18:19 19:7 20:12 21:80 22:69 23:17 24:20 #
-3.5144641041269254488028993092807e-08 1:737 2:601 3:981 4:1 5:4 6:279 7:31 8:0 9:0 10:58 11:15 12:0 13:8 14:42 15:4 16:29 17:629 18:64 19:15 20:0 21:307 22:80 23:34 24:1 #
3.5144641041269254488028993092807e-08 1:439 2:117 3:110 4:17 5:2 6:85 7:109 8:0 9:16 10:113 11:119 12:0 13:104 14:55 15:106 16:0 17:0 18:50 19:103 20:0 21:16 22:625 23:227 24:16 #
3.5144641041269254488028993092807e-08 1:2 2:85 3:109 4:0 5:16 6:113 7:119 8:0 9:104 10:55 11:106 12:0 13:0 14:50 15:103 16:0 17:16 18:625 19:227 20:16 21:10 22:744 23:738 24:1 #
3.5144641041269254488028993092807e-08 1:1 2:199 3:118 4:0 5:6 6:160 7:116 8:0 9:0 10:324 11:118 12:0 13:0 14:159 15:105 16:0 17:0 18:232 19:103 20:0 21:0 22:145 23:113 24:0 #
-3.5144641041269254488028993092807e-08 1:15 2:909 3:758 4:3 5:115 6:70 7:32 8:0 9:0 10:66 11:10 12:0 13:0 14:59 15:9 16:0 17:7 18:52 19:8 20:0 21:5 22:54 23:6 24:0 #
3.5144641041269254488028993092807e-08 1:0 2:220 3:34 4:99 5:0 6:171 7:26 8:51 9:4 10:132 11:27 12:0 13:3592 14:195 15:800 16:3463 17:0 18:124 19:507 20:0 21:0 22:159 23:524 24:0 #
-1.9859779526212772613434631718832e-08 1:0 2:240 3:0 4:0 5:0 6:1744 7:0 8:0 9:0 10:199 11:0 12:0 13:0 14:50 15:0 16:0 17:0 18:17 19:0 20:0 21:0 22:17 23:0 24:0 #
-3.5144641041269254488028993092807e-08 1:3 2:107 3:20 4:0 5:3 6:91 7:15 8:0 9:4 10:43 11:4 12:0 13:121 14:72 15:9 16:0 17:2 18:63 19:11 20:0 21:1 22:717 23:1167 24:2 #
3.5144641041269254488028993092807e-08 1:23 2:1122 3:1081 4:1 5:132 6:246 7:222 8:6 9:362 10:129 11:55 12:9 13:24 14:102 15:59 16:0 17:94 18:92 19:70 20:0 21:0 22:77 23:50 24:0 #
3.5144641041269254488028993092807e-08 1:0 2:100 3:105 4:0 5:0 6:102 7:106 8:0 9:0 10:100 11:101 12:0 13:7 14:141 15:109 16:4 17:14 18:138 19:38 20:0 21:10 22:2851 23:667 24:11 #
3.5144641041269254488028993092807e-08 1:0 2:139 3:71 4:0 5:0 6:102 7:61 8:0 9:3 10:169 11:71 12:0 13:0 14:229 15:65 16:0 17:35 18:1362 19:63 20:0 21:29 22:395 23:70 24:0 #
3.5144641041269254488028993092807e-08 1:0 2:25 3:0 4:0 5:0 6:77 7:0 8:3 9:0 10:19 11:0 12:0 13:0 14:32 15:0 16:0 17:0 18:868 19:0 20:0 21:0 22:2448 23:0 24:0 #
3.5144641041269254488028993092807e-08 1:20 2:2213 3:1865 4:0 5:3 6:14 7:3 8:0 9:2 10:74 11:18 12:0 13:59 14:76 15:9 16:0 17:0 18:40 19:12 20:0 21:0 22:52 23:14 24:0 #
3.5144641041269254488028993092807e-08 1:2 2:128 3:35 4:0 5:2 6:104 7:26 8:0 9:3 10:83 11:20 12:0 13:2 14:89 15:35 16:0 17:0 18:69 19:20 20:0 21:0 22:71 23:12 24:0 #
-4.54683366410651816635901667496e-10 1:0 2:0 3:0 4:0 5:0 6:33 7:0 8:0 9:0 10:470 11:0 12:0 13:0 14:0 15:0 16:0 17:0 18:0 19:0 20:0 21:0 22:278 23:20 24:0 #
-3.27238593195108453161823347413e-09 1:143 2:1262 3:580 4:13939 5:816 6:217 7:20 8:110 9:73 10:139 11:50 12:12 13:5 14:121 15:24 16:2 17:0 18:164 19:11 20:0 21:0 22:114 23:20 24:0 #
3.5144641041269254488028993092807e-08 1:252 2:163 3:29 4:0 5:14 6:80 7:18 8:0 9:41 10:61 11:16 12:0 13:4 14:81 15:15 16:0 17:107 18:147 19:30 20:0 21:511 22:155 23:14 24:1 #
-2.4702052894952229997519149023999e-08 1:0 2:176 3:0 4:0 5:0 6:1869 7:0 8:0 9:0 10:854 11:0 12:0 13:0 14:34 15:0 16:0 17:0 18:137 19:0 20:0 21:0 22:442 23:0 24:0 #
3.5144641041269254488028993092807e-08 1:1 2:117 3:109 4:1 5:439 6:117 7:110 8:17 9:2 10:85 11:109 12:0 13:16 14:113 15:119 16:0 17:104 18:55 19:106 20:0 21:0 22:50 23:103 24:0 #
-1.3977931649311636884052892490157e-08 1:0 2:44 3:12 4:0 5:0 6:66 7:22 8:0 9:0 10:55 11:10 12:0 13:0 14:32 15:7 16:0 17:0 18:36 19:7 20:0 21:0 22:39 23:16 24:0 #
3.5144641041269254488028993092807e-08 1:419 2:127 3:8 4:0 5:104 6:234 7:48 8:153 9:0 10:210 11:22 12:85 13:0 14:220 15:34 16:99 17:0 18:171 19:26 20:51 21:4 22:132 23:27 24:0 #
3.5144641041269254488028993092807e-08 1:0 2:35 3:3 4:4 5:112 6:26 7:6 8:0 9:70 10:37 11:6 12:0 13:142 14:43 15:19 16:0 17:410 18:100 19:18 20:1 21:126 22:48 23:12 24:0 #
3.5144641041269254488028993092807e-08 1:19 2:96 3:6 4:0 5:6 6:109 7:19 8:0 9:38 10:102 11:16 12:0 13:0 14:136 15:19 16:0 17:2 18:0 19:5 20:1 21:8 22:1602 23:1286 24:0 #
-3.5144641041269254488028993092807e-08 1:31 2:324 3:62 4:0 5:208 6:695 7:65 8:1 9:7084 10:1627 11:78 12:0 13:45 14:166 15:64 16:0 17:9 18:149 19:68 20:0 21:0 22:7029 23:68 24:19 #
-3.5144641041269254488028993092807e-08 1:2 2:143 3:99 4:0 5:2 6:57 7:52 8:0 9:0 10:0 11:0 12:0 13:0 14:0 15:0 16:0 17:0 18:0 19:0 20:0 21:0 22:0 23:0 24:0 #
3.5144641041269254488028993092807e-08 1:3 2:169 3:71 4:0 5:0 6:229 7:65 8:0 9:35 10:1362 11:63 12:0 13:29 14:395 15:70 16:0 17:0 18:166 19:78 20:3 21:18 22:234 23:69 24:186 #
-3.5144641041269254488028993092807e-08 1:3 2:32 3:20 4:0 5:7 6:24 7:15 8:1 9:1 10:13 11:7 12:0 13:1 14:24 15:6 16:1 17:0 18:11 19:5 20:0 21:6 22:686 23:584 24:0 #
3.5144641041269254488028993092807e-08 1:1 2:210 3:20 4:0 5:0 6:239 7:9 8:0 9:0 10:242 11:30 12:0 13:0 14:194 15:11 16:0 17:0 18:320 19:65 20:0 21:13 22:243 23:75 24:0 #
-3.5144641041269254488028993092807e-08 1:17 2:914 3:782 4:0 5:3 6:700 7:102 8:1 9:6 10:213 11:44 12:0 13:0 14:35 15:3 16:4 17:112 18:26 19:6 20:0 21:70 22:37 23:6 24:0 #
3.5144641041269254488028993092807e-08 1:0 2:53 3:56 4:2 5:240 6:90 7:80 8:0 9:0 10:45 11:62 12:0 13:56 14:53 15:67 16:0 17:221 18:67 19:67 20:0 21:60 22:54 23:76 24:1 #
3.5144641041269254488028993092807e-08 1:112 2:26 3:6 4:0 5:70 6:37 7:6 8:0 9:142 10:43 11:19 12:0 13:410 14:100 15:18 16:1 17:126 18:48 19:12 20:0 21:365 22:19 23:7 24:12 #
-3.5144641041269254488028993092807e-08 1:96 2:152 3:118 4:0 5:105 6:129 7:62 8:0 9:215 10:150 11:74 12:0 13:28 14:105 15:70 16:0 17:0 18:141 19:68 20:0 21:1027 22:153 23:68 24:0 #
3.5144641041269254488028993092807e-08 1:0 2:1411 3:1223 4:0 5:466 6:464 7:12 8:6 9:0 10:60 11:13 12:0 13:79 14:221 15:19 16:0 17:44 18:143 19:17 20:0 21:3 22:133 23:20 24:0 #
-3.5144641041269254488028993092807e-08 1:138 2:73 3:668 4:0 5:82 6:102 7:75 8:0 9:1 10:85 11:93 12:0 13:17 14:97 15:109 16:0 17:2 18:88 19:108 20:0 21:65 22:107 23:120 24:0 #
-3.0050656653078156900493755898651e-09 1:12 2:168 3:68 4:0 5:3 6:190 7:63 8:0 9:7056 10:159 11:57 12:4 13:5407 14:98 15:60 16:1 17:0 18:106 19:64 20:0 21:0 22:122 23:66 24:0 #
-3.5144641041269254488028993092807e-08 1:12 2:70 3:12 4:0 5:1 6:80 7:10 8:0 9:1 10:24 11:9 12:0 13:195 14:122 15:23 16:191 17:5 18:103 19:12 20:0 21:3 22:108 23:5 24:3 #
3.5144641041269254488028993092807e-08 1:0 2:85 3:15 4:0 5:0 6:74 7:26 8:0 9:0 10:141 11:21 12:0 13:348 14:175 15:29 16:0 17:0 18:181 19:31 20:0 21:0 22:105 23:21 24:0 #
-3.5144641041269254488028993092807e-08 1:0 2:119 3:0 4:0 5:0 6:7136 7:0 8:0 9:0 10:20 11:0 12:0 13:0 14:45 15:0 16:0 17:0 18:186 19:0 20:0 21:0 22:8 23:0 24:0 #
-3.5144641041269254488028993092807e-08 1:2 2:38 3:10 4:0 5:4 6:37 7:18 8:0 9:1 10:29 11:17 12:0 13:12 14:59 15:16 16:56 17:37 18:104 19:67 20:1 21:2 22:88 23:57 24:1 #
3.5144641041269254488028993092807e-08 1:0 2:194 3:11 4:0 5:0 6:320 7:65 8:0 9:13 10:243 11:75 12:0 13:8 14:190 15:53 16:2 17:12 18:168 19:68 20:0 21:3 22:190 23:63 24:0 #
-3.5144641041269254488028993092807e-08 1:0 2:127 3:108 4:0 5:1 6:120 7:103 8:0 9:2 10:143 11:99 12:0 13:2 14:57 15:52 16:0 17:0 18:0 19:0 20:0 21:0 22:0 23:0 24:0 #
3.5144641041269254488028993092807e-08 1:3 2:700 3:102 4:1 5:6 6:213 7:44 8:0 9:0 10:35 11:3 12:4 13:112 14:26 15:6 16:0 17:70 18:37 19:6 20:0 21:142 22:43 23:19 24:0 #
-3.5144641041269254488028993092807e-08 1:0 2:1353 3:1056 4:1 5:0 6:266 7:206 8:0 9:2 10:183 11:32 12:0 13:65 14:166 15:35 16:0 17:0 18:56 19:30 20:0 21:0 22:50 23:17 24:0 #
3.5144641041269254488028993092807e-08 1:75 2:126 3:74 4:0 5:3 6:113 7:66 8:0 9:84 10:90 11:64 12:0 13:111 14:98 15:75 16:0 17:2 18:127 19:60 20:0 21:13 22:95 23:56 24:0 #
-3.5144641041269254488028993092807e-08 1:37 2:47 3:22 4:0 5:0 6:95 7:17 8:0 9:1 10:52 11:42 12:0 13:2 14:59 15:47 16:0 17:0 18:69 19:12 20:0 21:0 22:1353 23:1056 24:1 #
3.5144641041269254488028993092807e-08 1:68 2:339 3:9 4:0 5:45 6:83 7:13 8:0 9:107 10:87 11:22 12:0 13:68 14:158 15:20 16:0 17:0 18:131 19:24 20:0 21:0 22:658 23:579 24:2 #
-3.5144641041269254488028993092807e-08 1:0 2:412 3:0 4:0 5:0 6:84 7:0 8:0 9:0 10:83 11:0 12:0 13:0 14:64 15:0 16:188 17:0 18:41 19:0 20:0 21:0 22:19 23:0 24:0 #
3.5144641041269254488028993092807e-08 1:12 2:226 3:102 4:0 5:6 6:49 7:85 8:0 9:1 10:66 11:94 12:0 13:0 14:92 15:117 16:0 17:4 18:112 19:112 20:0 21:0 22:101 23:115 24:0 #
-9.207869819191715494520586362398e-09 1:0 2:524 3:0 4:0 5:0 6:3664 7:0 8:0 9:0 10:158 11:0 12:0 13:0 14:88 15:0 16:4 17:0 18:1154 19:0 20:0 21:0 22:156 23:0 24:0 #
3.5144641041269254488028993092807e-08 1:0 2:100 3:103 4:0 5:0 6:100 7:105 8:0 9:0 10:102 11:106 12:0 13:0 14:100 15:101 16:0 17:7 18:141 19:109 20:4 21:14 22:138 23:38 24:0 #
-3.5144641041269254488028993092807e-08 1:11 2:94 3:21 4:0 5:0 6:45 7:5 8:0 9:3 10:62 11:15 12:0 13:2 14:62 15:8 16:0 17:1 18:77 19:22 20:0 21:0 22:90 23:43 24:298 #
-3.5144641041269254488028993092807e-08 1:0 2:100 3:7 4:0 5:111 6:97 7:18 8:0 9:0 10:79 11:11 12:0 13:0 14:61 15:15 16:0 17:0 18:81 19:18 20:0 21:0 22:1199 23:1054 24:0 #
3.5144641041269254488028993092807e-08 1:144 2:65 3:9 4:0 5:0 6:216 7:12 8:0 9:144 10:152 11:10 12:0 13:33 14:33 15:8 16:0 17:109 18:188 19:57 20:0 21:57 22:139 23:38 24:0 #
-5.2525697643286228637193868706845e-12 1:109 2:188 3:57 4:0 5:57 6:139 7:38 8:0 9:0 10:149 11:21 12:1 13:2 14:117 15:11 16:0 17:2 18:116 19:31 20:0 21:0 22:137 23:22 24:0 #
-3.5144641041269254488028993092807e-08 1:6 2:49 3:85 4:0 5:1 6:66 7:94 8:0 9:0 10:92 11:117 12:0 13:4 14:112 15:112 16:0 17:0 18:101 19:115 20:0 21:15 22:1041 23:1230 24:4 #
3.5144641041269254488028993092807e-08 1:0 2:137 3:0 4:0 5:0 6:442 7:0 8:0 9:0 10:229 11:1 12:0 13:0 14:429 15:0 16:1 17:0 18:175 19:0 20:0 21:0 22:156 23:0 24:0 #
-1.5814202388845274415557495828466e-10 1:0 2:35 3:10 4:1 5:0 6:12 7:7 8:0 9:2 10:14 11:3 12:0 13:9 14:14 15:3 16:0 17:1 18:19 19:8 20:0 21:2 22:14 23:1 24:0 #
-3.3703712823030689861580899702176e-08 1:0 2:12 3:7 4:0 5:2 6:14 7:3 8:0 9:9 10:14 11:3 12:0 13:1 14:19 15:8 16:0 17:2 18:14 19:1 20:0 21:29 22:17 23:7 24:0 #
-3.5144641041269254488028993092807e-08 1:0 2:58 3:52 4:0 5:0 6:83 7:53 8:0 9:0 10:66 11:54 12:0 13:2 14:89 15:63 16:0 17:0 18:145 19:74 20:0 21:7 22:193 23:585 24:0 #
3.5144641041269254488028993092807e-08 1:139 2:67 3:19 4:0 5:68 6:339 7:9 8:0 9:45 10:83 11:13 12:0 13:107 14:87 15:22 16:0 17:68 18:158 19:20 20:0 21:0 22:131 23:24 24:0 #
-3.5144641041269254488028993092807e-08 1:224 2:72 3:17 4:1 5:15 6:75 7:13 8:0 9:32 10:75 11:17 12:0 13:3 14:54 15:11 16:0 17:1 18:62 19:6 20:0 21:0 22:1165 23:879 24:22 #
3.5144641041269254488028993092807e-08 1:133 2:231 3:147 4:0 5:57 6:157 7:117 8:0 9:0 10:59 11:89 12:0 13:0 14:73 15:97 16:0 17:0 18:81 19:108 20:0 21:0 22:83 23:106 24:0 #
3.5144641041269254488028993092807e-08 1:0 2:102 3:103 4:0 5:0 6:100 7:103 8:0 9:0 10:100 11:103 12:0 13:0 14:100 15:105 16:0 17:0 18:102 19:106 20:0 21:0 22:100 23:101 24:0 #
-5.3072940571548354314103130430214e-10 1:18 2:94 3:105 4:0 5:1 6:117 7:109 8:1 9:439 10:117 11:110 12:17 13:2 14:85 15:109 16:0 17:16 18:113 19:119 20:0 21:104 22:55 23:106 24:0 #
3.5144641041269254488028993092807e-08 1:25 2:162 3:24 4:2 5:163 6:96 7:22 8:0 9:3 10:83 11:31 12:2 13:0 14:154 15:23 16:0 17:13 18:124 19:14 20:0 21:0 22:77 23:15 24:0 #
3.5144641041269254488028993092807e-08 1:5 2:179 3:63 4:0 5:4 6:185 7:77 8:0 9:0 10:124 11:70 12:0 13:10 14:142 15:85 16:0 17:1 18:59 19:55 20:0 21:3 22:65 23:59 24:0 #
-3.5144627698219301975622423650503e-08 1:0 2:52 3:0 4:1 5:0 6:110 7:0 8:1 9:0 10:25 11:0 12:0 13:0 14:77 15:0 16:3 17:0 18:19 19:0 20:0 21:0 22:32 23:0 24:0 #
3.5144641041269254488028993092807e-08 1:0 2:106 3:56 4:0 5:0 6:90 7:61 8:0 9:0 10:100 11:70 12:1 13:0 14:108 15:75 16:0 17:0 18:116 19:72 20:0 21:0 22:53 23:54 24:0 #
3.5144641041269254488028993092807e-08 1:295 2:70 3:10 4:0 5:8 6:111 7:17 8:0 9:36 10:88 11:28 12:0 13:2 14:83 15:12 16:0 17:229 18:95 19:17 20:0 21:44 22:63 23:28 24:0 #
-7.1578517783296408105054447774257e-09 1:0 2:31 3:8 4:0 5:0 6:35 7:10 8:1 9:0 10:12 11:7 12:0 13:2 14:14 15:3 16:0 17:9 18:14 19:3 20:0 21:1 22:19 23:8 24:0 #
-1.5821617072043210747650461610661e-08 1:37 2:135 3:62 4:0 5:172 6:162 7:66 8:0 9:2 10:787 11:61 12:0 13:1 14:123 15:56 16:6 17:3 18:97 19:52 20:0 21:1 22:81 23:55 24:0 #
3.5144641041269254488028993092807e-08 1:0 2:59 3:89 4:0 5:0 6:73 7:97 8:0 9:0 10:81 11:108 12:0 13:0 14:83 15:106 16:0 17:0 18:99 19:123 20:53 21:11 22:116 23:132 24:2 #
3.5144641041269254488028993092807e-08 1:57 2:157 3:117 4:0 5:0 6:59 7:89 8:0 9:0 10:73 11:97 12:0 13:0 14:81 15:108 16:0 17:0 18:83 19:106 20:0 21:0 22:99 23:123 24:53 #
-3.5144641041269254488028993092807e-08 1:0 2:100 3:103 4:0 5:0 6:100 7:103 8:0 9:0 10:100 11:105 12:0 13:0 14:102 15:106 16:0 17:0 18:100 19:101 20:0 21:7 22:141 23:109 24:4 #
3.5144641041269254488028993092807e-08 1:194 2:150 3:38 4:0 5:23 6:50 7:5 8:0 9:140 10:87 11:38 12:0 13:63 14:79 15:16 16:0 17:3 18:30 19:13 20:0 21:10 22:43 23:15 24:0 #
-3.5144641041269254488028993092807e-08 1:1751 2:129 3:126 4:0 5:5232 6:94 7:119 8:0 9:34 10:72 11:106 12:2 13:169 14:103 15:103 16:1 17:40 18:141 19:48 20:0 21:43 22:35 23:22 24:0 #
3.5144641041269254488028993092807e-08 1:13 2:54 3:10 4:0 5:24 6:54 7:6 8:0 9:83 10:67 11:13 12:0 13:7 14:64 15:14 16:0 17:247 18:89 19:27 20:0 21:10 22:53 23:13 24:0 #
-3.5144641041269254488028993092807e-08 1:0 2:141 3:25 4:0 5:3 6:73 7:9 8:0 9:51 10:99 11:33 12:0 13:0 14:91 15:20 16:0 17:21 18:86 19:17 20:0 21:88 22:65 23:16 24:391 #
-3.5144641041269254488028993092807e-08 1:124 2:1952 3:54 4:156 5:153 6:532 7:62 8:105 9:17 10:104 11:59 12:0 13:0 14:319 15:65 16:0 17:2 18:926 19:61 20:0 21:180 22:182 23:72 24:52 #
-1.3164682283875188037979009347822e-15 1:65 2:190 3:35 4:0 5:52 6:61 7:22 8:0 9:77 10:971 11:28 12:0 13:70 14:73 15:10 16:0 17:83 18:131 19:25 20:0 21:139 22:67 23:19 24:0 #
-2.1684043449710088680149056017399e-19 1:0 2:92 3:0 4:0 5:0 6:75 7:0 8:0 9:0 10:43 11:0 12:0 13:0 14:27 15:0 16:0 17:0 18:0 19:0 20:0 21:0 22:0 23:0 24:0 #
3.5144641041269254488028993092807e-08 1:65 2:69 3:18 4:5 5:20 6:41 7:16 8:0 9:0 10:85 11:10 12:0 13:46 14:108 15:30 16:0 17:21 18:110 19:35 20:0 21:12 22:112 23:31 24:0 #
3.5144641041269254488028993092807e-08 1:65 2:166 3:35 4:0 5:0 6:56 7:30 8:0 9:0 10:50 11:17 12:0 13:60 14:102 15:31 16:0 17:0 18:87 19:17 20:1 21:1 22:84 23:30 24:0 #
3.5144641041269254488028993092807e-08 1:81 2:114 3:33 4:0 5:0 6:141 7:25 8:0 9:3 10:73 11:9 12:0 13:51 14:99 15:33 16:0 17:0 18:91 19:20 20:0 21:21 22:86 23:17 24:0 #
3.5144641041269254488028993092807e-08 1:20 2:107 3:22 4:0 5:2 6:43 7:14 8:0 9:32 10:92 11:10 12:0 13:67 14:81 15:12 16:0 17:4 18:104 19:35 20:0 21:1 22:73 23:15 24:0 #
3.5144641041269254488028993092807e-08 1:0 2:79 3:43 4:0 5:0 6:65 7:37 8:0 9:0 10:89 11:55 12:0 13:1 14:99 15:52 16:0 17:4 18:127 19:66 20:0 21:2 22:96 23:56 24:0 #
-3.5144641041269254488028993092807e-08 1:15 2:1006 3:689 4:1 5:58 6:34 7:7 8:0 9:88 10:26 11:7 12:0 13:23 14:27 15:8 16:0 17:113 18:63 19:20 20:0 21:81 22:114 23:33 24:0 #
-3.5144641041269254488028993092807e-08 1:88 2:65 3:16 4:391 5:3 6:62 7:27 8:0 9:111 10:37 11:18 12:394 13:4 14:86 15:30 16:103 17:7148 18:34 19:8 20:0 21:126 22:127 23:22 24:0 #
3.5144641041269254488028993092807e-08 1:0 2:61 3:18 4:156 5:0 6:68 7:19 8:0 9:0 10:34 11:8 12:0 13:0 14:63 15:23 16:0 17:0 18:48 19:5 20:0 21:2 22:25 23:10 24:0 #
-3.5144641025118268477800409499423e-08 1:3815 2:127 3:65 4:0 5:17 6:3453 7:75 8:2 9:20 10:1178 11:136 12:2 13:0 14:116 15:59 16:0 17:0 18:763 19:61 20:0 21:11 22:121 23:69 24:1 #
3.5144641041269254488028993092807e-08 1:140 2:87 3:38 4:0 5:63 6:79 7:16 8:0 9:3 10:30 11:13 12:0 13:10 14:43 15:15 16:0 17:13 18:95 19:64 20:4 21:11 22:61 23:101 24:2 #
-3.5144641041269254488028993092807e-08 1:240 2:90 3:80 4:0 5:0 6:45 7:62 8:0 9:56 10:53 11:67 12:0 13:221 14:67 15:67 16:0 17:60 18:54 19:76 20:1 21:23 22:118 23:126 24:1 #
3.5144641041269254488028993092807e-08 1:70 2:75 3:8 4:0 5:37 6:47 7:22 8:0 9:0 10:95 11:17 12:0 13:1 14:52 15:42 16:0 17:2 18:59 19:47 20:0 21:0 22:69 23:12 24:0 #
3.5144641041269254488028993092807e-08 1:0 2:116 3:0 4:8 5:0 6:123 7:0 8:5 9:0 10:93 11:0 12:5 13:0 14:124 15:0 16:0 17:0 18:155 19:0 20:0 21:0 22:169 23:0 24:4 #
-1.9247434575957555234717086646914e-09 1:0 2:119 3:56 4:0 5:0 6:114 7:60 8:0 9:0 10:122 11:59 12:0 13:3815 14:127 15:65 16:0 17:17 18:3453 19:75 20:2 21:20 22:1178 23:136 24:2 #
3.5144641041269254488028993092807e-08 1:0 2:49 3:0 4:0 5:0 6:11 7:0 8:0 9:0 10:111 11:0 12:0 13:0 14:412 15:0 16:0 17:0 18:84 19:0 20:0 21:0 22:83 23:0 24:0 #
-2.498888301233278520731197896998e-08 1:0 2:100 3:101 4:0 5:0 6:102 7:103 8:0 9:0 10:100 11:103 12:0 13:0 14:100 15:103 16:0 17:0 18:100 19:105 20:0 21:0 22:102 23:106 24:0 #
-8.2503626329033025837890305065944e-10 1:13 2:95 3:56 4:0 5:37 6:70 7:63 8:1 9:27 10:76 11:82 12:0 13:5455 14:74 15:55 16:0 17:0 18:53 19:56 20:2 21:240 22:90 23:80 24:0 #
3.5144641041269254488028993092807e-08 1:10 2:53 3:13 4:0 5:224 6:72 7:17 8:1 9:15 10:75 11:13 12:0 13:32 14:75 15:17 16:0 17:3 18:54 19:11 20:0 21:1 22:62 23:6 24:0 #
3.5144641041269254488028993092807e-08 1:0 2:220 3:0 4:0 5:0 6:49 7:0 8:0 9:0 10:86 11:0 12:0 13:0 14:52 15:0 16:1 17:0 18:110 19:0 20:1 21:0 22:25 23:0 24:0 #
-3.5144641041269254488028993092807e-08 1:976 2:164 3:33 4:0 5:1442 6:91 7:8 8:0 9:395 10:57 11:9 12:31 13:4 14:147 15:11 16:45 17:838 18:295 19:23 20:3 21:209 22:170 23:23 24:1 #
3.5144641041269254488028993092807e-08 1:3 2:83 3:31 4:2 5:0 6:154 7:23 8:0 9:13 10:124 11:14 12:0 13:0 14:77 15:15 16:0 17:34 18:136 19:23 20:1 21:0 22:141 23:25 24:0 #
-3.5144641041269254488028993092807e-08 1:410 2:100 3:18 4:1 5:126 6:48 7:12 8:0 9:365 10:19 11:7 12:12 13:80 14:69 15:17 16:20 17:7063 18:109 19:23 20:0 21:69 22:30 23:3 24:0 #
3.5144641041269254488028993092807e-08 1:31 2:51 3:29 4:0 5:53 6:123 7:15 8:0 9:19 10:96 11:6 12:0 13:6 14:109 15:19 16:0 17:38 18:102 19:16 20:0 21:0 22:136 23:19 24:0 #
-3.5144641041269254488028993092807e-08 1:5 2:60 3:16 4:0 5:0 6:31 7:8 8:0 9:0 10:35 11:10 12:1 13:0 14:12 15:7 16:0 17:2 18:14 19:3 20:0 21:9 22:14 23:3 24:0 #
3.5144641041269254488028993092807e-08 1:0 2:68 3:12 4:0 5:0 6:75 7:21 8:0 9:0 10:103 11:17 12:0 13:0 14:90 15:24 16:0 17:0 18:62 19:18 20:0 21:71 22:27 23:13 24:0 #
-3.5144508541913233569072873285766e-08 1:0 2:49 3:0 4:0 5:0 6:86 7:0 8:0 9:0 10:52 11:0 12:1 13:0 14:110 15:0 16:1 17:0 18:25 19:0 20:0 21:0 22:77 23:0 24:3 #
3.5144641041269254488028993092807e-08 1:0 2:59 3:9 4:0 5:7 6:52 7:8 8:0 9:5 10:54 11:6 12:0 13:47 14:55 15:11 16:0 17:1 18:68 19:24 20:0 21:0 22:66 23:17 24:0 #
-3.5144641041269254488028993092807e-08 1:2 2:74 3:18 4:0 5:59 6:76 7:9 8:0 9:0 10:40 11:12 12:0 13:0 14:52 15:14 16:0 17:65 18:69 19:18 20:5 21:20 22:41 23:16 24:0 #
3.5144641041269254488028993092807e-08 1:0 2:42 3:16 4:0 5:66 6:73 7:12 8:0 9:0 10:68 11:16 12:0 13:52 14:66 15:12 16:0 17:5 18:60 19:16 20:0 21:0 22:31 23:8 24:0 #
-1.3238839641832673040853449999629e-08 1:3 2:127 3:85 4:0 5:0 6:130 7:70 8:0 9:9 10:145 11:68 12:0 13:12 14:139 15:84 16:0 17:2 18:126 19:76 20:0 21:0 22:127 23:86 24:0 #
3.5144641041269254488028993092807e-08 1:0 2:68 3:30 4:0 5:0 6:65 7:23 8:0 9:56 10:63 11:14 12:0 13:0 14:81 15:19 16:0 17:7 18:82 19:23 20:0 21:0 22:56 23:5 24:0 #
-3.5144641041269254488028993092807e-08 1:40 2:141 3:48 4:0 5:43 6:35 7:22 8:0 9:1 10:4 11:5 12:0 13:19 14:3 15:2 16:0 17:163 18:16 19:0 20:0 21:21 22:118 23:47 24:0 #
3.5144641041269254488028993092807e-08 1:0 2:109 3:0 4:1 5:0 6:116 7:0 8:8 9:0 10:123 11:0 12:5 13:0 14:93 15:0 16:5 17:0 18:124 19:0 20:0 21:0 22:155 23:0 24:0 #
-3.5144641041269254488028993092807e-08 1:0 2:64 3:66 4:0 5:0 6:352 7:2 8:0 9:0 10:505 11:0 12:0 13:0 14:181 15:0 16:0 17:0 18:190 19:0 20:0 21:0 22:152 23:0 24:0 #
3.5144641041269254488028993092807e-08 1:23 2:50 3:5 4:0 5:140 6:87 7:38 8:0 9:63 10:79 11:16 12:0 13:3 14:30 15:13 16:0 17:10 18:43 19:15 20:0 21:13 22:95 23:64 24:4 #
-6.5966301632036850781728998249775e-11 1:0 2:184 3:99 4:0 5:0 6:124 7:91 8:0 9:3 10:123 11:110 12:0 13:0 14:123 15:106 16:0 17:0 18:127 19:108 20:0 21:1 22:120 23:103 24:0 #
3.5144641041269254488028993092807e-08 1:0 2:88 3:0 4:4 5:0 6:1154 7:0 8:0 9:0 10:156 11:0 12:0 13:0 14:148 15:0 16:0 17:0 18:271 19:0 20:0 21:0 22:174 23:0 24:0 #
-3.5144641041269254488028993092807e-08 1:12 2:29 3:8 4:0 5:0 6:45 7:24 8:0 9:0 10:82 11:97 12:0 13:0 14:155 15:71 16:2 17:333 18:388 19:55 20:120 21:0 22:94 23:72 24:0 #
-9.0375679273099345423827773518544e-09 1:0 2:60 3:18 4:0 5:0 6:66 7:15 8:0 9:14 10:2423 11:2680 12:0 13:6 14:33 15:7 16:0 17:5 18:67 19:14 20:0 21:2 22:67 23:10 24:0 #
3.5144641041269254488028993092807e-08 1:0 2:105 3:34 4:1 5:3 6:107 7:20 8:0 9:3 10:91 11:15 12:0 13:4 14:43 15:4 16:0 17:121 18:72 19:9 20:0 21:2 22:63 23:11 24:0 #
-3.5144641041269254488028993092807e-08 1:83 2:202 3:54 4:0 5:0 6:42 7:16 8:0 9:66 10:73 11:12 12:0 13:0 14:68 15:16 16:0 17:52 18:66 19:12 20:0 21:5 22:60 23:16 24:0 #
-3.5144641041269254488028993092807e-08 1:0 2:81 3:108 4:0 5:0 6:83 7:106 8:0 9:0 10:99 11:123 12:53 13:11 14:116 15:132 16:2 17:611 18:393 19:250 20:1 21:8 22:1340 23:1499 24:0 #
3.5144641041269254488028993092807e-08 1:0 2:77 3:12 4:3 5:0 6:92 7:18 8:0 9:15 10:114 11:20 12:0 13:0 14:74 15:20 16:0 17:3 18:70 19:13 20:0 21:1 22:67 23:11 24:0 #
-3.5144641041269254488028993092807e-08 1:5232 2:94 3:119 4:0 5:34 6:72 7:106 8:2 9:169 10:103 11:103 12:1 13:40 14:141 15:48 16:0 17:43 18:35 19:22 20:0 21:1 22:4 23:5 24:0 #
-3.5144641041269254488028993092807e-08 1:21 2:147 3:83 4:0 5:37 6:135 7:62 8:0 9:172 10:162 11:66 12:0 13:2 14:787 15:61 16:0 17:1 18:123 19:56 20:6 21:3 22:97 23:52 24:0 #
3.5144641041269254488028993092807e-08 1:0 2:77 3:15 4:0 5:34 6:136 7:23 8:1 9:0 10:141 11:25 12:0 13:1 14:138 15:21 16:1 17:0 18:52 19:9 20:0 21:10 22:53 23:11 24:0 #
3.5144641041269254488028993092807e-08 1:0 2:74 3:20 4:0 5:3 6:70 7:13 8:0 9:1 10:67 11:11 12:0 13:0 14:70 15:20 16:2 17:25 18:98 19:14 20:0 21:0 22:113 23:22 24:0 #
-3.5144641041269254488028993092807e-08 1:4 2:24 3:9 4:0 5:0 6:18 7:10 8:0 9:3 10:32 11:20 12:0 13:7 14:24 15:15 16:1 17:1 18:13 19:7 20:0 21:1 22:24 23:6 24:1 #
-3.5144641041269254488028993092807e-08 1:0 2:132 3:24 4:0 5:0 6:74 7:11 8:0 9:0 10:33 11:8 12:0 13:0 14:33 15:7 16:0 17:0 18:3 19:0 20:0 21:1 22:51 23:8 24:0 #
-3.5144641041269254488028993092807e-08 1:0 2:127 3:86 4:0 5:99 6:94 7:63 8:0 9:25 10:110 11:75 12:0 13:98 14:258 15:83 16:0 17:5 18:179 19:63 20:0 21:4 22:185 23:77 24:0 #
3.5144641041269254488028993092807e-08 1:0 2:266 3:206 4:0 5:2 6:183 7:32 8:0 9:65 10:166 11:35 12:0 13:0 14:56 15:30 16:0 17:0 18:50 19:17 20:0 21:60 22:102 23:31 24:0 #
-3.5144641041269254488028993092807e-08 1:1 2:120 3:103 4:0 5:2 6:143 7:99 8:0 9:2 10:57 11:52 12:0 13:0 14:0 15:0 16:0 17:0 18:0 19:0 20:0 21:0 22:0 23:0 24:0 #
3.5144641041269254488028993092807e-08 1:1 2:96 3:11 4:0 5:11 6:94 7:21 8:0 9:0 10:45 11:5 12:0 13:3 14:62 15:15 16:0 17:2 18:62 19:8 20:0 21:1 22:77 23:22 24:0 #
3.5144641041269254488028993092807e-08 1:30 2:63 3:3 4:0 5:2 6:38 7:10 8:0 9:4 10:37 11:18 12:0 13:1 14:29 15:17 16:0 17:12 18:59 19:16 20:56 21:37 22:104 23:67 24:1 #
3.5144641041269254488028993092807e-08 1:0 2:65 3:37 4:0 5:0 6:89 7:55 8:0 9:1 10:99 11:52 12:0 13:4 14:127 15:66 16:0 17:2 18:96 19:56 20:0 21:23 22:1122 23:1081 24:1 #
3.5144641041269254488028993092807e-08 1:29 2:17 3:7 4:0 5:4 6:24 7:9 8:0 9:0 10:18 11:10 12:0 13:3 14:32 15:20 16:0 17:7 18:24 19:15 20:1 21:1 22:13 23:7 24:0 #
3.5144641041269254488028993092807e-08 1:0 2:34 3:8 4:0 5:0 6:63 7:23 8:0 9:0 10:48 11:5 12:0 13:2 14:25 15:10 16:0 17:0 18:55 19:12 20:1 21:0 22:33 23:8 24:0 #
3.5144641041269254488028993092807e-08 1:0 2:46 3:7 4:0 5:1 6:1736 7:5 8:0 9:0 10:4 11:6 12:0 13:0 14:124 15:52 16:0 17:16 18:22 19:9 20:0 21:31 22:1 23:125 24:0 #
-3.2485190433426524587882998438421e-08 1:142 2:43 3:19 4:0 5:410 6:100 7:18 8:1 9:126 10:48 11:12 12:0 13:365 14:19 15:7 16:12 17:80 18:69 19:17 20:20 21:7063 22:109 23:23 24:0 #
3.5144641041269254488028993092807e-08 1:0 2:1404 3:1293 4:0 5:0 6:46 7:3 8:0 9:0 10:69 11:24 12:0 13:0 14:75 15:19 16:0 17:0 18:39 19:8 20:0 21:0 22:45 23:17 24:0 #
-3.5144641041269254488028993092807e-08 1:23 2:118 3:126 4:1 5:80 6:216 7:146 8:0 9:17 10:214 11:141 12:0 13:8 14:200 15:135 16:0 17:12 18:226 19:102 20:0 21:6 22:49 23:85 24:0 #
3.5144641041269254488028993092807e-08 1:4 2:46 3:8 4:0 5:10 6:53 7:7 8:0 9:10 10:60 11:20 12:0 13:9 14:50 15:17 16:0 17:2 18:26 19:11 20:28 21:4 22:69 23:16 24:0 #
-8.8628442321703887474271255086933e-09 1:0 2:99 3:0 4:0 5:0 6:4533 7:0 8:0 9:0 10:258 11:1 12:0 13:0 14:154 15:0 16:0 17:0 18:198 19:0 20:0 21:0 22:177 23:0 24:0 #
3.5144641041269254488028993092807e-08 1:0 2:81 3:24 4:1 5:3 6:82 7:19 8:0 9:1 10:75 11:16 12:0 13:0 14:71 15:25 16:0 17:0 18:62 19:13 20:0 21:3 22:559 23:535 24:0 #
-3.4798377979156120299187443523081e-08 1:0 2:170 3:110 4:2 5:0 6:197 7:120 8:0 9:0 10:184 11:99 12:0 13:0 14:124 15:91 16:0 17:3 18:123 19:110 20:0 21:0 22:123 23:106 24:0 #
-1.6321037510859579204960164572347e-08 1:0 2:86 3:0 4:0 5:0 6:52 7:0 8:1 9:0 10:110 11:0 12:1 13:0 14:25 15:0 16:0 17:0 18:77 19:0 20:3 21:0 22:19 23:0 24:0 #
3.5144641041269254488028993092807e-08 1:4 2:0 3:2 4:0 5:30 6:63 7:3 8:0 9:2 10:38 11:10 12:0 13:4 14:37 15:18 16:0 17:1 18:29 19:17 20:0 21:12 22:59 23:16 24:56 #
-3.5144641041269254488028993092807e-08 1:2 2:91 3:65 4:0 5:279 6:63 7:98 8:0 9:3446 10:99 11:104 12:0 13:191 14:133 15:121 16:0 17:88 18:116 19:116 20:25 21:4 22:144 23:110 24:0 #
-3.0124560806225770626281444891995e-08 1:428 2:88 3:17 4:0 5:1002 6:25426 7:11 8:0 9:0 10:84245 11:11 12:0 13:2 14:32870 15:5 16:0 17:1 18:47 19:6 20:0 21:0 22:1404 23:1293 24:0 #
-3.5144641041269254488028993092807e-08 1:6 2:686 3:584 4:0 5:17 6:914 7:782 8:0 9:3 10:700 11:102 12:1 13:6 14:213 15:44 16:0 17:0 18:35 19:3 20:4 21:112 22:26 23:6 24:0 #
-3.5144641041269254488028993092807e-08 1:10 2:1130 3:1414 4:3 5:17 6:41 7:32 8:0 9:1675 10:152 11:36 12:0 13:0 14:31 15:10 16:0 17:593 18:174 19:69 20:0 21:517 22:173 23:26 24:0 #
-3.5144641041269254488028993092807e-08 1:2 2:75 3:23 4:0 5:7050 6:86 7:16 8:0 9:0 10:92 11:17 12:0 13:0 14:54 15:14 16:0 17:0 18:34 19:8 20:0 21:1 22:1212 23:1113 24:1 #
-3.5144641041269254488028993092807e-08 1:7 2:193 3:585 4:0 5:5 6:1489 7:770 8:0 9:27 10:98 11:59 12:0 13:48 14:113 15:87 16:0 17:6 18:105 19:71 20:0 21:12 22:172 23:55 24:4 #
-3.5144641041269254488028993092807e-08 1:80 2:216 3:146 4:0 5:17 6:214 7:141 8:0 9:8 10:200 11:135 12:0 13:12 14:226 15:102 16:0 17:6 18:49 19:85 20:0 21:1 22:66 23:94 24:0 #
-3.5144641041269254488028993092807e-08 1:10 2:744 3:738 4:1 5:18 6:751 7:629 8:1 9:446 10:104 11:108 12:0 13:7 14:265 15:140 16:0 17:24 18:274 19:167 20:1 21:1800 22:104 23:154 24:2 #
3.5144641041269254488028993092807e-08 1:2 2:57 3:52 4:0 5:0 6:0 7:0 8:0 9:0 10:0 11:0 12:0 13:0 14:0 15:0 16:0 17:0 18:0 19:0 20:0 21:0 22:0 23:0 24:0 #
-2.6956856713746845210985717922018e-08 1:32 2:92 3:10 4:0 5:67 6:81 7:12 8:0 9:4 10:104 11:35 12:0 13:1 14:73 15:15 16:0 17:7042 18:92 19:19 20:10 21:0 22:48 23:20 24:0 #
-8.2182664020267050842156195469834e-09 1:2 2:88 3:108 4:0 5:65 6:107 7:120 8:0 9:0 10:90 11:113 12:0 13:76 14:120 15:123 16:0 17:0 18:123 19:110 20:0 21:133 22:231 23:147 24:0 #
-3.5144641041269254488028993092807e-08 1:7341 2:92 3:123 4:0 5:380 6:91 7:112 8:0 9:0 10:76 11:116 12:0 13:155 14:96 15:123 16:0 17:49 18:89 19:109 20:0 21:1751 22:129 23:126 24:0 #
3.5144641041269254488028993092807e-08 1:3 2:73 3:9 4:0 5:51 6:99 7:33 8:0 9:0 10:91 11:20 12:0 13:21 14:86 15:17 16:0 17:88 18:65 19:16 20:391 21:3 22:62 23:27 24:0 #
3.5144641041269254488028993092807e-08 1:1 2:717 3:1167 4:2 5:5 6:721 7:982 8:0 9:2 10:47 11:19 12:0 13:0 14:13 15:2 16:674 17:0 18:0 19:2 20:0 21:0 22:0 23:4 24:0 #
3.5144641041269254488028993092807e-08 1:51 2:99 3:33 4:0 5:0 6:91 7:20 8:0 9:21 10:86 11:17 12:0 13:88 14:65 15:16 16:391 17:3 18:62 19:27 20:0 21:111 22:37 23:18 24:394 #
3.5144641041269254488028993092807e-08 1:9 2:50 3:17 4:0 5:2 6:26 7:11 8:28 9:4 10:69 11:16 12:0 13:0 14:78 15:13 16:23 17:0 18:28 19:10 20:0 21:0 22:547 23:921 24:0 #
-3.5144641041269254488028993092807e-08 1:0 2:1165 3:879 4:22 5:15 6:683 7:951 8:0 9:295 10:70 11:10 12:0 13:8 14:111 15:17 16:0 17:36 18:88 19:28 20:0 21:2 22:83 23:12 24:0 #
-3.5144641041269254488028993092807e-08 1:0 2:658 3:579 4:2 5:15 6:1006 7:689 8:1 9:58 10:34 11:7 12:0 13:88 14:26 15:7 16:0 17:23 18:27 19:8 20:0 21:113 22:63 23:20 24:0 #
-3.5144641041269254488028993092807e-08 1:0 2:1199 3:1054 4:0 5:1 6:155 7:164 8:0 9:5532 10:142 11:24 12:1 13:324 14:108 15:23 16:0 17:0 18:56 19:15 20:0 21:3 22:96 23:12 24:0 #
-3.5144641041269254488028993092807e-08 1:5 2:1489 3:770 4:0 5:27 6:98 7:59 8:0 9:48 10:113 11:87 12:0 13:6 14:105 15:71 16:0 17:12 18:172 19:55 20:4 21:2 22:111 23:66 24:0 #
3.5144641041269254488028993092807e-08 1:0 2:63 3:23 4:0 5:0 6:48 7:5 8:0 9:2 10:25 11:10 12:0 13:0 14:55 15:12 16:1 17:0 18:33 19:8 20:0 21:0 22:1762 23:1244 24:1 #
3.5144641041269254488028993092807e-08 1:26 2:1397 3:1631 4:2 5:4 6:0 7:2 8:0 9:30 10:63 11:3 12:0 13:2 14:38 15:10 16:0 17:4 18:37 19:18 20:0 21:1 22:29 23:17 24:0 #
-3.5144641041269254488028993092807e-08 1:10 2:142 3:85 4:0 5:1 6:59 7:55 8:0 9:3 10:65 11:59 12:0 13:0 14:68 15:41 16:2 17:0 18:58 19:52 20:0 21:0 22:83 23:53 24:0 #
-3.5144641041269254488028993092807e-08 1:0 2:124 3:52 4:0 5:16 6:22 7:9 8:0 9:31 10:1 11:125 12:0 13:77 14:0 15:25 16:455 17:39 18:1018 19:960 20:612 21:976 22:164 23:33 24:0 #
-3.5144641041269254488028993092807e-08 1:34 2:295 3:106 4:29 5:7193 6:361 7:57 8:0 9:0 10:214 11:70 12:0 13:1 14:199 15:79 16:0 17:10 18:177 19:304 20:123 21:27 22:1762 23:923 24:0 #
-3.5144641041269254488028993092807e-08 1:13 2:202 3:158 4:202 5:0 6:81 7:117 8:5 9:443 10:124 11:116 12:5 13:9460 14:119 15:122 16:2 17:7341 18:92 19:123 20:0 21:380 22:91 23:112 24:0 #
-3.5144641041269254488028993092807e-08 1:3 2:559 3:535 4:0 5:15 6:909 7:758 8:3 9:115 10:70 11:32 12:0 13:0 14:66 15:10 16:0 17:0 18:59 19:9 20:0 21:7 22:52 23:8 24:0 #
-3.5144641041269254488028993092807e-08 1:21 2:86 3:17 4:0 5:88 6:65 7:16 8:391 9:3 10:62 11:27 12:0 13:111 14:37 15:18 16:394 17:4 18:86 19:30 20:103 21:7148 22:34 23:8 24:0 #
-3.5144641041269254488028993092807e-08 1:7117 2:124 3:128 4:0 5:18 6:94 7:105 8:0 9:1 10:117 11:109 12:1 13:439 14:117 15:110 16:17 17:2 18:85 19:109 20:0 21:16 22:113 23:119 24:0 #
-3.5144641041269254488028993092807e-08 1:94 2:92 3:70 4:0 5:0 6:77 7:50 8:0 9:124 10:1952 11:54 12:156 13:153 14:532 15:62 16:105 17:17 18:104 19:59 20:0 21:0 22:319 23:65 24:0 #
-3.5144641041269254488028993092807e-08 1:76 2:293 3:99 4:21 5:142 6:340 7:101 8:31 9:199 10:323 11:131 12:51 13:34 14:295 15:106 16:29 17:7193 18:361 19:57 20:0 21:0 22:214 23:70 24:0 #
-3.5144641041269254488028993092807e-08 1:17 2:104 3:59 4:0 5:0 6:319 7:65 8:0 9:2 10:926 11:61 12:0 13:180 14:182 15:72 16:52 17:1401 18:158 19:66 20:0 21:0 22:135 23:59 24:0 #
-2.6313260785689076460582680851499e-08 1:0 2:159 3:105 4:0 5:0 6:232 7:103 8:0 9:0 10:145 11:113 12:0 13:0 14:170 15:110 16:2 17:0 18:197 19:120 20:0 21:0 22:184 23:99 24:0 #
-3.5144641041269254488028993092807e-08 1:10 2:60 3:20 4:0 5:9 6:50 7:17 8:0 9:2 10:26 11:11 12:28 13:4 14:69 15:16 16:0 17:0 18:78 19:13 20:23 21:0 22:28 23:10 24:0 #
-3.5144641041269254488028993092807e-08 1:48 2:113 3:87 4:0 5:6 6:105 7:71 8:0 9:12 10:172 11:55 12:4 13:2 14:111 15:66 16:0 17:0 18:62 19:53 20:0 21:0 22:53 23:54 24:0 #
-3.5144641041269254488028993092807e-08 1:0 2:810 3:66 4:0 5:0 6:3601 7:62 8:0 9:0 10:1756 11:64 12:0 13:0 14:148 15:59 16:0 17:605 18:156 19:64 20:1 21:389 22:200 23:72 24:0 #
-3.5144641041269254488028993092807e-08 1:34 2:72 3:106 4:2 5:169 6:103 7:103 8:1 9:40 10:141 11:48 12:0 13:43 14:35 15:22 16:0 17:1 18:4 19:5 20:0 21:19 22:3 23:2 24:0 #
-2.8388734210706369007675697337632e-09 1:4 2:127 3:66 4:0 5:2 6:96 7:56 8:0 9:23 10:1122 11:1081 12:1 13:132 14:246 15:222 16:6 17:362 18:129 19:55 20:9 21:24 22:102 23:59 24:0 #
-2.3154442933866429275737412350408e-08 1:0 2:30 3:9 4:0 5:96 6:43 7:5 8:0 9:3 10:45 11:26 12:0 13:0 14:69 15:11 16:0 17:0 18:85 19:11 20:0 21:2 22:81347 23:19 24:0 #
-1.8479033062059116432600952562026e-08 1:6 2:213 3:44 4:0 5:0 6:35 7:3 8:4 9:112 10:26 11:6 12:0 13:70 14:37 15:6 16:0 17:142 18:43 19:19 20:0 21:410 22:100 23:18 24:1 #
-3.0826885781118625140050472973469e-08 1:0 2:227 3:48 4:0 5:80 6:118 7:13 8:0 9:62 10:176 11:15 12:0 13:7100 14:110 15:11 16:0 17:2 18:89 19:17 20:0 21:66 22:330 23:28 24:0 #
-7.3114848499912914017871129056421e-09 1:3 2:51 3:55 4:0 5:407 6:73 7:16 8:0 9:249 10:56 11:3 12:0 13:3 14:71 15:27 16:0 17:0 18:79 19:15 20:0 21:0 22:33 23:6 24:0 #
-2.8758506437622094430975241280413e-08 1:0 2:123 3:106 4:0 5:0 6:127 7:108 8:0 9:1 10:120 11:103 12:0 13:2 14:143 15:99 16:0 17:2 18:57 19:52 20:0 21:0 22:0 23:0 24:0 #
-2.1655940766085952044221133849095e-09 1:12 2:139 3:84 4:0 5:2 6:126 7:76 8:0 9:0 10:127 11:86 12:0 13:99 14:94 15:63 16:0 17:25 18:110 19:75 20:0 21:98 22:258 23:83 24:0 #
-2.2372114694190872938149690308998e-09 1:0 2:168346 3:14 4:0 5:19 6:144859 7:10 8:0 9:175 10:49986 11:10 12:0 13:561 14:79 15:8 16:0 17:428 18:88 19:17 20:0 21:1002 22:25426 23:11 24:0 #
-1.1636462582110840505308056724854e-08 1:0 2:166 3:78 4:3 5:18 6:234 7:69 8:186 9:409 10:224 11:69 12:1 13:3071 14:186 15:65 16:0 17:188 18:15818 19:53 20:2 21:1189 22:187 23:63 24:0 #
-1.0810474208494566992989818071669e-08 1:0 2:4866 3:0 4:0 5:0 6:156 7:0 8:9 9:0 10:109 11:0 12:1 13:0 14:116 15:0 16:8 17:0 18:123 19:0 20:5 21:0 22:93 23:0 24:5 #
-5.3612589659996779557088204121174e-10 1:21 2:118 3:47 4:0 5:194 6:150 7:38 8:0 9:23 10:50 11:5 12:0 13:140 14:87 15:38 16:0 17:63 18:79 19:16 20:0 21:3 22:30 23:13 24:0 #
-2.1625403269257231601840896217936e-09 1:27 2:76 3:82 4:0 5:5455 6:74 7:55 8:0 9:0 10:53 11:56 12:2 13:240 14:90 15:80 16:0 17:0 18:45 19:62 20:0 21:56 22:53 23:67 24:0 #
-3.4394378326062558545554714850567e-08 1:0 2:209 3:0 4:0 5:0 6:7140 7:0 8:0 9:0 10:54 11:0 12:0 13:0 14:176 15:0 16:0 17:0 18:1869 19:0 20:0 21:0 22:854 23:0 24:0 #
-2.5255383890905430519426389348366e-10 1:2 2:127 3:60 4:0 5:13 6:95 7:56 8:0 9:37 10:70 11:63 12:1 13:27 14:76 15:82 16:0 17:5455 18:74 19:55 20:0 21:0 22:53 23:56 24:2 #
-1.631080449673058367643374566569e-11 1:49 2:89 3:109 4:0 5:1751 6:129 7:126 8:0 9:5232 10:94 11:119 12:0 13:34 14:72 15:106 16:2 17:169 18:103 19:103 20:1 21:40 22:141 23:48 24:0 #
-1.4812009781854068956764689288892e-09 1:0 2:97 3:43 4:0 5:0 6:102 7:17 8:0 9:1 10:75 11:25 12:0 13:372 14:55 15:21 16:0 17:2 18:106 19:12 20:0 21:2 22:128 23:35 24:0 #
-7.9537371830206573488444854198171e-10 1:0 2:125 3:66 4:0 5:92 6:96 7:63 8:0 9:32 10:106 11:63 12:0 13:28 14:94 15:61 16:0 17:28 18:116 19:62 20:0 21:41 22:928 23:66 24:0 #
-1.7143366525235033284461027246193e-09 1:37 2:104 3:67 4:1 5:2 6:88 7:57 8:1 9:0 10:125 11:66 12:0 13:92 14:96 15:63 16:0 17:32 18:106 19:63 20:0 21:28 22:94 23:61 24:0 #
-7.4737254234216485958116395768927e-09 1:0 2:62 3:18 4:0 5:71 6:27 7:13 8:0 9:26 10:1397 11:1631 12:2 13:4 14:0 15:2 16:0 17:30 18:63 19:3 20:0 21:2 22:38 23:10 24:0 #
-1.083967093999515117979646789282e-08 1:0 2:62 3:53 4:0 5:0 6:53 7:54 8:0 9:3 10:51 11:55 12:0 13:407 14:73 15:16 16:0 17:249 18:56 19:3 20:0 21:3 22:71 23:27 24:0 #
-4.7784378781190907136932712444559e-10 1:0 2:146 3:47 4:0 5:0 6:117 7:35 8:0 9:0 10:136 11:27 12:0 13:0 14:132 15:24 16:0 17:0 18:74 19:11 20:0 21:0 22:33 23:8 24:0 #
-1.2840069067123893518319623346241e-10 1:0 2:95 3:18 4:0 5:0 6:41 7:12 8:0 9:0 10:1411 11:1223 12:0 13:466 14:464 15:12 16:6 17:0 18:60 19:13 20:0 21:79 22:221 23:19 24:0 #
-3.3738423589085666267462599796079e-08 1:389 2:200 3:72 4:0 5:121 6:206 7:63 8:0 9:108 10:482 11:69 12:0 13:96 14:472 15:65 16:0 17:31 18:324 19:62 20:0 21:208 22:695 23:65 24:1 #
-5.4372378488111221225427697252997e-09 1:28 2:94 3:61 4:0 5:28 6:116 7:62 8:0 9:41 10:928 11:66 12:0 13:23349 14:124 15:62 16:0 17:3 18:97 19:54 20:0 21:10 22:84 23:63 24:0 #
-9.6969025736802472691111542957287e-11 1:3 2:70 3:13 4:0 5:1 6:67 7:11 8:0 9:0 10:70 11:20 12:2 13:25 14:98 15:14 16:0 17:0 18:113 19:22 20:0 21:21 22:348 23:32 24:7 #
-2.8398309188245144643219892923065e-08 1:0 2:93 3:0 4:5 5:0 6:124 7:0 8:0 9:0 10:155 11:0 12:0 13:0 14:169 15:0 16:4 17:0 18:7183 19:0 20:2 21:0 22:159 23:0 24:7 #
-1.2897924331676929312565788032785e-14 1:0 2:187 3:27 4:0 5:328 6:129 7:20 8:0 9:11 10:40 11:8 12:0 13:31 14:51 15:29 16:0 17:53 18:123 19:15 20:0 21:19 22:96 23:6 24:0 #
-1.1648553410617082064910064731489e-09 1:0 2:56 3:30 4:0 5:0 6:50 7:17 8:0 9:60 10:102 11:31 12:0 13:0 14:87 15:17 16:1 17:1 18:84 19:30 20:0 21:1 22:141 23:37 24:1 #
-2.5369533424156957813165591542059e-08 1:0 2:155 3:0 4:0 5:0 6:169 7:0 8:4 9:0 10:7183 11:0 12:2 13:0 14:159 15:0 16:7 17:0 18:106 19:0 20:0 21:0 22:49 23:0 24:0 #
-1.1604188077379235341540135786897e-11 1:73 2:139 3:50 4:12 5:5 6:121 7:24 8:2 9:0 10:164 11:11 12:0 13:0 14:114 15:20 16:0 17:0 18:216 19:18 20:0 21:0 22:71 23:20 24:0 #
-8.4956455031850973444890155755619e-10 1:2 2:81347 3:19 4:0 5:0 6:168346 7:14 8:0 9:19 10:144859 11:10 12:0 13:175 14:49986 15:10 16:0 17:561 18:79 19:8 20:0 21:428 22:88 23:17 24:0 #
-3.0634353561323723000862136872646e-08 1:0 2:20 3:6 4:0 5:0 6:34 7:0 8:0 9:0 10:38 11:2 12:0 13:0 14:40 15:2 16:0 17:0 18:10 19:0 20:0 21:0 22:0 23:0 24:0 #
-4.591962632837121825667386736114e-09 1:1 2:511 3:38 4:0 5:0 6:25 7:2 8:0 9:0 10:0 11:0 12:0 13:0 14:27 15:2 16:0 17:0 18:42 19:1 20:0 21:0 22:0 23:0 24:0 #
-2.8157249535346165814739976575309e-11 1:0 2:70 3:20 4:2 5:25 6:98 7:14 8:0 9:0 10:113 11:22 12:0 13:21 14:348 15:32 16:7 17:5476 18:45 19:8 20:0 21:6 22:93 23:18 24:0 #
-7.2479447218996418152128479177494e-11 1:5 2:103 3:12 4:0 5:3 6:108 7:5 8:3 9:9 10:54 11:10 12:0 13:0 14:57 15:13 16:0 17:12210 18:38 19:9 20:0 21:3 22:104 23:12 24:0 #
-1.5531140354744800120376466167661e-10 1:115 2:70 3:32 4:0 5:0 6:66 7:10 8:0 9:0 10:59 11:9 12:0 13:7 14:52 15:8 16:0 17:5 18:54 19:6 20:0 21:47 22:55 23:11 24:0 #
