SVM-light Version V6.02
0 # kernel type
3 # kernel parameter -d 
1 # kernel parameter -g 
1 # kernel parameter -s 
1 # kernel parameter -r 
empty# kernel parameter -u 
24 # highest feature index 
1142 # number of training documents 
420 # number of support vectors plus 1 
1.0009773 # threshold b, each following line is a SV (starting with alpha*y)
-3.5887986541111512525625262728241e-08 1:0 2:88 3:0 4:0 5:0 6:53 7:0 8:0 9:0 10:29 11:0 12:0 13:0 14:14 15:2 16:0 17:0 18:116 19:1 20:0 21:0 22:125 23:0 24:0 #
3.5887986541111512525625262728241e-08 1:0 2:116 3:1 4:0 5:0 6:125 7:0 8:0 9:0 10:7087 11:0 12:0 13:0 14:220 15:0 16:0 17:0 18:49 19:0 20:0 21:0 22:86 23:0 24:0 #
3.5887986541111512525625262728241e-08 1:0 2:123 3:0 4:5 5:0 6:93 7:0 8:5 9:0 10:124 11:0 12:0 13:0 14:155 15:0 16:0 17:0 18:169 19:0 20:4 21:0 22:7183 23:0 24:2 #
3.5887986541111512525625262728241e-08 1:0 2:87 3:34 4:0 5:1 6:89 7:13 8:0 9:4725 10:36 11:15 12:3 13:1 14:57 15:9 16:0 17:0 18:31776 19:1 20:0 21:0 22:75375 23:17 24:0 #
3.5887986541111512525625262728241e-08 1:517 2:173 3:27 4:0 5:179 6:214 7:33 8:0 9:1270 10:140 11:22 12:0 13:0 14:97 15:16 16:0 17:419 18:127 19:8 20:0 21:104 22:234 23:48 24:153 #
3.5887986541111512525625262728241e-08 1:0 2:31776 3:1 4:0 5:0 6:75375 7:17 8:0 9:31 10:62 11:12 12:15 13:7057 14:84 15:35 16:0 17:0 18:79 19:20 20:0 21:0 22:82 23:26 24:1 #
-3.5887986541111512525625262728241e-08 1:1401 2:158 3:67 4:0 5:0 6:135 7:61 8:0 9:0 10:100 11:63 12:0 13:23706 14:148 15:32 16:0 17:1 18:198 19:28 20:2 21:67 22:116 23:14 24:2 #
-2.8756246608111570061197537206965e-09 1:29 2:395 3:71 4:0 5:0 6:166 7:78 8:3 9:20 10:234 11:64 12:187 13:409 14:224 15:70 16:1 17:3071 18:186 19:66 20:0 21:188 22:15818 23:53 24:2 #
3.5887986541111512525625262728241e-08 1:23 2:3453 3:75 4:2 5:6 6:1178 7:134 8:2 9:0 10:116 11:60 12:0 13:0 14:763 15:61 16:0 17:15 18:121 19:69 20:1 21:3103 22:4445 23:75 24:0 #
3.5887986541111512525625262728241e-08 1:188 2:15818 3:53 4:2 5:1189 6:187 7:64 8:0 9:0 10:405 11:70 12:0 13:235 14:235 15:69 16:0 17:76 18:293 19:103 20:21 21:142 22:340 23:101 24:31 #
-1.5717234851872284245035709293777e-08 1:1002 2:25426 3:13 4:0 5:0 6:84245 7:11 8:0 9:2 10:32870 11:9 12:0 13:1 14:47 15:7 16:0 17:0 18:1404 19:1294 20:0 21:0 22:46 23:3 24:0 #
-3.5887986541111512525625262728241e-08 1:16 2:29 3:8 4:0 5:0 6:45 7:24 8:0 9:0 10:82 11:97 12:0 13:0 14:155 15:71 16:2 17:333 18:388 19:69 20:120 21:0 22:94 23:72 24:0 #
3.5887986541111512525625262728241e-08 1:1 2:57 3:9 4:0 5:0 6:31776 7:1 8:0 9:0 10:75375 11:17 12:0 13:31 14:62 15:12 16:15 17:7057 18:84 19:35 20:0 21:0 22:79 23:20 24:0 #
-3.5472637833840908218319132316765e-08 1:53 2:72 3:113 4:0 5:35 6:104 7:114 8:0 9:513 10:13843 11:116 12:0 13:0 14:95 15:113 16:0 17:0 18:93 19:115 20:0 21:2 22:107 23:115 24:0 #
-3.5524257175156381642622260841335e-08 1:0 2:70 3:8 4:0 5:2966 6:58 7:5 8:0 9:4840 10:56 11:8 12:0 13:16 14:44 15:9 16:0 17:6 18:39 19:8 20:0 21:6 22:18 23:3 24:0 #
3.5887986541111512525625262728241e-08 1:9 2:54 3:13 4:0 5:0 6:57 7:14 8:0 9:12210 10:38 11:10 12:0 13:3 14:104 15:12 16:0 17:11855 18:80 19:18 20:0 21:1 22:121 23:14 24:0 #
-3.3536731513044257670697496096293e-08 1:0 2:69 3:12 4:0 5:0 6:78 7:3 8:0 9:4616 10:77 11:12 12:0 13:2519 14:87 15:9 16:0 17:10 18:75 19:12 20:0 21:0 22:97 23:15 24:0 #
3.5887986541111512525625262728241e-08 1:142 2:340 3:101 4:31 5:199 6:323 7:132 8:51 9:35 10:295 11:110 12:29 13:7193 14:361 15:57 16:0 17:0 18:214 19:71 20:0 21:1 22:199 23:79 24:0 #
3.5887986541111512525625262728241e-08 1:5476 2:45 3:11 4:0 5:6 6:93 7:19 8:0 9:31 10:130 11:21 12:0 13:166 14:109 15:25 16:0 17:25 18:162 19:26 20:2 21:163 22:96 23:26 24:0 #
3.5887986541111512525625262728241e-08 1:427 2:79 3:109 4:0 5:6755 6:96 7:124 8:0 9:7116 10:107 11:118 12:1 13:3935 14:104 15:125 16:94 17:4 18:187 19:168 20:3 21:13 22:202 23:159 24:202 #
-3.5887986541111512525625262728241e-08 1:1 2:99 3:53 4:0 5:4 6:127 7:66 8:0 9:2 10:96 11:56 12:0 13:31 14:1122 15:1081 16:1 17:102 18:246 19:186 20:7 21:356 22:129 23:55 24:9 #
3.5887986541111512525625262728241e-08 1:0 2:106 3:56 4:0 5:0 6:90 7:61 8:0 9:0 10:100 11:71 12:1 13:0 14:108 15:75 16:0 17:0 18:116 19:72 20:0 21:0 22:53 23:54 24:0 #
-3.5887986541111512525625262728241e-08 1:4 2:127 3:66 4:0 5:2 6:96 7:56 8:0 9:31 10:1122 11:1081 12:1 13:102 14:246 15:186 16:7 17:356 18:129 19:55 20:9 21:24 22:102 23:59 24:0 #
-2.2269438484661697346876191002177e-08 1:7195 2:175 3:81 4:0 5:597 6:160 7:56 8:0 9:7061 10:148 11:71 12:0 13:427 14:109 15:67 16:0 17:1099 18:119 19:63 20:0 21:494 22:98 23:57 24:0 #
3.5887986541111512525625262728241e-08 1:6 2:69 3:30 4:0 5:2 6:68 7:29 8:0 9:7063 10:60 11:9 12:1 13:0 14:53 15:20 16:0 17:0 18:52 19:15 20:4 21:0 22:44 23:16 24:2 #
3.5887986541111512525625262728241e-08 1:2 2:926 3:61 4:0 5:180 6:182 7:85 8:52 9:1401 10:158 11:67 12:0 13:0 14:135 15:61 16:0 17:0 18:100 19:63 20:0 21:23706 22:148 23:32 24:0 #
3.5887986541111512525625262728241e-08 1:6755 2:96 3:124 4:0 5:7116 6:107 7:118 8:1 9:3935 10:104 11:125 12:94 13:4 14:187 15:168 16:3 17:13 18:202 19:159 20:202 21:0 22:81 23:117 24:5 #
3.5887986541111512525625262728241e-08 1:3071 2:186 3:66 4:0 5:188 6:15818 7:53 8:2 9:1189 10:187 11:64 12:0 13:0 14:405 15:70 16:0 17:235 18:235 19:69 20:0 21:76 22:293 23:103 24:21 #
1.5414341048370644719269097590655e-08 1:0 2:171 3:26 4:51 5:4 6:132 7:38 8:0 9:3592 10:195 11:523 12:3471 13:0 14:124 15:56 16:0 17:0 18:159 19:46 20:0 21:194 22:1262 23:193 24:13989 #
-2.8664611653227686914265193271652e-08 1:28 2:94 3:61 4:0 5:28 6:116 7:62 8:0 9:41 10:928 11:68 12:0 13:23353 14:124 15:64 16:0 17:3 18:97 19:56 20:0 21:10 22:84 23:65 24:0 #
-3.5887986541111512525625262728241e-08 1:37 2:70 3:63 4:1 5:27 6:76 7:82 8:0 9:5455 10:74 11:55 12:0 13:0 14:53 15:56 16:2 17:240 18:90 19:81 20:0 21:0 22:45 23:64 24:0 #
3.5887986541111512525625262728241e-08 1:443 2:831 3:477 4:0 5:427 6:79 7:109 8:0 9:6755 10:96 11:124 12:0 13:7116 14:107 15:118 16:1 17:3935 18:104 19:125 20:94 21:4 22:187 23:168 24:3 #
3.5887986541111512525625262728241e-08 1:0 2:113 3:26 4:0 5:21 6:348 7:35 8:7 9:5476 10:45 11:11 12:0 13:6 14:93 15:19 16:0 17:31 18:130 19:21 20:0 21:166 22:109 23:25 24:0 #
3.5887986541111512525625262728241e-08 1:0 2:48 3:21 4:0 5:3460 6:63 7:5 8:0 9:2652 10:126 11:20 12:0 13:1 14:51 15:16 16:0 17:0 18:102 19:53 20:0 21:0 22:58 23:14 24:0 #
3.5887986541111512525625262728241e-08 1:0 2:2448 3:0 4:0 5:0 6:1343 7:0 8:3 9:0 10:4866 11:0 12:0 13:0 14:156 15:0 16:9 17:0 18:109 19:0 20:1 21:0 22:116 23:0 24:8 #
3.5887986541111512525625262728241e-08 1:96 2:472 3:67 4:0 5:31 6:324 7:64 8:0 9:208 10:695 11:65 12:1 13:7084 14:1627 15:80 16:0 17:45 18:166 19:64 20:0 21:9 22:149 23:71 24:0 #
3.5887986541111512525625262728241e-08 1:409 2:224 3:70 4:1 5:3071 6:186 7:66 8:0 9:188 10:15818 11:53 12:2 13:1189 14:187 15:64 16:0 17:0 18:405 19:70 20:0 21:235 22:235 23:69 24:0 #
-3.5887986541111512525625262728241e-08 1:15 2:121 3:69 4:1 5:3103 6:4445 7:75 8:0 9:7042 10:203 11:94 12:1 13:0 14:166 15:115 16:0 17:7 18:166 19:118 20:1 21:10 22:1253 23:129 24:0 #
3.5887986541111512525625262728241e-08 1:0 2:43 3:7 4:0 5:2 6:75 7:23 8:0 9:7050 10:86 11:16 12:0 13:0 14:92 15:17 16:0 17:0 18:54 19:15 20:0 21:0 22:34 23:8 24:0 #
-8.3186277026096542656908010976435e-09 1:3 2:190 3:63 4:0 5:7056 6:159 7:57 8:4 9:5407 10:98 11:60 12:1 13:0 14:106 15:64 16:0 17:0 18:122 19:66 20:0 21:0 22:106 23:56 24:0 #
-9.5924851366961191330559252654631e-09 1:96 2:43 3:18 4:0 5:3 6:45 7:38 8:0 9:0 10:69 11:13 12:0 13:0 14:85 15:13 16:0 17:2 18:81347 19:21 20:0 21:0 22:168346 23:15 24:0 #
-3.1412214223059217082026362000136e-08 1:10 2:84 3:65 4:0 5:1 6:100 7:59 8:0 9:5153 10:150 11:71 12:0 13:21 14:147 15:85 16:0 17:37 18:135 19:62 20:0 21:172 22:162 23:66 24:0 #
3.5887986541111512525625262728241e-08 1:0 2:79 3:15 4:0 5:0 6:33 7:6 8:0 9:5295 10:40 11:6 12:0 13:13 14:70 15:12 16:0 17:1 18:80 19:10 20:0 21:1 22:24 23:9 24:0 #
-2.4883941464883495547216751830888e-08 1:0 2:239 3:10 4:0 5:714 6:141 7:18 8:0 9:5097 10:136 11:24 12:0 13:0 14:74 15:16 16:0 17:1 18:210 19:21 20:0 21:0 22:239 23:9 24:0 #
-3.5887970959976618736596244360615e-08 1:49 2:89 3:111 4:0 5:1751 6:129 7:127 8:0 9:5232 10:94 11:121 12:0 13:34 14:72 15:107 16:2 17:184 18:103 19:103 20:1 21:42 22:141 23:49 24:0 #
-2.8926344504918200237127698729034e-08 1:3 2:58 3:14 4:1 5:27 6:96 7:10 8:0 9:5971 10:135 11:18 12:0 13:7064 14:62 15:23 16:0 17:0 18:64 19:24 20:0 21:0 22:89 23:17 24:0 #
3.5887986541111512525625262728241e-08 1:35 2:1362 3:63 4:0 5:29 6:395 7:71 8:0 9:0 10:166 11:78 12:3 13:20 14:234 15:64 16:187 17:409 18:224 19:70 20:1 21:3071 22:186 23:66 24:0 #
-6.457930483077634986697340702122e-09 1:0 2:503 3:0 4:0 5:0 6:209 7:0 8:0 9:0 10:7140 11:0 12:0 13:0 14:54 15:0 16:0 17:0 18:176 19:0 20:0 21:0 22:1869 23:0 24:0 #
3.5887986541111512525625262728241e-08 1:191 2:133 3:122 4:0 5:88 6:116 7:116 8:25 9:4 10:144 11:110 12:0 13:7117 14:124 15:128 16:0 17:18 18:94 19:105 20:0 21:1 22:117 23:110 24:1 #
-3.5887986541111512525625262728241e-08 1:14 2:2851 3:667 4:11 5:0 6:4004 7:570 8:1 9:0 10:0 11:3 12:0 13:22 14:436 15:149 16:9 17:34 18:22 19:13 20:1288 21:14 22:300 23:352 24:1484 #
-3.5887986541111512525625262728241e-08 1:104 2:234 3:48 4:153 5:0 6:210 7:22 8:85 9:0 10:220 11:34 12:99 13:0 14:171 15:26 16:51 17:4 18:132 19:38 20:0 21:3592 22:195 23:523 24:3471 #
3.5887986541111512525625262728241e-08 1:45 2:1018 3:960 4:621 5:976 6:164 7:33 8:0 9:1442 10:91 11:8 12:0 13:397 14:57 15:10 16:34 17:4 18:147 19:13 20:45 21:838 22:295 23:23 24:3 #
-2.6653045553028577188767883621168e-08 1:0 2:78 3:31 4:0 5:0 6:87 7:34 8:0 9:1 10:89 11:13 12:0 13:4725 14:36 15:15 16:3 17:1 18:57 19:9 20:0 21:0 22:31776 23:1 24:0 #
3.5887986541111512525625262728241e-08 1:5971 2:135 3:18 4:0 5:7064 6:62 7:23 8:0 9:0 10:64 11:24 12:0 13:0 14:89 15:17 16:0 17:2 18:65 19:23 20:0 21:3 22:71 23:9 24:0 #
-2.9929892919122640242060568284768e-08 1:483 2:148 3:119 4:0 5:18 6:53 7:104 8:0 9:136 10:102 11:106 12:0 13:53 14:72 15:113 16:0 17:35 18:104 19:114 20:0 21:513 22:13843 23:116 24:0 #
-3.5887986541111512525625262728241e-08 1:356 2:129 3:55 4:9 5:24 6:102 7:59 8:0 9:94 10:92 11:70 12:0 13:0 14:77 15:50 16:0 17:124 18:1952 19:58 20:156 21:153 22:532 23:62 24:105 #
-2.8228876805534143982189394491214e-08 1:0 2:92 3:17 4:0 5:0 6:54 7:15 8:0 9:0 10:34 11:8 12:0 13:0 14:1212 15:1112 16:1 17:16 18:29 19:8 20:0 21:0 22:45 23:24 24:0 #
-1.1227179760245083962163836549183e-08 1:23706 2:148 3:32 4:0 5:1 6:198 7:28 8:2 9:67 10:116 11:14 12:2 13:0 14:22 15:13 16:0 17:0 18:92 19:11 20:0 21:114 22:55 23:14 24:0 #
-3.5887986541111512525625262728241e-08 1:31 2:324 3:64 4:0 5:208 6:695 7:65 8:1 9:7084 10:1627 11:80 12:0 13:45 14:166 15:64 16:0 17:9 18:149 19:71 20:0 21:0 22:7029 23:70 24:19 #
-1.1608230139324632200338127500927e-08 1:194 2:1262 3:193 4:13989 5:836 6:217 7:28 8:110 9:126 10:139 11:58 12:12 13:3 14:121 15:22 16:2 17:0 18:164 19:11 20:0 21:0 22:114 23:20 24:0 #
3.5887986541111512525625262728241e-08 1:0 2:50 3:103 4:0 5:9 6:625 7:227 8:17 9:4 10:744 11:738 12:1 13:30 14:751 15:629 16:1 17:446 18:104 19:110 20:0 21:7 22:265 23:140 24:0 #
-3.5887986541111512525625262728241e-08 1:2 2:63 3:12 4:0 5:1 6:717 7:1167 8:2 9:7 10:721 11:982 12:0 13:2 14:47 15:25 16:0 17:0 18:13 19:7 20:674 21:0 22:0 23:2 24:0 #
-3.5887986541111512525625262728241e-08 1:0 2:1762 3:1244 4:1 5:1 6:20 7:11 8:2 9:8 10:50 11:16 12:250 13:2 14:70 15:11 16:55 17:4 18:18 19:9 20:0 21:11983 22:46 23:4 24:0 #
-6.8309696648087592481765571435053e-09 1:67 2:81 3:12 4:0 5:4 6:104 7:40 8:0 9:1 10:73 11:16 12:0 13:7042 14:92 15:20 16:10 17:0 18:48 19:21 20:0 21:3460 22:63 23:5 24:0 #
3.5887986541111512525625262728241e-08 1:1 2:34 3:15 4:0 5:6 6:69 7:30 8:0 9:2 10:68 11:29 12:0 13:7063 14:60 15:9 16:1 17:0 18:53 19:20 20:0 21:0 22:52 23:15 24:4 #
-3.5887986541111512525625262728241e-08 1:121 2:72 3:9 4:0 5:2 6:63 7:12 8:0 9:1 10:717 11:1167 12:2 13:7 14:721 15:982 16:0 17:2 18:47 19:25 20:0 21:0 22:13 23:7 24:674 #
-3.5887986541111512525625262728241e-08 1:7193 2:361 3:57 4:0 5:0 6:214 7:71 8:0 9:1 10:199 11:79 12:0 13:4 14:177 15:304 16:127 17:37 18:1762 19:923 20:0 21:251 22:212 23:14 24:0 #
-3.5887986541111512525625262728241e-08 1:35 2:295 3:110 4:29 5:7193 6:361 7:57 8:0 9:0 10:214 11:71 12:0 13:1 14:199 15:79 16:0 17:4 18:177 19:304 20:127 21:37 22:1762 23:923 24:0 #
-3.5316778514454724842285698611227e-08 1:35 2:104 3:114 4:0 5:513 6:13843 7:116 8:0 9:0 10:95 11:113 12:0 13:0 14:93 15:115 16:0 17:2 18:107 19:115 20:0 21:221 22:941 23:55 24:0 #
-3.5357443906853771506563013666408e-08 1:4 2:187 3:168 4:3 5:13 6:202 7:159 8:202 9:0 10:81 11:117 12:5 13:443 14:124 15:117 16:5 17:9460 18:119 19:123 20:2 21:7341 22:92 23:123 24:0 #
-3.5887986541111512525625262728241e-08 1:0 2:155 3:0 4:0 5:0 6:169 7:0 8:4 9:0 10:7183 11:0 12:2 13:0 14:159 15:0 16:7 17:0 18:106 19:0 20:0 21:0 22:49 23:0 24:0 #
-3.0396026344448004061996743141449e-08 1:0 2:57 3:14 4:0 5:12210 6:38 7:10 8:0 9:3 10:104 11:12 12:0 13:11855 14:80 15:18 16:0 17:1 18:121 19:14 20:0 21:0 22:70 23:11 24:6 #
3.5887986541111512525625262728241e-08 1:4 2:132 3:38 4:0 5:3592 6:195 7:523 8:3471 9:0 10:124 11:56 12:0 13:0 14:159 15:46 16:0 17:194 18:1262 19:193 20:13989 21:836 22:217 23:28 24:110 #
3.5887986541111512525625262728241e-08 1:0 2:868 3:0 4:0 5:0 6:2448 7:0 8:0 9:0 10:1343 11:0 12:3 13:0 14:4866 15:0 16:0 17:0 18:156 19:0 20:9 21:0 22:109 23:0 24:1 #
3.5887986541111512525625262728241e-08 1:0 2:100 3:105 4:0 5:0 6:102 7:106 8:0 9:0 10:100 11:101 12:0 13:17 14:141 15:109 16:5 17:10 18:138 19:38 20:0 21:14 22:2851 23:667 24:11 #
3.5887986541111512525625262728241e-08 1:2 2:1340 3:1499 4:0 5:443 6:831 7:477 8:0 9:427 10:79 11:109 12:0 13:6755 14:96 15:124 16:0 17:7116 18:107 19:118 20:1 21:3935 22:104 23:125 24:94 #
3.5887986541111512525625262728241e-08 1:9 2:625 3:227 4:17 5:4 6:744 7:738 8:1 9:30 10:751 11:629 12:1 13:446 14:104 15:110 16:0 17:7 18:265 19:140 20:0 21:24 22:274 23:171 24:1 #
-3.5887986541111512525625262728241e-08 1:751 2:601 3:981 4:1 5:6 6:279 7:31 8:0 9:0 10:58 11:15 12:0 13:8 14:42 15:4 16:29 17:629 18:64 19:15 20:0 21:307 22:80 23:34 24:1 #
-1.0721389919261465423480388558988e-08 1:0 2:159 3:46 4:0 5:194 6:1262 7:193 8:13989 9:836 10:217 11:28 12:110 13:126 14:139 15:58 16:12 17:3 18:121 19:22 20:2 21:0 22:164 23:11 24:0 #
-3.5887986541111512525625262728241e-08 1:0 2:210 3:22 4:85 5:0 6:220 7:34 8:99 9:0 10:171 11:26 12:51 13:4 14:132 15:38 16:0 17:3592 18:195 19:523 20:3471 21:0 22:124 23:56 24:0 #
-3.5887986541111512525625262728241e-08 1:0 2:100 3:71 4:1 5:0 6:108 7:75 8:0 9:0 10:116 11:72 12:0 13:0 14:53 15:54 16:0 17:0 18:33 19:40 20:2433 21:31 22:1617 23:1233 24:3 #
3.5887986541111512525625262728241e-08 1:0 2:116 3:60 4:0 5:0 6:763 7:61 8:0 9:15 10:121 11:69 12:1 13:3103 14:4445 15:75 16:0 17:7042 18:203 19:94 20:1 21:0 22:166 23:115 24:0 #
3.5887986541111512525625262728241e-08 1:180 2:182 3:85 4:52 5:1401 6:158 7:67 8:0 9:0 10:135 11:61 12:0 13:0 14:100 15:63 16:0 17:23706 18:148 19:32 20:0 21:1 22:198 23:28 24:2 #
-3.5887986541111512525625262728241e-08 1:410 2:100 3:19 4:1 5:126 6:48 7:12 8:0 9:365 10:19 11:10 12:12 13:80 14:69 15:20 16:20 17:7063 18:109 19:30 20:0 21:69 22:30 23:16 24:0 #
3.5887986541111512525625262728241e-08 1:17 2:141 3:109 4:5 5:10 6:138 7:38 8:0 9:14 10:2851 11:667 12:11 13:0 14:4004 15:570 16:1 17:0 18:0 19:3 20:0 21:22 22:436 23:149 24:9 #
3.5887986541111512525625262728241e-08 1:2 2:63 3:9 4:0 5:1 6:34 7:15 8:0 9:6 10:69 11:30 12:0 13:2 14:68 15:29 16:0 17:7063 18:60 19:9 20:1 21:0 22:53 23:20 24:0 #
3.5887986541111512525625262728241e-08 1:3446 2:99 3:110 4:0 5:191 6:133 7:122 8:0 9:88 10:116 11:116 12:25 13:4 14:144 15:110 16:0 17:7117 18:124 19:128 20:0 21:18 22:94 23:105 24:0 #
3.5887986541111512525625262728241e-08 1:610 2:393 3:250 4:1 5:2 6:1340 7:1499 8:0 9:443 10:831 11:477 12:0 13:427 14:79 15:109 16:0 17:6755 18:96 19:124 20:0 21:7116 22:107 23:118 24:1 #
3.5887986541111512525625262728241e-08 1:0 2:76 3:116 4:0 5:155 6:96 7:125 8:0 9:49 10:89 11:111 12:0 13:1751 14:129 15:127 16:0 17:5232 18:94 19:121 20:0 21:34 22:72 23:107 24:2 #
3.5887986541111512525625262728241e-08 1:593 2:174 3:73 4:0 5:517 6:173 7:27 8:0 9:179 10:214 11:33 12:0 13:1270 14:140 15:22 16:0 17:0 18:97 19:16 20:0 21:419 22:127 23:8 24:0 #
3.5887986541111512525625262728241e-08 1:7056 2:159 3:57 4:4 5:5407 6:98 7:60 8:1 9:0 10:106 11:64 12:0 13:0 14:122 15:66 16:0 17:0 18:106 19:56 20:0 21:0 22:90 23:61 24:0 #
3.5887986541111512525625262728241e-08 1:7148 2:34 3:9 4:0 5:126 6:127 7:23 8:0 9:32 10:95 11:25 12:0 13:55 14:104 15:17 16:0 17:49 18:69 19:22 20:0 21:28 22:48 23:10 24:0 #
3.5887986541111512525625262728241e-08 1:0 2:220 3:34 4:99 5:0 6:171 7:26 8:51 9:4 10:132 11:38 12:0 13:3592 14:195 15:523 16:3471 17:0 18:124 19:56 20:0 21:0 22:159 23:46 24:0 #
3.5887986541111512525625262728241e-08 1:4 2:116 3:132 4:2 5:610 6:393 7:250 8:1 9:2 10:1340 11:1499 12:0 13:443 14:831 15:477 16:0 17:427 18:79 19:109 20:0 21:6755 22:96 23:124 24:0 #
3.5887986541111512525625262728241e-08 1:7116 2:107 3:118 4:1 5:3935 6:104 7:125 8:94 9:4 10:187 11:168 12:3 13:13 14:202 15:159 16:202 17:0 18:81 19:117 20:5 21:443 22:124 23:117 24:5 #
3.5887986541111512525625262728241e-08 1:68 2:86 3:13 4:2 5:7073 6:86 7:28 8:0 9:63 10:130 11:31 12:0 13:570 14:138 15:30 16:0 17:111 18:98 19:33 20:0 21:115 22:117 23:10 24:0 #
-3.5779703377031452450221331567509e-08 1:0 2:70 3:23 4:2 5:25 6:98 7:14 8:0 9:0 10:113 11:26 12:0 13:21 14:348 15:35 16:7 17:5476 18:45 19:11 20:0 21:6 22:93 23:19 24:0 #
-3.5876816986336520276273020970542e-08 1:94 2:68 3:30 4:1 5:0 6:78 7:31 8:0 9:0 10:87 11:34 12:0 13:1 14:89 15:13 16:0 17:4725 18:36 19:15 20:3 21:1 22:57 23:9 24:0 #
-1.453984922143861043030213520133e-10 1:13 2:243 3:76 4:0 5:8 6:190 7:53 8:2 9:12 10:168 11:68 12:0 13:3 14:190 15:63 16:0 17:7056 18:159 19:57 20:4 21:5407 22:98 23:60 24:1 #
3.5887986541111512525625262728241e-08 1:0 2:33 3:40 4:2433 5:31 6:1617 7:1233 8:3 9:0 10:119 11:56 12:0 13:0 14:114 15:60 16:0 17:0 18:122 19:59 20:0 21:3819 22:127 23:65 24:0 #
-3.5426087216765790036361388152392e-08 1:0 2:61 3:15 4:0 5:0 6:81 7:23 8:0 9:0 10:1199 11:1054 12:0 13:1 14:155 15:164 16:0 17:5532 18:142 19:24 20:1 21:324 22:108 23:26 24:0 #
3.5887986541111512525625262728241e-08 1:19 2:96 3:6 4:0 5:6 6:109 7:20 8:0 9:38 10:102 11:16 12:0 13:0 14:136 15:22 16:0 17:0 18:0 19:3 20:1 21:2 22:1602 23:1286 24:0 #
-3.5887986541111512525625262728241e-08 1:21 2:1041 3:1230 4:4 5:14 6:326 7:73 8:0 9:78 10:109 11:67 12:0 13:28 14:118 15:64 16:0 17:5 18:139 19:65 20:0 21:96 22:152 23:119 24:0 #
3.5887986541111512525625262728241e-08 1:380 2:91 3:114 4:0 5:0 6:76 7:116 8:0 9:155 10:96 11:125 12:0 13:49 14:89 15:111 16:0 17:1751 18:129 19:127 20:0 21:5232 22:94 23:121 24:0 #
-4.1764403483964700694803371034715e-09 1:1 2:89 3:13 4:0 5:4725 6:36 7:15 8:3 9:1 10:57 11:9 12:0 13:0 14:31776 15:1 16:0 17:0 18:75375 19:17 20:0 21:31 22:62 23:12 24:15 #
-8.6815246923491851100502733618036e-10 1:41 2:928 3:68 4:0 5:23353 6:124 7:64 8:0 9:3 10:97 11:56 12:0 13:10 14:84 15:65 16:0 17:1 18:100 19:59 20:0 21:5153 22:150 23:71 24:0 #
-3.5879542276699399817878235584984e-08 1:23353 2:124 3:64 4:0 5:3 6:97 7:56 8:0 9:10 10:84 11:65 12:0 13:1 14:100 15:59 16:0 17:5153 18:150 19:71 20:0 21:21 22:147 23:85 24:0 #
-2.3907338117500025453108017381432e-08 1:7 2:166 3:118 4:1 5:10 6:1253 7:129 8:0 9:0 10:1070 11:117 12:0 13:0 14:540 15:109 16:0 17:7049 18:178 19:117 20:1 21:1 22:199 23:119 24:0 #
3.5887986541111512525625262728241e-08 1:494 2:98 3:57 4:0 5:392 6:144 7:83 8:0 9:2 10:91 11:65 12:0 13:263 14:63 15:95 16:0 17:3446 18:99 19:110 20:0 21:191 22:133 23:122 24:0 #
-2.7071526715025370698206388930807e-08 1:249 2:56 3:4 4:0 5:3 6:71 7:27 8:0 9:0 10:79 11:15 12:0 13:0 14:33 15:6 16:0 17:5295 18:40 19:6 20:0 21:13 22:70 23:12 24:0 #
3.5887986541111512525625262728241e-08 1:1 2:155 3:164 4:0 5:5532 6:142 7:24 8:1 9:324 10:108 11:26 12:0 13:0 14:56 15:16 16:0 17:3 18:96 19:13 20:0 21:1 22:68 23:22 24:0 #
3.5887986541111512525625262728241e-08 1:0 2:320 3:65 4:0 5:13 6:243 7:76 8:0 9:8 10:190 11:53 12:2 13:12 14:168 15:68 16:0 17:3 18:190 19:63 20:0 21:7056 22:159 23:57 24:4 #
-3.5887986541111512525625262728241e-08 1:2 2:127 3:60 4:0 5:13 6:95 7:56 8:0 9:37 10:70 11:63 12:1 13:27 14:76 15:82 16:0 17:5455 18:74 19:55 20:0 21:0 22:53 23:56 24:2 #
-1.7720410492075946575346240339892e-08 1:4 2:65 3:9 4:0 5:5 6:69 7:7 8:0 9:0 10:69 11:12 12:0 13:0 14:78 15:3 16:0 17:4616 18:77 19:12 20:0 21:2519 22:87 23:9 24:0 #
-2.3534048289653629543530244383476e-08 1:2 2:177 3:18 4:0 5:2 6:94 7:15 8:0 9:0 10:239 11:10 12:0 13:714 14:141 15:18 16:0 17:5097 18:136 19:24 20:0 21:0 22:74 23:16 24:0 #
3.5887986541111512525625262728241e-08 1:27 2:1 3:122 4:0 5:206 6:0 7:25 8:460 9:45 10:1018 11:960 12:621 13:976 14:164 15:33 16:0 17:1442 18:91 19:8 20:0 21:397 22:57 23:10 24:34 #
3.5887986541111512525625262728241e-08 1:2 2:68 3:29 4:0 5:7063 6:60 7:9 8:1 9:0 10:53 11:20 12:0 13:0 14:52 15:15 16:4 17:0 18:44 19:16 20:2 21:31 22:73 23:22 24:1 #
3.5887986541111512525625262728241e-08 1:206 2:0 3:25 4:460 5:45 6:1018 7:960 8:621 9:976 10:164 11:33 12:0 13:1442 14:91 15:8 16:0 17:397 18:57 19:10 20:34 21:4 22:147 23:13 24:45 #
-3.2411184995410902143220255311462e-08 1:0 2:53 3:20 4:0 5:0 6:52 7:15 8:4 9:0 10:44 11:16 12:2 13:31 14:73 15:22 16:1 17:5925 18:71 19:16 20:1 21:49 22:70 23:21 24:0 #
-3.5887986541111512525625262728241e-08 1:224 2:72 3:17 4:1 5:15 6:75 7:20 8:0 9:32 10:75 11:18 12:0 13:3 14:54 15:11 16:0 17:1 18:62 19:8 20:0 21:0 22:1165 23:879 24:26 #
-3.5887986541111512525625262728241e-08 1:17 2:104 3:59 4:0 5:0 6:319 7:65 8:0 9:2 10:926 11:61 12:0 13:180 14:182 15:85 16:52 17:1401 18:158 19:67 20:0 21:0 22:135 23:61 24:0 #
-3.5887986541111512525625262728241e-08 1:10 2:60 3:20 4:0 5:9 6:50 7:17 8:0 9:2 10:26 11:11 12:28 13:4 14:69 15:16 16:0 17:0 18:78 19:13 20:23 21:0 22:28 23:10 24:0 #
-3.5887986541111512525625262728241e-08 1:0 2:108 3:75 4:0 5:0 6:116 7:72 8:0 9:0 10:53 11:54 12:0 13:0 14:33 15:40 16:2433 17:31 18:1617 19:1233 20:3 21:0 22:119 23:56 24:0 #
3.5887986541111512525625262728241e-08 1:0 2:30 3:11 4:0 5:5836 6:25 7:6 8:0 9:4 10:46 11:8 12:0 13:10 14:53 15:7 16:0 17:10 18:60 19:20 20:0 21:9 22:50 23:17 24:0 #
-5.5647001062702698106538943753629e-11 1:2 2:96 3:56 4:0 5:31 6:1122 7:1081 8:1 9:102 10:246 11:186 12:7 13:356 14:129 15:55 16:9 17:24 18:102 19:59 20:0 21:94 22:92 23:70 24:0 #
-3.5887819442677922617800101174473e-08 1:3 2:104 3:12 4:0 5:11855 6:80 7:18 8:0 9:1 10:121 11:14 12:0 13:0 14:70 15:11 16:6 17:0 18:100 19:9 20:0 21:111 22:97 23:20 24:0 #
-3.5887986541111512525625262728241e-08 1:5836 2:25 3:6 4:0 5:4 6:46 7:8 8:0 9:10 10:53 11:7 12:0 13:10 14:60 15:20 16:0 17:9 18:50 19:17 20:0 21:2 22:26 23:11 24:28 #
3.5887986541111512525625262728241e-08 1:0 2:122 3:59 4:0 5:3819 6:127 7:65 8:0 9:23 10:3453 11:75 12:2 13:6 14:1178 15:134 16:2 17:0 18:116 19:60 20:0 21:0 22:763 23:61 24:0 #
-3.5887986541111512525625262728241e-08 1:0 2:95 3:21 4:0 5:0 6:146 7:47 8:0 9:0 10:117 11:35 12:0 13:0 14:136 15:27 16:0 17:0 18:132 19:24 20:0 21:0 22:74 23:11 24:0 #
-2.3730686889331233235907647662749e-08 1:4 2:144 3:110 4:0 5:7117 6:124 7:128 8:0 9:18 10:94 11:105 12:0 13:1 14:117 15:110 16:1 17:439 18:117 19:110 20:17 21:2 22:85 23:109 24:0 #
3.5887986541111512525625262728241e-08 1:8 2:64 3:21 4:0 5:2 6:74 7:13 8:0 9:9 10:47 11:24 12:0 13:841 14:67 15:24 16:0 17:834 18:62 19:13 20:0 21:0 22:79 23:16 24:0 #
3.5887986541111512525625262728241e-08 1:111 2:98 3:78 4:0 5:2 6:127 7:60 8:0 9:13 10:95 11:56 12:0 13:37 14:70 15:63 16:1 17:27 18:76 19:82 20:0 21:5455 22:74 23:55 24:0 #
-3.2627954956080271268483924962389e-08 1:0 2:44 3:19 4:0 5:32 6:2213 7:1865 8:0 9:3 10:14 11:3 12:0 13:2 14:74 15:19 16:0 17:59 18:76 19:9 20:0 21:0 22:40 23:13 24:0 #
-2.4604819510380290827869682879214e-08 1:0 2:119 3:0 4:0 5:0 6:7136 7:0 8:0 9:0 10:20 11:0 12:0 13:0 14:45 15:0 16:0 17:0 18:186 19:0 20:0 21:0 22:8 23:0 24:0 #
-1.2384683147488714870487454614012e-09 1:5153 2:150 3:71 4:0 5:21 6:147 7:85 8:0 9:37 10:135 11:62 12:0 13:172 14:162 15:66 16:0 17:2 18:787 19:62 20:0 21:1 22:123 23:56 24:10 #
3.5887986541111512525625262728241e-08 1:1 2:100 3:59 4:0 5:5153 6:150 7:71 8:0 9:21 10:147 11:85 12:0 13:37 14:135 15:62 16:0 17:172 18:162 19:66 20:0 21:2 22:787 23:62 24:0 #
-2.6918481834520398911015016301176e-08 1:20 2:2423 3:2680 4:0 5:6 6:33 7:12 8:0 9:5 10:67 11:20 12:0 13:2 14:67 15:10 16:0 17:1 18:66 19:18 20:0 21:34 22:56 23:13 24:0 #
-6.5627300052127240348703689221121e-09 1:513 2:13843 3:116 4:0 5:0 6:95 7:113 8:0 9:0 10:93 11:115 12:0 13:2 14:107 15:115 16:0 17:221 18:941 19:55 20:0 21:138 22:73 23:668 24:0 #
-3.5887986541111512525625262728241e-08 1:0 2:4004 3:570 4:1 5:0 6:0 7:3 8:0 9:22 10:436 11:149 12:9 13:34 14:22 15:13 16:1288 17:14 18:300 19:352 20:1484 21:50 22:106 23:55 24:0 #
3.5887986541111512525625262728241e-08 1:0 2:48 3:5 4:0 5:2 6:25 7:10 8:0 9:0 10:55 11:16 12:1 13:0 14:33 15:8 16:0 17:0 18:1762 19:1244 20:1 21:1 22:20 23:11 24:2 #
3.5887986541111512525625262728241e-08 1:1 2:1736 3:7 4:0 5:0 6:4 7:6 8:0 9:0 10:124 11:52 12:0 13:3 14:22 15:5 16:0 17:27 18:1 19:122 20:0 21:206 22:0 23:25 24:460 #
-5.7059557882641805857148781418176e-09 1:0 2:76 3:0 4:0 5:0 6:7160 7:0 8:0 9:0 10:164 11:0 12:0 13:0 14:119 15:0 16:0 17:0 18:7136 19:0 20:0 21:0 22:20 23:0 24:0 #
-1.0375328142175298041731238991164e-13 1:4725 2:36 3:15 4:3 5:1 6:57 7:9 8:0 9:0 10:31776 11:1 12:0 13:0 14:75375 15:17 16:0 17:31 18:62 19:12 20:15 21:7057 22:84 23:35 24:0 #
-3.5887986541111512525625262728241e-08 1:0 2:4 3:6 4:0 5:0 6:124 7:52 8:0 9:3 10:22 11:5 12:0 13:27 14:1 15:122 16:0 17:206 18:0 19:25 20:460 21:45 22:1018 23:960 24:621 #
-3.5850357071321674386649722490739e-08 1:6 2:1178 3:134 4:2 5:0 6:116 7:60 8:0 9:0 10:763 11:61 12:0 13:15 14:121 15:69 16:1 17:3103 18:4445 19:75 20:0 21:7042 22:203 23:94 24:1 #
-3.5887986541111512525625262728241e-08 1:32 2:75 3:18 4:0 5:3 6:54 7:11 8:0 9:1 10:62 11:8 12:0 13:0 14:1165 15:879 16:26 17:21 18:683 19:951 20:0 21:295 22:70 23:10 24:0 #
-1.7927429955740884479943597629159e-08 1:6 2:124 3:27 4:1 5:0 6:60 7:18 8:0 9:0 10:66 11:15 12:0 13:20 14:2423 15:2680 16:0 17:6 18:33 19:12 20:0 21:5 22:67 23:20 24:0 #
3.5887986541111512525625262728241e-08 1:31 2:1617 3:1233 4:3 5:0 6:119 7:56 8:0 9:0 10:114 11:60 12:0 13:0 14:122 15:59 16:0 17:3819 18:127 19:65 20:0 21:23 22:3453 23:75 24:2 #
-1.0708110967277474114001112326378e-08 1:45 2:166 3:64 4:0 5:9 6:149 7:71 8:0 9:0 10:7029 11:70 12:19 13:0 14:139 15:73 16:0 17:0 18:102 19:63 20:0 21:3 22:169 23:71 24:0 #
3.5887986541111512525625262728241e-08 1:0 2:125 3:0 4:0 5:0 6:7087 7:0 8:0 9:0 10:220 11:0 12:0 13:0 14:49 15:0 16:0 17:0 18:86 19:0 20:0 21:0 22:52 23:0 24:1 #
1.6607310549391817086287357328224e-08 1:3592 2:195 3:523 4:3471 5:0 6:124 7:56 8:0 9:0 10:159 11:46 12:0 13:194 14:1262 15:193 16:13989 17:836 18:217 19:28 20:110 21:126 22:139 23:58 24:12 #
3.5887986541111512525625262728241e-08 1:0 2:32 3:0 4:0 5:0 6:868 7:0 8:0 9:0 10:2448 11:0 12:0 13:0 14:1343 15:0 16:3 17:0 18:4866 19:0 20:0 21:0 22:156 23:0 24:9 #
3.5887986541111512525625262728241e-08 1:0 2:190 3:0 4:0 5:0 6:152 7:0 8:0 9:0 10:611 11:0 12:0 13:0 14:524 15:0 16:0 17:0 18:3664 19:0 20:0 21:0 22:158 23:0 24:0 #
3.5887986541111512525625262728241e-08 1:5455 2:74 3:55 4:0 5:0 6:53 7:56 8:2 9:240 10:90 11:81 12:0 13:0 14:45 15:64 16:0 17:56 18:53 19:67 20:0 21:221 22:67 23:67 24:0 #
3.5887986541111512525625262728241e-08 1:7042 2:203 3:94 4:1 5:0 6:166 7:115 8:0 9:7 10:166 11:118 12:1 13:10 14:1253 15:129 16:0 17:0 18:1070 19:117 20:0 21:0 22:540 23:109 24:0 #
3.5887986541111512525625262728241e-08 1:0 2:1343 3:0 4:3 5:0 6:4866 7:0 8:0 9:0 10:156 11:0 12:9 13:0 14:109 15:0 16:1 17:0 18:116 19:0 20:8 21:0 22:123 23:0 24:5 #
3.5887986541111512525625262728241e-08 1:0 2:78 3:13 4:23 5:0 6:28 7:10 8:0 9:0 10:547 11:921 12:0 13:751 14:601 15:981 16:1 17:6 18:279 19:31 20:0 21:0 22:58 23:15 24:0 #
3.5887986541111512525625262728241e-08 1:3 2:22 3:5 4:0 5:27 6:1 7:122 8:0 9:206 10:0 11:25 12:460 13:45 14:1018 15:960 16:621 17:976 18:164 19:33 20:0 21:1442 22:91 23:8 24:0 #
3.5887986541111512525625262728241e-08 1:0 2:19 3:0 4:0 5:0 6:32 7:0 8:0 9:0 10:868 11:0 12:0 13:0 14:2448 15:0 16:0 17:0 18:1343 19:0 20:3 21:0 22:4866 23:0 24:0 #
3.5887986541111512525625262728241e-08 1:31 2:1122 3:1081 4:1 5:102 6:246 7:186 8:7 9:356 10:129 11:55 12:9 13:24 14:102 15:59 16:0 17:94 18:92 19:70 20:0 21:0 22:77 23:50 24:0 #
-3.5887986541111512525625262728241e-08 1:15 2:94 3:22 4:0 5:0 6:45 7:5 8:0 9:3 10:62 11:18 12:0 13:2 14:62 15:8 16:0 17:1 18:77 19:23 20:0 21:0 22:90 23:43 24:298 #
-1.5193561404632052029176981014502e-12 1:0 2:30 3:10 4:0 5:96 6:43 7:18 8:0 9:3 10:45 11:38 12:0 13:0 14:69 15:13 16:0 17:0 18:85 19:13 20:0 21:2 22:81347 23:21 24:0 #
-1.6151279861683844298940213404271e-08 1:208 2:695 3:65 4:1 5:7084 6:1627 7:80 8:0 9:45 10:166 11:64 12:0 13:9 14:149 15:71 16:0 17:0 18:7029 19:70 20:19 21:0 22:139 23:73 24:0 #
-3.5887986541111512525625262728241e-08 1:0 2:1165 3:879 4:26 5:21 6:683 7:951 8:0 9:295 10:70 11:10 12:0 13:8 14:111 15:19 16:0 17:36 18:88 19:32 20:0 21:2 22:83 23:15 24:0 #
-3.5887986541111512525625262728241e-08 1:0 2:141 3:25 4:0 5:3 6:73 7:9 8:0 9:51 10:99 11:33 12:0 13:0 14:91 15:22 16:0 17:21 18:86 19:17 20:1 21:88 22:65 23:16 24:391 #
-3.5887917190113209978119535037422e-08 1:9 2:149 3:71 4:0 5:0 6:7029 7:70 8:19 9:0 10:139 11:73 12:0 13:0 14:102 15:63 16:0 17:3 18:169 19:71 20:0 21:0 22:229 23:65 24:0 #
-3.5887986541111512525625262728241e-08 1:94 2:92 3:70 4:0 5:0 6:77 7:50 8:0 9:124 10:1952 11:58 12:156 13:153 14:532 15:62 16:105 17:17 18:104 19:59 20:0 21:0 22:319 23:65 24:0 #
3.5887986541111512525625262728241e-08 1:0 2:547 3:921 4:0 5:751 6:601 7:981 8:1 9:6 10:279 11:31 12:0 13:0 14:58 15:15 16:0 17:8 18:42 19:4 20:29 21:629 22:64 23:15 24:0 #
-3.4023479720865010939544192947182e-08 1:0 2:209 3:0 4:0 5:0 6:7140 7:0 8:0 9:0 10:54 11:0 12:0 13:0 14:176 15:0 16:0 17:0 18:1869 19:0 20:0 21:0 22:854 23:0 24:0 #
-3.5887986541111512525625262728241e-08 1:88 2:65 3:16 4:391 5:3 6:62 7:28 8:0 9:111 10:37 11:22 12:394 13:4 14:86 15:30 16:104 17:7148 18:34 19:9 20:0 21:126 22:127 23:23 24:0 #
-3.5575477177638911707724389543728e-08 1:0 2:59 3:0 4:0 5:0 6:99 7:0 8:0 9:0 10:4533 11:0 12:0 13:0 14:258 15:1 16:0 17:0 18:154 19:0 20:0 21:0 22:198 23:0 24:0 #
-3.448892062478917011191653640978e-08 1:0 2:3 3:0 4:0 5:0 6:3148 7:0 8:0 9:0 10:4317 11:0 12:0 13:0 14:266 15:0 16:0 17:0 18:208 19:0 20:0 21:0 22:955 23:0 24:0 #
-3.5887986541111512525625262728241e-08 1:0 2:124 3:52 4:0 5:3 6:22 7:5 8:0 9:27 10:1 11:122 12:0 13:206 14:0 15:25 16:460 17:45 18:1018 19:960 20:621 21:976 22:164 23:33 24:0 #
-3.5887986541111512525625262728241e-08 1:0 2:45 3:5 4:0 5:3 6:62 7:18 8:0 9:2 10:62 11:8 12:0 13:1 14:77 15:23 16:0 17:0 18:90 19:43 20:298 21:6 22:106 23:34 24:0 #
3.5887986541111512525625262728241e-08 1:5295 2:40 3:6 4:0 5:13 6:70 7:12 8:0 9:1 10:80 11:10 12:0 13:1 14:24 15:9 16:0 17:195 18:122 19:23 20:191 21:5 22:103 23:13 24:0 #
3.5887986541111512525625262728241e-08 1:0 2:100 3:101 4:0 5:17 6:141 7:109 8:5 9:10 10:138 11:38 12:0 13:14 14:2851 15:667 16:11 17:0 18:4004 19:570 20:1 21:0 22:0 23:3 24:0 #
3.5887986541111512525625262728241e-08 1:111 2:97 3:20 4:0 5:0 6:79 7:11 8:0 9:0 10:61 11:15 12:0 13:0 14:81 15:23 16:0 17:0 18:1199 19:1054 20:0 21:1 22:155 23:164 24:0 #
3.5887986541111512525625262728241e-08 1:179 2:214 3:33 4:0 5:1270 6:140 7:22 8:0 9:0 10:97 11:16 12:0 13:419 14:127 15:8 16:0 17:104 18:234 19:48 20:153 21:0 22:210 23:22 24:85 #
-3.5887986541111512525625262728241e-08 1:0 2:0 3:3 4:0 5:22 6:436 7:149 8:9 9:34 10:22 11:13 12:1288 13:14 14:300 15:352 16:1484 17:50 18:106 19:55 20:0 21:101 22:583 23:60 24:0 #
3.5887986541111512525625262728241e-08 1:114 2:26 3:7 4:0 5:70 6:37 7:8 8:0 9:142 10:43 11:22 12:0 13:410 14:100 15:19 16:1 17:126 18:48 19:12 20:0 21:365 22:19 23:10 24:12 #
-3.5887986541111512525625262728241e-08 1:2 2:1602 3:1286 4:0 5:59 6:35 7:2 8:1 9:8 10:160 11:50 12:0 13:16 14:126 15:21 16:0 17:15 18:133 19:22 20:0 21:80 22:106 23:75 24:0 #
-9.1963867495945873266338654872243e-09 1:0 2:164 3:0 4:0 5:0 6:119 7:0 8:0 9:0 10:7136 11:0 12:0 13:0 14:20 15:0 16:0 17:0 18:45 19:0 20:0 21:0 22:186 23:0 24:0 #
-3.5887986541111512525625262728241e-08 1:2 2:91 3:65 4:0 5:263 6:63 7:95 8:0 9:3446 10:99 11:110 12:0 13:191 14:133 15:122 16:0 17:88 18:116 19:116 20:25 21:4 22:144 23:110 24:0 #
3.5887986541111512525625262728241e-08 1:0 2:1411 3:1223 4:0 5:465 6:464 7:11 8:6 9:0 10:60 11:13 12:0 13:79 14:221 15:19 16:0 17:44 18:143 19:19 20:0 21:3 22:133 23:20 24:0 #
3.5887986541111512525625262728241e-08 1:0 2:89 3:55 4:0 5:1 6:99 7:53 8:0 9:4 10:127 11:66 12:0 13:2 14:96 15:56 16:0 17:31 18:1122 19:1081 20:1 21:102 22:246 23:186 24:7 #
3.5887986541111512525625262728241e-08 1:0 2:63 3:19 4:0 5:3 6:73 7:22 8:0 9:0 10:95 11:14 12:0 13:0 14:95 15:20 16:0 17:0 18:41 19:12 20:0 21:0 22:1411 23:1223 24:0 #
-3.5887986541111512525625262728241e-08 1:0 2:91 3:22 4:0 5:21 6:86 7:17 8:1 9:88 10:65 11:16 12:391 13:3 14:62 15:28 16:0 17:111 18:37 19:22 20:394 21:4 22:86 23:30 24:104 #
3.5887986541111512525625262728241e-08 1:0 2:25 3:0 4:0 5:0 6:77 7:0 8:3 9:0 10:19 11:0 12:0 13:0 14:32 15:0 16:0 17:0 18:868 19:0 20:0 21:0 22:2448 23:0 24:0 #
-3.3839649506951774475416324337862e-08 1:0 2:104 3:0 4:0 5:0 6:76 7:0 8:0 9:0 10:7160 11:0 12:0 13:0 14:164 15:0 16:0 17:0 18:119 19:0 20:0 21:0 22:7136 23:0 24:0 #
3.5887986541111512525625262728241e-08 1:0 2:77 3:50 4:0 5:124 6:1952 7:58 8:156 9:153 10:532 11:62 12:105 13:17 14:104 15:59 16:0 17:0 18:319 19:65 20:0 21:2 22:926 23:61 24:0 #
-3.5887986541111512525625262728241e-08 1:392 2:144 3:83 4:0 5:2 6:91 7:65 8:0 9:263 10:63 11:95 12:0 13:3446 14:99 15:110 16:0 17:191 18:133 19:122 20:0 21:88 22:116 23:116 24:25 #
3.5887986541111512525625262728241e-08 1:0 2:108 3:67 4:0 5:0 6:110 7:72 8:1 9:0 10:810 11:68 12:0 13:0 14:3601 15:65 16:0 17:0 18:1756 19:65 20:0 21:0 22:148 23:60 24:0 #
3.5887986541111512525625262728241e-08 1:0 2:116 3:0 4:8 5:0 6:123 7:0 8:5 9:0 10:93 11:0 12:5 13:0 14:124 15:0 16:0 17:0 18:155 19:0 20:0 21:0 22:169 23:0 24:4 #
-3.5887986541111512525625262728241e-08 1:2 2:143 3:100 4:0 5:2 6:57 7:42 8:0 9:0 10:0 11:0 12:0 13:0 14:0 15:0 16:0 17:0 18:0 19:0 20:0 21:0 22:0 23:0 24:0 #
-3.5887986541111512525625262728241e-08 1:0 2:1212 3:1112 4:1 5:16 6:29 7:8 8:0 9:0 10:45 11:24 12:0 13:0 14:82 15:97 16:0 17:0 18:155 19:71 20:2 21:333 22:388 23:69 24:120 #
-2.6438592495911630218764429289813e-08 1:0 2:36 3:7 4:0 5:0 6:39 7:16 8:0 9:0 10:42 11:16 12:0 13:0 14:50 15:15 16:0 17:0 18:44 19:19 20:0 21:32 22:2213 23:1865 24:0 #
-3.588716401014249990296628260722e-08 1:0 2:90 3:25 4:0 5:0 6:62 7:18 8:0 9:71 10:27 11:13 12:0 13:36 14:1397 15:1631 16:2 17:6 18:0 19:2 20:0 21:30 22:63 23:3 24:0 #
-3.5861715977387233802863464749572e-08 1:138 2:73 3:668 4:0 5:82 6:102 7:81 8:0 9:1 10:85 11:93 12:0 13:17 14:97 15:109 16:0 17:2 18:88 19:109 20:0 21:65 22:107 23:122 24:0 #
3.5887986541111512525625262728241e-08 1:10 2:138 3:38 4:0 5:14 6:2851 7:667 8:11 9:0 10:4004 11:570 12:1 13:0 14:0 15:3 16:0 17:22 18:436 19:149 20:9 21:34 22:22 23:13 24:1288 #
3.5887986541111512525625262728241e-08 1:0 2:511 3:67 4:0 5:0 6:240 7:72 8:0 9:0 10:1717 11:72 12:0 13:0 14:949 15:58 16:0 17:0 18:1375 19:54 20:0 21:0 22:108 23:67 24:0 #
3.5887986541111512525625262728241e-08 1:32 2:2213 3:1865 4:0 5:3 6:14 7:3 8:0 9:2 10:74 11:19 12:0 13:59 14:76 15:9 16:0 17:0 18:40 19:13 20:0 21:0 22:52 23:14 24:0 #
-3.5887986541111512525625262728241e-08 1:0 2:93 3:0 4:5 5:0 6:124 7:0 8:0 9:0 10:155 11:0 12:0 13:0 14:169 15:0 16:4 17:0 18:7183 19:0 20:2 21:0 22:159 23:0 24:7 #
3.5887986541111512525625262728241e-08 1:0 2:1869 3:0 4:0 5:0 6:854 7:0 8:0 9:0 10:34 11:0 12:0 13:0 14:137 15:0 16:0 17:0 18:442 19:0 20:0 21:0 22:229 23:1 24:0 #
3.5887986541111512525625262728241e-08 1:0 2:139 3:73 4:0 5:0 6:102 7:63 8:0 9:3 10:169 11:71 12:0 13:0 14:229 15:65 16:0 17:35 18:1362 19:63 20:0 21:29 22:395 23:71 24:0 #
-3.5887986541111512525625262728241e-08 1:0 2:55 3:16 4:1 5:0 6:33 7:8 8:0 9:0 10:1762 11:1244 12:1 13:1 14:20 15:11 16:2 17:8 18:50 19:16 20:250 21:2 22:70 23:11 24:55 #
-3.5596668843963204996406687885546e-08 1:71 2:27 3:13 4:0 5:36 6:1397 7:1631 8:2 9:6 10:0 11:2 12:0 13:30 14:63 15:3 16:0 17:2 18:38 19:10 20:0 21:4 22:37 23:20 24:0 #
-4.0009385061801992731667380122666e-10 1:3935 2:104 3:125 4:94 5:4 6:187 7:168 8:3 9:13 10:202 11:159 12:202 13:0 14:81 15:117 16:5 17:443 18:124 19:117 20:5 21:9460 22:119 23:123 24:2 #
3.5887986541111512525625262728241e-08 1:605 2:156 3:64 4:1 5:389 6:200 7:72 8:0 9:121 10:206 11:63 12:0 13:108 14:482 15:70 16:0 17:96 18:472 19:67 20:0 21:31 22:324 23:64 24:0 #
3.5887986541111512525625262728241e-08 1:1 2:24 3:9 4:1 5:0 6:11 7:8 8:0 9:8 10:686 11:585 12:0 13:15 14:914 15:782 16:0 17:7 18:700 19:102 20:1 21:6 22:213 23:45 24:0 #
3.5887986541111512525625262728241e-08 1:1270 2:140 3:22 4:0 5:0 6:97 7:16 8:0 9:419 10:127 11:8 12:0 13:104 14:234 15:48 16:153 17:0 18:210 19:22 20:85 21:0 22:220 23:34 24:99 #
3.5887986541111512525625262728241e-08 1:1189 2:187 3:64 4:0 5:0 6:405 7:70 8:0 9:235 10:235 11:69 12:0 13:76 14:293 15:103 16:21 17:142 18:340 19:101 20:31 21:199 22:323 23:132 24:51 #
-3.5887986541111512525625262728241e-08 1:0 2:111 3:0 4:0 5:0 6:412 7:0 8:0 9:0 10:84 11:0 12:0 13:0 14:83 15:0 16:0 17:0 18:64 19:0 20:188 21:0 22:41 23:0 24:0 #
-2.5971474583354886567221342374978e-08 1:0 2:99 3:0 4:0 5:0 6:4533 7:0 8:0 9:0 10:258 11:1 12:0 13:0 14:154 15:0 16:0 17:0 18:198 19:0 20:0 21:0 22:177 23:0 24:0 #
-3.5887986541111512525625262728241e-08 1:124 2:1952 3:58 4:156 5:153 6:532 7:62 8:105 9:17 10:104 11:59 12:0 13:0 14:319 15:65 16:0 17:2 18:926 19:61 20:0 21:180 22:182 23:85 24:52 #
-1.747830482850538857421222962193e-09 1:428 2:88 3:20 4:0 5:1002 6:25426 7:13 8:0 9:0 10:84245 11:11 12:0 13:2 14:32870 15:9 16:0 17:1 18:47 19:7 20:0 21:0 22:1404 23:1294 24:0 #
3.5887986541111512525625262728241e-08 1:102 2:246 3:186 4:7 5:356 6:129 7:55 8:9 9:24 10:102 11:59 12:0 13:94 14:92 15:70 16:0 17:0 18:77 19:50 20:0 21:124 22:1952 23:58 24:156 #
3.5887986541111512525625262728241e-08 1:2 2:85 3:109 4:0 5:16 6:113 7:119 8:0 9:104 10:55 11:106 12:0 13:0 14:50 15:103 16:0 17:9 18:625 19:227 20:17 21:4 22:744 23:738 24:1 #
-3.5887986541111512525625262728241e-08 1:0 2:0 3:0 4:0 5:3 6:1328 7:16 8:0 9:0 10:1255 11:39 12:0 13:0 14:85 15:55 16:0 17:3 18:58 19:32 20:0 21:2 22:39 23:10 24:0 #
3.5887986541111512525625262728241e-08 1:0 2:102 3:63 4:0 5:3 6:169 7:71 8:0 9:0 10:229 11:65 12:0 13:35 14:1362 15:63 16:0 17:29 18:395 19:71 20:0 21:0 22:166 23:78 24:3 #
3.5887986541111512525625262728241e-08 1:419 2:127 3:8 4:0 5:104 6:234 7:48 8:153 9:0 10:210 11:22 12:85 13:0 14:220 15:34 16:99 17:0 18:171 19:26 20:51 21:4 22:132 23:38 24:0 #
3.5887986541111512525625262728241e-08 1:68 2:339 3:9 4:0 5:45 6:83 7:15 8:0 9:107 10:87 11:23 12:0 13:68 14:158 15:20 16:0 17:0 18:131 19:24 20:0 21:0 22:658 23:580 24:2 #
3.5887986541111512525625262728241e-08 1:2 2:25 3:10 4:0 5:0 6:55 7:16 8:1 9:0 10:33 11:8 12:0 13:0 14:1762 15:1244 16:1 17:1 18:20 19:11 20:2 21:8 22:50 23:16 24:250 #
3.5887986541111512525625262728241e-08 1:4 2:43 3:7 4:0 5:121 6:72 7:9 8:0 9:2 10:63 11:12 12:0 13:1 14:717 15:1167 16:2 17:7 18:721 19:982 20:0 21:2 22:47 23:25 24:0 #
3.5887986541111512525625262728241e-08 1:7 2:24 3:16 4:1 5:1 6:13 7:9 8:0 9:1 10:24 11:9 12:1 13:0 14:11 15:8 16:0 17:8 18:686 19:585 20:0 21:15 22:914 23:782 24:0 #
3.5887986541111512525625262728241e-08 1:0 2:137 3:0 4:0 5:0 6:442 7:0 8:0 9:0 10:229 11:1 12:0 13:0 14:429 15:0 16:1 17:0 18:175 19:0 20:0 21:0 22:156 23:0 24:0 #
3.5887986541111512525625262728241e-08 1:0 2:63 3:23 4:0 5:0 6:48 7:5 8:0 9:2 10:25 11:10 12:0 13:0 14:55 15:16 16:1 17:0 18:33 19:8 20:0 21:0 22:1762 23:1244 24:1 #
-1.5272193727364193363627142417845e-08 1:0 2:50 3:15 4:0 5:0 6:44 7:19 8:0 9:32 10:2213 11:1865 12:0 13:3 14:14 15:3 16:0 17:2 18:74 19:19 20:0 21:59 22:76 23:9 24:0 #
-6.8966576295470061533365857542321e-10 1:0 2:190 3:0 4:0 5:0 6:7219 7:0 8:0 9:0 10:262 11:0 12:0 13:0 14:185 15:0 16:0 17:0 18:92 19:0 20:0 21:0 22:75 23:0 24:0 #
-3.5887986541111512525625262728241e-08 1:0 2:124 3:92 4:0 5:3 6:123 7:112 8:0 9:0 10:123 11:111 12:0 13:0 14:127 15:108 16:0 17:1 18:120 19:104 20:0 21:2 22:143 23:100 24:0 #
3.5887986541111512525625262728241e-08 1:0 2:194 3:11 4:0 5:0 6:320 7:65 8:0 9:13 10:243 11:76 12:0 13:8 14:190 15:53 16:2 17:12 18:168 19:68 20:0 21:3 22:190 23:63 24:0 #
-3.5887986541111512525625262728241e-08 1:0 2:11 3:0 4:0 5:0 6:111 7:0 8:0 9:0 10:412 11:0 12:0 13:0 14:84 15:0 16:0 17:0 18:83 19:0 20:0 21:0 22:64 23:0 24:188 #
3.5887986541111512525625262728241e-08 1:252 2:163 3:32 4:0 5:14 6:80 7:19 8:0 9:41 10:61 11:18 12:0 13:4 14:81 15:15 16:0 17:107 18:147 19:33 20:0 21:511 22:155 23:15 24:1 #
-3.5887986541111512525625262728241e-08 1:3 2:62 3:18 4:0 5:2 6:62 7:8 8:0 9:1 10:77 11:23 12:0 13:0 14:90 15:43 16:298 17:6 18:106 19:34 20:0 21:0 22:68 23:30 24:0 #
-3.5887986541111512525625262728241e-08 1:0 2:611 3:0 4:0 5:0 6:524 7:0 8:0 9:0 10:3664 11:0 12:0 13:0 14:158 15:0 16:0 17:0 18:88 19:0 20:4 21:0 22:1154 23:0 24:0 #
-3.5847249013977228095789717698949e-08 1:0 2:31 3:0 4:0 5:0 6:240 7:0 8:0 9:0 10:1744 11:0 12:0 13:0 14:199 15:0 16:0 17:0 18:50 19:0 20:0 21:0 22:17 23:0 24:0 #
-2.677465670314300305923570721077e-08 1:0 2:130 3:26 4:0 5:0 6:46 7:7 8:0 9:1 10:1736 11:7 12:0 13:0 14:4 15:6 16:0 17:0 18:124 19:52 20:0 21:3 22:22 23:5 24:0 #
3.5887986541111512525625262728241e-08 1:144 2:65 3:10 4:0 5:0 6:216 7:13 8:0 9:144 10:152 11:11 12:0 13:33 14:33 15:8 16:0 17:109 18:188 19:58 20:0 21:57 22:139 23:38 24:0 #
3.5887986541111512525625262728241e-08 1:194 2:150 3:38 4:0 5:23 6:50 7:5 8:0 9:140 10:87 11:39 12:0 13:63 14:79 15:21 16:0 17:3 18:30 19:13 20:0 21:10 22:43 23:15 24:0 #
3.5887986541111512525625262728241e-08 1:1 2:117 3:110 4:1 5:439 6:117 7:110 8:17 9:2 10:85 11:109 12:0 13:16 14:113 15:119 16:0 17:104 18:55 19:106 20:0 21:0 22:50 23:103 24:0 #
3.5887986541111512525625262728241e-08 1:190 2:92 3:25 4:2 5:252 6:163 7:32 8:0 9:14 10:80 11:19 12:0 13:41 14:61 15:18 16:0 17:4 18:81 19:15 20:0 21:107 22:147 23:33 24:0 #
3.5887986541111512525625262728241e-08 1:7 2:700 3:102 4:1 5:6 6:213 7:45 8:0 9:0 10:35 11:4 12:5 13:114 14:26 15:7 16:0 17:70 18:37 19:8 20:0 21:142 22:43 23:22 24:0 #
-3.5887986541111512525625262728241e-08 1:2652 2:126 3:20 4:0 5:1 6:51 7:16 8:0 9:0 10:102 11:53 12:0 13:0 14:58 15:14 16:0 17:0 18:61 19:18 20:156 21:0 22:68 23:19 24:0 #
-3.5887986541111512525625262728241e-08 1:38 2:102 3:16 4:0 5:0 6:136 7:22 8:0 9:0 10:0 11:3 12:1 13:2 14:1602 15:1286 16:0 17:59 18:35 19:2 20:1 21:8 22:160 23:50 24:0 #
3.5887986541111512525625262728241e-08 1:0 2:35 3:4 4:5 5:114 6:26 7:7 8:0 9:70 10:37 11:8 12:0 13:142 14:43 15:22 16:0 17:410 18:100 19:19 20:1 21:126 22:48 23:12 24:0 #
-3.5887986541111512525625262728241e-08 1:0 2:33 3:8 4:0 5:0 6:1762 7:1244 8:1 9:1 10:20 11:11 12:2 13:8 14:50 15:16 16:250 17:2 18:70 19:11 20:55 21:4 22:18 23:9 24:0 #
-3.5887986541111512525625262728241e-08 1:0 2:0 3:0 4:0 5:0 6:0 7:0 8:0 9:0 10:0 11:0 12:0 13:0 14:0 15:0 16:0 17:0 18:0 19:0 20:0 21:3 22:48 23:48 24:1 #
3.5887986541111512525625262728241e-08 1:295 2:70 3:10 4:0 5:8 6:111 7:19 8:0 9:36 10:88 11:32 12:0 13:2 14:83 15:15 16:0 17:229 18:95 19:20 20:0 21:44 22:63 23:30 24:0 #
3.5887986541111512525625262728241e-08 1:13 2:54 3:12 4:0 5:24 6:54 7:6 8:0 9:83 10:67 11:14 12:0 13:7 14:64 15:14 16:0 17:247 18:89 19:27 20:0 21:10 22:53 23:13 24:0 #
-3.5887986541111512525625262728241e-08 1:0 2:0 3:0 4:0 5:0 6:33 7:0 8:0 9:0 10:470 11:0 12:0 13:0 14:0 15:0 16:0 17:0 18:0 19:0 20:0 21:0 22:278 23:20 24:0 #
3.5887986541111512525625262728241e-08 1:0 2:34 3:8 4:0 5:0 6:1212 7:1112 8:1 9:16 10:29 11:8 12:0 13:0 14:45 15:24 16:0 17:0 18:82 19:97 20:0 21:0 22:155 23:71 24:2 #
-3.5887986541111512525625262728241e-08 1:21 2:683 3:951 4:0 5:295 6:70 7:10 8:0 9:8 10:111 11:19 12:0 13:36 14:88 15:32 16:0 17:2 18:83 19:15 20:0 21:229 22:95 23:20 24:0 #
3.5887986541111512525625262728241e-08 1:0 2:61 3:18 4:156 5:0 6:68 7:19 8:0 9:0 10:34 11:8 12:0 13:0 14:63 15:23 16:0 17:0 18:48 19:5 20:0 21:2 22:25 23:10 24:0 #
-3.5887986541111512525625262728241e-08 1:0 2:0 3:0 4:0 5:0 6:278 7:20 8:0 9:1 10:511 11:38 12:0 13:0 14:25 15:2 16:0 17:0 18:0 19:0 20:0 21:0 22:27 23:2 24:0 #
-3.5887986541111512525625262728241e-08 1:0 2:412 3:0 4:0 5:0 6:84 7:0 8:0 9:0 10:83 11:0 12:0 13:0 14:64 15:0 16:188 17:0 18:41 19:0 20:0 21:0 22:19 23:0 24:0 #
3.5887986541111512525625262728241e-08 1:0 2:53 3:56 4:2 5:240 6:90 7:81 8:0 9:0 10:45 11:64 12:0 13:56 14:53 15:67 16:0 17:221 18:67 19:67 20:0 21:60 22:54 23:76 24:1 #
-3.5887986541111512525625262728241e-08 1:0 2:20 3:0 4:0 5:0 6:45 7:0 8:0 9:0 10:186 11:0 12:0 13:0 14:8 15:0 16:0 17:0 18:0 19:0 20:0 21:0 22:33 23:0 24:0 #
3.5887986541111512525625262728241e-08 1:0 2:88 3:0 4:4 5:0 6:1154 7:0 8:0 9:0 10:156 11:0 12:0 13:0 14:148 15:0 16:0 17:0 18:271 19:0 20:0 21:0 22:174 23:0 24:0 #
3.5887986541111512525625262728241e-08 1:0 2:145 3:74 4:0 5:7 6:193 7:585 8:0 9:7 10:1489 11:770 12:0 13:27 14:98 15:59 16:0 17:48 18:113 19:87 20:0 21:6 22:105 23:71 24:0 #
-3.5887986541111512525625262728241e-08 1:1 2:51 3:16 4:0 5:0 6:102 7:53 8:0 9:0 10:58 11:14 12:0 13:0 14:61 15:18 16:156 17:0 18:68 19:19 20:0 21:0 22:34 23:8 24:0 #
-2.0748838209229092240397880267519e-09 1:0 2:52 3:9 4:0 5:10 6:53 7:11 8:0 9:6 10:124 11:27 12:1 13:0 14:60 15:18 16:0 17:0 18:66 19:15 20:0 21:20 22:2423 23:2680 24:0 #
3.5887986541111512525625262728241e-08 1:139 2:67 3:19 4:0 5:68 6:339 7:9 8:0 9:45 10:83 11:15 12:0 13:107 14:87 15:23 16:0 17:68 18:158 19:20 20:0 21:0 22:131 23:24 24:0 #
-3.5846303712310923796256024792192e-08 1:0 2:34 3:0 4:0 5:0 6:38 7:2 8:0 9:0 10:40 11:2 12:0 13:0 14:10 15:0 16:0 17:0 18:0 19:0 20:0 21:0 22:3 23:0 24:0 #
-3.5887986541111512525625262728241e-08 1:0 2:176 3:0 4:0 5:0 6:1869 7:0 8:0 9:0 10:854 11:0 12:0 13:0 14:34 15:0 16:0 17:0 18:137 19:0 20:0 21:0 22:442 23:0 24:0 #
-2.0065098214978083153776745937817e-08 1:17 2:909 3:756 4:3 5:115 6:70 7:33 8:0 9:0 10:66 11:10 12:0 13:0 14:59 15:9 16:0 17:7 18:52 19:9 20:0 21:5 22:54 23:7 24:0 #
3.5887986541111512525625262728241e-08 1:0 2:54 3:15 4:0 5:0 6:34 7:8 8:0 9:0 10:1212 11:1112 12:1 13:16 14:29 15:8 16:0 17:0 18:45 19:24 20:0 21:0 22:82 23:97 24:0 #
3.5887986541111512525625262728241e-08 1:0 2:65 3:37 4:0 5:0 6:89 7:55 8:0 9:1 10:99 11:53 12:0 13:4 14:127 15:66 16:0 17:2 18:96 19:56 20:0 21:31 22:1122 23:1081 24:1 #
3.5887986541111512525625262728241e-08 1:439 2:117 3:110 4:17 5:2 6:85 7:109 8:0 9:16 10:113 11:119 12:0 13:104 14:55 15:106 16:0 17:0 18:50 19:103 20:0 21:9 22:625 23:227 24:17 #
-3.5887986541111512525625262728241e-08 1:1 2:120 3:104 4:0 5:2 6:143 7:100 8:0 9:2 10:57 11:42 12:0 13:0 14:0 15:0 16:0 17:0 18:0 19:0 20:0 21:0 22:0 23:0 24:0 #
3.5887986541111512525625262728241e-08 1:1 2:210 3:21 4:0 5:0 6:239 7:9 8:0 9:0 10:242 11:32 12:0 13:0 14:194 15:11 16:0 17:0 18:320 19:65 20:0 21:13 22:243 23:76 24:0 #
-3.4158606332205165667756808361988e-08 1:1 2:47 3:7 4:0 5:0 6:1404 7:1294 8:0 9:0 10:46 11:3 12:0 13:0 14:69 15:24 16:0 17:0 18:75 19:20 20:0 21:0 22:39 23:10 24:0 #
-9.9003666715423585501083499679081e-09 1:0 2:0 3:0 4:0 5:0 6:0 7:0 8:0 9:0 10:0 11:0 12:0 13:0 14:0 15:0 16:0 17:3 18:48 19:48 20:1 21:0 22:100 23:101 24:0 #
-3.5887986541111512525625262728241e-08 1:0 2:136 3:22 4:0 5:0 6:0 7:3 8:1 9:2 10:1602 11:1286 12:0 13:59 14:35 15:2 16:1 17:8 18:160 19:50 20:0 21:16 22:126 23:21 24:0 #
3.5887986541111512525625262728241e-08 1:0 2:46 3:7 4:0 5:1 6:1736 7:7 8:0 9:0 10:4 11:6 12:0 13:0 14:124 15:52 16:0 17:3 18:22 19:5 20:0 21:27 22:1 23:122 24:0 #
-3.5887986541111512525625262728241e-08 1:7 2:193 3:585 4:0 5:7 6:1489 7:770 8:0 9:27 10:98 11:59 12:0 13:48 14:113 15:87 16:0 17:6 18:105 19:71 20:0 21:14 22:172 23:55 24:5 #
3.5887986541111512525625262728241e-08 1:0 2:49 3:0 4:0 5:0 6:11 7:0 8:0 9:0 10:111 11:0 12:0 13:0 14:412 15:0 16:0 17:0 18:84 19:0 20:0 21:0 22:83 23:0 24:0 #
3.5887986541111512525625262728241e-08 1:75 2:126 3:75 4:0 5:3 6:113 7:66 8:0 9:84 10:90 11:65 12:0 13:111 14:98 15:78 16:0 17:2 18:127 19:60 20:0 21:13 22:95 23:56 24:0 #
-3.5887986541111512525625262728241e-08 1:0 2:158 3:0 4:0 5:0 6:88 7:0 8:4 9:0 10:1154 11:0 12:0 13:0 14:156 15:0 16:0 17:0 18:148 19:0 20:0 21:0 22:271 23:0 24:0 #
3.5887986541111512525625262728241e-08 1:25 2:162 3:26 4:2 5:163 6:96 7:26 8:0 9:3 10:83 11:31 12:2 13:0 14:154 15:23 16:0 17:13 18:124 19:14 20:0 21:0 22:77 23:15 24:0 #
-1.7089204050121931111050344043178e-08 1:0 2:0 3:0 4:0 5:0 6:27 7:2 8:0 9:0 10:42 11:1 12:0 13:0 14:0 15:0 16:0 17:0 18:20 19:6 20:0 21:0 22:34 23:0 24:0 #
3.5887986541111512525625262728241e-08 1:3 2:96 3:13 4:0 5:1 6:68 7:22 8:0 9:94 10:68 11:30 12:1 13:0 14:78 15:31 16:0 17:0 18:87 19:34 20:0 21:1 22:89 23:13 24:0 #
3.5887986541111512525625262728241e-08 1:0 2:85 3:15 4:0 5:0 6:74 7:26 8:0 9:0 10:141 11:21 12:0 13:348 14:175 15:29 16:0 17:0 18:181 19:31 20:0 21:0 22:105 23:21 24:0 #
3.5887986541111512525625262728241e-08 1:36 2:1397 3:1631 4:2 5:6 6:0 7:2 8:0 9:30 10:63 11:3 12:0 13:2 14:38 15:10 16:0 17:4 18:37 19:20 20:0 21:1 22:29 23:17 24:0 #
3.5887986541111512525625262728241e-08 1:0 2:1404 3:1294 4:0 5:0 6:46 7:3 8:0 9:0 10:69 11:24 12:0 13:0 14:75 15:20 16:0 17:0 18:39 19:10 20:0 21:0 22:45 23:21 24:0 #
3.5887986541111512525625262728241e-08 1:1 2:717 3:1167 4:2 5:7 6:721 7:982 8:0 9:2 10:47 11:25 12:0 13:0 14:13 15:7 16:674 17:0 18:0 19:2 20:0 21:0 22:0 23:6 24:0 #
3.5887986541111512525625262728241e-08 1:3 2:169 3:71 4:0 5:0 6:229 7:65 8:0 9:35 10:1362 11:63 12:0 13:29 14:395 15:71 16:0 17:0 18:166 19:78 20:3 21:20 22:234 23:64 24:187 #
3.5887986541111512525625262728241e-08 1:23 2:50 3:5 4:0 5:140 6:87 7:39 8:0 9:63 10:79 11:21 12:0 13:3 14:30 15:13 16:0 17:10 18:43 19:15 20:0 21:3 22:95 23:62 24:4 #
-1.020783544189527854463951319795e-08 1:2 2:81347 3:21 4:0 5:0 6:168346 7:15 8:0 9:19 10:144859 11:11 12:0 13:175 14:49986 15:16 16:0 17:561 18:79 19:9 20:0 21:428 22:88 23:20 24:0 #
-3.5887986541111512525625262728241e-08 1:0 2:33 3:6 4:0 5:5295 6:40 7:6 8:0 9:13 10:70 11:12 12:0 13:1 14:80 15:10 16:0 17:1 18:24 19:9 20:0 21:195 22:122 23:23 24:191 #
-3.5016366290198621099882440128523e-08 1:0 2:1353 3:1057 4:1 5:0 6:266 7:207 8:0 9:2 10:183 11:33 12:0 13:65 14:166 15:36 16:0 17:0 18:56 19:31 20:0 21:0 22:50 23:18 24:0 #
-3.5885144050090537050793693986395e-08 1:7 2:1489 3:770 4:0 5:27 6:98 7:59 8:0 9:48 10:113 11:87 12:0 13:6 14:105 15:71 16:0 17:14 18:172 19:55 20:5 21:2 22:111 23:70 24:0 #
-3.5887986541111512525625262728241e-08 1:15 2:914 3:782 4:0 5:7 6:700 7:102 8:1 9:6 10:213 11:45 12:0 13:0 14:35 15:4 16:5 17:114 18:26 19:7 20:0 21:70 22:37 23:8 24:0 #
-3.5887986541111512525625262728241e-08 1:0 2:125 3:0 4:0 5:0 6:18 7:0 8:0 9:0 10:281 11:0 12:0 13:0 14:7 15:0 16:0 17:0 18:59 19:0 20:0 21:0 22:99 23:0 24:0 #
-3.5887986541111512525625262728241e-08 1:0 2:75 3:0 4:0 5:0 6:43 7:0 8:0 9:0 10:27 11:0 12:0 13:0 14:0 15:0 16:0 17:0 18:0 19:0 20:0 21:0 22:106 23:0 24:0 #
3.5887986541111512525625262728241e-08 1:0 2:105 3:34 4:1 5:3 6:107 7:20 8:0 9:3 10:91 11:18 12:0 13:4 14:43 15:7 16:0 17:121 18:72 19:9 20:0 21:2 22:63 23:12 24:0 #
3.5887986541111512525625262728241e-08 1:113 2:63 3:22 4:0 5:81 6:114 7:33 8:0 9:0 10:141 11:25 12:0 13:3 14:73 15:9 16:0 17:51 18:99 19:33 20:0 21:0 22:91 23:22 24:0 #
3.5887986541111512525625262728241e-08 1:31 2:51 3:29 4:0 5:53 6:123 7:17 8:0 9:19 10:96 11:6 12:0 13:6 14:109 15:20 16:0 17:38 18:102 19:16 20:0 21:0 22:136 23:22 24:0 #
3.5887986541111512525625262728241e-08 1:10 2:53 3:13 4:0 5:224 6:72 7:17 8:1 9:15 10:75 11:20 12:0 13:32 14:75 15:18 16:0 17:3 18:54 19:11 20:0 21:1 22:62 23:8 24:0 #
-3.5887986541111512525625262728241e-08 1:0 2:0 3:0 4:0 5:0 6:106 7:0 8:0 9:0 10:185 11:0 12:0 13:0 14:32 15:0 16:0 17:0 18:0 19:0 20:0 21:0 22:218 23:0 24:0 #
3.5887986541111512525625262728241e-08 1:65 2:69 3:19 4:5 5:20 6:41 7:16 8:0 9:0 10:85 11:10 12:0 13:46 14:108 15:31 16:0 17:21 18:110 19:35 20:0 21:12 22:112 23:36 24:0 #
-3.5887986541111512525625262728241e-08 1:3 2:32 3:21 4:0 5:7 6:24 7:16 8:1 9:1 10:13 11:9 12:0 13:1 14:24 15:9 16:1 17:0 18:11 19:8 20:0 21:8 22:686 23:585 24:0 #
-3.5887986541111512525625262728241e-08 1:0 2:17 3:0 4:0 5:0 6:20 7:0 8:0 9:0 10:630 11:0 12:0 13:0 14:150 15:0 16:0 17:0 18:127 19:0 20:0 21:0 22:122 23:0 24:0 #
3.5887986541111512525625262728241e-08 1:0 2:266 3:207 4:0 5:2 6:183 7:33 8:0 9:65 10:166 11:36 12:0 13:0 14:56 15:31 16:0 17:0 18:50 19:18 20:0 21:60 22:102 23:33 24:0 #
-3.5887986541111512525625262728241e-08 1:0 2:20 3:6 4:0 5:0 6:34 7:0 8:0 9:0 10:38 11:2 12:0 13:0 14:40 15:2 16:0 17:0 18:10 19:0 20:0 21:0 22:0 23:0 24:0 #
3.5887986541111512525625262728241e-08 1:1 2:199 3:119 4:0 5:8 6:160 7:116 8:0 9:0 10:324 11:119 12:0 13:0 14:159 15:105 16:0 17:0 18:232 19:103 20:0 21:0 22:145 23:113 24:0 #
3.5887986541111512525625262728241e-08 1:20 2:107 3:23 4:0 5:2 6:43 7:14 8:0 9:32 10:92 11:11 12:0 13:67 14:81 15:12 16:0 17:4 18:104 19:40 20:0 21:1 22:73 23:16 24:0 #
-3.5887986541111512525625262728241e-08 1:0 2:25 3:2 4:0 5:0 6:0 7:0 8:0 9:0 10:27 11:2 12:0 13:0 14:42 15:1 16:0 17:0 18:0 19:0 20:0 21:0 22:20 23:6 24:0 #
3.5887986541111512525625262728241e-08 1:9 2:50 3:17 4:0 5:2 6:26 7:11 8:28 9:4 10:69 11:16 12:0 13:0 14:78 15:13 16:23 17:0 18:28 19:10 20:0 21:0 22:547 23:921 24:0 #
-3.5887986541111512525625262728241e-08 1:63 2:79 3:21 4:0 5:3 6:30 7:13 8:0 9:10 10:43 11:15 12:0 13:3 14:95 15:62 16:4 17:2 18:61 19:100 20:2 21:14 22:1130 23:1414 24:3 #
3.5887986541111512525625262728241e-08 1:133 2:231 3:149 4:0 5:57 6:157 7:119 8:0 9:0 10:59 11:90 12:0 13:0 14:73 15:98 16:0 17:0 18:81 19:110 20:0 21:0 22:83 23:107 24:0 #
-3.5887986541111512525625262728241e-08 1:0 2:0 3:0 4:0 5:0 6:20 7:6 8:0 9:0 10:34 11:0 12:0 13:0 14:38 15:2 16:0 17:0 18:40 19:2 20:0 21:0 22:10 23:0 24:0 #
3.5887986541111512525625262728241e-08 1:0 2:81 3:25 4:1 5:3 6:82 7:19 8:0 9:1 10:75 11:16 12:0 13:0 14:71 15:25 16:0 17:0 18:62 19:13 20:0 21:5 22:559 23:535 24:0 #
-3.5887986541111512525625262728241e-08 1:0 2:35 3:1 4:0 5:0 6:171 7:0 8:0 9:0 10:93 11:0 12:0 13:0 14:0 15:0 16:0 17:0 18:62 19:3 20:0 21:0 22:152 23:6 24:0 #
-3.5887986541111512525625262728241e-08 1:0 2:95 3:0 4:0 5:0 6:176 7:3 8:0 9:0 10:63 11:0 12:0 13:1 14:5 15:0 16:0 17:0 18:3 19:0 20:0 21:0 22:35 23:1 24:0 #
3.5887986541111512525625262728241e-08 1:3 2:83 3:31 4:2 5:0 6:154 7:23 8:0 9:13 10:124 11:14 12:0 13:0 14:77 15:15 16:0 17:34 18:136 19:23 20:1 21:0 22:141 23:25 24:0 #
-3.5887986541111512525625262728241e-08 1:4 2:24 3:9 4:0 5:0 6:18 7:10 8:0 9:3 10:32 11:21 12:0 13:7 14:24 15:16 16:1 17:1 18:13 19:9 20:0 21:1 22:24 23:9 24:1 #
3.5887986541111512525625262728241e-08 1:65 2:166 3:36 4:0 5:0 6:56 7:31 8:0 9:0 10:50 11:18 12:0 13:60 14:102 15:33 16:0 17:0 18:87 19:17 20:1 21:1 22:84 23:31 24:0 #
3.5887986541111512525625262728241e-08 1:0 2:68 3:30 4:0 5:0 6:65 7:23 8:0 9:56 10:63 11:14 12:0 13:0 14:81 15:19 16:0 17:7 18:82 19:23 20:0 21:0 22:56 23:5 24:0 #
-3.5887986541111512525625262728241e-08 1:0 2:27 3:2 4:0 5:0 6:42 7:1 8:0 9:0 10:0 11:0 12:0 13:0 14:20 15:6 16:0 17:0 18:34 19:0 20:0 21:0 22:38 23:2 24:0 #
3.5887986541111512525625262728241e-08 1:81 2:114 3:33 4:0 5:0 6:141 7:25 8:0 9:3 10:73 11:9 12:0 13:51 14:99 15:33 16:0 17:0 18:91 19:22 20:0 21:21 22:86 23:17 24:1 #
-3.587466601091159228261440986181e-08 1:0 2:45 3:0 4:0 5:0 6:186 7:0 8:0 9:0 10:8 11:0 12:0 13:0 14:0 15:0 16:0 17:0 18:33 19:0 20:0 21:0 22:470 23:0 24:0 #
3.5887986541111512525625262728241e-08 1:0 2:100 3:103 4:0 5:0 6:100 7:105 8:0 9:0 10:102 11:106 12:0 13:0 14:100 15:101 16:0 17:17 18:141 19:109 20:5 21:10 22:138 23:38 24:0 #
-3.5887986541111512525625262728241e-08 1:0 2:127 3:108 4:0 5:1 6:120 7:104 8:0 9:2 10:143 11:100 12:0 13:2 14:57 15:42 16:0 17:0 18:0 19:0 20:0 21:0 22:0 23:0 24:0 #
3.5887986541111512525625262728241e-08 1:0 2:109 3:0 4:1 5:0 6:116 7:0 8:8 9:0 10:123 11:0 12:5 13:0 14:93 15:0 16:5 17:0 18:124 19:0 20:0 21:0 22:155 23:0 24:0 #
-3.5887986541111512525625262728241e-08 1:5 2:60 3:18 4:0 5:0 6:31 7:8 8:0 9:0 10:35 11:10 12:1 13:0 14:12 15:7 16:0 17:2 18:14 19:3 20:0 21:9 22:14 23:3 24:0 #
3.5887986541111512525625262728241e-08 1:0 2:42 3:16 4:0 5:66 6:73 7:12 8:0 9:0 10:68 11:16 12:0 13:52 14:66 15:12 16:0 17:5 18:60 19:18 20:0 21:0 22:31 23:8 24:0 #
-3.5887986541111512525625262728241e-08 1:0 2:74 3:11 4:0 5:0 6:33 7:8 8:0 9:0 10:33 11:7 12:0 13:0 14:3 15:0 16:0 17:1 18:51 19:8 20:0 21:0 22:56 23:20 24:0 #
3.5887986541111512525625262728241e-08 1:0 2:74 3:20 4:0 5:3 6:70 7:24 8:0 9:1 10:67 11:16 12:0 13:0 14:70 15:23 16:2 17:25 18:98 19:14 20:0 21:0 22:113 23:26 24:0 #
-3.5887986541111512525625262728241e-08 1:10 2:53 3:7 4:0 5:10 6:60 7:20 8:0 9:9 10:50 11:17 12:0 13:2 14:26 15:11 16:28 17:4 18:69 19:16 20:0 21:0 22:78 23:13 24:23 #
3.5887986541111512525625262728241e-08 1:0 2:68 3:12 4:0 5:0 6:75 7:21 8:0 9:0 10:103 11:17 12:0 13:0 14:90 15:25 16:0 17:0 18:62 19:18 20:0 21:71 22:27 23:13 24:0 #
-3.5887986541111512525625262728241e-08 1:0 2:0 3:0 4:0 5:0 6:0 7:0 8:0 9:0 10:0 11:0 12:0 13:3 14:48 15:48 16:1 17:0 18:100 19:101 20:0 21:0 22:102 23:103 24:0 #
-3.5887986541111512525625262728241e-08 1:0 2:11 3:0 4:0 5:0 6:88 7:0 8:0 9:0 10:88 11:0 12:0 13:0 14:53 15:0 16:0 17:0 18:29 19:0 20:0 21:0 22:14 23:2 24:0 #
3.5887986541111512525625262728241e-08 1:140 2:87 3:39 4:0 5:63 6:79 7:21 8:0 9:3 10:30 11:13 12:0 13:10 14:43 15:15 16:0 17:3 18:95 19:62 20:4 21:2 22:61 23:100 24:2 #
-3.5887986541111512525625262728241e-08 1:37 2:135 3:62 4:0 5:172 6:162 7:66 8:0 9:2 10:787 11:62 12:0 13:1 14:123 15:56 16:10 17:3 18:97 19:52 20:0 21:1 22:81 23:56 24:0 #
3.5887986541111512525625262728241e-08 1:0 2:77 3:15 4:0 5:34 6:136 7:23 8:1 9:0 10:141 11:25 12:0 13:1 14:138 15:22 16:1 17:0 18:52 19:9 20:0 21:10 22:53 23:11 24:0 #
3.5887986541111512525625262728241e-08 1:0 2:59 3:9 4:0 5:7 6:52 7:9 8:0 9:5 10:54 11:7 12:0 13:47 14:55 15:14 16:0 17:1 18:68 19:24 20:0 21:0 22:66 23:19 24:0 #
3.5887986541111512525625262728241e-08 1:5 2:179 3:63 4:0 5:4 6:185 7:78 8:0 9:0 10:124 11:70 12:0 13:10 14:142 15:85 16:0 17:1 18:59 19:55 20:0 21:3 22:65 23:60 24:0 #
-3.5870557151854252077566970972194e-08 1:0 2:3 3:0 4:0 5:0 6:35 7:1 8:0 9:0 10:171 11:0 12:0 13:0 14:93 15:0 16:0 17:0 18:0 19:0 20:0 21:0 22:62 23:3 24:0 #
-1.1001588602481958139732345219874e-08 1:0 2:35 3:10 4:1 5:0 6:12 7:7 8:0 9:2 10:14 11:3 12:0 13:9 14:14 15:3 16:0 17:1 18:19 19:8 20:0 21:2 22:14 23:2 24:0 #
3.5887986541111512525625262728241e-08 1:0 2:77 3:14 4:3 5:0 6:92 7:20 8:0 9:15 10:114 11:21 12:0 13:0 14:74 15:20 16:0 17:3 18:70 19:24 20:0 21:1 22:67 23:16 24:0 #
-3.5887986541111512525625262728241e-08 1:0 2:44 3:12 4:0 5:0 6:66 7:22 8:0 9:0 10:55 11:10 12:0 13:0 14:32 15:7 16:0 17:0 18:36 19:7 20:0 21:0 22:39 23:16 24:0 #
3.5887986541111512525625262728241e-08 1:0 2:220 3:0 4:0 5:0 6:49 7:0 8:0 9:0 10:86 11:0 12:0 13:0 14:52 15:0 16:1 17:0 18:110 19:0 20:1 21:0 22:25 23:0 24:0 #
-3.5887986541111512525625262728241e-08 1:0 2:55 3:10 4:0 5:0 6:32 7:7 8:0 9:0 10:36 11:7 12:0 13:0 14:39 15:16 16:0 17:0 18:42 19:16 20:0 21:0 22:50 23:15 24:0 #
3.5887986541111512525625262728241e-08 1:1 2:19 3:8 4:0 5:2 6:14 7:2 8:0 9:29 10:17 11:8 12:0 13:4 14:24 15:9 16:0 17:0 18:18 19:10 20:0 21:3 22:32 23:21 24:0 #
-3.5887986541111512525625262728241e-08 1:0 2:92 3:0 4:0 5:0 6:75 7:0 8:0 9:0 10:43 11:0 12:0 13:0 14:27 15:0 16:0 17:0 18:0 19:0 20:0 21:0 22:0 23:0 24:0 #
3.5887986541111512525625262728241e-08 1:1 2:96 3:11 4:0 5:15 6:94 7:22 8:0 9:0 10:45 11:5 12:0 13:3 14:62 15:18 16:0 17:2 18:62 19:8 20:0 21:1 22:77 23:23 24:0 #
-3.5887986541111512525625262728241e-08 1:6 2:49 3:85 4:0 5:1 6:66 7:94 8:0 9:0 10:92 11:117 12:0 13:4 14:112 15:112 16:0 17:0 18:101 19:116 20:0 21:21 22:1041 23:1230 24:4 #
3.5887986541111512525625262728241e-08 1:2 2:128 3:35 4:0 5:2 6:104 7:26 8:0 9:3 10:83 11:20 12:0 13:2 14:89 15:35 16:0 17:0 18:69 19:20 20:0 21:0 22:71 23:12 24:0 #
-3.5887986541111512525625262728241e-08 1:0 2:405 3:70 4:0 5:235 6:235 7:69 8:0 9:76 10:293 11:103 12:21 13:142 14:340 15:101 16:31 17:199 18:323 19:132 20:51 21:35 22:295 23:110 24:29 #
-2.9654367604988587403568641581719e-08 1:0 2:38 3:2 4:0 5:0 6:40 7:2 8:0 9:0 10:10 11:0 12:0 13:0 14:0 15:0 16:0 17:0 18:3 19:0 20:0 21:0 22:3148 23:0 24:0 #
3.5887986541111512525625262728241e-08 1:12 2:226 3:102 4:0 5:6 6:49 7:85 8:0 9:1 10:66 11:94 12:0 13:0 14:92 15:117 16:0 17:4 18:112 19:112 20:0 21:0 22:101 23:116 24:0 #
-3.5887986541111512525625262728241e-08 1:0 2:28 3:10 4:0 5:0 6:547 7:921 8:0 9:751 10:601 11:981 12:1 13:6 14:279 15:31 16:0 17:0 18:58 19:15 20:0 21:8 22:42 23:4 24:29 #
-3.5887986541111512525625262728241e-08 1:0 2:139 3:0 4:0 5:0 6:122 7:0 8:0 9:0 10:923 11:0 12:0 13:0 14:174 15:0 16:0 17:0 18:387 19:0 20:0 21:0 22:209 23:0 24:0 #
3.5887986541111512525625262728241e-08 1:30 2:63 3:3 4:0 5:2 6:38 7:10 8:0 9:4 10:37 11:20 12:0 13:1 14:29 15:17 16:0 17:12 18:59 19:17 20:56 21:37 22:104 23:69 24:1 #
-3.5887986541111512525625262728241e-08 1:0 2:42 3:1 4:0 5:0 6:0 7:0 8:0 9:0 10:20 11:6 12:0 13:0 14:34 15:0 16:0 17:0 18:38 19:2 20:0 21:0 22:40 23:2 24:0 #
3.5887986541111512525625262728241e-08 1:0 2:79 3:43 4:0 5:0 6:65 7:37 8:0 9:0 10:89 11:55 12:0 13:1 14:99 15:53 16:0 17:4 18:127 19:66 20:0 21:2 22:96 23:56 24:0 #
-3.5887986541111512525625262728241e-08 1:0 2:97 3:16 4:0 5:419 6:127 7:8 8:0 9:104 10:234 11:48 12:153 13:0 14:210 15:22 16:85 17:0 18:220 19:34 20:99 21:0 22:171 23:26 24:51 #
3.5887986541111512525625262728241e-08 1:2 2:57 3:42 4:0 5:0 6:0 7:0 8:0 9:0 10:0 11:0 12:0 13:0 14:0 15:0 16:0 17:0 18:0 19:0 20:0 21:0 22:0 23:0 24:0 #
-3.5887986541111512525625262728241e-08 1:0 2:43 3:0 4:0 5:0 6:27 7:0 8:0 9:0 10:0 11:0 12:0 13:0 14:0 15:0 16:0 17:0 18:106 19:0 20:0 21:0 22:185 23:0 24:0 #
3.5887986541111512525625262728241e-08 1:0 2:102 3:103 4:0 5:0 6:100 7:103 8:0 9:0 10:100 11:103 12:0 13:0 14:100 15:105 16:0 17:0 18:102 19:106 20:0 21:0 22:100 23:101 24:0 #
-3.5887986541111512525625262728241e-08 1:0 2:18 3:10 4:0 5:3 6:32 7:21 8:0 9:7 10:24 11:16 12:1 13:1 14:13 15:9 16:0 17:1 18:24 19:9 20:1 21:0 22:11 23:8 24:0 #
3.5887986541111512525625262728241e-08 1:70 2:75 3:9 4:0 5:37 6:47 7:22 8:0 9:0 10:95 11:17 12:0 13:1 14:52 15:43 16:0 17:2 18:59 19:48 20:0 21:0 22:69 23:12 24:0 #
3.5887986541111512525625262728241e-08 1:29 2:17 3:8 4:0 5:4 6:24 7:9 8:0 9:0 10:18 11:10 12:0 13:3 14:32 15:21 16:0 17:7 18:24 19:16 20:1 21:1 22:13 23:9 24:0 #
-2.3962969398826661915216998388622e-08 1:0 2:62 3:18 4:0 5:71 6:27 7:13 8:0 9:36 10:1397 11:1631 12:2 13:6 14:0 15:2 16:0 17:30 18:63 19:3 20:0 21:2 22:38 23:10 24:0 #
3.5887986541111512525625262728241e-08 1:4 2:46 3:8 4:0 5:10 6:53 7:7 8:0 9:10 10:60 11:20 12:0 13:9 14:50 15:17 16:0 17:2 18:26 19:11 20:28 21:4 22:69 23:16 24:0 #
-3.5887986541111512525625262728241e-08 1:8 2:686 3:585 4:0 5:15 6:914 7:782 8:0 9:7 10:700 11:102 12:1 13:6 14:213 15:45 16:0 17:0 18:35 19:4 20:5 21:114 22:26 23:7 24:0 #
3.5887986541111512525625262728241e-08 1:0 2:59 3:90 4:0 5:0 6:73 7:98 8:0 9:0 10:81 11:110 12:0 13:0 14:83 15:107 16:0 17:0 18:99 19:124 20:53 21:4 22:116 23:132 24:2 #
-3.5887986541111512525625262728241e-08 1:0 2:86 3:0 4:0 5:0 6:52 7:0 8:1 9:0 10:110 11:0 12:1 13:0 14:25 15:0 16:0 17:0 18:77 19:0 20:3 21:0 22:19 23:0 24:0 #
-1.2063340115994272780360342905807e-08 1:3 2:30 3:13 4:0 5:10 6:43 7:15 8:0 9:3 10:95 11:62 12:4 13:2 14:61 15:100 16:2 17:14 18:1130 19:1414 20:3 21:17 22:41 23:32 24:0 #
3.5887986541111512525625262728241e-08 1:0 2:87 3:19 4:0 5:1 6:66 7:19 8:0 9:2 10:63 11:9 12:0 13:1 14:34 15:15 16:0 17:6 18:69 19:30 20:0 21:2 22:68 23:29 24:0 #
-3.5887986541111512525625262728241e-08 1:0 2:133 3:0 4:0 5:0 6:95 7:0 8:0 9:0 10:176 11:3 12:0 13:0 14:63 15:0 16:0 17:1 18:5 19:0 20:0 21:0 22:3 23:0 24:0 #
3.5887986541111512525625262728241e-08 1:57 2:157 3:119 4:0 5:0 6:59 7:90 8:0 9:0 10:73 11:98 12:0 13:0 14:81 15:110 16:0 17:0 18:83 19:107 20:0 21:0 22:99 23:124 24:53 #
-3.5887986541111512525625262728241e-08 1:0 2:31 3:8 4:0 5:0 6:35 7:10 8:1 9:0 10:12 11:7 12:0 13:2 14:14 15:3 16:0 17:9 18:14 19:3 20:0 21:1 22:19 23:8 24:0 #
3.5887986541111512525625262728241e-08 1:0 2:34 3:8 4:0 5:0 6:63 7:23 8:0 9:0 10:48 11:5 12:0 13:2 14:25 15:10 16:0 17:0 18:55 19:16 20:1 21:0 22:33 23:8 24:0 #
-3.5887986541111512525625262728241e-08 1:52 2:66 3:12 4:0 5:5 6:60 7:18 8:0 9:0 10:31 11:8 12:0 13:0 14:35 15:10 16:1 17:0 18:12 19:7 20:0 21:2 22:14 23:3 24:0 #
-3.5887986541111512525625262728241e-08 1:0 2:73 3:98 4:0 5:0 6:81 7:110 8:0 9:0 10:83 11:107 12:0 13:0 14:99 15:124 16:53 17:4 18:116 19:132 20:2 21:610 22:393 23:250 24:1 #
3.5887986541111512525625262728241e-08 1:3 2:73 3:9 4:0 5:51 6:99 7:33 8:0 9:0 10:91 11:22 12:0 13:21 14:86 15:17 16:1 17:88 18:65 19:16 20:391 21:3 22:62 23:28 24:0 #
-3.5887986541111512525625262728241e-08 1:263 2:63 3:95 4:0 5:3446 6:99 7:110 8:0 9:191 10:133 11:122 12:0 13:88 14:116 15:116 16:25 17:4 18:144 19:110 20:0 21:7117 22:124 23:128 24:0 #
3.5887986541111512525625262728241e-08 1:6 2:0 3:2 4:0 5:30 6:63 7:3 8:0 9:2 10:38 11:10 12:0 13:4 14:37 15:20 16:0 17:1 18:29 19:17 20:0 21:12 22:59 23:17 24:56 #
-3.5887986541111512525625262728241e-08 1:0 2:12 3:7 4:0 5:2 6:14 7:3 8:0 9:9 10:14 11:3 12:0 13:1 14:19 15:8 16:0 17:2 18:14 19:2 20:0 21:29 22:17 23:8 24:0 #
-3.5887986541111512525625262728241e-08 1:0 2:88 3:0 4:0 5:0 6:88 7:0 8:0 9:0 10:53 11:0 12:0 13:0 14:29 15:0 16:0 17:0 18:14 19:2 20:0 21:0 22:116 23:1 24:0 #
3.5887986541111512525625262728241e-08 1:51 2:99 3:33 4:0 5:0 6:91 7:22 8:0 9:21 10:86 11:17 12:1 13:88 14:65 15:16 16:391 17:3 18:62 19:28 20:0 21:111 22:37 23:22 24:394 #
3.5887986541111512525625262728241e-08 1:0 2:90 3:61 4:0 5:0 6:100 7:71 8:1 9:0 10:108 11:75 12:0 13:0 14:116 15:72 16:0 17:0 18:53 19:54 20:0 21:0 22:33 23:40 24:2433 #
-3.5887986541111512525625262728241e-08 1:21 2:86 3:17 4:1 5:88 6:65 7:16 8:391 9:3 10:62 11:28 12:0 13:111 14:37 15:22 16:394 17:4 18:86 19:30 20:104 21:7148 22:34 23:9 24:0 #
-3.5887986541111512525625262728241e-08 1:2 2:14 3:2 4:0 5:29 6:17 7:8 8:0 9:4 10:24 11:9 12:0 13:0 14:18 15:10 16:0 17:3 18:32 19:21 20:0 21:7 22:24 23:16 24:1 #
-1.8285655718374811644960013616579e-09 1:0 2:168346 3:15 4:0 5:19 6:144859 7:11 8:0 9:175 10:49986 11:16 12:0 13:561 14:79 15:9 16:0 17:428 18:88 19:20 20:0 21:1002 22:25426 23:13 24:0 #
-3.5887986541111512525625262728241e-08 1:0 2:229 3:65 4:0 5:35 6:1362 7:63 8:0 9:29 10:395 11:71 12:0 13:0 14:166 15:78 16:3 17:20 18:234 19:64 20:187 21:409 22:224 23:70 24:1 #
-3.5887986541111512525625262728241e-08 1:3460 2:63 3:5 4:0 5:2652 6:126 7:20 8:0 9:1 10:51 11:16 12:0 13:0 14:102 15:53 16:0 17:0 18:58 19:14 20:0 21:0 22:61 23:18 24:156 #
-3.5887986541111512525625262728241e-08 1:0 2:45 3:24 4:0 5:0 6:82 7:97 8:0 9:0 10:155 11:71 12:2 13:333 14:388 15:69 16:120 17:0 18:94 19:72 20:0 21:7072 22:121 23:76 24:0 #
-3.5887986541111512525625262728241e-08 1:13 2:70 3:12 4:0 5:1 6:80 7:10 8:0 9:1 10:24 11:9 12:0 13:195 14:122 15:23 16:191 17:5 18:103 19:13 20:0 21:3 22:108 23:7 24:3 #
-3.5887986541111512525625262728241e-08 1:199 2:323 3:132 4:51 5:35 6:295 7:110 8:29 9:7193 10:361 11:57 12:0 13:0 14:214 15:71 16:0 17:1 18:199 19:79 20:0 21:4 22:177 23:304 24:127 #
-3.5887986541111512525625262728241e-08 1:24 2:102 3:59 4:0 5:94 6:92 7:70 8:0 9:0 10:77 11:50 12:0 13:124 14:1952 15:58 16:156 17:153 18:532 19:62 20:105 21:17 22:104 23:59 24:0 #
-3.5887986541111512525625262728241e-08 1:153 2:532 3:62 4:105 5:17 6:104 7:59 8:0 9:0 10:319 11:65 12:0 13:2 14:926 15:61 16:0 17:180 18:182 19:85 20:52 21:1401 22:158 23:67 24:0 #
-3.5887986541111512525625262728241e-08 1:7084 2:1627 3:80 4:0 5:45 6:166 7:64 8:0 9:9 10:149 11:71 12:0 13:0 14:7029 15:70 16:19 17:0 18:139 19:73 20:0 21:0 22:102 23:63 24:0 #
-3.588798572770487330481418942682e-08 1:142 2:43 3:22 4:0 5:410 6:100 7:19 8:1 9:126 10:48 11:12 12:0 13:365 14:19 15:10 16:12 17:80 18:69 19:20 20:20 21:7063 22:109 23:30 24:0 #
-9.0204370572361613330899761994258e-09 1:0 2:166 3:78 4:3 5:20 6:234 7:64 8:187 9:409 10:224 11:70 12:1 13:3071 14:186 15:66 16:0 17:188 18:15818 19:53 20:2 21:1189 22:187 23:64 24:0 #
-4.3388743362423308849536358368371e-10 1:12 2:168 3:68 4:0 5:3 6:190 7:63 8:0 9:7056 10:159 11:57 12:4 13:5407 14:98 15:60 16:1 17:0 18:106 19:64 20:0 21:0 22:122 23:66 24:0 #
-3.5887986541111512525625262728241e-08 1:235 2:235 3:69 4:0 5:76 6:293 7:103 8:21 9:142 10:340 11:101 12:31 13:199 14:323 15:132 16:51 17:35 18:295 19:110 20:29 21:7193 22:361 23:57 24:0 #
-3.5887986541111512525625262728241e-08 1:76 2:293 3:103 4:21 5:142 6:340 7:101 8:31 9:199 10:323 11:132 12:51 13:35 14:295 15:110 16:29 17:7193 18:361 19:57 20:0 21:0 22:214 23:71 24:0 #
-3.5887986541111512525625262728241e-08 1:976 2:164 3:33 4:0 5:1442 6:91 7:8 8:0 9:397 10:57 11:10 12:34 13:4 14:147 15:13 16:45 17:838 18:295 19:23 20:3 21:209 22:170 23:25 24:1 #
-2.1959605398240232188478322783443e-08 1:34 2:106 3:68 4:0 5:28 6:94 7:61 8:0 9:28 10:116 11:62 12:0 13:41 14:928 15:68 16:0 17:23353 18:124 19:64 20:0 21:3 22:97 23:56 24:0 #
-3.5887986541111512525625262728241e-08 1:16 2:113 3:119 4:0 5:104 6:55 7:106 8:0 9:0 10:50 11:103 12:0 13:9 14:625 15:227 16:17 17:4 18:744 19:738 20:1 21:30 22:751 23:629 24:1 #
-3.5887986541111512525625262728241e-08 1:70 2:37 3:8 4:0 5:142 6:43 7:22 8:0 9:410 10:100 11:19 12:1 13:126 14:48 15:12 16:0 17:365 18:19 19:10 20:12 21:80 22:69 23:20 24:20 #
-3.5887986541111512525625262728241e-08 1:2 2:38 3:10 4:0 5:4 6:37 7:20 8:0 9:1 10:29 11:17 12:0 13:12 14:59 15:17 16:56 17:37 18:104 19:69 20:1 21:2 22:88 23:57 24:1 #
-3.5887986541111512525625262728241e-08 1:15 2:75 3:20 4:0 5:32 6:75 7:18 8:0 9:3 10:54 11:11 12:0 13:1 14:62 15:8 16:0 17:0 18:1165 19:879 20:26 21:21 22:683 23:951 24:0 #
-2.2232213764732104544366109253467e-10 1:3 2:54 3:11 4:0 5:1 6:62 7:8 8:0 9:0 10:1165 11:879 12:26 13:21 14:683 15:951 16:0 17:295 18:70 19:10 20:0 21:8 22:111 23:19 24:0 #
-1.3766047868077880268911337448539e-09 1:92 2:96 3:63 4:0 5:34 6:106 7:68 8:0 9:28 10:94 11:61 12:0 13:28 14:116 15:62 16:0 17:41 18:928 19:68 20:0 21:23353 22:124 23:64 24:0 #
-3.5887986541111512525625262728241e-08 1:7117 2:124 3:128 4:0 5:18 6:94 7:105 8:0 9:1 10:117 11:110 12:1 13:439 14:117 15:110 16:17 17:2 18:85 19:109 20:0 21:16 22:113 23:119 24:0 #
-3.5887986541111512525625262728241e-08 1:0 2:4866 3:0 4:0 5:0 6:156 7:0 8:9 9:0 10:109 11:0 12:1 13:0 14:116 15:0 16:8 17:0 18:123 19:0 20:5 21:0 22:93 23:0 24:5 #
-3.3915500640957252838109548670475e-08 1:0 2:100 3:63 4:0 5:23706 6:148 7:32 8:0 9:1 10:198 11:28 12:2 13:67 14:116 15:14 16:2 17:0 18:22 19:13 20:0 21:0 22:92 23:11 24:0 #
-3.5887986541111512525625262728241e-08 1:88 2:116 3:116 4:25 5:4 6:144 7:110 8:0 9:7117 10:124 11:128 12:0 13:18 14:94 15:105 16:0 17:1 18:117 19:110 20:1 21:439 22:117 23:110 24:17 #
-4.5243329311720589920809220452381e-11 1:0 2:135 3:61 4:0 5:0 6:100 7:63 8:0 9:23706 10:148 11:32 12:0 13:1 14:198 15:28 16:2 17:67 18:116 19:14 20:2 21:0 22:22 23:13 24:0 #
-3.3549372974987786720827386000021e-10 1:12210 2:38 3:10 4:0 5:3 6:104 7:12 8:0 9:11855 10:80 11:18 12:0 13:1 14:121 15:14 16:0 17:0 18:70 19:11 20:6 21:0 22:100 23:9 24:0 #
-1.9219677911167372650298799767465e-10 1:2 2:43 3:14 4:0 5:32 6:92 7:11 8:0 9:67 10:81 11:12 12:0 13:4 14:104 15:40 16:0 17:1 18:73 19:16 20:0 21:7042 22:92 23:20 24:10 #
-3.2533519064500970863207385264104e-16 1:0 2:955 3:0 4:0 5:0 6:190 7:0 8:0 9:0 10:7219 11:0 12:0 13:0 14:262 15:0 16:0 17:0 18:185 19:0 20:0 21:0 22:92 23:0 24:0 #
-6.2544385615630840775814376736818e-11 1:19 2:144859 3:11 4:0 5:175 6:49986 7:16 8:0 9:561 10:79 11:9 12:0 13:428 14:88 15:20 16:0 17:1002 18:25426 19:13 20:0 21:0 22:84245 23:11 24:0 #
-4.3185122819729573168893305146199e-16 1:0 2:79 3:20 4:0 5:0 6:82 7:26 8:1 9:3 10:58 11:14 12:1 13:27 14:96 15:10 16:0 17:5971 18:135 19:18 20:0 21:7064 22:62 23:23 24:0 #
-1.9612224154132119544047263559605e-15 1:28 2:116 3:62 4:0 5:41 6:928 7:68 8:0 9:23353 10:124 11:64 12:0 13:3 14:97 15:56 16:0 17:10 18:84 19:65 20:0 21:1 22:100 23:59 24:0 #
-2.4804793994781908068612839618396e-12 1:0 2:85 3:13 4:0 5:2 6:81347 7:21 8:0 9:0 10:168346 11:15 12:0 13:19 14:144859 15:11 16:0 17:175 18:49986 19:16 20:0 21:561 22:79 23:9 24:0 #
-5.3735551091071199820667700663729e-11 1:7365 2:92 3:17 4:3 5:13 6:54 7:12 8:0 9:24 10:54 11:6 12:0 13:83 14:67 15:14 16:0 17:7 18:64 19:14 20:0 21:247 22:89 23:27 24:0 #
