SVM-light Version V6.02
0 # kernel type
3 # kernel parameter -d 
1 # kernel parameter -g 
1 # kernel parameter -s 
1 # kernel parameter -r 
empty# kernel parameter -u 
24 # highest feature index 
426 # number of training documents 
174 # number of support vectors plus 1 
-1.0056526 # threshold b, each following line is a SV (starting with alpha*y)
-9.3281129420797941e-010 1:1361 2:0 3:0 4:0 5:0 6:0 7:44 8:0 9:0 10:0 11:0 12:0 13:61 14:0 15:0 16:0 17:0 18:0 19:703 20:0 21:0 22:0 23:152183 24:0 #
9.3281129420797941e-010 1:68 2:0 3:0 4:0 5:1024 6:0 7:16790 8:0 9:0 10:0 11:429 12:0 13:81026 14:0 15:0 16:0 17:3745 18:0 19:6 20:0 21:0 22:0 23:0 24:0 #
-9.3281129420797941e-010 1:10743 2:0 3:0 4:0 5:1629 6:0 7:42745 8:2256 9:688 10:633 11:21 12:0 13:91310 14:0 15:0 16:0 17:817 18:0 19:263 20:0 21:0 22:0 23:293 24:0 #
3.9428060383835926e-010 1:3144 2:0 3:0 4:0 5:46 6:0 7:2962 8:31 9:19 10:19 11:1099 12:0 13:7964 14:0 15:0 16:0 17:32776 18:0 19:5607 20:0 21:0 22:0 23:344336 24:0 #
4.7589579584211284e-010 1:1670 2:50 3:29 4:29 5:3079 6:0 7:270060 8:34 9:15 10:15 11:43 12:2 13:549 14:0 15:0 16:0 17:1300 18:1 19:512 20:0 21:0 22:9 23:1119 24:0 #
-8.3031277119089703e-010 1:2962 2:31 3:19 4:19 5:1099 6:0 7:7964 8:0 9:0 10:0 11:32776 12:0 13:5607 14:0 15:0 16:0 17:344336 18:0 19:23696 20:0 21:0 22:0 23:62 24:0 #
9.3281129420797941e-010 1:270060 2:34 3:15 4:15 5:43 6:2 7:549 8:0 9:0 10:0 11:1300 12:1 13:512 14:0 15:0 16:9 17:1119 18:0 19:1674 20:70 21:22 22:22 23:257 24:1 #
-9.3281129420797941e-010 1:674 2:21 3:15 4:16 5:27 6:0 7:65765 8:0 9:0 10:0 11:20 12:0 13:295 14:59 15:16 16:15 17:47 18:0 19:198 20:54 21:30 22:30 23:0 24:0 #
9.3281129420797941e-010 1:44 2:0 3:0 4:0 5:0 6:0 7:61 8:0 9:0 10:0 11:0 12:0 13:703 14:0 15:0 16:0 17:152183 18:0 19:4 20:0 21:0 22:0 23:0 24:0 #
9.3281129420797941e-010 1:1150 2:0 3:0 4:0 5:13 6:0 7:1090 8:19 9:15 10:15 11:46 12:0 13:4336 14:0 15:0 16:0 17:2071 18:0 19:324 20:0 21:0 22:0 23:3075 24:0 #
9.3281129420797941e-010 1:942 2:0 3:0 4:0 5:1728 6:0 7:2289 8:0 9:0 10:0 11:46 12:0 13:3875 14:0 15:0 16:0 17:2084 18:0 19:465 20:0 21:0 22:0 23:0 24:0 #
-9.3281129420797941e-010 1:11 2:0 3:0 4:0 5:0 6:0 7:0 8:0 9:0 10:0 11:0 12:0 13:0 14:0 15:0 16:0 17:0 18:0 19:0 20:0 21:0 22:0 23:0 24:0 #
-9.3281129420797941e-010 1:31725 2:0 3:0 4:0 5:674 6:0 7:272 8:153 9:34 10:30 11:46 12:0 13:398 14:161 15:34 16:30 17:338 18:0 19:235032 20:0 21:0 22:0 23:1766 24:0 #
-9.3281129420797941e-010 1:125021 2:0 3:0 4:0 5:95 6:0 7:676 8:0 9:0 10:0 11:1 12:0 13:37873 14:0 15:0 16:0 17:373 18:0 19:650 20:0 21:0 22:0 23:141 24:0 #
3.1056572679555568e-011 1:235032 2:0 3:0 4:0 5:1766 6:0 7:144745 8:0 9:0 10:0 11:0 12:0 13:33199 14:0 15:0 16:0 17:47 18:0 19:306 20:0 21:0 22:0 23:20 24:0 #
9.3281129420797941e-010 1:6102 2:417 3:170 4:170 5:1248 6:3 7:1472 8:166 9:71 10:71 11:390 12:0 13:5916 14:34 15:15 16:15 17:2751 18:3 19:13 20:0 21:0 22:0 23:0 24:0 #
-9.3281129420797941e-010 1:14695 2:0 3:0 4:0 5:1064 6:0 7:68 8:0 9:0 10:0 11:1024 12:0 13:16790 14:0 15:0 16:0 17:429 18:0 19:81026 20:0 21:0 22:0 23:3745 24:0 #
-9.3281129420797941e-010 1:306 2:0 3:0 4:0 5:2 6:0 7:63522 8:0 9:0 10:0 11:512 12:0 13:1581 14:0 15:0 16:0 17:23 18:0 19:5898 20:0 21:0 22:0 23:0 24:0 #
-9.3281129420797941e-010 1:116540 2:0 3:0 4:0 5:6 6:0 7:491 8:0 9:0 10:0 11:512 12:0 13:50 14:0 15:1 16:0 17:0 18:2 19:8 20:0 21:0 22:0 23:1 24:0 #
9.3281129420797941e-010 1:13 2:0 3:0 4:0 5:0 6:0 7:4515 8:0 9:0 10:0 11:129 12:0 13:311 14:0 15:0 16:0 17:1235 18:0 19:873 20:136 21:60 22:60 23:1603 24:0 #
-9.3281129420797941e-010 1:69412 2:0 3:0 4:0 5:924 6:0 7:1441 8:0 9:0 10:0 11:1 12:0 13:227 14:0 15:0 16:0 17:0 18:0 19:65665 20:0 21:0 22:0 23:46 24:0 #
-9.3281129420797941e-010 1:5615 2:0 3:0 4:0 5:0 6:0 7:10845 8:0 9:0 10:0 11:1131 12:0 13:4010 14:0 15:1 16:0 17:28 18:952 19:2572 20:0 21:0 22:0 23:92 24:0 #
9.3281129420797941e-010 1:1900 2:0 3:0 4:0 5:0 6:0 7:592 8:0 9:0 10:0 11:0 12:0 13:132489 14:0 15:0 16:0 17:5584 18:0 19:62634 20:0 21:0 22:0 23:71 24:0 #
-9.3281129420797941e-010 1:69694 2:0 3:0 4:0 5:514 6:0 7:306 8:0 9:0 10:0 11:2 12:0 13:63522 14:0 15:0 16:0 17:512 18:0 19:1581 20:0 21:0 22:0 23:23 24:0 #
9.3281129420797941e-010 1:130 2:0 3:0 4:0 5:1149 6:0 7:79 8:0 9:0 10:0 11:0 12:0 13:1298 14:0 15:0 16:0 17:1443 18:0 19:33 20:0 21:0 22:0 23:0 24:0 #
-9.3281129420797941e-010 1:42466 2:0 3:0 4:0 5:2153 6:0 7:546 8:0 9:0 10:0 11:1082 12:0 13:5374 14:0 15:0 16:0 17:4 18:0 19:42797 20:0 21:0 22:0 23:0 24:0 #
9.3281129420797941e-010 1:225 2:0 3:0 4:0 5:814 6:0 7:18077 8:183 9:185 10:137 11:264 12:0 13:2653 14:0 15:0 16:0 17:1465 18:0 19:10407 20:19 21:11 22:11 23:0 24:0 #
9.3281129420797941e-010 1:151736 2:41 3:15 4:15 5:72 6:0 7:904 8:18 9:14 10:14 11:528 12:0 13:3115 14:0 15:0 16:0 17:2365 18:0 19:10245 20:0 21:0 22:0 23:970 24:0 #
1.8156487457828582e-010 1:272 2:153 3:34 4:30 5:46 6:0 7:398 8:161 9:34 10:30 11:338 12:0 13:235032 14:0 15:0 16:0 17:1766 18:0 19:144745 20:0 21:0 22:0 23:0 24:0 #
4.9084132990061245e-011 1:61 2:0 3:0 4:0 5:0 6:0 7:703 8:0 9:0 10:0 11:152183 12:0 13:4 14:0 15:0 16:0 17:0 18:0 19:3144 20:0 21:0 22:0 23:46 24:0 #
-9.3281129420797941e-010 1:10 2:34 3:27 4:20296 5:500 6:0 7:4759 8:4126 9:4149 10:4743 11:0 12:0 13:884 14:269 15:267 16:265 17:373 18:0 19:1997 20:290 21:350 22:103 23:589 24:0 #
9.3281129420797941e-010 1:672 2:0 3:0 4:0 5:0 6:0 7:694 8:34 9:27 10:26 11:0 12:11 13:233 14:0 15:0 16:0 17:25461 18:0 19:252 20:0 21:0 22:0 23:2247 24:0 #
9.0599034090726075e-010 1:4627 2:34 3:15 4:15 5:1064 6:1 7:3375 8:0 9:0 10:0 11:75 12:1 13:1670 14:50 15:29 16:29 17:3079 18:0 19:270060 20:34 21:15 22:15 23:43 24:2 #
-9.3281129420797941e-010 1:812 2:34 3:15 4:15 5:13408 6:0 7:974 8:0 9:0 10:0 11:249 12:0 13:1076 14:0 15:0 16:0 17:0 18:0 19:1072 20:0 21:0 22:0 23:0 24:0 #
-9.3281129420797941e-010 1:120 2:3 3:0 4:0 5:1 6:0 7:126 8:72 9:23 10:23 11:0 12:0 13:84 14:0 15:0 16:0 17:511 18:0 19:254 20:0 21:0 22:0 23:0 24:0 #
9.3281129420797941e-010 1:925 2:322 3:341 4:324 5:24 6:1 7:10 8:34 9:27 10:20296 11:500 12:0 13:4759 14:4126 15:4149 16:4743 17:0 18:0 19:884 20:269 21:267 22:265 23:373 24:0 #
-5.9741338204200905e-010 1:157 2:0 3:0 4:0 5:107 6:0 7:6860 8:137 9:556 10:68116 11:95 12:0 13:751 14:0 15:0 16:0 17:23837 18:0 19:1343 20:0 21:0 22:0 23:46 24:0 #
-2.9530998863139901e-010 1:6860 2:137 3:556 4:68116 5:95 6:0 7:751 8:0 9:0 10:0 11:23837 12:0 13:1343 14:0 15:0 16:0 17:46 18:0 19:1556 20:0 21:0 22:0 23:0 24:0 #
9.3281129420797941e-010 1:2178 2:0 3:0 4:0 5:1 6:0 7:367 8:0 9:0 10:0 11:157 12:0 13:3978 14:0 15:0 16:0 17:1264 18:0 19:2853 20:0 21:0 22:0 23:2045 24:0 #
9.3281129420797941e-010 1:1526 2:19 3:15 4:15 5:170 6:0 7:219 8:0 9:0 10:0 11:46 12:0 13:3355 14:0 15:0 16:0 17:2105 18:0 19:1071 20:19 21:15 22:16 23:2747 24:0 #
3.0397764904171327e-010 1:10599 2:1990 3:2304 4:7705 5:0 6:4 7:925 8:322 9:341 10:324 11:24 12:1 13:10 14:34 15:27 16:20296 17:500 18:0 19:4759 20:4126 21:4149 22:4743 23:0 24:0 #
9.3281129420797941e-010 1:4759 2:4126 3:4149 4:4743 5:0 6:0 7:884 8:269 9:267 10:265 11:373 12:0 13:1997 14:290 15:350 16:103 17:589 18:0 19:1374 20:0 21:0 22:0 23:0 24:0 #
-9.3281129420797941e-010 1:3115 2:0 3:0 4:0 5:2365 6:0 7:10245 8:0 9:0 10:0 11:970 12:0 13:69412 14:0 15:0 16:0 17:924 18:0 19:1441 20:0 21:0 22:0 23:1 24:0 #
-9.3281129420797941e-010 1:272 2:0 3:0 4:0 5:217 6:0 7:75 8:0 9:0 10:0 11:1178 12:0 13:1874 14:68 15:30 16:30 17:1743 18:0 19:28927 20:0 21:0 22:0 23:212 24:0 #
-9.3281129420797941e-010 1:15568 2:0 3:0 4:0 5:120 6:0 7:42466 8:0 9:0 10:0 11:2153 12:0 13:546 14:0 15:0 16:0 17:1082 18:0 19:5374 20:0 21:0 22:0 23:4 24:0 #
9.3281129420797941e-010 1:429 2:800 3:888 4:807 5:1108 6:0 7:29 8:0 9:0 10:0 11:0 12:0 13:427 14:0 15:0 16:0 17:0 18:0 19:1150 20:0 21:0 22:0 23:13 24:0 #
-9.3281129420797941e-010 1:1205 2:0 3:0 4:0 5:1445 6:0 7:674 8:21 9:15 10:16 11:27 12:0 13:65765 14:0 15:0 16:0 17:20 18:0 19:295 20:59 21:16 22:15 23:47 24:0 #
-9.3281129420797941e-010 1:746 2:606 3:608 4:605 5:0 6:0 7:10599 8:1990 9:2304 10:7705 11:0 12:4 13:925 14:322 15:341 16:324 17:24 18:1 19:10 20:34 21:27 22:20296 23:500 24:0 #
8.1523771438804716e-010 1:1546 2:0 3:0 4:0 5:2099 6:0 7:555 8:0 9:0 10:0 11:330 12:0 13:942 14:0 15:0 16:0 17:1728 18:0 19:2289 20:0 21:0 22:0 23:46 24:0 #
9.3281129420797941e-010 1:694 2:34 3:27 4:26 5:0 6:11 7:233 8:0 9:0 10:0 11:25461 12:0 13:252 14:0 15:0 16:0 17:2247 18:0 19:1156 20:0 21:0 22:0 23:1801 24:0 #
9.3281129420797941e-010 1:1555 2:77 3:45 4:46 5:1189 6:0 7:157 8:0 9:0 10:0 11:21 12:0 13:769 14:199 15:0 16:0 17:8265 18:0 19:1030 20:511 21:438 22:438 23:868 24:0 #
-9.3281129420797941e-010 1:4514 2:0 3:0 4:0 5:2048 6:0 7:5730 8:0 9:0 10:0 11:123 12:0 13:173 14:41 15:15 16:15 17:4 18:0 19:3781 20:0 21:0 22:0 23:92 24:0 #
-9.3281129420797941e-010 1:1231 2:39 3:15 4:15 5:2068 6:0 7:812 8:34 9:15 10:15 11:13408 12:0 13:974 14:0 15:0 16:0 17:249 18:0 19:1076 20:0 21:0 22:0 23:0 24:0 #
9.3281129420797941e-010 1:14090 2:0 3:0 4:0 5:0 6:0 7:12703 8:0 9:0 10:0 11:354 12:0 13:4514 14:0 15:0 16:0 17:2048 18:0 19:5730 20:0 21:0 22:0 23:123 24:0 #
-9.3281129420797941e-010 1:12834 2:0 3:0 4:0 5:169 6:0 7:8128 8:0 9:0 10:0 11:353 12:0 13:4499 14:0 15:0 16:0 17:46 18:0 19:14571 20:0 21:0 22:0 23:24 24:0 #
9.3281129420797941e-010 1:1823 2:670 3:475 4:424 5:54 6:0 7:241 8:0 9:0 10:0 11:70 12:0 13:2188 14:0 15:0 16:0 17:3606 18:0 19:583 20:0 21:0 22:0 23:1044 24:0 #
-9.3281129420797941e-010 1:33199 2:0 3:0 4:0 5:47 6:0 7:306 8:0 9:0 10:0 11:20 12:0 13:1017 14:127 15:15 16:15 17:1084 18:0 19:607 20:159 21:16 22:15 23:931 24:0 #
-9.3281129420797941e-010 1:75 2:0 3:0 4:0 5:1178 6:0 7:1874 8:68 9:30 10:30 11:1743 12:0 13:28927 14:0 15:0 16:0 17:212 18:0 19:3976 20:0 21:0 22:0 23:0 24:0 #
9.3281129420797941e-010 1:501 2:0 3:0 4:0 5:1382 6:0 7:935 8:0 9:0 10:0 11:0 12:0 13:451 14:0 15:0 16:0 17:3548 18:0 19:1 20:0 21:0 22:0 23:9 24:0 #
-9.3281129420797941e-010 1:109 2:0 3:0 4:0 5:46 6:0 7:225 8:0 9:0 10:0 11:814 12:0 13:18077 14:183 15:185 16:137 17:264 18:0 19:2653 20:0 21:0 22:0 23:1465 24:0 #
9.3281129420797941e-010 1:886 2:0 3:0 4:0 5:36 6:0 7:429 8:800 9:888 10:807 11:1108 12:0 13:29 14:0 15:0 16:0 17:0 18:0 19:427 20:0 21:0 22:0 23:0 24:0 #
-9.3281129420797941e-010 1:3302 2:25 3:15 4:15 5:162 6:0 7:8824 8:0 9:0 10:0 11:128 12:0 13:10502 14:0 15:0 16:0 17:110 18:0 19:7838 20:0 21:0 22:0 23:92 24:0 #
9.3281129420797941e-010 1:1090 2:19 3:15 4:15 5:46 6:0 7:4336 8:0 9:0 10:0 11:2071 12:0 13:324 14:0 15:0 16:0 17:3075 18:0 19:4516 20:0 21:0 22:0 23:57 24:0 #
9.3281129420797941e-010 1:295 2:0 3:0 4:0 5:0 6:0 7:27730 8:0 9:0 10:0 11:1022 12:0 13:1599 14:0 15:0 16:0 17:1616 18:0 19:1610 20:0 21:0 22:0 23:943 24:1 #
9.3281129420797941e-010 1:785 2:0 3:0 4:0 5:54 6:0 7:1662 8:0 9:0 10:0 11:0 12:0 13:11780 14:0 15:0 16:0 17:7017 18:0 19:203 20:0 21:0 22:0 23:34 24:0 #
9.3281129420797941e-010 1:319 2:0 3:0 4:0 5:3363 6:0 7:2159 8:0 9:0 10:0 11:2348 12:5 13:160 14:0 15:0 16:0 17:2259 18:0 19:3380 20:0 21:0 22:0 23:12 24:0 #
9.3281129420797941e-010 1:51 2:0 3:0 4:0 5:0 6:0 7:453 8:0 9:0 10:0 11:2280 12:0 13:1209 14:0 15:0 16:0 17:1457 18:0 19:1823 20:670 21:475 22:424 23:54 24:0 #
9.3281129420797941e-010 1:42797 2:0 3:0 4:0 5:0 6:0 7:5615 8:0 9:0 10:0 11:0 12:0 13:10845 14:0 15:0 16:0 17:1131 18:0 19:4010 20:0 21:1 22:0 23:28 24:952 #
8.656984116377603e-010 1:2581 2:19 3:15 4:17 5:899 6:0 7:56 8:0 9:0 10:0 11:1 12:0 13:130 14:0 15:0 16:0 17:1149 18:0 19:79 20:0 21:0 22:0 23:0 24:0 #
9.3281129420797941e-010 1:583 2:0 3:0 4:0 5:1044 6:0 7:1174 8:19 9:15 10:16 11:53 12:0 13:321 14:0 15:0 16:0 17:4201 18:0 19:1048 20:0 21:0 22:0 23:1034 24:0 #
-9.3281129420797941e-010 1:465 2:0 3:0 4:0 5:0 6:0 7:8229 8:0 9:0 10:0 11:47 12:0 13:1295 14:0 15:0 16:0 17:185 18:0 19:3310 20:0 21:0 22:0 23:0 24:1 #
-9.3281129420797941e-010 1:8824 2:0 3:0 4:0 5:128 6:0 7:10502 8:0 9:0 10:0 11:110 12:0 13:7838 14:0 15:0 16:0 17:92 18:0 19:1361 20:0 21:0 22:0 23:0 24:0 #
-9.3281129420797941e-010 1:11527 2:0 3:0 4:0 5:42 6:0 7:2768 8:0 9:0 10:0 11:27 12:0 13:703 14:0 15:0 16:0 17:1 18:0 19:387 20:0 21:0 22:0 23:22 24:0 #
9.3281129420797941e-010 1:138 2:0 3:0 4:0 5:18 6:0 7:503 8:0 9:0 10:0 11:96 12:0 13:263 14:0 15:0 16:0 17:1161 18:0 19:1293 20:0 21:0 22:0 23:0 24:0 #
9.3281129420797941e-010 1:203 2:0 3:0 4:0 5:34 6:0 7:3201 8:0 9:0 10:0 11:3077 12:0 13:94 14:0 15:0 16:0 17:3173 18:2 19:50 20:39 21:15 22:15 23:27 24:0 #
-9.3281129420797941e-010 1:348 2:0 3:0 4:0 5:2817 6:0 7:266 8:0 9:0 10:0 11:752 12:0 13:1005 14:19 15:42 16:16 17:93 18:0 19:501 20:0 21:0 22:0 23:1382 24:0 #
-9.3281129420797941e-010 1:1674 2:70 3:22 4:22 5:257 6:1 7:6102 8:417 9:170 10:170 11:1248 12:3 13:1472 14:166 15:71 16:71 17:390 18:0 19:5916 20:34 21:15 22:15 23:2751 24:3 #
9.3281129420797941e-010 1:6314 2:640 3:397 4:396 5:1357 6:1 7:136 8:0 9:0 10:0 11:4193 12:0 13:531 14:0 15:0 16:0 17:1119 18:0 19:373 20:0 21:0 22:0 23:78 24:0 #
9.3281129420797941e-010 1:3325 2:39 3:31 4:32 5:220 6:0 7:827 8:0 9:0 10:0 11:1812 12:0 13:1625 14:19 15:15 16:15 17:4375 18:0 19:0 20:0 21:0 22:0 23:0 24:0 #
-9.3281129420797941e-010 1:4336 2:0 3:0 4:0 5:2071 6:0 7:324 8:0 9:0 10:0 11:3075 12:0 13:4516 14:0 15:0 16:0 17:57 18:0 19:570 20:36 21:28 22:28 23:1390 24:0 #
-9.3281129420797941e-010 1:10845 2:0 3:0 4:0 5:1131 6:0 7:4010 8:0 9:1 10:0 11:28 12:952 13:2572 14:0 15:0 16:0 17:92 18:0 19:295 20:0 21:0 22:0 23:0 24:0 #
9.3281129420797941e-010 1:65665 2:0 3:0 4:0 5:46 6:0 7:295 8:0 9:0 10:0 11:0 12:0 13:27730 14:0 15:0 16:0 17:1022 18:0 19:1599 20:0 21:0 22:0 23:1616 24:0 #
-9.3281129420797941e-010 1:10502 2:0 3:0 4:0 5:110 6:0 7:7838 8:0 9:0 10:0 11:92 12:0 13:1361 14:0 15:0 16:0 17:0 18:0 19:44 20:0 21:0 22:0 23:0 24:0 #
9.3281129420797941e-010 1:176 2:186 3:183 4:164 5:0 6:0 7:854 8:2057 9:1992 10:1976 11:101 12:1 13:2697 14:0 15:0 16:0 17:13 18:0 19:2478 20:26 21:14 22:14 23:56 24:0 #
9.3281129420797941e-010 1:364 2:73 3:30 4:112 5:8 6:0 7:3806 8:0 9:0 10:0 11:673 12:1 13:4627 14:34 15:15 16:15 17:1064 18:1 19:3375 20:0 21:0 22:0 23:75 24:1 #
-9.3281129420797941e-010 1:2095 2:0 3:0 4:0 5:19 6:0 7:1297 8:18 9:14 10:14 11:62 12:0 13:886 14:0 15:0 16:0 17:36 18:0 19:429 20:800 21:888 22:807 23:1108 24:0 #
9.3281129420797941e-010 1:720 2:240 3:264 4:173 5:26 6:0 7:4927 8:1881 9:1899 10:1893 11:1087 12:0 13:4815 14:0 15:0 16:0 17:48 18:0 19:4018 20:29 21:21 22:21 23:52 24:1 #
-9.3281129420797941e-010 1:374 2:0 3:0 4:0 5:14 6:0 7:581 8:0 9:0 10:0 11:1027 12:0 13:4368 14:0 15:0 16:0 17:3 18:0 19:1889 20:0 21:0 22:0 23:3448 24:0 #
-9.3281129420797941e-010 1:555 2:0 3:0 4:0 5:330 6:0 7:942 8:0 9:0 10:0 11:1728 12:0 13:2289 14:0 15:0 16:0 17:46 18:0 19:3875 20:0 21:0 22:0 23:2084 24:0 #
-9.3281129420797941e-010 1:144 2:0 3:0 4:0 5:0 6:0 7:594 8:0 9:0 10:0 11:0 12:0 13:68 14:0 15:0 16:0 17:905 18:0 19:850 20:1131 21:769 22:737 23:1 24:0 #
9.3281129420797941e-010 1:854 2:2057 3:1992 4:1976 5:101 6:1 7:2697 8:0 9:0 10:0 11:13 12:0 13:2478 14:26 15:14 16:14 17:56 18:0 19:51357 20:0 21:0 22:0 23:1 24:0 #
-9.3281129420797941e-010 1:4927 2:1881 3:1899 4:1893 5:1087 6:0 7:4815 8:0 9:0 10:0 11:48 12:0 13:4018 14:29 15:21 16:21 17:52 18:1 19:1501 20:100 21:80 22:80 23:26 24:0 #
9.3281129420797941e-010 1:828 2:0 3:0 4:0 5:1 6:0 7:780 8:4 9:0 10:0 11:140 12:0 13:33 14:54 15:30 16:30 17:2200 18:0 19:3395 20:0 21:0 22:0 23:29 24:0 #
-9.3281129420797941e-010 1:4815 2:0 3:0 4:0 5:48 6:0 7:4018 8:29 9:21 10:21 11:52 12:1 13:1501 14:100 15:80 16:80 17:26 18:0 19:2287 20:65 21:51 22:49 23:0 24:0 #
9.3281129420797941e-010 1:4515 2:0 3:0 4:0 5:129 6:0 7:311 8:0 9:0 10:0 11:1235 12:0 13:873 14:136 15:60 16:60 17:1603 18:0 19:20513 20:34 21:15 22:15 23:1168 24:2 #
9.3281129420797941e-010 1:2588 2:0 3:0 4:0 5:5 6:0 7:436 8:0 9:0 10:0 11:708 12:0 13:71 14:0 15:0 16:0 17:3250 18:1 19:1555 20:77 21:45 22:46 23:1189 24:0 #
-9.3281129420797941e-010 1:243 2:0 3:0 4:0 5:1036 6:0 7:5172 8:0 9:0 10:0 11:0 12:0 13:1255 14:0 15:0 16:0 17:380 18:0 19:785 20:0 21:0 22:0 23:54 24:0 #
9.3281129420797941e-010 1:2519 2:0 3:0 4:0 5:256 6:0 7:46 8:0 9:0 10:0 11:768 12:0 13:576 14:26 15:18 16:18 17:2791 18:1 19:157 20:0 21:0 22:0 23:107 24:0 #
-9.3281129420797941e-010 1:8229 2:0 3:0 4:0 5:47 6:0 7:1295 8:0 9:0 10:0 11:185 12:0 13:3310 14:0 15:0 16:0 17:0 18:1 19:441 20:0 21:0 22:0 23:0 24:0 #
9.3281129420797941e-010 1:125 2:0 3:0 4:0 5:2773 6:0 7:163 8:4 9:0 10:0 11:56 12:0 13:319 14:0 15:0 16:0 17:3363 18:0 19:2159 20:0 21:0 22:0 23:2348 24:5 #
9.3281129420797941e-010 1:411 2:0 3:0 4:0 5:1217 6:0 7:6314 8:640 9:397 10:396 11:1357 12:1 13:136 14:0 15:0 16:0 17:4193 18:0 19:531 20:0 21:0 22:0 23:1119 24:0 #
-9.3281129420797941e-010 1:4699 2:4 3:16 4:0 5:2584 6:328 7:68 8:0 9:0 10:0 11:3 12:0 13:1771 14:0 15:0 16:0 17:0 18:0 19:944 20:0 21:0 22:0 23:157 24:0 #
9.3281129420797941e-010 1:537 2:0 3:0 4:0 5:407 6:0 7:1370 8:23 9:15 10:15 11:1547 12:0 13:125 14:0 15:0 16:0 17:2773 18:0 19:163 20:4 21:0 22:0 23:56 24:0 #
-9.3281129420797941e-010 1:4578 2:0 3:0 4:0 5:1023 6:0 7:1043 8:0 9:0 10:0 11:8 12:0 13:2400 14:0 15:0 16:0 17:1539 18:0 19:2618 20:0 21:0 22:0 23:2528 24:0 #
-9.3281129420797941e-010 1:79 2:0 3:0 4:0 5:0 6:0 7:1298 8:0 9:0 10:0 11:1443 12:0 13:33 14:0 15:0 16:0 17:0 18:0 19:3745 20:19 21:15 22:15 23:645 24:0 #
-9.3281129420797941e-010 1:1177 2:0 3:0 4:0 5:0 6:0 7:3325 8:39 9:31 10:32 11:220 12:0 13:827 14:0 15:0 16:0 17:1812 18:0 19:1625 20:19 21:15 22:15 23:4375 24:0 #
2.7014814139391232e-010 1:241 2:0 3:0 4:0 5:70 6:0 7:2188 8:0 9:0 10:0 11:3606 12:0 13:583 14:0 15:0 16:0 17:1044 18:0 19:1174 20:19 21:15 22:16 23:53 24:0 #
9.3281129420797941e-010 1:1209 2:0 3:0 4:0 5:1457 6:0 7:1823 8:670 9:475 10:424 11:54 12:0 13:241 14:0 15:0 16:0 17:70 18:0 19:2188 20:0 21:0 22:0 23:3606 24:0 #
9.3281129420797941e-010 1:426 2:0 3:0 4:0 5:0 6:0 7:3747 8:0 9:0 10:0 11:108 12:0 13:19638 14:0 15:0 16:0 17:5109 18:0 19:994 20:0 21:0 22:0 23:193 24:0 #
9.3281129420797941e-010 1:121 2:16 3:13 4:13 5:1791 6:0 7:263 8:76 9:28 10:28 11:1894 12:0 13:252 14:0 15:0 16:0 17:1876 18:0 19:51 20:0 21:0 22:0 23:0 24:0 #
9.3281129420797941e-010 1:266 2:0 3:0 4:0 5:752 6:0 7:1005 8:19 9:42 10:16 11:93 12:0 13:501 14:0 15:0 16:0 17:1382 18:0 19:935 20:0 21:0 22:0 23:0 24:0 #
9.3281129420797941e-010 1:163 2:4 3:0 4:0 5:56 6:0 7:319 8:0 9:0 10:0 11:3363 12:0 13:2159 14:0 15:0 16:0 17:2348 18:5 19:160 20:0 21:0 22:0 23:2259 24:0 #
-9.3281129420797941e-010 1:1371 2:0 3:0 4:0 5:1117 6:0 7:204 8:0 9:0 10:0 11:0 12:0 13:3505 14:0 15:0 16:0 17:771 18:0 19:497 20:39 21:15 22:15 23:872 24:0 #
-9.3281129420797941e-010 1:1297 2:18 3:14 4:14 5:62 6:0 7:886 8:0 9:0 10:0 11:36 12:0 13:429 14:800 15:888 16:807 17:1108 18:0 19:29 20:0 21:0 22:0 23:0 24:0 #
-9.3281129420797941e-010 1:3098 2:106 3:60 4:60 5:2106 6:1 7:164 8:0 9:0 10:0 11:92 12:0 13:4699 14:4 15:16 16:0 17:2584 18:328 19:68 20:0 21:0 22:0 23:3 24:0 #
9.3281129420797941e-010 1:68 2:0 3:0 4:0 5:905 6:0 7:850 8:1131 9:769 10:737 11:1 12:0 13:2289 14:0 15:0 16:0 17:0 18:0 19:2519 20:0 21:0 22:0 23:256 24:0 #
-9.3281129420797941e-010 1:1295 2:0 3:0 4:0 5:185 6:0 7:3310 8:0 9:0 10:0 11:0 12:1 13:441 14:0 15:0 16:0 17:0 18:0 19:1900 20:0 21:0 22:0 23:0 24:0 #
9.3281129420797941e-010 1:581 2:0 3:0 4:0 5:1027 6:0 7:4368 8:0 9:0 10:0 11:3 12:0 13:1889 14:0 15:0 16:0 17:3448 18:0 19:91 20:0 21:0 22:0 23:0 24:0 #
9.3281129420797941e-010 1:614 2:0 3:0 4:0 5:114 6:0 7:1975 8:38 9:30 10:30 11:28 12:0 13:411 14:0 15:0 16:0 17:1217 18:0 19:6314 20:640 21:397 22:396 23:1357 24:1 #
-9.3281129420797941e-010 1:4010 2:0 3:1 4:0 5:28 6:952 7:2572 8:0 9:0 10:0 11:92 12:0 13:295 14:0 15:0 16:0 17:0 18:0 19:68 20:0 21:0 22:0 23:0 24:0 #
-9.3281129420797941e-010 1:935 2:0 3:0 4:0 5:0 6:0 7:451 8:0 9:0 10:0 11:3548 12:0 13:1 14:0 15:0 16:0 17:9 18:0 19:248 20:19 21:15 22:15 23:11 24:0 #
-9.3281129420797941e-010 1:2491 2:0 3:0 4:0 5:1200 6:0 7:2581 8:19 9:15 10:17 11:899 12:0 13:56 14:0 15:0 16:0 17:1 18:0 19:130 20:0 21:0 22:0 23:1149 24:0 #
-9.3281129420797941e-010 1:56 2:0 3:0 4:0 5:1 6:0 7:130 8:0 9:0 10:0 11:1149 12:0 13:79 14:0 15:0 16:0 17:0 18:0 19:1298 20:0 21:0 22:0 23:1443 24:0 #
-9.3281129420797941e-010 1:1478 2:0 3:0 4:0 5:144 6:0 7:121 8:16 9:13 10:13 11:1791 12:0 13:263 14:76 15:28 16:28 17:1894 18:0 19:252 20:0 21:0 22:0 23:1876 24:0 #
-9.3281129420797941e-010 1:503 2:0 3:0 4:0 5:96 6:0 7:263 8:0 9:0 10:0 11:1161 12:0 13:1293 14:0 15:0 16:0 17:0 18:0 19:178 20:0 21:0 22:0 23:271 24:0 #
9.3281129420797941e-010 1:915 2:74 3:58 4:58 5:798 6:0 7:1233 8:0 9:0 10:0 11:47 12:0 13:1546 14:0 15:0 16:0 17:2099 18:0 19:555 20:0 21:0 22:0 23:330 24:0 #
9.3281129420797941e-010 1:252 2:0 3:0 4:0 5:1876 6:0 7:51 8:0 9:0 10:0 11:0 12:0 13:453 14:0 15:0 16:0 17:2280 18:0 19:1209 20:0 21:0 22:0 23:1457 24:0 #
9.3281129420797941e-010 1:531 2:0 3:0 4:0 5:1119 6:0 7:373 8:0 9:0 10:0 11:78 12:0 13:3098 14:106 15:60 16:60 17:2106 18:1 19:164 20:0 21:0 22:0 23:92 24:0 #
9.3281129420797941e-010 1:1244 2:0 3:0 4:0 5:1025 6:0 7:701 8:36 9:28 10:30 11:33 12:0 13:2666 14:17 15:13 16:13 17:2086 18:0 19:620 20:0 21:0 22:0 23:1 24:0 #
9.3281129420797941e-010 1:769 2:199 3:0 4:0 5:8265 6:0 7:1030 8:511 9:438 10:438 11:868 12:0 13:200 14:21 15:0 16:0 17:4416 18:0 19:1478 20:0 21:0 22:0 23:144 24:0 #
9.3281129420797941e-010 1:1077 2:0 3:0 4:0 5:205 6:0 7:537 8:0 9:0 10:0 11:407 12:0 13:1370 14:23 15:15 16:15 17:1547 18:0 19:125 20:0 21:0 22:0 23:2773 24:0 #
4.4831757670685656e-016 1:62634 2:0 3:0 4:0 5:71 6:0 7:140056 8:0 9:0 10:0 11:110 12:0 13:11527 14:0 15:0 16:0 17:42 18:0 19:2768 20:0 21:0 22:0 23:27 24:0 #
-9.3281129420797941e-010 1:412 2:0 3:0 4:0 5:1024 6:0 7:563 8:0 9:0 10:0 11:1023 12:0 13:890 14:0 15:0 16:0 17:957 18:0 19:910 20:0 21:0 22:0 23:1025 24:0 #
9.3281129420797941e-010 1:463 2:0 3:0 4:0 5:0 6:0 7:766 8:0 9:0 10:0 11:3073 12:0 13:1371 14:0 15:0 16:0 17:1117 18:0 19:204 20:0 21:0 22:0 23:0 24:0 #
-9.3281129420797941e-010 1:910 2:0 3:0 4:0 5:1025 6:0 7:463 8:0 9:0 10:0 11:0 12:0 13:766 14:0 15:0 16:0 17:3073 18:0 19:1371 20:0 21:0 22:0 23:1117 24:0 #
9.3281129420797941e-010 1:19 2:4 3:0 4:0 5:78 6:0 7:20 8:17 9:15 10:15 11:1028 12:0 13:243 14:0 15:0 16:0 17:1036 18:0 19:5172 20:0 21:0 22:0 23:0 24:0 #
9.3281129420797941e-010 1:850 2:1131 3:769 4:737 5:1 6:0 7:2289 8:0 9:0 10:0 11:0 12:0 13:2519 14:0 15:0 16:0 17:256 18:0 19:46 20:0 21:0 22:0 23:768 24:0 #
-9.3281129420797941e-010 1:842 2:0 3:1 4:0 5:117 6:2 7:1335 8:38 9:31 10:30 11:35 12:0 13:1279 14:0 15:0 16:0 17:112 18:0 19:1560 20:0 21:0 22:0 23:82 24:0 #
2.6695035464574271e-010 1:37963 2:0 3:0 4:0 5:47 6:0 7:178 8:0 9:0 10:0 11:8 12:0 13:1228 14:125 15:34 16:30 17:1028 18:0 19:8 20:0 21:0 22:0 23:43 24:0 #
9.3281129420797941e-010 1:1043 2:0 3:0 4:0 5:8 6:0 7:2400 8:0 9:0 10:0 11:1539 12:0 13:2618 14:0 15:0 16:0 17:2528 18:0 19:162 20:0 21:0 22:0 23:0 24:0 #
9.3281129420797941e-010 1:5077 2:19 3:47 4:97 5:2048 6:378 7:15568 8:0 9:0 10:0 11:120 12:0 13:42466 14:0 15:0 16:0 17:2153 18:0 19:546 20:0 21:0 22:0 23:1082 24:0 #
-9.3281129420797941e-010 1:378 2:0 3:0 4:0 5:0 6:0 7:138 8:0 9:0 10:0 11:18 12:0 13:503 14:0 15:0 16:0 17:96 18:0 19:263 20:0 21:0 22:0 23:1161 24:0 #
-9.3281129420797941e-010 1:586 2:0 3:0 4:0 5:0 6:0 7:2505 8:0 9:0 10:0 11:144 12:0 13:540 14:0 15:0 16:0 17:9 18:0 19:227 20:0 21:0 22:0 23:80 24:0 #
-9.3281129420797941e-010 1:3380 2:0 3:0 4:0 5:12 6:0 7:19 8:4 9:0 10:0 11:78 12:0 13:20 14:17 15:15 16:15 17:1028 18:0 19:243 20:0 21:0 22:0 23:1036 24:0 #
-9.3281129420797941e-010 1:425 2:0 3:0 4:0 5:133 6:0 7:1231 8:39 9:15 10:15 11:2068 12:0 13:812 14:34 15:15 16:15 17:13408 18:0 19:974 20:0 21:0 22:0 23:249 24:0 #
9.3281129420797941e-010 1:14076 2:0 3:0 4:0 5:12 6:0 7:24600 8:0 9:0 10:0 11:57 12:0 13:5254 14:0 15:0 16:0 17:2016 18:0 19:3302 20:25 21:15 22:15 23:162 24:0 #
-9.3281129420797941e-010 1:250 2:0 3:0 4:0 5:0 6:0 7:291 8:0 9:0 10:0 11:419 12:0 13:127 14:0 15:0 16:0 17:16 18:0 19:120 20:3 21:0 22:0 23:1 24:0 #
-9.3281129420797941e-010 1:540 2:0 3:0 4:0 5:9 6:0 7:227 8:0 9:0 10:0 11:80 12:0 13:2 14:0 15:0 16:0 17:0 18:0 19:523 20:0 21:0 22:0 23:316 24:0 #
9.3281129420797941e-010 1:367 2:0 3:0 4:0 5:157 6:0 7:3978 8:0 9:0 10:0 11:1264 12:0 13:2853 14:0 15:0 16:0 17:2045 18:0 19:4578 20:0 21:0 22:0 23:1023 24:0 #
9.3281129420797941e-010 1:387 2:0 3:0 4:0 5:22 6:0 7:977 8:0 9:0 10:0 11:0 12:0 13:5077 14:19 15:47 16:97 17:2048 18:378 19:15568 20:0 21:0 22:0 23:120 24:0 #
-9.3281129420797941e-010 1:295 2:0 3:0 4:0 5:0 6:0 7:297 8:0 9:0 10:0 11:0 12:0 13:680 14:0 15:0 16:0 17:264 18:0 19:651 20:0 21:0 22:0 23:336 24:0 #
1.2993031568625713e-010 1:0 2:0 3:0 4:0 5:0 6:0 7:2308 8:0 9:0 10:0 11:454 12:0 13:65 14:0 15:0 16:0 17:1024 18:0 19:1755 20:98 21:46 22:46 23:37 24:0 #
-9.3281129420797941e-010 1:126 2:72 3:23 4:23 5:0 6:0 7:84 8:0 9:0 10:0 11:511 12:0 13:254 14:0 15:0 16:0 17:0 18:0 19:174 20:0 21:0 22:0 23:0 24:0 #
9.3281129420797941e-010 1:219 2:0 3:0 4:0 5:46 6:0 7:3355 8:0 9:0 10:0 11:2105 12:0 13:1071 14:19 15:15 16:16 17:2747 18:0 19:2491 20:0 21:0 22:0 23:1200 24:0 #
-9.3281129420797941e-010 1:127 2:0 3:0 4:0 5:16 6:0 7:120 8:3 9:0 10:0 11:1 12:0 13:126 14:72 15:23 16:23 17:0 18:0 19:84 20:0 21:0 22:0 23:511 24:0 #
9.3281129420797941e-010 1:321 2:0 3:0 4:0 5:4201 6:0 7:1048 8:0 9:0 10:0 11:1034 12:0 13:348 14:0 15:0 16:0 17:2817 18:0 19:266 20:0 21:0 22:0 23:752 24:0 #
-9.3281129420797941e-010 1:227 2:0 3:0 4:0 5:80 6:0 7:2 8:0 9:0 10:0 11:0 12:0 13:523 14:0 15:0 16:0 17:316 18:0 19:647 20:0 21:0 22:0 23:0 24:0 #
2.0486925869435915e-010 1:51357 2:0 3:0 4:0 5:1 6:0 7:71748 8:0 9:0 10:0 11:176 12:0 13:10743 14:0 15:0 16:0 17:1629 18:0 19:42745 20:2256 21:688 22:633 23:21 24:0 #
-9.3281129420797941e-010 1:1 2:0 3:0 4:0 5:9 6:0 7:248 8:19 9:15 10:15 11:11 12:0 13:262 14:0 15:0 16:0 17:0 18:0 19:232 20:0 21:0 22:0 23:812 24:0 #
2.5307667754731127e-010 1:46 2:0 3:0 4:0 5:768 6:0 7:576 8:26 9:18 10:18 11:2791 12:1 13:157 14:0 15:0 16:0 17:107 18:0 19:6860 20:137 21:556 22:68116 23:95 24:0 #
-9.3281129420797941e-010 1:254 2:0 3:0 4:0 5:0 6:0 7:174 8:0 9:0 10:0 11:0 12:0 13:104 14:0 15:0 16:0 17:0 18:0 19:239 20:0 21:0 22:0 23:32 24:0 #
9.3281129420797941e-010 1:73 2:0 3:0 4:0 5:137 6:0 7:272 8:0 9:0 10:0 11:217 12:0 13:75 14:0 15:0 16:0 17:1178 18:0 19:1874 20:68 21:30 22:30 23:1743 24:0 #
-9.3281129420797941e-010 1:174 2:0 3:0 4:0 5:0 6:0 7:104 8:0 9:0 10:0 11:0 12:0 13:239 14:0 15:0 16:0 17:32 18:0 19:295 20:0 21:0 22:0 23:0 24:0 #
9.3281129420797941e-010 1:162 2:0 3:0 4:0 5:0 6:0 7:1168 8:0 9:0 10:0 11:1262 12:0 13:707 14:34 15:15 16:15 17:1649 18:1 19:364 20:73 21:30 22:112 23:8 24:0 #
-9.3281129420797941e-010 1:36 2:0 3:0 4:0 5:0 6:0 7:102 8:0 9:0 10:0 11:27 12:0 13:11 14:0 15:0 16:0 17:0 18:0 19:0 20:0 21:0 22:0 23:0 24:0 #
-9.3281129420797941e-010 1:50 2:0 3:1 4:0 5:0 6:2 7:8 8:0 9:0 10:0 11:1 12:0 13:36 14:0 15:0 16:0 17:0 18:0 19:102 20:0 21:0 22:0 23:27 24:0 #
9.3281129420797941e-010 1:570 2:36 3:28 4:28 5:1390 6:0 7:1851 8:0 9:0 10:0 11:0 12:0 13:2225 14:0 15:0 16:0 17:2051 18:0 19:3267 20:0 21:0 22:0 23:769 24:0 #
-9.3281129420797941e-010 1:248 2:19 3:15 4:15 5:11 6:0 7:262 8:0 9:0 10:0 11:0 12:0 13:232 14:0 15:0 16:0 17:812 18:0 19:144 20:0 21:0 22:0 23:0 24:0 #
9.3281129420797941e-010 1:1820 2:0 3:0 4:0 5:170 6:0 7:1634 8:0 9:0 10:0 11:62 12:0 13:907 14:8 15:4 16:4 17:2131 18:0 19:1721 20:28 21:26 22:25 23:524 24:0 #
-9.3281129420797941e-010 1:102 2:0 3:0 4:0 5:27 6:0 7:11 8:0 9:0 10:0 11:0 12:0 13:0 14:0 15:0 16:0 17:0 18:0 19:0 20:0 21:0 22:0 23:0 24:0 #
9.3281129420797941e-010 1:1072 2:0 3:0 4:0 5:0 6:0 7:1088 8:0 9:0 10:0 11:0 12:0 13:412 14:0 15:0 16:0 17:1024 18:0 19:563 20:0 21:0 22:0 23:1023 24:0 #
-9.3281129420797941e-010 1:8 2:0 3:0 4:0 5:1 6:0 7:36 8:0 9:0 10:0 11:0 12:0 13:102 14:0 15:0 16:0 17:27 18:0 19:11 20:0 21:0 22:0 23:0 24:0 #
3.0652002650790709e-010 1:751 2:0 3:0 4:0 5:46 6:0 7:687 8:0 9:0 10:0 11:517 12:0 13:2746 14:0 15:0 16:0 17:1027 18:0 19:1526 20:19 21:15 22:15 23:170 24:0 #
