SVM-light Version V6.02
0 # kernel type
3 # kernel parameter -d 
1 # kernel parameter -g 
1 # kernel parameter -s 
1 # kernel parameter -r 
empty# kernel parameter -u 
8 # highest feature index 
1910 # number of training documents 
431 # number of support vectors plus 1 
0.99982145 # threshold b, each following line is a SV (starting with alpha*y)
-5.9766325194098966026574719367925e-07 1:0 2:0 3:0 4:0 5:0 6:30 7:0 8:0 #
5.9766325194098966026574719367925e-07 1:0 2:52 3:0 4:0 5:0 6:6 7:0 8:0 #
5.9766325194098966026574719367925e-07 1:0 2:78 3:0 4:0 5:0 6:84 7:0 8:0 #
5.9766325194098966026574719367925e-07 1:0 2:91 3:0 4:2 5:0 6:7110 7:0 8:0 #
5.9766325194098966026574719367925e-07 1:0 2:36 3:2 4:0 5:0 6:0 7:2 8:0 #
5.9766325194098966026574719367925e-07 1:0 2:50540 3:4 4:0 5:0 6:41677 7:13 8:0 #
-5.9225607293042485237884739804337e-07 1:0 2:40 3:5 4:0 5:12209 6:41 7:13 8:0 #
5.9766325194098966026574719367925e-07 1:107 2:112 3:28 4:0 5:23599 6:66 7:8 8:0 #
5.9766325194098966026574719367925e-07 1:3 2:43 3:37 4:0 5:0 6:38 7:31 8:0 #
-5.9766325194098966026574719367925e-07 1:0 2:13 3:16 4:2433 5:9 6:1485 7:1203 8:3 #
-5.9766325194098966026574719367925e-07 1:0 2:0 3:1 4:0 5:0 6:0 7:4 8:0 #
-5.9766325194098966026574719367925e-07 1:0 2:0 3:0 4:0 5:0 6:0 7:0 8:0 #
-2.7415865633262370693046250380576e-08 1:0 2:49634 3:10 4:0 5:2 6:34 7:1 8:0 #
-5.9766325194098966026574719367925e-07 1:0 2:0 3:0 4:0 5:2 6:0 7:0 8:0 #
5.9766325194098966026574719367925e-07 1:0 2:75 3:15 4:0 5:0 6:52 7:10 8:0 #
-5.9766325194098966026574719367925e-07 1:0 2:13 3:6 4:674 5:0 6:0 7:2 8:0 #
-5.9766325194098966026574719367925e-07 1:0 2:23 3:5 4:0 5:5834 6:13 7:3 8:0 #
5.9766325194098966026574719367925e-07 1:0 2:0 3:3 4:0 5:0 6:0 7:0 8:0 #
-5.9766325194098966026574719367925e-07 1:12209 2:41 3:13 4:0 5:1 6:9 7:2 8:0 #
5.9766325194098966026574719367925e-07 1:5068 2:109 3:37 4:3 5:7395 6:70 7:33 8:1 #
-5.9766325194098966026574719367925e-07 1:1 2:1508 3:5 4:0 5:0 6:231 7:3 8:0 #
5.9766325194098966026574719367925e-07 1:23599 2:66 3:8 4:0 5:1 6:122 7:15 8:2 #
-5.9766325194098966026574719367925e-07 1:0 2:0 3:0 4:0 5:0 6:0 7:0 8:0 #
-3.3852163002741753000484053320873e-10 1:57 2:286 3:321 4:79 5:0 6:59 7:34 8:0 #
5.9766325194098966026574719367925e-07 1:3819 2:91 3:41 4:0 5:0 6:527 7:39 8:1 #
3.8544395730326717310949445269297e-07 1:194 2:1197 3:179 4:13989 5:836 6:84 7:15 8:0 #
-5.9766325194098966026574719367925e-07 1:169 2:63 3:78 4:0 5:35 6:49 7:68 8:0 #
5.9766325194098966026574719367925e-07 1:20 2:49 3:50 4:0 5:5455 6:41 7:35 8:0 #
5.9766325194098966026574719367925e-07 1:0 2:4839 3:0 4:0 5:0 6:70 7:0 8:0 #
5.9766325194098966026574719367925e-07 1:0 2:62 3:49 4:0 5:330 6:328 7:40 8:2 #
5.9766325194098966026574719367925e-07 1:0 2:14 3:0 4:0 5:0 6:28 7:0 8:0 #
-5.9766325194098966026574719367925e-07 1:1 2:23 3:2 4:0 5:11855 6:67 7:12 8:0 #
-5.9766325194098966026574719367925e-07 1:0 2:62 3:63 4:0 5:0 6:60 7:60 8:0 #
5.9766325194098966026574719367925e-07 1:0 2:83 3:62 4:0 5:0 6:90 7:65 8:0 #
-5.9766325194098966026574719367925e-07 1:1250 2:93 3:35 4:2615 5:0 6:74 7:30 8:0 #
5.9766325194098966026574719367925e-07 1:0 2:48 3:38 4:1 5:65 6:1084 7:1053 8:0 #
5.9766325194098966026574719367925e-07 1:0 2:43 3:73 4:4 5:21 6:88 7:71 8:2 #
5.9766325194098966026574719367925e-07 1:0 2:4369 3:43 4:0 5:3103 6:95 7:42 8:0 #
5.9766325194098966026574719367925e-07 1:3 2:48 3:71 4:0 5:6753 6:66 7:74 8:0 #
5.9766325194098966026574719367925e-07 1:0 2:5 3:0 4:0 5:0 6:39 7:0 8:0 #
5.9766325194098966026574719367925e-07 1:3070 2:103 3:39 4:0 5:187 6:95 7:30 8:0 #
5.9766325194098966026574719367925e-07 1:4 2:58 3:69 4:1 5:7114 6:67 7:72 8:0 #
5.9766325194098966026574719367925e-07 1:0 2:57 3:7 4:0 5:0 6:71 7:10 8:0 #
5.9766325194098966026574719367925e-07 1:3 2:77 3:15 4:0 5:0 6:68 7:10 8:0 #
5.9766325194098966026574719367925e-07 1:1 2:44 3:24 4:0 5:1 6:50 7:14 8:0 #
5.9766325194098966026574719367925e-07 1:0 2:49 3:20 4:0 5:1 6:38 7:4 8:0 #
5.9766325194098966026574719367925e-07 1:0 2:637 3:37 4:0 5:0 6:45 7:30 8:0 #
5.9766325194098966026574719367925e-07 1:1 2:48 3:13 4:0 5:0 6:47 7:4 8:0 #
-2.3599377515244495968718978131523e-07 1:0 2:101 3:22 4:0 5:194 6:1197 7:179 8:13989 #
5.9766325194098966026574719367925e-07 1:5232 2:53 3:70 4:0 5:0 6:52 7:76 8:0 #
5.9766325194098966026574719367925e-07 1:0 2:30 3:15 4:0 5:0 6:1740 7:1230 8:1 #
5.9766325194098966026574719367925e-07 1:1 2:43 3:14 4:0 5:0 6:54 7:23 8:1 #
-5.9766325194098966026574719367925e-07 1:11855 2:67 3:12 4:0 5:0 6:46 7:7 8:0 #
-4.0885828075657086477264065202397e-07 1:197 2:543 3:33 4:105 5:1 6:494 7:37 8:0 #
-5.9766325194098966026574719367925e-07 1:0 2:59 3:5 4:0 5:8 6:1379 7:2144 8:2 #
5.9766325194098966026574719367925e-07 1:0 2:1487 3:1227 4:1 5:2 6:115 7:60 8:0 #
5.9766325194098966026574719367925e-07 1:3 2:37 3:12 4:1 5:5925 6:56 7:8 8:0 #
-5.9546243765375406989826673198607e-07 1:0 2:26 3:3 4:0 5:0 6:14926 7:1 8:0 #
-5.9766325194098966026574719367925e-07 1:0 2:48 3:0 4:188 5:0 6:31 7:0 8:0 #
-5.9766325194098966026574719367925e-07 1:0 2:0 3:0 4:0 5:0 6:0 7:0 8:0 #
-5.9766325194098966026574719367925e-07 1:7 2:38 3:41 4:1405 5:57 6:286 7:321 8:79 #
5.9766325194098966026574719367925e-07 1:0 2:34 3:3 4:0 5:0 6:941 7:878 8:6 #
-5.9766325194098966026574719367925e-07 1:0 2:40 3:12 4:156 5:0 6:34 7:6 8:0 #
-5.9766325194098966026574719367925e-07 1:35 2:49 3:68 4:0 5:445 6:71 7:65 8:0 #
-5.9766325194098966026574719367925e-07 1:25 2:25 3:3 4:0 5:7338 6:81 7:14 8:3 #
-5.9766325194098966026574719367925e-07 1:194 2:116 3:18 4:191 5:3 6:61 7:7 8:0 #
-5.9766325194098966026574719367925e-07 1:6 2:4 3:3 4:0 5:5754 6:17 7:2 8:0 #
5.9766325194098966026574719367925e-07 1:629 2:32 3:10 4:0 5:94 6:42 7:13 8:0 #
-5.9766325194098966026574719367925e-07 1:88 2:46 3:7 4:368 5:3 6:34 7:11 8:23 #
5.9766325194098966026574719367925e-07 1:9 2:22 3:13 4:1288 5:7 6:38 7:41 8:1405 #
-5.9766325194098966026574719367925e-07 1:0 2:54 3:13 4:0 5:1 6:21 7:2 8:0 #
5.9766325194098966026574719367925e-07 1:30 2:3 3:4 4:0 5:0 6:1 7:107 8:0 #
-5.9766325194098966026574719367925e-07 1:0 2:44 3:3 4:55 5:2 6:38 7:8 8:0 #
-5.9766325194098966026574719367925e-07 1:88 2:23 3:8 4:394 5:2 6:53 7:17 8:104 #
-5.9766325194098966026574719367925e-07 1:1 2:24 3:4 4:184 5:0 6:44 7:3 8:55 #
-5.9766325194098966026574719367925e-07 1:0 2:55 3:8 4:0 5:7093 6:51 7:3 8:0 #
-5.9766325194098966026574719367925e-07 1:2 2:65 3:27 4:297 5:1 6:55 7:21 8:0 #
-5.9766325194098966026574719367925e-07 1:65 2:135 3:36 4:0 5:7159 6:270 7:34 8:0 #
5.9766325194098966026574719367925e-07 1:0 2:0 3:4 4:0 5:0 6:0 7:2 8:0 #
-5.9766325194098966026574719367925e-07 1:436 2:88 3:35 4:0 5:7219 6:112 7:40 8:0 #
-5.9766325194098966026574719367925e-07 1:0 2:54 3:23 4:1 5:2 6:65 7:27 8:297 #
-3.3535665486787614384330837545567e-07 1:23338 2:98 3:39 4:0 5:18 6:49 7:37 8:0 #
-5.9766325194098966026574719367925e-07 1:0 2:119 3:0 4:7 5:0 6:66 7:0 8:0 #
5.9766325194098966026574719367925e-07 1:0 2:51 3:30 4:0 5:79 6:1424 7:37 8:156 #
-5.9766325194098966026574719367925e-07 1:0 2:57 3:2 4:0 5:21 6:50 7:4 8:0 #
-5.9766325194098966026574719367925e-07 1:31 2:24 3:5 4:0 5:36 6:10 7:4 8:0 #
-5.9766325194098966026574719367925e-07 1:0 2:1110 3:1777 4:1 5:751 6:29 7:6 8:0 #
-5.9766325194098966026574719367925e-07 1:1 2:50 3:14 4:0 5:0 6:107 7:35 8:1 #
-5.9766325194098966026574719367925e-07 1:0 2:904 3:1206 4:0 5:20 6:1519 7:1475 8:0 #
5.9766325194098966026574719367925e-07 1:0 2:32 3:13 4:0 5:0 6:27 7:11 8:0 #
5.9766325194098966026574719367925e-07 1:0 2:1411 3:1222 4:0 5:0 6:0 7:3 8:0 #
-5.9766325194098966026574719367925e-07 1:23 2:70 3:37 4:0 5:169 6:108 7:43 8:0 #
-5.9766325194098966026574719367925e-07 1:0 2:14 3:5 4:0 5:0 6:39 7:16 8:0 #
-5.9766325194098966026574719367925e-07 1:0 2:0 3:0 4:0 5:0 6:0 7:0 8:0 #
5.9766325194098966026574719367925e-07 1:0 2:106 3:41 4:0 5:5068 6:109 7:37 8:3 #
-5.9766325194098966026574719367925e-07 1:1 2:99 3:42 4:0 5:8 6:78 7:45 8:0 #
5.9766325194098966026574719367925e-07 1:3 2:538 3:147 4:3 5:4 6:243 7:106 8:0 #
5.9766325194098966026574719367925e-07 1:65 2:1084 3:1053 4:0 5:56 6:236 7:176 8:7 #
5.9766325194098966026574719367925e-07 1:0 2:0 3:0 4:0 5:0 6:0 7:0 8:0 #
-5.9766325194098966026574719367925e-07 1:0 2:0 3:0 4:0 5:0 6:0 7:0 8:0 #
-5.9766325194098966026574719367925e-07 1:99 2:127 3:19 4:204 5:0 6:121 7:13 8:34 #
-5.9766325194098966026574719367925e-07 1:2 2:53 3:17 4:104 5:20 6:37 7:18 8:0 #
5.9766325194098966026574719367925e-07 1:0 2:1740 3:1230 4:1 5:1 6:10 7:3 8:2 #
5.9766325194098966026574719367925e-07 1:2452 2:75 3:77 4:94 5:1487 6:106 7:70 8:0 #
5.9766325194098966026574719367925e-07 1:143 2:0 3:2 4:3 5:22 6:584 7:606 8:594 #
-5.9766325194098966026574719367925e-07 1:0 2:1960 3:14 4:0 5:0 6:68 7:25 8:0 #
5.9766325194098966026574719367925e-07 1:0 2:186 3:1 4:0 5:0 6:139 7:0 8:0 #
-5.9766325194098966026574719367925e-07 1:0 2:41 3:10 4:1 5:0 6:40 7:20 8:0 #
5.9766325194098966026574719367925e-07 1:10 2:121 3:14 4:0 5:6 6:2061 7:367 8:11 #
-5.9766325194098966026574719367925e-07 1:79 2:1424 3:37 4:156 5:197 6:543 7:33 8:105 #
5.9766325194098966026574719367925e-07 1:0 2:527 3:39 4:1 5:23 6:2939 7:46 8:1 #
-5.9766325194098966026574719367925e-07 1:0 2:466 3:0 4:0 5:0 6:0 7:0 8:0 #
5.9766325194098966026574719367925e-07 1:0 2:30 3:34 4:0 5:0 6:13 7:16 8:2433 #
5.9766325194098966026574719367925e-07 1:1 2:62 3:18 4:0 5:2345 6:121 7:497 8:856 #
5.9766325194098966026574719367925e-07 1:148 2:246 3:60 4:18 5:70 6:196 7:54 8:18 #
-5.9766325194098966026574719367925e-07 1:13 2:901 3:1164 4:2 5:29 6:496 7:468 8:0 #
5.9766325194098966026574719367925e-07 1:25 2:331 3:146 4:8 5:9 6:22 7:13 8:1288 #
5.9766325194098966026574719367925e-07 1:0 2:264 3:37 4:0 5:2 6:719 7:38 8:0 #
5.9766325194098966026574719367925e-07 1:18 2:677 3:582 4:0 5:4 6:914 7:780 8:0 #
5.9766325194098966026574719367925e-07 1:0 2:91 3:38 4:0 5:3819 6:91 7:41 8:0 #
-9.6693128803093211167489213868353e-08 1:0 2:976 3:1198 4:5 5:14 6:154 7:216 8:0 #
5.9766325194098966026574719367925e-07 1:990 2:29 3:2 4:0 5:452 6:64 7:7 8:0 #
-5.9766325194098966026574719367925e-07 1:0 2:1550 3:0 4:0 5:0 6:811 7:0 8:3 #
5.9766325194098966026574719367925e-07 1:836 2:84 3:15 4:0 5:7 6:164 7:27 8:110 #
-5.9766325194098966026574719367925e-07 1:4 2:914 3:780 4:0 5:4 6:525 7:64 8:1 #
-5.9766325194098966026574719367925e-07 1:0 2:941 3:878 4:6 5:2 6:907 7:950 8:20 #
-5.9766325194098966026574719367925e-07 1:6 2:2061 3:367 4:11 5:0 6:2384 7:509 8:1 #
5.9766325194098966026574719367925e-07 1:0 2:125 3:134 4:0 5:12 6:1254 7:1035 8:2 #
-5.8123009380673338661582030470476e-07 1:23 2:2939 3:46 4:1 5:0 6:1115 7:113 8:2 #
5.9766325194098966026574719367925e-07 1:0 2:1 3:107 4:0 5:63 6:0 7:35 8:457 #
-5.9766325194098966026574719367925e-07 1:0 2:74 3:38 4:0 5:1 6:99 7:42 8:0 #
5.9766325194098966026574719367925e-07 1:452 2:64 3:7 4:0 5:390 6:39 7:8 8:8 #
5.9766325194098966026574719367925e-07 1:0 2:1424 3:0 4:0 5:0 6:1550 7:0 8:0 #
5.9766325194098966026574719367925e-07 1:5 2:123 3:42 4:190 5:15 6:149 7:38 8:0 #
5.9766325194098966026574719367925e-07 1:23 2:20 3:23 4:0 5:88 6:23 7:8 8:394 #
-5.9766325194098966026574719367925e-07 1:184 2:77 3:77 4:0 5:75 6:73 7:71 8:25 #
5.9766325194098966026574719367925e-07 1:2 2:719 3:38 4:0 5:46 6:254 7:44 8:51 #
5.9766325194098966026574719367925e-07 1:27 2:444 3:43 4:0 5:0 6:204 7:38 8:0 #
5.9766325194098966026574719367925e-07 1:0 2:0 3:3 4:0 5:417 6:388 7:9 8:5 #
5.9766325194098966026574719367925e-07 1:0 2:432 3:46 4:0 5:0 6:60 7:33 8:0 #
-5.9766325194098966026574719367925e-07 1:0 2:1604 3:0 4:0 5:0 6:35 7:0 8:0 #
5.9766325194098966026574719367925e-07 1:429 2:279 3:22 4:0 5:3 6:104 7:22 8:0 #
-5.9766325194098966026574719367925e-07 1:0 2:1694 3:40 4:0 5:0 6:81 7:37 8:0 #
5.9766325194098966026574719367925e-07 1:0 2:126 3:115 4:0 5:13 6:117 7:84 8:202 #
-5.9766325194098966026574719367925e-07 1:0 2:2907 3:0 4:0 5:0 6:777 7:0 8:0 #
-5.2865267319315196110397509637879e-07 1:0 2:2112 3:38 4:0 5:0 6:1694 7:40 8:0 #
5.9766325194098966026574719367925e-07 1:23 2:160 3:112 4:0 5:4 6:103 7:72 8:0 #
-5.9761358809657346358238912478744e-07 1:1 2:3504 3:69 4:0 5:0 6:58 7:65 8:0 #
-5.9766325194098966026574719367925e-07 1:2 2:907 3:950 4:20 5:19 6:0 7:1 8:0 #
-5.9766325194098966026574719367925e-07 1:0 2:6 3:119 4:0 5:0 6:1110 7:1777 8:1 #
-5.9766325194098966026574719367925e-07 1:0 2:0 3:0 4:0 5:0 6:0 7:0 8:0 #
-5.9766325194098966026574719367925e-07 1:0 2:3 3:0 4:0 5:0 6:260 7:0 8:0 #
-5.9766325194098966026574719367925e-07 1:0 2:77 3:67 4:0 5:0 6:79 7:63 8:0 #
-5.9766325194098966026574719367925e-07 1:0 2:0 3:0 4:0 5:0 6:0 7:0 8:0 #
-5.9766325194098966026574719367925e-07 1:3 2:0 3:1 4:0 5:161 6:4 7:0 8:0 #
-5.9766325194098966026574719367925e-07 1:0 2:0 3:0 4:0 5:0 6:75 7:0 8:0 #
5.9766325194098966026574719367925e-07 1:22 2:105 3:3 4:1 5:25 6:331 7:146 8:8 #
5.9766325194098966026574719367925e-07 1:0 2:69 3:106 4:3 5:0 6:126 7:115 8:0 #
5.9766325194098966026574719367925e-07 1:4 2:94 3:91 4:2 5:96 6:258 7:139 8:0 #
-5.9766325194098966026574719367925e-07 1:0 2:0 3:0 4:0 5:0 6:0 7:0 8:0 #
5.9766325194098966026574719367925e-07 1:423 2:52 3:68 4:0 5:2 6:133 7:69 8:0 #
-5.9766325194098966026574719367925e-07 1:0 2:0 3:0 4:0 5:0 6:0 7:0 8:0 #
-5.9766325194098966026574719367925e-07 1:0 2:52 3:0 4:0 5:0 6:44 7:64 8:0 #
-5.9766325194098966026574719367925e-07 1:0 2:0 3:0 4:0 5:0 6:0 7:0 8:0 #
5.9766325194098966026574719367925e-07 1:70 2:208 3:83 4:29 5:129 6:178 7:78 8:31 #
5.9766325194098966026574719367925e-07 1:0 2:205 3:59 4:0 5:0 6:419 7:71 8:0 #
-5.9766325194098966026574719367925e-07 1:0 2:0 3:0 4:0 5:0 6:0 7:0 8:0 #
5.9766325194098966026574719367925e-07 1:7 2:75 3:67 4:0 5:184 6:77 7:77 8:0 #
-5.9766325194098966026574719367925e-07 1:0 2:0 3:0 4:0 5:0 6:0 7:0 8:0 #
-5.9766325194098966026574719367925e-07 1:0 2:19 3:4 4:0 5:30 6:3 7:4 8:0 #
-5.9766325194098966026574719367925e-07 1:0 2:0 3:0 4:0 5:3 6:8 7:8 8:1 #
5.9766325194098966026574719367925e-07 1:21 2:56 3:15 4:1 5:88 6:46 7:7 8:368 #
5.9766325194098966026574719367925e-07 1:5 2:152 3:32 4:0 5:99 6:127 7:19 8:204 #
5.9766325194098966026574719367925e-07 1:0 2:225 3:42 4:0 5:0 6:561 7:34 8:0 #
-5.9766325194098966026574719367925e-07 1:0 2:0 3:0 4:0 5:0 6:0 7:0 8:0 #
5.9766325194098966026574719367925e-07 1:0 2:128 3:61 4:7 5:148 6:246 7:60 8:18 #
5.9766325194098966026574719367925e-07 1:70 2:196 3:54 4:18 5:70 6:208 7:83 8:29 #
-5.9766325194098966026574719367925e-07 1:0 2:0 3:0 4:0 5:0 6:0 7:0 8:0 #
5.9766325194098966026574719367925e-07 1:0 2:29 3:60 4:0 5:6 6:98 7:103 8:14 #
-5.9766325194098966026574719367925e-07 1:0 2:0 3:0 4:0 5:0 6:0 7:0 8:0 #
-5.9766325194098966026574719367925e-07 1:0 2:79 3:0 4:0 5:0 6:0 7:0 8:0 #
5.9766325194098966026574719367925e-07 1:0 2:52 3:76 4:0 5:32 6:32 7:62 8:1 #
-5.9766325194098966026574719367925e-07 1:1 2:652 3:48 4:0 5:0 6:0 7:0 8:0 #
-5.9766325194098966026574719367925e-07 1:0 2:28 3:0 4:0 5:0 6:234 7:0 8:0 #
5.9766325194098966026574719367925e-07 1:221 2:62 3:45 4:0 5:60 6:32 7:51 8:0 #
-5.9766325194098966026574719367925e-07 1:0 2:0 3:0 4:0 5:0 6:0 7:0 8:0 #
5.9766325194098966026574719367925e-07 1:0 2:92 3:69 4:0 5:4 6:91 7:67 8:0 #
5.9766325194098966026574719367925e-07 1:503 2:106 3:14 4:1 5:8 6:56 7:3 8:0 #
5.9766325194098966026574719367925e-07 1:144 2:140 3:40 4:0 5:0 6:128 7:61 8:7 #
-5.9766325194098966026574719367925e-07 1:0 2:0 3:0 4:0 5:0 6:0 7:0 8:0 #
5.9766325194098966026574719367925e-07 1:419 2:58 3:6 4:0 5:5 6:152 7:32 8:0 #
-5.9766325194098966026574719367925e-07 1:0 2:62 3:0 4:0 5:0 6:0 7:0 8:0 #
5.9766325194098966026574719367925e-07 1:0 2:49 3:80 4:0 5:0 6:62 7:49 8:0 #
5.9766325194098966026574719367925e-07 1:0 2:65 3:71 4:0 5:0 6:38 7:66 8:0 #
-5.9766325194098966026574719367925e-07 1:0 2:0 3:0 4:0 5:0 6:0 7:0 8:0 #
-5.9766325194098966026574719367925e-07 1:0 2:0 3:0 4:0 5:0 6:32 7:0 8:0 #
5.9766325194098966026574719367925e-07 1:1 2:53 3:70 4:0 5:0 6:78 7:60 8:1 #
-5.9766325194098966026574719367925e-07 1:0 2:0 3:0 4:0 5:0 6:0 7:0 8:0 #
5.9766325194098966026574719367925e-07 1:0 2:180 3:53 4:0 5:18 6:117 7:34 8:0 #
-5.9766325194098966026574719367925e-07 1:0 2:0 3:0 4:0 5:0 6:0 7:0 8:0 #
-5.9766325194098966026574719367925e-07 1:0 2:0 3:0 4:0 5:0 6:0 7:0 8:0 #
-5.9766325194098966026574719367925e-07 1:3 2:139 3:39 4:120 5:0 6:61 7:39 8:0 #
-5.9766325194098966026574719367925e-07 1:8 2:26 3:2 4:29 5:629 6:32 7:10 8:0 #
5.9766325194098966026574719367925e-07 1:7 2:24 3:20 4:66 5:1 6:24 7:4 8:184 #
5.9766325194098966026574719367925e-07 1:300 2:14 3:7 4:12 5:66 6:7 7:6 8:0 #
5.9766325194098966026574719367925e-07 1:91 2:135 3:43 4:0 5:144 6:140 7:40 8:0 #
-5.9766325194098966026574719367925e-07 1:0 2:0 3:0 4:0 5:0 6:0 7:0 8:0 #
-5.9766325194098966026574719367925e-07 1:0 2:57 3:0 4:0 5:0 6:0 7:0 8:0 #
5.9766325194098966026574719367925e-07 1:11 2:85 3:37 4:10 5:111 6:56 7:19 8:3 #
-5.9766325194098966026574719367925e-07 1:3 2:8 3:8 4:1 5:0 6:60 7:60 8:0 #
5.9766325194098966026574719367925e-07 1:3 2:175 3:39 4:0 5:6 6:129 7:26 8:0 #
5.9766325194098966026574719367925e-07 1:0 2:50 3:65 4:0 5:0 6:53 7:65 8:0 #
5.9766325194098966026574719367925e-07 1:390 2:39 3:8 4:8 5:8 6:45 7:2 8:41 #
-5.9766325194098966026574719367925e-07 1:2 2:11 3:5 4:28 5:1 6:20 7:9 8:0 #
-5.9766325194098966026574719367925e-07 1:0 2:0 3:0 4:0 5:0 6:0 7:0 8:0 #
5.9766325194098966026574719367925e-07 1:0 2:129 3:18 4:0 5:0 6:135 7:22 8:99 #
-5.9766325194098966026574719367925e-07 1:0 2:3 3:0 4:0 5:0 6:0 7:0 8:0 #
-5.9766325194098966026574719367925e-07 1:0 2:0 3:0 4:0 5:0 6:20 7:6 8:0 #
-5.9766325194098966026574719367925e-07 1:0 2:5 3:0 4:0 5:0 6:71 7:10 8:0 #
5.9766325194098966026574719367925e-07 1:13 2:117 3:84 4:202 5:0 6:56 7:66 8:1 #
-5.9766325194098966026574719367925e-07 1:0 2:135 3:22 4:99 5:0 6:102 7:17 8:51 #
5.9766325194098966026574719367925e-07 1:0 2:70 3:42 4:0 5:4 6:12 7:12 8:1 #
-5.9766325194098966026574719367925e-07 1:0 2:37 3:0 4:0 5:0 6:7021 7:0 8:0 #
-5.9766325194098966026574719367925e-07 1:0 2:102 3:17 4:51 5:0 6:120 7:20 8:0 #
-5.9766325194098966026574719367925e-07 1:0 2:41 3:31 4:0 5:0 6:49 7:80 8:0 #
5.9766325194098966026574719367925e-07 1:25 2:34 3:15 4:0 5:115 6:41 7:15 8:0 #
5.9766325194098966026574719367925e-07 1:1 2:39 3:19 4:0 5:94 6:49 7:15 8:0 #
-5.9766325194098966026574719367925e-07 1:46 2:254 3:44 4:51 5:134 6:111 7:52 8:1 #
-5.9766325194098966026574719367925e-07 1:2 2:75 3:3 4:30 5:410 6:61 7:11 8:3 #
5.9766325194098966026574719367925e-07 1:0 2:69 3:59 4:0 5:5 6:59 7:44 8:0 #
5.9766325194098966026574719367925e-07 1:8 2:28 3:27 4:0 5:10 6:121 7:14 8:0 #
-5.9766325194098966026574719367925e-07 1:0 2:0 3:2 4:0 5:0 6:0 7:1 8:0 #
5.9766325194098966026574719367925e-07 1:79 2:93 3:11 4:0 5:67 6:61 7:9 8:0 #
5.9766325194098966026574719367925e-07 1:0 2:86 3:15 4:0 5:21 6:204 7:27 8:4 #
-5.9766325194098966026574719367925e-07 1:1 2:5 3:0 4:0 5:0 6:0 7:0 8:0 #
-5.9766325194098966026574719367925e-07 1:0 2:44 3:62 4:0 5:0 6:77 7:78 8:0 #
-5.9766325194098966026574719367925e-07 1:0 2:46 3:9 4:0 5:0 6:63 7:46 8:0 #
5.9766325194098966026574719367925e-07 1:170 2:112 3:21 4:2 5:0 6:37 7:10 8:0 #
5.9766325194098966026574719367925e-07 1:165 2:74 3:17 4:0 5:17 6:91 7:20 8:0 #
5.9766325194098966026574719367925e-07 1:87 2:95 3:13 4:0 5:20 6:87 7:25 8:0 #
5.9766325194098966026574719367925e-07 1:94 2:46 3:35 4:0 5:0 6:51 7:30 8:0 #
5.9766325194098966026574719367925e-07 1:0 2:58 3:65 4:0 5:1 6:53 7:70 8:0 #
5.9766325194098966026574719367925e-07 1:0 2:121 3:13 4:34 5:0 6:129 7:18 8:0 #
5.9766325194098966026574719367925e-07 1:0 2:101 3:0 4:0 5:0 6:125 7:0 8:4 #
5.9766325194098966026574719367925e-07 1:29 2:93 3:40 4:0 5:0 6:102 7:47 8:0 #
5.9766325194098966026574719367925e-07 1:1 2:41 3:7 4:0 5:70 6:5 7:9 8:0 #
-5.9766325194098966026574719367925e-07 1:834 2:28 3:9 4:0 5:0 6:41 7:4 8:0 #
5.9766325194098966026574719367925e-07 1:0 2:56 3:66 4:1 5:0 6:43 7:73 8:4 #
5.9766325194098966026574719367925e-07 1:0 2:44 3:66 4:53 5:0 6:57 7:76 8:0 #
-5.9766325194098966026574719367925e-07 1:0 2:0 3:0 4:0 5:0 6:3 7:0 8:0 #
5.9766325194098966026574719367925e-07 1:0 2:60 3:61 4:0 5:0 6:62 7:62 8:0 #
-5.9766325194098966026574719367925e-07 1:0 2:34 3:0 4:0 5:0 6:7051 7:0 8:0 #
-5.9766325194098966026574719367925e-07 1:0 2:28 3:0 4:0 5:0 6:48 7:0 8:188 #
5.9766325194098966026574719367925e-07 1:0 2:31 3:61 4:0 5:0 6:29 7:60 8:0 #
5.9766325194098966026574719367925e-07 1:0 2:37 3:48 4:1 5:17 6:78 7:76 8:0 #
-5.9766325194098966026574719367925e-07 1:0 2:0 3:0 4:0 5:0 6:3 7:0 8:0 #
5.9766325194098966026574719367925e-07 1:1 2:139 3:47 4:0 5:0 6:70 7:42 8:0 #
-5.9766325194098966026574719367925e-07 1:0 2:82 3:0 4:0 5:0 6:7188 7:0 8:0 #
-5.9766325194098966026574719367925e-07 1:0 2:7 3:0 4:0 5:0 6:0 7:0 8:0 #
5.9766325194098966026574719367925e-07 1:0 2:30 3:48 4:2 5:2 6:57 7:83 8:0 #
5.9766325194098966026574719367925e-07 1:8 2:83 3:38 4:0 5:0 6:100 7:39 8:0 #
-5.9766325194098966026574719367925e-07 1:18 2:3 3:2 4:0 5:3 6:0 7:1 8:0 #
-5.9766325194098966026574719367925e-07 1:19 2:0 3:1 4:0 5:0 6:5 7:1 8:0 #
-5.9766325194098966026574719367925e-07 1:0 2:52 3:0 4:0 5:0 6:0 7:0 8:0 #
5.9766325194098966026574719367925e-07 1:33 2:26 3:35 4:0 5:16 6:52 7:40 8:0 #
-1.2768235807096719276396146192099e-07 1:0 2:9 3:0 4:0 5:0 6:0 7:0 8:0 #
5.9766325194098966026574719367925e-07 1:0 2:81 3:37 4:0 5:0 6:91 7:34 8:0 #
5.9766325194098966026574719367925e-07 1:55 2:103 3:31 4:0 5:2 6:54 7:8 8:0 #
-5.9765762261493154250792739223819e-07 1:0 2:102 3:0 4:0 5:0 6:7087 7:0 8:0 #
-5.9766325194098966026574719367925e-07 1:2 2:0 3:0 4:0 5:1 6:555 7:16 8:0 #
-5.9766325194098966026574719367925e-07 1:0 2:0 3:0 4:0 5:0 6:9 7:2 8:0 #
5.9766325194098966026574719367925e-07 1:0 2:100 3:30 4:0 5:0 6:101 7:22 8:0 #
5.9766325194098966026574719367925e-07 1:3 2:109 3:32 4:0 5:0 6:106 7:41 8:0 #
-1.7071443289098988876982369855551e-07 1:0 2:860 3:0 4:0 5:0 6:1424 7:0 8:0 #
-1.3318510221922124283776452113859e-07 1:0 2:34 3:13 4:0 5:24 6:1890 7:1855 8:0 #
-5.9766325194098966026574719367925e-07 1:0 2:10 3:0 4:0 5:0 6:0 7:0 8:0 #
5.9766325194098966026574719367925e-07 1:0 2:35 3:9 4:0 5:0 6:125 7:134 8:0 #
-5.9766325194098966026574719367925e-07 1:416 2:56 3:33 4:0 5:212 6:64 7:38 8:0 #
5.9766325194098966026574719367925e-07 1:37 2:36 3:6 4:0 5:8 6:36 7:25 8:0 #
-5.9766325194098966026574719367925e-07 1:0 2:0 3:0 4:0 5:0 6:9 7:0 8:0 #
-5.9766325194098966026574719367925e-07 1:6 2:1699 3:1184 4:126 5:31 6:218 7:21 8:0 #
-5.9766325194098966026574719367925e-07 1:0 2:7110 3:0 4:0 5:0 6:41 7:0 8:0 #
-5.9665323250091401358530425469429e-07 1:0 2:0 3:0 4:0 5:0 6:281 7:0 8:0 #
-5.9559089482990198577948021824158e-07 1:0 2:114 3:0 4:0 5:0 6:7143 7:0 8:0 #
5.9766325194098966026574719367925e-07 1:0 2:7 3:1 4:0 5:0 6:6 7:119 8:0 #
5.9766325194098966026574719367925e-07 1:0 2:45 3:33 4:0 5:14 6:62 7:39 8:1 #
-9.4100028800448713849954439792517e-08 1:0 2:20 3:2 4:0 5:5293 6:21 7:3 8:0 #
-5.9766325194098966026574719367925e-07 1:0 2:4 3:0 4:0 5:0 6:6 7:0 8:0 #
-5.7100471521531158822399009463572e-08 1:0 2:18 3:0 4:0 5:6112 6:87 7:5 8:0 #
5.9766325194098966026574719367925e-07 1:7 2:164 3:27 4:110 5:11 6:85 7:37 8:10 #
-5.9766325194098966026574719367925e-07 1:0 2:11 3:0 4:0 5:0 6:0 7:0 8:0 #
5.9766325194098966026574719367925e-07 1:63 2:0 3:35 4:457 5:143 6:0 7:2 8:3 #
5.9766325194098966026574719367925e-07 1:0 2:44 3:34 4:0 5:0 6:62 7:38 8:0 #
-5.9766325194098966026574719367925e-07 1:0 2:0 3:0 4:0 5:0 6:11 7:0 8:0 #
-5.9766325194098966026574719367925e-07 1:0 2:7087 3:0 4:0 5:0 6:64 7:0 8:0 #
-5.9766325194098966026574719367925e-07 1:0 2:7188 3:0 4:0 5:0 6:144 7:0 8:0 #
5.9766325194098966026574719367925e-07 1:2 2:57 3:33 4:0 5:0 6:51 7:35 8:0 #
5.9766325194098966026574719367925e-07 1:0 2:120 3:20 4:0 5:1 6:62 7:18 8:0 #
-5.9766325194098966026574719367925e-07 1:0 2:13 3:0 4:0 5:0 6:0 7:0 8:0 #
5.9766325194098966026574719367925e-07 1:0 2:31 3:33 4:0 5:0 6:30 7:34 8:0 #
5.9766325194098966026574719367925e-07 1:33 2:100 3:15 4:1 5:0 6:80 7:19 8:0 #
-5.9766325194098966026574719367925e-07 1:0 2:15 3:0 4:0 5:0 6:0 7:0 8:0 #
5.9766325194098966026574719367925e-07 1:0 2:79 3:21 4:0 5:13 6:56 7:26 8:0 #
5.9766325194098966026574719367925e-07 1:2 2:41 3:22 4:0 5:0 6:39 7:15 8:0 #
-5.9766325194098966026574719367925e-07 1:0 2:17 3:0 4:0 5:0 6:0 7:0 8:0 #
-5.9766325194098966026574719367925e-07 1:0 2:0 3:0 4:0 5:0 6:11 7:0 8:0 #
5.9766325194098966026574719367925e-07 1:2 2:75 3:23 4:0 5:1 6:52 7:13 8:0 #
5.9766325194098966026574719367925e-07 1:0 2:44 3:9 4:0 5:60 6:75 7:31 8:0 #
-5.9766325194098966026574719367925e-07 1:0 2:7143 3:0 4:0 5:0 6:115 7:0 8:0 #
-5.9766325194098966026574719367925e-07 1:0 2:0 3:0 4:0 5:0 6:12 7:0 8:0 #
5.9766325194098966026574719367925e-07 1:4 2:37 3:13 4:0 5:3 6:69 7:31 8:2 #
-5.9766325194098966026574719367925e-07 1:0 2:0 3:0 4:0 5:0 6:15 7:0 8:0 #
5.9766325194098966026574719367925e-07 1:126 2:38 3:9 4:0 5:0 6:14 7:4 8:0 #
5.9766325194098966026574719367925e-07 1:1 2:10 3:3 4:2 5:7 6:24 7:20 8:66 #
-5.9766325194098966026574719367925e-07 1:0 2:0 3:0 4:0 5:0 6:19 7:0 8:0 #
-5.9766325194098966026574719367925e-07 1:7338 2:81 3:14 4:3 5:32 6:43 7:5 8:0 #
5.9766325194098966026574719367925e-07 1:0 2:41 3:17 4:0 5:23 6:20 7:23 8:0 #
-5.9766325194098966026574719367925e-07 1:0 2:1 3:0 4:0 5:0 6:12 7:2 8:0 #
5.9766325194098966026574719367925e-07 1:8 2:32 3:16 4:0 5:5 6:34 7:11 8:0 #
-5.9766325194098966026574719367925e-07 1:0 2:24 3:0 4:0 5:0 6:0 7:0 8:0 #
5.9766325194098966026574719367925e-07 1:0 2:41 3:14 4:1 5:0 6:56 7:14 8:0 #
5.9766325194098966026574719367925e-07 1:0 2:44 3:13 4:0 5:21 6:56 7:15 8:1 #
5.9766325194098966026574719367925e-07 1:0 2:53 3:14 4:0 5:0 6:54 7:10 8:0 #
-5.9766325194098966026574719367925e-07 1:0 2:27 3:0 4:0 5:0 6:0 7:0 8:0 #
5.9766325194098966026574719367925e-07 1:0 2:44 3:12 4:0 5:0 6:86 7:15 8:0 #
-5.9766325194098966026574719367925e-07 1:1 2:36 3:11 4:0 5:0 6:68 7:9 8:0 #
5.9766325194098966026574719367925e-07 1:1 2:28 3:6 4:0 5:0 6:34 7:3 8:0 #
-5.9766325194098966026574719367925e-07 1:0 2:29 3:0 4:0 5:0 6:0 7:0 8:0 #
-5.9766325194098966026574719367925e-07 1:0 2:0 3:0 4:0 5:0 6:18 7:1 8:0 #
-5.2839137554493594029771889181157e-07 1:2 2:40 3:2 4:0 5:7056 6:55 7:11 8:0 #
5.9766325194098966026574719367925e-07 1:0 2:48 3:13 4:0 5:0 6:54 7:12 8:0 #
-5.9766325194098966026574719367925e-07 1:0 2:7110 3:0 4:0 5:0 6:119 7:0 8:7 #
5.9766325194098966026574719367925e-07 1:0 2:0 3:0 4:0 5:22 6:105 7:3 8:1 #
5.9766325194098966026574719367925e-07 1:0 2:30 3:9 4:0 5:27 6:28 7:16 8:2 #
-5.9766325194098966026574719367925e-07 1:0 2:16 3:0 4:0 5:0 6:7 7:0 8:0 #
5.9766325194098966026574719367925e-07 1:0 2:65 3:11 4:0 5:0 6:65 7:1 8:0 #
-5.9766325194098966026574719367925e-07 1:0 2:29 3:0 4:0 5:0 6:0 7:0 8:0 #
-5.9766325194098966026574719367925e-07 1:0 2:13 3:0 4:0 5:0 6:10 7:0 8:0 #
-5.9766325194098966026574719367925e-07 1:0 2:0 3:0 4:0 5:0 6:19 7:2 8:0 #
5.9766325194098966026574719367925e-07 1:0 2:61 3:12 4:0 5:1 6:43 7:14 8:0 #
5.9766325194098966026574719367925e-07 1:1 2:84 3:12 4:0 5:0 6:21 7:4 8:0 #
-5.9766325194098966026574719367925e-07 1:0 2:7021 3:0 4:0 5:0 6:165 7:0 8:0 #
5.9766325194098966026574719367925e-07 1:0 2:58 3:11 4:0 5:0 6:44 7:13 8:0 #
-5.9766325194098966026574719367925e-07 1:0 2:33 3:0 4:0 5:0 6:0 7:0 8:0 #
-5.9766325194098966026574719367925e-07 1:0 2:25 3:2 4:0 5:0 6:0 7:0 8:0 #
5.9766325194098966026574719367925e-07 1:0 2:81 3:0 4:0 5:0 6:109 7:0 8:0 #
-5.9766325194098966026574719367925e-07 1:0 2:34 3:0 4:1 5:0 6:5 7:0 8:0 #
5.9766325194098966026574719367925e-07 1:0 2:34 3:11 4:0 5:0 6:59 7:5 8:0 #
5.9766325194098966026574719367925e-07 1:0 2:80 3:0 4:0 5:0 6:101 7:0 8:0 #
-5.9766325194098966026574719367925e-07 1:0 2:27 3:2 4:0 5:0 6:0 7:0 8:0 #
5.9766325194098966026574719367925e-07 1:0 2:40 3:10 4:0 5:1 6:65 7:10 8:0 #
5.9766325194098966026574719367925e-07 1:1 2:37 3:12 4:0 5:0 6:38 7:13 8:0 #
-5.9766325194098966026574719367925e-07 1:1 2:5 3:1 4:0 5:1 6:9 7:3 8:0 #
-2.0060473205835648969030645186185e-07 1:0 2:2 3:1 4:0 5:18 6:3 7:2 8:0 #
5.9766325194098966026574719367925e-07 1:0 2:80 3:0 4:6 5:0 6:97 7:0 8:3 #
5.9766325194098966026574719367925e-07 1:0 2:126 3:0 4:0 5:0 6:70 7:0 8:0 #
5.9766325194098966026574719367925e-07 1:8 2:25 3:8 4:0 5:25 6:25 7:3 8:0 #
-5.9766325194098966026574719367925e-07 1:0 2:0 3:0 4:0 5:0 6:25 7:0 8:0 #
-5.9766325194098966026574719367925e-07 1:0 2:15 3:0 4:0 5:0 6:12 7:0 8:0 #
-5.1722208328458936636457411034629e-07 1:0 2:0 3:0 4:0 5:0 6:1307 7:1208 8:0 #
5.9766325194098966026574719367925e-07 1:0 2:38 3:13 4:0 5:0 6:29 7:3 8:0 #
-8.6637088428158861119049959087501e-08 1:0 2:6963 3:52 4:19 5:0 6:74 7:33 8:0 #
-5.9766325194098966026574719367925e-07 1:0 2:42 3:0 4:3 5:0 6:49 7:0 8:0 #
-5.9766325194098966026574719367925e-07 1:0 2:58 3:0 4:3 5:0 6:15 7:0 8:0 #
5.9766325194098966026574719367925e-07 1:0 2:13 3:4 4:0 5:6 6:27 7:27 8:0 #
5.9766325194098966026574719367925e-07 1:12 2:34 3:4 4:56 5:0 6:45 7:33 8:0 #
5.9766325194098966026574719367925e-07 1:0 2:11 3:0 4:0 5:2 6:36 7:25 8:0 #
5.9766325194098966026574719367925e-07 1:1 2:19 3:7 4:0 5:0 6:48 7:18 8:0 #
-5.9766325194098966026574719367925e-07 1:0 2:42 3:0 4:0 5:0 6:3 7:0 8:0 #
5.9766325194098966026574719367925e-07 1:1 2:15 3:1 4:0 5:0 6:71 7:18 8:0 #
-5.9766325194098966026574719367925e-07 1:0 2:15 3:0 4:0 5:0 6:13 7:0 8:0 #
-5.9766325194098966026574719367925e-07 1:0 2:130 3:0 4:0 5:0 6:2 7:0 8:0 #
-5.9766325194098966026574719367925e-07 1:0 2:10 3:0 4:0 5:0 6:17 7:0 8:0 #
-5.9766325194098966026574719367925e-07 1:0 2:41 3:0 4:0 5:0 6:4 7:0 8:0 #
5.9766325194098966026574719367925e-07 1:0 2:41 3:2 4:0 5:0 6:46 7:19 8:0 #
5.9766325194098966026574719367925e-07 1:0 2:21 3:7 4:0 5:0 6:30 7:15 8:0 #
-5.9766325194098966026574719367925e-07 1:0 2:6 3:0 4:0 5:0 6:40 7:0 8:0 #
5.9766325194098966026574719367925e-07 1:0 2:37 3:7 4:0 5:0 6:18 7:14 8:0 #
-5.9766325194098966026574719367925e-07 1:0 2:28 3:0 4:0 5:0 6:10 7:0 8:0 #
5.9766325194098966026574719367925e-07 1:1 2:20 3:9 4:0 5:3 6:43 7:13 8:0 #
-2.3305666908179689710348125863959e-07 1:0 2:49 3:9 4:0 5:0 6:0 7:0 8:0 #
-5.9766325194098966026574719367925e-07 1:0 2:12 3:0 4:0 5:0 6:860 7:0 8:0 #
5.9766325194098966026574719367925e-07 1:1 2:21 3:6 4:0 5:1 6:17 7:14 8:0 #
-5.9766325194098966026574719367925e-07 1:0 2:38 3:2 4:0 5:0 6:1 7:0 8:0 #
-5.9766325194098966026574719367925e-07 1:0 2:140 3:0 4:0 5:0 6:1604 7:0 8:0 #
5.9766325194098966026574719367925e-07 1:6 2:12 3:6 4:0 5:4 6:37 7:13 8:0 #
-5.9766325194098966026574719367925e-07 1:2345 2:121 3:497 4:856 5:1250 6:93 7:35 8:2615 #
-5.9766325194098966026574719367925e-07 1:0 2:12 3:0 4:0 5:0 6:466 7:0 8:0 #
-5.0710622042412452955672391707864e-07 1:0 2:56 3:0 4:3 5:0 6:463 7:0 8:1 #
5.9766325194098966026574719367925e-07 1:0 2:13 3:8 4:0 5:2 6:33 7:10 8:0 #
5.9766325194098966026574719367925e-07 1:0 2:42 3:6 4:0 5:1 6:48 7:10 8:0 #
-5.9766325194098966026574719367925e-07 1:0 2:2 3:0 4:0 5:0 6:139 7:0 8:0 #
5.9766325194098966026574719367925e-07 1:0 2:23 3:7 4:0 5:0 6:38 7:10 8:0 #
-5.9766325194098966026574719367925e-07 1:0 2:35 3:0 4:0 5:1 6:5 7:0 8:0 #
5.9766325194098966026574719367925e-07 1:5 2:20 3:7 4:0 5:6 6:28 7:9 8:0 #
-5.9766325194098966026574719367925e-07 1:0 2:25 3:0 4:0 5:0 6:12 7:0 8:0 #
5.9766325194098966026574719367925e-07 1:3 2:61 3:7 4:0 5:3 6:59 7:5 8:0 #
5.9766325194098966026574719367925e-07 1:0 2:45 3:7 4:4 5:0 6:30 7:9 8:0 #
-5.9766325194098966026574719367925e-07 1:0 2:9 3:0 4:0 5:0 6:28 7:0 8:0 #
-5.9766325194098966026574719367925e-07 1:0 2:15 3:0 4:0 5:0 6:17 7:0 8:0 #
5.9766325194098966026574719367925e-07 1:1 2:5 3:4 4:0 5:0 6:11 7:9 8:0 #
-5.9766325194098966026574719367925e-07 1:0 2:17 3:0 4:0 5:0 6:15 7:0 8:0 #
5.9766325194098966026574719367925e-07 1:0 2:26 3:3 4:0 5:0 6:25 7:8 8:0 #
-5.9766325194098966026574719367925e-07 1:0 2:15 3:0 4:0 5:0 6:26 7:0 8:0 #
5.9766325194098966026574719367925e-07 1:0 2:0 3:2 4:0 5:0 6:53 7:8 8:2 #
5.9766325194098966026574719367925e-07 1:4 2:47 3:5 4:0 5:0 6:28 7:5 8:0 #
5.9766325194098966026574719367925e-07 1:0 2:84 3:0 4:3 5:0 6:80 7:0 8:6 #
-6.4806448771463091629079986133455e-08 1:0 2:0 3:1 4:0 5:30 6:19 7:0 8:0 #
-5.9766325194098966026574719367925e-07 1:0 2:38 3:0 4:0 5:0 6:9 7:0 8:0 #
5.9766325194098966026574719367925e-07 1:0 2:53 3:0 4:0 5:0 6:84 7:0 8:3 #
5.9766325194098966026574719367925e-07 1:0 2:28 3:5 4:0 5:10 6:27 7:5 8:0 #
-5.9766325194098966026574719367925e-07 1:0 2:17 3:0 4:0 5:0 6:26 7:0 8:0 #
-5.9766325194098966026574719367925e-07 1:1 2:9 3:3 4:0 5:9 6:4 7:0 8:0 #
-5.9766325194098966026574719367925e-07 1:0 2:23 3:0 4:0 5:0 6:27 7:0 8:0 #
5.9766325194098966026574719367925e-07 1:2 2:20 3:9 4:0 5:0 6:10 7:4 8:0 #
-5.9766325194098966026574719367925e-07 1:0 2:39 3:0 4:0 5:0 6:18 7:0 8:0 #
5.9766325194098966026574719367925e-07 1:0 2:109 3:0 4:0 5:0 6:56 7:0 8:3 #
5.9766325194098966026574719367925e-07 1:0 2:16 3:8 4:0 5:0 6:21 7:1 8:0 #
-5.9766325194098966026574719367925e-07 1:0 2:6 3:0 4:0 5:0 6:46 7:0 8:1 #
5.9766325194098966026574719367925e-07 1:0 2:97 3:0 4:3 5:0 6:61 7:0 8:4 #
-5.9766325194098966026574719367925e-07 1:0 2:3 3:0 4:0 5:0 6:82 7:0 8:0 #
-5.9766325194098966026574719367925e-07 1:0 2:5 3:1 4:0 5:3 6:15 7:1 8:0 #
5.9766325194098966026574719367925e-07 1:0 2:46 3:0 4:1 5:0 6:76 7:0 8:0 #
-5.9766325194098966026574719367925e-07 1:0 2:70 3:0 4:0 5:0 6:490 7:0 8:0 #
-5.9766325194098966026574719367925e-07 1:22 2:584 3:606 4:594 5:470 6:522 7:363 8:27 #
-5.9766325194098966026574719367925e-07 1:0 2:88 3:0 4:0 5:0 6:11 7:0 8:0 #
5.9766325194098966026574719367925e-07 1:8 2:45 3:2 4:41 5:2 6:75 7:3 8:30 #
-5.9766325194098966026574719367925e-07 1:0 2:12 3:0 4:0 5:0 6:42 7:0 8:0 #
5.9766325194098966026574719367925e-07 1:0 2:94 3:0 4:9 5:0 6:53 7:0 8:0 #
-2.4234963091029193939587860207041e-07 1:0 2:29 3:0 4:0 5:0 6:29 7:0 8:0 #
