SVM-light Version V6.02
0 # kernel type
3 # kernel parameter -d 
1 # kernel parameter -g 
1 # kernel parameter -s 
1 # kernel parameter -r 
empty# kernel parameter -u 
16 # highest feature index 
1908 # number of training documents 
443 # number of support vectors plus 1 
1.0075463 # threshold b, each following line is a SV (starting with alpha*y)
-1.9666858445197021492983240672364e-07 1:0 2:0 3:0 4:0 5:0 6:30 7:0 8:0 9:0 10:69 11:0 12:0 13:0 14:63 15:0 16:0 #
1.9666858445197021492983240672364e-07 1:0 2:31 3:0 4:0 5:0 6:52 7:0 8:0 9:0 10:52 11:0 12:0 13:0 14:6 15:0 16:0 #
-1.9666858445197021492983240672364e-07 1:0 2:0 3:0 4:0 5:0 6:0 7:0 8:0 9:0 10:0 11:0 12:0 13:0 14:0 15:0 16:0 #
1.9666858445197021492983240672364e-07 1:0 2:26 3:3 4:0 5:0 6:14926 7:1 8:0 9:0 10:50540 11:4 12:0 13:0 14:41677 15:13 16:0 #
-1.9666858445197021492983240672364e-07 1:0 2:0 3:0 4:0 5:0 6:0 7:0 8:0 9:0 10:0 11:0 12:0 13:0 14:0 15:0 16:0 #
1.9666858445197021492983240672364e-07 1:0 2:4839 3:0 4:0 5:0 6:70 7:0 8:0 9:0 10:94 11:0 12:9 13:0 14:53 15:0 16:0 #
1.9666858445197021492983240672364e-07 1:0 2:2384 3:509 4:1 5:0 6:2399 7:358 8:0 9:0 10:0 11:3 12:0 13:0 14:0 15:0 16:0 #
1.9666858445197021492983240672364e-07 1:0 2:2907 3:0 4:0 5:0 6:777 7:0 8:0 9:0 10:81 11:0 12:0 13:0 14:109 15:0 16:0 #
-1.9666858445197021492983240672364e-07 1:2 2:33 3:3 4:0 5:0 6:34 7:11 8:0 9:0 10:59 11:5 12:0 13:8 14:1379 15:2144 16:2 #
-1.6398209025107758675669951398124e-07 1:0 2:106 3:11 4:0 5:5972 6:46 7:8 8:0 9:7063 10:21 11:21 12:0 13:0 14:58 15:10 16:0 #
-1.2853772366839058549636831685348e-07 1:0 2:34 3:0 4:0 5:0 6:7051 7:0 8:0 9:0 10:220 11:0 12:0 13:0 14:31 15:0 16:0 #
-1.7320989720293056279842858202755e-07 1:0 2:45 3:0 4:0 5:0 6:37 7:0 8:0 9:0 10:7021 11:0 12:0 13:0 14:165 15:0 16:0 #
-1.9666858445197021492983240672364e-07 1:0 2:1593 3:1255 4:3 5:12 6:0 7:2 8:0 9:31 10:24 11:5 12:0 13:36 14:10 15:4 16:0 #
1.9666858445197021492983240672364e-07 1:7063 2:65 3:77 4:0 5:72 6:81 7:71 8:0 9:0 10:58 11:65 12:0 13:1 14:53 15:70 16:0 #
1.9666858445197021492983240672364e-07 1:0 2:63 3:34 4:0 5:107 6:112 7:28 8:0 9:23599 10:66 11:8 12:0 13:1 14:122 15:15 16:2 #
1.9666858445197021492983240672364e-07 1:0 2:63 3:42 4:0 5:0 6:63 7:34 8:0 9:107 10:112 11:28 12:0 13:23599 14:66 15:8 16:0 #
-1.9418706214877588800415963987689e-07 1:1 2:9 3:2 4:0 5:2 6:85 7:11 8:0 9:1 10:23 11:2 12:0 13:11855 14:67 15:12 16:0 #
1.9666858445197021492983240672364e-07 1:0 2:126 3:115 4:0 5:13 6:117 7:84 8:202 9:0 10:56 11:66 12:1 13:0 14:43 15:73 16:4 #
1.9666858445197021492983240672364e-07 1:421 2:281 3:40 4:0 5:0 6:166 7:42 8:0 9:91 10:135 11:43 12:0 13:144 14:140 15:40 16:0 #
-1.9178682699674975243743350362957e-07 1:0 2:67 3:39 4:0 5:41 6:879 7:39 8:0 9:23338 10:98 11:39 12:0 13:18 14:49 15:37 16:0 #
-1.7796673559407467016523505046188e-07 1:0 2:59 3:5 4:0 5:8 6:1379 7:2144 8:2 9:0 10:0 11:0 12:0 13:0 14:11 15:0 16:0 #
-1.9666858445197021492983240672364e-07 1:1863 2:84 3:73 4:5 5:8019 6:53 7:74 8:0 9:7213 10:61 11:71 12:0 13:255 14:44 15:76 16:0 #
-1.9666858445197021492983240672364e-07 1:0 2:102 3:0 4:0 5:0 6:7087 7:0 8:0 9:0 10:64 11:0 12:0 13:0 14:39 15:0 16:0 #
-1.9666858445197021492983240672364e-07 1:0 2:60 3:60 4:0 5:0 6:62 7:63 8:0 9:0 10:60 11:60 12:0 13:0 14:60 15:61 16:0 #
1.9666858445197021492983240672364e-07 1:0 2:982 3:71 4:0 5:0 6:918 7:76 8:0 9:0 10:205 11:59 12:0 13:0 14:419 15:71 16:0 #
-2.4039246159709463507040179831419e-09 1:0 2:31 3:9 4:0 5:0 6:39 7:15 8:0 9:0 10:34 11:13 12:0 13:24 14:1890 15:1855 16:0 #
-1.9666858445197021492983240672364e-07 1:0 2:11 3:0 4:0 5:2 6:36 7:25 8:0 9:0 10:13 11:6 12:674 13:0 14:0 15:2 16:0 #
1.9666858445197021492983240672364e-07 1:0 2:811 3:0 4:3 5:0 6:33 7:0 8:0 9:0 10:4839 11:0 12:0 13:0 14:70 15:0 16:0 #
1.9666858445197021492983240672364e-07 1:0 2:36 3:7 4:0 5:0 6:35 7:9 8:0 9:0 10:125 11:134 12:0 13:12 14:1254 15:1035 16:2 #
1.9666858445197021492983240672364e-07 1:0 2:35 3:9 4:0 5:0 6:1411 7:1222 8:0 9:0 10:0 11:3 12:0 13:417 14:388 15:9 16:5 #
1.9666858445197021492983240672364e-07 1:0 2:32 3:7 4:1 5:7063 6:33 7:9 8:0 9:0 10:37 11:7 12:0 13:0 14:18 15:14 16:0 #
1.9666858445197021492983240672364e-07 1:1306 2:80 3:81 4:0 5:5232 6:53 7:70 8:0 9:0 10:52 11:76 12:0 13:32 14:32 15:62 16:1 #
-1.9578230158534011221620435398705e-07 1:0 2:32 3:0 4:0 5:0 6:34 7:0 8:0 9:0 10:7051 11:0 12:0 13:0 14:220 15:0 16:0 #
1.9666858445197021492983240672364e-07 1:0 2:2112 3:38 4:0 5:0 6:1694 7:40 8:0 9:0 10:81 11:37 12:0 13:0 14:91 15:34 16:0 #
-1.9666858445197021492983240672364e-07 1:0 2:70 3:0 4:0 5:0 6:490 7:0 8:0 9:0 10:2907 11:0 12:0 13:0 14:777 15:0 16:0 #
-1.8399829375357414594426507491176e-07 1:24 2:1890 3:1855 4:0 5:8 6:294 7:1 8:0 9:3 10:14 11:3 12:0 13:1 14:46 15:13 16:0 #
1.9666858445197021492983240672364e-07 1:0 2:26 3:6 4:0 5:0 6:21 7:7 8:0 9:0 10:30 11:15 12:0 13:0 14:1740 15:1230 16:1 #
-1.9666858445197021492983240672364e-07 1:0 2:24 3:9 4:0 5:0 6:7 7:1 8:0 9:0 10:6 11:119 12:0 13:0 14:1110 15:1777 16:1 #
1.9666858445197021492983240672364e-07 1:8 2:1379 3:2144 4:2 5:0 6:0 7:0 8:0 9:0 10:11 11:0 12:0 13:2 14:36 15:25 16:0 #
1.9666858445197021492983240672364e-07 1:445 2:71 3:65 4:0 5:1306 6:80 7:81 8:0 9:5232 10:53 11:70 12:0 13:0 14:52 15:76 16:0 #
-1.9666858445197021492983240672364e-07 1:0 2:0 3:0 4:0 5:0 6:0 7:0 8:0 9:0 10:0 11:0 12:0 13:0 14:0 15:0 16:0 #
-1.9666858445197021492983240672364e-07 1:4 2:12 3:12 4:1 5:6 6:1699 7:1184 8:126 9:31 10:218 11:21 12:0 13:155 14:104 15:8 16:0 #
1.9666858445197021492983240672364e-07 1:0 2:91 3:38 4:0 5:3819 6:91 7:41 8:0 9:0 10:527 11:39 12:1 13:23 14:2939 15:46 16:1 #
-1.9666858445197021492983240672364e-07 1:0 2:52 3:10 4:0 5:0 6:38 7:8 8:0 9:1 10:138 11:12 12:0 13:0 14:208 15:11 16:0 #
1.9666858445197021492983240672364e-07 1:11855 2:67 3:12 4:0 5:0 6:46 7:7 8:0 9:1 10:84 11:12 12:0 13:0 14:21 15:4 16:0 #
-1.9666858445197021492983240672364e-07 1:0 2:0 3:0 4:0 5:0 6:0 7:0 8:0 9:0 10:0 11:0 12:0 13:0 14:32 15:0 16:0 #
1.9666858445197021492983240672364e-07 1:0 2:101 3:0 4:0 5:0 6:125 7:0 8:4 9:0 10:91 11:0 12:2 13:0 14:7110 15:0 16:0 #
-1.753671799550140825586092008237e-07 1:0 2:79 3:0 4:0 5:0 6:76 7:0 8:0 9:0 10:7110 11:0 12:0 13:0 14:41 15:0 16:0 #
-1.7602799376582016358319671134325e-07 1:9 2:50 3:11 4:0 5:425 6:56 7:11 8:0 9:489 10:41 11:7 12:0 13:513 14:42248 15:8 16:0 #
-1.741058439160074989203138336874e-07 1:434 2:103 3:56 4:0 5:7085 6:95 7:39 8:0 9:436 10:88 11:35 12:0 13:7219 14:112 15:40 16:0 #
1.9666858445197021492983240672364e-07 1:3 2:109 3:32 4:0 5:0 6:106 7:41 8:0 9:5068 10:109 11:37 12:3 13:7395 14:70 15:33 16:1 #
1.9666858445197021492983240672364e-07 1:15 2:89 3:43 4:1 5:0 6:63 7:44 8:0 9:0 10:4369 11:43 12:0 13:3103 14:95 15:42 16:0 #
-1.9666858445197021492983240672364e-07 1:0 2:51 3:30 4:0 5:79 6:1424 7:37 8:156 9:197 10:543 11:33 12:105 13:1 14:494 15:37 16:0 #
-7.9073459091536580953282048987718e-08 1:7114 2:67 3:72 4:0 5:2452 6:75 7:77 8:94 9:1487 10:106 11:70 12:0 13:0 14:69 15:106 16:3 #
-1.9666858445197021492983240672364e-07 1:3 2:139 3:39 4:120 5:0 6:61 7:39 8:0 9:0 10:47 11:45 12:0 13:7071 14:69 15:45 16:0 #
-1.9666858445197021492983240672364e-07 1:0 2:13 3:0 4:0 5:0 6:10 7:0 8:0 9:0 10:17 11:0 12:0 13:0 14:0 15:0 16:0 #
-1.9666858445197021492983240672364e-07 1:5147 2:88 3:44 4:0 5:22 6:85 7:36 8:0 9:5 10:104 11:59 12:0 13:17 14:89 15:36 16:0 #
1.9666858445197021492983240672364e-07 1:0 2:1740 3:1230 4:1 5:1 6:10 7:3 8:2 9:7 10:24 11:20 12:66 13:1 14:24 15:4 16:184 #
-1.9666858445197021492983240672364e-07 1:0 2:13 3:6 4:674 5:0 6:0 7:2 8:0 9:0 10:0 11:1 12:0 13:0 14:0 15:4 16:0 #
-1.966682859142350584024175330633e-07 1:0 2:76 3:0 4:0 5:0 6:7110 7:0 8:0 9:0 10:41 11:0 12:0 13:0 14:4 15:0 16:0 #
1.9666858445197021492983240672364e-07 1:0 2:21 3:7 4:0 5:0 6:30 7:15 8:0 9:0 10:1740 11:1230 12:1 13:1 14:10 15:3 16:2 #
1.9666858445197021492983240672364e-07 1:443 2:45 3:77 4:0 5:424 6:43 7:65 8:0 9:3 10:48 11:71 12:0 13:6753 14:66 15:74 16:0 #
1.6740984858382121039573899815706e-07 1:0 2:101 3:22 4:0 5:194 6:1197 7:179 8:13989 9:836 10:84 11:15 12:0 13:7 14:164 15:27 16:110 #
1.9666858445197021492983240672364e-07 1:3 2:48 3:71 4:0 5:6753 6:66 7:74 8:0 9:4 10:58 11:69 12:1 13:7114 14:67 15:72 16:0 #
1.9666858445197021492983240672364e-07 1:2 2:57 3:33 4:0 5:0 6:51 7:35 8:0 9:0 10:48 11:38 12:1 13:65 14:1084 15:1053 16:0 #
1.3428763892577006109405708070975e-07 1:0 2:100 3:30 4:0 5:0 6:101 7:22 8:0 9:194 10:1197 11:179 12:13989 13:836 14:84 15:15 16:0 #
1.9666858445197021492983240672364e-07 1:7042 2:153 3:66 4:1 5:0 6:104 7:69 8:0 9:0 10:92 11:69 12:0 13:4 14:91 15:67 16:0 #
1.9666858445197021492983240672364e-07 1:0 2:30 3:15 4:0 5:0 6:1740 7:1230 8:1 9:1 10:10 11:3 12:2 13:7 14:24 15:20 16:66 #
1.9666858445197021492983240672364e-07 1:4 2:58 3:69 4:1 5:7114 6:67 7:72 8:0 9:2452 10:75 11:77 12:94 13:1487 14:106 15:70 16:0 #
1.9666858445197021492983240672364e-07 1:0 2:12 3:0 4:0 5:0 6:860 7:0 8:0 9:0 10:1424 11:0 12:0 13:0 14:1550 15:0 16:0 #
1.9666858445197021492983240672364e-07 1:0 2:54 3:35 4:0 5:0 6:91 7:38 8:0 9:3819 10:91 11:41 12:0 13:0 14:527 15:39 16:1 #
1.9666858445197021492983240672364e-07 1:13 2:133 3:44 4:1 5:397 6:156 7:43 8:0 9:3070 10:103 11:39 12:0 13:187 14:95 15:30 16:0 #
-1.9666858445197021492983240672364e-07 1:3819 2:91 3:41 4:0 5:0 6:527 7:39 8:1 9:23 10:2939 11:46 12:1 13:0 14:1115 15:113 16:2 #
-1.9666858445197021492983240672364e-07 1:194 2:116 3:18 4:191 5:3 6:61 7:7 8:0 9:3 10:59 11:5 12:0 13:1 14:64 15:3 16:3 #
-1.8931101723800786962282304004557e-07 1:0 2:1110 3:1777 4:1 5:751 6:29 7:6 8:0 9:6 10:257 11:29 12:0 13:0 14:29 15:3 16:0 #
1.9666858445197021492983240672364e-07 1:2452 2:75 3:77 4:94 5:1487 6:106 7:70 8:0 9:0 10:69 11:106 12:3 13:0 14:126 15:115 16:0 #
-1.9666858445197021492983240672364e-07 1:4834 2:40 3:8 4:0 5:10 6:23 7:3 8:0 9:6 10:31 11:6 12:0 13:0 14:21 15:5 16:0 #
1.9666858445197021492983240672364e-07 1:470 2:522 3:363 4:27 5:529 6:74 7:23 8:0 9:990 10:29 11:2 12:0 13:452 14:64 15:7 16:0 #
-1.9666858445197021492983240672364e-07 1:4448 2:52 3:12 4:0 5:30 6:82 7:22 8:0 9:354 10:52 11:9 12:0 13:272 14:95 15:27 16:0 #
1.9666858445197021492983240672364e-07 1:0 2:29 3:3 4:0 5:8 6:26 7:2 8:29 9:629 10:32 11:10 12:0 13:94 14:42 15:13 16:0 #
-1.9666858445197021492983240672364e-07 1:147 2:101 3:59 4:2 5:39 6:31 7:64 8:0 9:10 10:84 11:34 12:0 13:48 14:65 15:21 16:0 #
1.9666858445197021492983240672364e-07 1:1673 2:55 3:60 4:0 5:1773 6:54 7:70 8:0 9:7 10:75 11:67 12:0 13:184 14:77 15:77 16:0 #
-1.6021971625964324947855033087762e-07 1:0 2:41 3:8 4:0 5:0 6:18 7:0 8:0 9:6112 10:87 11:5 12:0 13:0 14:67 15:17 16:0 #
-1.9666858445197021492983240672364e-07 1:4825 2:70 3:17 4:0 5:68 6:72 7:6 8:0 9:22 10:33 11:5 12:0 13:10 14:66 15:23 16:0 #
1.9666858445197021492983240672364e-07 1:4 2:914 3:780 4:0 5:4 6:525 7:64 8:1 9:3 10:175 11:39 12:0 13:6 14:129 15:26 16:0 #
1.9666858445197021492983240672364e-07 1:834 2:28 3:9 4:0 5:0 6:41 7:4 8:0 9:0 10:53 11:14 12:0 13:0 14:54 15:10 16:0 #
1.9666858445197021492983240672364e-07 1:10 2:84 3:36 4:0 5:3 6:109 7:32 8:0 9:0 10:106 11:41 12:0 13:5068 14:109 15:37 16:3 #
1.9666858445197021492983240672364e-07 1:0 2:0 3:0 4:0 5:0 6:1307 7:1208 8:0 9:1 10:15 11:1 12:0 13:0 14:71 15:18 16:0 #
-1.9666858445197021492983240672364e-07 1:4688 2:45 3:16 4:3 5:37 6:25 7:7 8:0 9:1 10:39 11:6 12:0 13:0 14:26 15:3 16:0 #
1.9666858445197021492983240672364e-07 1:0 2:30 3:9 4:0 5:27 6:28 7:16 8:2 9:3 10:37 11:12 12:1 13:5925 14:56 15:8 16:0 #
1.9666858445197021492983240672364e-07 1:16 2:52 3:40 4:0 5:8 6:39 7:42 8:1 9:20 10:49 11:50 12:0 13:5455 14:41 15:35 16:0 #
-1.9666858445197021492983240672364e-07 1:0 2:125 3:0 4:4 5:0 6:91 7:0 8:2 9:0 10:7110 11:0 12:0 13:0 14:119 15:0 16:7 #
-1.9666858445197021492983240672364e-07 1:0 2:34 3:11 4:0 5:0 6:59 7:5 8:0 9:8 10:1379 11:2144 12:2 13:0 14:0 15:0 16:0 #
-8.458172963645825924603133347951e-08 1:0 2:73 3:34 4:0 5:0 6:100 7:30 8:0 9:0 10:101 11:22 12:0 13:194 14:1197 15:179 16:13989 #
-1.9666858445197021492983240672364e-07 1:0 2:30 3:34 4:0 5:0 6:13 7:16 8:2433 9:9 10:1485 11:1203 12:3 13:22 14:148 15:39 16:0 #
-1.9666858445197021492983240672364e-07 1:88 2:23 3:8 4:394 5:2 6:53 7:17 8:104 9:20 10:37 11:18 12:0 13:2363 14:15 15:4 16:0 #
1.9666858445197021492983240672364e-07 1:56 2:44 3:44 4:0 5:0 6:8 7:34 8:0 9:221 10:62 11:45 12:0 13:60 14:32 15:51 16:0 #
1.9666858445197021492983240672364e-07 1:87 2:95 3:13 4:0 5:20 6:87 7:25 8:0 9:503 10:106 11:14 12:1 13:8 14:56 15:3 16:0 #
-1.5390582550350084423857485813741e-07 1:2 2:38 3:8 4:0 5:0 6:14 7:8 8:0 9:6 10:4 11:3 12:0 13:5754 14:17 15:2 16:0 #
-1.9666858445197021492983240672364e-07 1:330 2:328 3:40 4:2 5:3 6:139 7:39 8:120 9:0 10:61 11:39 12:0 13:0 14:47 15:45 16:0 #
-1.5622681063820114202595618069225e-07 1:0 2:6 3:119 4:0 5:0 6:1110 7:1777 8:1 9:751 10:29 11:6 12:0 13:6 14:257 15:29 16:0 #
-1.9666858445197021492983240672364e-07 1:25 2:331 3:146 4:8 5:9 6:22 7:13 8:1288 9:7 10:38 11:41 12:1405 13:57 14:286 15:321 16:79 #
-1.9666858445197021492983240672364e-07 1:9 2:22 3:13 4:1288 5:7 6:38 7:41 8:1405 9:57 10:286 11:321 12:79 13:0 14:59 15:34 16:0 #
-1.9666858445197021492983240672364e-07 1:1 2:62 3:18 4:0 5:2345 6:121 7:497 8:856 9:1250 10:93 11:35 12:2615 13:0 14:74 15:30 16:0 #
-1.9666858445197021492983240672364e-07 1:0 2:99 3:0 4:0 5:0 6:555 7:0 8:0 9:0 10:70 11:0 12:0 13:0 14:490 15:0 16:0 #
1.6915090015048626721380316869497e-07 1:194 2:1197 3:179 4:13989 5:836 6:84 7:15 8:0 9:7 10:164 11:27 12:110 13:11 14:85 15:37 16:10 #
1.9666858445197021492983240672364e-07 1:0 2:42 3:15 4:0 5:7057 6:50 7:23 8:0 9:0 10:48 11:13 12:0 13:0 14:54 15:12 16:0 #
1.9666858445197021492983240672364e-07 1:529 2:74 3:23 4:0 5:990 6:29 7:2 8:0 9:452 10:64 11:7 12:0 13:390 14:39 15:8 16:8 #
1.9666858445197021492983240672364e-07 1:0 2:2 3:3 4:0 5:1 6:9 7:4 8:0 9:18 10:677 11:582 12:0 13:4 14:914 15:780 16:0 #
1.9666858445197021492983240672364e-07 1:0 2:36 3:2 4:0 5:0 6:0 7:2 8:0 9:0 10:1487 11:1227 12:1 13:2 14:115 15:60 16:0 #
1.9666858445197021492983240672364e-07 1:0 2:56 3:37 4:0 5:0 6:54 7:35 8:0 9:0 10:91 11:38 12:0 13:3819 14:91 15:41 16:0 #
1.9666858445197021492983240672364e-07 1:0 2:102 3:17 4:51 5:0 6:120 7:20 8:0 9:1 10:62 11:18 12:0 13:2345 14:121 15:497 16:856 #
1.9666858445197021492983240672364e-07 1:0 2:2399 3:358 4:0 5:0 6:0 7:3 8:0 9:0 10:0 11:0 12:0 13:22 14:105 15:3 16:1 #
1.9666858445197021492983240672364e-07 1:990 2:29 3:2 4:0 5:452 6:64 7:7 8:0 9:390 10:39 11:8 12:8 13:8 14:45 15:2 16:41 #
1.9666858445197021492983240672364e-07 1:0 2:41 3:31 4:0 5:0 6:49 7:80 8:0 9:0 10:62 11:49 12:0 13:330 14:328 15:40 16:2 #
-1.9666858445197021492983240672364e-07 1:8 2:83 3:38 4:0 5:0 6:100 7:39 8:0 9:0 10:6963 11:52 12:19 13:0 14:74 15:33 16:0 #
1.9666858445197021492983240672364e-07 1:1487 2:106 3:70 4:0 5:0 6:69 7:106 8:3 9:0 10:126 11:115 12:0 13:13 14:117 15:84 16:202 #
-1.9666858445197021492983240672364e-07 1:2 2:36 3:25 4:0 5:0 6:13 7:6 8:674 9:0 10:0 11:2 12:0 13:0 14:0 15:1 16:0 #
-1.9145571003369274467386198547436e-07 1:0 2:3 3:0 4:0 5:0 6:82 7:0 8:0 9:0 10:7188 11:0 12:0 13:0 14:144 15:0 16:0 #
-1.9666858445197021492983240672364e-07 1:0 2:28 3:0 4:0 5:0 6:48 7:0 8:188 9:0 10:31 11:0 12:0 13:0 14:29 15:0 16:0 #
-1.9666858445197021492983240672364e-07 1:0 2:25 3:0 4:0 5:0 6:12 7:0 8:0 9:0 10:466 11:0 12:0 13:0 14:0 15:0 16:0 #
-1.9666858445197021492983240672364e-07 1:0 2:32 3:0 4:0 5:0 6:111 7:0 8:0 9:0 10:101 11:0 12:0 13:0 14:79 15:0 16:0 #
1.9666858445197021492983240672364e-07 1:0 2:44 3:42 4:0 5:0 6:31 7:33 8:0 9:0 10:30 11:34 12:0 13:0 14:13 15:16 16:2433 #
-1.9666858445197021492983240672364e-07 1:0 2:11 3:7 4:0 5:0 6:13 7:6 8:0 9:0 10:23 11:5 12:0 13:5834 14:13 15:3 16:0 #
1.9666858445197021492983240672364e-07 1:0 2:11 3:3 4:0 5:0 6:35 7:9 8:0 9:0 10:1411 11:1222 12:0 13:0 14:0 15:3 16:0 #
-1.9666858445197021492983240672364e-07 1:2 2:41 3:22 4:0 5:0 6:39 7:15 8:0 9:0 10:32 11:7 12:1 13:7063 14:33 15:9 16:0 #
-1.9666858445197021492983240672364e-07 1:0 2:90 3:50 4:0 5:7 6:70 7:39 8:0 9:0 10:149 11:558 12:0 13:0 14:1377 15:748 16:0 #
-5.0697909403079351210594715934632e-08 1:0 2:47 3:19 4:0 5:0 6:51 7:9 8:0 9:0 10:904 11:1206 12:0 13:20 14:1519 15:1475 16:0 #
1.9666858445197021492983240672364e-07 1:0 2:0 3:0 4:0 5:22 6:105 7:3 8:1 9:25 10:331 11:146 12:8 13:9 14:22 15:13 16:1288 #
1.9666858445197021492983240672364e-07 1:0 2:149 3:29 4:0 5:0 6:213 7:36 8:0 9:0 10:180 11:53 12:0 13:18 14:117 15:34 16:0 #
1.9666858445197021492983240672364e-07 1:1 2:16 3:5 4:0 5:1 6:28 7:6 8:0 9:0 10:34 11:3 12:0 13:0 14:941 15:878 16:6 #
-1.9666858445197021492983240672364e-07 1:0 2:13 3:16 4:2433 5:9 6:1485 7:1203 8:3 9:22 10:148 11:39 12:0 13:0 14:66 15:34 16:0 #
-1.9666858445197021492983240672364e-07 1:7 2:38 3:41 4:1405 5:57 6:286 7:321 8:79 9:0 10:59 11:34 12:0 13:101 14:209 15:40 16:0 #
1.9666858445197021492983240672364e-07 1:0 2:538 3:39 4:0 5:0 6:702 7:30 8:0 9:0 10:432 11:46 12:0 13:0 14:60 15:33 16:0 #
-1.9666858445197021492983240672364e-07 1:7 2:24 3:20 4:66 5:1 6:24 7:4 8:184 9:0 10:44 11:3 12:55 13:2 14:38 15:8 16:0 #
-1.9666858445197021492983240672364e-07 1:23 2:20 3:23 4:0 5:88 6:23 7:8 8:394 9:2 10:53 11:17 12:104 13:20 14:37 15:18 16:0 #
1.9666858445197021492983240672364e-07 1:22 2:105 3:3 4:1 5:25 6:331 7:146 8:8 9:9 10:22 11:13 12:1288 13:7 14:38 15:41 16:1405 #
-1.9666858445197021492983240672364e-07 1:21 2:56 3:15 4:1 5:88 6:46 7:7 8:368 9:3 10:34 11:11 12:23 13:0 14:41 15:17 16:0 #
1.9666858445197021492983240672364e-07 1:836 2:84 3:15 4:0 5:7 6:164 7:27 8:110 9:11 10:85 11:37 12:10 13:111 14:56 15:19 16:3 #
-1.9666858445197021492983240672364e-07 1:1 2:24 3:4 4:184 5:0 6:44 7:3 8:55 9:2 10:38 11:8 12:0 13:0 14:14 15:8 16:0 #
1.9666858445197021492983240672364e-07 1:0 2:1 3:107 4:0 5:63 6:0 7:35 8:457 9:143 10:0 11:2 12:3 13:22 14:584 15:606 16:594 #
1.9666858445197021492983240672364e-07 1:148 2:246 3:60 4:18 5:70 6:196 7:54 8:18 9:70 10:208 11:83 12:29 13:129 14:178 15:78 16:31 #
1.9666858445197021492983240672364e-07 1:0 2:29 3:60 4:0 5:6 6:98 7:103 8:14 9:3 10:538 11:147 12:3 13:4 14:243 15:106 16:0 #
-1.9666858445197021492983240672364e-07 1:1 2:28 3:6 4:0 5:0 6:34 7:3 8:0 9:0 10:941 11:878 12:6 13:2 14:907 15:950 16:20 #
1.9666858445197021492983240672364e-07 1:2 2:75 3:3 4:30 5:410 6:61 7:11 8:3 9:429 10:279 11:22 12:0 13:3 14:104 15:22 16:0 #
1.9666858445197021492983240672364e-07 1:28 2:28 3:58 4:0 5:24 6:63 7:62 8:0 9:423 10:52 11:68 12:0 13:2 14:133 15:69 16:0 #
-1.9666858445197021492983240672364e-07 1:0 2:38 3:10 4:0 5:0 6:40 7:12 8:156 9:0 10:34 11:6 12:0 13:0 14:32 15:16 16:0 #
1.9666858445197021492983240672364e-07 1:0 2:51 3:35 4:0 5:0 6:48 7:38 8:1 9:65 10:1084 11:1053 12:0 13:56 14:236 15:176 16:7 #
-1.1614857505406183501423227760752e-07 1:41 2:879 3:39 4:0 5:23338 6:98 7:39 8:0 9:18 10:49 11:37 12:0 13:0 14:47 15:34 16:0 #
-1.3672469016017518981029712013542e-07 1:1 2:27 3:6 4:0 5:0 6:48 7:3 8:0 9:0 10:1376 11:1292 12:0 13:0 14:0 15:2 16:0 #
1.9666858445197021492983240672364e-07 1:0 2:61 3:45 4:0 5:94 6:46 7:35 8:0 9:0 10:51 11:30 12:0 13:79 14:1424 15:37 16:156 #
-1.9666858445197021492983240672364e-07 1:0 2:86 3:2 4:0 5:0 6:82 7:0 8:0 9:0 10:264 11:0 12:0 13:0 14:122 15:0 16:0 #
-1.9666858445197021492983240672364e-07 1:0 2:54 3:23 4:1 5:2 6:65 7:27 8:297 9:1 10:55 11:21 12:0 13:3 14:58 15:15 16:0 #
1.9666858445197021492983240672364e-07 1:2 2:133 3:69 4:0 5:6 6:204 7:104 8:1 9:23 10:160 11:112 12:0 13:4 14:103 15:72 16:0 #
1.9666858445197021492983240672364e-07 1:0 2:128 3:61 4:7 5:148 6:246 7:60 8:18 9:70 10:196 11:54 12:18 13:70 14:208 15:83 16:29 #
-1.9666858445197021492983240672364e-07 1:2 2:65 3:27 4:297 5:1 6:55 7:21 8:0 9:3 10:58 11:15 12:0 13:0 14:32 15:21 16:0 #
-1.9666858445197021492983240672364e-07 1:0 2:15 3:0 4:0 5:0 6:105 7:0 8:0 9:0 10:284 11:0 12:0 13:0 14:130 15:0 16:0 #
1.9666858445197021492983240672364e-07 1:91 2:135 3:43 4:0 5:144 6:140 7:40 8:0 9:0 10:128 11:61 12:7 13:148 14:246 15:60 16:18 #
1.9666858445197021492983240672364e-07 1:0 2:79 3:40 4:0 5:0 6:264 7:37 8:0 9:2 10:719 11:38 12:0 13:46 14:254 15:44 16:51 #
-1.9666858445197021492983240672364e-07 1:0 2:40 3:0 4:0 5:0 6:171 7:0 8:0 9:0 10:16 11:0 12:0 13:0 14:7 15:0 16:0 #
-1.9666858445197021492983240672364e-07 1:0 2:35 3:0 4:0 5:0 6:193 7:0 8:0 9:0 10:15 11:0 12:0 13:0 14:13 15:0 16:0 #
-1.9666858445197021492983240672364e-07 1:0 2:58 3:19 4:0 5:1 6:39 7:18 8:0 9:372 10:21 11:6 12:0 13:0 14:43 15:4 16:0 #
-1.9666858445197021492983240672364e-07 1:0 2:32 3:3 4:0 5:0 6:320 7:0 8:0 9:0 10:101 11:1 12:0 13:0 14:424 15:0 16:0 #
1.9666858445197021492983240672364e-07 1:35 2:623 3:36 4:0 5:0 6:328 7:46 8:0 9:29 10:93 11:40 12:0 13:0 14:102 15:47 16:0 #
1.9666858445197021492983240672364e-07 1:5 2:174 3:36 4:0 5:92 6:132 7:38 8:0 9:27 10:444 11:43 12:0 13:0 14:204 15:38 16:0 #
-1.9666858445197021492983240672364e-07 1:0 2:28 3:7 4:0 5:1 6:68 7:7 8:0 9:158 10:77 11:7 12:0 13:0 14:28 15:2 16:0 #
-1.9666858445197021492983240672364e-07 1:0 2:43 3:1 4:0 5:0 6:124 7:2 8:0 9:0 10:50 11:0 12:0 13:0 14:35 15:0 16:0 #
-1.9666858445197021492983240672364e-07 1:0 2:102 3:0 4:0 5:0 6:129 7:0 8:0 9:0 10:134 11:0 12:0 13:0 14:69 15:0 16:0 #
1.9666858445197021492983240672364e-07 1:0 2:44 3:66 4:53 5:0 6:57 7:76 8:0 9:4 10:94 11:91 12:2 13:96 14:258 15:139 16:0 #
-1.3900269038848033662898403834546e-07 1:0 2:320 3:0 4:0 5:0 6:102 7:0 8:0 9:0 10:7087 11:0 12:0 13:0 14:64 15:0 16:0 #
1.9666858445197021492983240672364e-07 1:17 2:99 3:67 4:5 5:8 6:28 7:27 8:0 9:10 10:121 11:14 12:0 13:6 14:2061 15:367 16:11 #
-1.9666858445197021492983240672364e-07 1:419 2:58 3:6 4:0 5:5 6:152 7:32 8:0 9:99 10:127 11:19 12:204 13:0 14:121 15:13 16:34 #
1.9666858445197021492983240672364e-07 1:169 2:108 3:43 4:0 5:2 6:180 7:37 8:0 9:0 10:637 11:37 12:0 13:0 14:45 15:30 16:0 #
-1.9666858445197021492983240672364e-07 1:0 2:21 3:7 4:0 5:0 6:109 7:18 8:0 9:0 10:55 11:9 12:0 13:0 14:11 15:3 16:0 #
1.9666858445197021492983240672364e-07 1:452 2:64 3:7 4:0 5:390 6:39 7:8 8:8 9:8 10:45 11:2 12:41 13:2 14:75 15:3 16:30 #
-1.9666858445197021492983240672364e-07 1:6 2:98 3:103 4:14 5:3 6:538 7:147 8:3 9:4 10:243 11:106 12:0 13:1 14:1213 15:1183 16:2 #
-1.9666858445197021492983240672364e-07 1:7 2:164 3:27 4:110 5:11 6:85 7:37 8:10 9:111 10:56 11:19 12:3 13:0 14:88 15:10 16:1 #
1.9666858445197021492983240672364e-07 1:144 2:140 3:40 4:0 5:0 6:128 7:61 8:7 9:148 10:246 11:60 12:18 13:70 14:196 15:54 16:18 #
1.9666858445197021492983240672364e-07 1:221 2:62 3:45 4:0 5:60 6:32 7:51 8:0 9:0 10:37 11:48 12:1 13:17 14:78 15:76 16:0 #
-1.9666858445197021492983240672364e-07 1:1 2:25 3:6 4:0 5:6 6:44 7:8 8:0 9:242 10:78 11:23 12:0 13:5 14:20 15:7 16:0 #
-1.9666858445197021492983240672364e-07 1:0 2:154 3:0 4:0 5:0 6:186 7:1 8:0 9:0 10:139 11:0 12:0 13:0 14:300 15:0 16:1 #
-1.9666858445197021492983240672364e-07 1:2 2:54 3:8 4:0 5:0 6:117 7:20 8:1 9:1 10:83 11:5 12:0 13:1 14:48 15:6 16:0 #
1.9666858445197021492983240672364e-07 1:0 2:19 3:4 4:0 5:30 6:3 7:4 8:0 9:0 10:1 11:107 12:0 13:63 14:0 15:35 16:457 #
-1.9058204669140399749229647374804e-07 1:0 2:1307 3:1208 4:0 5:1 6:15 7:1 8:0 9:0 10:71 11:18 12:0 13:5532 14:103 15:15 16:1 #
1.9666858445197021492983240672364e-07 1:272 2:95 3:27 4:0 5:24 6:52 7:17 8:0 9:79 10:93 11:11 12:0 13:67 14:61 15:9 16:0 #
-1.9666858445197021492983240672364e-07 1:0 2:55 3:2 4:0 5:0 6:17 7:5 8:0 9:1 10:1508 11:5 12:0 13:0 14:231 15:3 16:0 #
-1.9666858445197021492983240672364e-07 1:0 2:102 3:47 4:0 5:5 6:123 7:42 8:190 9:15 10:149 11:38 12:0 13:13 14:133 15:44 16:1 #
-1.9666858445197021492983240672364e-07 1:0 2:129 3:18 4:0 5:0 6:135 7:22 8:99 9:0 10:102 11:17 12:51 13:0 14:120 15:20 16:0 #
1.9666858445197021492983240672364e-07 1:0 2:166 3:42 4:0 5:91 6:135 7:43 8:0 9:144 10:140 11:40 12:0 13:0 14:128 15:61 16:7 #
1.9666858445197021492983240672364e-07 1:0 2:69 3:106 4:3 5:0 6:126 7:115 8:0 9:13 10:117 11:84 12:202 13:0 14:56 15:66 16:1 #
1.9666858445197021492983240672364e-07 1:0 2:86 3:5 4:0 5:419 6:58 7:6 8:0 9:5 10:152 11:32 12:0 13:99 14:127 15:19 16:204 #
1.9666858445197021492983240672364e-07 1:165 2:74 3:17 4:0 5:17 6:91 7:20 8:0 9:170 10:112 11:21 12:2 13:0 14:37 15:10 16:0 #
1.9666858445197021492983240672364e-07 1:0 2:144 3:64 4:0 5:0 6:119 7:72 8:0 9:0 10:83 11:62 12:0 13:0 14:90 15:65 16:0 #
1.9666858445197021492983240672364e-07 1:17 2:69 3:37 4:0 5:0 6:79 7:40 8:0 9:0 10:264 11:37 12:0 13:2 14:719 15:38 16:0 #
-1.9666858445197021492983240672364e-07 1:1 2:50 3:14 4:0 5:0 6:107 7:35 8:1 9:70 10:59 11:19 12:0 13:1 14:53 15:8 16:0 #
-1.9666858445197021492983240672364e-07 1:1 2:35 3:7 4:0 5:0 6:168 7:30 8:0 9:65 10:83 11:21 12:0 13:0 14:38 15:22 16:0 #
-1.9666858445197021492983240672364e-07 1:0 2:62 3:49 4:0 5:330 6:328 7:40 8:2 9:3 10:139 11:39 12:120 13:0 14:61 15:39 16:0 #
1.9666858445197021492983240672364e-07 1:0 2:50 3:9 4:1 5:0 6:61 7:14 8:0 9:1 10:44 11:24 12:0 13:1 14:50 15:14 16:0 #
1.9666858445197021492983240672364e-07 1:0 2:21 3:10 4:0 5:0 6:30 7:10 8:0 9:0 10:44 11:9 12:0 13:60 14:75 15:31 16:0 #
1.9666858445197021492983240672364e-07 1:2 2:32 3:38 4:0 5:0 6:31 7:11 8:0 9:0 10:65 11:11 12:0 13:0 14:65 15:1 16:0 #
1.9666858445197021492983240672364e-07 1:2 2:49 3:32 4:0 5:0 6:61 7:45 8:0 9:94 10:46 11:35 12:0 13:0 14:51 15:30 16:0 #
-1.9666858445197021492983240672364e-07 1:0 2:31 3:33 4:0 5:0 6:30 7:34 8:0 9:0 10:13 11:16 12:2433 13:9 14:1485 15:1203 16:3 #
1.9666858445197021492983240672364e-07 1:3 2:34 3:11 4:23 5:0 6:41 7:17 8:0 9:23 10:20 11:23 12:0 13:88 14:23 15:8 16:394 #
-1.9666858445197021492983240672364e-07 1:0 2:0 3:0 4:0 5:0 6:0 7:0 8:0 9:0 10:0 11:0 12:0 13:0 14:0 15:0 16:0 #
1.9666858445197021492983240672364e-07 1:6 2:78 3:32 4:0 5:0 6:78 7:34 8:0 9:0 10:225 11:42 12:0 13:0 14:561 15:34 16:0 #
-1.9666858445197021492983240672364e-07 1:0 2:0 3:0 4:0 5:0 6:0 7:0 8:0 9:0 10:0 11:0 12:0 13:0 14:0 15:0 16:0 #
-1.9666858445197021492983240672364e-07 1:1250 2:93 3:35 4:2615 5:0 6:74 7:30 8:0 9:0 10:73 11:34 12:0 13:0 14:100 15:30 16:0 #
-1.9666858445197021492983240672364e-07 1:79 2:1424 3:37 4:156 5:197 6:543 7:33 8:105 9:1 10:494 11:37 12:0 13:0 14:58 15:35 16:0 #
-1.9666858445197021492983240672364e-07 1:0 2:48 3:0 4:188 5:0 6:31 7:0 8:0 9:0 10:29 11:0 12:0 13:0 14:0 15:0 16:0 #
1.9666858445197021492983240672364e-07 1:104 2:34 3:65 4:0 5:0 6:31 7:61 8:0 9:0 10:29 11:60 12:0 13:6 14:98 15:103 16:14 #
1.9666858445197021492983240672364e-07 1:72 2:81 3:71 4:0 5:0 6:58 7:65 8:0 9:1 10:53 11:70 12:0 13:0 14:78 15:60 16:1 #
1.9666858445197021492983240672364e-07 1:0 2:70 3:10 4:0 5:0 6:86 7:5 8:0 9:419 10:58 11:6 12:0 13:5 14:152 15:32 16:0 #
1.9666858445197021492983240672364e-07 1:4 2:69 3:68 4:0 5:0 6:62 7:67 8:0 9:0 10:65 11:71 12:0 13:0 14:38 15:66 16:0 #
1.9666858445197021492983240672364e-07 1:3 2:49 3:70 4:0 5:104 6:34 7:65 8:0 9:0 10:31 11:61 12:0 13:0 14:29 15:60 16:0 #
-1.9666858445197021492983240672364e-07 1:143 2:0 3:2 4:3 5:22 6:584 7:606 8:594 9:470 10:522 11:363 12:27 13:529 14:74 15:23 16:0 #
-1.1605013446151124151926197804185e-08 1:0 2:0 3:0 4:0 5:0 6:0 7:0 8:0 9:0 10:0 11:0 12:0 13:0 14:0 15:0 16:0 #
-1.9666858445197021492983240672364e-07 1:0 2:0 3:0 4:0 5:0 6:0 7:0 8:0 9:0 10:0 11:0 12:0 13:0 14:3 15:0 16:0 #
-1.9666858445197021492983240672364e-07 1:0 2:14 3:0 4:0 5:0 6:28 7:0 8:0 9:0 10:48 11:0 12:188 13:0 14:31 15:0 16:0 #
1.9666858445197021492983240672364e-07 1:0 2:50 3:65 4:0 5:0 6:53 7:65 8:0 9:0 10:44 11:66 12:53 13:0 14:57 15:76 16:0 #
1.9666858445197021492983240672364e-07 1:30 2:3 3:4 4:0 5:0 6:1 7:107 8:0 9:63 10:0 11:35 12:457 13:143 14:0 15:2 16:3 #
-1.9666858445197021492983240672364e-07 1:22 2:584 3:606 4:594 5:470 6:522 7:363 8:27 9:529 10:74 11:23 12:0 13:990 14:29 15:2 16:0 #
-1.9666858445197021492983240672364e-07 1:0 2:0 3:0 4:0 5:0 6:0 7:0 8:0 9:0 10:0 11:0 12:0 13:0 14:19 15:0 16:0 #
-1.8633795214761719160129140211712e-07 1:0 2:24 3:16 4:0 5:0 6:41 7:8 8:0 9:0 10:18 11:0 12:0 13:6112 14:87 15:5 16:0 #
-1.1987713260550825982527356082432e-08 1:23599 2:66 3:8 4:0 5:1 6:122 7:15 8:2 9:67 10:124 11:17 12:2 13:0 14:38 15:6 16:0 #
-1.9666858445197021492983240672364e-07 1:0 2:70 3:42 4:0 5:4 6:12 7:12 8:1 9:6 10:1699 11:1184 12:126 13:31 14:218 15:21 16:0 #
1.9666858445197021492983240672364e-07 1:13 2:117 3:84 4:202 5:0 6:56 7:66 8:1 9:0 10:43 11:73 12:4 13:21 14:88 15:71 16:2 #
1.9666858445197021492983240672364e-07 1:126 2:38 3:9 4:0 5:0 6:14 7:4 8:0 9:300 10:14 11:7 12:12 13:66 14:7 15:6 16:0 #
-1.9666858445197021492983240672364e-07 1:0 2:10 3:0 4:0 5:0 6:0 7:0 8:0 9:0 10:0 11:0 12:0 13:0 14:0 15:0 16:0 #
-1.9666858445197021492983240672364e-07 1:503 2:106 3:14 4:1 5:8 6:56 7:3 8:0 9:5 10:33 11:1 12:2 13:2 14:41 15:8 16:0 #
-1.9666858445197021492983240672364e-07 1:66 2:61 3:11 4:0 5:0 6:24 7:5 8:0 9:1 10:55 11:11 12:0 13:51 14:51 15:11 16:0 #
-1.9666858445197021492983240672364e-07 1:0 2:17 3:4 4:0 5:66 6:61 7:11 8:0 9:0 10:24 11:5 12:0 13:1 14:55 15:11 16:0 #
-1.9666858445197021492983240672364e-07 1:0 2:32 3:3 4:0 5:0 6:17 7:4 8:0 9:66 10:61 11:11 12:0 13:0 14:24 15:5 16:0 #
1.9666858445197021492983240672364e-07 1:14 2:63 3:32 4:0 5:8 6:55 7:15 8:0 9:0 10:79 11:21 12:0 13:13 14:56 15:26 16:0 #
1.9666858445197021492983240672364e-07 1:0 2:28 3:9 4:0 5:0 6:22 7:4 8:0 9:0 10:49 11:20 12:0 13:1 14:38 15:4 16:0 #
1.9666858445197021492983240672364e-07 1:0 2:0 3:3 4:0 5:0 6:0 7:0 8:0 9:22 10:105 11:3 12:1 13:25 14:331 15:146 16:8 #
1.9666858445197021492983240672364e-07 1:0 2:74 3:30 4:0 5:0 6:73 7:34 8:0 9:0 10:100 11:30 12:0 13:0 14:101 15:22 16:0 #
1.9666858445197021492983240672364e-07 1:0 2:58 3:37 4:0 5:75 6:71 7:41 8:0 9:0 10:69 11:59 12:0 13:5 14:59 15:44 16:0 #
-1.9666858445197021492983240672364e-07 1:0 2:27 3:0 4:0 5:0 6:84 7:0 8:0 9:0 10:4283 11:0 12:0 13:0 14:279 15:0 16:0 #
-1.9666858445197021492983240672364e-07 1:0 2:234 3:0 4:0 5:0 6:140 7:0 8:0 9:0 10:1604 11:0 12:0 13:0 14:35 15:0 16:0 #
1.9666858445197021492983240672364e-07 1:0 2:62 3:62 4:0 5:17 6:99 7:67 8:5 9:8 10:28 11:27 12:0 13:10 14:121 15:14 16:0 #
-1.3917074350682704773563446354247e-08 1:0 2:87 3:14 4:0 5:0 6:17 7:3 8:0 9:2 10:14000 11:13 12:0 13:0 14:101007 15:8 16:0 #
1.9666858445197021492983240672364e-07 1:0 2:103 3:38 4:0 5:0 6:147 7:45 8:0 9:1 10:139 11:47 12:0 13:0 14:70 15:42 16:0 #
-1.9666858445197021492983240672364e-07 1:94 2:46 3:35 4:0 5:0 6:51 7:30 8:0 9:79 10:1424 11:37 12:156 13:197 14:543 15:33 16:105 #
-1.9666858445197021492983240672364e-07 1:63 2:0 3:35 4:457 5:143 6:0 7:2 8:3 9:22 10:584 11:606 12:594 13:470 14:522 15:363 16:27 #
-1.5822238580026637150971469125693e-07 1:0 2:0 3:0 4:0 5:0 6:3 7:0 8:0 9:0 10:82 11:0 12:0 13:0 14:7188 15:0 16:0 #
1.9666858445197021492983240672364e-07 1:0 2:2 3:0 4:0 5:0 6:139 7:0 8:0 9:0 10:14 11:0 12:0 13:0 14:28 15:0 16:0 #
-1.9666858445197021492983240672364e-07 1:0 2:120 3:20 4:0 5:1 6:62 7:18 8:0 9:2345 10:121 11:497 12:856 13:1250 14:93 15:35 16:2615 #
-1.9666858445197021492983240672364e-07 1:0 2:55 3:42 4:0 5:0 6:69 7:38 8:0 9:0 10:2212 11:44 12:0 13:0 14:2112 15:38 16:0 #
1.9666858445197021492983240672364e-07 1:0 2:147 3:45 4:0 5:1 6:139 7:47 8:0 9:0 10:70 11:42 12:0 13:4 14:12 15:12 16:1 #
1.9666858445197021492983240672364e-07 1:0 2:49 3:69 4:0 5:0 6:47 7:64 8:0 9:0 10:50 11:65 12:0 13:0 14:53 15:65 16:0 #
1.9666858445197021492983240672364e-07 1:0 2:321 3:0 4:0 5:0 6:154 7:0 8:0 9:0 10:186 11:1 12:0 13:0 14:139 15:0 16:0 #
-1.9666858445197021492983240672364e-07 1:0 2:1376 3:1292 4:0 5:0 6:0 7:2 8:0 9:0 10:46 11:1 12:0 13:0 14:42 15:11 16:0 #
-1.9666858445197021492983240672364e-07 1:2 2:57 3:42 4:0 5:0 6:0 7:0 8:0 9:0 10:0 11:0 12:0 13:0 14:0 15:0 16:0 #
1.9666858445197021492983240672364e-07 1:29 2:93 3:40 4:0 5:0 6:102 7:47 8:0 9:5 10:123 11:42 12:190 13:15 14:149 15:38 16:0 #
1.9666858445197021492983240672364e-07 1:2 2:127 3:43 4:0 5:10 6:84 7:36 8:0 9:3 10:109 11:32 12:0 13:0 14:106 15:41 16:0 #
-1.9666858445197021492983240672364e-07 1:0 2:466 3:0 4:0 5:0 6:0 7:0 8:0 9:0 10:0 11:0 12:0 13:0 14:0 15:0 16:0 #
1.9666858445197021492983240672364e-07 1:0 2:62 3:66 4:0 5:0 6:60 7:60 8:0 9:0 10:60 11:61 12:0 13:0 14:62 15:62 16:0 #
-1.9666858445197021492983240672364e-07 1:0 2:29 3:0 4:0 5:0 6:0 7:0 8:0 9:0 10:0 11:0 12:0 13:0 14:0 15:0 16:0 #
1.9666858445197021492983240672364e-07 1:45 2:94 3:42 4:0 5:1 6:90 7:45 8:0 9:8 10:83 11:38 12:0 13:0 14:100 15:39 16:0 #
1.9666858445197021492983240672364e-07 1:101 2:74 3:34 4:0 5:8 6:121 7:28 8:0 9:55 10:103 11:31 12:0 13:2 14:54 15:8 16:0 #
-1.9666858445197021492983240672364e-07 1:0 2:0 3:0 4:0 5:0 6:0 7:0 8:0 9:2 10:0 11:0 12:0 13:1 14:555 15:16 16:0 #
-1.9666858445197021492983240672364e-07 1:0 2:0 3:0 4:0 5:0 6:0 7:0 8:0 9:0 10:0 11:0 12:0 13:3 14:8 15:8 16:1 #
-1.9666858445197021492983240672364e-07 1:751 2:29 3:6 4:0 5:6 6:257 7:29 8:0 9:0 10:29 11:3 12:0 13:0 14:38 15:13 16:0 #
1.9666858445197021492983240672364e-07 1:115 2:41 3:15 4:0 5:410 6:67 7:9 8:1 9:126 10:38 11:9 12:0 13:0 14:14 15:4 16:0 #
1.9666858445197021492983240672364e-07 1:0 2:777 3:0 4:0 5:0 6:81 7:0 8:0 9:0 10:109 11:0 12:0 13:0 14:56 15:0 16:3 #
-4.2078507416612533869342178700218e-09 1:0 2:101013 3:13 4:0 5:0 6:101014 7:5 8:0 9:19 10:77518 11:8 12:0 13:39 14:49953 15:11 16:0 #
-1.9575109221783888109872284657292e-07 1:1 2:3504 3:69 4:0 5:0 6:58 7:65 8:0 9:0 10:55 11:74 12:0 13:0 14:52 15:66 16:0 #
1.9666858445197021492983240672364e-07 1:0 2:31 3:5 4:0 5:0 6:41 7:31 8:0 9:0 10:49 11:80 12:0 13:0 14:62 15:49 16:0 #
1.9666858445197021492983240672364e-07 1:4 2:37 3:13 4:0 5:3 6:69 7:31 8:2 9:0 10:30 11:48 12:2 13:2 14:57 15:83 16:0 #
-1.9666858445197021492983240672364e-07 1:1 2:5 3:0 4:0 5:0 6:0 7:0 8:0 9:0 10:3 11:0 12:0 13:0 14:0 15:0 16:0 #
1.9666858445197021492983240672364e-07 1:5 2:152 3:32 4:0 5:99 6:127 7:19 8:204 9:0 10:121 11:13 12:34 13:0 14:129 15:18 16:0 #
-1.9666858445197021492983240672364e-07 1:0 2:27 3:0 4:0 5:0 6:0 7:0 8:0 9:0 10:0 11:0 12:0 13:0 14:0 15:0 16:0 #
1.9666858445197021492983240672364e-07 1:0 2:94 3:41 4:0 5:0 6:75 7:34 8:0 9:33 10:26 11:35 12:0 13:16 14:52 15:40 16:0 #
1.9666858445197021492983240672364e-07 1:2 2:92 3:35 4:0 5:2 6:67 7:41 8:0 9:2 10:57 11:33 12:0 13:0 14:51 15:35 16:0 #
-1.9666858445197021492983240672364e-07 1:1 2:10 3:3 4:2 5:7 6:24 7:20 8:66 9:1 10:24 11:4 12:184 13:0 14:44 15:3 16:55 #
-1.9666858445197021492983240672364e-07 1:0 2:0 3:0 4:0 5:0 6:0 7:0 8:0 9:0 10:0 11:0 12:0 13:0 14:19 15:2 16:0 #
1.9666858445197021492983240672364e-07 1:99 2:127 3:19 4:204 5:0 6:121 7:13 8:34 9:0 10:129 11:18 12:0 13:0 14:135 15:22 16:99 #
1.9666858445197021492983240672364e-07 1:4 2:90 3:18 4:0 5:28 6:70 7:10 8:0 9:165 10:74 11:17 12:0 13:17 14:91 15:20 16:0 #
1.9666858445197021492983240672364e-07 1:0 2:65 3:35 4:0 5:0 6:55 7:33 8:0 9:0 10:44 11:34 12:0 13:0 14:62 15:38 16:0 #
-1.9666858445197021492983240672364e-07 1:0 2:40 3:12 4:156 5:0 6:34 7:6 8:0 9:0 10:32 11:16 12:0 13:0 14:43 15:6 16:0 #
1.9666858445197021492983240672364e-07 1:0 2:84 3:41 4:0 5:0 6:44 7:42 8:0 9:0 10:31 11:33 12:0 13:0 14:30 15:34 16:0 #
-1.9666858445197021492983240672364e-07 1:0 2:7 3:0 4:0 5:0 6:0 7:0 8:0 9:0 10:0 11:0 12:0 13:0 14:25 15:0 16:0 #
-1.9666858445197021492983240672364e-07 1:0 2:0 3:0 4:0 5:0 6:3 7:0 8:0 9:0 10:0 11:0 12:0 13:0 14:35 15:1 16:0 #
1.9666858445197021492983240672364e-07 1:1 2:35 3:35 4:0 5:0 6:37 7:30 8:0 9:3 10:43 11:37 12:0 13:0 14:38 15:31 16:0 #
-1.9666858445197021492983240672364e-07 1:0 2:0 3:0 4:0 5:0 6:0 7:0 8:0 9:0 10:3 11:0 12:0 13:0 14:82 15:0 16:0 #
1.9666858445197021492983240672364e-07 1:79 2:215 3:21 4:0 5:44 6:68 7:10 8:0 9:3 10:77 11:15 12:0 13:0 14:68 15:10 16:0 #
-1.9666858445197021492983240672364e-07 1:0 2:1604 3:0 4:0 5:0 6:35 7:0 8:0 9:0 10:193 11:0 12:0 13:0 14:15 15:0 16:0 #
-1.9666858445197021492983240672364e-07 1:0 2:1960 3:14 4:0 5:0 6:68 7:25 8:0 9:0 10:50 11:32 12:0 13:0 14:61 15:35 16:0 #
1.9666858445197021492983240672364e-07 1:0 2:42 3:28 4:0 5:0 6:67 7:36 8:0 9:0 10:23 11:7 12:0 13:0 14:38 15:10 16:0 #
1.9666858445197021492983240672364e-07 1:0 2:11 3:5 4:0 5:51 6:107 7:28 8:0 9:0 10:58 11:11 12:0 13:0 14:44 15:13 16:0 #
1.9666858445197021492983240672364e-07 1:0 2:58 3:11 4:0 5:0 6:44 7:13 8:0 9:21 10:56 11:15 12:1 13:88 14:46 15:7 16:368 #
-1.9666858445197021492983240672364e-07 1:0 2:16 3:0 4:0 5:0 6:7 7:0 8:0 9:0 10:0 11:0 12:0 13:0 14:0 15:0 16:0 #
1.9666858445197021492983240672364e-07 1:0 2:126 3:21 4:0 5:0 6:85 7:18 8:0 9:0 10:75 11:15 12:0 13:0 14:52 15:10 16:0 #
1.9666858445197021492983240672364e-07 1:31 2:27 3:2 4:0 5:2 6:41 7:10 8:0 9:87 10:95 11:13 12:0 13:20 14:87 15:25 16:0 #
1.9666858445197021492983240672364e-07 1:51 2:107 3:28 4:0 5:0 6:58 7:11 8:0 9:0 10:44 11:13 12:0 13:21 14:56 15:15 16:1 #
-1.9666858445197021492983240672364e-07 1:0 2:10 3:0 4:0 5:0 6:17 7:0 8:0 9:0 10:0 11:0 12:0 13:0 14:0 15:0 16:0 #
1.9666858445197021492983240672364e-07 1:25 2:77 3:10 4:0 5:0 6:44 7:12 8:0 9:0 10:86 11:15 12:0 13:21 14:204 15:27 16:4 #
-1.9666858445197021492983240672364e-07 1:0 2:13 3:0 4:0 5:0 6:0 7:0 8:0 9:0 10:9 11:0 12:0 13:0 14:0 15:0 16:0 #
-1.9666858445197021492983240672364e-07 1:0 2:57 3:0 4:0 5:0 6:0 7:0 8:0 9:0 10:0 11:0 12:0 13:2 14:0 15:0 16:0 #
-1.9666858445197021492983240672364e-07 1:0 2:28 3:0 4:0 5:0 6:10 7:0 8:0 9:0 10:0 11:0 12:0 13:0 14:0 15:0 16:0 #
1.9666858445197021492983240672364e-07 1:0 2:37 3:16 4:0 5:0 6:36 7:7 8:0 9:0 10:35 11:9 12:0 13:0 14:125 15:134 16:0 #
1.9666858445197021492983240672364e-07 1:0 2:40 3:10 4:0 5:1 6:65 7:10 8:0 9:33 10:100 11:15 12:1 13:0 14:80 15:19 16:0 #
1.9666858445197021492983240672364e-07 1:67 2:28 3:9 4:0 5:2 6:37 7:19 8:0 9:2 10:75 11:23 12:0 13:1 14:52 15:13 16:0 #
-1.9666858445197021492983240672364e-07 1:0 2:24 3:0 4:0 5:0 6:0 7:0 8:0 9:0 10:0 11:0 12:0 13:0 14:20 15:6 16:0 #
-1.9666858445197021492983240672364e-07 1:0 2:41 3:17 4:0 5:23 6:20 7:23 8:0 9:88 10:23 11:8 12:394 13:2 14:53 15:17 16:104 #
-1.9666858445197021492983240672364e-07 1:0 2:44 3:13 4:0 5:21 6:56 7:15 8:1 9:88 10:46 11:7 12:368 13:3 14:34 15:11 16:23 #
-1.9666858445197021492983240672364e-07 1:1 2:43 3:14 4:0 5:0 6:54 7:23 8:1 9:2 10:65 11:27 12:297 13:1 14:55 15:21 16:0 #
1.9666858445197021492983240672364e-07 1:0 2:144 3:0 4:0 5:0 6:166 7:0 8:0 9:0 10:126 11:0 12:0 13:0 14:70 15:0 16:0 #
1.9666858445197021492983240672364e-07 1:0 2:135 3:22 4:99 5:0 6:102 7:17 8:51 9:0 10:120 11:20 12:0 13:1 14:62 15:18 16:0 #
1.9666858445197021492983240672364e-07 1:0 2:91 3:0 4:0 5:0 6:80 7:0 8:0 9:0 10:101 11:0 12:0 13:0 14:125 15:0 16:4 #
-1.9666858445197021492983240672364e-07 1:0 2:23 3:7 4:0 5:0 6:38 7:10 8:0 9:0 10:40 11:12 12:156 13:0 14:34 15:6 16:0 #
-1.9666858445197021492983240672364e-07 1:0 2:52 3:0 4:0 5:0 6:0 7:0 8:0 9:0 10:0 11:0 12:0 13:0 14:11 15:0 16:0 #
1.9666858445197021492983240672364e-07 1:0 2:103 3:0 4:0 5:0 6:107 7:0 8:0 9:0 10:78 11:0 12:0 13:0 14:84 15:0 16:0 #
1.9666858445197021492983240672364e-07 1:0 2:83 3:8 4:0 5:0 6:85 7:23 8:0 9:0 10:57 11:7 12:0 13:0 14:71 15:10 16:0 #
1.9666858445197021492983240672364e-07 1:0 2:70 3:11 4:0 5:0 6:100 7:20 8:0 9:0 10:36 11:2 12:0 13:0 14:0 15:2 16:0 #
-1.9666858445197021492983240672364e-07 1:0 2:10 3:8 4:0 5:0 6:2 7:3 8:0 9:1 10:9 11:4 12:0 13:18 14:677 15:582 16:0 #
-1.9666858445197021492983240672364e-07 1:0 2:35 3:0 4:0 5:1 6:5 7:0 8:0 9:0 10:0 11:0 12:0 13:0 14:3 15:0 16:0 #
-1.9666858445197021492983240672364e-07 1:0 2:2 3:1 4:0 5:18 6:3 7:2 8:0 9:3 10:0 11:1 12:0 13:161 14:4 15:0 16:0 #
1.9666858445197021492983240672364e-07 1:0 2:49 3:0 4:0 5:0 6:91 7:0 8:0 9:0 10:80 11:0 12:0 13:0 14:101 15:0 16:0 #
-1.9666858445197021492983240672364e-07 1:0 2:17 3:0 4:0 5:0 6:0 7:0 8:0 9:0 10:0 11:0 12:0 13:0 14:281 15:0 16:0 #
-1.9666858445197021492983240672364e-07 1:0 2:0 3:0 4:0 5:0 6:0 7:0 8:0 9:3 10:8 11:8 12:1 13:0 14:60 15:60 16:0 #
1.9666858445197021492983240672364e-07 1:6 2:44 3:8 4:0 5:242 6:78 7:23 8:0 9:5 10:20 11:7 12:0 13:6 14:28 15:9 16:0 #
1.9666858445197021492983240672364e-07 1:1 2:34 3:10 4:0 5:2 6:76 7:11 8:0 9:1 10:39 11:19 12:0 13:94 14:49 15:15 16:0 #
1.9666858445197021492983240672364e-07 1:1 2:51 3:8 4:0 5:227 6:64 7:15 8:0 9:37 10:36 11:6 12:0 13:8 14:36 15:25 16:0 #
-1.9666858445197021492983240672364e-07 1:0 2:13 3:8 4:0 5:2 6:33 7:10 8:0 9:194 10:116 11:18 12:191 13:3 14:61 15:7 16:0 #
-1.9666858445197021492983240672364e-07 1:0 2:79 3:0 4:0 5:0 6:0 7:0 8:0 9:0 10:0 11:0 12:0 13:0 14:75 15:0 16:0 #
-1.9666858445197021492983240672364e-07 1:0 2:41 3:0 4:0 5:0 6:4 7:0 8:0 9:0 10:6 11:0 12:0 13:0 14:40 15:0 16:0 #
1.9666858445197021492983240672364e-07 1:120 2:37 3:3 4:0 5:2 6:33 7:3 8:0 9:0 10:34 11:11 12:0 13:0 14:59 15:5 16:0 #
1.9666858445197021492983240672364e-07 1:72 2:86 3:14 4:0 5:29 6:36 7:12 8:0 9:8 10:25 11:8 12:0 13:25 14:25 15:3 16:0 #
1.9666858445197021492983240672364e-07 1:0 2:90 3:39 4:0 5:0 6:19 7:4 8:0 9:30 10:3 11:4 12:0 13:0 14:1 15:107 16:0 #
-1.9666858445197021492983240672364e-07 1:0 2:0 3:0 4:0 5:0 6:0 7:0 8:0 9:0 10:25 11:2 12:0 13:0 14:0 15:0 16:0 #
1.9666858445197021492983240672364e-07 1:6 2:257 3:29 4:0 5:0 6:29 7:3 8:0 9:0 10:38 11:13 12:0 13:0 14:29 15:3 16:0 #
1.9666858445197021492983240672364e-07 1:46 2:38 3:10 4:0 5:0 6:48 7:18 8:0 9:1 10:37 11:12 12:0 13:0 14:38 15:13 16:0 #
-1.9666858445197021492983240672364e-07 1:0 2:0 3:0 4:0 5:0 6:0 7:0 8:0 9:0 10:25 11:0 12:0 13:0 14:12 15:0 16:0 #
-1.9666858445197021492983240672364e-07 1:0 2:18 3:1 4:0 5:0 6:24 7:0 8:0 9:0 10:0 11:0 12:0 13:0 14:0 15:0 16:0 #
-1.9666858445197021492983240672364e-07 1:0 2:33 3:0 4:0 5:0 6:0 7:0 8:0 9:0 10:12 11:0 12:0 13:0 14:42 15:0 16:0 #
-1.9666858445197021492983240672364e-07 1:5 2:123 3:42 4:190 5:15 6:149 7:38 8:0 9:13 10:133 11:44 12:1 13:397 14:156 15:43 16:0 #
-3.0915982867888279392169678357408e-08 1:0 2:41677 3:13 4:0 5:31 6:31 7:4 8:15 9:0 10:42 11:15 12:0 13:7057 14:50 15:23 16:0 #
1.9666858445197021492983240672364e-07 1:2 2:33 3:10 4:0 5:194 6:116 7:18 8:191 9:3 10:61 11:7 12:0 13:3 14:59 15:5 16:0 #
-1.9666858445197021492983240672364e-07 1:18 2:3 3:2 4:0 5:3 6:0 7:1 8:0 9:161 10:4 11:0 12:0 13:20 14:51 15:20 16:0 #
-1.9666858445197021492983240672364e-07 1:0 2:39 3:8 4:0 5:8 6:23 7:14 8:0 9:836 10:42 11:11 12:0 13:6 14:35 15:17 16:0 #
1.9666858445197021492983240672364e-07 1:0 2:33 3:4 4:2 5:25 6:77 7:10 8:0 9:0 10:44 11:12 12:0 13:0 14:86 15:15 16:0 #
1.9666858445197021492983240672364e-07 1:0 2:70 3:0 4:0 5:0 6:94 7:0 8:9 9:0 10:53 11:0 12:0 13:0 14:84 15:0 16:3 #
-1.9666858445197021492983240672364e-07 1:2345 2:121 3:497 4:856 5:1250 6:93 7:35 8:2615 9:0 10:74 11:30 12:0 13:0 14:73 15:34 16:0 #
-1.9666858445197021492983240672364e-07 1:0 2:25 3:2 4:0 5:0 6:0 7:0 8:0 9:0 10:27 11:2 12:0 13:0 14:0 15:0 16:0 #
-1.9666858445197021492983240672364e-07 1:0 2:15 3:0 4:0 5:0 6:0 7:0 8:0 9:0 10:15 11:0 12:0 13:0 14:105 15:0 16:0 #
-1.9666858445197021492983240672364e-07 1:1 2:7 3:6 4:0 5:0 6:2 7:1 8:0 9:18 10:3 11:2 12:0 13:3 14:0 15:1 16:0 #
1.9666858445197021492983240672364e-07 1:0 2:84 3:0 4:3 5:0 6:80 7:0 8:6 9:0 10:97 11:0 12:3 13:0 14:61 15:0 16:4 #
-1.9666858445197021492983240672364e-07 1:0 2:0 3:0 4:0 5:0 6:0 7:0 8:0 9:0 10:19 11:0 12:0 13:0 14:76 15:0 16:0 #
1.9666858445197021492983240672364e-07 1:2 2:43 3:21 4:0 5:0 6:58 7:14 8:0 9:1 10:19 11:7 12:0 13:0 14:48 15:18 16:0 #
-1.9666858445197021492983240672364e-07 1:0 2:29 3:0 4:0 5:0 6:0 7:0 8:0 9:0 10:9 11:2 12:0 13:0 14:54 15:1 16:0 #
1.9666858445197021492983240672364e-07 1:0 2:45 3:19 4:0 5:0 6:47 7:22 8:0 9:1 10:48 11:13 12:0 13:0 14:47 15:4 16:0 #
-1.9666858445197021492983240672364e-07 1:0 2:0 3:0 4:0 5:0 6:0 7:0 8:0 9:0 10:20 11:6 12:0 13:0 14:33 15:0 16:0 #
1.9666858445197021492983240672364e-07 1:0 2:53 3:0 4:0 5:0 6:84 7:0 8:3 9:0 10:80 11:0 12:6 13:0 14:97 15:0 16:3 #
1.9666858445197021492983240672364e-07 1:0 2:28 3:6 4:0 5:72 6:10 7:4 8:0 9:25 10:34 11:15 12:0 13:115 14:41 15:15 16:0 #
-1.9666858445197021492983240672364e-07 1:0 2:0 3:0 4:0 5:0 6:0 7:0 8:0 9:0 10:11 11:0 12:0 13:0 14:76 15:8 16:0 #
-1.9666858445197021492983240672364e-07 1:0 2:11 3:0 4:0 5:0 6:0 7:0 8:0 9:0 10:30 11:0 12:0 13:0 14:69 15:0 16:0 #
-1.9666858445197021492983240672364e-07 1:0 2:0 3:0 4:0 5:0 6:0 7:0 8:0 9:0 10:32 11:0 12:0 13:0 14:111 15:0 16:0 #
1.9666858445197021492983240672364e-07 1:2 2:26 3:5 4:0 5:0 6:61 7:12 8:0 9:1 10:43 11:14 12:0 13:0 14:54 15:23 16:1 #
1.9666858445197021492983240672364e-07 1:5 2:9 3:4 4:0 5:2 6:52 7:20 8:0 9:2 10:41 11:22 12:0 13:0 14:39 15:15 16:0 #
1.9666858445197021492983240672364e-07 1:0 2:48 3:13 4:0 5:0 6:54 7:12 8:0 9:0 10:41 11:14 12:1 13:0 14:56 15:14 16:0 #
-1.9666858445197021492983240672364e-07 1:0 2:27 3:2 4:0 5:0 6:0 7:0 8:0 9:0 10:18 11:1 12:0 13:0 14:24 15:0 16:0 #
1.9666858445197021492983240672364e-07 1:12 2:67 3:8 4:0 5:0 6:65 7:6 8:0 9:0 10:40 11:10 12:0 13:1 14:65 15:10 16:0 #
-1.9666858445197021492983240672364e-07 1:390 2:39 3:8 4:8 5:8 6:45 7:2 8:41 9:2 10:75 11:3 12:30 13:410 14:61 15:11 16:3 #
-1.9666858445197021492983240672364e-07 1:0 2:38 3:2 4:0 5:0 6:1 7:0 8:0 9:0 10:12 11:2 12:0 13:0 14:28 15:0 16:0 #
-1.9666858445197021492983240672364e-07 1:0 2:130 3:0 4:0 5:0 6:2 7:0 8:0 9:0 10:139 11:0 12:0 13:0 14:14 15:0 16:0 #
1.9666858445197021492983240672364e-07 1:0 2:62 3:15 4:0 5:1 6:45 7:18 8:0 9:4 10:47 11:5 12:0 13:0 14:28 15:5 16:0 #
1.9666858445197021492983240672364e-07 1:0 2:18 3:14 4:0 5:0 6:45 7:7 8:4 9:0 10:30 11:9 12:0 13:27 14:28 15:16 16:2 #
1.9666858445197021492983240672364e-07 1:0 2:32 3:3 4:0 5:0 6:24 7:9 8:0 9:0 10:7 11:1 12:0 13:0 14:6 15:119 16:0 #
-1.9666858445197021492983240672364e-07 1:0 2:15 3:0 4:0 5:0 6:13 7:0 8:0 9:0 10:10 11:0 12:0 13:0 14:17 15:0 16:0 #
1.9666858445197021492983240672364e-07 1:0 2:94 3:0 4:9 5:0 6:53 7:0 8:0 9:0 10:84 11:0 12:3 13:0 14:80 15:0 16:6 #
1.9666858445197021492983240672364e-07 1:0 2:50 3:18 4:0 5:0 6:26 7:10 8:0 9:1 10:41 11:7 12:0 13:70 14:5 15:9 16:0 #
-1.9666858445197021492983240672364e-07 1:0 2:0 3:0 4:0 5:0 6:9 7:0 8:0 9:0 10:0 11:0 12:0 13:1 14:65 15:11 16:0 #
-1.9666858445197021492983240672364e-07 1:0 2:88 3:0 4:0 5:0 6:11 7:0 8:0 9:0 10:0 11:0 12:0 13:0 14:30 15:0 16:0 #
1.9666858445197021492983240672364e-07 1:1 2:17 3:14 4:0 5:12 6:34 7:4 8:56 9:0 10:45 11:33 12:0 13:14 14:62 15:39 16:1 #
-1.9666858445197021492983240672364e-07 1:0 2:3 3:0 4:0 5:0 6:0 7:0 8:0 9:0 10:35 11:1 12:0 13:0 14:92 15:0 16:0 #
1.9666858445197021492983240672364e-07 1:0 2:96 3:10 4:0 5:0 6:41 7:7 8:0 9:0 10:28 11:5 12:0 13:10 14:27 15:5 16:0 #
1.9666858445197021492983240672364e-07 1:0 2:48 3:12 4:0 5:0 6:37 7:10 8:0 9:0 10:42 11:6 12:0 13:1 14:48 15:10 16:0 #
-1.9666858445197021492983240672364e-07 1:0 2:1 3:0 4:0 5:0 6:12 7:2 8:0 9:0 10:28 11:0 12:0 13:0 14:10 15:0 16:0 #
-1.9666858445197021492983240672364e-07 1:0 2:0 3:0 4:0 5:0 6:12 7:0 8:0 9:0 10:42 11:0 12:0 13:0 14:27 15:0 16:0 #
-1.9666858445197021492983240672364e-07 1:0 2:0 3:0 4:0 5:0 6:0 7:0 8:0 9:0 10:75 11:0 12:0 13:0 14:115 15:0 16:0 #
-1.9666858445197021492983240672364e-07 1:0 2:0 3:0 4:0 5:0 6:0 7:0 8:0 9:0 10:19 11:2 12:0 13:0 14:118 15:8 16:0 #
1.9666858445197021492983240672364e-07 1:7 2:50 3:18 4:0 5:0 6:33 7:5 8:0 9:0 10:41 11:2 12:0 13:0 14:46 15:19 16:0 #
1.9666858445197021492983240672364e-07 1:6 2:47 3:6 4:0 5:4 6:27 7:5 8:0 9:8 10:32 11:16 12:0 13:5 14:34 15:11 16:0 #
1.9666858445197021492983240672364e-07 1:0 2:56 3:8 4:0 5:0 6:36 7:12 8:0 9:0 10:26 11:3 12:0 13:0 14:25 15:8 16:0 #
-1.9666858445197021492983240672364e-07 1:0 2:171 3:0 4:0 5:0 6:16 7:0 8:0 9:0 10:7 11:0 12:0 13:0 14:0 15:0 16:0 #
1.9666858445197021492983240672364e-07 1:3 2:17 3:8 4:0 5:6 6:12 7:6 8:0 9:4 10:37 11:13 12:0 13:3 14:69 15:31 16:2 #
-1.9666858445197021492983240672364e-07 1:0 2:0 3:0 4:0 5:0 6:18 7:1 8:0 9:0 10:24 11:0 12:0 13:0 14:0 15:0 16:0 #
1.9666858445197021492983240672364e-07 1:2 2:31 3:11 4:0 5:3 6:25 7:13 8:0 9:1 10:21 11:6 12:0 13:1 14:17 15:14 16:0 #
-1.9666858445197021492983240672364e-07 1:0 2:15 3:0 4:0 5:0 6:17 7:0 8:0 9:0 10:15 11:0 12:0 13:0 14:12 15:0 16:0 #
1.9666858445197021492983240672364e-07 1:0 2:33 3:14 4:0 5:5 6:31 7:5 8:0 9:0 10:16 11:8 12:0 13:0 14:21 15:1 16:0 #
-1.9666858445197021492983240672364e-07 1:1 2:9 3:3 4:0 5:9 6:4 7:0 8:0 9:1 10:16 11:4 12:0 13:0 14:13 15:6 16:0 #
1.9666858445197021492983240672364e-07 1:6 2:27 3:27 4:0 5:2 6:15 7:5 8:1 9:1 10:5 11:4 12:0 13:0 14:11 15:9 16:0 #
-1.9666858445197021492983240672364e-07 1:1 2:5 3:1 4:0 5:1 6:9 7:3 8:0 9:9 10:4 11:0 12:0 13:1 14:16 15:4 16:0 #
1.9666858445197021492983240672364e-07 1:0 2:29 3:5 4:0 5:2 6:26 7:5 8:0 9:0 10:61 11:12 12:0 13:1 14:43 15:14 16:0 #
1.9666858445197021492983240672364e-07 1:9 2:20 3:6 4:0 5:3 6:17 7:8 8:0 9:6 10:12 11:6 12:0 13:4 14:37 15:13 16:0 #
-1.9666858445197021492983240672364e-07 1:0 2:54 3:0 4:0 5:0 6:15 7:0 8:0 9:0 10:0 11:0 12:0 13:0 14:15 15:0 16:0 #
1.9666858445197021492983240672364e-07 1:0 2:37 3:7 4:0 5:0 6:18 7:14 8:0 9:0 10:45 11:7 12:4 13:0 14:30 15:9 16:0 #
1.9666858445197021492983240672364e-07 1:0 2:52 3:0 4:0 5:0 6:6 7:0 8:0 9:0 10:46 11:0 12:1 13:0 14:76 15:0 16:0 #
-1.9666858445197021492983240672364e-07 1:0 2:0 3:0 4:0 5:0 6:25 7:2 8:0 9:0 10:0 11:0 12:0 13:0 14:27 15:2 16:0 #
-1.9666858445197021492983240672364e-07 1:0 2:23 3:0 4:0 5:0 6:27 7:0 8:0 9:0 10:0 11:0 12:0 13:0 14:0 15:0 16:0 #
1.9666858445197021492983240672364e-07 1:0 2:22 3:7 4:0 5:0 6:24 7:5 8:0 9:0 10:32 11:13 12:0 13:0 14:27 15:11 16:0 #
-1.9666858445197021492983240672364e-07 1:0 2:22 3:7 4:0 5:0 6:13 7:0 8:0 9:0 10:0 11:0 12:0 13:0 14:9 15:0 16:0 #
1.9666858445197021492983240672364e-07 1:88 2:46 3:7 4:368 5:3 6:34 7:11 8:23 9:0 10:41 11:17 12:0 13:23 14:20 15:23 16:0 #
1.9666858445197021492983240672364e-07 1:3 2:42 3:6 4:0 5:1 6:16 7:5 8:0 9:1 10:28 11:6 12:0 13:0 14:34 15:3 16:0 #
-1.9666858445197021492983240672364e-07 1:0 2:0 3:0 4:0 5:0 6:27 7:2 8:0 9:0 10:0 11:0 12:0 13:0 14:18 15:1 16:0 #
1.9666858445197021492983240672364e-07 1:0 2:33 3:10 4:1 5:0 6:26 7:6 8:0 9:0 10:21 11:7 12:0 13:0 14:30 15:15 16:0 #
-1.9666858445197021492983240672364e-07 1:0 2:36 3:12 4:0 5:0 6:26 7:3 8:0 9:0 10:25 11:8 12:0 13:0 14:682 15:594 16:1 #
1.9666858445197021492983240672364e-07 1:0 2:40 3:7 4:0 5:0 6:27 7:2 8:0 9:2 10:20 11:9 12:0 13:0 14:10 15:4 16:0 #
-1.9666858445197021492983240672364e-07 1:0 2:31 3:0 4:0 5:0 6:29 7:0 8:0 9:0 10:0 11:0 12:0 13:0 14:0 15:0 16:0 #
1.9666858445197021492983240672364e-07 1:1 2:21 3:6 4:0 5:1 6:17 7:14 8:0 9:12 10:34 11:4 12:56 13:0 14:45 15:33 16:0 #
-1.9666858445197021492983240672364e-07 1:0 2:29 3:0 4:0 5:0 6:29 7:0 8:0 9:0 10:0 11:0 12:0 13:0 14:9 15:2 16:0 #
-1.9666858445197021492983240672364e-07 1:0 2:9 3:4 4:0 5:1 6:5 7:1 8:0 9:1 10:9 11:3 12:0 13:9 14:4 15:0 16:0 #
1.9666858445197021492983240672364e-07 1:5 2:34 3:11 4:0 5:2 6:11 7:5 8:28 9:1 10:20 11:9 12:0 13:3 14:43 15:13 16:0 #
-1.9666858445197021492983240672364e-07 1:1 2:20 3:2 4:1 5:0 6:10 7:8 8:0 9:0 10:2 11:3 12:0 13:1 14:9 15:4 16:0 #
1.9666858445197021492983240672364e-07 1:0 2:57 3:9 4:0 5:1 6:22 7:2 8:0 9:0 10:13 11:8 12:0 13:2 14:33 15:10 16:0 #
-1.9666858445197021492983240672364e-07 1:0 2:44 3:3 4:55 5:2 6:38 7:8 8:0 9:0 10:14 11:8 12:0 13:6 14:4 15:3 16:0 #
1.9666858445197021492983240672364e-07 1:0 2:12 3:4 4:0 5:2 6:7 7:7 8:0 9:0 10:13 11:4 12:0 13:6 14:27 15:27 16:0 #
-1.9666858445197021492983240672364e-07 1:0 2:10 3:7 4:0 5:0 6:9 7:4 8:0 9:1 10:5 11:1 12:0 13:1 14:9 15:3 16:0 #
1.9666858445197021492983240672364e-07 1:0 2:76 3:0 4:0 5:0 6:34 7:0 8:1 9:0 10:5 11:0 12:0 13:0 14:39 15:0 16:0 #
-1.9666858445197021492983240672364e-07 1:0 2:50 3:0 4:0 5:0 6:35 7:0 8:0 9:1 10:5 11:0 12:0 13:0 14:0 15:0 16:0 #
1.9666858445197021492983240672364e-07 1:0 2:0 3:1 4:0 5:0 6:0 7:4 8:0 9:0 10:0 11:2 12:0 13:0 14:53 15:8 16:2 #
-1.9666858445197021492983240672364e-07 1:0 2:12 3:2 4:0 5:0 6:28 7:0 8:0 9:0 10:10 11:0 12:0 13:0 14:0 15:0 16:0 #
1.9666858445197021492983240672364e-07 1:0 2:0 3:2 4:0 5:0 6:0 7:1 8:0 9:0 10:0 11:4 12:0 13:0 14:0 15:2 16:0 #
-1.9666858445197021492983240672364e-07 1:1 2:16 3:4 4:0 5:0 6:13 7:6 8:0 9:0 10:5 11:1 12:0 13:3 14:15 15:1 16:0 #
1.9666858445197021492983240672364e-07 1:0 2:0 3:0 4:0 5:0 6:0 7:0 8:0 9:0 10:0 11:0 12:0 13:0 14:0 15:0 16:0 #
-3.2182726830645120971054620273664e-09 1:0 2:65 3:1 4:0 5:0 6:1288 7:1056 8:1 9:0 10:238 11:205 12:0 13:1 14:91 15:13 16:0 #
-2.8480547960382128551371991309615e-09 1:0 2:40 3:5 4:0 5:12209 6:41 7:13 8:0 9:1 10:9 11:2 12:0 13:2 14:85 15:11 16:0 #
-1.5148763380514555844402226070233e-09 1:197 2:543 3:33 4:105 5:1 6:494 7:37 8:0 9:0 10:58 11:35 12:0 13:17 14:69 15:37 16:0 #
-2.0748242098203442441804016658276e-09 1:0 2:17 3:3 4:0 5:2 6:14000 7:13 8:0 9:0 10:101007 11:8 12:0 13:0 14:101013 15:13 16:0 #
-8.6346871819368011558037435959623e-10 1:0 2:51 3:9 4:0 5:0 6:904 7:1206 8:0 9:20 10:1519 11:1475 12:0 13:4 14:13 15:6 16:0 #
-1.3854784629663058885615860792682e-09 1:19 2:77518 3:8 4:0 5:39 6:49953 7:11 8:0 9:306 10:52 11:8 12:0 13:385 14:42 15:4 16:0 #
-1.1728485963274835436234006229989e-07 1:15 2:65 3:37 4:0 5:0 6:67 7:39 8:0 9:41 10:879 11:39 12:0 13:23338 14:98 15:39 16:0 #
-7.0304066437180908340933804638595e-08 1:107 2:112 3:28 4:0 5:23599 6:66 7:8 8:0 9:1 10:122 11:15 12:2 13:67 14:124 15:17 16:2 #
-1.8127915687924234945624886775582e-10 1:0 2:50584 3:7 4:0 5:0 6:49634 7:10 8:0 9:2 10:34 11:1 12:0 13:1 14:27 15:6 16:0 #
-7.9239359860298572748754403639176e-13 1:20 2:1519 3:1475 4:0 5:4 6:13 7:6 8:0 9:2 10:24 11:8 12:0 13:5 14:58 15:17 16:0 #
-1.9666858445197021492983240672364e-07 1:0 2:121 3:13 4:34 5:0 6:129 7:18 8:0 9:0 10:135 11:22 12:99 13:0 14:102 15:17 16:51 #
-1.098202683635161150361048916003e-10 1:0 2:38 3:13 4:0 5:0 6:29 7:3 8:0 9:8 10:26 11:2 12:29 13:629 14:32 15:10 16:0 #
-5.9697958062323717568406128745027e-09 1:39 2:49953 3:11 4:0 5:306 6:52 7:8 8:0 9:385 10:42 11:4 12:0 13:9 14:50 15:11 16:0 #
-2.0836924625694852674739985382013e-10 1:0 2:39 3:15 4:0 5:0 6:34 7:13 8:0 9:24 10:1890 11:1855 12:0 13:8 14:294 15:1 16:0 #
-2.0948994626137715669064438914898e-11 1:0 2:101007 3:8 4:0 5:0 6:101013 7:13 8:0 9:0 10:101014 11:5 12:0 13:19 14:77518 15:8 16:0 #
-4.349708571263909957598219752084e-12 1:0 2:101014 3:5 4:0 5:19 6:77518 7:8 8:0 9:39 10:49953 11:11 12:0 13:306 14:52 15:8 16:0 #
