SVM-light Version V6.02
0 # kernel type
3 # kernel parameter -d 
1 # kernel parameter -g 
1 # kernel parameter -s 
1 # kernel parameter -r 
empty# kernel parameter -u 
16 # highest feature index 
816 # number of training documents 
368 # number of support vectors plus 1 
1.0007286 # threshold b, each following line is a SV (starting with alpha*y)
-3.2436530754353669629186824067621e-08 1:0 2:54 3:0 4:0 5:0 6:63 7:3 8:0 9:0 10:186 11:0 12:0 13:0 14:7093 15:0 16:0 #
3.2436530754353669629186824067621e-08 1:0 2:186 3:0 4:0 5:0 6:7093 7:0 8:0 9:0 10:251 11:0 12:0 13:0 14:104 15:0 16:0 #
3.2436530754353669629186824067621e-08 1:0 2:76 3:7 4:0 5:0 6:107119 7:17 8:0 9:31 10:87 11:26 12:15 13:7057 14:113 15:37 16:0 #
3.2436530754353669629186824067621e-08 1:1 2:107 3:22 4:0 5:4726 6:83 7:26 8:3 9:0 10:76 11:7 12:0 13:0 14:107119 15:17 16:0 #
-3.081999271572111349926093026852e-08 1:82 2:136 3:161 4:0 5:519 6:13882 7:164 8:0 9:0 10:132 11:160 12:0 13:2 14:145 15:162 16:0 #
-1.1929855493551306776776367579718e-08 1:1274 2:25448 3:19 4:0 5:0 6:117081 7:19 8:0 9:3 10:66 11:7 12:0 13:0 14:1419 15:1295 16:0 #
-3.2436530754353669629186824067621e-08 1:107 2:192 3:74 4:0 5:23600 6:234 7:32 8:2 9:67 10:127 11:20 12:2 13:0 14:74 15:15 16:0 #
3.2436530754353669629186824067621e-08 1:0 2:107119 3:17 4:0 5:31 6:87 7:26 8:15 9:7057 10:113 11:37 12:0 13:0 14:122 15:32 16:1 #
-3.2436530754353669629186824067621e-08 1:0 2:169 3:90 4:0 5:107 6:192 7:74 8:0 9:23600 10:234 11:32 12:2 13:67 14:127 15:20 16:2 #
3.2436530754353669629186824067621e-08 1:5169 2:205 3:102 4:0 5:42 6:207 7:99 8:0 9:174 10:312 11:91 12:0 13:0 14:706 15:76 16:0 #
-1.4613344042514625466404917623897e-08 1:96 2:54 3:21 4:0 5:3 6:81 7:43 8:0 9:0 10:114 11:19 12:0 13:2 14:148689 15:25 16:0 #
3.2436530754353669629186824067621e-08 1:10068 2:142 3:169 4:1 5:7742 6:200 7:168 8:94 9:9 10:238 11:251 12:205 13:4 14:155 15:171 16:5 #
-4.3554370694024240279283027854618e-09 1:0 2:117081 3:19 4:0 5:3 6:66 7:7 8:0 9:0 10:1419 11:1295 12:0 13:0 14:88 15:14 16:0 #
3.2436530754353669629186824067621e-08 1:17 2:181 3:149 4:5 5:24 6:149 7:207 8:8 9:0 10:6844 11:1068 12:4 13:0 14:0 15:3 16:0 #
3.2436530754353669629186824067621e-08 1:18 2:168 3:128 4:0 5:1 6:101 7:138 8:0 9:4 10:135 11:158 12:0 13:0 14:144 15:160 16:0 #
-3.2436530754353669629186824067621e-08 1:212 2:52 3:24 4:0 5:536 6:129 7:24 8:1 9:300 10:37 11:15 12:12 13:146 14:74 15:28 16:20 #
-7.7723618859286846189310437107989e-10 1:3 2:81 3:43 4:0 5:0 6:114 7:19 8:0 9:2 10:148689 11:25 12:0 13:0 14:229095 15:21 16:0 #
-3.0585192741978243932904693580532e-08 1:56 2:158 3:87 4:0 5:41 6:967 7:93 8:0 9:23356 10:164 11:86 12:0 13:10 14:125 15:86 16:0 #
-1.7585319726978303082517827602912e-08 1:3 2:120 3:14 4:3 5:9 6:87 7:15 8:0 9:12210 10:69 11:20 12:0 13:11857 14:142 15:17 16:0 #
-1.0670189092530646401968397185556e-08 1:0 2:210 3:0 4:0 5:0 6:7162 7:0 8:0 9:0 10:20 11:0 12:0 13:0 14:216 15:0 16:0 #
-1.9391879809916304646670619704282e-08 1:7058 2:105 3:17 4:0 5:70 6:56 7:11 8:0 9:145 10:71 11:18 12:0 13:2 14:46 15:12 16:0 #
-2.7472385538761790932600601630557e-08 1:2 2:84 3:13 4:55 5:14 6:21 7:11 8:0 9:11977 10:99 11:8 12:0 13:0 14:75 15:19 16:0 #
-3.2436530754353669629186824067621e-08 1:1 2:114 3:29 4:1 5:3 6:159 7:32 8:0 9:5 10:109 11:25 12:0 13:123 14:93 15:7 16:0 #
-1.1626277240238819661545185968343e-08 1:10 2:137 3:31 4:1 5:0 6:107 7:24 8:0 9:7 10:2442 11:2672 12:0 13:19 14:37 15:31 16:0 #
-3.2436530754353669629186824067621e-08 1:2 2:68 3:15 4:0 5:8 6:1437 7:2148 8:2 9:2 10:47 11:25 12:0 13:0 14:13 15:8 16:674 #
3.2436530754353669629186824067621e-08 1:427 2:121 3:161 4:0 5:10068 6:142 7:169 8:1 9:7742 10:200 11:168 12:94 13:9 14:238 15:251 16:205 #
-3.2436530754353669629186824067621e-08 1:9 2:238 3:251 4:205 5:4 6:155 7:171 8:5 9:1884 10:190 11:166 12:7 13:15256 14:127 15:168 16:0 #
3.2436530754353669629186824067621e-08 1:12463 2:202 3:85 4:5 5:0 6:136 7:86 8:0 9:0 10:173 11:89 12:0 13:0 14:125 15:82 16:0 #
-3.2436530754353669629186824067621e-08 1:0 2:216 3:0 4:0 5:0 6:229 7:0 8:4 9:0 10:7272 11:0 12:9 13:0 14:146 15:0 16:0 #
-3.2381350946748884839334118018045e-08 1:5477 2:359 3:43 4:7 5:26 6:110 7:21 8:0 9:32 10:165 11:29 12:0 13:189 14:191 15:37 16:2 #
3.2436530754353669629186824067621e-08 1:9 2:87 3:15 4:0 5:12210 6:69 7:20 8:0 9:11857 10:142 11:17 12:0 13:2 14:144 15:22 16:0 #
3.2436530754353669629186824067621e-08 1:0 2:833 3:88 4:0 5:15 6:166 7:98 8:1 9:3103 10:4518 11:107 12:0 13:7042 14:265 15:159 16:1 #
3.2436530754353669629186824067621e-08 1:0 2:875 3:0 4:0 5:0 6:3458 7:0 8:0 9:0 10:5193 11:0 12:3 13:0 14:170 15:0 16:9 #
3.2436530754353669629186824067621e-08 1:6 2:1210 3:156 4:2 5:0 6:833 7:88 8:0 9:15 10:166 11:98 12:1 13:3103 14:4518 15:107 16:0 #
3.2436530754353669629186824067621e-08 1:1 2:70 3:21 4:0 5:8 6:98 7:44 8:0 9:0 10:92 11:23 12:1 13:7063 14:64 15:23 16:0 #
-1.2449140961429753999716321612081e-08 1:4 2:135 3:158 4:0 5:0 6:144 7:160 8:0 9:32 10:1357 11:1288 12:4 13:81 14:92 15:70 16:0 #
-3.2436530754353669629186824067621e-08 1:3103 2:4518 3:107 4:0 5:7042 6:265 7:159 8:1 9:17 10:437 11:176 12:1 13:0 14:1985 15:170 16:0 #
-3.2436530754340765611630996835893e-08 1:2974 2:78 3:5 4:0 5:4848 6:66 7:12 8:0 9:6 10:54 11:13 12:0 13:17 14:45 15:9 16:0 #
3.2436530754353669629186824067621e-08 1:1535 2:255 3:107 4:1 5:0 6:169 7:90 8:0 9:107 10:192 11:74 12:0 13:23600 14:234 15:32 16:2 #
3.2436530754353669629186824067621e-08 1:7042 2:265 3:159 4:1 5:17 6:437 7:176 8:1 9:0 10:1985 11:170 12:0 13:0 14:645 15:153 16:0 #
3.2436530754353669629186824067621e-08 1:3453 2:150 3:156 4:0 5:259 6:174 7:169 8:25 9:7080 10:195 11:158 12:0 13:72 14:162 15:166 16:0 #
3.2436530754353669629186824067621e-08 1:3468 2:329 3:100 4:1 5:188 6:15859 7:75 8:2 9:1189 10:419 11:91 12:0 13:206 14:363 15:98 16:0 #
-3.2436530754353669629186824067621e-08 1:177 2:419 3:135 4:25 5:205 6:472 7:165 8:58 9:99 10:405 11:160 12:49 13:7193 14:428 15:83 16:0 #
3.2436530754353669629186824067621e-08 1:240 2:103 3:102 4:0 5:56 6:70 7:88 8:0 9:217 10:86 11:100 12:0 13:64 14:78 15:109 16:1 #
3.2436530754353669629186824067621e-08 1:443 2:2016 3:1619 4:0 5:427 6:121 7:161 8:0 9:10068 10:142 11:169 12:1 13:7742 14:200 15:168 16:94 #
3.2436530754353669629186824067621e-08 1:7245 2:97 3:20 4:3 5:102 6:98 7:15 8:0 9:8 10:64 11:14 12:0 13:251 14:121 15:35 16:0 #
3.2436530754353669629186824067621e-08 1:120 2:615 3:92 4:0 5:216 6:319 7:86 8:1 9:7084 10:2223 11:109 12:0 13:46 14:232 15:97 16:0 #
3.2436530754353669629186824067621e-08 1:107 2:81 3:26 4:0 5:0 6:118 7:22 8:0 9:3 10:76 11:80 12:0 13:0 14:96 15:22 16:0 #
-3.2436530754353669629186824067621e-08 1:2 2:148 3:36 4:1 5:71 6:146 7:54 8:0 9:116 10:123 11:28 12:0 13:0 14:87 15:33 16:0 #
3.2436530754353669629186824067621e-08 1:5836 2:44 3:6 4:0 5:10 6:61 7:14 8:0 9:14 10:90 11:21 12:0 13:11 14:58 15:20 16:0 #
3.2436530754353669629186824067621e-08 1:612 2:516 3:563 4:1 5:443 6:2016 7:1619 8:0 9:427 10:121 11:161 12:0 13:10068 14:142 15:169 16:1 #
3.2436530754353669629186824067621e-08 1:205 2:472 3:165 4:58 5:99 6:405 7:160 8:49 9:7193 10:428 11:83 12:0 13:1 14:325 15:112 16:0 #
3.2436530754353669629186824067621e-08 1:5971 2:174 3:22 4:0 5:7064 6:96 7:32 8:0 9:0 10:89 11:28 12:0 13:4 14:105 15:29 16:0 #
3.2436530754353669629186824067621e-08 1:216 2:319 3:86 4:1 5:7084 6:2223 7:109 8:0 9:46 10:232 11:97 12:0 13:8 14:6929 15:91 16:5 #
3.2436530754353669629186824067621e-08 1:8 2:98 3:44 4:0 5:0 6:92 7:23 8:1 9:7063 10:64 11:23 12:0 13:0 14:78 15:22 16:4 #
3.2436530754353669629186824067621e-08 1:3805 2:188 3:91 4:0 5:37 6:3495 7:97 8:2 9:6 10:1210 11:156 12:2 13:0 14:833 15:88 16:0 #
-3.2436530754353669629186824067621e-08 1:6112 2:155 3:22 4:0 5:1 6:96 7:30 8:0 9:0 10:99 11:44 12:0 13:0 14:90 15:27 16:156 #
3.2436530754353669629186824067621e-08 1:123 2:93 3:7 4:0 5:2 6:68 7:15 8:0 9:8 10:1437 11:2148 12:2 13:2 14:47 15:25 16:0 #
3.2436530754353669629186824067621e-08 1:36 2:19 3:2 4:0 5:1 6:77 7:12 8:0 9:5 10:51 11:23 12:0 13:13 14:54 15:19 16:56 #
-3.236808379519869892871952515509e-08 1:5856 2:208 3:41 4:1 5:0 6:75 7:17 8:0 9:4 10:119 11:31 12:0 13:94 14:97 15:33 16:1 #
3.2436530754353669629186824067621e-08 1:4 2:102 3:26 4:0 5:844 6:79 7:31 8:0 9:840 10:84 11:30 12:0 13:0 14:108 15:20 16:0 #
1.8642005993482297561351354380985e-08 1:2346 2:218 3:526 4:3466 5:1250 6:182 7:80 8:5 9:0 10:224 11:60 12:0 13:1030 14:1379 15:202 16:14099 #
-3.2436530754353669629186824067621e-08 1:5 2:180 3:86 4:0 5:2 6:129 7:82 8:1 9:98 10:1331 11:1251 12:7 13:391 14:145 15:57 16:9 #
3.2436530754353669629186824067621e-08 1:206 2:0 3:87 4:460 5:492 6:1106 7:969 8:621 9:1519 10:119 11:25 12:0 13:849 14:105 15:17 16:34 #
-3.0386377052746630229558902347442e-08 1:4848 2:66 3:12 4:0 5:6 6:54 7:13 8:0 9:17 10:45 11:9 12:0 13:38 14:85 15:16 16:0 #
-3.2090172686267291678763346508829e-08 1:7063 2:64 3:23 4:0 5:0 6:78 7:22 8:4 9:31 10:87 11:29 12:3 13:5973 14:100 15:28 16:1 #
3.2436530754353669629186824067621e-08 1:5455 2:94 3:76 4:2 5:240 6:103 7:102 8:0 9:56 10:70 11:88 12:0 13:217 14:86 15:100 16:0 #
-3.2436530754353669629186824067621e-08 1:7193 2:428 3:83 4:0 5:1 6:325 7:112 8:0 9:4 10:1178 11:877 12:127 13:192 14:886 15:370 16:0 #
3.2436530754353669629186824067621e-08 1:188 2:15859 3:75 4:2 5:1189 6:419 7:91 8:0 9:206 10:363 11:98 12:0 13:177 14:419 15:135 16:25 #
-3.2436530754353669629186824067621e-08 1:5973 2:100 3:28 4:1 5:20 6:78 7:15 8:0 9:0 10:59 11:23 12:0 13:31 14:103 15:31 16:0 #
3.2436530754353669629186824067621e-08 1:5293 2:47 3:7 4:0 5:15 6:72 7:14 8:0 9:1 10:111 11:14 12:0 13:3 14:50 15:18 16:0 #
-3.242627628601491930542696459118e-08 1:5097 2:172 3:33 4:0 5:1 6:192 7:21 8:0 9:0 10:389 11:30 12:0 13:0 14:261 15:29 16:0 #
3.2436530754353669629186824067621e-08 1:1519 2:119 3:25 4:0 5:849 6:105 7:17 8:34 9:413 10:163 11:14 12:48 13:638 14:440 15:46 16:0 #
-3.2436530754353669629186824067621e-08 1:7742 2:200 3:168 4:94 5:9 6:238 7:251 8:205 9:4 10:155 11:171 12:5 13:1884 14:190 15:166 16:7 #
-2.1634248462478109851766448464352e-08 1:6851 2:172 3:174 4:0 5:164 6:94 7:161 8:1 9:193 10:154 11:132 12:2 13:76 14:146 15:59 16:0 #
3.2436530754353669629186824067621e-08 1:24 2:473 3:285 4:0 5:0 6:170 7:84 8:0 9:3805 10:188 11:91 12:0 13:37 14:3495 15:97 16:2 #
-1.8039151187180634938050927118525e-08 1:41 2:967 3:93 4:0 5:23356 6:164 7:86 8:0 9:10 10:125 11:86 12:0 13:1 14:136 15:89 16:0 #
-8.9013887425476076985242368522222e-11 1:4726 2:83 3:26 4:3 5:0 6:76 7:7 8:0 9:0 10:107119 11:17 12:0 13:31 14:87 15:26 16:15 #
3.2436530754353669629186824067621e-08 1:1399 2:136 3:79 4:0 5:334 6:172 7:108 8:0 9:263 10:108 11:122 12:0 13:3453 14:150 15:156 16:0 #
-2.8737325665502942859184080546739e-08 1:7 2:2442 3:2672 4:0 5:19 6:37 7:31 8:0 9:7 10:110 11:27 12:0 13:1 14:86 15:19 16:0 #
3.2436530754353669629186824067621e-08 1:84 2:144 3:24 4:2 5:7118 6:152 7:48 8:0 9:643 10:160 11:41 12:0 13:152 14:178 15:30 16:0 #
-3.2436530754353669629186824067621e-08 1:7080 2:195 3:158 4:0 5:72 6:162 7:166 8:0 9:1 10:146 11:152 12:1 13:440 14:140 15:148 16:17 #
-3.2435635788117980417191287684231e-08 1:0 2:118 3:0 4:0 5:0 6:7222 7:0 8:0 9:0 10:210 11:0 12:0 13:0 14:7162 15:0 16:0 #
3.2436530754353669629186824067621e-08 1:259 2:174 3:169 4:25 5:7080 6:195 7:158 8:0 9:72 10:162 11:166 12:0 13:1 14:146 15:152 16:1 #
-2.8923134734303569016867414853168e-08 1:0 2:107 3:24 4:0 5:7 6:2442 7:2672 8:0 9:19 10:37 11:31 12:0 13:7 14:110 15:27 16:0 #
-3.2436530754353669629186824067621e-08 1:0 2:6844 3:1068 4:4 5:0 6:0 7:3 8:0 9:54 10:440 11:151 12:9 13:16 14:318 15:363 16:2772 #
3.2436530754353669629186824067621e-08 1:484 2:121 3:167 4:0 5:0 6:115 7:163 8:0 9:204 10:134 11:165 12:0 13:6851 14:172 15:174 16:0 #
-3.2436530754353669629186824067621e-08 1:0 2:137 3:94 4:1 5:0 6:175 7:105 8:0 9:0 10:85 11:85 12:0 13:7 14:1259 15:1031 16:2436 #
3.2436530754353669629186824067621e-08 1:1 2:62 3:12 4:0 5:7051 6:113 7:28 8:0 9:1 10:129 11:25 12:0 13:0 14:74 15:18 16:0 #
-1.018952737302983120428225818823e-08 1:1030 2:1379 3:202 4:14099 5:129 6:195 7:65 8:13 9:0 10:213 11:29 12:1 13:0 14:165 15:22 16:0 #
3.2436530754353669629186824067621e-08 1:7 2:1259 3:1031 4:2436 5:24 6:473 7:285 8:0 9:0 10:170 11:84 12:0 13:3805 14:188 15:91 16:0 #
3.2436530754353669629186824067621e-08 1:1189 2:419 3:91 4:0 5:206 6:363 7:98 8:0 9:177 10:419 11:135 12:25 13:205 14:472 15:165 16:58 #
-2.1407984136590491974598549074216e-08 1:4 2:155 3:171 4:5 5:1884 6:190 7:166 8:7 9:15256 10:127 11:168 12:0 13:484 14:121 15:167 16:0 #
3.2436530754353669629186824067621e-08 1:0 2:277 3:44 4:150 5:2346 6:218 7:526 8:3466 9:1250 10:182 11:80 12:5 13:0 14:224 15:60 16:0 #
-2.4985819512920895250907005191721e-08 1:12 2:250 3:84 4:0 5:12463 6:202 7:85 8:5 9:0 10:136 11:86 12:0 13:0 14:173 15:89 16:0 #
-3.2436530754353669629186824067621e-08 1:2 2:72 3:11 4:0 5:3 6:70 7:17 8:0 9:1 10:127 11:35 12:0 13:2 14:130 15:54 16:298 #
-3.2436530754353669629186824067621e-08 1:3 2:181 3:27 4:0 5:51 6:117 7:35 8:0 9:0 10:121 11:24 12:0 13:109 14:109 15:29 16:392 #
3.2436530754353669629186824067621e-08 1:0 2:115 3:163 4:0 5:204 6:134 7:165 8:0 9:6851 10:172 11:174 12:0 13:164 14:94 15:161 16:1 #
-3.2436530754353669629186824067621e-08 1:0 2:124 3:54 4:0 5:30 6:23 7:65 8:0 9:206 10:0 11:87 12:460 13:492 14:1106 15:969 16:621 #
3.0398122976737770179255984778419e-08 1:1250 2:182 3:80 4:5 5:0 6:224 7:60 8:0 9:1030 10:1379 11:202 12:14099 13:129 14:195 15:65 16:13 #
-3.2436530754353669629186824067621e-08 1:0 2:301 3:41 4:0 5:0 6:277 7:44 8:150 9:2346 10:218 11:526 12:3466 13:1250 14:182 15:80 16:5 #
-3.2436530754353669629186824067621e-08 1:19 2:317 3:97 4:0 5:5 6:249 7:89 8:2 9:12 10:250 11:84 12:0 13:12463 14:202 15:85 16:5 #
-3.2436530754353669629186824067621e-08 1:0 2:0 3:3 4:0 5:54 6:440 7:151 8:9 9:16 10:318 11:363 12:2772 13:151 14:292 15:84 16:0 #
3.2436530754353669629186824067621e-08 1:852 2:130 3:19 4:0 5:419 6:168 7:15 8:0 9:104 10:308 11:56 12:238 13:0 14:301 15:41 16:0 #
-3.2436530754353669629186824067621e-08 1:0 2:175 3:105 4:0 5:0 6:85 7:85 8:0 9:7 10:1259 11:1031 12:2436 13:24 14:473 15:285 16:0 #
-3.2436530754353669629186824067621e-08 1:0 2:120 3:0 4:0 5:1 6:74 7:5 8:0 9:2 10:90 11:11 12:0 13:0 14:225 15:0 16:0 #
3.2436530754353669629186824067621e-08 1:35 2:1660 3:96 4:0 5:29 6:225 7:100 8:0 9:32 10:312 11:94 12:190 13:3468 14:329 15:100 16:1 #
3.2436530754353669629186824067621e-08 1:0 2:92 3:23 4:1 5:7063 6:64 7:23 8:0 9:0 10:78 11:22 12:4 13:31 14:87 15:29 16:3 #
3.2436530754353669629186824067621e-08 1:30 2:23 3:65 4:0 5:206 6:0 7:87 8:460 9:492 10:1106 11:969 12:621 13:1519 14:119 15:25 16:0 #
-2.8550006885845922056444125768614e-08 1:14 2:21 3:11 4:0 5:11977 6:99 7:8 8:0 9:0 10:75 11:19 12:0 13:159 14:160 15:14 16:0 #
-3.2436530754353669629186824067621e-08 1:0 2:121 3:24 4:0 5:109 6:109 7:29 8:392 9:22 10:81 11:39 12:0 13:94 14:83 15:30 16:498 #
-3.2436530754353669629186824067621e-08 1:0 2:170 3:0 4:9 5:0 6:148 7:0 8:3 9:0 10:192 11:0 12:11 13:0 14:126 15:0 16:5 #
-3.2436530754353669629186824067621e-08 1:0 2:89 3:0 4:0 5:0 6:72 7:0 8:0 9:0 10:18 11:0 12:0 13:0 14:0 15:0 16:0 #
-7.4885246323869788121624369026108e-09 1:38 2:85 3:16 4:0 5:21 6:36 7:9 8:0 9:0 10:30 11:18 12:0 13:5836 14:44 15:6 16:0 #
-3.2436530754353669629186824067621e-08 1:32 2:2215 3:1869 4:0 5:4 6:60 7:16 8:0 9:60 10:104 11:15 12:0 13:0 14:60 15:16 16:0 #
-3.2436530754353669629186824067621e-08 1:3 2:70 3:17 4:0 5:1 6:127 7:35 8:0 9:2 10:130 11:54 12:298 13:4 14:111 15:44 16:0 #
-2.7813260558752264200659164096636e-08 1:1884 2:190 3:166 4:7 5:15256 6:127 7:168 8:0 9:484 10:121 11:167 12:0 13:0 14:115 15:163 16:0 #
3.2436530754353669629186824067621e-08 1:4 2:183 3:211 4:2 5:612 6:516 7:563 8:1 9:443 10:2016 11:1619 12:0 13:427 14:121 15:161 16:0 #
3.2436530754353669629186824067621e-08 1:0 2:69 3:24 4:0 5:6112 6:155 7:22 8:0 9:1 10:96 11:30 12:0 13:0 14:99 15:44 16:0 #
3.2436530754353669629186824067621e-08 1:22 2:115 3:8 4:0 5:41 6:169 7:32 8:0 9:0 10:136 11:23 12:0 13:0 14:1602 15:1288 16:1 #
3.2436530754353669629186824067621e-08 1:24 2:149 3:207 4:8 5:0 6:6844 7:1068 8:4 9:0 10:0 11:3 12:0 13:54 14:440 15:151 16:9 #
-3.2436530754353669629186824067621e-08 1:0 2:55 3:14 4:0 5:1 6:1763 7:1246 8:3 9:8 10:57 11:25 12:250 13:2 14:84 15:13 16:55 #
3.2436530754353669629186824067621e-08 1:0 2:7093 3:0 4:0 5:0 6:251 7:0 8:0 9:0 10:104 11:0 12:0 13:0 14:104 15:0 16:1 #
3.2436530754353669629186824067621e-08 1:0 2:29 3:0 4:0 5:0 6:875 7:0 8:0 9:0 10:3458 11:0 12:0 13:0 14:5193 15:0 16:3 #
3.2436530754353669629186824067621e-08 1:0 2:70 3:11 4:0 5:2 6:51 7:18 8:1 9:0 10:55 11:14 12:0 13:1 14:1763 15:1246 16:3 #
3.2436530754353669629186824067621e-08 1:605 2:233 3:89 4:1 5:391 6:258 7:98 8:0 9:226 10:591 11:96 12:0 13:120 14:615 15:92 16:0 #
3.2436530754353669629186824067621e-08 1:751 2:1140 3:1901 4:1 5:6 6:293 7:32 8:0 9:0 10:75 11:18 12:29 13:731 14:85 15:23 16:0 #
-3.2425775075636514820810057686123e-08 1:714 2:286 3:23 4:0 5:5097 6:172 7:33 8:0 9:1 10:192 11:21 12:0 13:0 14:389 15:30 16:0 #
3.2436530754353669629186824067621e-08 1:0 2:389 3:30 4:0 5:0 6:261 7:29 8:0 9:0 10:401 11:65 12:0 13:19 14:317 15:97 16:0 #
-3.2436530754353669629186824067621e-08 1:0 2:61 3:22 4:0 5:0 6:73 7:24 8:0 9:32 10:2215 11:1869 12:0 13:4 14:60 15:16 16:0 #
3.2436530754353669629186824067621e-08 1:1 2:194 3:173 4:0 5:5856 6:208 7:41 8:1 9:0 10:75 11:17 12:0 13:4 14:119 15:31 16:0 #
-7.708980804122713083139391396139e-09 1:0 2:224 3:60 4:0 5:1030 6:1379 7:202 8:14099 9:129 10:195 11:65 12:13 13:0 14:213 15:29 16:1 #
-3.2436530754353669629186824067621e-08 1:0 2:120 3:0 4:0 5:0 6:415 7:0 8:0 9:0 10:143 11:0 12:0 13:0 14:87 15:0 16:188 #
3.2436530754353669629186824067621e-08 1:0 2:154 3:96 4:0 5:0 6:151 7:94 8:1 9:0 10:4902 11:96 12:0 13:0 14:1249 15:86 16:0 #
-3.1951676227870824892676737682962e-08 1:0 2:1602 3:1288 4:1 5:67 6:75 7:10 8:1 9:4 10:197 11:54 12:0 13:29 14:182 15:31 16:0 #
3.2436530754353669629186824067621e-08 1:0 2:148 3:28 4:0 5:5477 6:359 7:43 8:7 9:26 10:110 11:21 12:0 13:32 14:165 15:29 16:0 #
-3.2436530754353669629186824067621e-08 1:1 2:96 3:30 4:0 5:0 6:99 7:44 8:0 9:0 10:90 11:27 12:156 13:0 14:88 15:22 16:0 #
-3.2436530754353669629186824067621e-08 1:0 2:415 3:0 4:0 5:0 6:143 7:0 8:0 9:0 10:87 11:0 12:188 13:0 14:60 15:0 16:0 #
3.2436530754353669629186824067621e-08 1:276 2:1993 3:78 4:261 5:18 6:581 7:87 8:0 9:0 10:359 11:87 12:0 13:48 14:997 15:94 16:51 #
3.2436530754353669629186824067621e-08 1:0 2:74 3:18 4:0 5:0 6:1224 7:1117 8:1 9:16 10:37 11:13 12:0 13:0 14:87 15:92 16:0 #
-3.1151733661606368296862618061382e-08 1:0 2:8 3:0 4:0 5:0 6:30 7:0 8:0 9:0 10:473 11:0 12:0 13:0 14:0 15:0 16:0 #
-2.4208417642598466369082711984601e-10 1:364 2:66773 3:20 4:0 5:547 6:126 7:20 8:0 9:1274 10:25448 11:19 12:0 13:0 14:117081 15:19 16:0 #
3.2436530754353669629186824067621e-08 1:0 2:3458 3:0 4:0 5:0 6:5193 7:0 8:3 9:0 10:170 11:0 12:9 13:0 14:148 15:0 16:3 #
-3.0582769230264039705957657133695e-08 1:0 2:229 3:0 4:4 5:0 6:7272 7:0 8:9 9:0 10:146 11:0 12:0 13:0 14:49 15:0 16:0 #
3.2436530754353669629186824067621e-08 1:353 2:208 3:47 4:0 5:1111 6:328 7:60 8:0 9:852 10:130 11:19 12:0 13:419 14:168 15:15 16:0 #
-3.2436530754353669629186824067621e-08 1:0 2:18 3:2 4:0 5:751 6:1140 7:1901 8:1 9:6 10:293 11:32 12:0 13:0 14:75 15:18 16:29 #
-3.2434461812376173185379086682384e-08 1:12 2:1652 3:1267 4:3 5:67 6:34 7:9 8:0 9:89 10:35 11:11 12:0 13:43 14:37 15:15 16:0 #
-3.2436530754353669629186824067621e-08 1:8 2:834 3:721 4:1 5:121 6:689 7:592 8:2 9:8 10:90 11:23 12:0 13:0 14:73 15:15 16:0 #
-3.2436530754353669629186824067621e-08 1:0 2:1481 3:1236 4:1 5:2 6:236 7:46 8:0 9:65 10:266 11:58 12:0 13:0 14:55 15:28 16:0 #
3.2436530754353669629186824067621e-08 1:94 2:118 3:86 4:0 5:276 6:1993 7:78 8:261 9:18 10:581 11:87 12:0 13:0 14:359 15:87 16:0 #
3.2436530754353669629186824067621e-08 1:0 2:117 3:22 4:23 5:0 6:18 7:2 8:0 9:751 10:1140 11:1901 12:1 13:6 14:293 15:32 16:0 #
3.2436530754353669629186824067621e-08 1:419 2:168 3:15 4:0 5:104 6:308 7:56 8:238 9:0 10:301 11:41 12:0 13:0 14:277 15:44 16:150 #
-3.242858796716650133919740829451e-08 1:0 2:72 3:0 4:0 5:0 6:18 7:0 8:0 9:0 10:0 11:0 12:0 13:0 14:173 15:0 16:0 #
3.2436530754353669629186824067621e-08 1:8 2:1437 3:2148 4:2 5:2 6:47 7:25 8:0 9:0 10:13 11:8 12:674 13:0 14:0 15:6 16:0 #
-3.2436530754353669629186824067621e-08 1:34 2:113 3:24 4:0 5:2 6:65 7:11 8:0 9:0 10:1861 11:1831 12:26 13:21 14:5 15:2 16:0 #
3.2436530754353669629186824067621e-08 1:6 2:1140 3:846 4:1 5:53 6:803 7:671 8:1 9:429 10:244 11:165 12:0 13:25 14:385 15:237 16:1 #
-3.2019757324674594431209860741216e-08 1:0 2:30 3:18 4:0 5:5836 6:44 7:6 8:0 9:10 10:61 11:14 12:0 13:14 14:90 15:21 16:0 #
3.2436530754353669629186824067621e-08 1:7 2:269 3:202 4:17 5:6 6:1140 7:846 8:1 9:53 10:803 11:671 12:1 13:429 14:244 15:165 16:0 #
-3.2436530754353669629186824067621e-08 1:68 2:218 3:31 4:0 5:0 6:154 7:30 8:0 9:12 10:1652 11:1267 12:3 13:67 14:34 15:9 16:0 #
-3.2301151259587789529425377876848e-08 1:0 2:1040 3:0 4:0 5:0 6:7289 7:0 8:0 9:0 10:338 11:0 12:0 13:0 14:243 15:0 16:0 #
-3.2436530754353669629186824067621e-08 1:1 2:1763 3:1246 4:3 5:8 6:57 7:25 8:250 9:2 10:84 11:13 12:55 13:14 14:21 15:11 16:0 #
-3.2436530754353669629186824067621e-08 1:1 2:111 3:14 4:0 5:3 6:50 7:18 8:0 9:198 10:192 11:26 12:191 13:3 14:120 15:14 16:3 #
-3.2436530754353669629186824067621e-08 1:0 2:125 3:33 4:0 5:71 6:68 7:20 8:0 9:36 10:1401 11:1637 12:2 13:36 14:19 15:2 16:0 #
3.2436530754353669629186824067621e-08 1:0 2:5193 3:0 4:3 5:0 6:170 7:0 8:9 9:0 10:148 11:0 12:3 13:0 14:192 15:0 16:11 #
3.2436530754353669629186824067621e-08 1:440 2:140 3:148 4:17 5:17 6:163 7:170 8:0 9:104 10:77 11:146 12:0 13:7 14:269 15:202 16:17 #
3.2436530754353669629186824067621e-08 1:1 2:30 3:12 4:1 5:8 6:688 7:586 8:0 9:19 10:1439 11:845 12:1 13:9 14:383 15:84 16:0 #
3.2436530754353669629186824067621e-08 1:98 2:1331 3:1251 4:7 5:391 6:145 7:57 8:9 9:24 10:127 11:85 12:0 13:94 14:118 15:86 16:0 #
-3.2436530754353669629186824067621e-08 1:16 2:37 3:13 4:0 5:0 6:87 7:92 8:0 9:0 10:189 11:95 12:2 13:333 14:435 15:96 16:120 #
-2.8280704685743578960565106084069e-08 1:0 2:243 3:0 4:0 5:0 6:89 7:0 8:0 9:0 10:72 11:0 12:0 13:0 14:18 15:0 16:0 #
-3.2436530754353669629186824067621e-08 1:0 2:20 3:0 4:0 5:0 6:216 7:0 8:0 9:0 10:8 11:0 12:0 13:0 14:30 15:0 16:0 #
-3.2436530754353669629186824067621e-08 1:0 2:30 3:0 4:0 5:0 6:473 7:0 8:0 9:0 10:0 11:0 12:0 13:0 14:278 15:20 16:0 #
3.2436530754353669629186824067621e-08 1:2 2:51 3:18 4:1 5:0 6:55 7:14 8:0 9:1 10:1763 11:1246 12:3 13:8 14:57 15:25 16:250 #
3.2436530754353669629186824067621e-08 1:0 2:679 3:99 4:0 5:0 6:2013 7:87 8:0 9:0 10:1624 11:81 12:0 13:0 14:154 15:96 16:0 #
-3.2436530754353669629186824067621e-08 1:0 2:433 3:0 4:0 5:0 6:7170 7:0 8:0 9:0 10:174 11:0 12:0 13:0 14:2425 15:0 16:0 #
3.2436530754353669629186824067621e-08 1:111 2:118 3:15 4:0 5:0 6:94 7:28 8:0 9:0 10:1239 11:1062 12:0 13:1 14:194 15:173 16:0 #
-2.1362059511618731498321620276837e-08 1:0 2:0 3:0 4:0 5:0 6:0 7:0 8:0 9:3 10:8 11:8 12:1 13:0 14:140 15:141 16:0 #
3.2436530754353669629186824067621e-08 1:0 2:164 3:94 4:0 5:3 6:317 7:95 8:0 9:35 10:1660 11:96 12:0 13:29 14:225 15:100 16:0 #
-2.5055383697663095568280484546839e-08 1:3 2:66 3:7 4:0 5:0 6:1419 7:1295 8:0 9:0 10:88 11:14 12:0 13:0 14:102 15:33 16:0 #
-3.2436530754353669629186824067621e-08 1:14 2:90 3:21 4:0 5:11 6:58 7:20 8:0 9:4 10:66 11:24 12:28 13:0 14:117 15:22 16:23 #
3.2436530754353669629186824067621e-08 1:0 2:112 3:0 4:3 5:0 6:29 7:0 8:0 9:0 10:875 11:0 12:0 13:0 14:3458 15:0 16:0 #
3.2436530754353669629186824067621e-08 1:113 2:53 3:13 4:0 5:212 6:52 7:24 8:0 9:536 10:129 11:24 12:1 13:300 14:37 15:15 16:12 #
3.2436530754353669629186824067621e-08 1:0 2:243 3:0 4:0 5:0 6:687 7:0 8:0 9:0 10:627 11:0 12:0 13:0 14:3665 15:0 16:0 #
-3.2436530754353669629186824067621e-08 1:1 2:16 3:7 4:0 5:10 6:14 7:4 8:0 9:1 10:30 11:10 12:0 13:9 14:23 15:5 16:0 #
-3.2436530754353669629186824067621e-08 1:46 2:232 3:97 4:0 5:8 6:6929 7:91 8:5 9:0 10:341 11:100 12:14 13:0 14:164 15:94 16:0 #
-2.8510496004665240233560497083026e-08 1:5 2:109 3:25 4:0 5:123 6:93 7:7 8:0 9:2 10:68 11:15 12:0 13:8 14:1437 15:2148 16:2 #
-4.7338191182255763057341868549344e-09 1:5 2:123 3:39 4:0 5:0 6:103 7:34 8:0 9:1 10:107 11:17 12:0 13:7059 14:111 15:28 16:1 #
-3.2436530754353669629186824067621e-08 1:3 2:76 3:80 4:0 5:0 6:96 7:22 8:0 9:0 10:1481 11:1236 12:1 13:2 14:236 15:46 16:0 #
3.2436530754353669629186824067621e-08 1:241 2:181 3:37 4:0 5:47 6:103 7:27 8:0 9:91 10:141 11:23 12:0 13:530 14:227 15:40 16:1 #
-3.2436530754353669629186824067621e-08 1:3 2:174 3:142 4:0 5:2 6:117 7:82 8:0 9:0 10:0 11:0 12:0 13:0 14:0 15:0 16:0 #
3.2436530754353669629186824067621e-08 1:36 2:1401 3:1637 4:2 5:36 6:19 7:2 8:0 9:1 10:77 11:12 12:0 13:5 14:51 15:23 16:0 #
-3.2436530754353669629186824067621e-08 1:0 2:1861 3:1831 4:26 5:21 6:5 7:2 8:0 9:303 10:176 11:28 12:0 13:37 14:133 15:39 16:0 #
-3.2436530754353669629186824067621e-08 1:1 2:129 3:25 4:0 5:0 6:74 7:18 8:0 9:0 10:1224 11:1117 12:1 13:16 14:37 15:13 16:0 #
-3.2436530754353669629186824067621e-08 1:0 2:90 3:27 4:0 5:8 6:834 7:721 8:1 9:121 10:689 11:592 12:2 13:8 14:90 15:23 16:0 #
-3.2436530754353669629186824067621e-08 1:391 2:145 3:57 4:9 5:24 6:127 7:85 8:0 9:94 10:118 11:86 12:0 13:276 14:1993 15:78 16:261 #
-3.0777133181257365496783819092119e-08 1:32 2:1357 3:1288 4:4 5:81 6:92 7:70 8:0 9:31 10:178 11:88 12:0 13:91 14:185 15:125 16:0 #
-3.2436530754353669629186824067621e-08 1:109 2:109 3:29 4:392 5:22 6:81 7:39 8:0 9:94 10:83 11:30 12:498 13:7150 14:67 15:22 16:0 #
-3.2436530754353669629186824067621e-08 1:29 2:225 3:100 4:0 5:32 6:312 7:94 8:190 9:3468 10:329 11:100 12:1 13:188 14:15859 15:75 16:2 #
3.2436530754353669629186824067621e-08 1:2 2:173 3:98 4:0 5:7 6:1275 7:1042 8:0 9:7 10:478 11:359 12:0 13:78 14:155 15:112 16:0 #
3.2436530754353669629186824067621e-08 1:1 2:41 3:4 4:5 5:113 6:53 7:13 8:0 9:212 10:52 11:24 12:0 13:536 14:129 15:24 16:1 #
3.2436530754353669629186824067621e-08 1:0 2:123 3:76 4:0 5:5 6:180 7:86 8:0 9:2 10:129 11:82 12:1 13:98 14:1331 15:1251 16:7 #
3.2436530754353669629186824067621e-08 1:48 2:997 3:94 4:51 5:1535 6:255 7:107 8:1 9:0 10:169 11:90 12:0 13:107 14:192 15:74 16:0 #
-3.2436530754353669629186824067621e-08 1:24 2:127 3:85 4:0 5:94 6:118 7:86 8:0 9:276 10:1993 11:78 12:261 13:18 14:581 15:87 16:0 #
-3.2436530754353669629186824067621e-08 1:121 2:689 3:592 4:2 5:8 6:90 7:23 8:0 9:0 10:73 11:15 12:0 13:12 14:85 15:8 16:0 #
-3.2436530754353669629186824067621e-08 1:42 2:207 3:99 4:0 5:174 6:312 7:91 8:0 9:0 10:706 11:76 12:0 13:4 14:163 15:82 16:10 #
-3.2436530754353669629186824067621e-08 1:2 2:129 3:82 4:1 5:98 6:1331 7:1251 8:7 9:391 10:145 11:57 12:9 13:24 14:127 15:85 16:0 #
3.2436530754353669629186824067621e-08 1:3 2:92 3:25 4:0 5:0 6:144 7:33 8:0 9:0 10:67 11:14 12:0 13:0 14:1445 15:1230 16:0 #
-3.2436530754353669629186824067621e-08 1:0 2:25 3:2 4:0 5:0 6:27 7:2 8:0 9:0 10:42 11:1 12:0 13:0 14:20 15:6 16:0 #
-3.2436530754353669629186824067621e-08 1:0 2:20 3:6 4:0 5:0 6:72 7:2 8:0 9:0 10:32 11:2 12:0 13:0 14:18 15:0 16:0 #
3.2436530754353669629186824067621e-08 1:9 2:383 3:84 4:0 5:1 6:41 7:4 8:5 9:113 10:53 11:13 12:0 13:212 14:52 15:24 16:0 #
3.2436530754353669629186824067621e-08 1:26 2:110 3:21 4:0 5:32 6:165 7:29 8:0 9:189 10:191 11:37 12:2 13:164 14:161 15:44 16:0 #
-3.2436530754353669629186824067621e-08 1:0 2:0 3:0 4:0 5:3 6:8 7:8 8:1 9:0 10:140 11:141 12:0 13:0 14:142 15:146 16:0 #
3.2436530754353669629186824067621e-08 1:145 2:144 3:26 4:0 5:16 6:129 7:35 8:0 9:106 10:131 11:30 12:0 13:156 14:88 15:15 16:0 #
3.2436530754353669629186824067621e-08 1:0 2:1445 3:1230 4:0 5:465 6:481 7:13 8:6 9:79 10:183 11:15 12:0 13:44 14:246 15:38 16:0 #
3.2436530754353669629186824067621e-08 1:1 2:146 3:152 4:1 5:440 6:140 7:148 8:17 9:17 10:163 11:170 12:0 13:104 14:77 15:146 16:0 #
3.2436530754353669629186824067621e-08 1:210 2:127 3:32 4:2 5:241 6:181 7:37 8:0 9:47 10:103 11:27 12:0 13:91 14:141 15:23 16:0 #
3.2436530754353669629186824067621e-08 1:303 2:176 3:28 4:0 5:37 6:133 7:39 8:0 9:229 10:124 11:27 12:0 13:47 14:78 15:31 16:0 #
3.2436530754353669629186824067621e-08 1:144 2:72 3:10 4:0 5:144 6:330 7:22 8:0 9:134 10:100 11:38 12:0 13:63 14:231 15:59 16:0 #
3.2436530754353669629186824067621e-08 1:196 2:207 3:48 4:0 5:145 6:81 7:32 8:0 9:79 10:106 11:31 12:0 13:9 14:36 15:15 16:0 #
3.2436530754353669629186824067621e-08 1:153 2:367 3:11 4:0 5:152 6:99 7:21 8:0 9:68 10:218 11:31 12:0 13:0 14:154 15:30 16:0 #
3.2436530754353669629186824067621e-08 1:17 2:163 3:170 4:0 5:104 6:77 7:146 8:0 9:7 10:269 11:202 12:17 13:6 14:1140 15:846 16:1 #
3.2436530754353669629186824067621e-08 1:1 2:1579 3:12 4:0 5:0 6:233 7:6 8:0 9:0 10:124 11:54 12:0 13:30 14:23 15:65 16:0 #
3.2436530754353669629186824067621e-08 1:3 2:317 3:95 4:0 5:35 6:1660 7:96 8:0 9:29 10:225 11:100 12:0 13:32 14:312 15:94 16:190 #
3.2436530754353669629186824067621e-08 1:104 2:308 3:56 4:238 5:0 6:301 7:41 8:0 9:0 10:277 11:44 12:150 13:2346 14:218 15:526 16:3466 #
-1.3717569424753179686610101019979e-09 1:7676 2:209 3:85 4:0 5:7063 6:194 7:101 8:0 9:679 10:162 11:91 12:0 13:1399 14:136 15:79 16:0 #
3.2436530754353669629186824067621e-08 1:0 2:125 3:17 4:0 5:0 6:137 7:35 8:0 9:348 10:239 11:39 12:0 13:0 14:225 15:39 16:0 #
-3.2436530754353669629186824067621e-08 1:0 2:32 3:2 4:0 5:0 6:18 7:0 8:0 9:0 10:0 11:0 12:0 13:0 14:3151 15:0 16:0 #
-3.2436530754353669629186824067621e-08 1:0 2:113 3:1 4:0 5:0 6:186 7:0 8:0 9:0 10:1 11:0 12:0 13:0 14:142 15:9 16:0 #
3.2436530754353669629186824067621e-08 1:0 2:346 3:0 4:0 5:0 6:149 7:0 8:0 9:0 10:593 11:1 12:0 13:0 14:266 15:0 16:0 #
3.2436530754353669629186824067621e-08 1:0 2:90 3:27 4:156 5:0 6:88 7:22 8:0 9:0 10:62 11:24 12:0 13:0 14:70 15:11 16:0 #
-3.2436530754353669629186824067621e-08 1:2 2:47 3:25 4:0 5:0 6:13 7:8 8:674 9:0 10:0 11:6 12:0 13:20 14:127 15:14 16:5 #
3.2436530754353669629186824067621e-08 1:0 2:165 3:0 4:4 5:0 6:1225 7:0 8:0 9:0 10:194 11:0 12:0 13:0 14:338 15:0 16:0 #
-3.2436530754353669629186824067621e-08 1:0 2:27 3:2 4:0 5:0 6:42 7:1 8:0 9:0 10:20 11:6 12:0 13:0 14:72 15:2 16:0 #
-3.2436530754353669629186824067621e-08 1:5 2:56 3:15 4:0 5:0 6:50 7:10 8:1 9:1 10:16 11:7 12:0 13:10 14:14 15:4 16:0 #
3.2436530754353669629186824067621e-08 1:43 2:90 3:25 4:1 5:206 6:101 7:22 8:0 9:34 10:113 11:24 12:0 13:2 14:65 15:11 16:0 #
3.2436530754353669629186824067621e-08 1:82 2:127 3:89 4:0 5:115 6:127 7:104 8:0 9:2 10:180 11:83 12:0 13:49 14:100 15:86 16:0 #
-2.9832922198755098016403268339214e-08 1:0 2:42 3:1 4:0 5:0 6:20 7:6 8:0 9:0 10:72 11:2 12:0 13:0 14:32 15:2 16:0 #
3.2436530754353669629186824067621e-08 1:3 2:159 3:32 4:0 5:5 6:109 7:25 8:0 9:123 10:93 11:7 12:0 13:2 14:68 15:15 16:0 #
-3.2436530754353669629186824067621e-08 1:19 2:1439 3:845 4:1 5:9 6:383 7:84 8:0 9:1 10:41 11:4 12:5 13:113 14:53 15:13 16:0 #
3.2436530754353669629186824067621e-08 1:1 2:89 3:25 4:0 5:84 6:72 7:26 8:5 9:38 10:121 11:18 12:0 13:29 14:163 15:53 16:0 #
-3.2398333371797575197487362120771e-08 1:0 2:18 3:0 4:0 5:0 6:0 7:0 8:0 9:0 10:3151 11:0 12:0 13:0 14:4429 15:0 16:0 #
-8.8744991065299383255398962735278e-11 1:31 2:750 3:975 4:0 5:1675 6:172 7:46 8:0 9:243 10:122 11:48 12:0 13:353 14:208 15:47 16:0 #
3.2436530754353669629186824067621e-08 1:0 2:1419 3:1295 4:0 5:0 6:88 7:14 8:0 9:0 10:102 11:33 12:0 13:0 14:59 15:20 16:0 #
3.2436530754353669629186824067621e-08 1:0 2:593 3:1 4:0 5:0 6:266 7:0 8:0 9:0 10:451 11:0 12:1 13:0 14:184 15:0 16:0 #
-3.2436530754353669629186824067621e-08 1:0 2:50 3:10 4:1 5:1 6:16 7:7 8:0 9:10 10:14 11:4 12:0 13:1 14:30 15:10 16:0 #
-3.2436530754353669629186824067621e-08 1:0 2:195 3:3 4:0 5:1 6:58 7:0 8:0 9:0 10:3 11:0 12:0 13:0 14:113 15:1 16:0 #
3.2436530754353669629186824067621e-08 1:0 2:49 3:0 4:0 5:0 6:120 7:0 8:0 9:0 10:415 11:0 12:0 13:0 14:143 15:0 16:0 #
-3.2436530754353669629186824067621e-08 1:0 2:112 3:17 4:0 5:0 6:49 7:12 8:0 9:0 10:12 11:0 12:0 13:1 14:71 15:11 16:0 #
-3.2436530754353669629186824067621e-08 1:0 2:2425 3:0 4:0 5:0 6:346 7:0 8:0 9:0 10:149 11:0 12:0 13:0 14:593 15:1 16:0 #
-3.2436530754353669629186824067621e-08 1:10 2:14 3:4 4:0 5:1 6:30 7:10 8:0 9:9 10:23 11:5 12:0 13:26 14:31 15:14 16:0 #
-3.2436530754353669629186824067621e-08 1:7 2:1275 3:1042 4:0 5:7 6:478 7:359 8:0 9:78 10:155 11:112 12:0 13:11 14:136 15:88 16:5 #
3.2436530754353669629186824067621e-08 1:0 2:54 3:17 4:0 5:66 6:98 7:20 8:0 9:52 10:117 11:30 12:0 13:5 14:56 15:15 16:0 #
-3.2436530754353669629186824067621e-08 1:1 2:511 3:38 4:0 5:0 6:25 7:2 8:0 9:0 10:27 11:2 12:0 13:0 14:42 15:1 16:0 #
3.2436530754353669629186824067621e-08 1:9 2:219 3:164 4:0 5:0 6:396 7:163 8:0 9:0 10:262 11:143 12:0 13:0 14:230 15:158 16:0 #
3.2436530754353669629186824067621e-08 1:0 2:1224 3:1117 4:1 5:16 6:37 7:13 8:0 9:0 10:87 11:92 12:0 13:0 14:189 15:95 16:2 #
-1.1927546780062677912167884083927e-08 1:0 2:0 3:0 4:0 5:0 6:173 7:0 8:0 9:0 10:150 11:0 12:0 13:0 14:75 15:0 16:0 #
-3.2246006836967183203343555522591e-08 1:273 2:968 3:687 4:0 5:166 6:137 7:100 8:0 9:3 10:129 11:132 12:0 13:19 14:125 15:155 16:0 #
3.2436530754353669629186824067621e-08 1:22 2:123 3:27 4:0 5:32 6:111 7:21 8:0 9:69 10:90 11:18 12:0 13:2 14:145 15:41 16:0 #
-3.2436530754353669629186824067621e-08 1:2 2:20 3:11 4:0 5:8 6:44 7:34 8:1 9:1 10:26 11:15 12:0 13:1 14:30 15:12 16:1 #
3.2436530754353669629186824067621e-08 1:173 2:173 3:50 4:0 5:3 6:181 7:27 8:0 9:51 10:117 11:35 12:0 13:0 14:121 15:24 16:0 #
3.2436530754353669629186824067621e-08 1:3 2:115 3:26 4:1 5:1 6:109 7:25 8:0 9:0 10:90 11:27 12:0 13:8 14:834 15:721 16:1 #
-3.2436530754353669629186824067621e-08 1:0 2:49 3:12 4:0 5:0 6:12 7:0 8:0 9:1 10:71 11:11 12:0 13:1 14:93 15:22 16:0 #
3.2436530754353669629186824067621e-08 1:0 2:401 3:65 4:0 5:19 6:317 7:97 8:0 9:5 10:249 11:89 12:2 13:12 14:250 15:84 16:0 #
-3.2436530754353669629186824067621e-08 1:0 2:178 3:151 4:0 5:3 6:174 7:142 8:0 9:2 10:117 11:82 12:0 13:0 14:0 15:0 16:0 #
3.2436530754353669629186824067621e-08 1:145 2:81 3:32 4:0 5:79 6:106 7:31 8:0 9:9 10:36 11:15 12:0 13:7 14:113 15:62 16:4 #
-3.2436530754353669629186824067621e-08 1:0 2:155 3:0 4:0 5:0 6:195 7:3 8:0 9:1 10:58 11:0 12:0 13:0 14:3 15:0 16:0 #
3.2436530754353669629186824067621e-08 1:115 2:127 3:104 4:0 5:2 6:180 7:83 8:0 9:49 10:100 11:86 12:0 13:28 14:108 15:106 16:1 #
-3.2436530754353669629186824067621e-08 1:0 2:172 3:35 4:0 5:0 6:112 7:17 8:0 9:0 10:49 11:12 12:0 13:0 14:12 15:0 16:0 #
3.2436530754353669629186824067621e-08 1:8 2:44 3:34 4:1 5:1 6:26 7:15 8:0 9:1 10:30 11:12 12:1 13:8 14:688 15:586 16:0 #
3.2436530754353669629186824067621e-08 1:4 2:119 3:31 4:0 5:94 6:97 7:33 8:1 9:0 10:113 11:48 12:0 13:1 14:107 15:22 16:0 #
-1.8918201096149170483841210101128e-08 1:4 2:66 3:24 4:28 5:0 6:117 7:22 8:23 9:0 10:18 11:2 12:0 13:751 14:1140 15:1901 16:1 #
3.2436530754353669629186824067621e-08 1:2 2:236 3:46 4:0 5:65 6:266 7:58 8:0 9:0 10:55 11:28 12:0 13:60 14:138 15:47 16:0 #
-3.2436530754353669629186824067621e-08 1:0 2:104 3:0 4:0 5:0 6:104 7:0 8:1 9:0 10:63 11:0 12:1 13:0 14:112 15:0 16:3 #
3.2436530754353669629186824067621e-08 1:0 2:142 3:149 4:0 5:0 6:140 7:143 8:0 9:17 10:181 11:149 12:5 13:24 14:149 15:207 16:8 #
-3.2436530754353669629186824067621e-08 1:0 2:189 3:0 4:0 5:0 6:4640 7:1 8:0 9:0 10:283 11:0 12:0 13:0 14:203 15:0 16:0 #
-3.2436530754353669629186824067621e-08 1:0 2:60 3:0 4:0 5:0 6:0 7:0 8:0 9:0 10:95 11:0 12:0 13:0 14:324 15:0 16:0 #
3.2436530754353669629186824067621e-08 1:65 2:266 3:58 4:0 5:0 6:55 7:28 8:0 9:60 10:138 11:47 12:0 13:0 14:130 15:33 16:1 #
-3.2436530754353669629186824067621e-08 1:0 2:126 3:0 4:5 5:0 6:216 7:0 8:0 9:0 10:229 11:0 12:4 13:0 14:7272 15:0 16:9 #
3.2436530754353669629186824067621e-08 1:190 2:299 3:195 4:0 5:0 6:147 7:152 8:0 9:0 10:93 11:129 12:0 13:0 14:117 15:155 16:0 #
3.2436530754353669629186824067621e-08 1:57 2:158 3:25 4:0 5:22 6:115 7:8 8:0 9:41 10:169 11:32 12:0 13:0 14:136 15:23 16:0 #
3.2436530754353669629186824067621e-08 1:1 2:110 3:17 4:0 5:33 6:212 7:42 8:1 9:1 10:179 11:28 12:1 13:6 14:83 15:14 16:0 #
3.2436530754353669629186824067621e-08 1:0 2:192 3:0 4:11 5:0 6:126 7:0 8:5 9:0 10:216 11:0 12:0 13:0 14:229 15:0 16:4 #
3.2436530754353669629186824067621e-08 1:164 2:161 3:44 4:0 5:3 6:141 7:35 8:2 9:13 10:200 11:21 12:0 13:1 14:110 15:17 16:0 #
-3.2436530754353669629186824067621e-08 1:9 2:23 3:5 4:0 5:26 6:31 7:14 8:0 9:2 10:20 11:11 12:0 13:8 14:44 15:34 16:1 #
3.2436530754353669629186824067621e-08 1:0 2:91 3:52 4:0 5:0 6:123 7:76 8:0 9:5 10:180 11:86 12:0 13:2 14:129 15:82 16:1 #
-3.2436530754353669629186824067621e-08 1:0 2:278 3:20 4:0 5:1 6:511 7:38 8:0 9:0 10:25 11:2 12:0 13:0 14:27 15:2 16:0 #
3.2436530754353669629186824067621e-08 1:0 2:125 3:82 4:0 5:0 6:137 7:94 8:1 9:0 10:175 11:105 12:0 13:0 14:85 15:85 16:0 #
-3.2436530754353669629186824067621e-08 1:0 2:213 3:0 4:0 5:0 6:32 7:0 8:0 9:0 10:20 11:0 12:0 13:0 14:716 15:0 16:0 #
-3.2436530754353669629186824067621e-08 1:0 2:140 3:143 4:0 5:17 6:181 7:149 8:5 9:24 10:149 11:207 12:8 13:0 14:6844 15:1068 16:4 #
3.2436530754353669629186824067621e-08 1:0 2:140 3:143 4:0 5:0 6:142 7:149 8:0 9:0 10:140 11:143 12:0 13:17 14:181 15:149 16:5 #
-3.2436530754353669629186824067621e-08 1:0 2:216 3:0 4:0 5:0 6:8 7:0 8:0 9:0 10:30 11:0 12:0 13:0 14:473 15:0 16:0 #
3.2436530754353669629186824067621e-08 1:0 2:142 3:146 4:0 5:0 6:140 7:143 8:0 9:0 10:142 11:149 12:0 13:0 14:140 15:143 16:0 #
-3.2436530754353669629186824067621e-08 1:0 2:80 3:27 4:0 5:0 6:71 7:16 8:0 9:0 10:46 11:7 12:0 13:0 14:53 15:20 16:0 #
-1.3052104167769946509169987081123e-09 1:0 2:7272 3:0 4:9 5:0 6:146 7:0 8:0 9:0 10:49 11:0 12:0 13:0 14:120 15:0 16:0 #
-3.2436530754353669629186824067621e-08 1:0 2:12 3:0 4:0 5:1 6:71 7:11 8:0 9:1 10:93 11:22 12:0 13:1 14:131 15:31 16:0 #
3.2436530754353669629186824067621e-08 1:0 2:81 3:21 4:0 5:0 6:147 7:26 8:0 9:0 10:125 11:33 12:0 13:71 14:68 15:20 16:0 #
-3.2436530754353669629186824067621e-08 1:0 2:1642 3:0 4:0 5:0 6:213 7:0 8:0 9:0 10:32 11:0 12:0 13:0 14:20 15:0 16:0 #
3.2436530754353669629186824067621e-08 1:3 2:111 3:37 4:0 5:1 6:79 7:25 8:0 9:25 10:138 11:27 12:2 13:0 14:148 15:28 16:0 #
-3.2436530754353669629186824067621e-08 1:0 2:63 3:0 4:1 5:0 6:112 7:0 8:3 9:0 10:29 11:0 12:0 13:0 14:875 15:0 16:0 #
-3.2436530754353669629186824067621e-08 1:0 2:301 3:0 4:0 5:0 6:165 7:0 8:0 9:0 10:23 11:0 12:0 13:3 14:555 15:16 16:0 #
3.2436530754353669629186824067621e-08 1:5 2:239 3:104 4:0 5:5 6:176 7:109 8:0 9:6 10:125 11:89 12:0 13:3 14:94 15:78 16:0 #
3.2436530754353669629186824067621e-08 1:0 2:148 3:0 4:3 5:0 6:192 7:0 8:11 9:0 10:126 11:0 12:5 13:0 14:216 15:0 16:0 #
3.2436530754353669629186824067621e-08 1:11 2:58 3:20 4:0 5:4 6:66 7:24 8:28 9:0 10:117 11:22 12:23 13:0 14:18 15:2 16:0 #
3.2436530754353669629186824067621e-08 1:3 2:141 3:35 4:2 5:13 6:200 7:21 8:0 9:1 10:110 11:17 12:0 13:33 14:212 15:42 16:1 #
3.2436530754353669629186824067621e-08 1:0 2:96 3:31 4:0 5:56 6:87 7:20 8:0 9:7 10:109 11:28 12:0 13:0 14:103 15:23 16:0 #
3.2436530754353669629186824067621e-08 1:0 2:251 3:0 4:0 5:0 6:104 7:0 8:0 9:0 10:104 11:0 12:1 13:0 14:63 15:0 16:1 #
-3.2436530754353669629186824067621e-08 1:0 2:71 3:16 4:0 5:0 6:46 7:7 8:0 9:0 10:53 11:20 12:0 13:0 14:61 15:22 16:0 #
3.2436530754353669629186824067621e-08 1:1 2:122 3:71 4:0 5:0 6:91 7:52 8:0 9:0 10:123 11:76 12:0 13:5 14:180 15:86 16:0 #
-3.2436530754353669629186824067621e-08 1:2 2:110 3:67 4:0 5:3 6:59 7:21 8:0 9:1 10:58 11:7 12:0 13:1 14:81 15:33 16:0 #
-3.2436530754353669629186824067621e-08 1:0 2:99 3:0 4:0 5:0 6:105 7:0 8:0 9:0 10:54 11:0 12:0 13:0 14:63 15:3 16:0 #
-3.2436530754353669629186824067621e-08 1:17 2:45 3:9 4:0 5:38 6:85 7:16 8:0 9:21 10:36 11:9 12:0 13:0 14:30 15:18 16:0 #
-3.2436530754353669629186824067621e-08 1:52 2:117 3:30 4:0 5:5 6:56 7:15 8:0 9:0 10:50 11:10 12:1 13:1 14:16 15:7 16:0 #
-3.2436530754353669629186824067621e-08 1:0 2:46 3:7 4:0 5:0 6:53 7:20 8:0 9:0 10:61 11:22 12:0 13:0 14:73 15:24 16:0 #
3.2436530754353669629186824067621e-08 1:14 2:125 3:22 4:0 5:1 6:125 7:26 8:0 9:3 10:111 11:37 12:0 13:1 14:79 15:25 16:0 #
3.2436530754353669629186824067621e-08 1:0 2:103 3:23 4:0 5:3 6:115 7:26 8:1 9:1 10:109 11:25 12:0 13:0 14:90 15:27 16:0 #
3.2436530754353669629186824067621e-08 1:2 2:160 3:39 4:0 5:5 6:123 7:39 8:0 9:0 10:103 11:34 12:0 13:1 14:107 15:17 16:0 #
3.2436530754353669629186824067621e-08 1:51 2:117 3:35 4:0 5:0 6:121 7:24 8:0 9:109 10:109 11:29 12:392 13:22 14:81 15:39 16:0 #
-3.2436530754353669629186824067621e-08 1:0 2:95 3:0 4:0 5:0 6:324 7:0 8:0 9:0 10:43 11:0 12:0 13:0 14:380 15:0 16:0 #
3.2436530754353669629186824067621e-08 1:0 2:73 3:15 4:0 5:12 6:85 7:8 8:0 9:47 10:80 11:18 12:0 13:1 14:96 15:39 16:0 #
-3.2436530754353669629186824067621e-08 1:0 2:88 3:14 4:0 5:0 6:102 7:33 8:0 9:0 10:59 11:20 12:0 13:0 14:91 15:25 16:3 #
3.2436530754353669629186824067621e-08 1:0 2:93 3:129 4:0 5:0 6:117 7:155 8:0 9:0 10:111 11:151 12:53 13:4 14:183 15:211 16:2 #
-3.2436530754353669629186824067621e-08 1:0 2:88 3:22 4:0 5:0 6:62 7:24 8:0 9:0 10:70 11:11 12:0 13:2 14:51 15:18 16:1 #
3.2436530754353669629186824067621e-08 1:4 2:60 3:16 4:0 5:60 6:104 7:15 8:0 9:0 10:60 11:16 12:0 13:1 14:89 15:25 16:0 #
-3.2436530754353669629186824067621e-08 1:0 2:113 3:29 4:0 5:0 6:80 7:27 8:0 9:0 10:71 11:16 12:0 13:0 14:46 15:7 16:0 #
3.2436530754353669629186824067621e-08 1:15 2:125 3:23 4:0 5:2 6:72 7:11 8:0 9:3 10:70 11:17 12:0 13:1 14:127 15:35 16:0 #
-3.243581453853190150061602120557e-08 1:0 2:147 3:26 4:0 5:0 6:125 7:33 8:0 9:71 10:68 11:20 12:0 13:36 14:1401 15:1637 16:2 #
3.2436530754353669629186824067621e-08 1:0 2:106 3:23 4:0 5:3 6:82 7:20 8:0 9:1 10:70 11:21 12:0 13:8 14:98 15:44 16:0 #
3.2436530754353669629186824067621e-08 1:1 2:30 3:10 4:0 5:9 6:23 7:5 8:0 9:26 10:31 11:14 12:0 13:2 14:20 15:11 16:0 #
-3.2436530754353669629186824067621e-08 1:0 2:105 3:0 4:0 5:0 6:54 7:0 8:0 9:0 10:63 11:3 12:0 13:0 14:186 15:0 16:0 #
3.2436530754353669629186824067621e-08 1:0 2:147 3:152 4:0 5:0 6:93 7:129 8:0 9:0 10:117 11:155 12:0 13:0 14:111 15:151 16:53 #
-3.2436530754353669629186824067621e-08 1:18 2:581 3:87 4:0 5:0 6:359 7:87 8:0 9:48 10:997 11:94 12:51 13:1535 14:255 15:107 16:1 #
-3.2436530754353669629186824067621e-08 1:0 2:179 3:0 4:0 5:0 6:152 7:0 8:0 9:0 10:50 11:0 12:0 13:0 14:262 15:0 16:0 #
3.2436530754353669629186824067621e-08 1:1 2:77 3:12 4:0 5:5 6:51 7:23 8:0 9:13 10:54 11:19 12:56 13:37 14:129 15:82 16:1 #
-3.2436530754353669629186824067621e-08 1:71 2:111 3:35 4:0 5:20 6:103 7:34 8:0 9:1 10:52 11:33 12:0 13:0 14:44 15:10 16:0 #
3.2436530754353669629186824067621e-08 1:10 2:61 3:14 4:0 5:14 6:90 7:21 8:0 9:11 10:58 11:20 12:0 13:4 14:66 15:24 16:28 #
-2.5225128689570505377445493525035e-08 1:76 2:146 3:59 4:0 5:3 6:12 7:8 8:0 9:82 10:3 11:3 12:0 13:121 14:106 15:39 16:0 #
3.2436530754353669629186824067621e-08 1:26 2:31 3:14 4:0 5:2 6:20 7:11 8:0 9:8 10:44 11:34 12:1 13:1 14:26 15:15 16:0 #
-3.2436530754353669629186824067621e-08 1:3 2:59 3:21 4:0 5:1 6:58 7:7 8:0 9:1 10:81 11:33 12:0 13:0 14:109 15:38 16:0 #
3.2436530754353669629186824067621e-08 1:0 2:62 3:24 4:0 5:0 6:70 7:11 8:0 9:2 10:51 11:18 12:1 13:0 14:55 15:14 16:0 #
-3.2436530754353669629186824067621e-08 1:32 2:88 3:12 4:0 5:1 6:66 7:15 8:0 9:0 10:26 11:5 12:0 13:140 14:63 15:14 16:0 #
-2.953882754617612712555170355333e-08 1:0 2:93 3:21 4:0 5:0 6:113 7:29 8:0 9:0 10:80 11:27 12:0 13:0 14:71 15:16 16:0 #
3.2436530754353669629186824067621e-08 1:15 2:72 3:14 4:0 5:1 6:111 7:14 8:0 9:3 10:50 11:18 12:0 13:198 14:192 15:26 16:191 #
-3.2436530754353669629186824067621e-08 1:0 2:50 3:0 4:0 5:0 6:262 7:0 8:0 9:0 10:66 11:0 12:0 13:0 14:189 15:0 16:0 #
-2.6200045817761831970407315067773e-08 1:174 2:312 3:91 4:0 5:0 6:706 7:76 8:0 9:4 10:163 11:82 12:10 13:1 14:122 15:71 16:0 #
3.2436530754353669629186824067621e-08 1:2 2:117 3:82 4:0 5:0 6:0 7:0 8:0 9:0 10:0 11:0 12:0 13:0 14:0 15:0 16:0 #
3.2436530754353669629186824067621e-08 1:0 2:233 3:6 4:0 5:0 6:124 7:54 8:0 9:30 10:23 11:65 12:0 13:206 14:0 15:87 16:460 #
-3.2436530754353669629186824067621e-08 1:20 2:103 3:34 4:0 5:1 6:52 7:33 8:0 9:0 10:44 11:10 12:0 13:124 14:84 15:12 16:0 #
-3.2436530754353669629186824067621e-08 1:536 2:129 3:24 4:1 5:300 6:37 7:15 8:12 9:146 10:74 11:28 12:20 13:7131 14:125 15:33 16:0 #
-3.2436530754353669629186824067621e-08 1:72 2:162 3:166 4:0 5:1 6:146 7:152 8:1 9:440 10:140 11:148 12:17 13:17 14:163 15:170 16:0 #
-3.2436530754353669629186824067621e-08 1:206 2:363 3:98 4:0 5:177 6:419 7:135 8:25 9:205 10:472 11:165 12:58 13:99 14:405 15:160 16:49 #
-3.2436530754353669629186824067621e-08 1:492 2:1106 3:969 4:621 5:1519 6:119 7:25 8:0 9:849 10:105 11:17 12:34 13:413 14:163 15:14 16:48 #
-3.2436530754353669629186824067621e-08 1:1111 2:328 3:60 4:0 5:852 6:130 7:19 8:0 9:419 10:168 11:15 12:0 13:104 14:308 15:56 16:238 #
-1.835395269786648605005443201342e-08 1:69 2:90 3:18 4:0 5:2 6:145 7:41 8:0 9:7043 10:123 11:29 12:10 13:0 14:69 15:24 16:0 #
-5.5461307224222615856507219433968e-09 1:2 2:148689 3:25 4:0 5:0 6:229095 7:21 8:0 9:364 10:66773 11:20 12:0 13:547 14:126 15:20 16:0 #
-3.2436530754353669629186824067621e-08 1:0 2:87 3:92 4:0 5:0 6:189 7:95 8:2 9:333 10:435 11:96 12:120 13:7071 14:149 15:108 16:0 #
-3.2436530754353669629186824067621e-08 1:99 2:405 3:160 4:49 5:7193 6:428 7:83 8:0 9:1 10:325 11:112 12:0 13:4 14:1178 15:877 16:127 #
-3.2436530754353669629186824067621e-08 1:32 2:111 3:21 4:0 5:69 6:90 7:18 8:0 9:2 10:145 11:41 12:0 13:7043 14:123 15:29 16:10 #
-3.2436530754353669629186824067621e-08 1:206 2:101 3:22 4:0 5:34 6:113 7:24 8:0 9:2 10:65 11:11 12:0 13:0 14:1861 15:1831 16:26 #
-3.2436530754353669629186824067621e-08 1:79 2:106 3:31 4:0 5:9 6:36 7:15 8:0 9:7 10:113 11:62 12:4 13:2 14:481 15:574 16:5 #
-3.2436530754353669629186824067621e-08 1:263 2:108 3:122 4:0 5:3453 6:150 7:156 8:0 9:259 10:174 11:169 12:25 13:7080 14:195 15:158 16:0 #
-3.2436530754353669629186824067621e-08 1:334 2:172 3:108 4:0 5:263 6:108 7:122 8:0 9:3453 10:150 11:156 12:0 13:259 14:174 15:169 16:25 #
-3.2436530754353669629186824067621e-08 1:7084 2:2223 3:109 4:0 5:46 6:232 7:97 8:0 9:8 10:6929 11:91 12:5 13:0 14:341 15:100 16:14 #
-4.924132509582503382278623219818e-10 1:23356 2:164 3:86 4:0 5:10 6:125 7:86 8:0 9:1 10:136 11:89 12:0 13:5169 14:205 15:102 16:0 #
-1.0470846822187630074268462065934e-08 1:0 2:229095 3:21 4:0 5:364 6:66773 7:20 8:0 9:547 10:126 11:20 12:0 13:1274 14:25448 15:19 16:0 #
-4.6711904054329326026358520235204e-11 1:0 2:114 3:19 4:0 5:2 6:148689 7:25 8:0 9:0 10:229095 11:21 12:0 13:364 14:66773 15:20 16:0 #
-1.4228559213635097442869241499781e-10 1:35 2:140 3:92 4:0 5:56 6:158 7:87 8:0 9:41 10:967 11:93 12:0 13:23356 14:164 15:86 16:0 #
-8.5624770801166765210821752427918e-10 1:23600 2:234 3:32 4:2 5:67 6:127 7:20 8:2 9:0 10:74 11:15 12:0 13:114 14:106 15:26 16:0 #
-4.2451759913427665688381851261113e-11 1:198 2:192 3:26 4:191 5:3 6:120 7:14 8:3 9:9 10:87 11:15 12:0 13:12210 14:69 15:20 16:0 #
