SVM-light Version V6.02
0 # kernel type
3 # kernel parameter -d 
1 # kernel parameter -g 
1 # kernel parameter -s 
1 # kernel parameter -r 
empty# kernel parameter -u 
8 # highest feature index 
1146 # number of training documents 
397 # number of support vectors plus 1 
0.17769202 # threshold b, each following line is a SV (starting with alpha*y)
-2.1110831095561166525448955517963e-07 1:0 2:88 3:0 4:0 5:0 6:53 7:0 8:0 #
2.1110831095561166525448955517963e-07 1:0 2:49 3:0 4:0 5:0 6:86 7:0 8:0 #
-1.8774495780179820572682708977597e-07 1:0 2:85 3:13 4:0 5:2 6:81347 7:21 8:0 #
-2.1110831095561166525448955517963e-07 1:5097 2:136 3:24 4:0 5:0 6:74 7:16 8:0 #
-2.1110831095561166525448955517963e-07 1:0 2:0 3:0 4:0 5:0 6:0 7:0 8:0 #
2.1110831095561166525448955517963e-07 1:0 2:31776 3:1 4:0 5:0 6:75375 7:17 8:0 #
2.1110831095561166525448955517963e-07 1:0 2:0 3:0 4:0 5:0 6:0 7:0 8:0 #
2.1110831095561166525448955517963e-07 1:0 2:0 3:2 4:0 5:0 6:0 7:6 8:0 #
-2.1110831095561166525448955517963e-07 1:4725 2:36 3:15 4:3 5:1 6:57 7:9 8:0 #
2.1110831095561166525448955517963e-07 1:0 2:4004 3:570 4:1 5:0 6:0 7:3 8:0 #
-2.1110831095561166525448955517963e-07 1:0 2:0 3:0 4:0 5:0 6:0 7:0 8:0 #
-2.1110831095561166525448955517963e-07 1:206 2:0 3:25 4:460 5:45 6:1018 7:960 8:621 #
-2.1110831095561166525448955517963e-07 1:2 2:47 3:25 4:0 5:0 6:13 7:7 8:674 #
2.1110831095561166525448955517963e-07 1:0 2:169 3:0 4:4 5:0 6:7183 7:0 8:2 #
-2.1110831095561166525448955517963e-07 1:36 2:1397 3:1631 4:2 5:6 6:0 7:2 8:0 #
-2.1110831095561166525448955517963e-07 1:4 2:18 3:9 4:0 5:11983 6:46 7:4 8:0 #
2.1110831095561166525448955517963e-07 1:27 2:1 3:122 4:0 5:206 6:0 7:25 8:460 #
-2.1110831095561166525448955517963e-07 1:4 2:132 3:38 4:0 5:3592 6:195 7:523 8:3471 #
-2.1110831095561166525448955517963e-07 1:0 2:0 3:0 4:0 5:0 6:0 7:0 8:0 #
2.1110831095561166525448955517963e-07 1:0 2:100 3:63 4:0 5:23706 6:148 7:32 8:0 #
-2.1110831095561166525448955517963e-07 1:31 2:1617 3:1233 4:3 5:0 6:119 7:56 8:0 #
-2.1110831095561166525448955517963e-07 1:0 2:33 3:40 4:2433 5:31 6:1617 7:1233 8:3 #
2.1110831095561166525448955517963e-07 1:0 2:53 3:54 4:0 5:0 6:33 7:40 8:2433 #
2.1110831095561166525448955517963e-07 1:0 2:116 3:72 4:0 5:0 6:53 7:54 8:0 #
1.6835101419605985194342847709875e-07 1:194 2:1262 3:193 4:13989 5:836 6:217 7:28 8:110 #
-4.1976776974692353899689214232621e-08 1:175 2:49986 3:16 4:0 5:561 6:79 7:9 8:0 #
-2.1110831095561166525448955517963e-07 1:0 2:57 3:14 4:0 5:12210 6:38 7:10 8:0 #
-2.1110831095561166525448955517963e-07 1:12210 2:38 3:10 4:0 5:3 6:104 7:12 8:0 #
-2.1110831095561166525448955517963e-07 1:3592 2:195 3:523 4:3471 5:0 6:124 7:56 8:0 #
2.1110831095561166525448955517963e-07 1:23706 2:148 3:32 4:0 5:1 6:198 7:28 8:2 #
-2.1110831095561166525448955517963e-07 1:14 2:300 3:352 4:1484 5:50 6:106 7:55 8:0 #
-2.1110831095561166525448955517963e-07 1:610 2:393 3:250 4:1 5:2 6:1340 7:1499 8:0 #
-2.1110831095561166525448955517963e-07 1:34 2:22 3:13 4:1288 5:14 6:300 7:352 8:1484 #
2.1110831095561166525448955517963e-07 1:8 2:686 3:585 4:0 5:15 6:914 7:782 8:0 #
2.1110831095561166525448955517963e-07 1:0 2:1762 3:1244 4:1 5:1 6:20 7:11 8:2 #
-2.1110831095561166525448955517963e-07 1:0 2:7140 3:0 4:0 5:0 6:54 7:0 8:0 #
2.1110831095561166525448955517963e-07 1:6755 2:96 3:124 4:0 5:7116 6:107 7:118 8:1 #
-2.1110831095561166525448955517963e-07 1:0 2:13 3:7 4:674 5:0 6:0 7:2 8:0 #
-2.1110831095561166525448955517963e-07 1:45 2:1018 3:960 4:621 5:976 6:164 7:33 8:0 #
-7.2966244737872454368809039398913e-09 1:2 2:1340 3:1499 4:0 5:443 6:831 7:477 8:0 #
-2.0182166782462818660929333887399e-07 1:23353 2:124 3:64 4:0 5:3 6:97 7:56 8:0 #
-2.1110831095561166525448955517963e-07 1:11983 2:46 3:4 4:0 5:4 6:58 7:8 8:0 #
-2.1110831095561166525448955517963e-07 1:0 2:136 3:22 4:0 5:0 6:0 7:3 8:1 #
-2.1110831095561166525448955517963e-07 1:0 2:7136 3:0 4:0 5:0 6:20 7:0 8:0 #
-2.0953425489811705133191203735687e-07 1:0 2:1411 3:1223 4:0 5:465 6:464 7:11 8:6 #
-2.1110831095561166525448955517963e-07 1:0 2:66 3:15 4:0 5:20 6:2423 7:2680 8:0 #
2.1110831095561166525448955517963e-07 1:31 2:1122 3:1081 4:1 5:102 6:246 7:186 8:7 #
-2.1110831095561166525448955517963e-07 1:20 2:2423 3:2680 4:0 5:6 6:33 7:12 8:0 #
2.1110831095561166525448955517963e-07 1:11855 2:80 3:18 4:0 5:1 6:121 7:14 8:0 #
-2.1110831095561166525448955517963e-07 1:0 2:64 3:0 4:188 5:0 6:41 7:0 8:0 #
2.1110831095561166525448955517963e-07 1:0 2:4866 3:0 4:0 5:0 6:156 7:0 8:9 #
-1.9634163145283689991211833678064e-07 1:41 2:928 3:68 4:0 5:23353 6:124 7:64 8:0 #
-2.1110831095561166525448955517963e-07 1:5295 2:40 3:6 4:0 5:13 6:70 7:12 8:0 #
-1.0148393563231631534571000477843e-07 1:9460 2:119 3:123 4:2 5:7341 6:92 7:123 8:0 #
-2.1110831095561166525448955517963e-07 1:32 2:2213 3:1865 4:0 5:3 6:14 7:3 8:0 #
-2.1110831095561166525448955517963e-07 1:1 2:57 3:9 4:0 5:0 6:31776 7:1 8:0 #
-5.5629227282790688702824428123195e-08 1:0 2:75375 3:17 4:0 5:31 6:62 7:12 8:15 #
2.1110831095561166525448955517963e-07 1:0 2:33 3:8 4:0 5:0 6:1762 7:1244 8:1 #
-4.2075989406245728759882977895387e-08 1:7042 2:92 3:20 4:10 5:0 6:48 7:21 8:0 #
2.1110831095561166525448955517963e-07 1:7116 2:107 3:118 4:1 5:3935 6:104 7:125 8:94 #
5.4476596263806329209993624049235e-08 1:0 2:159 3:46 4:0 5:194 6:1262 7:193 8:13989 #
2.1110831095561166525448955517963e-07 1:0 2:0 3:3 4:1 5:2 6:1602 7:1286 8:0 #
-3.8750431946927911540411778451576e-08 1:7064 2:62 3:23 4:0 5:0 6:64 7:24 8:0 #
2.1110831095561166525448955517963e-07 1:121 2:72 3:9 4:0 5:2 6:63 7:12 8:0 #
-2.9476999586882751547140183562799e-08 1:7050 2:86 3:16 4:0 5:0 6:92 7:17 8:0 #
2.1110831095561166525448955517963e-07 1:0 2:54 3:15 4:0 5:0 6:34 7:8 8:0 #
2.1110831095561166525448955517963e-07 1:7117 2:124 3:128 4:0 5:18 6:94 7:105 8:0 #
2.1110831095561166525448955517963e-07 1:3 2:190 3:63 4:0 5:7056 6:159 7:57 8:4 #
2.1110831095561166525448955517963e-07 1:7042 2:203 3:94 4:1 5:0 6:166 7:115 8:0 #
2.1110831095561166525448955517963e-07 1:0 2:181 3:31 4:0 5:0 6:105 7:21 8:0 #
-4.1598077167025437249630228738435e-18 1:7070 2:173 3:15 4:0 5:0 6:95 7:21 8:0 #
2.1110831095561166525448955517963e-07 1:427 2:79 3:109 4:0 5:6755 6:96 7:124 8:0 #
2.1110831095561166525448955517963e-07 1:0 2:155 3:0 4:0 5:0 6:169 7:0 8:4 #
2.1110831095561166525448955517963e-07 1:0 2:41 3:12 4:0 5:0 6:1411 7:1223 8:0 #
2.1110831095561166525448955517963e-07 1:7 2:24 3:16 4:1 5:1 6:13 7:9 8:0 #
2.1110831095561166525448955517963e-07 1:7063 2:60 3:9 4:1 5:0 6:53 7:20 8:0 #
2.1110831095561166525448955517963e-07 1:0 2:1343 3:0 4:3 5:0 6:4866 7:0 8:0 #
2.1110831095561166525448955517963e-07 1:3 2:95 3:62 4:4 5:2 6:61 7:100 8:2 #
2.1110831095561166525448955517963e-07 1:235 2:235 3:69 4:0 5:76 6:293 7:103 8:21 #
-3.6842960899930381376314933580471e-08 1:7341 2:92 3:123 4:0 5:380 6:91 7:114 8:0 #
-7.0996556424912213011124174910638e-08 1:5455 2:74 3:55 4:0 5:0 6:53 7:56 8:2 #
2.1110831095561166525448955517963e-07 1:4 2:112 3:112 4:0 5:0 6:101 7:116 8:0 #
2.1110831095561166525448955517963e-07 1:15 2:121 3:69 4:1 5:3103 6:4445 7:75 8:0 #
2.1110831095248074031386204246069e-07 1:0 2:3664 3:0 4:0 5:0 6:158 7:0 8:0 #
2.1110831095561166525448955517963e-07 1:3819 2:127 3:65 4:0 5:23 6:3453 7:75 8:2 #
2.1110831095561166525448955517963e-07 1:10 2:138 3:38 4:0 5:14 6:2851 7:667 8:11 #
2.1110831095561166525448955517963e-07 1:2 2:96 3:56 4:0 5:31 6:1122 7:1081 8:1 #
-3.9317472673747938391083098837869e-08 1:7100 2:110 3:12 4:0 5:2 6:89 7:19 8:0 #
2.1110831095561166525448955517963e-07 1:0 2:131 3:24 4:0 5:0 6:658 7:580 8:2 #
-2.1110831095561166525448955517963e-07 1:0 2:41 3:0 4:0 5:0 6:19 7:0 8:0 #
2.1110831095561166525448955517963e-07 1:0 2:62 3:18 4:0 5:71 6:27 7:13 8:0 #
2.1110831095561166525448955517963e-07 1:0 2:1199 3:1054 4:0 5:1 6:155 7:164 8:0 #
-3.8752703066963921047928640258029e-08 1:7072 2:121 3:76 4:0 5:0 6:111 7:84 8:0 #
2.1110831095561166525448955517963e-07 1:1 2:59 3:55 4:0 5:3 6:65 7:60 8:0 #
-2.1110831095561166525448955517963e-07 1:5836 2:25 3:6 4:0 5:4 6:46 7:8 8:0 #
-8.2646234629390398532934960702107e-08 1:7365 2:92 3:17 4:3 5:13 6:54 7:12 8:0 #
-2.5860299426390284998870673074597e-08 1:7056 2:56 3:25 4:0 5:70 6:75 7:9 8:0 #
-3.6358340010933292413530240269615e-08 1:5532 2:142 3:24 4:1 5:324 6:108 7:26 8:0 #
-2.1110831095561166525448955517963e-07 1:4840 2:56 3:8 4:0 5:16 6:44 7:9 8:0 #
2.1110831095561166525448955517963e-07 1:7057 2:84 3:35 4:0 5:0 6:79 7:20 8:0 #
-2.6850397711090339625131248406896e-08 1:7193 2:361 3:57 4:0 5:0 6:214 7:71 8:0 #
-2.1110831095561166525448955517963e-07 1:5476 2:45 3:11 4:0 5:6 6:93 7:19 8:0 #
2.1110831095561166525448955517963e-07 1:5232 2:94 3:121 4:0 5:34 6:72 7:107 8:2 #
-1.2655334369646660247855430355551e-07 1:5153 2:150 3:71 4:0 5:21 6:147 7:85 8:0 #
2.1110831095561166525448955517963e-07 1:3935 2:104 3:125 4:94 5:4 6:187 7:168 8:3 #
2.1110831095561166525448955517963e-07 1:1 2:20 3:11 4:2 5:8 6:50 7:16 8:250 #
2.1110831095561166525448955517963e-07 1:3446 2:99 3:110 4:0 5:191 6:133 7:122 8:0 #
-2.1110831095561166525448955517963e-07 1:2 2:70 3:11 4:55 5:4 6:18 7:9 8:0 #
-2.1110831095561166525448955517963e-07 1:21 2:86 3:17 4:1 5:88 6:65 7:16 8:391 #
2.1110831095561166525448955517963e-07 1:1751 2:129 3:127 4:0 5:5232 6:94 7:121 8:0 #
2.1110831095561166525448955517963e-07 1:7 2:721 3:982 4:0 5:2 6:47 7:25 8:0 #
-2.1110831095561166525448955517963e-07 1:0 2:59 3:0 4:0 5:0 6:99 7:0 8:0 #
-2.1110831095561166525448955517963e-07 1:111 2:37 3:22 4:394 5:4 6:86 7:30 8:104 #
-2.1110831095561166525448955517963e-07 1:1 2:77 3:23 4:0 5:0 6:90 7:43 8:298 #
2.1110831095561166525448955517963e-07 1:27 2:76 3:82 4:0 5:5455 6:74 7:55 8:0 #
2.1110831095561166525448955517963e-07 1:0 2:110 3:0 4:1 5:0 6:25 7:0 8:0 #
2.1110831095561166525448955517963e-07 1:0 2:868 3:0 4:0 5:0 6:2448 7:0 8:0 #
-2.1110831095561166525448955517963e-07 1:0 2:83 3:0 4:0 5:0 6:64 7:0 8:188 #
-2.1110831095561166525448955517963e-07 1:0 2:44 3:19 4:0 5:32 6:2213 7:1865 8:0 #
2.1110831095561166525448955517963e-07 1:834 2:62 3:13 4:0 5:0 6:79 7:16 8:0 #
-2.1110831095561166525448955517963e-07 1:8 2:50 3:16 4:250 5:2 6:70 7:11 8:55 #
-9.4442529712477278480274218522305e-11 1:1 2:72 3:14 4:0 5:1 6:94 7:19 8:0 #
2.1110831095561166525448955517963e-07 1:976 2:164 3:33 4:0 5:1442 6:91 7:8 8:0 #
-2.1110831095561166525448955517963e-07 1:1 2:24 3:9 4:0 5:195 6:122 7:23 8:191 #
-2.1110831095561166525448955517963e-07 1:0 2:90 3:43 4:298 5:6 6:106 7:34 8:0 #
2.1110831095561166525448955517963e-07 1:9 2:625 3:227 4:17 5:4 6:744 7:738 8:1 #
-2.1110831095561166525448955517963e-07 1:16 2:29 3:8 4:0 5:0 6:45 7:24 8:0 #
2.1110831095561166525448955517963e-07 1:0 2:82 3:97 4:0 5:0 6:155 7:71 8:2 #
2.1110831095561166525448955517963e-07 1:0 2:1756 3:65 4:0 5:0 6:148 7:60 8:0 #
-2.1110831095561166525448955517963e-07 1:71 2:27 3:13 4:0 5:36 6:1397 7:1631 8:2 #
2.1110831095561166525448955517963e-07 1:7 2:265 3:140 4:0 5:24 6:274 7:171 8:1 #
2.1110831095561166525448955517963e-07 1:0 2:1070 3:117 4:0 5:0 6:540 7:109 8:0 #
-2.1110831095561166525448955517963e-07 1:0 2:0 3:0 4:0 5:0 6:0 7:0 8:0 #
2.1110831095561166525448955517963e-07 1:0 2:28 3:10 4:0 5:0 6:547 7:921 8:0 #
-2.1110751757785334940956741434787e-07 1:3 2:48 3:48 4:1 5:0 6:100 7:101 8:0 #
-2.1110831095561166525448955517963e-07 1:0 2:61 3:18 4:156 5:0 6:68 7:19 8:0 #
-2.1110831095561166525448955517963e-07 1:0 2:58 3:14 4:0 5:0 6:61 7:18 8:156 #
-1.7465540269394675074289622739715e-07 1:517 2:173 3:27 4:0 5:179 6:214 7:33 8:0 #
2.1110831095561166525448955517963e-07 1:4 2:187 3:168 4:3 5:13 6:202 7:159 8:202 #
2.1110831095561166525448955517963e-07 1:0 2:62 3:13 4:0 5:5 6:559 7:535 8:0 #
2.1110831095561166525448955517963e-07 1:13 2:202 3:159 4:202 5:0 6:81 7:117 8:5 #
2.1110831095561166525448955517963e-07 1:446 2:104 3:110 4:0 5:7 6:265 7:140 8:0 #
-2.1110831095561166525448955517963e-07 1:0 2:0 3:0 4:0 5:0 6:0 7:0 8:0 #
-2.1110831095561166525448955517963e-07 1:3 2:104 3:12 4:0 5:11855 6:80 7:18 8:0 #
2.1110831095561166525448955517963e-07 1:104 2:55 3:106 4:0 5:0 6:50 7:103 8:0 #
-2.1110831095561166525448955517963e-07 1:1 2:47 3:7 4:0 5:0 6:1404 7:1294 8:0 #
2.1110831095561166525448955517963e-07 1:0 2:122 3:59 4:0 5:3819 6:127 7:65 8:0 #
2.1110831095561166525448955517963e-07 1:1442 2:91 3:8 4:0 5:397 6:57 7:10 8:34 #
-2.1110831095561166525448955517963e-07 1:0 2:0 3:0 4:0 5:0 6:3 7:0 8:0 #
-2.5185623718534065719558526262947e-09 1:2 2:32870 3:9 4:0 5:1 6:47 7:7 8:0 #
-2.1110831095561166525448955517963e-07 1:0 2:25 3:0 4:0 5:0 6:77 7:0 8:3 #
-2.1110831095561166525448955517963e-07 1:0 2:8 3:0 4:0 5:0 6:0 7:0 8:0 #
-1.062719994583219937654060228624e-07 1:443 2:124 3:117 4:5 5:9460 6:119 7:123 8:2 #
-2.1110831095561166525448955517963e-07 1:0 2:412 3:0 4:0 5:0 6:84 7:0 8:0 #
-2.1110831095561166525448955517963e-07 1:0 2:123 3:0 4:5 5:0 6:93 7:0 8:5 #
2.1110831095561166525448955517963e-07 1:409 2:224 3:70 4:1 5:3071 6:186 7:66 8:0 #
2.1110831095561166525448955517963e-07 1:0 2:50 3:103 4:0 5:9 6:625 7:227 8:17 #
-3.1263718021078854172819764993074e-10 1:28 2:48 3:10 4:0 5:7365 6:92 7:17 8:3 #
-2.1110831095561166525448955517963e-07 1:0 2:0 3:0 4:0 5:0 6:33 7:0 8:0 #
-9.558473643572424382972290302779e-08 1:0 2:30 3:11 4:0 5:5836 6:25 7:6 8:0 #
2.1110831095561166525448955517963e-07 1:0 2:81 3:117 4:5 5:443 6:124 7:117 8:5 #
-2.1110831095561166525448955517963e-07 1:0 2:10 3:0 4:0 5:0 6:0 7:0 8:0 #
-2.1110831095561166525448955517963e-07 1:0 2:19 3:0 4:0 5:0 6:0 7:0 8:0 #
-2.1110831095561166525448955517963e-07 1:1 2:5 3:0 4:0 5:0 6:3 7:0 8:0 #
2.1110831095561166525448955517963e-07 1:7 2:700 3:102 4:1 5:6 6:213 7:45 8:0 #
-2.1110831095561166525448955517963e-07 1:1 2:4 3:5 4:0 5:19 6:3 7:3 8:0 #
2.1110831095561166525448955517963e-07 1:0 2:99 3:124 4:53 5:4 6:116 7:132 8:2 #
2.1110831095561166525448955517963e-07 1:0 2:77 3:50 4:0 5:124 6:1952 7:58 8:156 #
-2.1110831095561166525448955517963e-07 1:0 2:23 3:0 4:0 5:0 6:0 7:0 8:0 #
-2.1110831095561166525448955517963e-07 1:0 2:0 3:0 4:0 5:0 6:20 7:6 8:0 #
-1.4283254314684986629809698190086e-07 1:105 2:129 3:62 4:0 5:215 6:150 7:75 8:0 #
2.1110831095561166525448955517963e-07 1:221 2:67 3:67 4:0 5:60 6:54 7:76 8:1 #
-2.1110831095561166525448955517963e-07 1:0 2:220 3:34 4:99 5:0 6:171 7:26 8:51 #
2.1110831095561166525448955517963e-07 1:836 2:217 3:28 4:110 5:126 6:139 7:58 8:12 #
2.1110831095561166525448955517963e-07 1:8 2:42 3:4 4:29 5:629 6:64 7:15 8:0 #
2.1110831095561166525448955517963e-07 1:4 2:147 3:13 4:45 5:838 6:295 7:23 8:3 #
-2.1110831095561166525448955517963e-07 1:0 2:27 3:0 4:0 5:0 6:0 7:0 8:0 #
-2.1110831095561166525448955517963e-07 1:0 2:32 3:0 4:0 5:0 6:0 7:0 8:0 #
-2.1110831095561166525448955517963e-07 1:0 2:58 3:15 4:0 5:8 6:42 7:4 8:29 #
2.1110831095561166525448955517963e-07 1:410 2:100 3:19 4:1 5:126 6:48 7:12 8:0 #
2.1110831095561166525448955517963e-07 1:107 2:147 3:33 4:0 5:511 6:155 7:15 8:1 #
-2.1110831095561166525448955517963e-07 1:9 2:50 3:17 4:0 5:2 6:26 7:11 8:28 #
-2.066424835515703423614809666059e-07 1:0 2:145 3:74 4:0 5:7 6:193 7:585 8:0 #
-2.1110831095561166525448955517963e-07 1:0 2:42 3:1 4:0 5:0 6:0 7:0 8:0 #
2.1110831095561166525448955517963e-07 1:0 2:319 3:65 4:0 5:2 6:926 7:61 8:0 #
-2.1110831095561166525448955517963e-07 1:0 2:17 3:0 4:0 5:0 6:17 7:0 8:0 #
2.1110831095561166525448955517963e-07 1:0 2:1375 3:54 4:0 5:0 6:108 7:67 8:0 #
2.1110831095561166525448955517963e-07 1:172 2:162 3:66 4:0 5:2 6:787 7:62 8:0 #
-2.1110831095561166525448955517963e-07 1:1 2:199 3:79 4:0 5:4 6:177 7:304 8:127 #
2.1110831095561166525448955517963e-07 1:35 2:1362 3:63 4:0 5:29 6:395 7:71 8:0 #
2.1110831095561166525448955517963e-07 1:419 2:127 3:8 4:0 5:104 6:234 7:48 8:153 #
-2.1110831095561166525448955517963e-07 1:0 2:25 3:2 4:0 5:0 6:0 7:0 8:0 #
2.1110831095561166525448955517963e-07 1:126 2:48 3:12 4:0 5:365 6:19 7:10 8:12 #
2.1110831095561166525448955517963e-07 1:142 2:340 3:101 4:31 5:199 6:323 7:132 8:51 #
2.1110831095561166525448955517963e-07 1:0 2:116 3:60 4:0 5:0 6:763 7:61 8:0 #
-2.1110831095561166525448955517963e-07 1:0 2:155 3:71 4:2 5:333 6:388 7:69 8:120 #
2.1110831095561166525448955517963e-07 1:0 2:97 3:16 4:0 5:419 6:127 7:8 8:0 #
-2.1110831095561166525448955517963e-07 1:4 2:69 3:16 4:0 5:0 6:78 7:13 8:23 #
-2.1110831095561166525448955517963e-07 1:81 2:114 3:33 4:0 5:0 6:141 7:25 8:0 #
2.1110831095561166525448955517963e-07 1:68 2:158 3:20 4:0 5:0 6:131 7:24 8:0 #
-2.1110831095561166525448955517963e-07 1:124 2:1952 3:58 4:156 5:153 6:532 7:62 8:105 #
-2.1110831095561166525448955517963e-07 1:0 2:78 3:13 4:23 5:0 6:28 7:10 8:0 #
2.1110831095561166525448955517963e-07 1:397 2:57 3:10 4:34 5:4 6:147 7:13 8:45 #
2.1110831095561166525448955517963e-07 1:56 2:53 3:67 4:0 5:221 6:67 7:67 8:0 #
-2.1110831095561166525448955517963e-07 1:20 2:234 3:64 4:187 5:409 6:224 7:70 8:1 #
-2.1110831095561166525448955517963e-07 1:0 2:93 3:0 4:0 5:0 6:0 7:0 8:0 #
2.1110831095561166525448955517963e-07 1:0 2:405 3:70 4:0 5:235 6:235 7:69 8:0 #
2.1110831095561166525448955517963e-07 1:96 2:472 3:67 4:0 5:31 6:324 7:64 8:0 #
-2.1110831095561166525448955517963e-07 1:0 2:0 3:0 4:0 5:0 6:95 7:0 8:0 #
-2.1110831095561166525448955517963e-07 1:0 2:0 3:0 4:0 5:0 6:27 7:2 8:0 #
2.1110831095561166525448955517963e-07 1:76 2:293 3:103 4:21 5:142 6:340 7:101 8:31 #
-2.1110831095561166525448955517963e-07 1:0 2:3 3:0 4:0 5:0 6:35 7:1 8:0 #
2.1110831095561166525448955517963e-07 1:0 2:81 3:110 4:0 5:0 6:83 7:107 8:0 #
-2.1110831095561166525448955517963e-07 1:0 2:63 3:0 4:0 5:1 6:5 7:0 8:0 #
2.1110831095561166525448955517963e-07 1:18 2:94 3:105 4:0 5:1 6:117 7:110 8:1 #
2.1110831095561166525448955517963e-07 1:17 2:141 3:109 4:5 5:10 6:138 7:38 8:0 #
-2.1110831095561166525448955517963e-07 1:0 2:17 3:0 4:0 5:0 6:20 7:0 8:0 #
-2.1110831095561166525448955517963e-07 1:0 2:49 3:0 4:0 5:0 6:11 7:0 8:0 #
-2.1110831095561166525448955517963e-07 1:0 2:0 3:0 4:0 5:3 6:48 7:48 8:1 #
2.1110831095561166525448955517963e-07 1:0 2:232 3:103 4:0 5:0 6:145 7:113 8:0 #
-1.9551815695850325167761394641597e-07 1:0 2:11 3:8 4:0 5:8 6:686 7:585 8:0 #
-2.1110831095561166525448955517963e-07 1:0 2:29 3:0 4:0 5:0 6:14 7:2 8:0 #
2.1110831095561166525448955517963e-07 1:0 2:102 3:106 4:0 5:0 6:100 7:101 8:0 #
-2.1110831095561166525448955517963e-07 1:0 2:7 3:0 4:0 5:0 6:59 7:0 8:0 #
-2.1110831095561166525448955517963e-07 1:0 2:19 3:0 4:0 5:0 6:32 7:0 8:0 #
-2.1110831095561166525448955517963e-07 1:0 2:0 3:0 4:0 5:0 6:62 7:3 8:0 #
2.1110831095561166525448955517963e-07 1:0 2:18 3:10 4:0 5:3 6:32 7:21 8:0 #
-2.1110831095561166525448955517963e-07 1:0 2:470 3:0 4:0 5:0 6:0 7:0 8:0 #
-2.1110831095561166525448955517963e-07 1:0 2:101 3:0 4:0 5:0 6:11 7:0 8:0 #
-7.9742380842788123357543707443729e-08 1:4 2:86 3:30 4:104 5:7148 6:34 7:9 8:0 #
2.1110831095561166525448955517963e-07 1:48 2:113 3:87 4:0 5:6 6:105 7:71 8:0 #
2.1110831095561166525448955517963e-07 1:29 2:395 3:71 4:0 5:0 6:166 7:78 8:3 #
-2.1110831095561166525448955517963e-07 1:0 2:281 3:0 4:0 5:0 6:7 7:0 8:0 #
2.1110831095561166525448955517963e-07 1:0 2:83 3:107 4:0 5:0 6:99 7:124 8:53 #
2.1110831095561166525448955517963e-07 1:109 2:188 3:58 4:0 5:57 6:139 7:38 8:0 #
2.1110831095561166525448955517963e-07 1:0 2:320 3:65 4:0 5:13 6:243 7:76 8:0 #
2.1110831095561166525448955517963e-07 1:0 2:0 3:3 4:0 5:22 6:436 7:149 8:9 #
-2.1110831095561166525448955517963e-07 1:0 2:3 3:0 4:0 5:1 6:51 7:8 8:0 #
-2.1110831095561166525448955517963e-07 1:2 2:63 3:12 4:0 5:1 6:717 7:1167 8:2 #
-2.1110831095561166525448955517963e-07 1:0 2:40 3:2 4:0 5:0 6:10 7:0 8:0 #
-2.1110831095561166525448955517963e-07 1:0 2:20 3:0 4:0 5:0 6:45 7:0 8:0 #
-2.1110831095561166525448955517963e-07 1:0 2:3 3:0 4:0 5:0 6:3148 7:0 8:0 #
-2.1110831095561166525448955517963e-07 1:0 2:77 3:0 4:3 5:0 6:19 7:0 8:0 #
2.1110831095561166525448955517963e-07 1:0 2:214 3:71 4:0 5:1 6:199 7:79 8:0 #
2.1110831095561166525448955517963e-07 1:3 2:22 3:5 4:0 5:27 6:1 7:122 8:0 #
2.1110831095561166525448955517963e-07 1:229 2:95 3:20 4:0 5:44 6:63 7:30 8:0 #
-2.1110831095561166525448955517963e-07 1:0 2:50 3:0 4:0 5:0 6:17 7:0 8:0 #
-2.1110831095561166525448955517963e-07 1:0 2:186 3:0 4:0 5:0 6:8 7:0 8:0 #
2.1110831095561166525448955517963e-07 1:45 2:166 3:64 4:0 5:9 6:149 7:71 8:0 #
2.1110831095561166525448955517963e-07 1:12 2:168 3:68 4:0 5:3 6:190 7:63 8:0 #
-2.1110831095561166525448955517963e-07 1:0 2:125 3:0 4:0 5:0 6:18 7:0 8:0 #
2.1110831095561166525448955517963e-07 1:0 2:45 3:24 4:0 5:0 6:82 7:97 8:0 #
2.1110831095561166525448955517963e-07 1:94 2:92 3:70 4:0 5:0 6:77 7:50 8:0 #
2.1110831095561166525448955517963e-07 1:0 2:442 3:0 4:0 5:0 6:229 7:1 8:0 #
-2.1110831095561166525448955517963e-07 1:0 2:12 3:7 4:0 5:2 6:14 7:3 8:0 #
-2.1110831095561166525448955517963e-07 1:0 2:33 3:7 4:0 5:0 6:3 7:0 8:0 #
2.1110831095561166525448955517963e-07 1:4 2:127 3:66 4:0 5:2 6:96 7:56 8:0 #
-2.1110831095561166525448955517963e-07 1:0 2:43 3:0 4:0 5:0 6:27 7:0 8:0 #
-2.1110831095561166525448955517963e-07 1:2 2:14 3:3 4:0 5:9 6:14 7:3 8:0 #
2.1110831095561166525448955517963e-07 1:0 2:124 3:56 4:0 5:0 6:159 7:46 8:0 #
2.1110831095561166525448955517963e-07 1:2 2:127 3:60 4:0 5:13 6:95 7:56 8:0 #
2.1110831095561166525448955517963e-07 1:25 2:162 3:26 4:2 5:163 6:96 7:26 8:0 #
2.1110831095561166525448955517963e-07 1:31 2:130 3:21 4:0 5:166 6:109 7:25 8:0 #
-2.1110831095561166525448955517963e-07 1:0 2:93 3:0 4:5 5:0 6:124 7:0 8:0 #
-2.1110248656212507353679031386201e-07 1:0 2:1404 3:1294 4:0 5:0 6:46 7:3 8:0 #
2.1110831095561166525448955517963e-07 1:111 2:98 3:33 4:0 5:115 6:117 7:10 8:0 #
2.1110831095561166525448955517963e-07 1:4 2:81 3:15 4:0 5:107 6:147 7:33 8:0 #
-2.1110831095561166525448955517963e-07 1:0 2:20 3:6 4:0 5:0 6:34 7:0 8:0 #
2.1110831095561166525448955517963e-07 1:247 2:89 3:27 4:0 5:10 6:53 7:13 8:0 #
-2.1110831095561166525448955517963e-07 1:0 2:53 3:0 4:0 5:0 6:29 7:0 8:0 #
-2.1110831095561166525448955517963e-07 1:0 2:0 3:0 4:0 5:0 6:106 7:0 8:0 #
2.1110831095561166525448955517963e-07 1:70 2:37 3:8 4:0 5:142 6:43 7:22 8:0 #
2.1110831095561166525448955517963e-07 1:44 2:143 3:19 4:0 5:3 6:133 7:20 8:0 #
-2.1110831095561166525448955517963e-07 1:1 2:24 3:9 4:1 5:0 6:11 7:8 8:0 #
2.1110831095561166525448955517963e-07 1:49 2:69 3:22 4:0 5:28 6:48 7:10 8:0 #
2.1110831095561166525448955517963e-07 1:0 2:50 3:18 4:0 5:60 6:102 7:33 8:0 #
-2.1110831095561166525448955517963e-07 1:1 2:19 3:8 4:0 5:2 6:14 7:2 8:0 #
-2.1110831095561166525448955517963e-07 1:0 2:35 3:10 4:1 5:0 6:12 7:7 8:0 #
-2.1110831095561166525448955517963e-07 1:0 2:11 3:0 4:0 5:0 6:88 7:0 8:0 #
-2.1110831095561166525448955517963e-07 1:0 2:118 3:0 4:0 5:0 6:23 7:0 8:0 #
-2.1110831095561166525448955517963e-07 1:1 2:13 3:9 4:0 5:1 6:24 7:9 8:1 #
-2.1110831095561166525448955517963e-07 1:0 2:27 3:2 4:0 5:0 6:42 7:1 8:0 #
2.1110831095561166525448955517963e-07 1:51 2:99 3:33 4:0 5:0 6:91 7:22 8:0 #
-2.1110831095561166525448955517963e-07 1:2 2:57 3:42 4:0 5:0 6:0 7:0 8:0 #
2.1110831095561166525448955517963e-07 1:34 2:136 3:23 4:1 5:0 6:141 7:25 8:0 #
2.1110831095561166525448955517963e-07 1:6 2:279 3:31 4:0 5:0 6:58 7:15 8:0 #
-2.1110831095561166525448955517963e-07 1:2 2:38 3:10 4:0 5:4 6:37 7:20 8:0 #
2.1110831095561166525448955517963e-07 1:1 2:29 3:17 4:0 5:12 6:59 7:17 8:56 #
2.1110831095561166525448955517963e-07 1:38 2:102 3:16 4:0 5:0 6:136 7:22 8:0 #
2.1110831095561166525448955517963e-07 1:0 2:44 3:16 4:2 5:31 6:73 7:22 8:1 #
2.1110831095561166525448955517963e-07 1:0 2:271 3:0 4:0 5:0 6:174 7:0 8:0 #
-2.1110831095561166525448955517963e-07 1:0 2:17 3:9 4:0 5:0 6:30 7:11 8:0 #
2.1110831095561166525448955517963e-07 1:3 2:30 3:13 4:0 5:10 6:43 7:15 8:0 #
2.1110831095561166525448955517963e-07 1:21 2:110 3:35 4:0 5:12 6:112 7:36 8:0 #
-2.1110831095561166525448955517963e-07 1:0 2:92 3:0 4:0 5:0 6:75 7:0 8:0 #
-2.1110831095561166525448955517963e-07 1:9 2:14 3:3 4:0 5:1 6:19 7:8 8:0 #
-2.1110831095561166525448955517963e-07 1:0 2:72 3:0 4:0 5:0 6:64 7:66 8:0 #
-1.6536790166929381717019138017116e-07 1:0 2:34 3:8 4:0 5:0 6:1212 7:1112 8:1 #
-2.1110831095561166525448955517963e-07 1:0 2:34 3:0 4:0 5:0 6:38 7:2 8:0 #
2.1110831095561166525448955517963e-07 1:0 2:102 3:53 4:0 5:0 6:58 7:14 8:0 #
2.1110831095561166525448955517963e-07 1:0 2:106 3:56 4:0 5:0 6:90 7:61 8:0 #
-2.1110831095561166525448955517963e-07 1:0 2:71 3:0 4:0 5:1 6:38 7:5 8:0 #
-2.1110831095561166525448955517963e-07 1:0 2:75 3:0 4:0 5:0 6:43 7:0 8:0 #
2.1110831095561166525448955517963e-07 1:12 2:59 3:17 4:56 5:37 6:104 7:69 8:1 #
2.1110831095561166525448955517963e-07 1:0 2:166 3:78 4:3 5:20 6:234 7:64 8:187 #
-2.1110831095561166525448955517963e-07 1:0 2:7183 3:0 4:2 5:0 6:159 7:0 8:7 #
2.1110831095561166525448955517963e-07 1:2 2:59 3:48 4:0 5:0 6:69 7:12 8:0 #
2.1110831095561166525448955517963e-07 1:10 2:60 3:20 4:0 5:9 6:50 7:17 8:0 #
-2.1110831095561166525448955517963e-07 1:0 2:118 3:0 4:0 5:0 6:31 7:0 8:0 #
2.1110831095561166525448955517963e-07 1:10 2:43 3:15 4:0 5:3 6:95 7:62 8:4 #
-2.1110831095561166525448955517963e-07 1:0 2:38 3:2 4:0 5:0 6:40 7:2 8:0 #
-2.1110831095561166525448955517963e-07 1:0 2:0 3:0 4:0 5:0 6:218 7:0 8:0 #
2.1110831095561166525448955517963e-07 1:4 2:104 3:40 4:0 5:1 6:73 7:16 8:0 #
-2.1110831095561166525448955517963e-07 1:0 2:185 3:0 4:0 5:0 6:32 7:0 8:0 #
-2.1110831095561166525448955517963e-07 1:0 2:158 3:0 4:0 5:0 6:88 7:0 8:4 #
2.1110831095561166525448955517963e-07 1:6 2:69 3:30 4:0 5:2 6:68 7:29 8:0 #
-2.1110831095561166525448955517963e-07 1:0 2:106 3:0 4:0 5:0 6:49 7:0 8:0 #
2.1110831095561166525448955517963e-07 1:0 2:87 3:34 4:0 5:1 6:89 7:13 8:0 #
-2.1110831095561166525448955517963e-07 1:0 2:11 3:0 4:0 5:0 6:111 7:0 8:0 #
2.1110831095561166525448955517963e-07 1:0 2:87 3:17 4:1 5:1 6:84 7:31 8:0 #
2.1110831095561166525448955517963e-07 1:1 2:68 3:24 4:0 5:0 6:66 7:19 8:0 #
2.1110831095561166525448955517963e-07 1:0 2:171 3:26 4:51 5:4 6:132 7:38 8:0 #
-2.1110831095561166525448955517963e-07 1:0 2:14 3:2 4:0 5:0 6:116 7:1 8:0 #
-2.1110831095561166525448955517963e-07 1:0 2:34 3:0 4:0 5:0 6:137 7:0 8:0 #
2.1110831095561166525448955517963e-07 1:0 2:91 3:22 4:0 5:21 6:86 7:17 8:1 #
2.1110831095561166525448955517963e-07 1:25 2:98 3:14 4:0 5:0 6:113 7:26 8:0 #
-2.1110831095561166525448955517963e-07 1:0 2:159 3:0 4:7 5:0 6:106 7:0 8:0 #
2.1110831095561166525448955517963e-07 1:0 2:79 3:20 4:0 5:0 6:82 7:26 8:1 #
2.1110831095561166525448955517963e-07 1:3 2:70 3:24 4:0 5:1 6:67 7:16 8:0 #
-2.1110831095561166525448955517963e-07 1:2 2:14 3:2 4:0 5:29 6:17 7:8 8:0 #
-2.1110831095561166525448955517963e-07 1:0 2:52 3:0 4:1 5:0 6:110 7:0 8:1 #
-2.1110831095561166525448955517963e-07 1:0 2:88 3:0 4:0 5:0 6:71 7:0 8:0 #
2.1110831095561166525448955517963e-07 1:13 2:124 3:14 4:0 5:0 6:77 7:15 8:0 #
2.1110831095561166525448955517963e-07 1:2 2:65 3:23 4:0 5:3 6:71 7:9 8:0 #
-2.1110831095561166525448955517963e-07 1:6 2:0 3:2 4:0 5:30 6:63 7:3 8:0 #
2.1110831095561166525448955517963e-07 1:3 2:96 3:13 4:0 5:1 6:68 7:22 8:0 #
-2.1110831095561166525448955517963e-07 1:0 2:43 3:0 4:0 5:0 6:91 7:0 8:0 #
2.1110831095561166525448955517963e-07 1:0 2:69 3:20 4:0 5:0 6:71 7:12 8:0 #
-2.1110831095561166525448955517963e-07 1:0 2:182 3:0 4:0 5:0 6:43 7:0 8:0 #
2.1110831095561166525448955517963e-07 1:0 2:124 3:0 4:0 5:0 6:155 7:0 8:0 #
-2.1110831095561166525448955517963e-07 1:0 2:0 3:6 4:0 5:20 6:96 7:11 8:5 #
2.1110831095561166525448955517963e-07 1:0 2:175 3:0 4:0 5:0 6:156 7:0 8:0 #
2.1110831095561166525448955517963e-07 1:7 2:82 3:23 4:0 5:0 6:56 7:5 8:0 #
-2.1110831095561166525448955517963e-07 1:0 2:854 3:0 4:0 5:0 6:34 7:0 8:0 #
-9.785115405107656646180034937417e-09 1:0 2:0 3:0 4:0 5:0 6:278 7:20 8:0 #
2.1110831095561166525448955517963e-07 1:4 2:37 3:20 4:0 5:1 6:29 7:17 8:0 #
-2.1110831095561166525448955517963e-07 1:0 2:45 3:21 4:0 5:0 6:77 7:14 8:3 #
2.1110831095561166525448955517963e-07 1:0 2:39 3:10 4:0 5:0 6:45 7:21 8:0 #
-2.1110831095561166525448955517963e-07 1:29 2:17 3:8 4:0 5:4 6:24 7:9 8:0 #
-2.1110831095561166525448955517963e-07 1:0 2:199 3:0 4:0 5:0 6:50 7:0 8:0 #
-2.1110831095561166525448955517963e-07 1:0 2:23 3:5 4:0 5:4 6:28 7:7 8:0 #
2.1110831095561166525448955517963e-07 1:2 2:62 3:8 4:0 5:1 6:77 7:23 8:0 #
-1.9318906934548034311270939267224e-07 1:0 2:35 3:1 4:0 5:0 6:171 7:0 8:0 #
2.1110831095561166525448955517963e-07 1:5 2:60 3:18 4:0 5:0 6:31 7:8 8:0 #
-2.1110831095561166525448955517963e-07 1:21 2:30 3:7 4:0 5:0 6:17 7:9 8:0 #
2.1110831095561166525448955517963e-07 1:0 2:53 3:20 4:0 5:0 6:52 7:15 8:4 #
-2.1110831095561166525448955517963e-07 1:6 2:39 3:8 4:0 5:6 6:18 7:3 8:0 #
2.1110831095561166525448955517963e-07 1:0 2:156 3:0 4:9 5:0 6:109 7:0 8:1 #
-4.2732458340046705874259308499674e-08 1:19 2:3 3:3 4:0 5:163 6:16 7:0 8:0 #
-7.8722875849077134968845401337412e-08 1:1 2:1736 3:7 4:0 5:0 6:4 7:6 8:0 #
-2.1110831095561166525448955517963e-07 1:0 2:18 3:0 4:0 5:0 6:281 7:0 8:0 #
2.1110831095561166525448955517963e-07 1:0 2:40 3:13 4:0 5:0 6:52 7:14 8:0 #
-2.1110831095561166525448955517963e-07 1:0 2:104 3:0 4:0 5:0 6:76 7:0 8:0 #
2.1110831095561166525448955517963e-07 1:0 2:52 3:15 4:4 5:0 6:44 7:16 8:2 #
2.1110831095561166525448955517963e-07 1:0 2:52 3:9 4:0 5:10 6:53 7:11 8:0 #
-2.1110831095561166525448955517963e-07 1:0 2:32 3:7 4:0 5:0 6:36 7:7 8:0 #
2.1110831095561166525448955517963e-07 1:0 2:55 3:16 4:1 5:0 6:33 7:8 8:0 #
-2.1110831095561166525448955517963e-07 1:0 2:31 3:8 4:0 5:0 6:35 7:10 8:1 #
2.1110831095561166525448955517963e-07 1:3 2:54 3:11 4:0 5:1 6:62 7:8 8:0 #
-2.1110831095561166525448955517963e-07 1:0 2:88 3:0 4:0 5:0 6:88 7:0 8:0 #
-2.1110831095561166525448955517963e-07 1:4 2:24 3:9 4:0 5:0 6:18 7:10 8:0 #
2.1110831095561166525448955517963e-07 1:1 2:80 3:10 4:0 5:1 6:24 7:9 8:0 #
-2.1110831095561166525448955517963e-07 1:0 2:33 3:8 4:0 5:0 6:33 7:7 8:0 #
2.1110831095561166525448955517963e-07 1:0 2:84 3:0 4:0 5:0 6:83 7:0 8:0 #
-2.1110831095561166525448955517963e-07 1:0 2:220 3:0 4:0 5:0 6:49 7:0 8:0 #
2.1110831095561166525448955517963e-07 1:0 2:48 3:5 4:0 5:2 6:25 7:10 8:0 #
-2.1110831095561166525448955517963e-07 1:0 2:159 3:0 4:0 5:0 6:72 7:0 8:0 #
2.1110831095561166525448955517963e-07 1:0 2:86 3:0 4:0 5:0 6:52 7:0 8:1 #
2.1110831095561166525448955517963e-07 1:0 2:116 3:0 4:8 5:0 6:123 7:0 8:5 #
-2.1110831095561166525448955517963e-07 1:6 2:18 3:3 4:0 5:18 6:42 7:8 8:0 #
2.1110831095561166525448955517963e-07 1:0 2:109 3:0 4:1 5:0 6:116 7:0 8:8 #
-2.1110831095561166525448955517963e-07 1:0 2:112 3:0 4:0 5:0 6:107 7:0 8:0 #
2.1110831095561166525448955517963e-07 1:2 2:26 3:11 4:28 5:4 6:69 7:16 8:0 #
-1.2226410405081006101918696983566e-07 1:3 2:14 3:3 4:0 5:2 6:74 7:19 8:0 #
-2.1110831095561166525448955517963e-07 1:0 2:36 3:7 4:0 5:0 6:39 7:16 8:0 #
2.1110831095561166525448955517963e-07 1:195 2:122 3:23 4:191 5:5 6:103 7:13 8:0 #
2.1110831095561166525448955517963e-07 1:0 2:210 3:22 4:85 5:0 6:220 7:34 8:99 #
-2.1110831095561166525448955517963e-07 1:0 2:54 3:0 4:0 5:0 6:176 7:0 8:0 #
2.1110831095561166525448955517963e-07 1:104 2:234 3:48 4:153 5:0 6:210 7:22 8:85 #
3.811031539572814789931418880814e-08 1:22 2:436 3:149 4:9 5:34 6:22 7:13 8:1288 #
-2.9959388485670257473714173102053e-09 1:1 2:47 3:12 4:0 5:0 6:23 7:5 8:0 #
2.1110831095561166525448955517963e-07 1:88 2:65 3:16 4:391 5:3 6:62 7:28 8:0 #
-2.111081149918745787898236845534e-07 1:0 2:20 3:0 4:0 5:0 6:630 7:0 8:0 #
2.1110831095561166525448955517963e-07 1:3 2:62 3:28 4:0 5:111 6:37 7:22 8:394 #
-2.1110831095561166525448955517963e-07 1:0 2:88 3:0 4:4 5:0 6:1154 7:0 8:0 #
-9.1947846313558938974308532010582e-10 1:1 2:23 3:15 4:0 5:0 6:37 7:9 8:0 #
