SVM-light Version V6.02
0 # kernel type
3 # kernel parameter -d 
1 # kernel parameter -g 
1 # kernel parameter -s 
1 # kernel parameter -r 
empty# kernel parameter -u 
16 # highest feature index 
374 # number of training documents 
361 # number of support vectors plus 1 
0.41628478 # threshold b, each following line is a SV (starting with alpha*y)
-8.9734110939267903459678967122148e-08 1:23 2:27 3:9 4:0 5:113 6:63 7:22 8:0 9:81 10:114 11:33 12:0 13:0 14:141 15:25 16:0 #
8.9734110939267903459678967122148e-08 1:23 2:3453 3:75 4:2 5:6 6:1178 7:134 8:2 9:0 10:116 11:60 12:0 13:0 14:763 15:61 16:0 #
8.9734110939267903459678967122148e-08 1:419 2:127 3:8 4:0 5:104 6:234 7:48 8:153 9:0 10:210 11:22 12:85 13:0 14:220 15:34 16:99 #
-8.9734110939267903459678967122148e-08 1:1 2:52 3:13 4:0 5:1 6:74 7:16 8:0 9:0 10:187 11:27 12:0 13:328 14:129 15:20 16:0 #
-8.9734110939267903459678967122148e-08 1:1 2:89 3:13 4:0 5:4725 6:36 7:15 8:3 9:1 10:57 11:9 12:0 13:0 14:31776 15:1 16:0 #
-8.9734110939267903459678967122148e-08 1:0 2:4533 3:0 4:0 5:0 6:258 7:1 8:0 9:0 10:154 11:0 12:0 13:0 14:198 15:0 16:0 #
8.9734110939267903459678967122148e-08 1:15 2:121 3:69 4:1 5:3103 6:4445 7:75 8:0 9:7042 10:203 11:94 12:1 13:0 14:166 15:115 16:0 #
8.9734110939267903459678967122148e-08 1:0 2:33 3:8 4:0 5:0 6:1762 7:1244 8:1 9:1 10:20 11:11 12:2 13:8 14:50 15:16 16:250 #
8.9734110939267903459678967122148e-08 1:206 2:0 3:25 4:460 5:45 6:1018 7:960 8:621 9:976 10:164 11:33 12:0 13:1442 14:91 15:8 16:0 #
4.5086176516549054311310462325735e-08 1:427 2:79 3:109 4:0 5:6755 6:96 7:124 8:0 9:7116 10:107 11:118 12:1 13:3935 14:104 15:125 16:94 #
-8.9734110939267903459678967122148e-08 1:28 2:116 3:62 4:0 5:41 6:928 7:68 8:0 9:23353 10:124 11:64 12:0 13:3 14:97 15:56 16:0 #
8.9734110939267903459678967122148e-08 1:5295 2:40 3:6 4:0 5:13 6:70 7:12 8:0 9:1 10:80 11:10 12:0 13:1 14:24 15:9 16:0 #
8.9734110939267903459678967122148e-08 1:208 2:695 3:65 4:1 5:7084 6:1627 7:80 8:0 9:45 10:166 11:64 12:0 13:9 14:149 15:71 16:0 #
8.9734110939267903459678967122148e-08 1:0 2:106 3:64 4:0 5:0 6:122 7:66 8:0 9:0 10:106 11:56 12:0 13:0 14:90 15:61 16:0 #
8.3558364616646718598928929820635e-08 1:0 2:135 3:61 4:0 5:0 6:100 7:63 8:0 9:23706 10:148 11:32 12:0 13:1 14:198 15:28 16:2 #
-8.9734110939267903459678967122148e-08 1:191 2:133 3:122 4:0 5:88 6:116 7:116 8:25 9:4 10:144 11:110 12:0 13:7117 14:124 15:128 16:0 #
-8.9734110939267903459678967122148e-08 1:0 2:0 3:0 4:0 5:0 6:95 7:0 8:0 9:0 10:218 11:0 12:0 13:0 14:118 15:0 16:0 #
-8.9734110939267903459678967122148e-08 1:443 2:124 3:117 4:5 5:9460 6:119 7:123 8:2 9:7341 10:92 11:123 12:0 13:380 14:91 15:114 16:0 #
-6.098436249608152310381845029319e-08 1:409 2:224 3:70 4:1 5:3071 6:186 7:66 8:0 9:188 10:15818 11:53 12:2 13:1189 14:187 15:64 16:0 #
-8.9734110939267903459678967122148e-08 1:142 2:340 3:101 4:31 5:199 6:323 7:132 8:51 9:35 10:295 11:110 12:29 13:7193 14:361 15:57 16:0 #
8.9734110939267903459678967122148e-08 1:0 2:1343 3:0 4:3 5:0 6:4866 7:0 8:0 9:0 10:156 11:0 12:9 13:0 14:109 15:0 16:1 #
8.9734110939267903459678967122148e-08 1:12210 2:38 3:10 4:0 5:3 6:104 7:12 8:0 9:11855 10:80 11:18 12:0 13:1 14:121 15:14 16:0 #
8.9734110939267903459678967122148e-08 1:7050 2:86 3:16 4:0 5:0 6:92 7:17 8:0 9:0 10:54 11:15 12:0 13:0 14:34 15:8 16:0 #
8.9734110939267903459678967122148e-08 1:7063 2:60 3:9 4:1 5:0 6:53 7:20 8:0 9:0 10:52 11:15 12:4 13:0 14:44 15:16 16:2 #
8.9734110939267903459678967122148e-08 1:7116 2:107 3:118 4:1 5:3935 6:104 7:125 8:94 9:4 10:187 11:168 12:3 13:13 14:202 15:159 16:202 #
8.9734110939267903459678967122148e-08 1:6755 2:96 3:124 4:0 5:7116 6:107 7:118 8:1 9:3935 10:104 11:125 12:94 13:4 14:187 15:168 16:3 #
-8.9734110939267903459678967122148e-08 1:0 2:77 3:50 4:0 5:124 6:1952 7:58 8:156 9:153 10:532 11:62 12:105 13:17 14:104 15:59 16:0 #
-8.9734110939267903459678967122148e-08 1:7341 2:92 3:123 4:0 5:380 6:91 7:114 8:0 9:0 10:76 11:116 12:0 13:155 14:96 15:125 16:0 #
-8.9734110939267903459678967122148e-08 1:9 2:54 3:13 4:0 5:0 6:57 7:14 8:0 9:12210 10:38 11:10 12:0 13:3 14:104 15:12 16:0 #
-8.9734110939267903459678967122148e-08 1:5971 2:135 3:18 4:0 5:7064 6:62 7:23 8:0 9:0 10:64 11:24 12:0 13:0 14:89 15:17 16:0 #
-8.9734110939267903459678967122148e-08 1:0 2:191 3:0 4:0 5:0 6:503 7:0 8:0 9:0 10:209 11:0 12:0 13:0 14:7140 15:0 16:0 #
-8.9734110939267903459678967122148e-08 1:0 2:44 3:19 4:0 5:32 6:2213 7:1865 8:0 9:3 10:14 11:3 12:0 13:2 14:74 15:19 16:0 #
8.9734110939267903459678967122148e-08 1:0 2:810 3:68 4:0 5:0 6:3601 7:65 8:0 9:0 10:1756 11:65 12:0 13:0 14:148 15:60 16:0 #
8.9734110939267903459678967122148e-08 1:3935 2:104 3:125 4:94 5:4 6:187 7:168 8:3 9:13 10:202 11:159 12:202 13:0 14:81 15:117 16:5 #
8.9734110939267903459678967122148e-08 1:4 2:127 3:66 4:0 5:2 6:96 7:56 8:0 9:31 10:1122 11:1081 12:1 13:102 14:246 15:186 16:7 #
-8.9734110939267903459678967122148e-08 1:0 2:116 3:72 4:0 5:0 6:53 7:54 8:0 9:0 10:33 11:40 12:2433 13:31 14:1617 15:1233 16:3 #
-8.9734110939267903459678967122148e-08 1:0 2:1070 3:117 4:0 5:0 6:540 7:109 8:0 9:7049 10:178 11:117 12:1 13:1 14:199 15:119 16:0 #
-8.9734110939267903459678967122148e-08 1:0 2:97 3:15 4:0 5:0 6:70 7:8 8:0 9:2966 10:58 11:5 12:0 13:4840 14:56 15:8 16:0 #
-8.9734110939267903459678967122148e-08 1:1 2:50 3:11 4:0 5:123 6:49 7:6 8:0 9:7058 10:82 11:12 12:0 13:69 14:53 15:11 16:0 #
8.9734110939267903459678967122148e-08 1:2652 2:126 3:20 4:0 5:1 6:51 7:16 8:0 9:0 10:102 11:53 12:0 13:0 14:58 15:14 16:0 #
-8.9734110939267903459678967122148e-08 1:7056 2:159 3:57 4:4 5:5407 6:98 7:60 8:1 9:0 10:106 11:64 12:0 13:0 14:122 15:66 16:0 #
-7.6338030822060412225460446222769e-08 1:7070 2:173 3:15 4:0 5:0 6:95 7:21 8:0 9:0 10:146 11:47 12:0 13:0 14:117 15:35 16:0 #
-8.9734110939267903459678967122148e-08 1:28 2:48 3:10 4:0 5:7365 6:92 7:17 8:3 9:13 10:54 11:12 12:0 13:24 14:54 15:6 16:0 #
-8.9734110939267903459678967122148e-08 1:5925 2:71 3:16 4:1 5:49 6:70 7:21 8:0 9:19 10:42 11:9 12:0 13:0 14:34 15:14 16:0 #
-8.9734110939267903459678967122148e-08 1:10 2:1253 3:129 4:0 5:0 6:1070 7:117 8:0 9:0 10:540 11:109 12:0 13:7049 14:178 15:117 16:1 #
8.9734110939267903459678967122148e-08 1:5476 2:45 3:11 4:0 5:6 6:93 7:19 8:0 9:31 10:130 11:21 12:0 13:166 14:109 15:25 16:0 #
-8.9734110939267903459678967122148e-08 1:7072 2:121 3:76 4:0 5:0 6:111 7:84 8:0 9:0 10:108 11:62 12:0 13:12 14:152 15:74 16:0 #
-8.9734110939267903459678967122148e-08 1:7061 2:148 3:71 4:0 5:427 6:109 7:67 8:0 9:1099 10:119 11:63 12:0 13:494 14:98 15:57 16:0 #
8.9734110939267903459678967122148e-08 1:0 2:547 3:921 4:0 5:751 6:601 7:981 8:1 9:6 10:279 11:31 12:0 13:0 14:58 15:15 16:0 #
8.9734110939267903459678967122148e-08 1:31 2:62 3:12 4:15 5:7057 6:84 7:35 8:0 9:0 10:79 11:20 12:0 13:0 14:82 15:26 16:1 #
8.9734110939267903459678967122148e-08 1:1189 2:187 3:64 4:0 5:0 6:405 7:70 8:0 9:235 10:235 11:69 12:0 13:76 14:293 15:103 16:21 #
8.9734110939267903459678967122148e-08 1:179 2:214 3:33 4:0 5:1270 6:140 7:22 8:0 9:0 10:97 11:16 12:0 13:419 14:127 15:8 16:0 #
8.9734110939267903459678967122148e-08 1:10 2:138 3:38 4:0 5:14 6:2851 7:667 8:11 9:0 10:4004 11:570 12:1 13:0 14:0 15:3 16:0 #
8.9734110939267903459678967122148e-08 1:14 2:2851 3:667 4:11 5:0 6:4004 7:570 8:1 9:0 10:0 11:3 12:0 13:22 14:436 15:149 16:9 #
8.9734110939267903459678967122148e-08 1:2 2:68 3:29 4:0 5:7063 6:60 7:9 8:1 9:0 10:53 11:20 12:0 13:0 14:52 15:15 16:4 #
8.9734110939267903459678967122148e-08 1:88 2:116 3:116 4:25 5:4 6:144 7:110 8:0 9:7117 10:124 11:128 12:0 13:18 14:94 15:105 16:0 #
8.9734110939267903459678967122148e-08 1:1270 2:140 3:22 4:0 5:0 6:97 7:16 8:0 9:419 10:127 11:8 12:0 13:104 14:234 15:48 16:153 #
-8.9734110939267903459678967122148e-08 1:3446 2:99 3:110 4:0 5:191 6:133 7:122 8:0 9:88 10:116 11:116 12:25 13:4 14:144 15:110 16:0 #
8.9734110939267903459678967122148e-08 1:1442 2:91 3:8 4:0 5:397 6:57 7:10 8:34 9:4 10:147 11:13 12:45 13:838 14:295 15:23 16:3 #
-8.9734110939267903459678967122148e-08 1:0 2:17 3:9 4:0 5:0 6:30 7:11 8:0 9:5836 10:25 11:6 12:0 13:4 14:46 15:8 16:0 #
-8.9734110939267903459678967122148e-08 1:1 2:717 3:1167 4:2 5:7 6:721 7:982 8:0 9:2 10:47 11:25 12:0 13:0 14:13 15:7 16:674 #
-8.9734110939267903459678967122148e-08 1:0 2:71 3:20 4:0 5:0 6:130 7:26 8:0 9:0 10:46 11:7 12:0 13:1 14:1736 15:7 16:0 #
-8.9734110939267903459678967122148e-08 1:21 2:30 3:7 4:0 5:0 6:17 7:9 8:0 9:0 10:30 11:11 12:0 13:5836 14:25 15:6 16:0 #
8.9734110939267903459678967122148e-08 1:6 2:69 3:30 4:0 5:2 6:68 7:29 8:0 9:7063 10:60 11:9 12:1 13:0 14:53 15:20 16:0 #
8.9734110939267903459678967122148e-08 1:49 2:89 3:111 4:0 5:1751 6:129 7:127 8:0 9:5232 10:94 11:121 12:0 13:34 14:72 15:107 16:2 #
8.9734110939267903459678967122148e-08 1:35 2:295 3:110 4:29 5:7193 6:361 7:57 8:0 9:0 10:214 11:71 12:0 13:1 14:199 15:79 16:0 #
-8.9734110939267903459678967122148e-08 1:136 2:47 3:9 4:0 5:7056 6:56 7:25 8:0 9:70 10:75 11:9 12:0 13:37 14:47 15:22 16:0 #
-8.9734110939267903459678967122148e-08 1:1 2:87 3:13 4:1 5:7060 6:68 7:22 8:0 9:0 10:43 11:7 12:0 13:2 14:75 15:23 16:0 #
8.9734110939267903459678967122148e-08 1:155 2:96 3:125 4:0 5:49 6:89 7:111 8:0 9:1751 10:129 11:127 12:0 13:5232 14:94 15:121 16:0 #
-8.9734110939267903459678967122148e-08 1:37 2:70 3:63 4:1 5:27 6:76 7:82 8:0 9:5455 10:74 11:55 12:0 13:0 14:53 15:56 16:2 #
-8.9734110939267903459678967122148e-08 1:0 2:239 3:10 4:0 5:714 6:141 7:18 8:0 9:5097 10:136 11:24 12:0 13:0 14:74 15:16 16:0 #
8.9734110939267903459678967122148e-08 1:4 2:144 3:110 4:0 5:7117 6:124 7:128 8:0 9:18 10:94 11:105 12:0 13:1 14:117 15:110 16:1 #
-8.9734110939267903459678967122148e-08 1:0 2:33 3:6 4:0 5:5295 6:40 7:6 8:0 9:13 10:70 11:12 12:0 13:1 14:80 15:10 16:0 #
8.9734110939267903459678967122148e-08 1:8 2:190 3:53 4:2 5:12 6:168 7:68 8:0 9:3 10:190 11:63 12:0 13:7056 14:159 15:57 16:4 #
-8.9734110939267903459678967122148e-08 1:1751 2:129 3:127 4:0 5:5232 6:94 7:121 8:0 9:34 10:72 11:107 12:2 13:184 14:103 15:103 16:1 #
8.9734110939267903459678967122148e-08 1:0 2:611 3:0 4:0 5:0 6:524 7:0 8:0 9:0 10:3664 11:0 12:0 13:0 14:158 15:0 16:0 #
5.7604788819340783877199184404017e-08 1:4 2:132 3:38 4:0 5:3592 6:195 7:523 8:3471 9:0 10:124 11:56 12:0 13:0 14:159 15:46 16:0 #
8.9734110939267903459678967122148e-08 1:976 2:164 3:33 4:0 5:1442 6:91 7:8 8:0 9:397 10:57 11:10 12:34 13:4 14:147 15:13 16:45 #
8.9734110939267903459678967122148e-08 1:0 2:114 3:60 4:0 5:0 6:122 7:59 8:0 9:3819 10:127 11:65 12:0 13:23 14:3453 15:75 16:2 #
-8.9734110939267903459678967122148e-08 1:0 2:69 3:12 4:0 5:0 6:78 7:3 8:0 9:4616 10:77 11:12 12:0 13:2519 14:87 15:9 16:0 #
8.9734110939267903459678967122148e-08 1:2 2:91 3:65 4:0 5:263 6:63 7:95 8:0 9:3446 10:99 11:110 12:0 13:191 14:133 15:122 16:0 #
-8.9734110939267903459678967122148e-08 1:22 2:436 3:149 4:9 5:34 6:22 7:13 8:1288 9:14 10:300 11:352 12:1484 13:50 14:106 15:55 16:0 #
8.9734110939267903459678967122148e-08 1:38 2:102 3:16 4:0 5:0 6:136 7:22 8:0 9:0 10:0 11:3 12:1 13:2 14:1602 15:1286 16:0 #
-8.9734110939267903459678967122148e-08 1:0 2:3664 3:0 4:0 5:0 6:158 7:0 8:0 9:0 10:88 11:0 12:4 13:0 14:1154 15:0 16:0 #
-8.9734110939267903459678967122148e-08 1:1 2:62 3:8 4:0 5:0 6:1165 7:879 8:26 9:21 10:683 11:951 12:0 13:295 14:70 15:10 16:0 #
8.9734110939267903459678967122148e-08 1:0 2:95 3:14 4:0 5:0 6:95 7:20 8:0 9:0 10:41 11:12 12:0 13:0 14:1411 15:1223 16:0 #
-8.9734110939267903459678967122148e-08 1:1 2:47 3:7 4:0 5:0 6:1404 7:1294 8:0 9:0 10:46 11:3 12:0 13:0 14:69 15:24 16:0 #
8.9734110939267903459678967122148e-08 1:0 2:2448 3:0 4:0 5:0 6:1343 7:0 8:3 9:0 10:4866 11:0 12:0 13:0 14:156 15:0 16:9 #
-8.9734110939267903459678967122148e-08 1:0 2:108 3:67 4:0 5:0 6:110 7:72 8:1 9:0 10:810 11:68 12:0 13:0 14:3601 15:65 16:0 #
-8.9734110939267903459678967122148e-08 1:446 2:104 3:110 4:0 5:7 6:265 7:140 8:0 9:24 10:274 11:171 12:1 13:1800 14:104 15:156 16:2 #
-8.9734110939267903459678967122148e-08 1:107 2:147 3:33 4:0 5:511 6:155 7:15 8:1 9:6 10:55 11:8 12:2 13:1 14:52 15:13 16:0 #
-8.9734110939267903459678967122148e-08 1:0 2:50 3:103 4:0 5:9 6:625 7:227 8:17 9:4 10:744 11:738 12:1 13:30 14:751 15:629 16:1 #
-8.9734110939267903459678967122148e-08 1:1 2:13 3:9 4:0 5:1 6:24 7:9 8:1 9:0 10:11 11:8 12:0 13:8 14:686 15:585 16:0 #
-8.9734110939267903459678967122148e-08 1:4 2:51 3:58 4:0 5:407 6:73 7:17 8:0 9:249 10:56 11:4 12:0 13:3 14:71 15:27 16:0 #
8.9734110939267903459678967122148e-08 1:0 2:34 3:8 4:0 5:0 6:63 7:23 8:0 9:0 10:48 11:5 12:0 13:2 14:25 15:10 16:0 #
-8.9734110939267903459678967122148e-08 1:20 2:2423 3:2680 4:0 5:6 6:33 7:12 8:0 9:5 10:67 11:20 12:0 13:2 14:67 15:10 16:0 #
8.9734110939267903459678967122148e-08 1:0 2:229 3:65 4:0 5:35 6:1362 7:63 8:0 9:29 10:395 11:71 12:0 13:0 14:166 15:78 16:3 #
8.9734110939267903459678967122148e-08 1:7 2:166 3:118 4:1 5:10 6:1253 7:129 8:0 9:0 10:1070 11:117 12:0 13:0 14:540 15:109 16:0 #
8.9734110939267903459678967122148e-08 1:0 2:1212 3:1112 4:1 5:16 6:29 7:8 8:0 9:0 10:45 11:24 12:0 13:0 14:82 15:97 16:0 #
-8.9734110939267903459678967122148e-08 1:43 2:35 3:22 4:0 5:1 6:4 7:5 8:0 9:19 10:3 11:3 12:0 13:163 14:16 15:0 16:0 #
-8.9734110939267903459678967122148e-08 1:0 2:155 3:0 4:0 5:0 6:169 7:0 8:4 9:0 10:7183 11:0 12:2 13:0 14:159 15:0 16:7 #
8.9734110939267903459678967122148e-08 1:4 2:744 3:738 4:1 5:30 6:751 7:629 8:1 9:446 10:104 11:110 12:0 13:7 14:265 15:140 16:0 #
8.9734110939267903459678967122148e-08 1:8 2:686 3:585 4:0 5:15 6:914 7:782 8:0 9:7 10:700 11:102 12:1 13:6 14:213 15:45 16:0 #
-8.9734110939267903459678967122148e-08 1:0 2:1869 3:0 4:0 5:0 6:854 7:0 8:0 9:0 10:34 11:0 12:0 13:0 14:137 15:0 16:0 #
8.9734110939267903459678967122148e-08 1:7 2:1489 3:770 4:0 5:27 6:98 7:59 8:0 9:48 10:113 11:87 12:0 13:6 14:105 15:71 16:0 #
8.9734110939267903459678967122148e-08 1:0 2:55 3:16 4:1 5:0 6:33 7:8 8:0 9:0 10:1762 11:1244 12:1 13:1 14:20 15:11 16:2 #
8.9734110939267903459678967122148e-08 1:0 2:1717 3:72 4:0 5:0 6:949 7:58 8:0 9:0 10:1375 11:54 12:0 13:0 14:108 15:67 16:0 #
-8.9734110939267903459678967122148e-08 1:3 2:62 3:18 4:0 5:2 6:62 7:8 8:0 9:1 10:77 11:23 12:0 13:0 14:90 15:43 16:298 #
-8.9734110939267903459678967122148e-08 1:108 2:482 3:70 4:0 5:96 6:472 7:67 8:0 9:31 10:324 11:64 12:0 13:208 14:695 15:65 16:1 #
-8.9734110939267903459678967122148e-08 1:0 2:136 3:22 4:0 5:0 6:0 7:3 8:1 9:2 10:1602 11:1286 12:0 13:59 14:35 15:2 16:1 #
-8.9734110939267903459678967122148e-08 1:0 2:1154 3:0 4:0 5:0 6:156 7:0 8:0 9:0 10:148 11:0 12:0 13:0 14:271 15:0 16:0 #
8.9734110939267903459678967122148e-08 1:0 2:111 3:0 4:0 5:0 6:412 7:0 8:0 9:0 10:84 11:0 12:0 13:0 14:83 15:0 16:0 #
8.9734110939267903459678967122148e-08 1:0 2:0 3:0 4:0 5:0 6:0 7:0 8:0 9:0 10:0 11:0 12:0 13:0 14:0 15:0 16:0 #
8.9734110939267903459678967122148e-08 1:3 2:169 3:71 4:0 5:0 6:229 7:65 8:0 9:35 10:1362 11:63 12:0 13:29 14:395 15:71 16:0 #
8.9734110939267903459678967122148e-08 1:324 2:108 3:26 4:0 5:0 6:56 7:16 8:0 9:3 10:96 11:13 12:0 13:1 14:68 15:22 16:0 #
-8.9734110939267903459678967122148e-08 1:104 2:234 3:48 4:153 5:0 6:210 7:22 8:85 9:0 10:220 11:34 12:99 13:0 14:171 15:26 16:51 #
8.9734110939267903459678967122148e-08 1:0 2:4866 3:0 4:0 5:0 6:156 7:0 8:9 9:0 10:109 11:0 12:1 13:0 14:116 15:0 16:8 #
-8.9734110939267903459678967122148e-08 1:0 2:1411 3:1223 4:0 5:465 6:464 7:11 8:6 9:0 10:60 11:13 12:0 13:79 14:221 15:19 16:0 #
-8.9734110939267903459678967122148e-08 1:1 2:4 3:5 4:0 5:19 6:3 7:3 8:0 9:163 10:16 11:0 12:0 13:21 14:118 15:47 16:0 #
8.9734110939267903459678967122148e-08 1:1 2:80 3:10 4:0 5:1 6:24 7:9 8:0 9:195 10:122 11:23 12:191 13:5 14:103 15:13 16:0 #
-8.9734110939267903459678967122148e-08 1:0 2:62 3:13 4:0 5:5 6:559 7:535 8:0 9:17 10:909 11:756 12:3 13:115 14:70 15:33 16:0 #
8.9734110939267903459678967122148e-08 1:0 2:229 3:1 4:0 5:0 6:429 7:0 8:1 9:0 10:175 11:0 12:0 13:0 14:156 15:0 16:0 #
-8.9734110939267903459678967122148e-08 1:0 2:470 3:0 4:0 5:0 6:0 7:0 8:0 9:0 10:0 11:0 12:0 13:0 14:278 15:20 16:0 #
8.9734110939267903459678967122148e-08 1:0 2:61 3:15 4:0 5:0 6:81 7:23 8:0 9:0 10:1199 11:1054 12:0 13:1 14:155 15:164 16:0 #
8.9734110939267903459678967122148e-08 1:0 2:91 3:22 4:0 5:21 6:86 7:17 8:1 9:88 10:65 11:16 12:391 13:3 14:62 15:28 16:0 #
-8.9734110939267903459678967122148e-08 1:0 2:90 3:114 4:0 5:76 6:120 7:126 8:0 9:0 10:123 11:111 12:0 13:133 14:231 15:149 16:0 #
8.9734110939267903459678967122148e-08 1:0 2:868 3:0 4:0 5:0 6:2448 7:0 8:0 9:0 10:1343 11:0 12:3 13:0 14:4866 15:0 16:0 #
-8.9734110939267903459678967122148e-08 1:7 2:24 3:16 4:1 5:1 6:13 7:9 8:0 9:1 10:24 11:9 12:1 13:0 14:11 15:8 16:0 #
8.9734110939267903459678967122148e-08 1:0 2:18 3:10 4:0 5:3 6:32 7:21 8:0 9:7 10:24 11:16 12:1 13:1 14:13 15:9 16:0 #
-8.9734110939267903459678967122148e-08 1:0 2:202 3:10 4:0 5:123 6:473 7:28 8:0 9:133 10:106 11:31 12:0 13:65 14:190 15:36 16:0 #
8.9734110939267903459678967122148e-08 1:2 2:63 3:12 4:0 5:1 6:717 7:1167 8:2 9:7 10:721 11:982 12:0 13:2 14:47 15:25 16:0 #
-8.9734110939267903459678967122148e-08 1:76 2:120 3:126 4:0 5:0 6:123 7:111 8:0 9:133 10:231 11:149 12:0 13:57 14:157 15:119 16:0 #
-8.9734110939267903459678967122148e-08 1:0 2:124 3:92 4:0 5:3 6:123 7:112 8:0 9:0 10:123 11:111 12:0 13:0 14:127 15:108 16:0 #
-8.9734110939267903459678967122148e-08 1:0 2:511 3:67 4:0 5:0 6:240 7:72 8:0 9:0 10:1717 11:72 12:0 13:0 14:949 15:58 16:0 #
-8.9734110939267903459678967122148e-08 1:605 2:156 3:64 4:1 5:389 6:200 7:72 8:0 9:121 10:206 11:63 12:0 13:108 14:482 15:70 16:0 #
2.3236064538625290812161316988949e-08 1:0 2:4004 3:570 4:1 5:0 6:0 7:3 8:0 9:22 10:436 11:149 12:9 13:34 14:22 15:13 16:1288 #
8.9734110939267903459678967122148e-08 1:0 2:34 3:0 4:0 5:0 6:137 7:0 8:0 9:0 10:442 11:0 12:0 13:0 14:229 15:1 16:0 #
-8.9734110939267903459678967122148e-08 1:17 2:214 3:141 4:0 5:8 6:200 7:135 8:0 9:12 10:226 11:102 12:0 13:6 14:49 15:85 16:0 #
-8.9734110939267903459678967122148e-08 1:96 2:152 3:119 4:0 5:105 6:129 7:62 8:0 9:215 10:150 11:75 12:0 13:28 14:105 15:73 16:0 #
-8.9734110939267903459678967122148e-08 1:0 2:412 3:0 4:0 5:0 6:84 7:0 8:0 9:0 10:83 11:0 12:0 13:0 14:64 15:0 16:188 #
8.9734110939267903459678967122148e-08 1:29 2:17 3:8 4:0 5:4 6:24 7:9 8:0 9:0 10:18 11:10 12:0 13:3 14:32 15:21 16:0 #
8.9734110939267903459678967122148e-08 1:0 2:93 3:0 4:5 5:0 6:124 7:0 8:0 9:0 10:155 11:0 12:0 13:0 14:169 15:0 16:4 #
-8.9734110939267903459678967122148e-08 1:483 2:148 3:119 4:0 5:18 6:53 7:104 8:0 9:136 10:102 11:106 12:0 13:53 14:72 15:113 16:0 #
8.9734110939267903459678967122148e-08 1:0 2:86 3:0 4:0 5:0 6:52 7:0 8:1 9:0 10:110 11:0 12:1 13:0 14:25 15:0 16:0 #
-8.9734110939267903459678967122148e-08 1:65 2:107 3:122 4:0 5:0 6:90 7:114 8:0 9:76 10:120 11:126 12:0 13:0 14:123 15:111 16:0 #
8.9734110939267903459678967122148e-08 1:140 2:87 3:39 4:0 5:63 6:79 7:21 8:0 9:3 10:30 11:13 12:0 13:10 14:43 15:15 16:0 #
-8.9734110939267903459678967122148e-08 1:0 2:59 3:0 4:0 5:0 6:99 7:0 8:0 9:0 10:4533 11:0 12:0 13:0 14:258 15:1 16:0 #
-8.9734110939267903459678967122148e-08 1:6 2:141 3:35 4:1 5:67 6:73 7:26 8:0 9:0 10:227 11:50 12:0 13:80 14:118 15:13 16:0 #
-8.9734110939267903459678967122148e-08 1:221 2:67 3:67 4:0 5:60 6:54 7:76 8:1 9:23 10:118 11:126 12:1 13:81 14:216 15:146 16:0 #
8.9734110939267903459678967122148e-08 1:0 2:156 3:0 4:0 5:0 6:148 7:0 8:0 9:0 10:271 11:0 12:0 13:0 14:174 15:0 16:0 #
-8.9734110939267903459678967122148e-08 1:0 2:90 3:43 4:298 5:6 6:106 7:34 8:0 9:0 10:68 11:30 12:0 13:0 14:65 15:23 16:0 #
8.9734110939267903459678967122148e-08 1:356 2:129 3:55 4:9 5:24 6:102 7:59 8:0 9:94 10:92 11:70 12:0 13:0 14:77 15:50 16:0 #
8.9734110939267903459678967122148e-08 1:56 2:63 3:14 4:0 5:0 6:81 7:19 8:0 9:7 10:82 11:23 12:0 13:0 14:56 15:5 16:0 #
-8.9734110939267903459678967122148e-08 1:0 2:145 3:113 4:0 5:0 6:170 7:110 8:2 9:0 10:197 11:122 12:0 13:0 14:184 15:99 16:0 #
8.9734110939267903459678967122148e-08 1:94 2:68 3:30 4:1 5:0 6:78 7:31 8:0 9:0 10:87 11:34 12:0 13:1 14:89 15:13 16:0 #
8.9734110939267903459678967122148e-08 1:3 2:83 3:31 4:2 5:0 6:154 7:23 8:0 9:13 10:124 11:14 12:0 13:0 14:77 15:15 16:0 #
-8.9734110939267903459678967122148e-08 1:2 2:126 3:77 4:0 5:0 6:127 7:86 8:0 9:99 10:94 11:63 12:0 13:25 14:110 15:75 16:0 #
8.9734110939267903459678967122148e-08 1:235 2:235 3:69 4:0 5:76 6:293 7:103 8:21 9:142 10:340 11:101 12:31 13:199 14:323 15:132 16:51 #
8.9734110939267903459678967122148e-08 1:0 2:69 3:24 4:0 5:0 6:75 7:20 8:0 9:0 10:39 11:10 12:0 13:0 14:45 15:21 16:0 #
8.9734110939267903459678967122148e-08 1:0 2:156 3:0 4:9 5:0 6:109 7:0 8:1 9:0 10:116 11:0 12:8 13:0 14:123 15:0 16:5 #
8.9734110939267903459678967122148e-08 1:30 2:63 3:3 4:0 5:2 6:38 7:10 8:0 9:4 10:37 11:20 12:0 13:1 14:29 15:17 16:0 #
-8.9734110939267903459678967122148e-08 1:439 2:117 3:110 4:17 5:2 6:85 7:109 8:0 9:16 10:113 11:119 12:0 13:104 14:55 15:106 16:0 #
8.9734110939267903459678967122148e-08 1:0 2:64 3:24 4:0 5:0 6:89 7:17 8:0 9:2 10:65 11:23 12:0 13:3 14:71 15:9 16:0 #
-8.9734110939267903459678967122148e-08 1:0 2:125 3:67 4:0 5:92 6:96 7:63 8:0 9:34 10:106 11:68 12:0 13:28 14:94 15:61 16:0 #
8.9734110939267903459678967122148e-08 1:0 2:123 3:0 4:5 5:0 6:93 7:0 8:5 9:0 10:124 11:0 12:0 13:0 14:155 15:0 16:0 #
8.9734110939267903459678967122148e-08 1:0 2:48 3:5 4:0 5:2 6:25 7:10 8:0 9:0 10:55 11:16 12:1 13:0 14:33 15:8 16:0 #
-8.9734110939267903459678967122148e-08 1:0 2:281 3:0 4:0 5:0 6:7 7:0 8:0 9:0 10:59 11:0 12:0 13:0 14:99 15:0 16:0 #
8.9734110939267903459678967122148e-08 1:0 2:60 3:13 4:0 5:79 6:221 7:19 8:0 9:44 10:143 11:19 12:0 13:3 14:133 15:20 16:0 #
-8.9734110939267903459678967122148e-08 1:0 2:159 3:0 4:0 5:0 6:72 7:0 8:0 9:0 10:64 11:66 12:0 13:0 14:352 15:2 16:0 #
8.9734110939267903459678967122148e-08 1:121 2:206 3:63 4:0 5:108 6:482 7:70 8:0 9:96 10:472 11:67 12:0 13:31 14:324 15:64 16:0 #
8.9734110939267903459678967122148e-08 1:10 2:60 3:20 4:0 5:9 6:50 7:17 8:0 9:2 10:26 11:11 12:28 13:4 14:69 15:16 16:0 #
-8.9734110939267903459678967122148e-08 1:0 2:197 3:122 4:0 5:0 6:184 7:99 8:0 9:0 10:124 11:92 12:0 13:3 14:123 15:112 16:0 #
8.9734110939267903459678967122148e-08 1:4 2:46 3:8 4:0 5:10 6:53 7:7 8:0 9:10 10:60 11:20 12:0 13:9 14:50 15:17 16:0 #
-8.9734110939267903459678967122148e-08 1:2 2:88 3:57 4:1 5:0 6:125 7:67 8:0 9:92 10:96 11:63 12:0 13:34 14:106 15:68 16:0 #
8.9734110939267903459678967122148e-08 1:15 2:75 3:20 4:0 5:32 6:75 7:18 8:0 9:3 10:54 11:11 12:0 13:1 14:62 15:8 16:0 #
8.9734110939267903459678967122148e-08 1:0 2:19 3:0 4:0 5:0 6:32 7:0 8:0 9:0 10:868 11:0 12:0 13:0 14:2448 15:0 16:0 #
8.9734110939267903459678967122148e-08 1:0 2:141 3:25 4:0 5:1 6:138 7:22 8:1 9:0 10:52 11:9 12:0 13:10 14:53 15:11 16:0 #
-8.9734110939267903459678967122148e-08 1:0 2:0 3:0 4:0 5:3 6:48 7:48 8:1 9:0 10:100 11:101 12:0 13:0 14:102 15:103 16:0 #
8.9734110939267903459678967122148e-08 1:2 2:74 3:19 4:0 5:59 6:76 7:9 8:0 9:0 10:40 11:13 12:0 13:0 14:52 15:14 16:0 #
8.9734110939267903459678967122148e-08 1:0 2:4 3:6 4:0 5:0 6:124 7:52 8:0 9:3 10:22 11:5 12:0 13:27 14:1 15:122 16:0 #
-8.9734110939267903459678967122148e-08 1:465 2:464 3:11 4:6 5:0 6:60 7:13 8:0 9:79 10:221 11:19 12:0 13:44 14:143 15:19 16:0 #
-8.9734110939267903459678967122148e-08 1:0 2:181 3:0 4:0 5:0 6:190 7:0 8:0 9:0 10:152 11:0 12:0 13:0 14:611 15:0 16:0 #
8.9734110939267903459678967122148e-08 1:0 2:68 3:16 4:0 5:52 6:66 7:12 8:0 9:5 10:60 11:18 12:0 13:0 14:31 15:8 16:0 #
-8.9734110939267903459678967122148e-08 1:9 2:145 3:68 4:0 5:12 6:139 7:85 8:0 9:2 10:126 11:77 12:0 13:0 14:127 15:86 16:0 #
-8.9734110939267903459678967122148e-08 1:0 2:182 3:0 4:0 5:0 6:43 7:0 8:0 9:0 10:91 11:0 12:0 13:0 14:176 15:0 16:0 #
8.9734110939267903459678967122148e-08 1:30 2:751 3:629 4:1 5:446 6:104 7:110 8:0 9:7 10:265 11:140 12:0 13:24 14:274 15:171 16:1 #
8.9734110939267903459678967122148e-08 1:0 2:45 3:5 4:0 5:3 6:62 7:18 8:0 9:2 10:62 11:8 12:0 13:1 14:77 15:23 16:0 #
8.9734110939267903459678967122148e-08 1:240 2:90 3:81 4:0 5:0 6:45 7:64 8:0 9:56 10:53 11:67 12:0 13:221 14:67 15:67 16:0 #
-8.9734110939267903459678967122148e-08 1:0 2:186 3:0 4:0 5:0 6:8 7:0 8:0 9:0 10:0 11:0 12:0 13:0 14:33 15:0 16:0 #
-8.9734110939267903459678967122148e-08 1:0 2:127 3:108 4:0 5:1 6:120 7:104 8:0 9:2 10:143 11:100 12:0 13:2 14:57 15:42 16:0 #
-8.9734110939267903459678967122148e-08 1:1 2:68 3:22 4:0 5:94 6:68 7:30 8:1 9:0 10:78 11:31 12:0 13:0 14:87 15:34 16:0 #
-8.9734110939267903459678967122148e-08 1:1800 2:104 3:156 4:2 5:483 6:148 7:119 8:0 9:18 10:53 11:104 12:0 13:136 14:102 15:106 16:0 #
-8.9734110939267903459678967122148e-08 1:751 2:601 3:981 4:1 5:6 6:279 7:31 8:0 9:0 10:58 11:15 12:0 13:8 14:42 15:4 16:29 #
-8.9734110939267903459678967122148e-08 1:0 2:181 3:31 4:0 5:0 6:105 7:21 8:0 9:0 10:178 11:33 12:1 13:0 14:107 15:13 16:0 #
-2.4399941199187345901050905788709e-08 1:0 2:31776 3:1 4:0 5:0 6:75375 7:17 8:0 9:31 10:62 11:12 12:15 13:7057 14:84 15:35 16:0 #
8.9734110939267903459678967122148e-08 1:4 2:37 3:20 4:0 5:1 6:29 7:17 8:0 9:12 10:59 11:17 12:56 13:37 14:104 15:69 16:1 #
-8.9734110939267903459678967122148e-08 1:0 2:125 3:0 4:0 5:0 6:18 7:0 8:0 9:0 10:281 11:0 12:0 13:0 14:7 15:0 16:0 #
-8.9734110939267903459678967122148e-08 1:838 2:295 3:23 4:3 5:209 6:170 7:25 8:1 9:2 10:177 11:18 12:0 13:2 14:94 15:15 16:0 #
8.9734110939267903459678967122148e-08 1:0 2:50 3:18 4:0 5:60 6:102 7:33 8:0 9:0 10:87 11:17 12:1 13:1 14:84 15:31 16:0 #
-8.9734110939267903459678967122148e-08 1:14 2:172 3:55 4:5 5:2 6:111 7:70 8:0 9:0 10:62 11:55 12:0 13:0 14:53 15:54 16:0 #
8.9734110939267903459678967122148e-08 1:83 2:67 3:14 4:0 5:7 6:64 7:14 8:0 9:247 10:89 11:27 12:0 13:10 14:53 15:13 16:0 #
-8.9734110939267903459678967122148e-08 1:0 2:185 3:0 4:0 5:0 6:92 7:0 8:0 9:0 10:75 11:0 12:0 13:0 14:43 15:0 16:0 #
8.9734110939267903459678967122148e-08 1:84 2:90 3:65 4:0 5:111 6:98 7:78 8:0 9:2 10:127 11:60 12:0 13:13 14:95 15:56 16:0 #
8.9734110939267903459678967122148e-08 1:5 2:54 3:7 4:0 5:47 6:55 7:14 8:0 9:1 10:68 11:24 12:0 13:0 14:66 15:19 16:0 #
8.9734110939267903459678967122148e-08 1:142 2:43 3:22 4:0 5:410 6:100 7:19 8:1 9:126 10:48 11:12 12:0 13:365 14:19 15:10 16:12 #
-8.9734110939267903459678967122148e-08 1:78 2:109 3:67 4:0 5:28 6:118 7:64 8:0 9:5 10:139 11:65 12:0 13:96 14:152 15:119 16:0 #
8.9734110939267903459678967122148e-08 1:0 2:53 3:20 4:0 5:0 6:52 7:15 8:4 9:0 10:44 11:16 12:2 13:31 14:73 15:22 16:1 #
-8.9734110939267903459678967122148e-08 1:0 2:154 3:23 4:0 5:13 6:124 7:14 8:0 9:0 10:77 11:15 12:0 13:34 14:136 15:23 16:1 #
-8.9734110939267903459678967122148e-08 1:0 2:213 3:0 4:0 5:0 6:233 7:0 8:0 9:0 10:184 11:0 12:0 13:0 14:219 15:0 16:0 #
8.9734110939267903459678967122148e-08 1:63 2:79 3:21 4:0 5:3 6:30 7:13 8:0 9:10 10:43 11:15 12:0 13:3 14:95 15:62 16:4 #
8.9734110939267903459678967122148e-08 1:3 2:83 3:20 4:0 5:2 6:89 7:35 8:0 9:0 10:69 11:20 12:0 13:0 14:71 15:12 16:0 #
-8.9734110939267903459678967122148e-08 1:2 2:116 3:31 4:0 5:0 6:137 7:32 8:0 9:145 10:76 11:23 12:0 13:6 14:55 15:25 16:0 #
8.9734110939267903459678967122148e-08 1:1 2:67 3:16 4:0 5:0 6:70 7:23 8:2 9:25 10:98 11:14 12:0 13:0 14:113 15:26 16:0 #
8.9734110939267903459678967122148e-08 1:32 2:95 3:25 4:0 5:55 6:104 7:17 8:0 9:49 10:69 11:22 12:0 13:28 14:48 15:10 16:0 #
-8.9734110939267903459678967122148e-08 1:10 2:142 3:85 4:0 5:1 6:59 7:55 8:0 9:3 10:65 11:60 12:0 13:0 14:68 15:41 16:2 #
-8.9734110939267903459678967122148e-08 1:20 2:107 3:23 4:0 5:2 6:43 7:14 8:0 9:32 10:92 11:11 12:0 13:67 14:81 15:12 16:0 #
-8.9734110939267903459678967122148e-08 1:9 2:14 3:3 4:0 5:1 6:19 7:8 8:0 9:2 10:14 11:2 12:0 13:29 14:17 15:8 16:0 #
-8.9734110939267903459678967122148e-08 1:0 2:41 3:0 4:0 5:0 6:19 7:0 8:0 9:0 10:0 11:0 12:0 13:0 14:95 15:0 16:0 #
-8.9734110939267903459678967122148e-08 1:0 2:58 3:26 4:0 5:124 6:61 7:21 8:0 9:1 10:76 11:18 12:0 13:32 14:53 15:4 16:0 #
-8.9734110939267903459678967122148e-08 1:0 2:184 3:0 4:0 5:0 6:219 7:0 8:0 9:0 10:199 11:0 12:0 13:0 14:288 15:0 16:0 #
8.9734110939267903459678967122148e-08 1:45 2:1018 3:960 4:621 5:976 6:164 7:33 8:0 9:1442 10:91 11:8 12:0 13:397 14:57 15:10 16:34 #
-8.9734110939267903459678967122148e-08 1:163 2:16 3:0 4:0 5:21 6:118 7:47 8:0 9:194 10:150 11:38 12:0 13:23 14:50 15:5 16:0 #
8.9734110939267903459678967122148e-08 1:0 2:100 3:71 4:1 5:0 6:108 7:75 8:0 9:0 10:116 11:72 12:0 13:0 14:53 15:54 16:0 #
-8.9734110939267903459678967122148e-08 1:1 2:84 3:31 4:0 5:1 6:141 7:48 8:1 9:71 10:85 11:23 12:0 13:53 14:105 15:22 16:0 #
8.9734110939267903459678967122148e-08 1:15 2:114 3:21 4:0 5:0 6:74 7:20 8:0 9:3 10:70 11:24 12:0 13:1 14:67 15:16 16:0 #
-8.9734110939267903459678967122148e-08 1:44 2:143 3:19 4:0 5:3 6:133 7:20 8:0 9:6 10:141 11:35 12:1 13:67 14:73 15:26 16:0 #
8.9734110939267903459678967122148e-08 1:0 2:89 3:55 4:0 5:1 6:99 7:53 8:0 9:4 10:127 11:66 12:0 13:2 14:96 15:56 16:0 #
-8.9734110939267903459678967122148e-08 1:5 2:84 3:22 4:0 5:2 6:55 7:4 8:0 9:83 10:202 11:54 12:0 13:0 14:42 15:16 16:0 #
8.9734110939267903459678967122148e-08 1:2 2:63 3:9 4:0 5:1 6:34 7:15 8:0 9:6 10:69 11:30 12:0 13:2 14:68 15:29 16:0 #
8.9734110939267903459678967122148e-08 1:32 2:92 3:11 4:0 5:67 6:81 7:12 8:0 9:4 10:104 11:40 12:0 13:1 14:73 15:16 16:0 #
-8.9734110939267903459678967122148e-08 1:0 2:65 3:37 4:0 5:0 6:89 7:55 8:0 9:1 10:99 11:53 12:0 13:4 14:127 15:66 16:0 #
8.9734110939267903459678967122148e-08 1:3 2:30 3:13 4:0 5:10 6:43 7:15 8:0 9:3 10:95 11:62 12:4 13:2 14:61 15:100 16:2 #
-8.9734110939267903459678967122148e-08 1:1 2:23 3:15 4:0 5:0 6:37 7:9 8:0 9:1 10:50 11:11 12:0 13:123 14:49 15:6 16:0 #
8.9734110939267903459678967122148e-08 1:19 2:96 3:6 4:0 5:6 6:109 7:20 8:0 9:38 10:102 11:16 12:0 13:0 14:136 15:22 16:0 #
8.9734110939267903459678967122148e-08 1:3 2:73 3:9 4:0 5:51 6:99 7:33 8:0 9:0 10:91 11:22 12:0 13:21 14:86 15:17 16:1 #
-8.9734110939267903459678967122148e-08 1:166 2:109 3:25 4:0 5:25 6:162 7:26 8:2 9:163 10:96 11:26 12:0 13:3 14:83 15:31 16:2 #
-8.9734110939267903459678967122148e-08 1:0 2:111 3:84 4:0 5:0 6:108 7:62 8:0 9:12 10:152 11:74 12:0 13:13 14:109 15:83 16:0 #
8.9734110939267903459678967122148e-08 1:0 2:124 3:70 4:0 5:10 6:142 7:85 8:0 9:1 10:59 11:55 12:0 13:3 14:65 15:60 16:0 #
-8.9734110939267903459678967122148e-08 1:0 2:89 3:17 4:0 5:2 6:65 7:23 8:0 9:3 10:71 11:9 12:0 13:0 14:105 15:34 16:1 #
-8.9734110939267903459678967122148e-08 1:25 2:110 3:75 4:0 5:98 6:258 7:87 8:0 9:5 10:179 11:63 12:0 13:4 14:185 15:78 16:0 #
8.9734110939267903459678967122148e-08 1:0 2:103 3:17 4:0 5:0 6:90 7:25 8:0 9:0 10:62 11:18 12:0 13:71 14:27 15:13 16:0 #
-8.9734110939267903459678967122148e-08 1:0 2:174 3:0 4:0 5:0 6:162 7:0 8:1 9:0 10:135 11:7 12:0 13:0 14:88 15:0 16:0 #
8.9734110939267903459678967122148e-08 1:0 2:59 3:90 4:0 5:0 6:73 7:98 8:0 9:0 10:81 11:110 12:0 13:0 14:83 15:107 16:0 #
-8.9734110939267903459678967122148e-08 1:8 2:200 3:135 4:0 5:12 6:226 7:102 8:0 9:6 10:49 11:85 12:0 13:1 14:66 15:94 16:0 #
8.9734110939267903459678967122148e-08 1:3 2:91 3:18 4:0 5:4 6:43 7:7 8:0 9:121 10:72 11:9 12:0 13:2 14:63 15:12 16:0 #
8.9734110939267903459678967122148e-08 1:0 2:100 3:103 4:0 5:0 6:100 7:105 8:0 9:0 10:102 11:106 12:0 13:0 14:100 15:101 16:0 #
8.9734110939267903459678967122148e-08 1:0 2:95 3:17 4:0 5:1 6:52 7:43 8:0 9:2 10:59 11:48 12:0 13:0 14:69 15:12 16:0 #
-8.9734110939267903459678967122148e-08 1:48 2:113 3:87 4:0 5:6 6:105 7:71 8:0 9:14 10:172 11:55 12:5 13:2 14:111 15:70 16:0 #
8.9734110939267903459678967122148e-08 1:0 2:85 3:10 4:0 5:46 6:108 7:31 8:0 9:21 10:110 11:35 12:0 13:12 14:112 15:36 16:0 #
-8.9734110939267903459678967122148e-08 1:2 2:55 3:4 4:0 5:83 6:202 7:54 8:0 9:0 10:42 11:16 12:0 13:66 14:73 15:12 16:0 #
8.9734110939267903459678967122148e-08 1:0 2:102 3:106 4:0 5:0 6:100 7:101 8:0 9:17 10:141 11:109 12:5 13:10 14:138 15:38 16:0 #
-8.9734110939267903459678967122148e-08 1:0 2:0 3:0 4:0 5:0 6:33 7:0 8:0 9:0 10:470 11:0 12:0 13:0 14:0 15:0 16:0 #
-8.9734110939267903459678967122148e-08 1:0 2:176 3:0 4:0 5:0 6:1869 7:0 8:0 9:0 10:854 11:0 12:0 13:0 14:34 15:0 16:0 #
8.9734110939267903459678967122148e-08 1:13 2:243 3:76 4:0 5:8 6:190 7:53 8:2 9:12 10:168 11:68 12:0 13:3 14:190 15:63 16:0 #
8.9734110939267903459678967122148e-08 1:0 2:124 3:0 4:0 5:0 6:155 7:0 8:0 9:0 10:169 11:0 12:4 13:0 14:7183 15:0 16:2 #
-8.9734110939267903459678967122148e-08 1:1 2:96 3:11 4:0 5:15 6:94 7:22 8:0 9:0 10:45 11:5 12:0 13:3 14:62 15:18 16:0 #
8.9734110939267903459678967122148e-08 1:45 2:83 3:15 4:0 5:107 6:87 7:23 8:0 9:68 10:158 11:20 12:0 13:0 14:131 15:24 16:0 #
-8.9734110939267903459678967122148e-08 1:0 2:56 3:31 4:0 5:0 6:50 7:18 8:0 9:60 10:102 11:33 12:0 13:0 14:87 15:17 16:1 #
8.9734110939267903459678967122148e-08 1:13 2:124 3:14 4:0 5:0 6:77 7:15 8:0 9:34 10:136 11:23 12:1 13:0 14:141 15:25 16:0 #
-8.9734110939267903459678967122148e-08 1:3 2:121 3:22 4:2 5:0 6:164 7:11 8:0 9:0 10:114 11:20 12:0 13:0 14:216 15:18 16:0 #
8.9734110939267903459678967122148e-08 1:2 2:38 3:10 4:0 5:4 6:37 7:20 8:0 9:1 10:29 11:17 12:0 13:12 14:59 15:17 16:56 #
-8.9734110939267903459678967122148e-08 1:6 2:39 3:8 4:0 5:6 6:18 7:3 8:0 9:18 10:42 11:8 12:0 13:31 14:71 15:14 16:0 #
8.9734110939267903459678967122148e-08 1:16 2:29 3:8 4:0 5:0 6:45 7:24 8:0 9:0 10:82 11:97 12:0 13:0 14:155 15:71 16:2 #
-8.9734110939267903459678967122148e-08 1:1 2:81 3:56 4:0 5:0 6:79 7:43 8:0 9:0 10:65 11:37 12:0 13:0 14:89 15:55 16:0 #
8.9734110939267903459678967122148e-08 1:0 2:141 3:25 4:0 5:3 6:73 7:9 8:0 9:51 10:99 11:33 12:0 13:0 14:91 15:22 16:0 #
-8.9734110939267903459678967122148e-08 1:0 2:77 3:14 4:3 5:0 6:92 7:20 8:0 9:15 10:114 11:21 12:0 13:0 14:74 15:20 16:0 #
8.9734110939267903459678967122148e-08 1:14 2:80 3:19 4:0 5:41 6:61 7:18 8:0 9:4 10:81 11:15 12:0 13:107 14:147 15:33 16:0 #
-8.9734110939267903459678967122148e-08 1:3 2:70 3:24 4:0 5:1 6:67 7:16 8:0 9:0 10:70 11:23 12:2 13:25 14:98 15:14 16:0 #
8.9734110939267903459678967122148e-08 1:1 2:66 3:94 4:0 5:0 6:92 7:117 8:0 9:4 10:112 11:112 12:0 13:0 14:101 15:116 16:0 #
-8.9734110939267903459678967122148e-08 1:1 2:91 3:38 4:0 5:0 6:111 7:46 8:0 9:0 10:98 11:26 12:0 13:0 14:98 15:28 16:0 #
8.9734110939267903459678967122148e-08 1:65 2:166 3:36 4:0 5:0 6:56 7:31 8:0 9:0 10:50 11:18 12:0 13:60 14:102 15:33 16:0 #
-8.9734110939267903459678967122148e-08 1:60 2:102 3:33 4:0 5:0 6:87 7:17 8:1 9:1 10:84 11:31 12:0 13:1 14:141 15:48 16:1 #
8.9734110939267903459678967122148e-08 1:0 2:220 3:0 4:0 5:0 6:49 7:0 8:0 9:0 10:86 11:0 12:0 13:0 14:52 15:0 16:1 #
-8.9734110939267903459678967122148e-08 1:15 2:94 3:22 4:0 5:0 6:45 7:5 8:0 9:3 10:62 11:18 12:0 13:2 14:62 15:8 16:0 #
-8.9734110939267903459678967122148e-08 1:328 2:129 3:20 4:0 5:11 6:40 7:9 8:0 9:31 10:51 11:29 12:0 13:53 14:123 15:17 16:0 #
-8.9734110939267903459678967122148e-08 1:0 2:55 3:10 4:0 5:0 6:32 7:7 8:0 9:0 10:36 11:7 12:0 13:0 14:39 15:16 16:0 #
8.9734110939267903459678967122148e-08 1:0 2:100 3:101 4:0 5:17 6:141 7:109 8:5 9:10 10:138 11:38 12:0 13:14 14:2851 15:667 16:11 #
8.9734110939267903459678967122148e-08 1:144 2:152 3:11 4:0 5:33 6:33 7:8 8:0 9:109 10:188 11:58 12:0 13:57 14:139 15:38 16:0 #
-8.9734110939267903459678967122148e-08 1:66 2:73 3:12 4:0 5:0 6:68 7:16 8:0 9:52 10:66 11:12 12:0 13:5 14:60 15:18 16:0 #
8.9734110939267903459678967122148e-08 1:0 2:141 3:21 4:0 5:348 6:175 7:29 8:0 9:0 10:181 11:31 12:0 13:0 14:105 15:21 16:0 #
8.9734110939267903459678967122148e-08 1:0 2:242 3:32 4:0 5:0 6:194 7:11 8:0 9:0 10:320 11:65 12:0 13:13 14:243 15:76 16:0 #
-8.9734110939267903459678967122148e-08 1:0 2:74 3:20 4:0 5:3 6:70 7:24 8:0 9:1 10:67 11:16 12:0 13:0 14:70 15:23 16:2 #
8.9734110939267903459678967122148e-08 1:36 2:88 3:32 4:0 5:2 6:83 7:15 8:0 9:229 10:95 11:20 12:0 13:44 14:63 15:30 16:0 #
-8.9734110939267903459678967122148e-08 1:0 2:55 3:18 4:0 5:14 6:58 7:13 8:0 9:20 10:107 11:23 12:0 13:2 14:43 15:14 16:0 #
-8.9734110939267903459678967122148e-08 1:0 2:68 3:12 4:0 5:0 6:75 7:21 8:0 9:0 10:103 11:17 12:0 13:0 14:90 15:25 16:0 #
8.9734110939267903459678967122148e-08 1:0 2:73 3:98 4:0 5:0 6:81 7:110 8:0 9:0 10:83 11:107 12:0 13:0 14:99 15:124 16:53 #
8.9734110939267903459678967122148e-08 1:2 2:85 3:109 4:0 5:16 6:113 7:119 8:0 9:104 10:55 11:106 12:0 13:0 14:50 15:103 16:0 #
-8.9734110939267903459678967122148e-08 1:0 2:74 3:25 4:0 5:15 6:58 7:13 8:0 9:0 10:68 11:12 12:0 13:0 14:75 15:21 16:0 #
-8.9734110939267903459678967122148e-08 1:407 2:73 3:17 4:0 5:249 6:56 7:4 8:0 9:3 10:71 11:27 12:0 13:0 14:79 15:15 16:0 #
8.9734110939267903459678967122148e-08 1:0 2:35 3:4 4:5 5:114 6:26 7:7 8:0 9:70 10:37 11:8 12:0 13:142 14:43 15:22 16:0 #
8.9734110939267903459678967122148e-08 1:21 2:147 3:85 4:0 5:37 6:135 7:62 8:0 9:172 10:162 11:66 12:0 13:2 14:787 15:62 16:0 #
8.9734110939267903459678967122148e-08 1:41 2:61 3:18 4:0 5:4 6:81 7:15 8:0 9:107 10:147 11:33 12:0 13:511 14:155 15:15 16:1 #
-8.9734110939267903459678967122148e-08 1:0 2:81 3:25 4:1 5:3 6:82 7:19 8:0 9:1 10:75 11:16 12:0 13:0 14:71 15:25 16:0 #
-8.9734110939267903459678967122148e-08 1:0 2:116 3:0 4:0 5:0 6:133 7:0 8:0 9:0 10:95 11:0 12:0 13:0 14:176 15:3 16:0 #
8.9734110939267903459678967122148e-08 1:0 2:45 3:64 4:0 5:56 6:53 7:67 8:0 9:221 10:67 11:67 12:0 13:60 14:54 15:76 16:1 #
-8.9734110939267903459678967122148e-08 1:0 2:58 3:14 4:0 5:0 6:63 7:19 8:0 9:3 10:73 11:22 12:0 13:0 14:95 15:14 16:0 #
8.9734110939267903459678967122148e-08 1:31 2:130 3:21 4:0 5:166 6:109 7:25 8:0 9:25 10:162 11:26 12:2 13:163 14:96 15:26 16:0 #
-8.9734110939267903459678967122148e-08 1:1 2:51 3:8 4:0 5:0 6:56 7:20 8:0 9:1 10:72 11:14 12:0 13:1 14:94 15:19 16:0 #
8.9734110939267903459678967122148e-08 1:0 2:81 3:110 4:0 5:0 6:83 7:107 8:0 9:0 10:99 11:124 12:53 13:4 14:116 15:132 16:2 #
-8.9734110939267903459678967122148e-08 1:31 2:60 3:27 4:0 5:0 6:55 7:18 8:0 9:14 10:58 11:13 12:0 13:20 14:107 15:23 16:0 #
8.9734110939267903459678967122148e-08 1:70 2:37 3:8 4:0 5:142 6:43 7:22 8:0 9:410 10:100 11:19 12:1 13:126 14:48 15:12 16:0 #
-8.9734110939267903459678967122148e-08 1:65 2:160 3:13 4:0 5:2 6:309 7:34 8:0 9:0 10:172 11:40 12:0 13:2 14:110 15:37 16:0 #
-8.9734110939267903459678967122148e-08 1:0 2:122 3:0 4:0 5:0 6:116 7:0 8:0 9:0 10:133 11:0 12:0 13:0 14:95 15:0 16:0 #
-8.9734110939267903459678967122148e-08 1:0 2:46 3:3 4:0 5:0 6:69 7:24 8:0 9:0 10:75 11:20 12:0 13:0 14:39 15:10 16:0 #
-8.9734110939267903459678967122148e-08 1:31 2:51 3:29 4:0 5:53 6:123 7:17 8:0 9:19 10:96 11:6 12:0 13:6 14:109 15:20 16:0 #
8.9734110939267903459678967122148e-08 1:0 2:210 3:22 4:85 5:0 6:220 7:34 8:99 9:0 10:171 11:26 12:51 13:4 14:132 15:38 16:0 #
8.9734110939267903459678967122148e-08 1:0 2:324 3:119 4:0 5:0 6:159 7:105 8:0 9:0 10:232 11:103 12:0 13:0 14:145 15:113 16:0 #
8.9734110939267903459678967122148e-08 1:0 2:116 3:60 4:0 5:0 6:763 7:61 8:0 9:15 10:121 11:69 12:1 13:3103 14:4445 15:75 16:0 #
8.9734110939267903459678967122148e-08 1:1 2:75 3:16 4:0 5:0 6:71 7:25 8:0 9:0 10:62 11:13 12:0 13:5 14:559 15:535 16:0 #
8.9734110939267903459678967122148e-08 1:4 2:69 3:16 4:0 5:0 6:78 7:13 8:23 9:0 10:28 11:10 12:0 13:0 14:547 15:921 16:0 #
2.3419367951286418181759885941487e-08 1:0 2:124 3:56 4:0 5:0 6:159 7:46 8:0 9:194 10:1262 11:193 12:13989 13:836 14:217 15:28 16:110 #
-8.9734110939267903459678967122148e-08 1:90 2:107 3:33 4:0 5:0 6:65 7:29 8:0 9:1 10:23 11:15 12:0 13:0 14:37 15:9 16:0 #
-8.9734110939267903459678967122148e-08 1:18 2:42 3:8 4:0 5:31 6:71 7:14 8:0 9:21 10:30 11:7 12:0 13:0 14:17 15:9 16:0 #
8.9734110939267903459678967122148e-08 1:153 2:532 3:62 4:105 5:17 6:104 7:59 8:0 9:0 10:319 11:65 12:0 13:2 14:926 15:61 16:0 #
-8.9734110939267903459678967122148e-08 1:0 2:199 3:0 4:0 5:0 6:288 7:0 8:0 9:0 10:115 11:0 12:0 13:0 14:118 15:0 16:0 #
8.9734110939267903459678967122148e-08 1:63 2:130 3:31 4:0 5:570 6:138 7:30 8:0 9:111 10:98 11:33 12:0 13:115 14:117 15:10 16:0 #
8.9734110939267903459678967122148e-08 1:6 2:279 3:31 4:0 5:0 6:58 7:15 8:0 9:8 10:42 11:4 12:29 13:629 14:64 15:15 16:0 #
-8.9734110939267903459678967122148e-08 1:629 2:64 3:15 4:0 5:307 6:80 7:34 8:1 9:8 10:64 11:21 12:0 13:2 14:74 15:13 16:0 #
-8.9734110939267903459678967122148e-08 1:209 2:170 3:25 4:1 5:2 6:177 7:18 8:0 9:2 10:94 11:15 12:0 13:0 14:239 15:10 16:0 #
8.9734110939267903459678967122148e-08 1:0 2:124 3:52 4:0 5:3 6:22 7:5 8:0 9:27 10:1 11:122 12:0 13:206 14:0 15:25 16:460 #
8.9734110939267903459678967122148e-08 1:16 2:113 3:119 4:0 5:104 6:55 7:106 8:0 9:0 10:50 11:103 12:0 13:9 14:625 15:227 16:17 #
-8.9734110939267903459678967122148e-08 1:126 2:139 3:58 4:12 5:3 6:121 7:22 8:2 9:0 10:164 11:11 12:0 13:0 14:114 15:20 16:0 #
8.9734110939267903459678967122148e-08 1:24 2:102 3:59 4:0 5:94 6:92 7:70 8:0 9:0 10:77 11:50 12:0 13:124 14:1952 15:58 16:156 #
-8.9734110939267903459678967122148e-08 1:0 2:44 3:12 4:0 5:0 6:66 7:22 8:0 9:0 10:55 11:10 12:0 13:0 14:32 15:7 16:0 #
1.3576449626021010616631337283855e-08 1:4725 2:36 3:15 4:3 5:1 6:57 7:9 8:0 9:0 10:31776 11:1 12:0 13:0 14:75375 15:17 16:0 #
-8.9734110939267903459678967122148e-08 1:0 2:53 3:0 4:0 5:0 6:29 7:0 8:0 9:0 10:14 11:2 12:0 13:0 14:116 15:1 16:0 #
8.9734110939267903459678967122148e-08 1:0 2:97 3:16 4:0 5:419 6:127 7:8 8:0 9:104 10:234 11:48 12:153 13:0 14:210 15:22 16:85 #
-8.9734110939267903459678967122148e-08 1:2 2:39 3:10 4:0 5:1 6:50 7:7 8:0 9:1 10:51 11:19 12:0 13:0 14:43 15:14 16:0 #
8.9734110939267903459678967122148e-08 1:107 2:87 3:23 4:0 5:68 6:158 7:20 8:0 9:0 10:131 11:24 12:0 13:0 14:658 15:580 16:2 #
-8.9734110939267903459678967122148e-08 1:0 2:122 3:0 4:0 5:0 6:154 7:0 8:0 9:0 10:104 11:0 12:0 13:0 14:76 15:0 16:0 #
8.9734110939267903459678967122148e-08 1:4 2:187 3:168 4:3 5:13 6:202 7:159 8:202 9:0 10:81 11:117 12:5 13:443 14:124 15:117 16:5 #
-8.9734110939267903459678967122148e-08 1:139 2:67 3:19 4:0 5:68 6:339 7:9 8:0 9:45 10:83 11:15 12:0 13:107 14:87 15:23 16:0 #
8.9734110939267903459678967122148e-08 1:0 2:405 3:70 4:0 5:235 6:235 7:69 8:0 9:76 10:293 11:103 12:21 13:142 14:340 15:101 16:31 #
8.9734110939267903459678967122148e-08 1:0 2:119 3:56 4:0 5:0 6:114 7:60 8:0 9:0 10:122 11:59 12:0 13:3819 14:127 15:65 16:0 #
-8.9734110939267903459678967122148e-08 1:34 2:56 3:13 4:0 5:6 6:70 7:5 8:0 9:0 10:54 11:11 12:0 13:0 14:39 15:8 16:0 #
8.9734110939267903459678967122148e-08 1:2 2:47 3:25 4:0 5:0 6:13 7:7 8:674 9:0 10:0 11:2 12:0 13:0 14:0 15:6 16:0 #
-8.9734110939267903459678967122148e-08 1:1 2:38 3:5 4:0 5:2 6:70 7:11 8:0 9:0 10:139 11:0 12:0 13:0 14:122 15:0 16:0 #
8.9734110939267903459678967122148e-08 1:9 2:47 3:24 4:0 5:841 6:67 7:24 8:0 9:834 10:62 11:13 12:0 13:0 14:79 15:16 16:0 #
-8.9734110939267903459678967122148e-08 1:0 2:177 3:4 4:0 5:0 6:305 7:0 8:0 9:0 10:182 11:0 12:0 13:0 14:43 15:0 16:0 #
8.9734110939267903459678967122148e-08 1:21 2:86 3:17 4:1 5:88 6:65 7:16 8:391 9:3 10:62 11:28 12:0 13:111 14:37 15:22 16:394 #
-8.9734110939267903459678967122148e-08 1:0 2:91 3:0 4:0 5:0 6:176 7:0 8:0 9:0 10:112 11:0 12:0 13:0 14:107 15:0 16:0 #
8.9734110939267903459678967122148e-08 1:104 2:55 3:106 4:0 5:0 6:50 7:103 8:0 9:9 10:625 11:227 12:17 13:4 14:744 15:738 16:1 #
-8.9734110939267903459678967122148e-08 1:0 2:11 3:0 4:0 5:0 6:88 7:0 8:0 9:0 10:88 11:0 12:0 13:0 14:53 15:0 16:0 #
8.9734110939267903459678967122148e-08 1:0 2:108 3:75 4:0 5:0 6:116 7:72 8:0 9:0 10:53 11:54 12:0 13:0 14:33 15:40 16:2433 #
8.9734110939267903459678967122148e-08 1:0 2:166 3:78 4:3 5:20 6:234 7:64 8:187 9:409 10:224 11:70 12:1 13:3071 14:186 15:66 16:0 #
8.9734110939267903459678967122148e-08 1:35 2:1362 3:63 4:0 5:29 6:395 7:71 8:0 9:0 10:166 11:78 12:3 13:20 14:234 15:64 16:187 #
-8.9734110939267903459678967122148e-08 1:249 2:56 3:4 4:0 5:3 6:71 7:27 8:0 9:0 10:79 11:15 12:0 13:0 14:33 15:6 16:0 #
8.9734110939267903459678967122148e-08 1:13 2:95 3:56 4:0 5:37 6:70 7:63 8:1 9:27 10:76 11:82 12:0 13:5455 14:74 15:55 16:0 #
-8.9734110939267903459678967122148e-08 1:0 2:137 3:0 4:0 5:0 6:442 7:0 8:0 9:0 10:229 11:1 12:0 13:0 14:429 15:0 16:1 #
8.9734110939267903459678967122148e-08 1:1 2:24 3:9 4:1 5:0 6:11 7:8 8:0 9:8 10:686 11:585 12:0 13:15 14:914 15:782 16:0 #
-8.9734110939267903459678967122148e-08 1:144 2:65 3:10 4:0 5:0 6:216 7:13 8:0 9:144 10:152 11:11 12:0 13:33 14:33 15:8 16:0 #
8.7672411370481518481706430939715e-08 1:2 2:1340 3:1499 4:0 5:443 6:831 7:477 8:0 9:427 10:79 11:109 12:0 13:6755 14:96 15:124 16:0 #
-8.9734110939267903459678967122148e-08 1:0 2:0 3:0 4:0 5:0 6:278 7:20 8:0 9:1 10:511 11:38 12:0 13:0 14:25 15:2 16:0 #
-8.9734110939267903459678967122148e-08 1:834 2:62 3:13 4:0 5:0 6:79 7:16 8:0 9:0 10:81 11:12 12:1 13:1 14:96 15:11 16:0 #
-8.9734110939267903459678967122148e-08 1:0 2:0 3:0 4:0 5:3 6:1328 7:16 8:0 9:0 10:1255 11:39 12:0 13:0 14:85 15:55 16:0 #
8.9734110939267903459678967122148e-08 1:1 2:99 3:53 4:0 5:4 6:127 7:66 8:0 9:2 10:96 11:56 12:0 13:31 14:1122 15:1081 16:1 #
-2.4003254334547787169143462371323e-08 1:0 2:3 3:0 4:0 5:0 6:3148 7:0 8:0 9:0 10:4317 11:0 12:0 13:0 14:266 15:0 16:0 #
8.9734110939267903459678967122148e-08 1:2 2:25 3:10 4:0 5:0 6:55 7:16 8:1 9:0 10:33 11:8 12:0 13:0 14:1762 15:1244 16:1 #
-8.9734110939267903459678967122148e-08 1:5407 2:98 3:60 4:1 5:0 6:106 7:64 8:0 9:0 10:122 11:66 12:0 13:0 14:106 15:56 16:0 #
3.102708267107787676783426343563e-08 1:0 2:7087 3:0 4:0 5:0 6:220 7:0 8:0 9:0 10:49 11:0 12:0 13:0 14:86 15:0 16:0 #
