SVM-light Version V6.02
0 # kernel type
3 # kernel parameter -d 
1 # kernel parameter -g 
1 # kernel parameter -s 
1 # kernel parameter -r 
empty# kernel parameter -u 
8 # highest feature index 
342 # number of training documents 
327 # number of support vectors plus 1 
1.002747 # threshold b, each following line is a SV (starting with alpha*y)
-2.192541772576701151431331901151e-07 1:0 2:1224 3:1117 4:1 5:16 6:37 7:13 8:0 #
2.192541772576701151431331901151e-07 1:0 2:251 3:0 4:0 5:0 6:104 7:0 8:0 #
-2.192541772576701151431331901151e-07 1:3468 2:329 3:100 4:1 5:188 6:15859 7:75 8:2 #
2.192541772576701151431331901151e-07 1:0 2:5193 3:0 4:3 5:0 6:170 7:0 8:9 #
-2.192541772576701151431331901151e-07 1:1 2:16 3:7 4:0 5:10 6:14 7:4 8:0 #
2.192541772576701151431331901151e-07 1:226 2:591 3:96 4:0 5:120 6:615 7:92 8:0 #
-2.192541772576701151431331901151e-07 1:28 2:108 3:106 4:1 5:5455 6:94 7:76 8:2 #
2.192541772576701151431331901151e-07 1:0 2:90 3:27 4:0 5:8 6:834 7:721 8:1 #
-1.9465900702529798411304952365786e-07 1:0 2:319 3:0 4:0 5:0 6:184 7:0 8:0 #
2.192541772576701151431331901151e-07 1:2 2:129 3:82 4:1 5:98 6:1331 7:1251 8:7 #
2.192541772576701151431331901151e-07 1:229 2:124 3:27 4:0 5:47 6:78 7:31 8:0 #
-2.192541772576701151431331901151e-07 1:41 2:967 3:93 4:0 5:23356 6:164 7:86 8:0 #
-2.192541772576701151431331901151e-07 1:0 2:3 3:0 4:0 5:0 6:113 7:1 8:0 #
1.6827744901663734786132777497547e-07 1:107 2:192 3:74 4:0 5:23600 6:234 7:32 8:2 #
1.6840730851231102952776782707978e-07 1:443 2:2016 3:1619 4:0 5:427 6:121 7:161 8:0 #
-2.192541772576701151431331901151e-07 1:7138 2:120 3:14 4:0 5:7 6:122 7:21 8:0 #
2.192541772576701151431331901151e-07 1:3805 2:188 3:91 4:0 5:37 6:3495 7:97 8:2 #
2.192541772576701151431331901151e-07 1:0 2:4902 3:96 4:0 5:0 6:1249 7:86 8:0 #
-2.192541772576701151431331901151e-07 1:7043 2:123 3:29 4:10 5:0 6:69 7:24 8:0 #
-2.192541772576701151431331901151e-07 1:7064 2:96 3:32 4:0 5:0 6:89 7:28 8:0 #
2.192541772576701151431331901151e-07 1:427 2:121 3:161 4:0 5:10068 6:142 7:169 8:1 #
-2.192541772576701151431331901151e-07 1:0 2:107 3:24 4:0 5:7 6:2442 7:2672 8:0 #
2.192541772576701151431331901151e-07 1:492 2:1106 3:969 4:621 5:1519 6:119 7:25 8:0 #
-2.192541772576701151431331901151e-07 1:216 2:319 3:86 4:1 5:7084 6:2223 7:109 8:0 #
2.192541772576701151431331901151e-07 1:0 2:136 3:23 4:0 5:0 6:1602 7:1288 8:1 #
-2.192541772576701151431331901151e-07 1:519 2:13882 3:164 4:0 5:0 6:132 7:160 8:0 #
2.192541772576701151431331901151e-07 1:0 2:0 3:0 4:0 5:0 6:0 7:0 8:0 #
-2.192541772576701151431331901151e-07 1:3 2:66 3:7 4:0 5:0 6:1419 7:1295 8:0 #
2.192541772576701151431331901151e-07 1:0 2:3458 3:0 4:0 5:0 6:5193 7:0 8:3 #
-2.192541772576701151431331901151e-07 1:156 2:88 3:15 4:0 5:7245 6:97 7:20 8:3 #
2.192541772576701151431331901151e-07 1:0 2:6844 3:1068 4:4 5:0 6:0 7:3 8:0 #
2.192541772576701151431331901151e-07 1:7084 2:2223 3:109 4:0 5:46 6:232 7:97 8:0 #
-2.192541772576701151431331901151e-07 1:32 2:2215 3:1869 4:0 5:4 6:60 7:16 8:0 #
2.192541772576701151431331901151e-07 1:3103 2:4518 3:107 4:0 5:7042 6:265 7:159 8:1 #
2.192541772576701151431331901151e-07 1:0 2:1624 3:81 4:0 5:0 6:154 7:96 8:0 #
2.192541772576701151431331901151e-07 1:7057 2:113 3:37 4:0 5:0 6:122 7:32 8:1 #
-2.192541772576701151431331901151e-07 1:0 2:69 3:24 4:0 5:6112 6:155 7:22 8:0 #
2.192541772576701151431331901151e-07 1:7193 2:428 3:83 4:0 5:1 6:325 7:112 8:0 #
-2.192541772576701151431331901151e-07 1:32 2:1357 3:1288 4:4 5:81 6:92 7:70 8:0 #
-2.192541772576701151431331901151e-07 1:1 2:107 3:17 4:0 5:7059 6:111 7:28 8:1 #
-2.192541772576701151431331901151e-07 1:5293 2:47 3:7 4:0 5:15 6:72 7:14 8:0 #
2.192541772576701151431331901151e-07 1:0 2:13 3:8 4:674 5:0 6:0 7:6 8:0 #
2.192541772576701151431331901151e-07 1:31 2:87 3:26 4:15 5:7057 6:113 7:37 8:0 #
2.192541772576701151431331901151e-07 1:17 2:181 3:149 4:5 5:24 6:149 7:207 8:8 #
2.192541772576701151431331901151e-07 1:0 2:67 3:14 4:0 5:0 6:1445 7:1230 8:0 #
-2.192541772576701151431331901151e-07 1:0 2:186 3:0 4:0 5:0 6:7093 7:0 8:0 #
2.192541772576701151431331901151e-07 1:46 2:232 3:97 4:0 5:8 6:6929 7:91 8:5 #
-2.192541772576701151431331901151e-07 1:1399 2:136 3:79 4:0 5:334 6:172 7:108 8:0 #
-2.192541772576701151431331901151e-07 1:0 2:1040 3:0 4:0 5:0 6:7289 7:0 8:0 #
4.428891823108167957739758971436e-08 1:7080 2:195 3:158 4:0 5:72 6:162 7:166 8:0 #
-2.192541772576701151431331901151e-07 1:5097 2:172 3:33 4:0 5:1 6:192 7:21 8:0 #
-5.1954665194076761635966774446893e-08 1:364 2:66773 3:20 4:0 5:547 6:126 7:20 8:0 #
-2.192541772576701151431331901151e-07 1:5169 2:205 3:102 4:0 5:42 6:207 7:99 8:0 #
-2.192541772576701151431331901151e-07 1:31 2:87 3:29 4:3 5:5973 6:100 7:28 8:1 #
2.192541772576701151431331901151e-07 1:35 2:1660 3:96 4:0 5:29 6:225 7:100 8:0 #
-2.192541772576701151431331901151e-07 1:4726 2:83 3:26 4:3 5:0 6:76 7:7 8:0 #
2.192541772576701151431331901151e-07 1:0 2:415 3:0 4:0 5:0 6:143 7:0 8:0 #
2.192541772576701151431331901151e-07 1:204 2:134 3:165 4:0 5:6851 6:172 7:174 8:0 #
-2.192541772576701151431331901151e-07 1:2 2:130 3:54 4:298 5:4 6:111 7:44 8:0 #
-2.192541772576701151431331901151e-07 1:0 2:121 3:24 4:0 5:109 6:109 7:29 8:392 #
2.192541772576701151431331901151e-07 1:0 2:1985 3:170 4:0 5:0 6:645 7:153 8:0 #
-2.192541772576701151431331901151e-07 1:164 2:94 3:161 4:1 5:193 6:154 7:132 8:2 #
-2.192541772576701151431331901151e-07 1:1820 2:182 3:212 4:2 5:481 6:85 7:144 8:0 #
-2.192541772576701151431331901151e-07 1:0 2:118 3:0 4:0 5:0 6:7222 7:0 8:0 #
2.192541772576701151431331901151e-07 1:15 2:166 3:98 4:1 5:3103 6:4518 7:107 8:0 #
2.192541772576701151431331901151e-07 1:0 2:593 3:1 4:0 5:0 6:266 7:0 8:0 #
2.192541772576701151431331901151e-07 1:0 2:627 3:0 4:0 5:0 6:3665 7:0 8:0 #
2.192541772576701151431331901151e-07 1:6 2:1210 3:156 4:2 5:0 6:833 7:88 8:0 #
2.192541772576701151431331901151e-07 1:0 2:451 3:0 4:1 5:0 6:184 7:0 8:0 #
2.192541772576701151431331901151e-07 1:26 2:110 3:21 4:0 5:32 6:165 7:29 8:0 #
2.192541772576701151431331901151e-07 1:0 2:113 3:48 4:0 5:1 6:107 7:22 8:0 #
-2.192541772576701151431331901151e-07 1:0 2:30 3:18 4:0 5:5836 6:44 7:6 8:0 #
-2.192541772576701151431331901151e-07 1:638 2:440 3:46 4:0 5:2 6:196 7:22 8:1 #
2.192541772576701151431331901151e-07 1:0 2:104 3:0 4:1 5:0 6:63 7:0 8:1 #
-2.192541772576701151431331901151e-07 1:1111 2:328 3:60 4:0 5:852 6:130 7:19 8:0 #
2.192541772576701151431331901151e-07 1:2 2:51 3:18 4:1 5:0 6:55 7:14 8:0 #
2.192541772576701151431331901151e-07 1:0 2:170 3:84 4:0 5:3805 6:188 7:91 8:0 #
2.192541772576701151431331901151e-07 1:0 2:92 3:23 4:1 5:7063 6:64 7:23 8:0 #
2.192541772576701151431331901151e-07 1:0 2:170 3:0 4:9 5:0 6:148 7:0 8:3 #
2.192541772576701151431331901151e-07 1:7063 2:64 3:23 4:0 5:0 6:78 7:22 8:4 #
2.192541772576701151431331901151e-07 1:0 2:104 3:0 4:0 5:0 6:104 7:0 8:1 #
2.192541772576701151431331901151e-07 1:0 2:875 3:0 4:0 5:0 6:3458 7:0 8:0 #
2.192541772576701151431331901151e-07 1:26 2:31 3:14 4:0 5:2 6:20 7:11 8:0 #
2.192541772576701151431331901151e-07 1:0 2:117 3:22 4:23 5:0 6:18 7:2 8:0 #
-2.192541772576701151431331901151e-07 1:1 2:107 3:22 4:0 5:4726 6:83 7:26 8:3 #
-2.192541772576701151431331901151e-07 1:0 2:96 3:22 4:0 5:0 6:1481 7:1236 8:1 #
2.192541772576701151431331901151e-07 1:0 2:216 3:0 4:0 5:0 6:229 7:0 8:4 #
2.192541772576701151431331901151e-07 1:0 2:194 3:0 4:0 5:0 6:338 7:0 8:0 #
-2.192541772576701151431331901151e-07 1:17 2:437 3:176 4:1 5:0 6:1985 7:170 8:0 #
-2.192541772576701151431331901151e-07 1:0 2:174 3:0 4:0 5:0 6:2425 7:0 8:0 #
-2.192541772576701151431331901151e-07 1:465 2:481 3:13 4:6 5:79 6:183 7:15 8:0 #
-2.192541772576701151431331901151e-07 1:419 2:168 3:15 4:0 5:104 6:308 7:56 8:238 #
2.192541772576701151431331901151e-07 1:0 2:55 3:14 4:0 5:1 6:1763 7:1246 8:3 #
2.192541772576701151431331901151e-07 1:263 2:108 3:122 4:0 5:3453 6:150 7:156 8:0 #
-2.192541772576701151431331901151e-07 1:205 2:472 3:165 4:58 5:99 6:405 7:160 8:49 #
-2.192541772576701151431331901151e-07 1:372 2:86 3:21 4:0 5:4 6:162 7:36 8:0 #
2.192541772576701151431331901151e-07 1:0 2:0 3:3 4:0 5:54 6:440 7:151 8:9 #
-2.192541772576701151431331901151e-07 1:300 2:37 3:15 4:12 5:146 6:74 7:28 8:20 #
2.192541772576701151431331901151e-07 1:18 2:581 3:87 4:0 5:0 6:359 7:87 8:0 #
2.192541772576701151431331901151e-07 1:32 2:312 3:94 4:190 5:3468 6:329 7:100 8:1 #
-2.192541772576701151431331901151e-07 1:198 2:192 3:26 4:191 5:3 6:120 7:14 8:3 #
2.192541772576701151431331901151e-07 1:0 2:126 3:0 4:5 5:0 6:216 7:0 8:0 #
-2.192541772576701151431331901151e-07 1:48 2:997 3:94 4:51 5:1535 6:255 7:107 8:1 #
-2.192541772576701151431331901151e-07 1:303 2:176 3:28 4:0 5:37 6:133 7:39 8:0 #
-2.192541772576701151431331901151e-07 1:0 2:0 3:0 4:0 5:0 6:3151 7:0 8:0 #
2.192541772576701151431331901151e-07 1:1 2:111 3:14 4:0 5:3 6:50 7:18 8:0 #
-2.192541772576701151431331901151e-07 1:0 2:177 3:92 4:0 5:25 6:173 7:116 8:0 #
-2.192541772576701151431331901151e-07 1:7 2:113 3:62 4:4 5:2 6:481 7:574 8:5 #
2.192541772576701151431331901151e-07 1:0 2:148 3:0 4:3 5:0 6:192 7:0 8:11 #
2.192541772576701151431331901151e-07 1:0 2:62 3:24 4:0 5:0 6:70 7:11 8:0 #
-2.192541772576701151431331901151e-07 1:25 2:177 3:100 4:0 5:1030 6:207 7:102 8:0 #
2.192541772576701151431331901151e-07 1:1 2:30 3:12 4:1 5:8 6:688 7:586 8:0 #
2.192541772576701151431331901151e-07 1:1 2:77 3:12 4:0 5:5 6:51 7:23 8:0 #
-2.192541772576701151431331901151e-07 1:0 2:99 3:44 4:0 5:0 6:90 7:27 8:156 #
-2.192541772576701151431331901151e-07 1:21 2:5 3:2 4:0 5:303 6:176 7:28 8:0 #
2.192541772576701151431331901151e-07 1:0 2:1239 3:1062 4:0 5:1 6:194 7:173 8:0 #
2.192541772576701151431331901151e-07 1:19 2:1439 3:845 4:1 5:9 6:383 7:84 8:0 #
-2.192541772576701151431331901151e-07 1:193 2:154 3:132 4:2 5:76 6:146 7:59 8:0 #
-2.192541772576701151431331901151e-07 1:9 2:219 3:164 4:0 5:0 6:396 7:163 8:0 #
2.192541772576701151431331901151e-07 1:13 2:200 3:21 4:0 5:1 6:110 7:17 8:0 #
-2.192541772576701151431331901151e-07 1:0 2:178 3:151 4:0 5:3 6:174 7:142 8:0 #
-2.192541772576701151431331901151e-07 1:64 2:78 3:109 4:1 5:103 6:236 7:193 8:1 #
2.192541772576701151431331901151e-07 1:9 2:36 3:15 4:0 5:7 6:113 7:62 8:4 #
2.192541772576701151431331901151e-07 1:30 2:23 3:65 4:0 5:206 6:0 7:87 8:460 #
2.192541772576701151431331901151e-07 1:1 2:179 3:28 4:1 5:6 6:83 7:14 8:0 #
-2.192541772576701151431331901151e-07 1:0 2:142 3:146 4:0 5:0 6:140 7:143 8:0 #
2.192541772576701151431331901151e-07 1:0 2:301 3:41 4:0 5:0 6:277 7:44 8:150 #
-2.192541772576701151431331901151e-07 1:129 2:741 3:28 4:0 5:70 6:395 7:30 8:0 #
-2.192541772576701151431331901151e-07 1:42 2:207 3:99 4:0 5:174 6:312 7:91 8:0 #
-2.192541772576701151431331901151e-07 1:56 2:158 3:87 4:0 5:41 6:967 7:93 8:0 #
2.192541772576701151431331901151e-07 1:1 2:129 3:25 4:0 5:0 6:74 7:18 8:0 #
-2.192541772576701151431331901151e-07 1:2 2:176 3:123 4:0 5:99 6:135 7:91 8:0 #
-2.192541772576701151431331901151e-07 1:31 2:178 3:88 4:0 5:91 6:185 7:125 8:0 #
2.192541772576701151431331901151e-07 1:68 2:218 3:31 4:0 5:0 6:154 7:30 8:0 #
2.192541772576701151431331901151e-07 1:41 2:169 3:32 4:0 5:0 6:136 7:23 8:0 #
-2.192541772576701151431331901151e-07 1:71 2:146 3:54 4:0 5:116 6:123 7:28 8:0 #
-2.192541772576701151431331901151e-07 1:151 2:292 3:84 4:0 5:0 6:873 7:87 8:0 #
2.192541772576701151431331901151e-07 1:0 2:102 3:33 4:0 5:0 6:59 7:20 8:0 #
-2.192541772576701151431331901151e-07 1:0 2:26 3:5 4:0 5:140 6:63 7:14 8:0 #
-2.192541772576701151431331901151e-07 1:0 2:2013 3:87 4:0 5:0 6:1624 7:81 8:0 #
2.192541772576701151431331901151e-07 1:8 2:44 3:34 4:1 5:1 6:26 7:15 8:0 #
-2.192541772576701151431331901151e-07 1:0 2:321 3:0 4:0 5:0 6:1040 7:0 8:0 #
-2.192541772576701151431331901151e-07 1:13 2:157 3:54 4:1 5:133 6:106 7:11 8:0 #
2.192541772576701151431331901151e-07 1:16 2:37 3:13 4:0 5:0 6:87 7:92 8:0 #
-2.192541772576701151431331901151e-07 1:0 2:90 3:27 4:156 5:0 6:88 7:22 8:0 #
2.192541772576701151431331901151e-07 1:0 2:401 3:65 4:0 5:19 6:317 7:97 8:0 #
-2.192541772576701151431331901151e-07 1:29 2:62 3:28 4:0 5:57 6:158 7:25 8:0 #
-2.192541772576701151431331901151e-07 1:3 2:129 3:132 4:0 5:19 6:125 7:155 8:0 #
-2.192541772576701151431331901151e-07 1:18 2:168 3:128 4:0 5:1 6:101 7:138 8:0 #
2.192541772576701151431331901151e-07 1:79 2:183 3:15 4:0 5:44 6:246 7:38 8:0 #
2.192541772576701151431331901151e-07 1:123 2:93 3:7 4:0 5:2 6:68 7:15 8:0 #
-2.192541772576701151431331901151e-07 1:251 2:121 3:35 4:0 5:43 6:90 7:25 8:1 #
-2.192541772576701151431331901151e-07 1:78 2:155 3:112 4:0 5:11 6:136 7:88 8:5 #
2.192541772576701151431331901151e-07 1:1 2:109 3:25 4:0 5:0 6:90 7:27 8:0 #
2.192541772576701151431331901151e-07 1:1 2:110 3:17 4:0 5:33 6:212 7:42 8:1 #
-2.192541772576701151431331901151e-07 1:0 2:92 3:67 4:0 5:0 6:434 7:1 8:0 #
2.192541772576701151431331901151e-07 1:0 2:60 3:16 4:0 5:1 6:89 7:25 8:0 #
-2.192541772576701151431331901151e-07 1:164 2:161 3:44 4:0 5:3 6:141 7:35 8:2 #
-2.192541772576701151431331901151e-07 1:0 2:396 3:163 4:0 5:0 6:262 7:143 8:0 #
2.192541772576701151431331901151e-07 1:0 2:75 3:17 4:0 5:4 6:119 7:31 8:0 #
-2.192541772576701151431331901151e-07 1:145 2:71 3:18 4:0 5:2 6:46 7:12 8:0 #
-2.192541772576701151431331901151e-07 1:91 2:165 3:94 4:0 5:35 6:140 7:92 8:0 #
2.192541772576701151431331901151e-07 1:0 2:75 3:18 4:29 5:731 6:85 7:23 8:0 #
2.192541772576701151431331901151e-07 1:91 2:141 3:23 4:0 5:530 6:227 7:40 8:1 #
2.192541772576701151431331901151e-07 1:3 2:111 3:37 4:0 5:1 6:79 7:25 8:0 #
-2.192541772576701151431331901151e-07 1:0 2:74 3:15 4:0 5:114 6:106 7:26 8:0 #
2.192541772576701151431331901151e-07 1:7 2:269 3:202 4:17 5:6 6:1140 7:846 8:1 #
2.192541772576701151431331901151e-07 1:3 2:70 3:17 4:0 5:1 6:127 7:35 8:0 #
2.192541772576701151431331901151e-07 1:79 2:106 3:31 4:0 5:9 6:36 7:15 8:0 #
2.192541772576701151431331901151e-07 1:34 2:113 3:24 4:0 5:2 6:65 7:11 8:0 #
-2.192541772576701151431331901151e-07 1:0 2:116 3:80 4:0 5:2 6:173 7:98 8:0 #
-2.192541772576701151431331901151e-07 1:0 2:434 3:1 4:0 5:0 6:592 7:0 8:0 #
2.192541772576701151431331901151e-07 1:0 2:124 3:54 4:0 5:30 6:23 7:65 8:0 #
-2.192541772576701151431331901151e-07 1:133 2:106 3:11 4:0 5:5 6:118 7:43 8:0 #
-2.192541772576701151431331901151e-07 1:6 2:260 3:100 4:0 5:5 6:239 7:104 8:0 #
-2.192541772576701151431331901151e-07 1:0 2:136 3:86 4:0 5:0 6:173 7:89 8:0 #
-2.192541772576701151431331901151e-07 1:145 2:144 3:26 4:0 5:16 6:129 7:35 8:0 #
-2.192541772576701151431331901151e-07 1:0 2:113 3:1 4:0 5:0 6:186 7:0 8:0 #
2.192541772576701151431331901151e-07 1:6851 2:172 3:174 4:0 5:164 6:94 7:161 8:1 #
-2.192541772576701151431331901151e-07 1:19 2:317 3:97 4:0 5:5 6:249 7:89 8:2 #
2.192541772576701151431331901151e-07 1:8 2:64 3:14 4:0 5:251 6:121 7:35 8:0 #
-2.192541772576701151431331901151e-07 1:8 2:237 3:96 4:0 5:0 6:84 7:78 8:0 #
2.192541772576701151431331901151e-07 1:413 2:163 3:14 4:48 5:638 6:440 7:46 8:0 #
2.192541772576701151431331901151e-07 1:14 2:90 3:21 4:0 5:11 6:58 7:20 8:0 #
2.192541772576701151431331901151e-07 1:7 2:109 3:28 4:0 5:0 6:103 7:23 8:0 #
2.192541772576701151431331901151e-07 1:1 2:70 3:21 4:0 5:8 6:98 7:44 8:0 #
-2.192541772576701151431331901151e-07 1:0 2:125 3:82 4:0 5:0 6:137 7:94 8:1 #
-2.192541772576701151431331901151e-07 1:0 2:833 3:88 4:0 5:15 6:166 7:98 8:1 #
2.192541772576701151431331901151e-07 1:0 2:78 3:22 4:4 5:31 6:87 7:29 8:3 #
2.192541772576701151431331901151e-07 1:0 2:169 3:90 4:0 5:107 6:192 7:74 8:0 #
2.192541772576701151431331901151e-07 1:0 2:359 3:87 4:0 5:48 6:997 7:94 8:51 #
-2.192541772576701151431331901151e-07 1:4 2:163 3:82 4:10 5:1 6:122 7:71 8:0 #
-2.192541772576701151431331901151e-07 1:0 2:106 3:75 4:0 5:0 6:116 7:80 8:0 #
-2.192541772576701151431331901151e-07 1:9 2:383 3:84 4:0 5:1 6:41 7:4 8:5 #
2.192541772576701151431331901151e-07 1:0 2:89 3:28 4:0 5:4 6:105 7:29 8:0 #
2.192541772576701151431331901151e-07 1:1 2:96 3:30 4:0 5:0 6:99 7:44 8:0 #
-2.192541772576701151431331901151e-07 1:10 2:14 3:4 4:0 5:1 6:30 7:10 8:0 #
-2.192541772576701151431331901151e-07 1:65 2:266 3:58 4:0 5:0 6:55 7:28 8:0 #
2.192541772576701151431331901151e-07 1:11 2:58 3:20 4:0 5:4 6:66 7:24 8:28 #
-2.192541772576701151431331901151e-07 1:0 2:128 3:59 4:0 5:0 6:111 7:29 8:0 #
2.192541772576701151431331901151e-07 1:212 2:52 3:24 4:0 5:536 6:129 7:24 8:1 #
-2.192541772576701151431331901151e-07 1:2 2:416 3:65 4:0 5:2 6:156 7:41 8:0 #
2.192541772576701151431331901151e-07 1:47 2:80 3:18 4:0 5:1 6:96 7:39 8:0 #
-2.192541772576701151431331901151e-07 1:0 2:181 3:55 4:0 5:0 6:183 7:48 8:0 #
2.192541772576701151431331901151e-07 1:0 2:103 3:34 4:0 5:1 6:107 7:17 8:0 #
-2.192541772576701151431331901151e-07 1:71 2:111 3:35 4:0 5:20 6:103 7:34 8:0 #
2.192541772576701151431331901151e-07 1:25 2:138 3:27 4:2 5:0 6:148 7:28 8:0 #
-2.192541772576701151431331901151e-07 1:0 2:87 3:33 4:0 5:71 6:111 7:35 8:0 #
-2.192541772576701151431331901151e-07 1:4 2:206 3:34 4:1 5:72 6:119 7:43 8:0 #
2.192541772576701151431331901151e-07 1:69 2:90 3:18 4:0 5:2 6:145 7:41 8:0 #
2.192541772576701151431331901151e-07 1:52 2:117 3:30 4:0 5:5 6:56 7:15 8:0 #
-2.192541772576701151431331901151e-07 1:116 2:123 3:28 4:0 5:0 6:87 7:33 8:0 #
2.192541772576701151431331901151e-07 1:113 2:53 3:13 4:0 5:212 6:52 7:24 8:0 #
-2.192541772576701151431331901151e-07 1:66 2:98 3:20 4:0 5:52 6:117 7:30 8:0 #
2.192541772576701151431331901151e-07 1:5 2:51 3:23 4:0 5:13 6:54 7:19 8:56 #
-2.192541772576701151431331901151e-07 1:67 2:34 3:9 4:0 5:89 6:35 7:11 8:0 #
-2.192541772576701151431331901151e-07 1:33 2:212 3:42 4:1 5:1 6:179 7:28 8:1 #
-2.192541772576701151431331901151e-07 1:0 2:2041 3:48 4:0 5:2 6:110 7:67 8:0 #
2.192541772576701151431331901151e-07 1:38 2:121 3:18 4:0 5:29 6:163 7:53 8:0 #
2.192541772576701151431331901151e-07 1:0 2:125 3:33 4:0 5:71 6:68 7:20 8:0 #
-2.192541772576701151431331901151e-07 1:0 2:225 3:39 4:0 5:0 6:218 7:40 8:1 #
2.192541772576701151431331901151e-07 1:51 2:117 3:35 4:0 5:0 6:121 7:24 8:0 #
-2.192541772576701151431331901151e-07 1:89 2:35 3:11 4:0 5:43 6:37 7:15 8:0 #
2.192541772576701151431331901151e-07 1:0 2:55 3:28 4:0 5:60 6:138 7:47 8:0 #
-2.192541772576701151431331901151e-07 1:3 2:81 3:43 4:0 5:0 6:114 7:19 8:0 #
2.192541772576701151431331901151e-07 1:13 2:54 3:19 4:56 5:37 6:129 7:82 8:1 #
2.192541772576701151431331901151e-07 1:60 2:138 3:47 4:0 5:0 6:130 7:33 8:1 #
-2.192541772576701151431331901151e-07 1:5 2:118 3:43 4:0 5:1 6:104 7:18 8:0 #
-2.192541772576701151431331901151e-07 1:0 2:109 3:38 4:0 5:0 6:150 7:42 8:0 #
2.192541772576701151431331901151e-07 1:47 2:103 3:27 4:0 5:91 6:141 7:23 8:0 #
-2.192541772576701151431331901151e-07 1:0 2:144 3:33 4:0 5:0 6:67 7:14 8:0 #
2.192541772576701151431331901151e-07 1:189 2:191 3:37 4:2 5:164 6:161 7:44 8:0 #
-2.192541772576701151431331901151e-07 1:19 2:37 3:31 4:0 5:7 6:110 7:27 8:0 #
2.192541772576701151431331901151e-07 1:3 2:76 3:80 4:0 5:0 6:96 7:22 8:0 #
2.192541772576701151431331901151e-07 1:0 2:123 3:76 4:0 5:5 6:180 7:86 8:0 #
2.192541772576701151431331901151e-07 1:3 2:50 3:18 4:0 5:198 6:192 7:26 8:191 #
-2.192541772576701151431331901151e-07 1:31 2:65 3:28 4:0 5:14 6:81 7:27 8:0 #
-2.192541772576701151431331901151e-07 1:4 2:162 3:36 4:0 5:2 6:160 7:39 8:0 #
-2.192541772576701151431331901151e-07 1:0 2:54 3:17 4:0 5:66 6:98 7:20 8:0 #
2.192541772576701151431331901151e-07 1:134 2:100 3:38 4:0 5:63 6:231 7:59 8:0 #
2.192541772576701151431331901151e-07 1:5 2:180 3:86 4:0 5:2 6:129 7:82 8:1 #
2.192541772576701151431331901151e-07 1:106 2:131 3:30 4:0 5:156 6:88 7:15 8:0 #
-2.192541772576701151431331901151e-07 1:0 2:278 3:20 4:0 5:1 6:511 7:38 8:0 #
-2.192541772576701151431331901151e-07 1:0 2:59 3:23 4:0 5:31 6:103 7:31 8:0 #
-2.192541772576701151431331901151e-07 1:56 2:87 3:20 4:0 5:7 6:109 7:28 8:0 #
2.192541772576701151431331901151e-07 1:0 2:173 3:89 4:0 5:0 6:125 7:82 8:0 #
2.192541772576701151431331901151e-07 1:6 2:125 3:89 4:0 5:3 6:94 7:78 8:0 #
2.192541772576701151431331901151e-07 1:348 2:239 3:39 4:0 5:0 6:225 7:39 8:0 #
-2.192541772576701151431331901151e-07 1:2 2:62 3:22 4:0 5:0 6:225 7:32 8:0 #
-2.192541772576701151431331901151e-07 1:67 2:127 3:20 4:2 5:0 6:74 7:15 8:0 #
2.192541772576701151431331901151e-07 1:5 2:249 3:89 4:2 5:12 6:250 7:84 8:0 #
-2.192541772576701151431331901151e-07 1:1 2:192 3:21 4:0 5:0 6:389 7:30 8:0 #
2.192541772576701151431331901151e-07 1:2 2:180 3:83 4:0 5:49 6:100 7:86 8:0 #
-2.192541772576701151431331901151e-07 1:3 2:115 3:26 4:1 5:1 6:109 7:25 8:0 #
2.192541772576701151431331901151e-07 1:536 2:129 3:24 4:1 5:300 6:37 7:15 8:12 #
-2.192541772576701151431331901151e-07 1:0 2:213 3:29 4:1 5:0 6:165 7:22 8:0 #
-2.192541772576701151431331901151e-07 1:22 2:115 3:8 4:0 5:41 6:169 7:32 8:0 #
2.192541772576701151431331901151e-07 1:0 2:87 3:92 4:0 5:0 6:189 7:95 8:2 #
2.192541772576701151431331901151e-07 1:0 2:175 3:105 4:0 5:0 6:85 7:85 8:0 #
-2.192541772576701151431331901151e-07 1:14 2:125 3:22 4:0 5:1 6:125 7:26 8:0 #
-2.192541772576701151431331901151e-07 1:0 2:61 3:22 4:0 5:0 6:73 7:24 8:0 #
2.192541772576701151431331901151e-07 1:104 2:308 3:56 4:238 5:0 6:301 7:41 8:0 #
2.192541772576701151431331901151e-07 1:24 2:127 3:85 4:0 5:94 6:118 7:86 8:0 #
-2.192541772576701151431331901151e-07 1:2 2:84 3:13 4:55 5:14 6:21 7:11 8:0 #
-2.192541772576701151431331901151e-07 1:0 2:93 3:21 4:0 5:0 6:113 7:29 8:0 #
2.192541772576701151431331901151e-07 1:840 2:84 3:30 4:0 5:0 6:108 7:20 8:0 #
-2.192541772576701151431331901151e-07 1:15 2:125 3:23 4:0 5:2 6:72 7:11 8:0 #
2.192541772576701151431331901151e-07 1:643 2:160 3:41 4:0 5:152 6:178 7:30 8:0 #
2.192541772576701151431331901151e-07 1:49 2:100 3:86 4:0 5:28 6:108 7:106 8:1 #
-2.192541772576701151431331901151e-07 1:0 2:59 3:20 4:0 5:0 6:91 7:25 8:3 #
-2.192541772576701151431331901151e-07 1:1 2:62 3:18 4:0 5:2 6:109 7:26 8:0 #
2.192541772576701151431331901151e-07 1:109 2:109 3:29 4:392 5:22 6:81 7:39 8:0 #
-2.192541772576701151431331901151e-07 1:0 2:53 3:20 4:0 5:0 6:61 7:22 8:0 #
2.192541772576701151431331901151e-07 1:29 2:225 3:100 4:0 5:32 6:312 7:94 8:190 #
2.192541772576701151431331901151e-07 1:174 2:312 3:91 4:0 5:0 6:706 7:76 8:0 #
-2.192541772576701151431331901151e-07 1:2 2:20 3:11 4:0 5:8 6:44 7:34 8:1 #
-2.192541772576701151431331901151e-07 1:3 2:82 3:20 4:0 5:1 6:70 7:21 8:0 #
-2.192541772576701151431331901151e-07 1:0 2:63 3:3 4:0 5:0 6:186 7:0 8:0 #
2.192541772576701151431331901151e-07 1:177 2:419 3:135 4:25 5:205 6:472 7:165 8:58 #
-2.192541772576701151431331901151e-07 1:0 2:233 3:6 4:0 5:0 6:124 7:54 8:0 #
2.192541772576701151431331901151e-07 1:0 2:93 3:129 4:0 5:0 6:117 7:155 8:0 #
2.192541772576701151431331901151e-07 1:217 2:86 3:100 4:0 5:64 6:78 7:109 8:1 #
-2.192541772576701151431331901151e-07 1:0 2:108 3:20 4:0 5:1 6:130 7:18 8:1 #
-2.192541772576701151431331901151e-07 1:6 2:54 3:13 4:0 5:17 6:45 7:9 8:0 #
2.192541772576701151431331901151e-07 1:0 2:142 3:149 4:0 5:0 6:140 7:143 8:0 #
2.192541772576701151431331901151e-07 1:56 2:70 3:88 4:0 5:217 6:86 7:100 8:0 #
-2.192541772576701151431331901151e-07 1:1 2:58 3:7 4:0 5:1 6:81 7:33 8:0 #
-2.192541772576701151431331901151e-07 1:5 2:56 3:15 4:0 5:0 6:50 7:10 8:1 #
2.192541772576701151431331901151e-07 1:0 2:262 3:143 4:0 5:0 6:230 7:158 8:0 #
2.192541772576701151431331901151e-07 1:0 2:140 3:143 4:0 5:17 6:181 7:149 8:5 #
-2.192541772576701151431331901151e-07 1:6 2:99 3:14 4:0 5:0 6:75 7:11 8:0 #
-2.192541772576701151431331901151e-07 1:0 2:71 3:16 4:0 5:0 6:46 7:7 8:0 #
2.192541772576701151431331901151e-07 1:0 2:117 3:155 4:0 5:0 6:111 7:151 8:53 #
2.192541772576701151431331901151e-07 1:4 2:135 3:158 4:0 5:0 6:144 7:160 8:0 #
-2.192541772576701151431331901151e-07 1:0 2:46 3:7 4:0 5:0 6:53 7:20 8:0 #
2.192541772576701151431331901151e-07 1:206 2:363 3:98 4:0 5:177 6:419 7:135 8:25 #
-2.192541772576701151431331901151e-07 1:1 2:66 3:15 4:0 5:0 6:26 7:5 8:0 #
2.192541772576701151431331901151e-07 1:72 2:162 3:166 4:0 5:1 6:146 7:152 8:1 #
-2.192541772576701151431331901151e-07 1:1 2:30 3:10 4:0 5:9 6:23 7:5 8:0 #
2.192541772576701151431331901151e-07 1:852 2:130 3:19 4:0 5:419 6:168 7:15 8:0 #
-2.192541772576701151431331901151e-07 1:0 2:50 3:10 4:1 5:1 6:16 7:7 8:0 #
-2.192541772576701151431331901151e-07 1:2 2:90 3:11 4:0 5:0 6:225 7:0 8:0 #
2.192541772576701151431331901151e-07 1:104 2:77 3:146 4:0 5:7 6:269 7:202 8:17 #
-2.192541772576701151431331901151e-07 1:1 2:74 3:5 4:0 5:2 6:90 7:11 8:0 #
2.192541772576701151431331901151e-07 1:0 2:111 3:151 4:53 5:4 6:183 7:211 8:2 #
-2.192541772576701151431331901151e-07 1:0 2:12 3:0 4:0 5:1 6:71 7:11 8:0 #
3.4113948586644755855132923189066e-08 1:0 2:76 3:7 4:0 5:0 6:107119 7:17 8:0 #
-2.192541772576701151431331901151e-07 1:0 2:30 3:0 4:0 5:0 6:473 7:0 8:0 #
2.192541772576701151431331901151e-07 1:17 2:163 3:170 4:0 5:104 6:77 7:146 8:0 #
2.192541772576701151431331901151e-07 1:9 2:238 3:251 4:205 5:4 6:155 7:171 8:5 #
-2.192541772576701151431331901151e-07 1:0 2:27 3:2 4:0 5:0 6:42 7:1 8:0 #
2.192541772576701151431331901151e-07 1:7 2:478 3:359 4:0 5:78 6:155 7:112 8:0 #
-2.192541772576701151431331901151e-07 1:0 2:142 3:9 4:0 5:0 6:217 7:0 8:0 #
2.192541772576701151431331901151e-07 1:1250 2:182 3:80 4:5 5:0 6:224 7:60 8:0 #
-2.192541772576701151431331901151e-07 1:0 2:254 3:0 4:0 5:0 6:188 7:0 8:0 #
2.192541772576701151431331901151e-07 1:1189 2:419 3:91 4:0 5:206 6:363 7:98 8:0 #
2.192541772576701151431331901151e-07 1:1519 2:119 3:25 4:0 5:849 6:105 7:17 8:34 #
-2.192541772576701151431331901151e-07 1:0 2:72 3:2 4:0 5:0 6:32 7:2 8:0 #
-2.192541772576701151431331901151e-07 1:0 2:188 3:0 4:0 5:0 6:442 7:0 8:0 #
-2.192541772576701151431331901151e-07 1:0 2:266 3:0 4:0 5:0 6:451 7:0 8:1 #
2.192541772576701151431331901151e-07 1:429 2:244 3:165 4:0 5:25 6:385 7:237 8:1 #
2.192541772576701151431331901151e-07 1:53 2:803 3:671 4:1 5:429 6:244 7:165 8:0 #
-2.192541772576701151431331901151e-07 1:0 2:95 3:0 4:0 5:0 6:324 7:0 8:0 #
-2.192541772576701151431331901151e-07 1:0 2:942 3:0 4:0 5:0 6:483 7:0 8:0 #
5.0780225130370226741535684715154e-08 1:0 2:277 3:44 4:150 5:2346 6:218 7:526 8:3466 #
2.192541772576701151431331901151e-07 1:1 2:1763 3:1246 4:3 5:8 6:57 7:25 8:250 #
