SVM-light Version V6.02
0 # kernel type
3 # kernel parameter -d 
1 # kernel parameter -g 
1 # kernel parameter -s 
1 # kernel parameter -r 
empty# kernel parameter -u 
24 # highest feature index 
418 # number of training documents 
412 # number of support vectors plus 1 
0.24792175 # threshold b, each following line is a SV (starting with alpha*y)
-7.3632787052143047052273864151034e-08 1:5 2:9 3:4 4:0 5:2 6:52 7:20 8:0 9:2 10:41 11:22 12:0 13:0 14:39 15:15 16:0 17:0 18:32 19:7 20:1 21:7063 22:33 23:9 24:0 #
7.3632787052143047052273864151034e-08 1:0 2:7051 3:0 4:0 5:0 6:220 7:0 8:0 9:0 10:31 11:0 12:0 13:0 14:52 15:0 16:0 17:0 18:52 19:0 20:0 21:0 22:6 23:0 24:0 #
-7.3632787052143047052273864151034e-08 1:0 2:49634 3:10 4:0 5:2 6:34 7:1 8:0 9:1 10:27 11:6 12:0 13:0 14:48 15:3 16:0 17:0 18:1376 19:1292 20:0 21:0 22:0 23:2 24:0 #
-7.3632787052143047052273864151034e-08 1:0 2:2112 3:38 4:0 5:0 6:1694 7:40 8:0 9:0 10:81 11:37 12:0 13:0 14:91 15:34 16:0 17:3 18:93 19:37 20:1 21:602 22:101 23:41 24:0 #
-7.3632787052143047052273864151034e-08 1:12 2:1254 3:1035 4:2 5:10 6:80 7:119 8:1 9:107 10:46 11:20 12:0 13:8 14:38 15:14 16:0 17:0 18:44 19:9 20:0 21:0 22:27 23:1 24:0 #
2.2813418734169861642429495978031e-08 1:0 2:41677 3:13 4:0 5:31 6:31 7:4 8:15 9:0 10:42 11:15 12:0 13:7057 14:50 15:23 16:0 17:0 18:48 19:13 20:0 21:0 22:54 23:12 24:0 #
-2.609916602269118642006093689717e-08 1:1 2:9 3:2 4:0 5:2 6:85 7:11 8:0 9:1 10:23 11:2 12:0 13:11855 14:67 15:12 16:0 17:0 18:46 19:7 20:0 21:1 22:84 23:12 24:0 #
-7.3632787052143047052273864151034e-08 1:0 2:7021 3:0 4:0 5:0 6:165 7:0 8:0 9:0 10:102 11:0 12:0 13:0 14:79 15:0 16:0 17:0 18:76 19:0 20:0 21:0 22:7110 23:0 24:0 #
7.3632787052143047052273864151034e-08 1:37 2:25 3:7 4:0 5:1 6:39 7:6 8:0 9:0 10:26 11:3 12:0 13:0 14:14926 15:1 16:0 17:0 18:50540 19:4 20:0 21:0 22:41677 23:13 24:0 #
7.3632787052143047052273864151034e-08 1:443 2:45 3:77 4:0 5:424 6:43 7:65 8:0 9:3 10:48 11:71 12:0 13:6753 14:66 15:74 16:0 17:4 18:58 19:69 20:1 21:7114 22:67 23:72 24:0 #
7.3632787052143047052273864151034e-08 1:2 2:127 3:43 4:0 5:10 6:84 7:36 8:0 9:3 10:109 11:32 12:0 13:0 14:106 15:41 16:0 17:5068 18:109 19:37 20:3 21:7395 22:70 23:33 24:1 #
-7.3632787052143047052273864151034e-08 1:0 2:40 3:5 4:0 5:12209 6:41 7:13 8:0 9:1 10:9 11:2 12:0 13:2 14:85 15:11 16:0 17:1 18:23 19:2 20:0 21:11855 22:67 23:12 24:0 #
-7.3632787052143047052273864151034e-08 1:0 2:111 3:17 4:0 5:52 6:43 7:14 8:0 9:77 10:691 11:10 12:0 13:0 14:287 15:19 16:0 17:70 18:32 19:5 20:0 21:0 22:133 23:19 24:0 #
-7.3632787052143047052273864151034e-08 1:0 2:56 3:66 4:1 5:0 6:43 7:73 8:4 9:21 10:88 11:71 12:2 13:1863 14:84 15:73 16:5 17:8019 18:53 19:74 20:0 21:7213 22:61 23:71 24:0 #
-3.5913866240055903738098957555386e-08 1:0 2:40 3:9 4:0 5:0 6:87 7:14 8:0 9:0 10:17 11:3 12:0 13:2 14:14000 15:13 16:0 17:0 18:101007 19:8 20:0 21:0 22:101013 23:13 24:0 #
6.170133819627368006949453193774e-08 1:0 2:95 3:32 4:0 5:0 6:63 7:42 8:0 9:0 10:63 11:34 12:0 13:107 14:112 15:28 16:0 17:23599 18:66 19:8 20:0 21:1 22:122 23:15 24:2 #
-7.3632787052143047052273864151034e-08 1:20 2:21 3:4 4:0 5:0 6:76 7:13 8:0 9:6 10:22 11:7 12:0 13:4 14:90 15:18 16:0 17:28 18:70 19:10 20:0 21:165 22:74 23:17 24:0 #
3.709918621183549873075281178101e-09 1:101 2:74 3:43 4:0 5:0 6:95 7:32 8:0 9:0 10:63 11:42 12:0 13:0 14:63 15:34 16:0 17:107 18:112 19:28 20:0 21:23599 22:66 23:8 24:0 #
-7.3632787052143047052273864151034e-08 1:7057 2:50 3:23 4:0 5:0 6:48 7:13 8:0 9:0 10:54 11:12 12:0 13:0 14:41 15:14 16:1 17:0 18:56 19:14 20:0 21:1 22:28 23:7 24:1 #
-7.3632787052143047052273864151034e-08 1:0 2:135 3:23 4:1 5:0 6:70 7:13 8:0 9:0 10:58 11:6 12:0 13:0 14:61 15:8 16:0 17:7070 18:138 19:10 20:0 21:0 22:51 23:13 24:0 #
7.3632787052143047052273864151034e-08 1:0 2:91 3:0 4:0 5:0 6:80 7:0 8:0 9:0 10:101 11:0 12:0 13:0 14:125 15:0 16:4 17:0 18:91 19:0 20:2 21:0 22:7110 23:0 24:0 #
7.3632787052143047052273864151034e-08 1:0 2:811 3:0 4:3 5:0 6:33 7:0 8:0 9:0 10:4839 11:0 12:0 13:0 14:70 15:0 16:0 17:0 18:94 19:0 20:9 21:0 22:53 23:0 24:0 #
7.3632787052143047052273864151034e-08 1:0 2:32 3:7 4:1 5:7063 6:33 7:9 8:0 9:0 10:37 11:7 12:0 13:0 14:18 15:14 16:0 17:0 18:45 19:7 20:4 21:0 22:30 23:9 24:0 #
7.3632787052143047052273864151034e-08 1:4 2:58 3:69 4:1 5:7114 6:67 7:72 8:0 9:2452 10:75 11:77 12:94 13:1487 14:106 15:70 16:0 17:0 18:69 19:106 20:3 21:0 22:126 23:115 24:0 #
-4.4636863707158588940846383500902e-08 1:0 2:63 3:34 4:0 5:107 6:112 7:28 8:0 9:23599 10:66 11:8 12:0 13:1 14:122 15:15 16:2 17:67 18:124 19:17 20:2 21:0 22:38 23:6 24:0 #
-7.3632787052143047052273864151034e-08 1:2 2:38 3:8 4:0 5:0 6:14 7:8 8:0 9:6 10:4 11:3 12:0 13:5754 14:17 15:2 16:0 17:6228 18:56 19:4 20:0 21:3 22:31 23:4 24:0 #
-7.3632787052143047052273864151034e-08 1:0 2:44 3:3 4:55 5:2 6:38 7:8 8:0 9:0 10:14 11:8 12:0 13:6 14:4 15:3 16:0 17:5754 18:17 19:2 20:0 21:6228 22:56 23:4 24:0 #
-7.3632787052143047052273864151034e-08 1:0 2:84 3:0 4:0 5:0 6:4283 7:0 8:0 9:0 10:279 11:0 12:0 13:0 14:168 15:1 16:0 17:0 18:129 19:0 20:0 21:0 22:86 23:0 24:0 #
7.3632787052143047052273864151034e-08 1:0 2:86 3:68 4:0 5:7063 6:65 7:77 8:0 9:72 10:81 11:71 12:0 13:0 14:58 15:65 16:0 17:1 18:53 19:70 20:0 21:0 22:78 23:60 24:1 #
-7.3632787052143047052273864151034e-08 1:0 2:15 3:5 4:0 5:124 6:48 7:6 8:0 9:0 10:23 11:5 12:0 13:2 14:40 15:2 16:0 17:7056 18:55 19:11 20:0 21:69 22:37 23:7 24:0 #
7.3632787052143047052273864151034e-08 1:65 2:135 3:36 4:0 5:7159 6:270 7:34 8:0 9:0 10:103 11:38 12:0 13:0 14:147 15:45 16:0 17:1 18:139 19:47 20:0 21:0 22:70 23:42 24:0 #
-7.3632787052143047052273864151034e-08 1:1 2:57 3:13 4:0 5:31 6:31 7:4 8:0 9:1 10:32 11:3 12:0 13:1 14:43 15:10 16:0 17:0 18:13 19:4 20:0 21:0 22:13 23:3 24:0 #
-7.3632787052143047052273864151034e-08 1:25 2:97 3:16 4:0 5:2641 6:36 7:21 8:0 9:4448 10:52 11:12 12:0 13:30 14:82 15:22 16:0 17:354 18:52 19:9 20:0 21:272 22:95 23:27 24:0 #
-7.3632787052143047052273864151034e-08 1:0 2:71 3:18 4:0 5:5532 6:103 7:15 8:1 9:324 10:96 11:25 12:0 13:0 14:17 15:3 16:0 17:0 18:37 19:6 20:0 21:1 22:34 23:10 24:0 #
7.3632787052143047052273864151034e-08 1:0 2:42 3:15 4:0 5:7057 6:50 7:23 8:0 9:0 10:48 11:13 12:0 13:0 14:54 15:12 16:0 17:0 18:41 19:14 20:1 21:0 22:56 23:14 24:0 #
-7.3632787052143047052273864151034e-08 1:1306 2:80 3:81 4:0 5:5232 6:53 7:70 8:0 9:0 10:52 11:76 12:0 13:32 14:32 15:62 16:1 17:147 18:101 19:59 20:2 21:39 22:31 23:64 24:0 #
-7.3632787052143047052273864151034e-08 1:1 2:23 3:2 4:0 5:11855 6:67 7:12 8:0 9:0 10:46 11:7 12:0 13:1 14:84 15:12 16:0 17:0 18:21 19:4 20:0 21:0 22:69 23:9 24:6 #
7.3632787052143047052273864151034e-08 1:7159 2:270 3:34 4:0 5:0 6:103 7:38 8:0 9:0 10:147 11:45 12:0 13:1 14:139 15:47 16:0 17:0 18:70 19:42 20:0 21:4 22:12 23:12 24:1 #
-7.3632787052143047052273864151034e-08 1:7063 2:21 3:21 4:0 5:0 6:58 7:10 8:0 9:0 10:30 11:15 12:0 13:0 14:43 15:6 16:0 17:0 18:62 19:15 20:0 21:1 22:45 23:18 24:0 #
7.3632787052143047052273864151034e-08 1:0 2:4369 3:43 4:0 5:3103 6:95 7:42 8:0 9:7042 10:153 11:66 12:1 13:0 14:104 15:69 16:0 17:0 18:92 19:69 20:0 21:4 22:91 23:67 24:0 #
-7.3632787052143047052273864151034e-08 1:0 2:51 3:71 4:0 5:169 6:63 7:78 8:0 9:35 10:49 11:68 12:0 13:445 14:71 15:65 16:0 17:1306 18:80 19:81 20:0 21:5232 22:53 23:70 24:0 #
-7.3632787052143047052273864151034e-08 1:5972 2:46 3:8 4:0 5:7063 6:21 7:21 8:0 9:0 10:58 11:10 12:0 13:0 14:30 15:15 16:0 17:0 18:43 19:6 20:0 21:0 22:62 23:15 24:0 #
-7.3632787052143047052273864151034e-08 1:0 2:49 3:9 4:0 5:0 6:0 7:0 8:0 9:0 10:1307 11:1208 12:0 13:1 14:15 15:1 16:0 17:0 18:71 19:18 20:0 21:5532 22:103 23:15 24:1 #
7.3632787052143047052273864151034e-08 1:5 2:123 3:42 4:190 5:15 6:149 7:38 8:0 9:13 10:133 11:44 12:1 13:397 14:156 15:43 16:0 17:3070 18:103 19:39 20:0 21:187 22:95 23:30 24:0 #
7.3632787052143047052273864151034e-08 1:0 2:70 3:0 4:0 5:0 6:490 7:0 8:0 9:0 10:2907 11:0 12:0 13:0 14:777 15:0 16:0 17:0 18:81 19:0 20:0 21:0 22:109 23:0 24:0 #
7.3632787052143047052273864151034e-08 1:0 2:689 3:780 4:0 5:0 6:1416 7:1094 8:0 9:443 10:45 11:77 12:0 13:424 14:43 15:65 16:0 17:3 18:48 19:71 20:0 21:6753 22:66 23:74 24:0 #
7.3632787052143047052273864151034e-08 1:3 2:48 3:71 4:0 5:6753 6:66 7:74 8:0 9:4 10:58 11:69 12:1 13:7114 14:67 15:72 16:0 17:2452 18:75 19:77 20:94 21:1487 22:106 23:70 24:0 #
3.2480169995076738386385379773677e-08 1:7114 2:67 3:72 4:0 5:2452 6:75 7:77 8:94 9:1487 10:106 11:70 12:0 13:0 14:69 15:106 16:3 17:0 18:126 19:115 20:0 21:13 22:117 23:84 24:202 #
7.3632787052143047052273864151034e-08 1:169 2:63 3:78 4:0 5:35 6:49 7:68 8:0 9:445 10:71 11:65 12:0 13:1306 14:80 15:81 16:0 17:5232 18:53 19:70 20:0 21:0 22:52 23:76 24:0 #
-7.3632787052143047052273864151034e-08 1:0 2:40 3:20 4:0 5:0 6:45 7:19 8:0 9:0 10:47 11:22 12:0 13:1 14:48 15:13 16:0 17:0 18:47 19:4 20:0 21:4688 22:45 23:16 24:3 #
7.3632787052143047052273864151034e-08 1:2 2:85 3:11 4:0 5:1 6:23 7:2 8:0 9:11855 10:67 11:12 12:0 13:0 14:46 15:7 16:0 17:1 18:84 19:12 20:0 21:0 22:21 23:4 24:0 #
7.3632787052143047052273864151034e-08 1:0 2:18 3:14 4:0 5:0 6:45 7:7 8:4 9:0 10:30 11:9 12:0 13:27 14:28 15:16 16:2 17:3 18:37 19:12 20:1 21:5925 22:56 23:8 24:0 #
7.3632787052143047052273864151034e-08 1:1 2:15741 3:33 4:2 5:768 6:105 7:38 8:0 9:421 10:281 11:40 12:0 13:0 14:166 15:42 16:0 17:91 18:135 19:43 20:0 21:144 22:140 23:40 24:0 #
-7.3632787052143047052273864151034e-08 1:20 2:37 3:18 4:0 5:2363 6:15 7:4 8:0 9:4825 10:70 11:17 12:0 13:68 14:72 15:6 16:0 17:22 18:33 19:5 20:0 21:10 22:66 23:23 24:0 #
-7.3632787052143047052273864151034e-08 1:0 2:18 3:0 4:0 5:6112 6:87 7:5 8:0 9:0 10:67 11:17 12:0 13:1 14:41 15:2 16:0 17:0 18:42 19:28 20:0 21:0 22:67 23:36 24:0 #
7.3632787052143047052273864151034e-08 1:0 2:21 3:7 4:0 5:0 6:30 7:15 8:0 9:0 10:1740 11:1230 12:1 13:1 14:10 15:3 16:2 17:7 18:24 19:20 20:66 21:1 22:24 23:4 24:184 #
7.3632787052143047052273864151034e-08 1:0 2:33 3:10 4:1 5:0 6:26 7:6 8:0 9:0 10:21 11:7 12:0 13:0 14:30 15:15 16:0 17:0 18:1740 19:1230 20:1 21:1 22:10 23:3 24:2 #
7.3632787052143047052273864151034e-08 1:0 2:75 3:34 4:0 5:33 6:26 7:35 8:0 9:16 10:52 11:40 12:0 13:8 14:39 15:42 16:1 17:20 18:49 19:50 20:0 21:5455 22:41 23:35 24:0 #
-7.3632787052143047052273864151034e-08 1:2 2:37 3:19 4:0 5:2 6:75 7:23 8:0 9:1 10:52 11:13 12:0 13:7042 14:64 15:8 16:10 17:0 18:41 19:13 20:0 21:0 22:24 23:16 24:0 #
7.3632787052143047052273864151034e-08 1:0 2:56 3:37 4:0 5:0 6:54 7:35 8:0 9:0 10:91 11:38 12:0 13:3819 14:91 15:41 16:0 17:0 18:527 19:39 20:1 21:23 22:2939 23:46 24:1 #
7.3632787052143047052273864151034e-08 1:0 2:34 3:11 4:0 5:0 6:59 7:5 8:0 9:8 10:1379 11:2144 12:2 13:0 14:0 15:0 16:0 17:0 18:11 19:0 20:0 21:2 22:36 23:25 24:0 #
7.3632787052143047052273864151034e-08 1:3 2:32 3:6 4:0 5:0 6:11 7:5 8:0 9:51 10:107 11:28 12:0 13:0 14:58 15:11 16:0 17:0 18:44 19:13 20:0 21:21 22:56 23:15 24:1 #
-7.3632787052143047052273864151034e-08 1:0 2:320 3:0 4:0 5:0 6:102 7:0 8:0 9:0 10:7087 11:0 12:0 13:0 14:64 15:0 16:0 17:0 18:39 19:0 20:0 21:0 22:18 23:0 24:0 #
-7.3632787052143047052273864151034e-08 1:5 2:59 3:34 4:0 5:5 6:52 7:41 8:0 9:0 10:64 11:33 12:0 13:1 14:56 15:43 16:0 17:5147 18:88 19:44 20:0 21:22 22:85 23:36 24:0 #
-7.3632787052143047052273864151034e-08 1:0 2:140 3:0 4:0 5:0 6:1604 7:0 8:0 9:0 10:35 11:0 12:0 13:0 14:193 15:0 16:0 17:0 18:15 19:0 20:0 21:0 22:13 23:0 24:0 #
-7.3632787052143047052273864151034e-08 1:0 2:48 3:3 4:0 5:0 6:1376 7:1292 8:0 9:0 10:0 11:2 12:0 13:0 14:46 15:1 16:0 17:0 18:42 19:11 20:0 21:0 22:50 23:18 24:0 #
-7.3632787052143047052273864151034e-08 1:13 2:901 3:1164 4:2 5:29 6:496 7:468 8:0 9:0 10:0 11:1 12:0 13:30 14:19 15:0 16:0 17:0 18:44 19:3 20:0 21:0 22:10 23:3 24:0 #
-7.3632787052143047052273864151034e-08 1:0 2:23 3:0 4:0 5:0 6:35 7:10 8:0 9:2 10:57 11:18 12:0 13:7050 14:50 15:9 16:0 17:0 18:55 19:11 20:0 21:0 22:56 23:8 24:0 #
-7.3632787052143047052273864151034e-08 1:78 2:107 3:56 4:0 5:28 6:57 7:47 8:0 9:0 10:86 11:40 12:0 13:0 14:77 15:43 16:0 17:81 18:94 19:48 20:0 21:949 22:83 23:35 24:0 #
-7.3632787052143047052273864151034e-08 1:6 2:204 3:104 4:1 5:23 6:160 7:112 8:0 9:4 10:103 11:72 12:0 13:1796 14:43 15:110 16:2 17:20 18:116 19:79 20:0 21:475 22:42 23:60 24:0 #
-7.3632787052143047052273864151034e-08 1:0 2:35 3:9 4:0 5:0 6:125 7:134 8:0 9:12 10:1254 11:1035 12:2 13:10 14:80 15:119 16:1 17:107 18:46 19:20 20:0 21:8 22:38 23:14 24:0 #
-1.0366089339507708093980155371425e-08 1:194 2:1197 3:179 4:13989 5:836 6:84 7:15 8:0 9:7 10:164 11:27 12:110 13:11 14:85 15:37 16:10 17:111 18:56 19:19 20:3 21:0 22:88 23:10 24:1 #
7.3632787052143047052273864151034e-08 1:3 2:93 3:31 4:2 5:2 6:127 7:43 8:0 9:10 10:84 11:36 12:0 13:3 14:109 15:32 16:0 17:0 18:106 19:41 20:0 21:5068 22:109 23:37 24:3 #
7.3632787052143047052273864151034e-08 1:0 2:95 3:36 4:0 5:0 6:56 7:37 8:0 9:0 10:54 11:35 12:0 13:0 14:91 15:38 16:0 17:3819 18:91 19:41 20:0 21:0 22:527 23:39 24:1 #
7.3632787052143047052273864151034e-08 1:7050 2:50 3:9 4:0 5:0 6:55 7:11 8:0 9:0 10:56 11:8 12:0 13:0 14:36 15:12 16:0 17:0 18:26 19:3 20:0 21:0 22:25 23:8 24:0 #
7.3632787052143047052273864151034e-08 1:35 2:49 3:68 4:0 5:445 6:71 7:65 8:0 9:1306 10:80 11:81 12:0 13:5232 14:53 15:70 16:0 17:0 18:52 19:76 20:0 21:32 22:32 23:62 24:1 #
7.3632787052143047052273864151034e-08 1:17 2:82 3:65 4:0 5:0 6:86 7:68 8:0 9:7063 10:65 11:77 12:0 13:72 14:81 15:71 16:0 17:0 18:58 19:65 20:0 21:1 22:53 23:70 24:0 #
7.3632787052143047052273864151034e-08 1:2 2:41 3:22 4:0 5:0 6:39 7:15 8:0 9:0 10:32 11:7 12:1 13:7063 14:33 15:9 16:0 17:0 18:37 19:7 20:0 21:0 22:18 23:14 24:0 #
-7.3632787052143047052273864151034e-08 1:0 2:30 3:6 4:0 5:0 6:31 7:9 8:0 9:0 10:39 11:15 12:0 13:0 14:34 15:13 16:0 17:24 18:1890 19:1855 20:0 21:8 22:294 23:1 24:0 #
-7.3632787052143047052273864151034e-08 1:516 2:156 3:136 4:1 5:0 6:689 7:780 8:0 9:0 10:1416 11:1094 12:0 13:443 14:45 15:77 16:0 17:424 18:43 19:65 20:0 21:3 22:48 23:71 24:0 #
7.3632787052143047052273864151034e-08 1:0 2:70 3:11 4:0 5:0 6:100 7:20 8:0 9:0 10:36 11:2 12:0 13:0 14:0 15:2 16:0 17:0 18:1487 19:1227 20:1 21:2 22:115 23:60 24:0 #
-7.3632787052143047052273864151034e-08 1:0 2:125 3:134 4:0 5:12 6:1254 7:1035 8:2 9:10 10:80 11:119 12:1 13:107 14:46 15:20 16:0 17:8 18:38 19:14 20:0 21:0 22:44 23:9 24:0 #
7.3632787052143047052273864151034e-08 1:6 2:2061 3:367 4:11 5:0 6:2384 7:509 8:1 9:0 10:2399 11:358 12:0 13:0 14:0 15:3 16:0 17:0 18:0 19:0 20:0 21:22 22:105 23:3 24:1 #
-7.3632787052143047052273864151034e-08 1:0 2:30 3:9 4:0 5:27 6:28 7:16 8:2 9:3 10:37 11:12 12:1 13:5925 14:56 15:8 16:0 17:1 18:37 19:9 20:1 21:49 22:47 23:17 24:0 #
-7.3632787052143047052273864151034e-08 1:0 2:101 3:0 4:0 5:0 6:125 7:0 8:4 9:0 10:91 11:0 12:2 13:0 14:7110 15:0 16:0 17:0 18:119 19:0 20:7 21:0 22:66 23:0 24:0 #
-7.3632787052143047052273864151034e-08 1:25 2:331 3:146 4:8 5:9 6:22 7:13 8:1288 9:7 10:38 11:41 12:1405 13:57 14:286 15:321 16:79 17:0 18:59 19:34 20:0 21:101 22:209 23:40 24:0 #
-7.3632787052143047052273864151034e-08 1:0 2:39 3:8 4:0 5:8 6:23 7:14 8:0 9:836 10:42 11:11 12:0 13:6 14:35 15:17 16:0 17:834 18:28 19:9 20:0 21:0 22:41 23:4 24:0 #
-7.3632787052143047052273864151034e-08 1:0 2:44 3:66 4:53 5:0 6:57 7:76 8:0 9:4 10:94 11:91 12:2 13:96 14:258 15:139 16:0 17:516 18:156 19:136 20:1 21:0 22:689 23:780 24:0 #
1.2990798740804618460353378364518e-08 1:0 2:100 3:30 4:0 5:0 6:101 7:22 8:0 9:194 10:1197 11:179 12:13989 13:836 14:84 15:15 16:0 17:7 18:164 19:27 20:110 21:11 22:85 23:37 24:10 #
7.3632787052143047052273864151034e-08 1:0 2:0 3:0 4:0 5:0 6:0 7:0 8:0 9:0 10:0 11:0 12:0 13:0 14:0 15:0 16:0 17:0 18:0 19:0 20:0 21:0 22:0 23:0 24:0 #
-7.3632787052143047052273864151034e-08 1:7024 2:75 3:16 4:0 5:108 6:48 7:16 8:0 9:0 10:14 11:13 12:0 13:0 14:30 15:11 16:0 17:0 18:30 19:16 20:0 21:72 22:36 23:8 24:0 #
7.3632787052143047052273864151034e-08 1:0 2:69 3:38 4:0 5:0 6:2212 7:44 8:0 9:0 10:2112 11:38 12:0 13:0 14:1694 15:40 16:0 17:0 18:81 19:37 20:0 21:0 22:91 23:34 24:0 #
7.3632787052143047052273864151034e-08 1:4 2:243 3:106 4:0 5:1 6:1213 7:1183 8:2 9:28 10:28 11:58 12:0 13:24 14:63 15:62 16:0 17:423 18:52 19:68 20:0 21:2 22:133 23:69 24:0 #
7.3632787052143047052273864151034e-08 1:0 2:109 3:18 4:0 5:0 6:55 7:9 8:0 9:0 10:11 11:3 12:0 13:0 14:35 15:9 16:0 17:0 18:1411 19:1222 20:0 21:0 22:0 23:3 24:0 #
7.3632787052143047052273864151034e-08 1:7063 2:33 3:9 4:0 5:0 6:37 7:7 8:0 9:0 10:18 11:14 12:0 13:0 14:45 15:7 16:4 17:0 18:30 19:9 20:0 21:27 22:28 23:16 24:2 #
7.3632787052143047052273864151034e-08 1:2452 2:75 3:77 4:94 5:1487 6:106 7:70 8:0 9:0 10:69 11:106 12:3 13:0 14:126 15:115 16:0 17:13 18:117 19:84 20:202 21:0 22:56 23:66 24:1 #
7.3632787052143047052273864151034e-08 1:2345 2:121 3:497 4:856 5:1250 6:93 7:35 8:2615 9:0 10:74 11:30 12:0 13:0 14:73 15:34 16:0 17:0 18:100 19:30 20:0 21:0 22:101 23:22 24:0 #
-7.3632787052143047052273864151034e-08 1:5293 2:21 3:3 4:0 5:2 6:26 7:5 8:0 9:4 10:20 11:1 12:0 13:10 14:62 15:11 16:0 17:0 18:57 19:9 20:0 21:1 22:22 23:2 24:0 #
-7.3632787052143047052273864151034e-08 1:1673 2:98 3:22 4:0 5:1 6:53 7:10 8:0 9:0 10:5 11:7 12:0 13:319 14:124 15:46 16:0 17:275 18:74 19:28 20:0 21:2 22:101 23:11 24:0 #
7.3632787052143047052273864151034e-08 1:10 2:121 3:14 4:0 5:6 6:2061 7:367 8:11 9:0 10:2384 11:509 12:1 13:0 14:2399 15:358 16:0 17:0 18:0 19:3 20:0 21:0 22:0 23:0 24:0 #
7.3632787052143047052273864151034e-08 1:0 2:490 3:0 4:0 5:0 6:2907 7:0 8:0 9:0 10:777 11:0 12:0 13:0 14:81 15:0 16:0 17:0 18:109 19:0 20:0 21:0 22:56 23:0 24:3 #
7.3632787052143047052273864151034e-08 1:0 2:70 3:40 4:0 5:263 6:28 7:62 8:0 9:1673 10:55 11:60 12:0 13:1773 14:54 15:70 16:0 17:7 18:75 19:67 20:0 21:184 22:77 23:77 24:0 #
-7.3632787052143047052273864151034e-08 1:0 2:30 3:15 4:0 5:0 6:1740 7:1230 8:1 9:1 10:10 11:3 12:2 13:7 14:24 15:20 16:66 17:1 18:24 19:4 20:184 21:0 22:44 23:3 24:55 #
7.3632787052143047052273864151034e-08 1:7084 2:968 3:45 4:0 5:0 6:707 7:45 8:0 9:45 10:94 11:42 12:0 13:1 14:90 15:45 16:0 17:8 18:83 19:38 20:0 21:0 22:100 23:39 24:0 #
-7.3632787052143047052273864151034e-08 1:5532 2:103 3:15 4:1 5:324 6:96 7:25 8:0 9:0 10:17 11:3 12:0 13:0 14:37 15:6 16:0 17:1 18:34 19:10 20:0 21:2 22:76 23:11 24:0 #
7.3632787052143047052273864151034e-08 1:0 2:61 3:0 4:4 5:0 6:42 7:0 8:3 9:0 10:49 11:0 12:0 13:0 14:91 15:0 16:0 17:0 18:80 19:0 20:0 21:0 22:101 23:0 24:0 #
-7.3632787052143047052273864151034e-08 1:13 2:316 3:86 4:1 5:0 6:982 7:71 8:0 9:0 10:918 11:76 12:0 13:0 14:205 15:59 16:0 17:0 18:419 19:71 20:0 21:0 22:167 23:71 24:1 #
-7.3632787052143047052273864151034e-08 1:0 2:83 3:8 4:0 5:0 6:85 7:23 8:0 9:0 10:57 11:7 12:0 13:0 14:71 15:10 16:0 17:0 18:1593 19:1255 20:3 21:12 22:0 23:2 24:0 #
7.3632787052143047052273864151034e-08 1:0 2:110 3:35 4:0 5:0 6:837 7:42 8:0 9:35 10:623 11:36 12:0 13:0 14:328 15:46 16:0 17:29 18:93 19:40 20:0 21:0 22:102 23:47 24:0 #
7.3632787052143047052273864151034e-08 1:0 2:60 3:61 4:0 5:0 6:62 7:62 8:0 9:17 10:99 11:67 12:5 13:8 14:28 15:27 16:0 17:10 18:121 19:14 20:0 21:6 22:2061 23:367 24:11 #
7.3632787052143047052273864151034e-08 1:529 2:74 3:23 4:0 5:990 6:29 7:2 8:0 9:452 10:64 11:7 12:0 13:390 14:39 15:8 16:8 17:8 18:45 19:2 20:41 21:2 22:75 23:3 24:30 #
7.3632787052143047052273864151034e-08 1:0 2:26 3:6 4:0 5:0 6:21 7:7 8:0 9:0 10:30 11:15 12:0 13:0 14:1740 15:1230 16:1 17:1 18:10 19:3 20:2 21:7 22:24 23:20 24:66 #
7.3632787052143047052273864151034e-08 1:2 2:67 3:41 4:0 5:2 6:57 7:33 8:0 9:0 10:51 11:35 12:0 13:0 14:48 15:38 16:1 17:65 18:1084 19:1053 20:0 21:56 22:236 23:176 24:7 #
-7.3632787052143047052273864151034e-08 1:0 2:118 3:8 4:0 5:1 6:652 7:48 8:0 9:0 10:0 11:0 12:0 13:0 14:0 15:0 16:0 17:0 18:25 19:2 20:0 21:0 22:0 23:0 24:0 #
-7.3632787052143047052273864151034e-08 1:23 2:160 3:112 4:0 5:4 6:103 7:72 8:0 9:1796 10:43 11:110 12:2 13:20 14:116 15:79 16:0 17:475 18:42 19:60 20:0 21:6 22:33 23:63 24:0 #
7.3632787052143047052273864151034e-08 1:4 2:91 3:67 4:0 5:13 6:316 7:86 8:1 9:0 10:982 11:71 12:0 13:0 14:918 15:76 16:0 17:0 18:205 19:59 20:0 21:0 22:419 23:71 24:0 #
7.3341653989977758706925300632995e-08 1:0 2:1424 3:0 4:0 5:0 6:1550 7:0 8:0 9:0 10:811 11:0 12:3 13:0 14:33 15:0 16:0 17:0 18:4839 19:0 20:0 21:0 22:70 23:0 24:0 #
7.3632787052143047052273864151034e-08 1:4 2:20 3:1 4:0 5:10 6:62 7:11 8:0 9:0 10:57 11:9 12:0 13:1 14:22 15:2 16:0 17:0 18:13 19:8 20:0 21:2 22:33 23:10 24:0 #
-7.3632787052143047052273864151034e-08 1:52 2:43 3:14 4:0 5:77 6:691 7:10 8:0 9:0 10:287 11:19 12:0 13:70 14:32 15:5 16:0 17:0 18:133 19:19 20:0 21:83 22:32 23:10 24:0 #
-7.3632787052143047052273864151034e-08 1:0 2:11 3:0 4:0 5:2 6:36 7:25 8:0 9:0 10:13 11:6 12:674 13:0 14:0 15:2 16:0 17:0 18:0 19:1 20:0 21:0 22:0 23:4 24:0 #
-7.3632787052143047052273864151034e-08 1:0 2:103 3:38 4:0 5:0 6:147 7:45 8:0 9:1 10:139 11:47 12:0 13:0 14:70 15:42 16:0 17:4 18:12 19:12 20:1 21:6 22:1699 23:1184 24:126 #
-7.3632787052143047052273864151034e-08 1:0 2:39 3:64 4:0 5:0 6:50 7:72 8:0 9:0 10:51 11:71 12:0 13:169 14:63 15:78 16:0 17:35 18:49 19:68 20:0 21:445 22:71 23:65 24:0 #
-7.3632787052143047052273864151034e-08 1:0 2:281 3:0 4:0 5:0 6:369 7:0 8:0 9:0 10:105 11:0 12:0 13:0 14:55 15:0 16:0 17:0 18:87 19:0 20:0 21:0 22:79 23:0 24:0 #
7.3632787052143047052273864151034e-08 1:470 2:522 3:363 4:27 5:529 6:74 7:23 8:0 9:990 10:29 11:2 12:0 13:452 14:64 15:7 16:0 17:390 18:39 19:8 20:8 21:8 22:45 23:2 24:41 #
7.3632787052143047052273864151034e-08 1:0 2:1110 3:1777 4:1 5:751 6:29 7:6 8:0 9:6 10:257 11:29 12:0 13:0 14:29 15:3 16:0 17:0 18:38 19:13 20:0 21:0 22:29 23:3 24:0 #
7.3632787052143047052273864151034e-08 1:836 2:42 3:11 4:0 5:6 6:35 7:17 8:0 9:834 10:28 11:9 12:0 13:0 14:41 15:4 16:0 17:0 18:53 19:14 20:0 21:0 22:54 23:10 24:0 #
7.3632787052143047052273864151034e-08 1:0 2:17 3:0 4:0 5:0 6:15 7:0 8:0 9:0 10:12 11:0 12:0 13:0 14:860 15:0 16:0 17:0 18:1424 19:0 20:0 21:0 22:1550 23:0 24:0 #
7.3632787052143047052273864151034e-08 1:22 2:64 3:37 4:0 5:2 6:49 7:32 8:0 9:0 10:61 11:45 12:0 13:94 14:46 15:35 16:0 17:0 18:51 19:30 20:0 21:79 22:1424 23:37 24:156 #
7.3632787052143047052273864151034e-08 1:0 2:10 3:4 4:0 5:0 6:33 7:10 8:1 9:0 10:26 11:6 12:0 13:0 14:21 15:7 16:0 17:0 18:30 19:15 20:0 21:0 22:1740 23:1230 24:1 #
7.3632787052143047052273864151034e-08 1:0 2:53 3:13 4:0 5:0 6:37 7:16 8:0 9:0 10:36 11:7 12:0 13:0 14:35 15:9 16:0 17:0 18:125 19:134 20:0 21:12 22:1254 23:1035 24:2 #
7.3632787052143047052273864151034e-08 1:1 2:20 3:2 4:1 5:0 6:10 7:8 8:0 9:0 10:2 11:3 12:0 13:1 14:9 15:4 16:0 17:18 18:677 19:582 20:0 21:4 22:914 23:780 24:0 #
-7.3632787052143047052273864151034e-08 1:0 2:10 3:8 4:0 5:0 6:2 7:3 8:0 9:1 10:9 11:4 12:0 13:18 14:677 15:582 16:0 17:4 18:914 19:780 20:0 21:4 22:525 23:64 24:1 #
-7.3632787052143047052273864151034e-08 1:0 2:86 3:45 4:0 5:0 6:878 7:52 8:0 9:0 10:976 11:36 12:0 13:0 14:700 15:31 16:0 17:0 18:538 19:39 20:0 21:0 22:702 23:30 24:0 #
7.3632787052143047052273864151034e-08 1:0 2:13 3:6 4:674 5:0 6:0 7:2 8:0 9:0 10:0 11:1 12:0 13:0 14:0 15:4 16:0 17:0 18:0 19:2 20:0 21:0 22:53 23:8 24:2 #
7.3632787052143047052273864151034e-08 1:1270 2:102 3:20 4:0 5:0 6:48 7:5 8:0 9:0 10:70 11:10 12:0 13:0 14:86 15:5 16:0 17:419 18:58 19:6 20:0 21:5 22:152 23:32 24:0 #
-7.3632787052143047052273864151034e-08 1:0 2:65 3:72 4:0 5:2 6:65 7:66 8:0 9:23 10:53 11:31 12:0 13:203 14:903 15:436 16:0 17:47 18:44 19:245 20:0 21:98 22:45 23:35 24:0 #
-7.3632787052143047052273864151034e-08 1:77 2:691 3:10 4:0 5:0 6:287 7:19 8:0 9:70 10:32 11:5 12:0 13:0 14:133 15:19 16:0 17:83 18:32 19:10 20:0 21:54 22:39 23:17 24:0 #
-7.3632787052143047052273864151034e-08 1:0 2:147 3:0 4:0 5:0 6:626 7:0 8:0 9:0 10:1269 11:0 12:0 13:0 14:556 15:0 16:0 17:0 18:309 19:0 20:0 21:0 22:17 23:0 24:0 #
7.3632787052143047052273864151034e-08 1:22 2:584 3:606 4:594 5:470 6:522 7:363 8:27 9:529 10:74 11:23 12:0 13:990 14:29 15:2 16:0 17:452 18:64 19:7 20:0 21:390 22:39 23:8 24:8 #
7.3632787052143047052273864151034e-08 1:72 2:10 3:4 4:0 5:25 6:34 7:15 8:0 9:115 10:41 11:15 12:0 13:410 14:67 15:9 16:1 17:126 18:38 19:9 20:0 21:0 22:14 23:4 24:0 #
7.3632787052143047052273864151034e-08 1:9 2:32 3:7 4:0 5:1 6:25 7:6 8:0 9:6 10:44 11:8 12:0 13:242 14:78 15:23 16:0 17:5 18:20 19:7 20:0 21:6 22:28 23:9 24:0 #
7.3632787052143047052273864151034e-08 1:1 2:9 3:4 4:0 5:18 6:677 7:582 8:0 9:4 10:914 11:780 12:0 13:4 14:525 15:64 16:1 17:3 18:175 19:39 20:0 21:6 22:129 23:26 24:0 #
-7.3632787052143047052273864151034e-08 1:74 2:140 3:86 4:0 5:0 6:134 7:79 8:0 9:22 10:113 11:91 12:0 13:2 14:137 15:85 16:0 17:1 18:128 19:63 20:0 21:12 22:128 23:60 24:0 #
7.3632787052143047052273864151034e-08 1:0 2:26 3:0 4:0 5:0 6:117 7:0 8:0 9:0 10:321 11:0 12:0 13:0 14:154 15:0 16:0 17:0 18:186 19:1 20:0 21:0 22:139 23:0 24:0 #
7.3632787052143047052273864151034e-08 1:0 2:55 3:9 4:0 5:0 6:11 7:3 8:0 9:0 10:35 11:9 12:0 13:0 14:1411 15:1222 16:0 17:0 18:0 19:3 20:0 21:417 22:388 23:9 24:5 #
-7.3632787052143047052273864151034e-08 1:2 2:92 3:46 4:0 5:5 6:118 7:41 8:0 9:4 10:93 11:40 12:0 13:0 14:116 15:50 16:0 17:0 18:75 19:46 20:0 21:3 22:77 23:46 24:0 #
7.3632787052143047052273864151034e-08 1:0 2:6 3:0 4:0 5:0 6:46 7:0 8:1 9:0 10:76 11:0 12:0 13:0 14:34 15:0 16:1 17:0 18:5 19:0 20:0 21:0 22:39 23:0 24:0 #
-7.3632787052143047052273864151034e-08 1:0 2:112 3:71 4:2 5:0 6:123 7:72 8:0 9:0 10:133 11:68 12:0 13:0 14:93 15:55 16:0 17:0 18:82 19:56 20:0 21:0 22:63 23:58 24:0 #
-2.6086521701169555959210931070369e-08 1:0 2:125 3:0 4:4 5:0 6:91 7:0 8:2 9:0 10:7110 11:0 12:0 13:0 14:119 15:0 16:7 17:0 18:66 19:0 20:0 21:0 22:60 23:0 24:0 #
7.3632787052143047052273864151034e-08 1:0 2:1 3:5 4:0 5:0 6:34 7:13 8:0 9:0 10:90 11:39 12:0 13:0 14:19 15:4 16:0 17:30 18:3 19:4 20:0 21:0 22:1 23:107 24:0 #
-7.3632787052143047052273864151034e-08 1:0 2:117 3:0 4:0 5:0 6:321 7:0 8:0 9:0 10:154 11:0 12:0 13:0 14:186 15:1 16:0 17:0 18:139 19:0 20:0 21:0 22:300 23:0 24:1 #
-7.3632787052143047052273864151034e-08 1:0 2:83 3:62 4:0 5:0 6:90 7:65 8:0 9:0 10:112 11:71 12:2 13:0 14:123 15:72 16:0 17:0 18:133 19:68 20:0 21:0 22:93 23:55 24:0 #
7.3632787052143047052273864151034e-08 1:1 2:494 3:37 4:0 5:0 6:58 7:35 8:0 9:17 10:69 11:37 12:0 13:0 14:79 15:40 16:0 17:0 18:264 19:37 20:0 21:2 22:719 23:38 24:0 #
-7.3632787052143047052273864151034e-08 1:4 2:93 3:40 4:0 5:0 6:116 7:50 8:0 9:0 10:75 11:46 12:0 13:3 14:77 15:46 16:0 17:7 18:90 19:51 20:0 21:1 22:35 23:35 24:0 #
-7.3632787052143047052273864151034e-08 1:17 2:69 3:37 4:0 5:0 6:79 7:40 8:0 9:0 10:264 11:37 12:0 13:2 14:719 15:38 16:0 17:46 18:254 19:44 20:51 21:134 22:111 23:52 24:1 #
7.3632787052143047052273864151034e-08 1:0 2:42 3:0 4:3 5:0 6:49 7:0 8:0 9:0 10:91 11:0 12:0 13:0 14:80 15:0 16:0 17:0 18:101 19:0 20:0 21:0 22:125 23:0 24:4 #
-7.3632787052143047052273864151034e-08 1:0 2:81 3:41 4:0 5:3 6:109 7:45 8:0 9:0 10:110 11:35 12:0 13:0 14:837 15:42 16:0 17:35 18:623 19:36 20:0 21:0 22:328 23:46 24:0 #
-7.3632787052143047052273864151034e-08 1:0 2:264 3:0 4:0 5:0 6:122 7:0 8:0 9:0 10:72 11:0 12:0 13:0 14:15 15:0 16:0 17:0 18:26 19:0 20:0 21:0 22:81 23:0 24:0 #
-7.3632787052143047052273864151034e-08 1:0 2:114 3:18 4:0 5:0 6:126 7:21 8:0 9:0 10:85 11:18 12:0 13:0 14:75 15:15 16:0 17:0 18:52 19:10 20:0 21:0 22:135 23:23 24:1 #
7.3632787052143047052273864151034e-08 1:0 2:38 3:14 4:0 5:0 6:49 7:9 8:0 9:0 10:0 11:0 12:0 13:0 14:1307 15:1208 16:0 17:1 18:15 19:1 20:0 21:0 22:71 23:18 24:0 #
7.3632787052143047052273864151034e-08 1:1 2:19 3:7 4:0 5:0 6:48 7:18 8:0 9:0 10:33 11:4 12:2 13:25 14:77 15:10 16:0 17:0 18:44 19:12 20:0 21:0 22:86 23:15 24:0 #
7.3632787052143047052273864151034e-08 1:0 2:14 3:5 4:0 5:0 6:39 7:16 8:0 9:0 10:40 11:7 12:0 13:0 14:27 15:2 16:0 17:2 18:20 19:9 20:0 21:0 22:10 23:4 24:0 #
7.3632787052143047052273864151034e-08 1:0 2:61 3:0 4:0 5:0 6:87 7:0 8:0 9:0 10:144 11:0 12:0 13:0 14:166 15:0 16:0 17:0 18:126 19:0 20:0 21:0 22:70 23:0 24:0 #
-7.3632787052143047052273864151034e-08 1:2 2:85 3:31 4:0 5:2 6:77 7:21 8:0 9:14 10:84 11:11 12:0 13:11 14:97 15:12 16:0 17:6 18:56 19:23 20:0 21:66 22:74 23:50 24:0 #
-7.3632787052143047052273864151034e-08 1:0 2:0 3:0 4:0 5:0 6:19 7:2 8:0 9:0 10:118 11:8 12:0 13:1 14:652 15:48 16:0 17:0 18:0 19:0 20:0 21:0 22:0 23:0 24:0 #
7.3632787052143047052273864151034e-08 1:0 2:31 3:0 4:0 5:0 6:52 7:0 8:0 9:0 10:52 11:0 12:0 13:0 14:6 15:0 16:0 17:0 18:46 19:0 20:1 21:0 22:76 23:0 24:0 #
7.3632787052143047052273864151034e-08 1:0 2:94 3:0 4:9 5:0 6:53 7:0 8:0 9:0 10:84 11:0 12:3 13:0 14:80 15:0 16:6 17:0 18:97 19:0 20:3 21:0 22:61 23:0 24:4 #
7.3632787052143047052273864151034e-08 1:2 2:7 3:7 4:0 5:0 6:13 7:4 8:0 9:6 10:27 11:27 12:0 13:2 14:15 15:5 16:1 17:1 18:5 19:4 20:0 21:0 22:11 23:9 24:0 #
7.3632787052143047052273864151034e-08 1:5 2:14 3:5 4:0 5:0 6:16 7:5 8:0 9:0 10:12 11:4 12:0 13:2 14:7 15:7 16:0 17:0 18:13 19:4 20:0 21:6 22:27 23:27 24:0 #
7.3632787052143047052273864151034e-08 1:2 2:20 3:9 4:0 5:0 6:10 7:4 8:0 9:0 10:33 11:10 12:1 13:0 14:26 15:6 16:0 17:0 18:21 19:7 20:0 21:0 22:30 23:15 24:0 #
-7.3632787052143047052273864151034e-08 1:0 2:86 3:0 4:0 5:0 6:113 7:0 8:0 9:0 10:112 11:0 12:0 13:0 14:102 15:0 16:0 17:0 18:129 19:0 20:0 21:0 22:134 23:0 24:0 #
7.3632787052143047052273864151034e-08 1:144 2:140 3:40 4:0 5:0 6:128 7:61 8:7 9:148 10:246 11:60 12:18 13:70 14:196 15:54 16:18 17:70 18:208 19:83 20:29 21:129 22:178 23:78 24:31 #
-7.3632787052143047052273864151034e-08 1:1 2:43 3:14 4:0 5:0 6:54 7:23 8:1 9:2 10:65 11:27 12:297 13:1 14:55 15:21 16:0 17:3 18:58 19:15 20:0 21:0 22:32 23:21 24:0 #
-7.3632787052143047052273864151034e-08 1:0 2:32 3:0 4:0 5:0 6:111 7:0 8:0 9:0 10:101 11:0 12:0 13:0 14:79 15:0 16:0 17:0 18:0 19:0 20:0 21:0 22:0 23:0 24:0 #
-7.3632787052143047052273864151034e-08 1:0 2:166 3:0 4:0 5:0 6:126 7:0 8:0 9:0 10:70 11:0 12:0 13:0 14:101 15:0 16:1 17:0 18:96 19:0 20:0 21:0 22:78 23:7 24:0 #
7.3632787052143047052273864151034e-08 1:4 2:38 3:3 4:0 5:6 6:23 7:6 8:0 9:6 10:47 11:6 12:0 13:4 14:27 15:5 16:0 17:8 18:32 19:16 20:0 21:5 22:34 23:11 24:0 #
-7.3632787052143047052273864151034e-08 1:0 2:76 3:0 4:0 5:0 6:160 7:0 8:0 9:0 10:138 11:0 12:0 13:0 14:38 15:0 16:0 17:0 18:9 19:0 20:0 21:0 22:28 23:0 24:0 #
7.3632787052143047052273864151034e-08 1:0 2:17 3:3 4:0 5:3 6:42 7:13 8:0 9:0 10:29 11:5 12:0 13:2 14:26 15:5 16:0 17:0 18:61 19:12 20:0 21:1 22:43 23:14 24:0 #
7.3632787052143047052273864151034e-08 1:0 2:34 3:36 4:0 5:0 6:17 7:39 8:0 9:56 10:44 11:44 12:0 13:0 14:8 15:34 16:0 17:221 18:62 19:45 20:0 21:60 22:32 23:51 24:0 #
-7.3632787052143047052273864151034e-08 1:27 2:28 3:16 4:2 5:3 6:37 7:12 8:1 9:5925 10:56 11:8 12:0 13:1 14:37 15:9 16:1 17:49 18:47 19:17 20:0 21:19 22:29 23:4 24:0 #
-7.3632787052143047052273864151034e-08 1:0 2:7 3:0 4:0 5:0 6:0 7:0 8:0 9:0 10:0 11:0 12:0 13:0 14:25 15:0 16:0 17:0 18:12 19:0 20:0 21:0 22:466 23:0 24:0 #
-7.3632787052143047052273864151034e-08 1:28 2:28 3:58 4:0 5:24 6:63 7:62 8:0 9:423 10:52 11:68 12:0 13:2 14:133 15:69 16:0 17:6 18:204 19:104 20:1 21:23 22:160 23:112 24:0 #
7.3632787052143047052273864151034e-08 1:0 2:43 3:11 4:0 5:0 6:69 7:2 8:0 9:79 10:215 11:21 12:0 13:44 14:68 15:10 16:0 17:3 18:77 19:15 20:0 21:0 22:68 23:10 24:0 #
-7.3632787052143047052273864151034e-08 1:0 2:0 3:0 4:0 5:0 6:0 7:0 8:0 9:2 10:0 11:0 12:0 13:1 14:555 15:16 16:0 17:0 18:1960 19:14 20:0 21:0 22:68 23:25 24:0 #
-7.3632787052143047052273864151034e-08 1:0 2:11 3:9 4:0 5:1 6:20 7:2 8:1 9:0 10:10 11:8 12:0 13:0 14:2 15:3 16:0 17:1 18:9 19:4 20:0 21:18 22:677 23:582 24:0 #
-7.3632787052143047052273864151034e-08 1:0 2:44 3:42 4:0 5:0 6:31 7:33 8:0 9:0 10:30 11:34 12:0 13:0 14:13 15:16 16:2433 17:9 18:1485 19:1203 20:3 21:22 22:148 23:39 24:0 #
-7.3632787052143047052273864151034e-08 1:62 2:79 3:44 4:0 5:1 6:112 7:49 8:0 9:2 10:31 11:32 12:0 13:80 14:61 15:39 16:0 17:6 18:39 19:37 20:0 21:109 22:71 23:53 24:0 #
1.2335124015059230782071511773115e-08 1:0 2:73 3:34 4:0 5:0 6:100 7:30 8:0 9:0 10:101 11:22 12:0 13:194 14:1197 15:179 16:13989 17:836 18:84 19:15 20:0 21:7 22:164 23:27 24:110 #
7.3632787052143047052273864151034e-08 1:1 2:22 3:2 4:0 5:0 6:13 7:8 8:0 9:2 10:33 11:10 12:0 13:194 14:116 15:18 16:191 17:3 18:61 19:7 20:0 21:3 22:59 23:5 24:0 #
-7.3632787052143047052273864151034e-08 1:0 2:17 3:39 4:0 5:56 6:44 7:44 8:0 9:0 10:8 11:34 12:0 13:221 14:62 15:45 16:0 17:60 18:32 19:51 20:0 21:0 22:37 23:48 24:1 #
-7.3632787052143047052273864151034e-08 1:12 2:128 3:60 4:0 5:6 6:28 7:48 8:0 9:0 10:29 11:53 12:0 13:0 14:44 15:55 16:0 17:1 18:60 19:73 20:0 21:0 22:46 23:67 24:0 #
7.3632787052143047052273864151034e-08 1:56 2:44 3:44 4:0 5:0 6:8 7:34 8:0 9:221 10:62 11:45 12:0 13:60 14:32 15:51 16:0 17:0 18:37 19:48 20:1 21:17 22:78 23:76 24:0 #
7.3632787052143047052273864151034e-08 1:30 2:82 3:22 4:0 5:354 6:52 7:9 8:0 9:272 10:95 11:27 12:0 13:24 14:52 15:17 16:0 17:79 18:93 19:11 20:0 21:67 22:61 23:9 24:0 #
7.3632787052143047052273864151034e-08 1:3 2:30 3:7 4:0 5:2 6:44 7:4 8:0 9:120 10:37 11:3 12:0 13:2 14:33 15:3 16:0 17:0 18:34 19:11 20:0 21:0 22:59 23:5 24:0 #
-7.3632787052143047052273864151034e-08 1:6 2:39 3:37 4:0 5:109 6:71 7:53 8:0 9:2 10:50 11:33 12:0 13:0 14:94 15:41 16:0 17:0 18:75 19:34 20:0 21:33 22:26 23:35 24:0 #
7.3632787052143047052273864151034e-08 1:0 2:48 3:5 4:0 5:0 6:70 7:10 8:0 9:0 10:86 11:5 12:0 13:419 14:58 15:6 16:0 17:5 18:152 19:32 20:0 21:99 22:127 23:19 24:204 #
-7.3632787052143047052273864151034e-08 1:20 2:74 3:5 4:3 5:144 6:26 7:8 8:0 9:0 10:32 11:2 12:0 13:0 14:192 15:11 16:0 17:144 18:75 19:1 20:0 21:0 22:83 23:12 24:0 #
-7.3632787052143047052273864151034e-08 1:96 2:52 3:12 4:0 5:9 6:32 7:7 8:0 9:1 10:25 11:6 12:0 13:6 14:44 15:8 16:0 17:242 18:78 19:23 20:0 21:5 22:20 23:7 24:0 #
7.3632787052143047052273864151034e-08 1:0 2:48 3:18 4:0 5:0 6:33 7:4 8:2 9:25 10:77 11:10 12:0 13:0 14:44 15:12 16:0 17:0 18:86 19:15 20:0 21:21 22:204 23:27 24:4 #
-7.3632787052143047052273864151034e-08 1:0 2:2 3:0 4:0 5:0 6:139 7:0 8:0 9:0 10:14 11:0 12:0 13:0 14:28 15:0 16:0 17:0 18:48 19:0 20:188 21:0 22:31 23:0 24:0 #
7.3632787052143047052273864151034e-08 1:16 2:17 3:2 4:0 5:0 6:18 7:11 8:0 9:0 10:31 11:5 12:0 13:0 14:41 15:31 16:0 17:0 18:49 19:80 20:0 21:0 22:62 23:49 24:0 #
7.3632787052143047052273864151034e-08 1:3 2:34 3:2 4:0 5:1 6:24 7:6 8:0 9:46 10:38 11:10 12:0 13:0 14:48 15:18 16:0 17:1 18:37 19:12 20:0 21:0 22:38 23:13 24:0 #
7.3632787052143047052273864151034e-08 1:390 2:39 3:8 4:8 5:8 6:45 7:2 8:41 9:2 10:75 11:3 12:30 13:410 14:61 15:11 16:3 17:429 18:279 19:22 20:0 21:3 22:104 23:22 24:0 #
-7.3632787052143047052273864151034e-08 1:0 2:63 3:58 4:0 5:3 6:72 7:68 8:0 9:0 10:74 11:66 12:0 13:0 14:79 15:67 16:0 17:0 18:77 19:67 20:0 21:0 22:79 23:63 24:0 #
-7.3632787052143047052273864151034e-08 1:0 2:62 3:63 4:0 5:0 6:60 7:62 8:0 9:0 10:60 11:62 12:0 13:0 14:60 15:63 16:0 17:0 18:62 19:66 20:0 21:0 22:60 23:60 24:0 #
-7.3632787052143047052273864151034e-08 1:0 2:44 3:55 4:0 5:1 6:60 7:73 8:0 9:0 10:46 11:67 12:0 13:4 14:69 15:68 16:0 17:0 18:62 19:67 20:0 21:0 22:65 23:71 24:0 #
-7.3632787052143047052273864151034e-08 1:0 2:45 3:30 4:0 5:2 6:105 7:36 8:10 9:1 10:53 11:32 12:0 13:1 14:43 15:34 16:0 17:1 18:55 19:32 20:0 21:0 22:53 23:28 24:0 #
7.3632787052143047052273864151034e-08 1:143 2:0 3:2 4:3 5:22 6:584 7:606 8:594 9:470 10:522 11:363 12:27 13:529 14:74 15:23 16:0 17:990 18:29 19:2 20:0 21:452 22:64 23:7 24:0 #
7.3632787052143047052273864151034e-08 1:17 2:53 3:23 4:0 5:2 6:54 7:11 8:0 9:1 10:51 11:8 12:0 13:227 14:64 15:15 16:0 17:37 18:36 19:6 20:0 21:8 22:36 23:25 24:0 #
-7.3632787052143047052273864151034e-08 1:0 2:0 3:2 4:0 5:0 6:46 7:1 8:0 9:0 10:42 11:11 12:0 13:0 14:50 15:18 16:0 17:0 18:45 19:13 20:0 21:0 22:22 23:7 24:0 #
7.3632787052143047052273864151034e-08 1:0 2:44 3:3 4:0 5:0 6:10 7:3 8:0 9:2 10:31 11:11 12:0 13:3 14:25 15:13 16:0 17:1 18:21 19:6 20:0 21:1 22:17 23:14 24:0 #
7.3632787052143047052273864151034e-08 1:0 2:76 3:13 4:0 5:6 6:22 7:7 8:0 9:4 10:90 11:18 12:0 13:28 14:70 15:10 16:0 17:165 18:74 19:17 20:0 21:17 22:91 23:20 24:0 #
-7.3632787052143047052273864151034e-08 1:429 2:279 3:22 4:0 5:3 6:104 7:22 8:0 9:206 10:102 11:6 12:1 13:2 14:95 15:8 16:0 17:1 18:78 19:13 20:0 21:1 22:62 23:9 24:0 #
-7.3632787052143047052273864151034e-08 1:0 2:167 3:0 4:0 5:0 6:141 7:0 8:0 9:0 10:75 11:0 12:0 13:0 14:137 15:0 16:0 17:0 18:130 19:0 20:0 21:0 22:121 23:0 24:0 #
7.3632787052143047052273864151034e-08 1:1 2:13 3:2 4:0 5:113 6:23 7:5 8:0 9:0 10:28 11:6 12:0 13:72 14:10 15:4 16:0 17:25 18:34 19:15 20:0 21:115 22:41 23:15 24:0 #
-7.3632787052143047052273864151034e-08 1:121 2:254 3:17 4:0 5:101 6:44 7:12 8:0 9:79 10:95 11:29 12:0 13:18 14:64 15:18 16:0 17:0 18:111 19:17 20:0 21:52 22:43 23:14 24:0 #
7.3632787052143047052273864151034e-08 1:0 2:976 3:36 4:0 5:0 6:700 7:31 8:0 9:0 10:538 11:39 12:0 13:0 14:702 15:30 16:0 17:0 18:432 19:46 20:0 21:0 22:60 23:33 24:0 #
-7.3632787052143047052273864151034e-08 1:0 2:39 3:59 4:0 5:0 6:45 7:52 8:0 9:0 10:33 11:54 12:0 13:0 14:49 15:69 16:0 17:0 18:47 19:64 20:0 21:0 22:50 23:65 24:0 #
7.3632787052143047052273864151034e-08 1:421 2:281 3:40 4:0 5:0 6:166 7:42 8:0 9:91 10:135 11:43 12:0 13:144 14:140 15:40 16:0 17:0 18:128 19:61 20:7 21:148 22:246 23:60 24:18 #
7.3632787052143047052273864151034e-08 1:10 2:66 3:23 4:0 5:3 6:47 7:10 8:0 9:72 10:86 11:14 12:0 13:29 14:36 15:12 16:0 17:8 18:25 19:8 20:0 21:25 22:25 23:3 24:0 #
-7.3632787052143047052273864151034e-08 1:0 2:60 3:60 4:0 5:0 6:60 7:61 8:0 9:0 10:58 11:61 12:0 13:0 14:62 15:63 16:0 17:0 18:60 19:62 20:0 21:0 22:60 23:62 24:0 #
-7.3632787052143047052273864151034e-08 1:0 2:181 3:14 4:0 5:0 6:54 7:17 8:0 9:0 10:31 11:5 12:0 13:0 14:90 15:24 16:0 17:0 18:55 19:2 20:0 21:0 22:17 23:5 24:0 #
7.3632787052143047052273864151034e-08 1:31 2:27 3:2 4:0 5:2 6:41 7:10 8:0 9:87 10:95 11:13 12:0 13:20 14:87 15:25 16:0 17:503 18:106 19:14 20:1 21:8 22:56 23:3 24:0 #
7.3632787052143047052273864151034e-08 1:4 2:27 3:5 4:0 5:8 6:32 7:16 8:0 9:5 10:34 11:11 12:0 13:2 14:11 15:5 16:28 17:1 18:20 19:9 20:0 21:3 22:43 23:13 24:0 #
-7.3632787052143047052273864151034e-08 1:503 2:106 3:14 4:1 5:8 6:56 7:3 8:0 9:5 10:33 11:1 12:2 13:2 14:41 15:8 16:0 17:0 18:26 19:10 20:0 21:1 22:36 23:11 24:0 #
7.3632787052143047052273864151034e-08 1:3 2:25 3:13 4:0 5:1 6:21 7:6 8:0 9:1 10:17 11:14 12:0 13:12 14:34 15:4 16:56 17:0 18:45 19:33 20:0 21:14 22:62 23:39 24:1 #
-7.3632787052143047052273864151034e-08 1:2 2:122 3:48 4:0 5:2 6:56 7:35 8:0 9:0 10:39 11:34 12:0 13:0 14:35 15:33 16:0 17:0 18:31 19:32 20:0 21:0 22:31 23:34 24:0 #
7.3632787052143047052273864151034e-08 1:1487 2:106 3:70 4:0 5:0 6:69 7:106 8:3 9:0 10:126 11:115 12:0 13:13 14:117 15:84 16:202 17:0 18:56 19:66 20:1 21:0 22:43 23:73 24:4 #
-7.3632787052143047052273864151034e-08 1:170 2:112 3:21 4:2 5:0 6:37 7:10 8:0 9:1 10:51 11:17 12:2 13:3 14:50 15:15 16:0 17:0 18:78 19:16 20:0 21:1 22:105 23:12 24:0 #
-7.3632787052143047052273864151034e-08 1:0 2:55 3:42 4:0 5:0 6:69 7:38 8:0 9:0 10:2212 11:44 12:0 13:0 14:2112 15:38 16:0 17:0 18:1694 19:40 20:0 21:0 22:81 23:37 24:0 #
-7.3632787052143047052273864151034e-08 1:0 2:231 3:3 4:0 5:0 6:1 7:5 8:0 9:0 10:34 11:13 12:0 13:0 14:90 15:39 16:0 17:0 18:19 19:4 20:0 21:30 22:3 23:4 24:0 #
-7.3632787052143047052273864151034e-08 1:70 2:71 3:57 4:0 5:0 6:37 7:54 8:0 9:1 10:81 11:61 12:0 13:16 14:43 15:65 16:0 17:3 18:65 19:69 20:0 21:0 22:44 23:62 24:0 #
-7.3632787052143047052273864151034e-08 1:0 2:54 3:0 4:0 5:0 6:111 7:0 8:0 9:0 10:40 11:0 12:0 13:0 14:86 15:0 16:0 17:0 18:42 19:0 20:0 21:0 22:3 23:0 24:0 #
-7.3632787052143047052273864151034e-08 1:410 2:67 3:9 4:1 5:126 6:38 7:9 8:0 9:0 10:14 11:4 12:0 13:300 14:14 15:7 16:12 17:66 18:7 19:6 20:0 21:79 22:63 23:16 24:20 #
-7.3632787052143047052273864151034e-08 1:5 2:65 3:13 4:0 5:19 6:48 7:12 8:0 9:17 10:53 11:23 12:0 13:2 14:54 15:11 16:0 17:1 18:51 19:8 20:0 21:227 22:64 23:15 24:0 #
-7.3632787052143047052273864151034e-08 1:79 2:95 3:29 4:0 5:18 6:64 7:18 8:0 9:0 10:111 11:17 12:0 13:52 14:43 15:14 16:0 17:77 18:691 19:10 20:0 21:0 22:287 23:19 24:0 #
-7.3632787052143047052273864151034e-08 1:7 2:38 3:41 4:1405 5:57 6:286 7:321 8:79 9:0 10:59 11:34 12:0 13:101 14:209 15:40 16:0 17:0 18:397 19:31 20:0 21:0 22:427 23:40 24:0 #
-7.3632787052143047052273864151034e-08 1:145 2:53 3:10 4:0 5:6 6:35 7:15 8:0 9:0 10:26 11:12 12:0 13:0 14:17 15:7 16:0 17:0 18:36 19:6 20:0 21:96 22:14 23:13 24:0 #
-7.3632787052143047052273864151034e-08 1:70 2:32 3:5 4:0 5:0 6:133 7:19 8:0 9:83 10:32 11:10 12:0 13:54 14:39 15:17 16:0 17:85 18:35 19:5 20:0 21:68 22:326 23:6 24:0 #
-7.3632787052143047052273864151034e-08 1:25 2:34 3:15 4:0 5:115 6:41 7:15 8:0 9:410 10:67 11:9 12:1 13:126 14:38 15:9 16:0 17:0 18:14 19:4 20:0 21:300 22:14 23:7 24:12 #
7.3632787052143047052273864151034e-08 1:3 2:17 3:8 4:0 5:6 6:12 7:6 8:0 9:4 10:37 11:13 12:0 13:3 14:69 15:31 16:2 17:0 18:30 19:48 20:2 21:2 22:57 23:83 24:0 #
7.3632787052143047052273864151034e-08 1:3 2:42 3:13 4:0 5:0 6:29 7:5 8:0 9:2 10:26 11:5 12:0 13:0 14:61 15:12 16:0 17:1 18:43 19:14 20:0 21:0 22:54 23:23 24:1 #
7.3632787052143047052273864151034e-08 1:2 2:31 3:11 4:0 5:3 6:25 7:13 8:0 9:1 10:21 11:6 12:0 13:1 14:17 15:14 16:0 17:12 18:34 19:4 20:56 21:0 22:45 23:33 24:0 #
7.3632787052143047052273864151034e-08 1:1 2:49 3:8 4:0 5:0 6:30 7:13 8:0 9:5 10:9 11:4 12:0 13:2 14:52 15:20 16:0 17:2 18:41 19:22 20:0 21:0 22:39 23:15 24:0 #
7.3632787052143047052273864151034e-08 1:0 2:41 3:10 4:1 5:0 6:40 7:20 8:0 9:0 10:45 11:19 12:0 13:0 14:47 15:22 16:0 17:1 18:48 19:13 20:0 21:0 22:47 23:4 24:0 #
-7.3632787052143047052273864151034e-08 1:70 2:59 3:19 4:0 5:1 6:53 7:8 8:0 9:53 10:64 11:14 12:0 13:0 14:36 15:9 16:0 17:63 18:48 19:12 20:0 21:0 22:41 23:19 24:0 #
7.3632787052143047052273864151034e-08 1:0 2:41 3:15 4:0 5:1 6:35 7:33 8:0 9:2 10:32 11:38 12:0 13:0 14:31 15:11 16:0 17:0 18:65 19:11 20:0 21:0 22:65 23:1 24:0 #
7.3632787052143047052273864151034e-08 1:4 2:43 3:14 4:0 5:27 6:51 7:11 8:0 9:3 10:42 11:6 12:0 13:1 14:16 15:5 16:0 17:1 18:28 19:6 20:0 21:0 22:34 23:3 24:0 #
7.3632787052143047052273864151034e-08 1:2 2:55 3:21 4:0 5:0 6:47 7:18 8:0 9:0 10:48 11:12 12:0 13:0 14:37 15:10 16:0 17:0 18:42 19:6 20:0 21:1 22:48 23:10 24:0 #
-7.3632787052143047052273864151034e-08 1:2 2:50 3:33 4:0 5:0 6:94 7:41 8:0 9:0 10:75 11:34 12:0 13:33 14:26 15:35 16:0 17:16 18:52 19:40 20:0 21:8 22:39 23:42 24:1 #
7.3632787052143047052273864151034e-08 1:0 2:30 3:15 4:0 5:0 6:43 7:6 8:0 9:0 10:62 11:15 12:0 13:1 14:45 15:18 16:0 17:4 18:47 19:5 20:0 21:0 22:28 23:5 24:0 #
-7.3632787052143047052273864151034e-08 1:0 2:73 3:69 4:0 5:0 6:39 7:59 8:0 9:0 10:45 11:52 12:0 13:0 14:33 15:54 16:0 17:0 18:49 19:69 20:0 21:0 22:47 23:64 24:0 #
7.3632787052143047052273864151034e-08 1:0 2:50 3:18 4:0 5:0 6:45 7:13 8:0 9:0 10:22 11:7 12:0 13:0 14:24 15:5 16:0 17:0 18:32 19:13 20:0 21:0 22:27 23:11 24:0 #
-7.3632787052143047052273864151034e-08 1:1 2:50 3:14 4:0 5:0 6:107 7:35 8:1 9:70 10:59 11:19 12:0 13:1 14:53 15:8 16:0 17:53 18:64 19:14 20:0 21:0 22:36 23:9 24:0 #
-7.3632787052143047052273864151034e-08 1:64 2:21 3:7 4:0 5:24 6:8 7:2 8:0 9:23 10:22 11:4 12:0 13:19 14:11 15:7 16:0 17:94 18:54 19:18 20:0 21:81 22:54 23:19 24:0 #
-7.3632787052143047052273864151034e-08 1:0 2:44 3:34 4:0 5:0 6:62 7:38 8:0 9:0 10:57 11:43 12:1 13:0 14:70 15:46 16:0 17:0 18:65 19:46 20:0 21:0 22:84 23:41 24:0 #
7.3632787052143047052273864151034e-08 1:0 2:17 3:3 4:0 5:0 6:37 7:6 8:0 9:1 10:34 11:10 12:0 13:2 14:76 15:11 16:0 17:1 18:39 19:19 20:0 21:94 22:49 23:15 24:0 #
7.3632787052143047052273864151034e-08 1:0 2:83 3:12 4:0 5:33 6:20 7:2 8:0 9:101 10:74 11:34 12:0 13:8 14:121 15:28 16:0 17:55 18:103 19:31 20:0 21:2 22:54 23:8 24:0 #
-7.3632787052143047052273864151034e-08 1:55 2:103 3:31 4:0 5:2 6:54 7:8 8:0 9:0 10:117 11:20 12:1 13:1 14:83 15:5 16:0 17:1 18:48 19:6 20:0 21:1 22:70 23:23 24:0 #
7.3632787052143047052273864151034e-08 1:0 2:80 3:19 4:0 5:1 6:74 7:16 8:1 9:0 10:96 11:10 12:0 13:0 14:41 15:7 16:0 17:0 18:28 19:5 20:0 21:10 22:27 23:5 24:0 #
-7.3632787052143047052273864151034e-08 1:72 2:36 3:8 4:0 5:52 6:34 7:15 8:0 9:1 10:57 11:13 12:0 13:31 14:31 15:4 16:0 17:1 18:32 19:3 20:0 21:1 22:43 23:10 24:0 #
7.3632787052143047052273864151034e-08 1:0 2:18 3:2 4:0 5:1 6:63 7:16 8:0 9:2 10:43 11:21 12:0 13:0 14:58 15:14 16:0 17:1 18:19 19:7 20:0 21:0 22:48 23:18 24:0 #
-7.3632787052143047052273864151034e-08 1:0 2:43 3:4 4:0 5:0 6:39 7:10 8:0 9:0 10:23 11:5 12:0 13:0 14:22 15:7 16:0 17:0 18:13 19:0 20:0 21:0 22:0 23:0 24:0 #
-7.3632787052143047052273864151034e-08 1:2 2:41 3:8 4:0 5:0 6:26 7:10 8:0 9:1 10:36 11:11 12:0 13:0 14:68 15:9 16:0 17:0 18:132 19:23 20:0 21:269 22:57 23:6 24:0 #
7.3632787052143047052273864151034e-08 1:0 2:79 3:10 4:0 5:3 6:32 7:6 8:0 9:0 10:11 11:5 12:0 13:51 14:107 15:28 16:0 17:0 18:58 19:11 20:0 21:0 22:44 23:13 24:0 #
-7.3632787052143047052273864151034e-08 1:48 2:93 3:2 4:1 5:0 6:43 7:11 8:0 9:0 10:69 11:2 12:0 13:79 14:215 15:21 16:0 17:44 18:68 19:10 20:0 21:3 22:77 23:15 24:0 #
7.3632787052143047052273864151034e-08 1:1 2:55 3:11 4:0 5:51 6:51 7:11 8:0 9:0 10:33 11:14 12:0 13:5 14:31 15:5 16:0 17:0 18:16 19:8 20:0 21:0 22:21 23:1 24:0 #
-7.3632787052143047052273864151034e-08 1:0 2:68 3:0 4:0 5:0 6:90 7:0 8:0 9:0 10:41 11:0 12:0 13:0 14:57 15:0 16:0 17:0 18:0 19:0 20:0 21:0 22:0 23:0 24:0 #
-7.3632787052143047052273864151034e-08 1:0 2:88 3:10 4:1 5:0 6:113 7:9 8:0 9:0 10:63 11:3 12:0 13:0 14:78 15:9 16:0 17:0 18:59 19:14 20:0 21:0 22:181 23:14 24:0 #
-7.3632787052143047052273864151034e-08 1:0 2:73 3:31 4:0 5:0 6:78 7:26 8:0 9:0 10:61 11:15 12:0 13:0 14:79 15:15 16:0 17:0 18:92 19:19 20:0 21:0 22:75 23:11 24:0 #
-7.3632787052143047052273864151034e-08 1:0 2:113 3:9 4:0 5:0 6:63 7:3 8:0 9:0 10:78 11:9 12:0 13:0 14:59 15:14 16:0 17:0 18:181 19:14 20:0 21:0 22:54 23:17 24:0 #
-7.3632787052143047052273864151034e-08 1:2 2:48 3:36 4:0 5:0 6:68 7:40 8:0 9:0 10:81 11:38 12:0 13:91 14:51 15:39 16:0 17:33 18:78 19:39 20:0 21:2 22:49 23:42 24:0 #
7.3632787052143047052273864151034e-08 1:6 2:61 3:13 4:0 5:12 6:39 7:16 8:0 9:31 10:27 11:2 12:0 13:2 14:41 15:10 16:0 17:87 18:95 19:13 20:0 21:20 22:87 23:25 24:0 #
7.3632787052143047052273864151034e-08 1:0 2:54 3:9 4:0 5:0 6:57 7:12 8:0 9:0 10:50 11:18 12:0 13:0 14:26 15:10 16:0 17:1 18:41 19:7 20:0 21:70 22:5 23:9 24:0 #
7.3632787052143047052273864151034e-08 1:0 2:55 3:33 4:0 5:1 6:55 7:31 8:0 9:2 10:92 11:35 12:0 13:2 14:67 15:41 16:0 17:2 18:57 19:33 20:0 21:0 22:51 23:35 24:0 #
7.3632787052143047052273864151034e-08 1:59 2:50 3:6 4:0 5:0 6:33 7:6 8:0 9:0 10:28 11:9 12:0 13:0 14:22 15:4 16:0 17:0 18:49 19:20 20:0 21:1 22:38 23:4 24:0 #
7.3632787052143047052273864151034e-08 1:0 2:44 3:9 4:0 5:60 6:75 7:31 8:0 9:0 10:50 11:9 12:1 13:0 14:61 15:14 16:0 17:1 18:44 19:24 20:0 21:1 22:50 23:14 24:0 #
-7.3632787052143047052273864151034e-08 1:10 2:27 3:5 4:0 5:6 6:93 7:23 8:1 9:0 10:40 11:7 12:0 13:0 14:28 15:4 16:0 17:0 18:47 19:19 20:0 21:0 22:51 23:9 24:0 #
7.3632787052143047052273864151034e-08 1:54 2:66 3:16 4:0 5:9 6:20 7:6 8:0 9:3 10:17 11:8 12:0 13:6 14:12 15:6 16:0 17:4 18:37 19:13 20:0 21:3 22:69 23:31 24:2 #
-7.3632787052143047052273864151034e-08 1:42 2:46 3:8 4:0 5:10 6:55 7:8 8:0 9:0 10:67 11:11 12:0 13:0 14:36 15:8 16:0 17:0 18:50 19:5 20:0 21:0 22:34 23:3 24:0 #
-7.3632787052143047052273864151034e-08 1:53 2:64 3:14 4:0 5:0 6:36 7:9 8:0 9:63 10:48 11:12 12:0 13:0 14:41 15:19 16:0 17:0 18:33 19:9 20:0 21:1 22:47 23:18 24:0 #
-7.3632787052143047052273864151034e-08 1:3 2:49 3:70 4:0 5:104 6:34 7:65 8:0 9:0 10:31 11:61 12:0 13:0 14:29 15:60 16:0 17:6 18:98 19:103 20:14 21:3 22:538 23:147 24:3 #
-7.3632787052143047052273864151034e-08 1:0 2:45 3:30 4:0 5:0 6:55 7:33 8:0 9:1 10:55 11:31 12:0 13:2 14:92 15:35 16:0 17:2 18:67 19:41 20:0 21:2 22:57 23:33 24:0 #
-7.3632787052143047052273864151034e-08 1:0 2:50 3:9 4:1 5:0 6:61 7:14 8:0 9:1 10:44 11:24 12:0 13:1 14:50 15:14 16:0 17:0 18:107 19:35 20:1 21:70 22:59 23:19 24:0 #
7.3632787052143047052273864151034e-08 1:0 2:67 3:17 4:0 5:1 6:41 7:2 8:0 9:0 10:42 11:28 12:0 13:0 14:67 15:36 16:0 17:0 18:23 19:7 20:0 21:0 22:38 23:10 24:0 #
7.3632787052143047052273864151034e-08 1:0 2:70 3:0 4:0 5:0 6:94 7:0 8:9 9:0 10:53 11:0 12:0 13:0 14:84 15:0 16:3 17:0 18:80 19:0 20:6 21:0 22:97 23:0 24:3 #
7.3632787052143047052273864151034e-08 1:4 2:72 3:15 4:0 5:38 6:58 7:10 8:0 9:0 10:70 11:11 12:0 13:0 14:100 15:20 16:0 17:0 18:36 19:2 20:0 21:0 22:0 23:2 24:0 #
7.3632787052143047052273864151034e-08 1:0 2:49 3:10 4:0 5:0 6:53 7:13 8:0 9:0 10:37 11:16 12:0 13:0 14:36 15:7 16:0 17:0 18:35 19:9 20:0 21:0 22:125 23:134 24:0 #
7.3632787052143047052273864151034e-08 1:0 2:78 3:16 4:0 5:1 6:105 7:12 8:0 9:12 10:67 11:8 12:0 13:0 14:65 15:6 16:0 17:0 18:40 19:10 20:0 21:1 22:65 23:10 24:0 #
-7.3632787052143047052273864151034e-08 1:0 2:260 3:0 4:0 5:0 6:33 7:0 8:0 9:0 10:0 11:0 12:0 13:0 14:12 15:0 16:0 17:0 18:42 19:0 20:0 21:0 22:27 23:0 24:0 #
7.3632787052143047052273864151034e-08 1:0 2:18 3:11 4:0 5:0 6:31 7:5 8:0 9:0 10:41 11:31 12:0 13:0 14:49 15:80 16:0 17:0 18:62 19:49 20:0 21:330 22:328 23:40 24:2 #
-7.3632787052143047052273864151034e-08 1:36 2:10 3:4 4:0 5:64 6:21 7:7 8:0 9:24 10:8 11:2 12:0 13:23 14:22 15:4 16:0 17:19 18:11 19:7 20:0 21:94 22:54 23:18 24:0 #
7.3632787052143047052273864151034e-08 1:0 2:70 3:46 4:0 5:0 6:65 7:46 8:0 9:0 10:84 11:41 12:0 13:0 14:44 15:42 16:0 17:0 18:31 19:33 20:0 21:0 22:30 23:34 24:0 #
-7.3632787052143047052273864151034e-08 1:1 2:41 3:2 4:0 5:0 6:42 7:28 8:0 9:0 10:67 11:36 12:0 13:0 14:23 15:7 16:0 17:0 18:38 19:10 20:0 21:0 22:40 23:12 24:156 #
-7.3632787052143047052273864151034e-08 1:0 2:33 3:33 4:0 5:0 6:42 7:27 8:0 9:0 10:44 11:34 12:0 13:0 14:50 15:34 16:0 17:0 18:38 19:31 20:0 21:0 22:61 23:39 24:0 #
7.3632787052143047052273864151034e-08 1:12 2:67 3:8 4:0 5:0 6:65 7:6 8:0 9:0 10:40 11:10 12:0 13:1 14:65 15:10 16:0 17:33 18:100 19:15 20:1 21:0 22:80 23:19 24:0 #
7.3632787052143047052273864151034e-08 1:32 2:79 3:11 4:0 5:0 6:61 7:3 8:0 9:67 10:28 11:9 12:0 13:2 14:37 15:19 16:0 17:2 18:75 19:23 20:0 21:1 22:52 23:13 24:0 #
-7.3632787052143047052273864151034e-08 1:0 2:66 3:8 4:0 5:0 6:41 7:15 8:0 9:1 10:35 11:33 12:0 13:2 14:32 15:38 16:0 17:0 18:31 19:11 20:0 21:0 22:65 23:11 24:0 #
7.3632787052143047052273864151034e-08 1:56 2:46 3:11 4:0 5:0 6:48 7:12 8:0 9:7 10:50 11:18 12:0 13:0 14:33 15:5 16:0 17:0 18:41 19:2 20:0 21:0 22:46 23:19 24:0 #
-7.3632787052143047052273864151034e-08 1:0 2:115 3:0 4:0 5:0 6:99 7:0 8:0 9:0 10:102 11:0 12:0 13:0 14:72 15:0 16:0 17:0 18:74 19:0 20:0 21:0 22:67 23:0 24:0 #
7.3632787052143047052273864151034e-08 1:4 2:90 3:18 4:0 5:28 6:70 7:10 8:0 9:165 10:74 11:17 12:0 13:17 14:91 15:20 16:0 17:170 18:112 19:21 20:2 21:0 22:37 23:10 24:0 #
7.3632787052143047052273864151034e-08 1:3 2:43 3:13 4:0 5:0 6:67 7:10 8:23 9:0 10:32 11:3 12:0 13:0 14:24 15:9 16:0 17:0 18:7 19:1 20:0 21:0 22:6 23:119 24:0 #
7.3632787052143047052273864151034e-08 1:0 2:45 3:52 4:0 5:0 6:33 7:54 8:0 9:0 10:49 11:69 12:0 13:0 14:47 15:64 16:0 17:0 18:50 19:65 20:0 21:0 22:53 23:65 24:0 #
-7.3632787052143047052273864151034e-08 1:2 2:75 3:12 4:0 5:2 6:72 7:20 8:0 9:0 10:78 11:19 12:0 13:2 14:61 15:17 16:0 17:1 18:48 19:14 20:0 21:2 22:56 23:11 24:0 #
-7.3632787052143047052273864151034e-08 1:1 2:38 3:4 4:0 5:84 6:37 7:15 8:5 9:0 10:16 11:6 12:0 13:0 14:46 15:6 16:0 17:0 18:53 19:10 20:0 21:45 22:86 23:13 24:0 #
7.3632787052143047052273864151034e-08 1:0 2:53 3:10 4:0 5:45 6:86 7:13 8:0 9:14 10:63 11:32 12:0 13:8 14:55 15:15 16:0 17:0 18:79 19:21 20:0 21:13 22:56 23:26 24:0 #
7.3632787052143047052273864151034e-08 1:13 2:79 3:70 4:0 5:3 6:49 7:70 8:0 9:104 10:34 11:65 12:0 13:0 14:31 15:61 16:0 17:0 18:29 19:60 20:0 21:6 22:98 23:103 24:14 #
-7.3632787052143047052273864151034e-08 1:20 2:59 3:19 4:0 5:0 6:35 7:9 8:0 9:0 10:37 11:20 12:0 13:1 14:15 15:14 16:0 17:0 18:22 19:8 20:0 21:0 22:16 23:2 24:0 #
7.3632787052143047052273864151034e-08 1:0 2:60 3:60 4:0 5:0 6:60 7:61 8:0 9:0 10:62 11:62 12:0 13:17 14:99 15:67 16:5 17:8 18:28 19:27 20:0 21:10 22:121 23:14 24:0 #
7.3632787052143047052273864151034e-08 1:0 2:65 3:37 4:0 5:0 6:92 7:40 8:0 9:0 10:65 11:35 12:0 13:0 14:55 15:33 16:0 17:0 18:44 19:34 20:0 21:0 22:62 23:38 24:0 #
-7.3632787052143047052273864151034e-08 1:1 2:48 3:14 4:0 5:2 6:56 7:11 8:0 9:2 10:55 11:21 12:0 13:0 14:47 15:18 16:0 17:0 18:48 19:12 20:0 21:0 22:37 23:10 24:0 #
7.3632787052143047052273864151034e-08 1:0 2:91 3:9 4:0 5:0 6:104 7:7 8:0 9:0 10:149 11:29 12:0 13:0 14:213 15:36 16:0 17:0 18:180 19:53 20:0 21:18 22:117 23:34 24:0 #
-7.3632787052143047052273864151034e-08 1:0 2:0 3:1 4:0 5:0 6:0 7:4 8:0 9:0 10:0 11:2 12:0 13:0 14:53 15:8 16:2 17:20 18:74 19:5 20:3 21:144 22:26 23:8 24:0 #
-7.3632787052143047052273864151034e-08 1:31 2:24 3:22 4:0 5:0 6:32 7:4 8:0 9:0 10:42 11:20 12:0 13:1 14:28 15:5 16:0 17:32 18:44 19:14 20:0 21:1 22:74 23:11 24:0 #
7.3632787052143047052273864151034e-08 1:65 2:83 3:21 4:0 5:0 6:38 7:22 8:0 9:0 10:21 11:10 12:0 13:0 14:30 15:10 16:0 17:0 18:44 19:9 20:0 21:60 22:75 23:31 24:0 #
-7.3632787052143047052273864151034e-08 1:0 2:37 3:30 4:0 5:3 6:43 7:37 8:0 9:0 10:38 11:31 12:0 13:0 14:39 15:23 16:2 17:0 18:33 19:33 20:0 21:0 22:42 23:27 24:0 #
-7.3632787052143047052273864151034e-08 1:1 2:37 3:12 4:0 5:0 6:38 7:13 8:0 9:0 10:44 11:3 12:1 13:0 14:45 15:39 16:0 17:0 18:46 19:7 20:0 21:0 22:72 23:38 24:0 #
7.3632787052143047052273864151034e-08 1:121 2:124 3:40 4:0 5:103 6:369 7:46 8:0 9:5 10:174 11:36 12:0 13:92 14:132 15:38 16:0 17:27 18:444 19:43 20:0 21:0 22:204 23:38 24:0 #
6.6205938140760190745745354667928e-08 1:0 2:2384 3:509 4:1 5:0 6:2399 7:358 8:0 9:0 10:0 11:3 12:0 13:0 14:0 15:0 16:0 17:22 18:105 19:3 20:1 21:25 22:331 23:146 24:8 #
7.3632787052143047052273864151034e-08 1:1 2:59 3:68 4:0 5:13 6:79 7:70 8:0 9:3 10:49 11:70 12:0 13:104 14:34 15:65 16:0 17:0 18:31 19:61 20:0 21:0 22:29 23:60 24:0 #
-7.3632787052143047052273864151034e-08 1:0 2:44 3:64 4:0 5:0 6:32 7:3 8:0 9:0 10:320 11:0 12:0 13:0 14:101 15:1 16:0 17:0 18:424 19:0 20:0 21:0 22:57 23:0 24:0 #
-7.3632787052143047052273864151034e-08 1:0 2:41 3:0 4:0 5:0 6:4 7:0 8:0 9:0 10:6 11:0 12:0 13:0 14:40 15:0 16:0 17:0 18:171 19:0 20:0 21:0 22:16 23:0 24:0 #
-7.3632787052143047052273864151034e-08 1:0 2:0 3:0 4:0 5:0 6:15 7:0 8:0 9:0 10:105 11:0 12:0 13:0 14:284 15:0 16:0 17:0 18:130 19:0 20:0 21:0 22:2 23:0 24:0 #
-7.3632787052143047052273864151034e-08 1:1 2:38 3:5 4:0 5:2 6:55 7:5 8:0 9:0 10:32 11:6 12:0 13:0 14:104 15:0 16:0 17:0 18:87 19:0 20:0 21:0 22:53 23:0 24:0 #
-7.3632787052143047052273864151034e-08 1:0 2:32 3:4 4:0 5:0 6:42 7:20 8:0 9:1 10:28 11:5 12:0 13:32 14:44 15:14 16:0 17:1 18:74 19:11 20:0 21:2 22:27 23:8 24:0 #
7.3632787052143047052273864151034e-08 1:2 2:92 3:35 4:0 5:2 6:67 7:41 8:0 9:2 10:57 11:33 12:0 13:0 14:51 15:35 16:0 17:0 18:48 19:38 20:1 21:65 22:1084 23:1053 24:0 #
7.3632787052143047052273864151034e-08 1:27 2:51 3:11 4:0 5:3 6:42 7:6 8:0 9:1 10:16 11:5 12:0 13:1 14:28 15:6 16:0 17:0 18:34 19:3 20:0 21:0 22:941 23:878 24:6 #
7.3632787052143047052273864151034e-08 1:0 2:19 3:4 4:0 5:30 6:3 7:4 8:0 9:0 10:1 11:107 12:0 13:63 14:0 15:35 16:457 17:143 18:0 19:2 20:3 21:22 22:584 23:606 24:594 #
7.3632787052143047052273864151034e-08 1:0 2:50 3:65 4:0 5:0 6:53 7:65 8:0 9:0 10:44 11:66 12:53 13:0 14:57 15:76 16:0 17:4 18:94 19:91 20:2 21:96 22:258 23:139 24:0 #
7.3632787052143047052273864151034e-08 1:0 2:86 3:5 4:0 5:419 6:58 7:6 8:0 9:5 10:152 11:32 12:0 13:99 14:127 15:19 16:204 17:0 18:121 19:13 20:34 21:0 22:129 23:18 24:0 #
-7.3632787052143047052273864151034e-08 1:0 2:101 3:38 4:0 5:0 6:86 7:45 8:0 9:0 10:878 11:52 12:0 13:0 14:976 15:36 16:0 17:0 18:700 19:31 20:0 21:0 22:538 23:39 24:0 #
7.3632787052143047052273864151034e-08 1:0 2:90 3:39 4:0 5:0 6:19 7:4 8:0 9:30 10:3 11:4 12:0 13:0 14:1 15:107 16:0 17:63 18:0 19:35 20:457 21:143 22:0 23:2 24:3 #
7.3632787052143047052273864151034e-08 1:18 2:117 3:34 4:0 5:3 6:93 7:31 8:2 9:2 10:127 11:43 12:0 13:10 14:84 15:36 16:0 17:3 18:109 19:32 20:0 21:0 22:106 23:41 24:0 #
-7.3632787052143047052273864151034e-08 1:0 2:46 3:4 4:1 5:1 6:65 7:10 8:0 9:0 10:56 11:9 12:0 13:15 14:59 15:10 16:0 17:0 18:38 19:6 20:0 21:0 22:17 23:3 24:0 #
7.3632787052143047052273864151034e-08 1:0 2:29 3:3 4:0 5:0 6:38 7:13 8:0 9:0 10:29 11:3 12:0 13:8 14:26 15:2 16:29 17:629 18:32 19:10 20:0 21:94 22:42 23:13 24:0 #
-7.3632787052143047052273864151034e-08 1:5 2:34 3:11 4:0 5:2 6:11 7:5 8:28 9:1 10:20 11:9 12:0 13:3 14:43 15:13 16:0 17:0 18:67 19:10 20:23 21:0 22:32 23:3 24:0 #
7.3632787052143047052273864151034e-08 1:3 2:77 3:46 4:0 5:7 6:90 7:51 8:0 9:1 10:35 11:35 12:0 13:0 14:37 15:30 16:0 17:3 18:43 19:37 20:0 21:0 22:38 23:31 24:0 #
7.3632787052143047052273864151034e-08 1:0 2:11 3:5 4:0 5:51 6:107 7:28 8:0 9:0 10:58 11:11 12:0 13:0 14:44 15:13 16:0 17:21 18:56 19:15 20:1 21:88 22:46 23:7 24:368 #
7.3632787052143047052273864151034e-08 1:0 2:284 3:0 4:0 5:0 6:130 7:0 8:0 9:0 10:2 11:0 12:0 13:0 14:139 15:0 16:0 17:0 18:14 19:0 20:0 21:0 22:28 23:0 24:0 #
-7.3632787052143047052273864151034e-08 1:0 2:42 3:10 4:0 5:0 6:52 7:15 8:0 9:0 10:51 11:13 12:0 13:0 14:20 15:5 16:0 17:0 18:25 19:9 20:0 21:0 22:53 23:17 24:0 #
-7.3632787052143047052273864151034e-08 1:0 2:58 3:14 4:0 5:1 6:19 7:7 8:0 9:0 10:48 11:18 12:0 13:0 14:33 15:4 16:2 17:25 18:77 19:10 20:0 21:0 22:44 23:12 24:0 #
-7.3632787052143047052273864151034e-08 1:1 2:46 3:17 4:0 5:0 6:41 7:16 8:0 9:0 10:5 11:0 12:0 13:0 14:71 15:10 16:0 17:0 18:33 19:28 20:0 21:0 22:90 23:32 24:0 #
-7.3632787052143047052273864151034e-08 1:0 2:27 3:11 4:0 5:0 6:52 7:11 8:3 9:0 10:30 11:4 12:0 13:0 14:73 15:16 16:0 17:15 18:45 19:6 20:0 21:0 22:89 23:20 24:0 #
7.3632787052143047052273864151034e-08 1:0 2:60 3:62 4:0 5:0 6:60 7:63 8:0 9:0 10:62 11:66 12:0 13:0 14:60 15:60 16:0 17:0 18:60 19:61 20:0 21:0 22:62 23:62 24:0 #
7.3632787052143047052273864151034e-08 1:109 2:71 3:53 4:0 5:2 6:50 7:33 8:0 9:0 10:94 11:41 12:0 13:0 14:75 15:34 16:0 17:33 18:26 19:35 20:0 21:16 22:52 23:40 24:0 #
-7.3632787052143047052273864151034e-08 1:0 2:36 3:15 4:0 5:0 6:46 7:13 8:0 9:0 10:33 11:5 12:0 13:56 14:46 15:11 16:0 17:0 18:48 19:12 20:0 21:7 22:50 23:18 24:0 #
7.3632787052143047052273864151034e-08 1:138 2:58 3:30 4:0 5:54 6:66 7:16 8:0 9:9 10:20 11:6 12:0 13:3 14:17 15:8 16:0 17:6 18:12 19:6 20:0 21:4 22:37 23:13 24:0 #
-7.3632787052143047052273864151034e-08 1:0 2:126 3:0 4:0 5:0 6:70 7:0 8:0 9:0 10:101 11:0 12:1 13:0 14:96 15:0 16:0 17:0 18:78 19:7 20:0 21:0 22:66 23:0 24:0 #
7.3632787052143047052273864151034e-08 1:1 2:60 3:73 4:0 5:0 6:46 7:67 8:0 9:4 10:69 11:68 12:0 13:0 14:62 15:67 16:0 17:0 18:65 19:71 20:0 21:0 22:38 23:66 24:0 #
-8.1397005860048378588467133613188e-09 1:425 2:56 3:11 4:0 5:489 6:41 7:7 8:0 9:513 10:42248 11:8 12:0 13:0 14:50584 15:7 16:0 17:0 18:49634 19:10 20:0 21:2 22:34 23:1 24:0 #
-7.3632787052143047052273864151034e-08 1:0 2:0 3:0 4:0 5:0 6:12 7:0 8:0 9:0 10:42 11:0 12:0 13:0 14:27 15:0 16:0 17:0 18:84 19:0 20:0 21:0 22:4283 23:0 24:0 #
7.3632787052143047052273864151034e-08 1:0 2:44 3:13 4:0 5:21 6:56 7:15 8:1 9:88 10:46 11:7 12:368 13:3 14:34 15:11 16:23 17:0 18:41 19:17 20:0 21:23 22:20 23:23 24:0 #
-7.3632787052143047052273864151034e-08 1:0 2:52 3:11 4:3 5:0 6:30 7:4 8:0 9:0 10:73 11:16 12:0 13:15 14:45 15:6 16:0 17:0 18:89 19:20 20:0 21:0 22:18 23:2 24:0 #
7.3632787052143047052273864151034e-08 1:0 2:99 3:64 4:0 5:0 6:91 7:59 8:0 9:0 10:144 11:64 12:0 13:0 14:119 15:72 16:0 17:0 18:83 19:62 20:0 21:0 22:90 23:65 24:0 #
-7.3632787052143047052273864151034e-08 1:0 2:32 3:4 4:0 5:0 6:31 7:12 8:0 9:0 10:53 11:16 12:0 13:3 14:26 15:10 16:0 17:0 18:52 19:13 20:0 21:0 22:21 23:7 24:0 #
7.3632787052143047052273864151034e-08 1:0 2:49 3:69 4:0 5:0 6:47 7:64 8:0 9:0 10:50 11:65 12:0 13:0 14:53 15:65 16:0 17:0 18:44 19:66 20:53 21:0 22:57 23:76 24:0 #
7.3632787052143047052273864151034e-08 1:107 2:23 3:8 4:0 5:68 6:128 7:21 8:0 9:0 10:83 11:8 12:0 13:0 14:85 15:23 16:0 17:0 18:57 19:7 20:0 21:0 22:71 23:10 24:0 #
-7.3632787052143047052273864151034e-08 1:0 2:12 3:4 4:0 5:2 6:7 7:7 8:0 9:0 10:13 11:4 12:0 13:6 14:27 15:27 16:0 17:2 18:15 19:5 20:1 21:1 22:5 23:4 24:0 #
-7.3632787052143047052273864151034e-08 1:0 2:30 3:4 4:0 5:0 6:36 7:16 8:0 9:2 10:33 11:2 12:0 13:1 14:49 15:8 16:0 17:0 18:30 19:13 20:0 21:5 22:9 23:4 24:0 #
7.3632787052143047052273864151034e-08 1:0 2:121 3:13 4:34 5:0 6:129 7:18 8:0 9:0 10:135 11:22 12:99 13:0 14:102 15:17 16:51 17:0 18:120 19:20 20:0 21:1 22:62 23:18 24:0 #
-7.3632787052143047052273864151034e-08 1:0 2:0 3:0 4:0 5:0 6:75 7:0 8:0 9:0 10:115 11:0 12:0 13:0 14:99 15:0 16:0 17:0 18:102 19:0 20:0 21:0 22:72 23:0 24:0 #
7.3632787052143047052273864151034e-08 1:0 2:139 3:0 4:0 5:0 6:300 7:0 8:1 9:0 10:103 11:0 12:0 13:0 14:107 15:0 16:0 17:0 18:78 19:0 20:0 21:0 22:84 23:0 24:0 #
-7.3632787052143047052273864151034e-08 1:0 2:27 3:1 4:0 5:0 6:40 7:8 8:0 9:0 10:28 11:7 12:0 13:9 14:37 15:5 16:0 17:3 18:34 19:2 20:0 21:1 22:24 23:6 24:0 #
-7.3632787052143047052273864151034e-08 1:0 2:61 3:35 4:0 5:2 6:26 7:20 8:0 9:3 10:27 11:8 12:0 13:0 14:18 15:2 16:0 17:0 18:32 19:7 20:0 21:1 22:20 23:0 24:0 #
-7.3632787052143047052273864151034e-08 1:0 2:39 3:6 4:0 5:31 6:24 7:22 8:0 9:0 10:32 11:4 12:0 13:0 14:42 15:20 16:0 17:1 18:28 19:5 20:0 21:32 22:44 23:14 24:0 #
-7.3632787052143047052273864151034e-08 1:2 2:76 3:11 4:0 5:1 6:39 7:19 8:0 9:94 10:49 11:15 12:0 13:0 14:41 15:10 16:1 17:0 18:40 19:20 20:0 21:0 22:45 23:19 24:0 #
7.3632787052143047052273864151034e-08 1:0 2:69 3:106 4:3 5:0 6:126 7:115 8:0 9:13 10:117 11:84 12:202 13:0 14:56 15:66 16:1 17:0 18:43 19:73 20:4 21:21 22:88 23:71 24:2 #
7.3632787052143047052273864151034e-08 1:0 2:34 3:13 4:0 5:0 6:90 7:39 8:0 9:0 10:19 11:4 12:0 13:30 14:3 15:4 16:0 17:0 18:1 19:107 20:0 21:63 22:0 23:35 24:457 #
7.3632787052143047052273864151034e-08 1:0 2:166 3:42 4:0 5:91 6:135 7:43 8:0 9:144 10:140 11:40 12:0 13:0 14:128 15:61 16:7 17:148 18:246 19:60 20:18 21:70 22:196 23:54 24:18 #
7.3632787052143047052273864151034e-08 1:2 2:36 3:25 4:0 5:0 6:13 7:6 8:674 9:0 10:0 11:2 12:0 13:0 14:0 15:1 16:0 17:0 18:0 19:4 20:0 21:0 22:0 23:2 24:0 #
-7.3632787052143047052273864151034e-08 1:0 2:0 3:0 4:0 5:0 6:9 7:2 8:0 9:0 10:54 11:1 12:0 13:0 14:67 15:0 16:0 17:0 18:95 19:0 20:0 21:0 22:32 23:0 24:0 #
-7.3632787052143047052273864151034e-08 1:0 2:9 3:2 4:0 5:0 6:54 7:1 8:0 9:0 10:67 11:0 12:0 13:0 14:95 15:0 16:0 17:0 18:32 19:0 20:0 21:0 22:34 23:0 24:0 #
-7.3632787052143047052273864151034e-08 1:0 2:39 3:10 4:0 5:0 6:25 7:3 8:0 9:0 10:26 11:5 12:0 13:0 14:39 15:6 16:0 17:31 18:24 19:22 20:0 21:0 22:32 23:4 24:0 #
-7.3632787052143047052273864151034e-08 1:0 2:66 3:6 4:0 5:0 6:45 7:7 8:0 9:111 10:66 11:14 12:0 13:0 14:52 15:8 16:0 17:0 18:35 19:5 20:0 21:0 22:47 23:13 24:0 #
7.3632787052143047052273864151034e-08 1:115 2:41 3:15 4:0 5:410 6:67 7:9 8:1 9:126 10:38 11:9 12:0 13:0 14:14 15:4 16:0 17:300 18:14 19:7 20:12 21:66 22:7 23:6 24:0 #
7.3632787052143047052273864151034e-08 1:289 2:91 3:32 4:0 5:22 6:64 7:37 8:0 9:2 10:49 11:32 12:0 13:0 14:61 15:45 16:0 17:94 18:46 19:35 20:0 21:0 22:51 23:30 24:0 #
7.3632787052143047052273864151034e-08 1:348 2:95 3:13 4:0 5:0 6:114 7:18 8:0 9:0 10:126 11:21 12:0 13:0 14:85 15:18 16:0 17:0 18:75 19:15 20:0 21:0 22:52 23:10 24:0 #
7.3632787052143047052273864151034e-08 1:91 2:135 3:43 4:0 5:144 6:140 7:40 8:0 9:0 10:128 11:61 12:7 13:148 14:246 15:60 16:18 17:70 18:196 19:54 20:18 21:70 22:208 23:83 24:29 #
7.3632787052143047052273864151034e-08 1:24 2:63 3:62 4:0 5:423 6:52 7:68 8:0 9:2 10:133 11:69 12:0 13:6 14:204 15:104 16:1 17:23 18:160 19:112 20:0 21:4 22:103 23:72 24:0 #
-7.3632787052143047052273864151034e-08 1:0 2:18 3:1 4:0 5:1 6:13 7:2 8:0 9:113 10:23 11:5 12:0 13:0 14:28 15:6 16:0 17:72 18:10 19:4 20:0 21:25 22:34 23:15 24:0 #
7.3632787052143047052273864151034e-08 1:21 2:56 3:15 4:1 5:88 6:46 7:7 8:368 9:3 10:34 11:11 12:23 13:0 14:41 15:17 16:0 17:23 18:20 19:23 20:0 21:88 22:23 23:8 24:394 #
7.3632787052143047052273864151034e-08 1:419 2:58 3:6 4:0 5:5 6:152 7:32 8:0 9:99 10:127 11:19 12:204 13:0 14:121 15:13 16:34 17:0 18:129 19:18 20:0 21:0 22:135 23:22 24:99 #
-7.3632787052143047052273864151034e-08 1:0 2:45 3:13 4:0 5:0 6:22 7:7 8:0 9:0 10:24 11:5 12:0 13:0 14:32 15:13 16:0 17:0 18:27 19:11 20:0 21:0 22:52 23:11 24:3 #
7.3632787052143047052273864151034e-08 1:0 2:58 3:35 4:0 5:17 6:69 7:37 8:0 9:0 10:79 11:40 12:0 13:0 14:264 15:37 16:0 17:2 18:719 19:38 20:0 21:46 22:254 23:44 24:51 #
7.3632787052143047052273864151034e-08 1:104 2:34 3:65 4:0 5:0 6:31 7:61 8:0 9:0 10:29 11:60 12:0 13:6 14:98 15:103 16:14 17:3 18:538 19:147 20:3 21:4 22:243 23:106 24:0 #
-7.3632787052143047052273864151034e-08 1:0 2:107 3:0 4:0 5:0 6:78 7:0 8:0 9:0 10:84 11:0 12:0 13:0 14:97 15:0 16:1 17:0 18:110 19:0 20:0 21:0 22:167 23:0 24:0 #
7.3632787052143047052273864151034e-08 1:0 2:66 3:34 4:0 5:0 6:95 7:36 8:0 9:0 10:56 11:37 12:0 13:0 14:54 15:35 16:0 17:0 18:91 19:38 20:0 21:3819 22:91 23:41 24:0 #
-7.3632787052143047052273864151034e-08 1:0 2:0 3:0 4:0 5:0 6:9 7:0 8:0 9:0 10:0 11:0 12:0 13:1 14:65 15:11 16:0 17:0 18:36 19:17 20:0 21:1 22:50 23:2 24:0 #
7.3632787052143047052273864151034e-08 1:17 2:89 3:36 4:0 5:23 6:70 7:37 8:0 9:169 10:108 11:43 12:0 13:2 14:180 15:37 16:0 17:0 18:637 19:37 20:0 21:0 22:45 23:30 24:0 #
-7.3632787052143047052273864151034e-08 1:3 2:20 3:9 4:0 5:2 6:32 7:1 8:0 9:96 10:52 11:12 12:0 13:9 14:32 15:7 16:0 17:1 18:25 19:6 20:0 21:6 22:44 23:8 24:0 #
-7.3632787052143047052273864151034e-08 1:0 2:87 3:0 4:0 5:0 6:62 7:0 8:0 9:0 10:52 11:0 12:0 13:0 14:44 15:64 16:0 17:0 18:32 19:3 20:0 21:0 22:320 23:0 24:0 #
-7.3632787052143047052273864151034e-08 1:0 2:0 3:4 4:0 5:0 6:0 7:2 8:0 9:0 10:53 11:8 12:2 13:20 14:74 15:5 16:3 17:144 18:26 19:8 20:0 21:0 22:32 23:2 24:0 #
-7.3632787052143047052273864151034e-08 1:0 2:0 3:0 4:0 5:0 6:0 7:0 8:0 9:0 10:32 11:0 12:0 13:0 14:111 15:0 16:0 17:0 18:101 19:0 20:0 21:0 22:79 23:0 24:0 #
7.3632787052143047052273864151034e-08 1:35 2:623 3:36 4:0 5:0 6:328 7:46 8:0 9:29 10:93 11:40 12:0 13:0 14:102 15:47 16:0 17:5 18:123 19:42 20:190 21:15 22:149 23:38 24:0 #
-7.3632787052143047052273864151034e-08 1:0 2:320 3:0 4:0 5:0 6:101 7:1 8:0 9:0 10:424 11:0 12:0 13:0 14:57 15:0 16:0 17:0 18:181 19:0 20:0 21:0 22:119 23:0 24:0 #
-7.3632787052143047052273864151034e-08 1:0 2:52 3:10 4:0 5:0 6:38 7:8 8:0 9:1 10:138 11:12 12:0 13:0 14:208 15:11 16:0 17:0 18:87 19:5 20:0 21:0 22:199 23:27 24:0 #
-7.3632787052143047052273864151034e-08 1:2 2:54 3:11 4:0 5:1 6:51 7:8 8:0 9:227 10:64 11:15 12:0 13:37 14:36 15:6 16:0 17:8 18:36 19:25 20:0 21:60 22:35 23:1 24:2 #
7.3632787052143047052273864151034e-08 1:768 2:105 3:38 4:0 5:421 6:281 7:40 8:0 9:0 10:166 11:42 12:0 13:91 14:135 15:43 16:0 17:144 18:140 19:40 20:0 21:0 22:128 23:61 24:7 #
7.3632787052143047052273864151034e-08 1:0 2:1377 3:748 4:0 5:7 6:125 7:31 8:0 9:0 10:58 11:37 12:0 13:75 14:71 15:41 16:0 17:0 18:69 19:59 20:0 21:5 22:59 23:44 24:0 #
7.3632787052143047052273864151034e-08 1:0 2:0 3:3 4:0 5:0 6:0 7:0 8:0 9:22 10:105 11:3 12:1 13:25 14:331 15:146 16:8 17:9 18:22 19:13 20:1288 21:7 22:38 23:41 24:1405 #
7.3632787052143047052273864151034e-08 1:0 2:129 3:18 4:0 5:0 6:135 7:22 8:99 9:0 10:102 11:17 12:51 13:0 14:120 15:20 16:0 17:1 18:62 19:18 20:0 21:2345 22:121 23:497 24:856 #
7.3632787052143047052273864151034e-08 1:0 2:4839 3:0 4:0 5:0 6:70 7:0 8:0 9:0 10:94 11:0 12:9 13:0 14:53 15:0 16:0 17:0 18:84 19:0 20:3 21:0 22:80 23:0 24:6 #
-7.3632787052143047052273864151034e-08 1:1 2:5 3:0 4:0 5:0 6:0 7:0 8:0 9:0 10:3 11:0 12:0 13:0 14:0 15:0 16:0 17:0 18:35 19:1 20:0 21:0 22:92 23:0 24:0 #
-7.3632787052143047052273864151034e-08 1:0 2:0 3:0 4:0 5:0 6:0 7:0 8:0 9:0 10:281 11:0 12:0 13:0 14:369 15:0 16:0 17:0 18:105 19:0 20:0 21:0 22:55 23:0 24:0 #
-7.3632787052143047052273864151034e-08 1:0 2:15 3:0 4:0 5:0 6:105 7:0 8:0 9:0 10:284 11:0 12:0 13:0 14:130 15:0 16:0 17:0 18:2 19:0 20:0 21:0 22:139 23:0 24:0 #
7.3632787052143047052273864151034e-08 1:23 2:2939 3:46 4:1 5:0 6:1115 7:113 8:2 9:6 10:78 11:32 12:0 13:0 14:78 15:34 16:0 17:0 18:225 19:42 20:0 21:0 22:561 23:34 24:0 #
7.3632787052143047052273864151034e-08 1:0 2:2399 3:358 4:0 5:0 6:0 7:3 8:0 9:0 10:0 11:0 12:0 13:22 14:105 15:3 16:1 17:25 18:331 19:146 20:8 21:9 22:22 23:13 24:1288 #
1.292942126756799829492780584423e-08 1:0 2:65 3:46 4:0 5:0 6:84 7:41 8:0 9:0 10:44 11:42 12:0 13:0 14:31 15:33 16:0 17:0 18:30 19:34 20:0 21:0 22:13 23:16 24:2433 #
-7.3632787052143047052273864151034e-08 1:0 2:57 3:0 4:0 5:0 6:0 7:0 8:0 9:0 10:0 11:0 12:0 13:2 14:0 15:0 16:0 17:1 18:555 19:16 20:0 21:0 22:1960 23:14 24:0 #
-7.3632787052143047052273864151034e-08 1:3 2:109 3:32 4:0 5:0 6:106 7:41 8:0 9:5068 10:109 11:37 12:3 13:7395 14:70 15:33 16:1 17:0 18:53 19:37 20:1 21:0 22:57 23:41 24:0 #
7.3632787052143047052273864151034e-08 1:0 2:225 3:42 4:0 5:0 6:561 7:34 8:0 9:15 10:89 11:43 12:1 13:0 14:63 15:44 16:0 17:0 18:4369 19:43 20:0 21:3103 22:95 23:42 24:0 #
