SVM-light Version V6.02
0 # kernel type
3 # kernel parameter -d 
1 # kernel parameter -g 
1 # kernel parameter -s 
1 # kernel parameter -r 
empty# kernel parameter -u 
16 # highest feature index 
342 # number of training documents 
326 # number of support vectors plus 1 
1.0454151 # threshold b, each following line is a SV (starting with alpha*y)
-6.575256209484368786140519444125e-08 1:0 2:88 3:22 4:0 5:0 6:62 7:24 8:0 9:0 10:70 11:11 12:0 13:2 14:51 15:18 16:1 #
6.575256209484368786140519444125e-08 1:0 2:186 3:0 4:0 5:0 6:7093 7:0 8:0 9:0 10:251 11:0 12:0 13:0 14:104 15:0 16:0 #
-6.575256209484368786140519444125e-08 1:0 2:433 3:0 4:0 5:0 6:7170 7:0 8:0 9:0 10:174 11:0 12:0 13:0 14:2425 15:0 16:0 #
6.575256209484368786140519444125e-08 1:2 2:117 3:82 4:0 5:0 6:0 7:0 8:0 9:0 10:0 11:0 12:0 13:0 14:0 15:0 16:0 #
6.575256209484368786140519444125e-08 1:5836 2:44 3:6 4:0 5:10 6:61 7:14 8:0 9:14 10:90 11:21 12:0 13:11 14:58 15:20 16:0 #
-6.575256209484368786140519444125e-08 1:5 2:118 3:43 4:0 5:1 6:104 7:18 8:0 9:84 10:222 11:55 12:0 13:0 14:54 15:17 16:0 #
-6.575256209484368786140519444125e-08 1:19 2:317 3:97 4:0 5:5 6:249 7:89 8:2 9:12 10:250 11:84 12:0 13:12463 14:202 15:85 16:5 #
6.575256209484368786140519444125e-08 1:1189 2:419 3:91 4:0 5:206 6:363 7:98 8:0 9:177 10:419 11:135 12:25 13:205 14:472 15:165 16:58 #
-6.575256209484368786140519444125e-08 1:41 2:967 3:93 4:0 5:23356 6:164 7:86 8:0 9:10 10:125 11:86 12:0 13:1 14:136 15:89 16:0 #
6.575256209484368786140519444125e-08 1:0 2:115 3:163 4:0 5:204 6:134 7:165 8:0 9:6851 10:172 11:174 12:0 13:164 14:94 15:161 16:1 #
-6.575256209484368786140519444125e-08 1:0 2:4429 3:0 4:0 5:0 6:321 7:0 8:0 9:0 10:1040 11:0 12:0 13:0 14:7289 15:0 16:0 #
6.575256209484368786140519444125e-08 1:1535 2:255 3:107 4:1 5:0 6:169 7:90 8:0 9:107 10:192 11:74 12:0 13:23600 14:234 15:32 16:2 #
6.575256209484368786140519444125e-08 1:17 2:181 3:149 4:5 5:24 6:149 7:207 8:8 9:0 10:6844 11:1068 12:4 13:0 14:0 15:3 16:0 #
6.575256209484368786140519444125e-08 1:0 2:70 3:11 4:0 5:2 6:51 7:18 8:1 9:0 10:55 11:14 12:0 13:1 14:1763 15:1246 16:3 #
-6.575256209484368786140519444125e-08 1:46 2:232 3:97 4:0 5:8 6:6929 7:91 8:5 9:0 10:341 11:100 12:14 13:0 14:164 15:94 16:0 #
-6.575256209484368786140519444125e-08 1:32 2:312 3:94 4:190 5:3468 6:329 7:100 8:1 9:188 10:15859 11:75 12:2 13:1189 14:419 15:91 16:0 #
-6.575256209484368786140519444125e-08 1:15256 2:127 3:168 4:0 5:484 6:121 7:167 8:0 9:0 10:115 11:163 12:0 13:204 14:134 15:165 16:0 #
6.575256209484368786140519444125e-08 1:9 2:87 3:15 4:0 5:12210 6:69 7:20 8:0 9:11857 10:142 11:17 12:0 13:2 14:144 15:22 16:0 #
-6.2650212153719152067173081294832e-08 1:0 2:169 3:90 4:0 5:107 6:192 7:74 8:0 9:23600 10:234 11:32 12:2 13:67 14:127 15:20 16:2 #
5.7113047751980241721718049895465e-08 1:12463 2:202 3:85 4:5 5:0 6:136 7:86 8:0 9:0 10:173 11:89 12:0 13:0 14:125 15:82 16:0 #
6.575256209484368786140519444125e-08 1:120 2:615 3:92 4:0 5:216 6:319 7:86 8:1 9:7084 10:2223 11:109 12:0 13:46 14:232 15:97 16:0 #
-6.575256209484368786140519444125e-08 1:25 2:177 3:100 4:0 5:1030 6:207 7:102 8:0 9:443 10:276 11:108 12:0 13:7676 14:209 15:85 16:0 #
6.575256209484368786140519444125e-08 1:1 2:62 3:12 4:0 5:7051 6:113 7:28 8:0 9:1 10:129 11:25 12:0 13:0 14:74 15:18 16:0 #
4.9885685656540342443682136026883e-08 1:443 2:2016 3:1619 4:0 5:427 6:121 7:161 8:0 9:10068 10:142 11:169 12:1 13:7742 14:200 15:168 16:94 #
-6.575256209484368786140519444125e-08 1:1 2:107 3:17 4:0 5:7059 6:111 7:28 8:1 9:1 10:62 11:12 12:0 13:7051 14:113 15:28 16:0 #
-6.575256209484368786140519444125e-08 1:109 2:109 3:29 4:392 5:22 6:81 7:39 8:0 9:94 10:83 11:30 12:498 13:7150 14:67 15:22 16:0 #
-6.575256209484368786140519444125e-08 1:17 2:437 3:176 4:1 5:0 6:1985 7:170 8:0 9:0 10:645 11:153 12:0 13:7049 14:280 15:162 16:1 #
6.575256209484368786140519444125e-08 1:36 2:19 3:2 4:0 5:1 6:77 7:12 8:0 9:5 10:51 11:23 12:0 13:13 14:54 15:19 16:56 #
-6.575256209484368786140519444125e-08 1:69 2:90 3:18 4:0 5:2 6:145 7:41 8:0 9:7043 10:123 11:29 12:10 13:0 14:69 15:24 16:0 #
6.575256209484368786140519444125e-08 1:26 2:31 3:14 4:0 5:2 6:20 7:11 8:0 9:8 10:44 11:34 12:1 13:1 14:26 15:15 16:0 #
6.575256209484368786140519444125e-08 1:8 2:98 3:44 4:0 5:0 6:92 7:23 8:1 9:7063 10:64 11:23 12:0 13:0 14:78 15:22 16:4 #
6.575256209484368786140519444125e-08 1:427 2:121 3:161 4:0 5:10068 6:142 7:169 8:1 9:7742 10:200 11:168 12:94 13:9 14:238 15:251 16:205 #
-6.575256209484368786140519444125e-08 1:7063 2:64 3:23 4:0 5:0 6:78 7:22 8:4 9:31 10:87 11:29 12:3 13:5973 14:100 15:28 16:1 #
-6.575256209484368786140519444125e-08 1:7 2:122 3:21 4:0 5:0 6:97 7:11 8:0 9:2974 10:78 11:5 12:0 13:4848 14:66 15:12 16:0 #
6.575256209484368786140519444125e-08 1:30 2:23 3:65 4:0 5:206 6:0 7:87 8:460 9:492 10:1106 11:969 12:621 13:1519 14:119 15:25 16:0 #
-6.575256209484368786140519444125e-08 1:7043 2:123 3:29 4:10 5:0 6:69 7:24 8:0 9:6112 10:155 11:22 12:0 13:1 14:96 15:30 16:0 #
-2.9634878258311019853879305263784e-08 1:22 2:81 3:39 4:0 5:94 6:83 7:30 8:498 9:7150 10:67 11:22 12:0 13:145 14:144 15:26 16:0 #
-6.575256209484368786140519444125e-08 1:0 2:102 3:33 4:0 5:0 6:59 7:20 8:0 9:0 10:91 11:25 12:3 13:14 14:125 15:22 16:0 #
6.575256209484368786140519444125e-08 1:7245 2:97 3:20 4:3 5:102 6:98 7:15 8:0 9:8 10:64 11:14 12:0 13:251 14:121 15:35 16:0 #
6.575256209484368786140519444125e-08 1:3453 2:150 3:156 4:0 5:259 6:174 7:169 8:25 9:7080 10:195 11:158 12:0 13:72 14:162 15:166 16:0 #
-6.575256209484368786140519444125e-08 1:6112 2:155 3:22 4:0 5:1 6:96 7:30 8:0 9:0 10:99 11:44 12:0 13:0 14:90 15:27 16:156 #
-6.575256209484368786140519444125e-08 1:32 2:1357 3:1288 4:4 5:81 6:92 7:70 8:0 9:31 10:178 11:88 12:0 13:91 14:185 15:125 16:0 #
6.575256209484368786140519444125e-08 1:0 2:92 3:23 4:1 5:7063 6:64 7:23 8:0 9:0 10:78 11:22 12:4 13:31 14:87 15:29 16:3 #
6.575256209484368786140519444125e-08 1:5971 2:174 3:22 4:0 5:7064 6:96 7:32 8:0 9:0 10:89 11:28 12:0 13:4 14:105 15:29 16:0 #
-6.575256209484368786140519444125e-08 1:1 2:1763 3:1246 4:3 5:8 6:57 7:25 8:250 9:2 10:84 11:13 12:55 13:14 14:21 15:11 16:0 #
6.575256209484368786140519444125e-08 1:0 2:875 3:0 4:0 5:0 6:3458 7:0 8:0 9:0 10:5193 11:0 12:3 13:0 14:170 15:0 16:9 #
6.575256209484368786140519444125e-08 1:0 2:154 3:96 4:0 5:0 6:151 7:94 8:1 9:0 10:4902 11:96 12:0 13:0 14:1249 15:86 16:0 #
6.1138284357540626520752051996366e-08 1:8 2:1437 3:2148 4:2 5:2 6:47 7:25 8:0 9:0 10:13 11:8 12:674 13:0 14:0 15:6 16:0 #
-6.575256209484368786140519444125e-08 1:0 2:645 3:153 4:0 5:7049 6:280 7:162 8:1 9:9 10:219 11:164 12:0 13:0 14:396 15:163 16:0 #
-6.575256209484368786140519444125e-08 1:226 2:591 3:96 4:0 5:120 6:615 7:92 8:0 9:216 10:319 11:86 12:1 13:7084 14:2223 15:109 16:0 #
-6.575256209484368786140519444125e-08 1:0 2:216 3:0 4:0 5:0 6:229 7:0 8:4 9:0 10:7272 11:0 12:9 13:0 14:146 15:0 16:0 #
6.575256209484368786140519444125e-08 1:612 2:516 3:563 4:1 5:443 6:2016 7:1619 8:0 9:427 10:121 11:161 12:0 13:10068 14:142 15:169 16:1 #
6.575256209484368786140519444125e-08 1:0 2:29 3:0 4:0 5:0 6:875 7:0 8:0 9:0 10:3458 11:0 12:0 13:0 14:5193 15:0 16:3 #
-6.575256209484368786140519444125e-08 1:0 2:107 3:24 4:0 5:7 6:2442 7:2672 8:0 9:19 10:37 11:31 12:0 13:7 14:110 15:27 16:0 #
-6.575256209484368786140519444125e-08 1:99 2:405 3:160 4:49 5:7193 6:428 7:83 8:0 9:1 10:325 11:112 12:0 13:4 14:1178 15:877 16:127 #
6.575256209484368786140519444125e-08 1:0 2:49 3:0 4:0 5:0 6:120 7:0 8:0 9:0 10:415 11:0 12:0 13:0 14:143 15:0 16:0 #
-6.575256209484368786140519444125e-08 1:204 2:134 3:165 4:0 5:6851 6:172 7:174 8:0 9:164 10:94 11:161 12:1 13:193 14:154 15:132 16:2 #
6.575256209484368786140519444125e-08 1:0 2:833 3:88 4:0 5:15 6:166 7:98 8:1 9:3103 10:4518 11:107 12:0 13:7042 14:265 15:159 16:1 #
-6.575256209484368786140519444125e-08 1:7063 2:194 3:101 4:0 5:679 6:162 7:91 8:0 9:1399 10:136 11:79 12:0 13:334 14:172 15:108 16:0 #
-6.575256209484368786140519444125e-08 1:0 2:1985 3:170 4:0 5:0 6:645 7:153 8:0 9:7049 10:280 11:162 12:1 13:9 14:219 15:164 16:0 #
6.575256209484368786140519444125e-08 1:484 2:121 3:167 4:0 5:0 6:115 7:163 8:0 9:204 10:134 11:165 12:0 13:6851 14:172 15:174 16:0 #
6.575256209484368786140519444125e-08 1:7 2:1259 3:1031 4:2436 5:24 6:473 7:285 8:0 9:0 10:170 11:84 12:0 13:3805 14:188 15:91 16:0 #
6.575256209484368786140519444125e-08 1:1 2:1579 3:12 4:0 5:0 6:233 7:6 8:0 9:0 10:124 11:54 12:0 13:30 14:23 15:65 16:0 #
6.575256209484368786140519444125e-08 1:1 2:70 3:21 4:0 5:8 6:98 7:44 8:0 9:0 10:92 11:23 12:1 13:7063 14:64 15:23 16:0 #
-6.575256209484368786140519444125e-08 1:5 2:123 3:39 4:0 5:0 6:103 7:34 8:0 9:1 10:107 11:17 12:0 13:7059 14:111 15:28 16:1 #
6.575256209484368786140519444125e-08 1:0 2:164 3:94 4:0 5:3 6:317 7:95 8:0 9:35 10:1660 11:96 12:0 13:29 14:225 15:100 16:0 #
-6.575256209484368786140519444125e-08 1:0 2:111 3:151 4:53 5:4 6:183 7:211 8:2 9:612 10:516 11:563 12:1 13:443 14:2016 15:1619 16:0 #
6.575256209484368786140519444125e-08 1:3805 2:188 3:91 4:0 5:37 6:3495 7:97 8:2 9:6 10:1210 11:156 12:2 13:0 14:833 15:88 16:0 #
6.575256209484368786140519444125e-08 1:205 2:472 3:165 4:58 5:99 6:405 7:160 8:49 9:7193 10:428 11:83 12:0 13:1 14:325 15:112 16:0 #
6.575256209484368786140519444125e-08 1:0 2:74 3:18 4:0 5:0 6:1224 7:1117 8:1 9:16 10:37 11:13 12:0 13:0 14:87 15:92 16:0 #
-3.7932292049425244877616531652409e-08 1:0 2:181 3:0 4:0 5:0 6:118 7:0 8:0 9:0 10:7222 11:0 12:0 13:0 14:210 15:0 16:0 #
6.575256209484368786140519444125e-08 1:24 2:473 3:285 4:0 5:0 6:170 7:84 8:0 9:3805 10:188 11:91 12:0 13:37 14:3495 15:97 16:2 #
6.575256209484368786140519444125e-08 1:8 2:44 3:34 4:1 5:1 6:26 7:15 8:0 9:1 10:30 11:12 12:1 13:8 14:688 15:586 16:0 #
6.575256209484368786140519444125e-08 1:0 2:679 3:99 4:0 5:0 6:2013 7:87 8:0 9:0 10:1624 11:81 12:0 13:0 14:154 15:96 16:0 #
6.575256209484368786140519444125e-08 1:84 2:144 3:24 4:2 5:7118 6:152 7:48 8:0 9:643 10:160 11:41 12:0 13:152 14:178 15:30 16:0 #
6.575256209484368786140519444125e-08 1:1 2:30 3:10 4:0 5:9 6:23 7:5 8:0 9:26 10:31 11:14 12:0 13:2 14:20 15:11 16:0 #
6.575256209484368786140519444125e-08 1:35 2:1660 3:96 4:0 5:29 6:225 7:100 8:0 9:32 10:312 11:94 12:190 13:3468 14:329 15:100 16:1 #
-6.575256209484368786140519444125e-08 1:0 2:12 3:0 4:0 5:1 6:71 7:11 8:0 9:1 10:93 11:22 12:0 13:1 14:131 15:31 16:0 #
-6.575256209484368786140519444125e-08 1:7051 2:113 3:28 4:0 5:1 6:129 7:25 8:0 9:0 10:74 11:18 12:0 13:0 14:1224 15:1117 16:1 #
-6.575256209484368786140519444125e-08 1:0 2:162 3:23 4:0 5:7070 6:199 7:24 8:0 9:0 10:181 11:55 12:0 13:0 14:183 15:48 16:0 #
6.575256209484368786140519444125e-08 1:259 2:174 3:169 4:25 5:7080 6:195 7:158 8:0 9:72 10:162 11:166 12:0 13:1 14:146 15:152 16:1 #
-6.575256209484368786140519444125e-08 1:206 2:363 3:98 4:0 5:177 6:419 7:135 8:25 9:205 10:472 11:165 12:58 13:99 14:405 15:160 16:49 #
-6.575256209484368786140519444125e-08 1:8 2:688 3:586 4:0 5:19 6:1439 7:845 8:1 9:9 10:383 11:84 12:0 13:1 14:41 15:4 16:5 #
-6.575256209484368786140519444125e-08 1:3 2:76 3:80 4:0 5:0 6:96 7:22 8:0 9:0 10:1481 11:1236 12:1 13:2 14:236 15:46 16:0 #
6.575256209484368786140519444125e-08 1:5455 2:94 3:76 4:2 5:240 6:103 7:102 8:0 9:56 10:70 11:88 12:0 13:217 14:86 15:100 16:0 #
-6.575256209484368786140519444125e-08 1:7071 2:149 3:108 4:0 5:1 6:149 7:108 8:0 9:0 10:177 11:92 12:0 13:25 14:173 15:116 16:0 #
6.575256209484368786140519444125e-08 1:0 2:69 3:24 4:0 5:6112 6:155 7:22 8:0 9:1 10:96 11:30 12:0 13:0 14:99 15:44 16:0 #
6.575256209484368786140519444125e-08 1:7042 2:265 3:159 4:1 5:17 6:437 7:176 8:1 9:0 10:1985 11:170 12:0 13:0 14:645 15:153 16:0 #
6.575256209484368786140519444125e-08 1:3 2:92 3:25 4:0 5:0 6:144 7:33 8:0 9:0 10:67 11:14 12:0 13:0 14:1445 15:1230 16:0 #
-6.575256209484368786140519444125e-08 1:0 2:30 3:18 4:0 5:5836 6:44 7:6 8:0 9:10 10:61 11:14 12:0 13:14 14:90 15:21 16:0 #
6.575256209484368786140519444125e-08 1:48 2:997 3:94 4:51 5:1535 6:255 7:107 8:1 9:0 10:169 11:90 12:0 13:107 14:192 15:74 16:0 #
-6.575256209484368786140519444125e-08 1:0 2:2013 3:87 4:0 5:0 6:1624 7:81 8:0 9:0 10:154 11:96 12:0 13:0 14:151 15:94 16:1 #
-6.575256209484368786140519444125e-08 1:5097 2:172 3:33 4:0 5:1 6:192 7:21 8:0 9:0 10:389 11:30 12:0 13:0 14:261 15:29 16:0 #
6.575256209484368786140519444125e-08 1:0 2:346 3:0 4:0 5:0 6:149 7:0 8:0 9:0 10:593 11:1 12:0 13:0 14:266 15:0 16:0 #
-6.575256209484368786140519444125e-08 1:28 2:108 3:106 4:1 5:5455 6:94 7:76 8:2 9:240 10:103 11:102 12:0 13:56 14:70 15:88 16:0 #
6.575256209484368786140519444125e-08 1:22 2:115 3:8 4:0 5:41 6:169 7:32 8:0 9:0 10:136 11:23 12:0 13:0 14:1602 15:1288 16:1 #
-6.575256209484368786140519444125e-08 1:0 2:89 3:28 4:0 5:4 6:105 7:29 8:0 9:1 10:114 11:29 12:1 13:3 14:159 15:32 16:0 #
-6.575256209484368786140519444125e-08 1:0 2:7162 3:0 4:0 5:0 6:20 7:0 8:0 9:0 10:216 11:0 12:0 13:0 14:8 15:0 16:0 #
6.575256209484368786140519444125e-08 1:94 2:118 3:86 4:0 5:276 6:1993 7:78 8:261 9:18 10:581 11:87 12:0 13:0 14:359 15:87 16:0 #
6.575256209484368786140519444125e-08 1:1 2:30 3:12 4:1 5:8 6:688 7:586 8:0 9:19 10:1439 11:845 12:1 13:9 14:383 15:84 16:0 #
-6.575256209484368786140519444125e-08 1:714 2:286 3:23 4:0 5:5097 6:172 7:33 8:0 9:1 10:192 11:21 12:0 13:0 14:389 15:30 16:0 #
-6.575256209484368786140519444125e-08 1:1675 2:172 3:46 4:0 5:243 6:122 7:48 8:0 9:353 10:208 11:47 12:0 13:1111 14:328 15:60 16:0 #
6.575256209484368786140519444125e-08 1:1 2:194 3:173 4:0 5:5856 6:208 7:41 8:1 9:0 10:75 11:17 12:0 13:4 14:119 15:31 16:0 #
-6.575256209484368786140519444125e-08 1:0 2:218 3:40 4:1 5:0 6:162 7:23 8:0 9:7070 10:199 11:24 12:0 13:0 14:181 15:55 16:0 #
6.575256209484368786140519444125e-08 1:1399 2:136 3:79 4:0 5:334 6:172 7:108 8:0 9:263 10:108 11:122 12:0 13:3453 14:150 15:156 16:0 #
-6.575256209484368786140519444125e-08 1:660 2:117 3:28 4:0 5:1 6:62 7:18 8:0 9:2 10:109 11:26 12:0 13:5293 14:47 15:7 16:0 #
-6.575256209484368786140519444125e-08 1:0 2:97 3:11 4:0 5:2974 6:78 7:5 8:0 9:4848 10:66 11:12 12:0 13:6 14:54 15:13 16:0 #
-2.0040211113921094592912438745423e-08 1:0 2:224 3:60 4:0 5:1030 6:1379 7:202 8:14099 9:129 10:195 11:65 12:13 13:0 14:213 15:29 16:1 #
6.575256209484368786140519444125e-08 1:104 2:308 3:56 4:238 5:0 6:301 7:41 8:0 9:0 10:277 11:44 12:150 13:2346 14:218 15:526 16:3466 #
-6.575256209484368786140519444125e-08 1:2 2:68 3:15 4:0 5:8 6:1437 7:2148 8:2 9:2 10:47 11:25 12:0 13:0 14:13 15:8 16:674 #
6.575256209484368786140519444125e-08 1:0 2:277 3:44 4:150 5:2346 6:218 7:526 8:3466 9:1250 10:182 11:80 12:5 13:0 14:224 15:60 16:0 #
-6.575256209484368786140519444125e-08 1:679 2:162 3:91 4:0 5:1399 6:136 7:79 8:0 9:334 10:172 11:108 12:0 13:263 14:108 15:122 16:0 #
6.575256209484368786140519444125e-08 1:206 2:0 3:87 4:460 5:492 6:1106 7:969 8:621 9:1519 10:119 11:25 12:0 13:849 14:105 15:17 16:34 #
6.575256209484368786140519444125e-08 1:1 2:41 3:4 4:5 5:113 6:53 7:13 8:0 9:212 10:52 11:24 12:0 13:536 14:129 15:24 16:1 #
-6.575256209484368786140519444125e-08 1:0 2:103 3:34 4:0 5:1 6:107 7:17 8:0 9:7059 10:111 11:28 12:1 13:1 14:62 15:12 16:0 #
6.575256209484368786140519444125e-08 1:6 2:1210 3:156 4:2 5:0 6:833 7:88 8:0 9:15 10:166 11:98 12:1 13:3103 14:4518 15:107 16:0 #
6.575256209484368786140519444125e-08 1:0 2:148 3:28 4:0 5:5477 6:359 7:43 8:7 9:26 10:110 11:21 12:0 13:32 14:165 15:29 16:0 #
-6.575256209484368786140519444125e-08 1:0 2:873 3:87 4:0 5:0 6:679 7:99 8:0 9:0 10:2013 11:87 12:0 13:0 14:1624 15:81 16:0 #
-6.575256209484368786140519444125e-08 1:391 2:145 3:57 4:9 5:24 6:127 7:85 8:0 9:94 10:118 11:86 12:0 13:276 14:1993 15:78 16:261 #
6.575256209484368786140519444125e-08 1:4 2:102 3:26 4:0 5:844 6:79 7:31 8:0 9:840 10:84 11:30 12:0 13:0 14:108 15:20 16:0 #
-6.575256209484368786140519444125e-08 1:104 2:77 3:146 4:0 5:7 6:269 7:202 8:17 9:6 10:1140 11:846 12:1 13:53 14:803 15:671 16:1 #
6.575256209484368786140519444125e-08 1:5293 2:47 3:7 4:0 5:15 6:72 7:14 8:0 9:1 10:111 11:14 12:0 13:3 14:50 15:18 16:0 #
-6.575256209484368786140519444125e-08 1:844 2:79 3:31 4:0 5:840 6:84 7:30 8:0 9:0 10:108 11:20 12:0 13:1 14:130 15:18 16:1 #
6.575256209484368786140519444125e-08 1:0 2:112 3:0 4:3 5:0 6:29 7:0 8:0 9:0 10:875 11:0 12:0 13:0 14:3458 15:0 16:0 #
6.575256209484368786140519444125e-08 1:2 2:51 3:18 4:1 5:0 6:55 7:14 8:0 9:1 10:1763 11:1246 12:3 13:8 14:57 15:25 16:250 #
-6.575256209484368786140519444125e-08 1:7 2:478 3:359 4:0 5:78 6:155 7:112 8:0 9:11 10:136 11:88 12:5 13:8 14:237 15:96 16:0 #
-6.575256209484368786140519444125e-08 1:1 2:26 3:15 4:0 5:1 6:30 7:12 8:1 9:8 10:688 11:586 12:0 13:19 14:1439 15:845 16:1 #
-6.575256209484368786140519444125e-08 1:849 2:105 3:17 4:34 5:413 6:163 7:14 8:48 9:638 10:440 11:46 12:0 13:2 14:196 15:22 16:1 #
6.575256209484368786140519444125e-08 1:0 2:125 3:17 4:0 5:0 6:137 7:35 8:0 9:348 10:239 11:39 12:0 13:0 14:225 15:39 16:0 #
6.575256209484368786140519444125e-08 1:0 2:233 3:6 4:0 5:0 6:124 7:54 8:0 9:30 10:23 11:65 12:0 13:206 14:0 15:87 16:460 #
-6.575256209484368786140519444125e-08 1:731 2:85 3:23 4:0 5:219 6:106 7:34 8:1 9:4 10:102 11:26 12:0 13:844 14:79 15:31 16:0 #
-6.575256209484368786140519444125e-08 1:41 2:169 3:32 4:0 5:0 6:136 7:23 8:0 9:0 10:1602 11:1288 12:1 13:67 14:75 15:10 16:1 #
-6.575256209484368786140519444125e-08 1:391 2:258 3:98 4:0 5:226 6:591 7:96 8:0 9:120 10:615 11:92 12:0 13:216 14:319 15:86 16:1 #
6.575256209484368786140519444125e-08 1:11 2:58 3:20 4:0 5:4 6:66 7:24 8:28 9:0 10:117 11:22 12:23 13:0 14:18 15:2 16:0 #
-6.575256209484368786140519444125e-08 1:121 2:689 3:592 4:2 5:8 6:90 7:23 8:0 9:0 10:73 11:15 12:0 13:12 14:85 15:8 16:0 #
-6.575256209484368786140519444125e-08 1:465 2:481 3:13 4:6 5:79 6:183 7:15 8:0 9:44 10:246 11:38 12:0 13:4 14:206 15:34 16:1 #
-6.575256209484368786140519444125e-08 1:94 2:97 3:33 4:1 5:0 6:113 7:48 8:0 9:1 10:107 11:22 12:0 13:4726 14:83 15:26 16:3 #
-6.575256209484368786140519444125e-08 1:5 2:109 3:25 4:0 5:123 6:93 7:7 8:0 9:2 10:68 11:15 12:0 13:8 14:1437 15:2148 16:2 #
6.575256209484368786140519444125e-08 1:0 2:593 3:1 4:0 5:0 6:266 7:0 8:0 9:0 10:451 11:0 12:1 13:0 14:184 15:0 16:0 #
-6.575256209484368786140519444125e-08 1:152 2:99 3:21 4:0 5:68 6:218 7:31 8:0 9:0 10:154 11:30 12:0 13:12 14:1652 15:1267 16:3 #
-6.575256209484368786140519444125e-08 1:0 2:341 3:100 4:14 5:0 6:164 7:94 8:0 9:3 10:317 11:95 12:0 13:35 14:1660 15:96 16:0 #
6.575256209484368786140519444125e-08 1:0 2:243 3:0 4:0 5:0 6:687 7:0 8:0 9:0 10:627 11:0 12:0 13:0 14:3665 15:0 16:0 #
-6.575256209484368786140519444125e-08 1:3 2:181 3:27 4:0 5:51 6:117 7:35 8:0 9:0 10:121 11:24 12:0 13:109 14:109 15:29 16:392 #
6.575256209484368786140519444125e-08 1:26 2:110 3:21 4:0 5:32 6:165 7:29 8:0 9:189 10:191 11:37 12:2 13:164 14:161 15:44 16:0 #
6.575256209484368786140519444125e-08 1:0 2:389 3:30 4:0 5:0 6:261 7:29 8:0 9:0 10:401 11:65 12:0 13:19 14:317 15:97 16:0 #
-6.575256209484368786140519444125e-08 1:0 2:324 3:0 4:0 5:0 6:43 7:0 8:0 9:0 10:380 11:0 12:0 13:0 14:1642 15:0 16:0 #
6.575256209484368786140519444125e-08 1:0 2:123 3:76 4:0 5:5 6:180 7:86 8:0 9:2 10:129 11:82 12:1 13:98 14:1331 15:1251 16:7 #
6.575256209484368786140519444125e-08 1:0 2:251 3:0 4:0 5:0 6:104 7:0 8:0 9:0 10:104 11:0 12:1 13:0 14:63 15:0 16:1 #
6.575256209484368786140519444125e-08 1:3 2:115 3:26 4:1 5:1 6:109 7:25 8:0 9:0 10:90 11:27 12:0 13:8 14:834 15:721 16:1 #
6.575256209484368786140519444125e-08 1:3 2:159 3:32 4:0 5:5 6:109 7:25 8:0 9:123 10:93 11:7 12:0 13:2 14:68 15:15 16:0 #
6.575256209484368786140519444125e-08 1:111 2:118 3:15 4:0 5:0 6:94 7:28 8:0 9:0 10:1239 11:1062 12:0 13:1 14:194 15:173 16:0 #
-6.575256209484368786140519444125e-08 1:0 2:121 3:24 4:0 5:109 6:109 7:29 8:392 9:22 10:81 11:39 12:0 13:94 14:83 15:30 16:498 #
-6.575256209484368786140519444125e-08 1:16 2:37 3:13 4:0 5:0 6:87 7:92 8:0 9:0 10:189 11:95 12:2 13:333 14:435 15:96 16:120 #
-6.575256209484368786140519444125e-08 1:32 2:165 3:29 4:0 5:189 6:191 7:37 8:2 9:164 10:161 11:44 12:0 13:3 14:141 15:35 16:2 #
-6.575256209484368786140519444125e-08 1:0 2:380 3:0 4:0 5:0 6:1642 7:0 8:0 9:0 10:213 11:0 12:0 13:0 14:32 15:0 16:0 #
6.575256209484368786140519444125e-08 1:751 2:1140 3:1901 4:1 5:6 6:293 7:32 8:0 9:0 10:75 11:18 12:29 13:731 14:85 15:23 16:0 #
-6.575256209484368786140519444125e-08 1:2 2:129 3:82 4:1 5:98 6:1331 7:1251 8:7 9:391 10:145 11:57 12:9 13:24 14:127 15:85 16:0 #
6.575256209484368786140519444125e-08 1:0 2:62 3:24 4:0 5:0 6:70 7:11 8:0 9:2 10:51 11:18 12:1 13:0 14:55 15:14 16:0 #
-6.575256209484368786140519444125e-08 1:0 2:434 3:1 4:0 5:0 6:592 7:0 8:0 9:0 10:243 11:0 12:0 13:0 14:687 15:0 16:0 #
6.575256209484368786140519444125e-08 1:0 2:73 3:15 4:0 5:12 6:85 7:8 8:0 9:47 10:80 11:18 12:0 13:1 14:96 15:39 16:0 #
6.575256209484368786140519444125e-08 1:17 2:163 3:170 4:0 5:104 6:77 7:146 8:0 9:7 10:269 11:202 12:17 13:6 14:1140 15:846 16:1 #
-6.575256209484368786140519444125e-08 1:0 2:149 3:0 4:0 5:0 6:593 7:1 8:0 9:0 10:266 11:0 12:0 13:0 14:451 15:0 16:1 #
6.575256209484368786140519444125e-08 1:0 2:91 3:52 4:0 5:0 6:123 7:76 8:0 9:5 10:180 11:86 12:0 13:2 14:129 15:82 16:1 #
-6.575256209484368786140519444125e-08 1:1 2:511 3:38 4:0 5:0 6:25 7:2 8:0 9:0 10:27 11:2 12:0 13:0 14:42 15:1 16:0 #
6.575256209484368786140519444125e-08 1:2 2:173 3:98 4:0 5:7 6:1275 7:1042 8:0 9:7 10:478 11:359 12:0 13:78 14:155 15:112 16:0 #
-6.575256209484368786140519444125e-08 1:0 2:20 3:0 4:0 5:0 6:716 7:0 8:0 9:0 10:161 11:0 12:0 13:0 14:187 15:0 16:0 #
6.575256209484368786140519444125e-08 1:3 2:111 3:37 4:0 5:1 6:79 7:25 8:0 9:25 10:138 11:27 12:2 13:0 14:148 15:28 16:0 #
-6.575256209484368786140519444125e-08 1:68 2:218 3:31 4:0 5:0 6:154 7:30 8:0 9:12 10:1652 11:1267 12:3 13:67 14:34 15:9 16:0 #
6.575256209484368786140519444125e-08 1:1 2:77 3:12 4:0 5:5 6:51 7:23 8:0 9:13 10:54 11:19 12:56 13:37 14:129 15:82 16:1 #
-6.575256209484368786140519444125e-08 1:137 2:121 3:36 4:0 5:153 6:367 7:11 8:0 9:152 10:99 11:21 12:0 13:68 14:218 15:31 16:0 #
6.575256209484368786140519444125e-08 1:4 2:183 3:211 4:2 5:612 6:516 7:563 8:1 9:443 10:2016 11:1619 12:0 13:427 14:121 15:161 16:0 #
-6.575256209484368786140519444125e-08 1:0 2:116 3:80 4:0 5:2 6:173 7:98 8:0 9:7 10:1275 11:1042 12:0 13:7 14:478 15:359 16:0 #
6.575256209484368786140519444125e-08 1:15 2:125 3:23 4:0 5:2 6:72 7:11 8:0 9:3 10:70 11:17 12:0 13:1 14:127 15:35 16:0 #
-6.575256209484368786140519444125e-08 1:37 2:133 3:39 4:0 5:229 6:124 7:27 8:0 9:47 10:78 11:31 12:0 13:84 14:144 15:24 16:2 #
6.575256209484368786140519444125e-08 1:123 2:93 3:7 4:0 5:2 6:68 7:15 8:0 9:8 10:1437 11:2148 12:2 13:2 14:47 15:25 16:0 #
-6.575256209484368786140519444125e-08 1:1 2:129 3:25 4:0 5:0 6:74 7:18 8:0 9:0 10:1224 11:1117 12:1 13:16 14:37 15:13 16:0 #
6.575256209484368786140519444125e-08 1:0 2:106 3:23 4:0 5:3 6:82 7:20 8:0 9:1 10:70 11:21 12:0 13:8 14:98 15:44 16:0 #
-6.575256209484368786140519444125e-08 1:0 2:106 3:75 4:0 5:0 6:116 7:80 8:0 9:2 10:173 11:98 12:0 13:7 14:1275 15:1042 16:0 #
6.575256209484368786140519444125e-08 1:0 2:54 3:17 4:0 5:66 6:98 7:20 8:0 9:52 10:117 11:30 12:0 13:5 14:56 15:15 16:0 #
-6.575256209484368786140519444125e-08 1:193 2:154 3:132 4:2 5:76 6:146 7:59 8:0 9:3 10:12 11:8 12:0 13:82 14:3 15:3 16:0 #
-6.575256209484368786140519444125e-08 1:0 2:266 3:0 4:0 5:0 6:451 7:0 8:1 9:0 10:184 11:0 12:0 13:0 14:288 15:0 16:1 #
6.575256209484368786140519444125e-08 1:0 2:103 3:23 4:0 5:3 6:115 7:26 8:1 9:1 10:109 11:25 12:0 13:0 14:90 15:27 16:0 #
-6.575256209484368786140519444125e-08 1:103 2:236 3:193 4:1 5:18 6:297 7:197 8:0 9:8 10:298 11:177 12:0 13:18 14:168 15:128 16:0 #
6.575256209484368786140519444125e-08 1:0 2:192 3:0 4:11 5:0 6:126 7:0 8:5 9:0 10:216 11:0 12:0 13:0 14:229 15:0 16:4 #
-6.575256209484368786140519444125e-08 1:7 2:109 3:28 4:0 5:0 6:103 7:23 8:0 9:3 10:115 11:26 12:1 13:1 14:109 15:25 16:0 #
6.575256209484368786140519444125e-08 1:0 2:148 3:0 4:3 5:0 6:192 7:0 8:11 9:0 10:126 11:0 12:5 13:0 14:216 15:0 16:0 #
-6.575256209484368786140519444125e-08 1:0 2:301 3:0 4:0 5:0 6:165 7:0 8:0 9:0 10:23 11:0 12:0 13:3 14:555 15:16 16:0 #
-6.575256209484368786140519444125e-08 1:99 2:135 3:91 4:0 5:121 6:257 7:111 8:0 9:6 10:260 11:100 12:0 13:5 14:239 15:104 16:0 #
6.575256209484368786140519444125e-08 1:113 2:53 3:13 4:0 5:212 6:52 7:24 8:0 9:536 10:129 11:24 12:1 13:300 14:37 15:15 16:12 #
-6.575256209484368786140519444125e-08 1:114 2:106 3:26 4:0 5:156 6:139 7:32 8:0 9:0 10:93 11:21 12:0 13:0 14:113 15:29 16:0 #
-6.575256209484368786140519444125e-08 1:348 2:239 3:39 4:0 5:0 6:225 7:39 8:0 9:0 10:218 11:40 12:1 13:0 14:162 15:23 16:0 #
-6.575256209484368786140519444125e-08 1:70 2:395 3:30 4:0 5:137 6:121 7:36 8:0 9:153 10:367 11:11 12:0 13:152 14:99 15:21 16:0 #
-6.575256209484368786140519444125e-08 1:3 2:70 3:17 4:0 5:1 6:127 7:35 8:0 9:2 10:130 11:54 12:298 13:4 14:111 15:44 16:0 #
-6.575256209484368786140519444125e-08 1:2 2:156 3:41 4:0 5:184 6:335 7:33 8:0 9:2 10:509 11:25 12:0 13:254 14:222 15:41 16:0 #
-6.575256209484368786140519444125e-08 1:156 2:207 3:103 4:0 5:82 6:127 7:89 8:0 9:115 10:127 11:104 12:0 13:2 14:180 15:83 16:0 #
-6.575256209484368786140519444125e-08 1:219 2:106 3:34 4:1 5:4 6:102 7:26 8:0 9:844 10:79 11:31 12:0 13:840 14:84 15:30 16:0 #
6.575256209484368786140519444125e-08 1:10 2:61 3:14 4:0 5:14 6:90 7:21 8:0 9:11 10:58 11:20 12:0 13:4 14:66 15:24 16:28 #
-6.575256209484368786140519444125e-08 1:2 2:162 3:45 4:0 5:131 6:399 7:16 8:0 9:2 10:416 11:65 12:0 13:2 14:156 15:41 16:0 #
6.575256209484368786140519444125e-08 1:303 2:176 3:28 4:0 5:37 6:133 7:39 8:0 9:229 10:124 11:27 12:0 13:47 14:78 15:31 16:0 #
-6.575256209484368786140519444125e-08 1:0 2:95 3:0 4:0 5:0 6:324 7:0 8:0 9:0 10:43 11:0 12:0 13:0 14:380 15:0 16:0 #
6.575256209484368786140519444125e-08 1:1 2:89 3:25 4:0 5:84 6:72 7:26 8:5 9:38 10:121 11:18 12:0 13:29 14:163 15:53 16:0 #
6.575256209484368786140519444125e-08 1:164 2:161 3:44 4:0 5:3 6:141 7:35 8:2 9:13 10:200 11:21 12:0 13:1 14:110 15:17 16:0 #
-6.575256209484368786140519444125e-08 1:0 2:178 3:151 4:0 5:3 6:174 7:142 8:0 9:2 10:117 11:82 12:0 13:0 14:0 15:0 16:0 #
6.575256209484368786140519444125e-08 1:240 2:103 3:102 4:0 5:56 6:70 7:88 8:0 9:217 10:86 11:100 12:0 13:64 14:78 15:109 16:1 #
-6.575256209484368786140519444125e-08 1:121 2:257 3:111 4:0 5:6 6:260 7:100 8:0 9:5 10:239 11:104 12:0 13:5 14:176 15:109 16:0 #
6.575256209484368786140519444125e-08 1:0 2:96 3:31 4:0 5:56 6:87 7:20 8:0 9:7 10:109 11:28 12:0 13:0 14:103 15:23 16:0 #
-6.575256209484368786140519444125e-08 1:1 2:196 3:96 4:0 5:20 6:200 7:112 8:0 9:2 10:176 11:123 12:0 13:99 14:135 15:91 16:0 #
6.575256209484368786140519444125e-08 1:57 2:158 3:25 4:0 5:22 6:115 7:8 8:0 9:41 10:169 11:32 12:0 13:0 14:136 15:23 16:0 #
-6.575256209484368786140519444125e-08 1:3 2:179 3:157 4:0 5:0 6:178 7:151 8:0 9:3 10:174 11:142 12:0 13:2 14:117 15:82 16:0 #
-6.575256209484368786140519444125e-08 1:0 2:338 3:0 4:0 5:0 6:235 7:0 8:1 9:0 10:208 11:7 12:0 13:0 14:120 15:0 16:0 #
6.575256209484368786140519444125e-08 1:605 2:233 3:89 4:1 5:391 6:258 7:98 8:0 9:226 10:591 11:96 12:0 13:120 14:615 15:92 16:0 #
-6.575256209484368786140519444125e-08 1:218 2:189 3:101 4:0 5:25 6:177 7:100 8:0 9:1030 10:207 11:102 12:0 13:443 14:276 15:108 16:0 #
-6.575256209484368786140519444125e-08 1:63 2:231 3:59 4:0 5:2 6:215 7:32 8:1 9:3 10:150 11:30 12:0 13:1 14:183 15:40 16:0 #
6.575256209484368786140519444125e-08 1:22 2:123 3:27 4:0 5:32 6:111 7:21 8:0 9:69 10:90 11:18 12:0 13:2 14:145 15:41 16:0 #
-6.575256209484368786140519444125e-08 1:0 2:75 3:19 4:0 5:159 6:160 7:14 8:0 9:0 10:106 11:23 12:0 13:3 14:82 15:20 16:0 #
6.575256209484368786140519444125e-08 1:145 2:144 3:26 4:0 5:16 6:129 7:35 8:0 9:106 10:131 11:30 12:0 13:156 14:88 15:15 16:0 #
6.575256209484368786140519444125e-08 1:1 2:122 3:71 4:0 5:0 6:91 7:52 8:0 9:0 10:123 11:76 12:0 13:5 14:180 15:86 16:0 #
-6.575256209484368786140519444125e-08 1:0 2:50 3:0 4:0 5:0 6:262 7:0 8:0 9:0 10:66 11:0 12:0 13:0 14:189 15:0 16:0 #
6.575256209484368786140519444125e-08 1:65 2:266 3:58 4:0 5:0 6:55 7:28 8:0 9:60 10:138 11:47 12:0 13:0 14:130 15:33 16:1 #
6.575256209484368786140519444125e-08 1:0 2:81 3:21 4:0 5:0 6:147 7:26 8:0 9:0 10:125 11:33 12:0 13:71 14:68 15:20 16:0 #
-6.575256209484368786140519444125e-08 1:64 2:78 3:109 4:1 5:103 6:236 7:193 8:1 9:18 10:297 11:197 12:0 13:8 14:298 15:177 16:0 #
6.575256209484368786140519444125e-08 1:14 2:125 3:22 4:0 5:1 6:125 7:26 8:0 9:3 10:111 11:37 12:0 13:1 14:79 15:25 16:0 #
-6.575256209484368786140519444125e-08 1:5 2:176 3:109 4:0 5:6 6:125 7:89 8:0 9:3 10:94 11:78 12:0 13:0 14:85 15:66 16:2 #
6.575256209484368786140519444125e-08 1:0 2:125 3:82 4:0 5:0 6:137 7:94 8:1 9:0 10:175 11:105 12:0 13:0 14:85 15:85 16:0 #
-6.575256209484368786140519444125e-08 1:0 2:235 3:0 4:1 5:0 6:208 7:7 8:0 9:0 10:120 11:0 12:0 13:1 14:74 15:5 16:0 #
6.575256209484368786140519444125e-08 1:4 2:60 3:16 4:0 5:60 6:104 7:15 8:0 9:0 10:60 11:16 12:0 13:1 14:89 15:25 16:0 #
-6.575256209484368786140519444125e-08 1:0 2:130 3:39 4:0 5:0 6:125 7:17 8:0 9:0 10:137 11:35 12:0 13:348 14:239 15:39 16:0 #
6.575256209484368786140519444125e-08 1:0 2:142 3:149 4:0 5:0 6:140 7:143 8:0 9:17 10:181 11:149 12:5 13:24 14:149 15:207 16:8 #
-6.575256209484368786140519444125e-08 1:1 2:149 3:108 4:0 5:0 6:177 7:92 8:0 9:25 10:173 11:116 12:0 13:3 14:181 15:112 16:0 #
6.575256209484368786140519444125e-08 1:241 2:181 3:37 4:0 5:47 6:103 7:27 8:0 9:91 10:141 11:23 12:0 13:530 14:227 15:40 16:1 #
-6.575256209484368786140519444125e-08 1:2 2:215 3:32 4:1 5:3 6:150 7:30 8:0 9:1 10:183 11:40 12:0 13:151 14:105 15:36 16:0 #
-6.575256209484368786140519444125e-08 1:0 2:300 3:0 4:0 5:0 6:310 7:0 8:0 9:0 10:301 11:0 12:0 13:0 14:165 15:0 16:0 #
6.575256209484368786140519444125e-08 1:2 2:160 3:39 4:0 5:5 6:123 7:39 8:0 9:0 10:103 11:34 12:0 13:1 14:107 15:17 16:0 #
-6.575256209484368786140519444125e-08 1:0 2:113 3:48 4:0 5:1 6:107 7:22 8:0 9:4726 10:83 11:26 12:3 13:0 14:76 15:7 16:0 #
-6.575256209484368786140519444125e-08 1:4 2:162 3:36 4:0 5:2 6:160 7:39 8:0 9:5 10:123 11:39 12:0 13:0 14:103 15:34 16:0 #
6.575256209484368786140519444125e-08 1:4 2:119 3:31 4:0 5:94 6:97 7:33 8:1 9:0 10:113 11:48 12:0 13:1 14:107 15:22 16:0 #
-6.575256209484368786140519444125e-08 1:134 2:100 3:38 4:0 5:63 6:231 7:59 8:0 9:2 10:215 11:32 12:1 13:3 14:150 15:30 16:0 #
-6.575256209484368786140519444125e-08 1:0 2:288 3:0 4:1 5:0 6:280 7:0 8:0 9:0 10:300 11:0 12:0 13:0 14:310 15:0 16:0 #
6.575256209484368786140519444125e-08 1:0 2:93 3:129 4:0 5:0 6:117 7:155 8:0 9:0 10:111 11:151 12:53 13:4 14:183 15:211 16:2 #
-6.575256209484368786140519444125e-08 1:72 2:162 3:166 4:0 5:1 6:146 7:152 8:1 9:440 10:140 11:148 12:17 13:17 14:163 15:170 16:0 #
6.575256209484368786140519444125e-08 1:107 2:81 3:26 4:0 5:0 6:118 7:22 8:0 9:3 10:76 11:80 12:0 13:0 14:96 15:22 16:0 #
6.575256209484368786140519444125e-08 1:9 2:383 3:84 4:0 5:1 6:41 7:4 8:5 9:113 10:53 11:13 12:0 13:212 14:52 15:24 16:0 #
-6.575256209484368786140519444125e-08 1:3 2:50 3:18 4:0 5:198 6:192 7:26 8:191 9:3 10:120 11:14 12:3 13:9 14:87 15:15 16:0 #
6.575256209484368786140519444125e-08 1:0 2:117 3:22 4:23 5:0 6:18 7:2 8:0 9:751 10:1140 11:1901 12:1 13:6 14:293 15:32 16:0 #
6.575256209484368786140519444125e-08 1:145 2:81 3:32 4:0 5:79 6:106 7:31 8:0 9:9 10:36 11:15 12:0 13:7 14:113 15:62 16:4 #
-6.575256209484368786140519444125e-08 1:42 2:207 3:99 4:0 5:174 6:312 7:91 8:0 9:0 10:706 11:76 12:0 13:4 14:163 15:82 16:10 #
-6.575256209484368786140519444125e-08 1:3 2:129 3:132 4:0 5:19 6:125 7:155 8:0 9:65 10:134 11:163 12:0 13:0 14:133 15:159 16:0 #
6.575256209484368786140519444125e-08 1:1 2:110 3:17 4:0 5:33 6:212 7:42 8:1 9:1 10:179 11:28 12:1 13:6 14:83 15:14 16:0 #
-6.575256209484368786140519444125e-08 1:0 2:181 3:55 4:0 5:0 6:183 7:48 8:0 9:0 10:172 11:35 12:0 13:0 14:112 15:17 16:0 #
6.575256209484368786140519444125e-08 1:43 2:90 3:25 4:1 5:206 6:101 7:22 8:0 9:34 10:113 11:24 12:0 13:2 14:65 15:11 16:0 #
6.575256209484368786140519444125e-08 1:196 2:207 3:48 4:0 5:145 6:81 7:32 8:0 9:79 10:106 11:31 12:0 13:9 14:36 15:15 16:0 #
-6.575256209484368786140519444125e-08 1:217 2:86 3:100 4:0 5:64 6:78 7:109 8:1 9:103 10:236 11:193 12:1 13:18 14:297 15:197 16:0 #
6.575256209484368786140519444125e-08 1:3 2:141 3:35 4:2 5:13 6:200 7:21 8:0 9:1 10:110 11:17 12:0 13:33 14:212 15:42 16:1 #
-6.575256209484368786140519444125e-08 1:0 2:239 3:0 4:0 5:0 6:179 7:0 8:0 9:0 10:152 11:0 12:0 13:0 14:50 15:0 16:0 #
6.575256209484368786140519444125e-08 1:18 2:168 3:128 4:0 5:1 6:101 7:138 8:0 9:4 10:135 11:158 12:0 13:0 14:144 15:160 16:0 #
6.575256209484368786140519444125e-08 1:0 2:142 3:146 4:0 5:0 6:140 7:143 8:0 9:0 10:142 11:149 12:0 13:0 14:140 15:143 16:0 #
6.575256209484368786140519444125e-08 1:0 2:90 3:27 4:156 5:0 6:88 7:22 8:0 9:0 10:62 11:24 12:0 13:0 14:70 15:11 16:0 #
-6.575256209484368786140519444125e-08 1:37 2:129 3:82 4:1 5:2 6:123 7:80 8:1 9:91 10:165 11:94 12:0 13:35 14:140 15:92 16:0 #
6.575256209484368786140519444125e-08 1:82 2:127 3:89 4:0 5:115 6:127 7:104 8:0 9:2 10:180 11:83 12:0 13:49 14:100 15:86 16:0 #
-6.575256209484368786140519444125e-08 1:1 2:130 3:50 4:0 5:0 6:151 7:61 8:0 9:0 10:130 11:39 12:0 13:0 14:125 15:17 16:0 #
-6.575256209484368786140519444125e-08 1:3 2:8 3:8 4:1 5:0 6:140 7:141 8:0 9:0 10:142 11:146 12:0 13:0 14:140 15:143 16:0 #
6.575256209484368786140519444125e-08 1:440 2:140 3:148 4:17 5:17 6:163 7:170 8:0 9:104 10:77 11:146 12:0 13:7 14:269 15:202 16:17 #
-6.575256209484368786140519444125e-08 1:0 2:150 3:42 4:0 5:1 6:130 7:50 8:0 9:0 10:151 11:61 12:0 13:0 14:130 15:39 16:0 #
6.575256209484368786140519444125e-08 1:0 2:140 3:143 4:0 5:0 6:142 7:149 8:0 9:0 10:140 11:143 12:0 13:17 14:181 15:149 16:5 #
6.575256209484368786140519444125e-08 1:153 2:367 3:11 4:0 5:152 6:99 7:21 8:0 9:68 10:218 11:31 12:0 13:0 14:154 15:30 16:0 #
-6.575256209484368786140519444125e-08 1:0 2:217 3:0 4:0 5:0 6:296 7:4 8:0 9:0 10:353 11:0 12:0 13:0 14:237 15:0 16:0 #
-6.575256209484368786140519444125e-08 1:84 2:222 3:55 4:0 5:0 6:54 7:17 8:0 9:66 10:98 11:20 12:0 13:52 14:117 15:30 16:0 #
6.575256209484368786140519444125e-08 1:51 2:117 3:35 4:0 5:0 6:121 7:24 8:0 9:109 10:109 11:29 12:392 13:22 14:81 15:39 16:0 #
-6.575256209484368786140519444125e-08 1:0 2:213 3:0 4:0 5:0 6:32 7:0 8:0 9:0 10:20 11:0 12:0 13:0 14:716 15:0 16:0 #
6.575256209484368786140519444125e-08 1:5169 2:205 3:102 4:0 5:42 6:207 7:99 8:0 9:174 10:312 11:91 12:0 13:0 14:706 15:76 16:0 #
6.575256209484368786140519444125e-08 1:0 2:147 3:152 4:0 5:0 6:93 7:129 8:0 9:0 10:117 11:155 12:0 13:0 14:111 15:151 16:53 #
6.575256209484368786140519444125e-08 1:353 2:208 3:47 4:0 5:1111 6:328 7:60 8:0 9:852 10:130 11:19 12:0 13:419 14:168 15:15 16:0 #
-6.575256209484368786140519444125e-08 1:84 2:72 3:26 4:5 5:38 6:121 7:18 8:0 9:29 10:163 11:53 12:0 13:13 14:157 15:54 16:1 #
6.575256209484368786140519444125e-08 1:1 2:146 3:152 4:1 5:440 6:140 7:148 8:17 9:17 10:163 11:170 12:0 13:104 14:77 15:146 16:0 #
-6.575256209484368786140519444125e-08 1:2 2:144 3:22 4:0 5:0 6:112 7:17 8:6 9:0 10:124 11:21 12:0 13:111 14:118 15:15 16:0 #
6.575256209484368786140519444125e-08 1:419 2:168 3:15 4:0 5:104 6:308 7:56 8:238 9:0 10:301 11:41 12:0 13:0 14:277 15:44 16:150 #
-6.575256209484368786140519444125e-08 1:3 2:94 3:78 4:0 5:0 6:85 7:66 8:2 9:0 10:106 11:75 12:0 13:0 14:116 15:80 16:0 #
6.575256209484368786140519444125e-08 1:15 2:72 3:14 4:0 5:1 6:111 7:14 8:0 9:3 10:50 11:18 12:0 13:198 14:192 15:26 16:191 #
-6.575256209484368786140519444125e-08 1:151 2:105 3:36 4:0 5:0 6:49 7:21 8:0 9:96 10:54 11:21 12:0 13:3 14:81 15:43 16:0 #
-6.575256209484368786140519444125e-08 1:13 2:200 3:21 4:0 5:1 6:110 7:17 8:0 9:33 10:212 11:42 12:1 13:1 14:179 15:28 16:1 #
-6.575256209484368786140519444125e-08 1:76 2:146 3:59 4:0 5:3 6:12 7:8 8:0 9:82 10:3 11:3 12:0 13:121 14:106 15:39 16:0 #
-6.575256209484368786140519444125e-08 1:60 2:104 3:15 4:0 5:0 6:60 7:16 8:0 9:1 10:89 11:25 12:0 13:84 14:72 15:26 16:5 #
-6.575256209484368786140519444125e-08 1:0 2:91 3:25 4:3 5:14 6:125 7:22 8:0 9:1 10:125 11:26 12:0 13:3 14:111 15:37 16:0 #
-6.575256209484368786140519444125e-08 1:4 2:111 3:44 4:0 5:0 6:96 7:31 8:0 9:56 10:87 11:20 12:0 13:7 14:109 15:28 16:0 #
6.575256209484368786140519444125e-08 1:210 2:127 3:32 4:2 5:241 6:181 7:37 8:0 9:47 10:103 11:27 12:0 13:91 14:141 15:23 16:0 #
6.575256209484368786140519444125e-08 1:173 2:173 3:50 4:0 5:3 6:181 7:27 8:0 9:51 10:117 11:35 12:0 13:0 14:121 15:24 16:0 #
6.575256209484368786140519444125e-08 1:5 2:239 3:104 4:0 5:5 6:176 7:109 8:0 9:6 10:125 11:89 12:0 13:3 14:94 15:78 16:0 #
6.575256209484368786140519444125e-08 1:115 2:127 3:104 4:0 5:2 6:180 7:83 8:0 9:49 10:100 11:86 12:0 13:28 14:108 15:106 16:1 #
6.575256209484368786140519444125e-08 1:2 2:236 3:46 4:0 5:65 6:266 7:58 8:0 9:0 10:55 11:28 12:0 13:60 14:138 15:47 16:0 #
6.575256209484368786140519444125e-08 1:144 2:72 3:10 4:0 5:144 6:330 7:22 8:0 9:134 10:100 11:38 12:0 13:63 14:231 15:59 16:0 #
-6.575256209484368786140519444125e-08 1:1 2:81 3:33 4:0 5:0 6:109 7:38 8:0 9:0 10:150 11:42 12:0 13:1 14:130 15:50 16:0 #
6.575256209484368786140519444125e-08 1:0 2:5193 3:0 4:3 5:0 6:170 7:0 8:9 9:0 10:148 11:0 12:3 13:0 14:192 15:0 16:11 #
-6.575256209484368786140519444125e-08 1:7 2:110 3:27 4:0 5:1 6:86 7:19 8:0 9:34 10:72 11:15 12:0 13:6 14:99 15:14 16:0 #
6.575256209484368786140519444125e-08 1:0 2:401 3:65 4:0 5:19 6:317 7:97 8:0 9:5 10:249 11:89 12:2 13:12 14:250 15:84 16:0 #
6.575256209484368786140519444125e-08 1:190 2:299 3:195 4:0 5:0 6:147 7:152 8:0 9:0 10:93 11:129 12:0 13:0 14:117 15:155 16:0 #
-6.575256209484368786140519444125e-08 1:0 2:473 3:0 4:0 5:0 6:0 7:0 8:0 9:0 10:278 11:20 12:0 13:1 14:511 15:38 16:0 #
6.575256209484368786140519444125e-08 1:0 2:165 3:0 4:4 5:0 6:1225 7:0 8:0 9:0 10:194 11:0 12:0 13:0 14:338 15:0 16:0 #
-6.575256209484368786140519444125e-08 1:7 2:96 3:10 4:2 5:2 6:62 7:22 8:0 9:0 10:225 11:32 12:0 13:337 14:146 15:24 16:0 #
6.575256209484368786140519444125e-08 1:9 2:219 3:164 4:0 5:0 6:396 7:163 8:0 9:0 10:262 11:143 12:0 13:0 14:230 15:158 16:0 #
-6.575256209484368786140519444125e-08 1:2 2:110 3:67 4:0 5:3 6:59 7:21 8:0 9:1 10:58 11:7 12:0 13:1 14:81 15:33 16:0 #
-2.6952265123783142173512564210291e-09 1:5 2:56 3:15 4:0 5:0 6:50 7:10 8:1 9:1 10:16 11:7 12:0 13:10 14:14 15:4 16:0 #
6.575256209484368786140519444125e-08 1:852 2:130 3:19 4:0 5:419 6:168 7:15 8:0 9:104 10:308 11:56 12:238 13:0 14:301 15:41 16:0 #
6.575256209484368786140519444125e-08 1:1519 2:119 3:25 4:0 5:849 6:105 7:17 8:34 9:413 10:163 11:14 12:48 13:638 14:440 15:46 16:0 #
-6.575256209484368786140519444125e-08 1:5 2:51 3:23 4:0 5:13 6:54 7:19 8:56 9:37 10:129 11:82 12:1 13:2 14:123 15:80 16:1 #
6.575256209484368786140519444125e-08 1:3 2:317 3:95 4:0 5:35 6:1660 7:96 8:0 9:29 10:225 11:100 12:0 13:32 14:312 15:94 16:190 #
-6.575256209484368786140519444125e-08 1:1 2:58 3:7 4:0 5:1 6:81 7:33 8:0 9:0 10:109 11:38 12:0 13:0 14:150 15:42 16:0 #
6.575256209484368786140519444125e-08 1:0 2:1224 3:1117 4:1 5:16 6:37 7:13 8:0 9:0 10:87 11:92 12:0 13:0 14:189 15:95 16:2 #
-6.575256209484368786140519444125e-08 1:1 2:127 3:35 4:0 5:2 6:130 7:54 8:298 9:4 10:111 11:44 12:0 13:0 14:96 15:31 16:0 #
6.575256209484368786140519444125e-08 1:7 2:269 3:202 4:17 5:6 6:1140 7:846 8:1 9:53 10:803 11:671 12:1 13:429 14:244 15:165 16:0 #
-6.575256209484368786140519444125e-08 1:24 2:127 3:85 4:0 5:94 6:118 7:86 8:0 9:276 10:1993 11:78 12:261 13:18 14:581 15:87 16:0 #
6.575256209484368786140519444125e-08 1:0 2:1419 3:1295 4:0 5:0 6:88 7:14 8:0 9:0 10:102 11:33 12:0 13:0 14:59 15:20 16:0 #
6.575256209484368786140519444125e-08 1:6 2:1140 3:846 4:1 5:53 6:803 7:671 8:1 9:429 10:244 11:165 12:0 13:25 14:385 15:237 16:1 #
6.575256209484368786140519444125e-08 1:98 2:1331 3:1251 4:7 5:391 6:145 7:57 8:9 9:24 10:127 11:85 12:0 13:94 14:118 15:86 16:0 #
-6.575256209484368786140519444125e-08 1:20 2:127 3:14 4:5 5:144 6:72 7:10 8:0 9:144 10:330 11:22 12:0 13:134 14:100 15:38 16:0 #
2.3580398348599163489085528996707e-08 1:24 2:149 3:207 4:8 5:0 6:6844 7:1068 8:4 9:0 10:0 11:3 12:0 13:54 14:440 15:151 16:9 #
6.575256209484368786140519444125e-08 1:276 2:1993 3:78 4:261 5:18 6:581 7:87 8:0 9:0 10:359 11:87 12:0 13:48 14:997 15:94 16:51 #
-6.575256209484368786140519444125e-08 1:0 2:150 3:0 4:0 5:0 6:75 7:0 8:0 9:0 10:244 11:0 12:0 13:0 14:194 15:0 16:0 #
-6.575256209484368786140519444125e-08 1:3 2:12 3:8 4:0 5:82 6:3 7:3 8:0 9:121 10:106 11:39 12:0 13:196 14:207 15:48 16:0 #
6.575256209484368786140519444125e-08 1:0 2:1445 3:1230 4:0 5:465 6:481 7:13 8:6 9:79 10:183 11:15 12:0 13:44 14:246 15:38 16:0 #
-6.575256209484368786140519444125e-08 1:0 2:75 3:11 4:0 5:31 6:65 7:28 8:0 9:14 10:81 11:27 12:0 13:22 14:123 15:27 16:0 #
6.575256209484368786140519444125e-08 1:36 2:1401 3:1637 4:2 5:36 6:19 7:2 8:0 9:1 10:77 11:12 12:0 13:5 14:51 15:23 16:0 #
1.8468156717524939864290652434694e-09 1:1250 2:182 3:80 4:5 5:0 6:224 7:60 8:0 9:1030 10:1379 11:202 12:14099 13:129 14:195 15:65 16:13 #
1.1891568430874502738508877901571e-08 1:216 2:319 3:86 4:1 5:7084 6:2223 7:109 8:0 9:46 10:232 11:97 12:0 13:8 14:6929 15:91 16:5 #
-6.575256209484368786140519444125e-08 1:0 2:1 3:0 4:0 5:0 6:142 7:9 8:0 9:0 10:217 11:0 12:0 13:0 14:296 15:4 16:0 #
1.3249581965311109276142442498902e-08 1:0 2:7093 3:0 4:0 5:0 6:251 7:0 8:0 9:0 10:104 11:0 12:0 13:0 14:104 15:0 16:1 #
